34 128
34 -0.058914375 0.06930339 0.19482034 0.025151787 -0.016359773 -0.028983233 -0.00286098 0.054493 0.0005666306 -0.12477141 -0.019884609 -0.16939299 0.22836776 0.08080683 -0.031930044 -0.044415127 0.02656912 -0.109408684 0.0233044 0.0018183587 -0.056429606 0.017353188 0.202898 0.067679 0.025764758 -0.013900963 -0.08017498 0.036570676 0.088339865 0.13063277 -0.02748084 -0.015822882 -0.08559291 0.03241783 -0.0034735743 -0.13443337 -0.13750975 -0.059365563 0.1110322 0.052017264 -0.26313823 0.13460737 -0.08869549 -0.2849819 0.055591192 -0.17913198 -0.22750264 0.028747497 -0.026180234 0.055488855 0.034318224 0.004820371 -0.1614393 0.094604775 0.121618345 0.07048353 0.26105666 -0.09904349 0.03220262 0.11505053 0.13405518 -0.041735757 0.13663286 0.04916113 -0.0646628 0.11572886 0.13248426 0.2679774 -0.0030026338 0.09490182 0.005117053 -0.13861272 -0.09548257 -0.15196192 -0.010341151 0.003708415 0.15372448 0.15752105 -0.020193525 -0.044885743 -0.08706818 -0.0069641876 -0.058656704 -0.015396034 -0.17168652 0.10444837 0.11687044 0.06977559 -0.12009408 0.09432259 0.008798241 0.03818471 0.09497194 -0.0054843263 -0.05320558 0.09041032 0.034297872 -0.100210145 0.029901253 0.064228445 0.051588606 -0.0067279907 0.035983693 -0.1619301 -0.007373304 0.1279078 -0.051725596 -0.04280947 -0.040456098 0.16994505 -0.17558268 0.10223513 -0.016314512 -0.34043625 0.012563138 0.12936036 0.15875301 -0.17856547 0.02401605 -0.026680266 -0.1715097 -0.020337287 0.14078113 -0.089272685 -0.2647579 0.19561143 0.23231272 -0.25729874
1 -0.15159582 -0.08777453 0.08817832 0.14211272 -0.012414214 -0.14440194 0.14267191 0.056878645 0.2461062 -0.021953518 -0.058753815 0.15417938 0.16694169 -0.15569782 0.09916295 -0.12365107 -0.06302958 -0.18932404 0.058860302 -0.0770962 0.035903636 0.09398304 0.14211331 0.020590246 -0.045598462 0.06103064 -0.10128308 0.18606892 0.16157648 0.2852122 -0.01223234 -0.06612034 -0.010254295 -0.0815271 -0.030422175 -0.1319596 -0.008984121 0.04646819 0.0032246076 0.022462428 -0.22663558 0.14055458 -0.11839917 -0.19872867 -0.118921146 -0.055429485 -0.10704867 -0.07417053 0.0766045 0.13705505 -0.046444565 -0.03248634 -0.039156944 -0.07611257 -0.053408045 0.054915003 0.254928 0.026848974 0.30125278 0.15216413 0.2563254 -0.23432414 0.06005477 0.0010205773 -0.0024818138 0.02317395 -0.088220514 0.11409786 0.15644227 0.06991415 0.033986215 -0.12920281 -0.16856493 -0.06838753 -0.11306199 0.030201703 -0.00789459 0.21401536 -0.16487889 0.022344474 -0.17587104 -0.12007736 -0.058373135 0.019049624 -0.18227318 -0.04216195 0.1321666 0.0847943 -0.095308036 0.13349286 0.16448255 0.13900737 0.0009347363 0.029453538 -0.014191164 0.11626666 0.0028531572 -0.10607158 0.04853589 -0.069019005 0.121534236 0.05207516 0.00641566 -0.037505407 0.16975051 0.12229626 -0.00979356 -0.08738086 -0.106563024 0.21013302 0.091348566 0.06378248 -0.04779515 -0.06548449 -0.16129498 0.02806508 0.08250762 -0.12135933 -0.09648047 -0.0033237946 0.19054087 -0.12811166 0.077340074 -0.04986528 -0.11009945 0.26913014 -0.08702622 -0.017417822
33 -0.06360278 0.053137943 0.19187559 0.03172065 -0.011921669 -0.03589746 0.002655402 0.06409407 0.013914731 -0.12338339 -0.018631428 -0.15600151 0.22165956 0.07221286 -0.015747637 -0.04784007 0.021174934 -0.122152515 0.034784347 -0.0049803862 -0.057372916 0.026165105 0.20313701 0.06898363 0.025329195 -0.011989129 -0.085854195 0.052771024 0.0983645 0.14516576 -0.02851773 -0.022960518 -0.07827234 0.029985063 -0.0032379325 -0.13483971 -0.13674621 -0.050188582 0.11255161 0.05415437 -0.26020515 0.12993379 -0.091720745 -0.2890907 0.048898626 -0.17184716 -0.22585095 0.017969804 -0.021653801 0.062957466 0.028563611 0.003292044 -0.16020471 0.078919575 0.11784201 0.07191108 0.26035413 -0.08533248 0.055071685 0.12717584 0.14778166 -0.04877037 0.13461177 0.05244461 -0.05991205 0.10686358 0.12324242 0.26563433 0.0064895195 0.08970533 -0.0006423711 -0.13504663 -0.09725798 -0.15776673 -0.02281082 0.0010921166 0.14972502 0.17092827 -0.024266738 -0.042057194 -0.09493296 -0.011864061 -0.06674357 -0.016493 -0.1689247 0.098183416 0.12139666 0.06261129 -0.11897007 0.092548475 0.018038906 0.03683605 0.08310032 -0.010795402 -0.05285239 0.08565141 0.034669776 -0.09361783 0.031223588 0.05535164 0.051018946 -0.0006394933 0.03013456 -0.15541321 0.008577397 0.12399023 -0.053274084 -0.040040966 -0.041379344 0.1731318 -0.16381177 0.096565545 -0.023250459 -0.33271456 0.0019185648 0.12461693 0.14771838 -0.18448575 0.0207202 -0.024442365 -0.15468353 -0.02570805 0.1311067 -0.08228364 -0.25182313 0.20360388 0.21216504 -0.2524027
3 -0.10369476 -0.008585783 0.13645856 0.073728226 -0.009723487 -0.0828909 0.062975995 0.06037295 0.11157505 -0.06377372 -0.038864754 -0.012350803 0.1882644 -0.038295537 0.032141034 -0.08619375 -0.019784797 -0.14669402 0.036367483 -0.034287024 -0.0051435945 0.051879562 0.1650227 0.04611398 -0.010847578 0.018009108 -0.08884651 0.10292327 0.11319868 0.19986023 -0.013993585 -0.041816466 -0.044400312 -0.023037337 -0.011874283 -0.1335274 -0.06789214 -0.012359526 0.06125268 0.04031108 -0.24134451 0.13409023 -0.09881153 -0.24239552 -0.022316836 -0.11908461 -0.16844688 -0.025181456 0.019146517 0.097154394 -0.008250543 -0.014009489 -0.10253938 0.011745441 0.04060022 0.05395364 0.25751707 -0.036659915 0.16170225 0.13665904 0.19125907 -0.13016555 0.098919846 0.024349708 -0.033431303 0.071625754 0.026158791 0.18672071 0.078226335 0.076913096 0.02291538 -0.13463059 -0.13310093 -0.104530215 -0.062312085 0.022521598 0.0714206 0.18189695 -0.08625331 -0.012168271 -0.12876078 -0.059979323 -0.058037315 0.0006774955 -0.1777088 0.033852953 0.124540545 0.0750524 -0.10487093 0.1140831 0.07961691 0.08806868 0.046116043 0.005726665 -0.028882291 0.10187599 0.015761819 -0.09578799 0.037653267 -0.0051203505 0.08180981 0.021843253 0.018332046 -0.10041973 0.07107907 0.11920531 -0.03457204 -0.0587463 -0.067072965 0.18135192 -0.040477917 0.07343844 -0.034210548 -0.20279521 -0.06625341 0.068115406 0.11798842 -0.14417766 -0.030775208 -0.0132877845 0.0021912088 -0.070732825 0.10522507 -0.062389877 -0.18331613 0.22630215 0.07569041 -0.13783503
2 -0.11304969 -0.01499555 0.14486228 0.08558601 -0.008131835 -0.08777662 0.074100606 0.056720115 0.12530808 -0.06413458 -0.037979756 0.0011970152 0.19623603 -0.049406312 0.03650383 -0.08916664 -0.023940494 -0.1522096 0.041264877 -0.03536699 -0.0043341694 0.063867904 0.17201059 0.039877955 -0.008360499 0.01950832 -0.096051455 0.109876454 0.12529618 0.2054172 -0.022959009 -0.04315649 -0.048879858 -0.02583473 -0.024173308 -0.14344789 -0.073537126 -0.0030539425 0.054632336 0.037943773 -0.2456008 0.13843845 -0.11078005 -0.2461364 -0.031545825 -0.11906538 -0.16880837 -0.029916223 0.030244118 0.096552275 -0.008256154 -0.015263881 -0.09820954 0.0028159101 0.038213238 0.056628022 0.26944372 -0.028471142 0.18085884 0.1480363 0.21299031 -0.14837764 0.09835767 0.026768584 -0.03419809 0.06412481 0.020366313 0.18686959 0.08498911 0.08028296 0.024736546 -0.1359508 -0.14136015 -0.10669714 -0.067949526 0.022130102 0.06833245 0.19601661 -0.09807918 -0.01220171 -0.13452813 -0.07085532 -0.05316522 0.0053820703 -0.17656219 0.021854404 0.13381782 0.0768074 -0.10662544 0.11629777 0.09184543 0.09723006 0.03769142 0.010792688 -0.030901978 0.10338304 0.010356581 -0.103768244 0.04526293 -0.006949741 0.08632341 0.031177808 0.013292908 -0.09563745 0.092838064 0.12933291 -0.03406284 -0.06636075 -0.076191984 0.18479621 -0.026867535 0.07560124 -0.040253863 -0.20027757 -0.08188494 0.06584244 0.12235585 -0.15021707 -0.041354343 -0.016611923 0.018477492 -0.08229527 0.10730138 -0.0623467 -0.18323144 0.23745947 0.060818046 -0.12509643
32 -0.07847372 0.044585213 0.19538383 0.043522894 -0.015152071 -0.04419681 0.02149688 0.059623715 0.040391207 -0.116800636 -0.030006582 -0.12798569 0.23681203 0.049016852 -0.013256911 -0.05658886 0.012498315 -0.12985967 0.036163688 -0.010718796 -0.05145428 0.034826133 0.2127362 0.062576376 0.021922484 -0.0012394923 -0.088078134 0.059933346 0.108555645 0.16053963 -0.028605083 -0.02621185 -0.08305619 0.020107942 -0.009709279 -0.14035106 -0.13232073 -0.045501966 0.105682254 0.050304897 -0.2791555 0.15079114 -0.104108594 -0.2973645 0.034624092 -0.17314288 -0.22307838 0.019244876 -0.00970588 0.067425884 0.025049934 -0.005425516 -0.15371993 0.07318912 0.099371105 0.08207583 0.27663097 -0.08297503 0.0856536 0.13593706 0.16640346 -0.072048634 0.14375617 0.0475713 -0.05333288 0.10457397 0.104789615 0.26168647 0.020083275 0.09831425 0.0051093204 -0.14244168 -0.117355056 -0.15737653 -0.025295237 0.003974421 0.14333658 0.18108124 -0.04704229 -0.03752943 -0.099022865 -0.03320478 -0.062544994 -0.012435721 -0.18430687 0.085944846 0.13252586 0.0756495 -0.120858625 0.09654654 0.022567801 0.054184657 0.084216386 -0.003374286 -0.044611573 0.096081495 0.026251527 -0.10275692 0.028718704 0.050508864 0.07011786 0.0047310963 0.03358105 -0.15460916 0.025607925 0.12527777 -0.04337468 -0.041983802 -0.052596558 0.18210104 -0.14864689 0.09723901 -0.024790654 -0.31533444 -0.0031818268 0.12019391 0.1574946 -0.18181702 0.009372849 -0.029524557 -0.1219014 -0.04360372 0.13934426 -0.091346286 -0.25728893 0.21654677 0.19427112 -0.23670676
4 -0.11834221 -0.0156026315 0.14838457 0.09126897 -0.009372952 -0.09419395 0.08052385 0.06725659 0.13572182 -0.066288464 -0.04005082 0.00872007 0.20062985 -0.05580335 0.045947313 -0.09499455 -0.028384365 -0.16562353 0.04021386 -0.042479895 -0.0021728447 0.06715789 0.17568037 0.042328436 -0.014753617 0.028251888 -0.09924932 0.12619613 0.1350068 0.2260495 -0.021126604 -0.047887426 -0.045203928 -0.028622301 -0.02503975 -0.14844172 -0.07741059 -0.0051415544 0.060799893 0.03914262 -0.25636825 0.14514682 -0.108835235 -0.2557224 -0.03574432 -0.12147642 -0.17548162 -0.035411254 0.028933195 0.10404003 -0.010650777 -0.011070989 -0.10520514 -0.0035519456 0.032045014 0.060871024 0.28284776 -0.02747781 0.1931237 0.15564905 0.2224847 -0.1588496 0.100186795 0.027607659 -0.036886755 0.072011575 0.012966951 0.1995721 0.090544805 0.085578024 0.0211698 -0.13857982 -0.14299463 -0.11272669 -0.0720679 0.023370674 0.06585729 0.20381728 -0.10603631 -0.011920453 -0.14131244 -0.06969846 -0.06337538 0.004260767 -0.19216195 0.020146655 0.14097989 0.080206566 -0.11339257 0.12683575 0.095989935 0.09747202 0.038307007 0.011125516 -0.035976734 0.10913142 0.015985962 -0.10357743 0.04360471 -0.0052972813 0.093120754 0.030807082 0.014018815 -0.09751381 0.09863162 0.13575467 -0.03155605 -0.06892098 -0.08004789 0.20024534 -0.028570341 0.081364475 -0.037435103 -0.2043434 -0.09247796 0.06920407 0.118417285 -0.15782028 -0.047782127 -0.015569588 0.032307062 -0.08643437 0.11395727 -0.070369914 -0.18507054 0.25244248 0.059384413 -0.13309191
14 -0.101723716 -0.024213322 0.12643482 0.08001247 -0.01013428 -0.084492475 0.07852322 0.05605543 0.13573518 -0.057174657 -0.037875034 0.018282836 0.17736855 -0.054768253 0.041101888 -0.08597076 -0.02141464 -0.14929633 0.039394524 -0.043168444 -0.0061732666 0.06365351 0.1561219 0.034264084 -0.010763046 0.022818908 -0.08750057 0.11553267 0.11918974 0.2006624 -0.017556071 -0.046613816 -0.042454254 -0.030613473 -0.02184155 -0.12700297 -0.06341076 0.00111255 0.05001093 0.03010583 -0.23628227 0.13223718 -0.099319294 -0.22554582 -0.041680656 -0.10634744 -0.1490924 -0.03128943 0.031975623 0.097551614 -0.015450161 -0.013070111 -0.08667289 -0.007959805 0.019711528 0.057969905 0.24988781 -0.022116033 0.1802322 0.14096212 0.20643832 -0.15194508 0.092899084 0.02236734 -0.026035476 0.057732556 0.0043638656 0.16919352 0.08471939 0.0775857 0.02465807 -0.12294568 -0.13622786 -0.098476745 -0.07060622 0.016468374 0.05364466 0.18836284 -0.10071611 -0.009684257 -0.13265482 -0.072200455 -0.053553756 0.0082326615 -0.16952741 0.020691 0.12236156 0.07581874 -0.10386531 0.11045029 0.090180084 0.090010025 0.038912483 0.00847353 -0.030827641 0.09739115 0.012655908 -0.094476834 0.039041843 -0.013352694 0.0909011 0.028710036 0.017779777 -0.08795134 0.08773857 0.11751991 -0.021385724 -0.058898438 -0.076114625 0.17945983 -0.018257422 0.07637932 -0.029123109 -0.1726864 -0.08525072 0.05910451 0.107902266 -0.14035176 -0.048867892 -0.012991999 0.041338492 -0.081251204 0.09947364 -0.064823456 -0.16790277 0.23116463 0.046953917 -0.11513023
24 -0.06917401 0.056175347 0.19194064 0.027565513 -0.014566135 -0.036087997 0.011499648 0.061192073 0.016283259 -0.11383178 -0.020245131 -0.14830321 0.23118249 0.067543864 -0.02359708 -0.05087794 0.021855371 -0.119540535 0.03231398 -0.0034219509 -0.054870866 0.02393634 0.20594606 0.06795586 0.021590786 -0.0074861418 -0.08219315 0.047508024 0.09157808 0.14385238 -0.033131786 -0.025166323 -0.08679065 0.03083504 -0.007905424 -0.1402684 -0.13365126 -0.05560586 0.11133809 0.048914965 -0.26521856 0.14122927 -0.093807645 -0.28916302 0.04754688 -0.17257892 -0.21975273 0.027366439 -0.024538249 0.06130933 0.031326756 0.0011078635 -0.1531816 0.08314403 0.11655404 0.07491973 0.26271752 -0.087137274 0.05250148 0.120354846 0.14691927 -0.05290659 0.13597855 0.046919066 -0.059113573 0.10994654 0.11638555 0.26272845 0.007764915 0.092674434 0.0019855716 -0.14117843 -0.099669814 -0.15109323 -0.020383947 0.004859402 0.14439175 0.16739541 -0.03543287 -0.037457295 -0.09436068 -0.020885272 -0.064741015 -0.017569128 -0.17250755 0.09343364 0.12201792 0.067789905 -0.12192917 0.095884226 0.013385306 0.03990844 0.08704128 -0.002591122 -0.04411502 0.09068126 0.026581874 -0.09489794 0.029620355 0.057851594 0.05579484 0.0022389782 0.027397905 -0.15521805 0.0037325928 0.12073298 -0.043064147 -0.041119754 -0.045876063 0.16688132 -0.16238475 0.09796359 -0.016667247 -0.3190859 0.012144979 0.119814314 0.15366642 -0.17710768 0.0130047025 -0.026039783 -0.14592014 -0.02754344 0.13250683 -0.08155707 -0.25663352 0.19786602 0.21191725 -0.24708258
7 -0.17500715 -0.12893581 0.058800507 0.17695233 -0.02521352 -0.17133744 0.18986945 0.048629805 0.32216662 1.3679994e-05 -0.0718736 0.24348406 0.17274877 -0.21818359 0.14049847 -0.1488536 -0.091221765 -0.22499208 0.07712041 -0.09687559 0.0653708 0.1169345 0.13996793 0.015027304 -0.058931634 0.079300866 -0.10903251 0.22961 0.18924174 0.33321333 -0.016161058 -0.08559703 0.0032107218 -0.12184069 -0.030282773 -0.12549336 0.012183796 0.07273995 -0.0274445 0.007365722 -0.23272553 0.15620613 -0.13170062 -0.18956684 -0.17301193 -0.028607447 -0.072664194 -0.092872396 0.11224685 0.1564829 -0.07282336 -0.043814864 -0.021133529 -0.11703344 -0.10297343 0.06468553 0.25901937 0.067894526 0.38312504 0.16740258 0.29663086 -0.29097787 0.05501237 -0.013049098 0.020817056 -0.007976691 -0.14328471 0.081644185 0.19436574 0.05975372 0.043103434 -0.12750939 -0.18704374 -0.058807366 -0.14370017 0.03329834 -0.047713082 0.22804053 -0.20711467 0.031735327 -0.20505452 -0.15608081 -0.07163662 0.030987443 -0.18196549 -0.070440836 0.13208626 0.09470139 -0.09025977 0.13433552 0.20581736 0.15421642 -0.012047865 0.04370715 -0.00088449754 0.11370398 -0.012086794 -0.1125126 0.050242614 -0.09659579 0.14863998 0.07363332 -0.0017253743 -0.014030559 0.21704708 0.11626613 0.012160826 -0.09686736 -0.11993114 0.23005725 0.15406488 0.062492475 -0.042071827 0.0017760695 -0.20005052 0.01147193 0.074622735 -0.103632495 -0.13568959 -0.0043836487 0.29409555 -0.15226209 0.06919991 -0.045916073 -0.08519205 0.29514018 -0.16843835 0.03636478
9 -0.10459076 -0.013524396 0.13025796 0.075082056 -0.013205204 -0.07726901 0.0665364 0.053920776 0.119636275 -0.06668963 -0.03715254 -0.0018204115 0.18382919 -0.03726793 0.03487761 -0.07671139 -0.01929901 -0.13969523 0.042298995 -0.037248347 -0.0060219015 0.05325421 0.16258402 0.04322058 -0.004857439 0.024412027 -0.08740135 0.1030218 0.111921266 0.19074705 -0.019352652 -0.041431163 -0.048823383 -0.02823929 -0.015615507 -0.12718448 -0.0727877 -0.0077233715 0.049328342 0.037445985 -0.2294385 0.12925123 -0.10263695 -0.22855136 -0.03323685 -0.107188426 -0.15311837 -0.021758566 0.023538064 0.08853021 -0.009671339 -0.014307947 -0.09368976 0.002451209 0.03245988 0.06275973 0.24440816 -0.027232472 0.16533339 0.13348037 0.18943797 -0.12996118 0.095561944 0.022854926 -0.033060875 0.059842102 0.021891126 0.17699692 0.07350644 0.07883075 0.020028064 -0.12333154 -0.12738642 -0.10708294 -0.060570195 0.014694434 0.06620979 0.17441775 -0.09371956 -0.010511558 -0.12576053 -0.060209174 -0.054629 0.006185159 -0.16102956 0.023618735 0.118986234 0.06891191 -0.098380886 0.10503886 0.078369245 0.08377331 0.04003358 0.009872448 -0.028068673 0.09547591 0.011227475 -0.095015496 0.036573794 -0.0041017327 0.08248704 0.02807987 0.014740151 -0.08881735 0.076869264 0.11149771 -0.023912637 -0.05515969 -0.06459458 0.17198932 -0.033614162 0.07420422 -0.031359978 -0.18366806 -0.065957904 0.06371883 0.111511484 -0.14233765 -0.036183674 -0.014046494 0.02077472 -0.07564866 0.09571218 -0.064238235 -0.1760195 0.21238646 0.06147428 -0.12617011
28 -0.09384123 0.023019804 0.17066778 0.0589664 -0.011607869 -0.064184174 0.041707844 0.06172491 0.076806635 -0.09711975 -0.037772667 -0.07834 0.22049692 0.01422743 0.007843823 -0.066089384 0.0026637563 -0.1365613 0.036769267 -0.022611832 -0.03441288 0.04515916 0.19413412 0.054119155 0.007817055 0.0057527977 -0.09073657 0.08500814 0.11780259 0.1805272 -0.029016795 -0.03458864 -0.06790204 0.004294361 -0.010583993 -0.14164738 -0.108581305 -0.03225712 0.08833657 0.04538919 -0.26002303 0.14299385 -0.099749275 -0.27001137 0.010887888 -0.14821152 -0.19643995 0.0033029262 0.0030104995 0.08097239 0.010469494 -0.004098403 -0.12668625 0.045814887 0.07270236 0.07001368 0.2718718 -0.06509585 0.121053785 0.13444224 0.18509324 -0.1020302 0.12603052 0.035562016 -0.050670613 0.086961955 0.07110412 0.22794451 0.04651681 0.08630291 0.013536478 -0.14237557 -0.12270822 -0.1352594 -0.04463989 0.013598524 0.111317664 0.182022 -0.070081696 -0.026893644 -0.11248135 -0.043778338 -0.056640465 -0.005619432 -0.18584815 0.06136054 0.13042231 0.07261862 -0.119171865 0.11006509 0.054840107 0.06965225 0.061315354 0.004525127 -0.044199444 0.09965045 0.019592179 -0.10349648 0.03670001 0.02465838 0.07613146 0.01485805 0.025613835 -0.13304237 0.050013557 0.1269346 -0.03835367 -0.05391706 -0.06639713 0.18301217 -0.09854573 0.09240406 -0.028957931 -0.2651646 -0.039196193 0.0948864 0.14076407 -0.16999237 -0.013651337 -0.020295603 -0.063691795 -0.060194977 0.1254941 -0.07703572 -0.22491337 0.22442238 0.13836032 -0.19366944
6 -0.18395993 -0.14399114 0.066900566 0.18541345 -0.021916943 -0.18723823 0.20176373 0.05336672 0.34547696 -0.0072120884 -0.078162506 0.25399023 0.18887492 -0.2235536 0.15057765 -0.15999192 -0.094626114 -0.24492925 0.078307845 -0.09882777 0.06047952 0.12189738 0.1544225 0.01058832 -0.061355405 0.08842275 -0.12203112 0.24354024 0.2050186 0.3609798 -0.023540894 -0.095616125 0.00018889239 -0.12976183 -0.035610482 -0.13483392 0.014394372 0.07502904 -0.031090084 0.010900966 -0.25025058 0.16927262 -0.13970238 -0.19576173 -0.18288165 -0.027793344 -0.08019599 -0.10012746 0.12025965 0.16763516 -0.078785725 -0.04406929 -0.018910736 -0.12140233 -0.10135358 0.069289476 0.27232862 0.07543609 0.41105643 0.1813709 0.3165034 -0.30796033 0.063007414 -0.008817505 0.021351002 -0.010263369 -0.15597022 0.083224796 0.20626062 0.07096471 0.048577525 -0.13720255 -0.19934633 -0.06712563 -0.15249205 0.036615256 -0.046664707 0.24309455 -0.2196805 0.038073298 -0.2192161 -0.16676724 -0.074635655 0.02743887 -0.18752095 -0.07688487 0.14074846 0.098099634 -0.0992427 0.14145386 0.21633305 0.1672219 -0.010976268 0.044517025 8.425839e-05 0.12661892 -0.010260263 -0.12561317 0.05364385 -0.10405067 0.16019583 0.07318551 -0.0034255846 -0.011648655 0.23224217 0.1246004 0.0077792085 -0.10518371 -0.12921928 0.24851672 0.15767585 0.06589189 -0.045789894 0.0007087298 -0.21710935 0.016511036 0.08335971 -0.108874455 -0.14798532 0.0008835107 0.31230524 -0.16425706 0.075719446 -0.048268367 -0.09385498 0.31581008 -0.17550766 0.037129704
30 -0.085560255 0.038324352 0.1938171 0.05040424 -0.014920667 -0.052779417 0.028050816 0.06487701 0.059160464 -0.11510592 -0.026105862 -0.117995225 0.24057324 0.043465745 -0.009035511 -0.064226985 0.011908042 -0.14051579 0.040193874 -0.011811908 -0.049523495 0.036088835 0.21333684 0.0635491 0.018846132 0.0003391538 -0.09714876 0.07567945 0.11052714 0.17395191 -0.030491436 -0.0305616 -0.083648436 0.014363569 -0.010520106 -0.14905652 -0.13045043 -0.041423153 0.101038955 0.046271693 -0.27501404 0.14604726 -0.10417594 -0.30068097 0.02641282 -0.16434939 -0.22001363 0.013366898 -0.009634598 0.07357212 0.019211305 -0.005910021 -0.15267389 0.0669805 0.094960764 0.07504411 0.2855348 -0.08146731 0.093092315 0.13620526 0.17997037 -0.08279777 0.14019012 0.044337507 -0.0553139 0.104165 0.09886098 0.2641045 0.029731475 0.098736145 0.006777158 -0.15027419 -0.12235976 -0.15305078 -0.030547451 0.0050567803 0.13856938 0.19070214 -0.057553954 -0.036405593 -0.11747937 -0.03667962 -0.06629652 -0.009139179 -0.18983892 0.08035245 0.13489443 0.07635063 -0.12675865 0.11008319 0.04228549 0.062992625 0.083233915 0.0028927044 -0.043375272 0.10267483 0.03074885 -0.10949108 0.036317386 0.044900633 0.068874754 0.0089112 0.025489366 -0.14910306 0.033402935 0.13326214 -0.04792647 -0.05444804 -0.060659155 0.18562719 -0.13829316 0.10440158 -0.025061514 -0.31318542 -0.018175678 0.12077129 0.15892938 -0.18796837 -0.0018830573 -0.021647576 -0.103584476 -0.04580165 0.13497055 -0.09057106 -0.25725412 0.2208981 0.18219188 -0.23506278
8 -0.13169229 -0.05818523 0.11287488 0.1167217 -0.01801291 -0.12251548 0.111970946 0.057131175 0.19921023 -0.043183118 -0.055417635 0.082946464 0.18382801 -0.10363962 0.06998474 -0.112807855 -0.039982293 -0.1793555 0.05234056 -0.061545655 0.018914657 0.0855649 0.1559918 0.02953706 -0.032405276 0.046291284 -0.09415175 0.15754302 0.14592426 0.25306302 -0.022909282 -0.06219253 -0.032335177 -0.054125007 -0.02777627 -0.13164333 -0.037890512 0.022663293 0.02758387 0.029897925 -0.24299563 0.14460821 -0.11132773 -0.21733503 -0.082682416 -0.08469152 -0.1335665 -0.047968037 0.055754367 0.11788014 -0.035758816 -0.022168072 -0.0755328 -0.044424195 -0.01041176 0.059612677 0.26406327 0.0076452335 0.24979457 0.15228923 0.2359584 -0.19801165 0.083084635 0.015250299 -0.014323579 0.034856025 -0.046960462 0.15190756 0.12279059 0.074083365 0.028316144 -0.13479812 -0.16107304 -0.08946796 -0.097359665 0.027825866 0.021032713 0.20529836 -0.13334055 0.004861788 -0.15938497 -0.100825354 -0.05992667 0.014296514 -0.18449879 -0.010413117 0.13475746 0.08381826 -0.09916728 0.1299952 0.13486637 0.12188746 0.018513385 0.019516436 -0.02627419 0.10993094 0.0039972644 -0.10838619 0.04489 -0.03689578 0.10977559 0.046003304 0.010583205 -0.06611681 0.13336988 0.12165156 -0.019849349 -0.08052093 -0.09349376 0.20535535 0.03384023 0.07024262 -0.04432742 -0.12100199 -0.12770608 0.0451846 0.10198648 -0.13400482 -0.077135935 -0.008580506 0.11960389 -0.10778792 0.09251097 -0.051683687 -0.13974263 0.25657007 -0.021851297 -0.07056246
5 -0.16728479 -0.12765187 0.05483039 0.17438027 -0.021977574 -0.17234877 0.18069708 0.045946274 0.3167405 -0.0010050549 -0.07195871 0.23788062 0.16215622 -0.2110191 0.13627166 -0.14635035 -0.084523484 -0.2217043 0.07170138 -0.093454525 0.060864985 0.11490114 0.13443762 0.012567237 -0.055337 0.080205515 -0.10949517 0.22500779 0.18506703 0.32897574 -0.01591527 -0.08432731 0.00068564963 -0.120387234 -0.03035675 -0.12411782 0.015886225 0.07538938 -0.027409598 0.01142074 -0.23321444 0.15630345 -0.12901951 -0.18684773 -0.17274295 -0.024903674 -0.078210875 -0.09404404 0.10851351 0.16050588 -0.07140668 -0.04040327 -0.02168358 -0.11185883 -0.09932288 0.06483537 0.25114366 0.06475863 0.3818509 0.1622429 0.2906126 -0.2848784 0.056442894 -0.008042302 0.017194536 -0.010653456 -0.14236519 0.078538105 0.18757309 0.05945161 0.04601034 -0.12864816 -0.18416771 -0.060060736 -0.14189224 0.032567147 -0.04874577 0.22793582 -0.20598598 0.03653441 -0.20467912 -0.15059504 -0.06448887 0.02979009 -0.1788825 -0.069434874 0.12889504 0.09394053 -0.09215641 0.1386202 0.20668493 0.15582767 -0.009277749 0.046000127 -0.0018602528 0.118820824 -0.011467752 -0.11415867 0.05254913 -0.09888272 0.14733407 0.07271415 -0.0025593978 -0.007820805 0.21245866 0.11540523 0.0077384287 -0.092810474 -0.120659836 0.22737035 0.14929272 0.0623277 -0.04481478 0.0073302886 -0.20195813 0.012210707 0.074987814 -0.100836895 -0.13747932 -0.0038600771 0.29063645 -0.153931 0.06555604 -0.0420513 -0.07825371 0.28584865 -0.16645819 0.042385377
25 -0.07887241 0.049399965 0.2003967 0.044989806 -0.009926728 -0.045919336 0.02870025 0.05587506 0.042014174 -0.11722792 -0.028781412 -0.13073556 0.23855117 0.05018656 -0.00842705 -0.053910382 0.015959905 -0.122847795 0.031350356 -0.009359515 -0.055064473 0.038495746 0.2114246 0.057116657 0.016476348 -0.0068781516 -0.0925 0.055351622 0.10489243 0.15987314 -0.031176789 -0.02853214 -0.082461484 0.020308444 -0.014310396 -0.14891136 -0.13417129 -0.050298084 0.104305275 0.047946382 -0.2709649 0.14401653 -0.102041736 -0.29126614 0.04002368 -0.17558771 -0.21645023 0.01447651 -0.017268958 0.067729235 0.021501306 -0.0061887666 -0.1525477 0.070826136 0.107140936 0.07660501 0.2776536 -0.08482997 0.07707776 0.13912693 0.17317908 -0.0728384 0.14378911 0.049054496 -0.0638108 0.10821151 0.108158305 0.2592234 0.018713411 0.0952206 0.0104579935 -0.14193298 -0.11796946 -0.15082628 -0.024105147 0.006276479 0.13886234 0.18504065 -0.047425486 -0.030590378 -0.101887666 -0.029096914 -0.05542452 -0.011288426 -0.18702045 0.088862374 0.13327603 0.0729209 -0.12899894 0.10838327 0.022061031 0.057298336 0.07649855 -0.003927196 -0.04948181 0.1059145 0.027030282 -0.101121634 0.033059824 0.043976076 0.0711405 0.0037367318 0.02293592 -0.15329422 0.030826613 0.13553114 -0.039307464 -0.046592735 -0.061830938 0.1779825 -0.14325254 0.09852974 -0.027111717 -0.32196605 -0.009410536 0.1173461 0.15513705 -0.18499124 0.0063149105 -0.02612404 -0.12843227 -0.041868094 0.13727179 -0.091555156 -0.25444368 0.21765189 0.19405854 -0.24005958
29 -0.09202463 0.009049711 0.16404577 0.061573625 -0.018874655 -0.06605979 0.050475564 0.058256693 0.086572036 -0.094910994 -0.034326278 -0.058086433 0.21677987 0.0017756646 0.01714259 -0.06968901 -0.0032658032 -0.1396516 0.035901126 -0.023828682 -0.030725688 0.04650342 0.19103792 0.049108084 0.004451256 0.009590586 -0.085967645 0.08792184 0.114305936 0.1799658 -0.026634134 -0.037734434 -0.06040972 -0.0039019869 -0.012373685 -0.12909006 -0.09742931 -0.021842524 0.07401463 0.037655193 -0.24500524 0.13286471 -0.095831655 -0.25510287 0.0029047846 -0.1340276 -0.18371193 -0.005164925 0.005522291 0.07929127 0.0057477886 -0.008459269 -0.11866893 0.039632134 0.06577846 0.072735004 0.25231522 -0.0556366 0.12334492 0.12705386 0.1781302 -0.102425225 0.116311036 0.03834199 -0.03930084 0.08257144 0.060838893 0.21410793 0.050311506 0.08729087 0.015261143 -0.13115144 -0.12059519 -0.1279058 -0.041369587 0.009400476 0.10054479 0.17715642 -0.06816191 -0.019157303 -0.111603335 -0.04641332 -0.060620513 -0.008563018 -0.16969557 0.05632272 0.11884801 0.06917601 -0.11338891 0.10118732 0.05392154 0.06669776 0.06298157 0.0058664973 -0.03587949 0.096560016 0.023860672 -0.09938246 0.036856502 0.021675987 0.077329904 0.013731866 0.021930475 -0.11762888 0.05578064 0.117525965 -0.029894274 -0.052191783 -0.064158 0.17745726 -0.09193901 0.08779682 -0.029145192 -0.24547906 -0.03982591 0.09563038 0.13339451 -0.1595567 -0.012871984 -0.019538056 -0.050043005 -0.052042574 0.11973137 -0.07757058 -0.20911592 0.21231359 0.12322535 -0.17913722
20 -0.098587975 -0.007742206 0.1374218 0.07282501 -0.011225764 -0.07706768 0.059812527 0.060963005 0.10706965 -0.07264675 -0.038257457 -0.017401895 0.19204056 -0.025136765 0.029660646 -0.07662747 -0.015592828 -0.14710519 0.03827544 -0.036949735 -0.017778035 0.055113103 0.16579193 0.044380326 -0.0064485655 0.024135342 -0.08616348 0.10159356 0.11976118 0.1948833 -0.020028261 -0.043993387 -0.051136363 -0.023466032 -0.014317427 -0.122502014 -0.07324206 -0.0069543067 0.05736448 0.0325621 -0.23600945 0.13227488 -0.09733353 -0.23993364 -0.026937693 -0.11285003 -0.1670059 -0.014995922 0.01752066 0.08721004 -0.0013430226 -0.009531497 -0.10015265 0.013902787 0.041838735 0.059656434 0.24575414 -0.030387538 0.15465876 0.12996875 0.1854146 -0.12714244 0.09903044 0.031064522 -0.035438143 0.0653452 0.030775942 0.19297078 0.066706166 0.07544003 0.021027766 -0.12926663 -0.12777609 -0.113590226 -0.057327945 0.014615093 0.07740739 0.17755044 -0.08781825 -0.012211555 -0.124446504 -0.05979354 -0.061280664 -0.0020026423 -0.17091005 0.032111175 0.12307891 0.069045976 -0.10130778 0.101444855 0.07463073 0.08154344 0.049659416 0.010332797 -0.03404313 0.09660029 0.020034255 -0.09764053 0.040490557 0.0026346787 0.080813445 0.019215027 0.022069542 -0.09633727 0.07598784 0.11571044 -0.030036602 -0.061200667 -0.06304973 0.17845398 -0.04967589 0.08326532 -0.03128026 -0.20390908 -0.067022316 0.07583547 0.11825439 -0.14838004 -0.030957906 -0.0129789235 0.0045398604 -0.07273671 0.10083008 -0.06412069 -0.18098353 0.22115047 0.07863444 -0.13614954
31 -0.09991811 0.0050009545 0.1528601 0.067114085 -0.011095691 -0.07107219 0.051957905 0.062224876 0.09817994 -0.08451528 -0.03694344 -0.037778847 0.20611213 -0.016413214 0.021708667 -0.07584489 -0.012768432 -0.14978418 0.041277926 -0.028676517 -0.015458481 0.045687336 0.17695989 0.053966943 0.0011108228 0.017466262 -0.09150219 0.09497578 0.120156266 0.19254282 -0.0178565 -0.03716557 -0.06046663 -0.017480474 -0.014006422 -0.13497916 -0.09276481 -0.018839365 0.06974749 0.041390017 -0.25757566 0.14160855 -0.10171142 -0.26469097 -0.013899473 -0.13199496 -0.18710624 -0.01650462 0.014194929 0.09391162 0.0037777664 -0.010516068 -0.12107922 0.023348155 0.058022287 0.06527396 0.26687524 -0.043202158 0.14527155 0.13795851 0.19319193 -0.124396 0.11465073 0.036092 -0.035294145 0.08228471 0.049997814 0.21227834 0.06117024 0.08260436 0.019331185 -0.13535996 -0.1283993 -0.12483036 -0.053703927 0.01412781 0.09554451 0.18634216 -0.07582286 -0.02112603 -0.12079148 -0.055933002 -0.06632126 -0.0036733192 -0.18201923 0.046834312 0.1305945 0.07543074 -0.109457485 0.10570644 0.07394896 0.07810724 0.060705014 0.007356984 -0.034557503 0.09899848 0.018376403 -0.09994246 0.03590373 0.011494379 0.079735376 0.01708064 0.025648521 -0.116079904 0.064679265 0.12741184 -0.036056735 -0.05559576 -0.06630467 0.18640526 -0.07378084 0.08982435 -0.028130118 -0.23578413 -0.054726124 0.08638707 0.13166063 -0.15806599 -0.025093626 -0.01753899 -0.027280448 -0.062258754 0.11510971 -0.0761979 -0.20807475 0.2292344 0.1034812 -0.16757216
11 -0.17920282 -0.1259833 0.08072382 0.16803405 -0.025114248 -0.17533879 0.18113448 0.051384747 0.31099984 -0.013243401 -0.0742657 0.2228629 0.18276738 -0.20257942 0.12642919 -0.15105616 -0.079457045 -0.22542728 0.0714498 -0.09315183 0.058392413 0.11812286 0.14658032 0.011879726 -0.061618138 0.08004608 -0.11154202 0.22562017 0.18947266 0.3303221 -0.018433215 -0.08690971 -0.0038070176 -0.10918448 -0.029632008 -0.13875873 0.005659312 0.06898029 -0.020367196 0.01974193 -0.24564424 0.16020775 -0.1321839 -0.19802141 -0.16103093 -0.040703125 -0.08904904 -0.08730226 0.105052255 0.16117857 -0.06458428 -0.03850263 -0.03179342 -0.110380515 -0.08594296 0.06575624 0.27219146 0.056583352 0.37660232 0.17543605 0.30010656 -0.28528902 0.061333776 -0.0026267301 0.0059657055 0.005770284 -0.13296966 0.09443329 0.18868427 0.07242066 0.048165854 -0.13226017 -0.18972352 -0.06308427 -0.14130868 0.033071462 -0.037656322 0.23820613 -0.2037009 0.035416614 -0.20349199 -0.15394503 -0.06870072 0.029084167 -0.1914803 -0.06510063 0.14499953 0.097707674 -0.10286452 0.14685114 0.20336688 0.16375506 -0.010965516 0.041894507 -0.00777996 0.12828067 -0.00798937 -0.113892324 0.052494843 -0.08832108 0.14877623 0.07034797 -0.0018406365 -0.024218926 0.21464323 0.1238818 0.00065337645 -0.09959299 -0.12484441 0.23153412 0.13664906 0.068281814 -0.051034138 -0.021330433 -0.20004308 0.015911736 0.08752792 -0.11808344 -0.13140702 -0.0042344984 0.26779315 -0.15153775 0.071820036 -0.044145443 -0.09434485 0.2961584 -0.14685994 0.015230422
26 -0.074013405 0.050982878 0.19972144 0.044886123 -0.01758714 -0.046373315 0.020711187 0.059035193 0.040638115 -0.11475569 -0.03178828 -0.13746029 0.23952398 0.057243917 -0.015932405 -0.054007825 0.01873186 -0.1311257 0.030897917 -0.0035761641 -0.053332068 0.03484867 0.2124457 0.06926236 0.02113554 -0.009530238 -0.08391996 0.057675697 0.10555361 0.15648454 -0.03450626 -0.03154023 -0.08491651 0.023486998 -0.0123318555 -0.1459204 -0.12998137 -0.048476715 0.111192286 0.048017424 -0.2761073 0.14714625 -0.10204557 -0.2953486 0.033927016 -0.17270547 -0.22708121 0.021096451 -0.011929695 0.0694321 0.021703802 -0.0024983976 -0.1544119 0.074761815 0.10928805 0.078524895 0.28107187 -0.08513288 0.07919516 0.12957191 0.16961218 -0.068681106 0.14234519 0.051161956 -0.058823686 0.10319251 0.10575504 0.25908375 0.017045768 0.09966246 0.006776929 -0.13895515 -0.1130447 -0.15917976 -0.029280629 0.0047071846 0.14109622 0.18248262 -0.04322081 -0.03305178 -0.10424461 -0.031259745 -0.059797067 -0.011564422 -0.18713772 0.087205954 0.13181262 0.07174755 -0.12506972 0.10661533 0.024768323 0.0519233 0.08908943 -0.0011914729 -0.049326718 0.1012507 0.031822294 -0.10064449 0.029138517 0.046303026 0.06633503 0.004674196 0.028982308 -0.1601131 0.022905968 0.12918913 -0.045375254 -0.049186125 -0.057366386 0.17771591 -0.14632581 0.09703875 -0.024475137 -0.3237023 -0.00790448 0.11535084 0.16073759 -0.17881367 0.012279602 -0.029110905 -0.1329595 -0.03456315 0.14205281 -0.0837405 -0.25350437 0.21925066 0.19680029 -0.2387902
17 -0.15178755 -0.10140083 0.07796214 0.14815351 -0.02118994 -0.14243767 0.15590894 0.048817556 0.26581603 -0.019071283 -0.057711728 0.17540331 0.16799733 -0.164354 0.10811398 -0.12923227 -0.065647855 -0.19857028 0.06081518 -0.08227376 0.040984485 0.0998376 0.14194715 0.01803947 -0.04528986 0.060584366 -0.10434501 0.19252132 0.16886169 0.28891888 -0.01780138 -0.07231932 -0.012697347 -0.094162114 -0.024296787 -0.123223916 -0.004789279 0.0518676 -0.00965977 0.012543292 -0.23144612 0.14716625 -0.120033935 -0.19290835 -0.13186505 -0.0472291 -0.09658714 -0.070750795 0.09014312 0.14230342 -0.052298166 -0.03645673 -0.03577792 -0.08511288 -0.06824674 0.06511043 0.24675518 0.04303396 0.31742123 0.15251748 0.25994232 -0.24333824 0.06329098 0.00203455 0.00787756 0.0096998215 -0.10051679 0.103896946 0.15544704 0.06915718 0.04094649 -0.12122009 -0.1667666 -0.0691056 -0.11414031 0.027746925 -0.017884761 0.20474328 -0.17517334 0.020759821 -0.18023208 -0.13146743 -0.061185837 0.02401691 -0.17109999 -0.048967555 0.13096635 0.088443175 -0.090156004 0.12071894 0.16807406 0.13841514 0.0015807343 0.02916617 -0.0073479605 0.106231965 -0.0028362337 -0.110834405 0.05087048 -0.07340442 0.12828404 0.05790795 0.0061490536 -0.032169227 0.17955661 0.116256006 0.0022674806 -0.08414494 -0.10575552 0.2102508 0.097402215 0.06559887 -0.03932658 -0.050127957 -0.16477259 0.026381591 0.08577538 -0.10922499 -0.11068111 -0.0072249793 0.21953695 -0.1307655 0.0754402 -0.050755743 -0.11155767 0.26438534 -0.09997789 -0.006499894
27 -0.08100903 0.034898736 0.18138309 0.053433433 -0.02017993 -0.05233342 0.03288789 0.05663475 0.05754107 -0.10792217 -0.0289813 -0.09544765 0.22551973 0.030897975 0.0032991092 -0.060899373 0.00853361 -0.13920386 0.039429404 -0.014196589 -0.041921277 0.037417546 0.20240049 0.061969858 0.011808712 -0.0011082669 -0.0880917 0.075795196 0.11391341 0.16978747 -0.032473028 -0.035079673 -0.07067219 0.009970296 -0.006815975 -0.1415499 -0.11958515 -0.03329177 0.0935455 0.04698246 -0.26292667 0.1426083 -0.097358435 -0.28253207 0.021732388 -0.154531 -0.20523448 0.005474828 -0.006236725 0.07425361 0.015697936 -0.006140665 -0.13957806 0.05772428 0.08916153 0.070672505 0.27145556 -0.070089504 0.099738955 0.13318096 0.17577828 -0.088652745 0.13221994 0.041180585 -0.047907185 0.09434269 0.08311467 0.24816455 0.037475627 0.0935247 0.013313323 -0.14048158 -0.11655056 -0.14426598 -0.035101537 0.0073813787 0.12611577 0.18450172 -0.05439356 -0.027980676 -0.11049961 -0.031766225 -0.06693667 -0.009739745 -0.18287168 0.07718667 0.12971649 0.074705884 -0.121606484 0.105228364 0.040768027 0.06140688 0.07399894 0.004025274 -0.043587405 0.09737135 0.02745966 -0.10491017 0.030649984 0.03837606 0.071482785 0.012133626 0.026641335 -0.13491206 0.03921766 0.12985505 -0.041377213 -0.054309726 -0.05758087 0.1831366 -0.123876914 0.09498469 -0.028456556 -0.2885665 -0.021417893 0.11009309 0.14479212 -0.17463596 -0.00677408 -0.020043729 -0.09233587 -0.04296553 0.1288428 -0.07782997 -0.2390163 0.21802661 0.16632862 -0.2172811
19 -0.09225978 0.03622198 0.17877722 0.055375416 -0.011133522 -0.058996428 0.029576354 0.06385505 0.061018635 -0.10476235 -0.026571989 -0.100402065 0.22454675 0.026379718 0.0024079466 -0.06812007 0.006046596 -0.13579996 0.038324796 -0.019171866 -0.037800644 0.0388687 0.2025021 0.06263781 0.014255951 0.003671007 -0.09056918 0.072973035 0.10973145 0.1735396 -0.030212373 -0.03244619 -0.07113257 0.0091483 -0.008618758 -0.14899187 -0.11830668 -0.041408267 0.09482621 0.049456257 -0.27031544 0.15046833 -0.100437485 -0.29212207 0.022038143 -0.16242385 -0.20868696 0.0045778058 -0.0025253186 0.07887735 0.013721859 -0.008714122 -0.14421742 0.059312418 0.09179317 0.07431658 0.27663675 -0.07106832 0.1048602 0.13962528 0.18372437 -0.09307015 0.13402924 0.04581832 -0.0489664 0.09626311 0.08965899 0.25130776 0.035120606 0.09136672 0.0118352305 -0.14295125 -0.120586775 -0.14621077 -0.038338706 0.00925846 0.123361126 0.18707989 -0.06384214 -0.031430956 -0.115561485 -0.036263652 -0.062929876 -0.009117382 -0.18269646 0.07105484 0.13025273 0.072737895 -0.11982704 0.11051319 0.046080034 0.06517189 0.0733876 0.0014525747 -0.043368164 0.097052656 0.026042081 -0.10596105 0.037063878 0.03466907 0.07571307 0.009940924 0.025879623 -0.14020106 0.03863547 0.12865658 -0.045238603 -0.05005956 -0.063104264 0.18529141 -0.12204734 0.0962971 -0.025267478 -0.296225 -0.02476948 0.11009287 0.14699039 -0.17971139 -0.007038571 -0.021255221 -0.09109663 -0.050817054 0.12723537 -0.08504194 -0.24451298 0.22762614 0.16361581 -0.21746226
10 -0.09146151 -0.0040218127 0.14429556 0.06972726 -0.0070852395 -0.07129706 0.054063056 0.058962174 0.09846448 -0.077571236 -0.03483615 -0.032312896 0.18686336 -0.018100701 0.02716114 -0.076995715 -0.010793579 -0.13884634 0.03677787 -0.029629754 -0.020419845 0.045329645 0.16459024 0.048211265 0.00028054533 0.013875594 -0.08195723 0.095080845 0.1141846 0.18371278 -0.023631796 -0.034324598 -0.051938094 -0.016845241 -0.019232213 -0.1244548 -0.08411721 -0.010941733 0.06168272 0.033366997 -0.23421818 0.12793207 -0.09906743 -0.23939054 -0.012201456 -0.11809683 -0.17177871 -0.018718667 0.016835326 0.08635852 -0.004478104 -0.012316551 -0.10570345 0.017001089 0.045601707 0.0629619 0.24815796 -0.036917128 0.14637029 0.13314535 0.1864184 -0.118564665 0.10213886 0.034071155 -0.03900658 0.07121586 0.040439256 0.19729811 0.06357092 0.07732155 0.01886387 -0.12955333 -0.120798804 -0.11877041 -0.056214366 0.016835866 0.078407854 0.17680645 -0.07607478 -0.021312853 -0.114617884 -0.051053893 -0.05498999 0.00019985021 -0.16465594 0.039788768 0.12238813 0.06671969 -0.10398428 0.104900405 0.06722721 0.07183661 0.046351265 0.010005668 -0.037475605 0.093088284 0.015867004 -0.09395582 0.039976314 0.007371955 0.07583331 0.021725688 0.02231296 -0.101839244 0.06855152 0.11714617 -0.03265221 -0.054637946 -0.06269008 0.17773569 -0.060892224 0.077177055 -0.028815275 -0.21822608 -0.06098183 0.07677953 0.12069958 -0.1497124 -0.026875876 -0.013497836 -0.011830975 -0.06504198 0.10564099 -0.065576345 -0.19382305 0.22117572 0.09027403 -0.15307283
18 -0.13141866 -0.053450424 0.12401476 0.11594437 -0.018948263 -0.11587626 0.11183487 0.05786626 0.19072767 -0.04915875 -0.05046083 0.07570768 0.19580112 -0.099676445 0.0665367 -0.11342217 -0.0421738 -0.18366256 0.05634046 -0.06202485 0.012642292 0.078356855 0.1705167 0.03450377 -0.024722368 0.04707288 -0.10042012 0.1493243 0.1498867 0.25777406 -0.023202112 -0.06242714 -0.035652425 -0.053120248 -0.024467126 -0.13577431 -0.051228717 0.022329919 0.032846995 0.030192785 -0.25713918 0.15160817 -0.11711739 -0.24275929 -0.07772202 -0.094091184 -0.14636144 -0.046010632 0.056402724 0.12448927 -0.025978398 -0.02253803 -0.07843091 -0.03475239 -0.007118016 0.067382045 0.2734459 -0.0034123496 0.2447641 0.15801992 0.24516499 -0.19418551 0.09486265 0.015429678 -0.02077058 0.04733988 -0.03200985 0.16704142 0.12263432 0.07973266 0.029753333 -0.13683267 -0.15611482 -0.09937156 -0.09282703 0.022834428 0.03357293 0.21462563 -0.1338344 0.000518474 -0.16124061 -0.09934297 -0.06291685 0.013864335 -0.18915217 0.00021719502 0.13858028 0.08582765 -0.10922709 0.1269512 0.13173181 0.116756745 0.026520135 0.019656511 -0.023118936 0.11021561 0.009920546 -0.10638991 0.04378207 -0.032279808 0.1114676 0.03765437 0.010397978 -0.075967014 0.13007689 0.12832679 -0.017978122 -0.076905824 -0.09181562 0.21335942 0.0191345 0.081829436 -0.037209153 -0.1450428 -0.118567064 0.059522916 0.11264038 -0.14642246 -0.074625984 -0.012126393 0.10655617 -0.104104035 0.10262255 -0.06287065 -0.16179797 0.26139218 -0.0037150302 -0.08768798
21 -0.0917369 0.00392624 0.14869416 0.070045575 -0.01515659 -0.06968965 0.047295526 0.0601142 0.09519246 -0.084906116 -0.0311115 -0.046626378 0.19758414 -0.005641879 0.020576265 -0.07153985 -0.010343889 -0.14251189 0.042350505 -0.024620552 -0.022719176 0.04248642 0.17197181 0.045458645 0.00093605876 0.012731744 -0.08452508 0.09615537 0.111008376 0.18571144 -0.024262216 -0.039505687 -0.05845464 -0.013656017 -0.007808764 -0.12869333 -0.08968995 -0.02021751 0.07113017 0.036323946 -0.24192718 0.13514487 -0.09648742 -0.24953586 -0.010346086 -0.12931693 -0.1715766 -0.0067438413 0.009327833 0.08504049 0.005169991 -0.012722448 -0.1153566 0.025987007 0.055124857 0.064678445 0.24980666 -0.04557227 0.13449723 0.13165165 0.1815201 -0.10863307 0.10953201 0.036607742 -0.03860143 0.07534894 0.04918272 0.2072692 0.059250418 0.08080213 0.014702651 -0.1309925 -0.11984404 -0.12317367 -0.048453648 0.014850367 0.08895771 0.17408498 -0.07230435 -0.023221381 -0.11829073 -0.045235366 -0.06355443 -9.215146e-06 -0.169387 0.04732172 0.12302588 0.06918633 -0.10596495 0.09722481 0.067775674 0.07286673 0.05734729 0.004130658 -0.035539515 0.092728406 0.021047173 -0.0954879 0.036177583 0.014707528 0.077578954 0.013923284 0.023946246 -0.113070585 0.05677623 0.11966696 -0.03590214 -0.049774855 -0.060322843 0.17869678 -0.07211746 0.08556952 -0.023286268 -0.22507441 -0.049022894 0.09096029 0.12782456 -0.15717985 -0.019382618 -0.01566844 -0.031246834 -0.06165043 0.10713964 -0.07033913 -0.19695105 0.21373107 0.10784996 -0.16587222
16 -0.0983568 0.016737387 0.16971134 0.0714463 -0.014668655 -0.06923171 0.049960945 0.06292114 0.08730552 -0.09590012 -0.029526807 -0.062037937 0.21882808 0.0032863987 0.015685461 -0.07551087 -0.0067359204 -0.14896764 0.042273503 -0.02577244 -0.029783934 0.051766995 0.19745778 0.0522099 0.0048471172 0.013736622 -0.09051723 0.09354318 0.12252788 0.19558783 -0.027307177 -0.0346923 -0.063620925 -0.004638792 -0.018000979 -0.14454883 -0.10238604 -0.026175808 0.084789984 0.042366575 -0.27047294 0.14931558 -0.10545536 -0.28293413 0.001970939 -0.15033643 -0.19855483 -0.005477291 0.011057122 0.088776566 0.005759636 -0.010487527 -0.1266999 0.038222168 0.064584315 0.07257577 0.2783445 -0.051918454 0.13438007 0.1468283 0.1934731 -0.12043711 0.12790027 0.035645187 -0.04411955 0.08748784 0.056759596 0.22924927 0.056858875 0.08902619 0.0112341 -0.13623556 -0.12929879 -0.13792413 -0.0489739 0.009937987 0.10905647 0.19070886 -0.07302309 -0.026207034 -0.12510693 -0.048686594 -0.064007506 -0.0012034872 -0.18814197 0.060069315 0.13421932 0.08046229 -0.119104765 0.1067563 0.057934593 0.07149033 0.06282684 0.003460026 -0.03959328 0.09992538 0.02286726 -0.10333122 0.040300127 0.016467405 0.07781024 0.018072834 0.024418445 -0.12946469 0.056166753 0.1286846 -0.039578408 -0.05702517 -0.067829624 0.19461156 -0.0914919 0.092745826 -0.025050247 -0.26487255 -0.048351467 0.10017102 0.14173473 -0.17446558 -0.01777004 -0.018886894 -0.050070565 -0.067202844 0.12936054 -0.08068306 -0.22795923 0.2356978 0.1299039 -0.18727064
22 -0.12826246 -0.05326744 0.10859633 0.11619495 -0.016386837 -0.1155636 0.111220375 0.05738188 0.19465226 -0.043891255 -0.048200626 0.08109452 0.17702517 -0.09900218 0.07225236 -0.1043019 -0.039981533 -0.172494 0.05089185 -0.06174241 0.013040604 0.07887465 0.15215626 0.02704612 -0.02800873 0.043921687 -0.09377296 0.1527606 0.14335307 0.24972832 -0.020664593 -0.05431968 -0.026444303 -0.054419905 -0.025002312 -0.13384952 -0.041625485 0.025251977 0.028278848 0.03251624 -0.23250648 0.1441516 -0.10852274 -0.21893513 -0.07976766 -0.085534 -0.12901142 -0.05160174 0.055604585 0.12020582 -0.03273492 -0.025382984 -0.07172804 -0.036260314 -0.016336719 0.05915131 0.2521735 0.0042611584 0.24372563 0.15229602 0.23420368 -0.1922405 0.08309629 0.012700136 -0.017548032 0.038065348 -0.042837497 0.14789024 0.116601385 0.075052574 0.030865975 -0.1293621 -0.15496333 -0.09163393 -0.08860729 0.021573149 0.025562543 0.20530759 -0.13448708 0.0061731376 -0.15200862 -0.09483642 -0.05514148 0.016962405 -0.17882128 -0.010906649 0.13383275 0.08209113 -0.099763125 0.12656882 0.12567714 0.11817883 0.020658145 0.02272362 -0.02484195 0.105797894 0.0061871917 -0.09868606 0.040612217 -0.039083652 0.10205768 0.043525774 0.008299563 -0.063619345 0.12636301 0.11642482 -0.013425332 -0.07024249 -0.088671975 0.19422 0.036769487 0.06651913 -0.036638167 -0.122358456 -0.11948747 0.047299847 0.10152235 -0.12874591 -0.073428385 -0.009265017 0.11317149 -0.10510382 0.089541696 -0.059717257 -0.13682628 0.24971369 -0.021523058 -0.067114316
13 -0.13056241 -0.05894221 0.10221832 0.11350246 -0.016670447 -0.11866067 0.11378674 0.05321644 0.19772764 -0.031372063 -0.05036214 0.09535031 0.17189032 -0.11001265 0.07243158 -0.1117526 -0.047420695 -0.17390144 0.05375849 -0.06266675 0.026403317 0.08028231 0.147603 0.02651249 -0.032686055 0.044455983 -0.09080533 0.14956887 0.14332451 0.24767916 -0.01567387 -0.056786187 -0.027795568 -0.061320122 -0.023844203 -0.12745355 -0.031438105 0.024342231 0.024034698 0.028789246 -0.23057036 0.13981563 -0.1052936 -0.2114142 -0.08573445 -0.073712274 -0.12374739 -0.05326751 0.058201354 0.11975655 -0.03471028 -0.019842299 -0.06448764 -0.049084023 -0.024000376 0.054799967 0.25053376 0.007685412 0.24994557 0.14822488 0.23073564 -0.19970074 0.07798236 0.010103144 -0.0106737 0.036176246 -0.047400583 0.13598111 0.124525964 0.07176371 0.030002352 -0.121789716 -0.1510351 -0.08512758 -0.09113412 0.026487801 0.018335905 0.20077813 -0.13778168 0.011447072 -0.15510254 -0.10334779 -0.055692628 0.014618535 -0.17674011 -0.015286937 0.1298233 0.07871241 -0.09676236 0.12225788 0.13009362 0.11825853 0.017809037 0.024170255 -0.017678734 0.10639378 0.004271804 -0.10298503 0.040518403 -0.044467133 0.105238274 0.046908777 0.012139913 -0.057140518 0.13198718 0.11797125 -0.010452941 -0.07015098 -0.086770914 0.19833097 0.048740994 0.0633217 -0.04013848 -0.10510569 -0.13009688 0.03950847 0.0905554 -0.12271313 -0.075762145 -0.012232583 0.13009296 -0.10824996 0.084233455 -0.054864544 -0.12835856 0.25007233 -0.034888066 -0.05369872
15 -0.07647745 0.049624924 0.19654374 0.042791035 -0.01722373 -0.040404852 0.009787051 0.063734315 0.032227706 -0.12112746 -0.021265043 -0.1377868 0.23582168 0.06041204 -0.01831213 -0.054101713 0.018713748 -0.13028695 0.03834955 -0.0031848461 -0.05227655 0.027440064 0.20934589 0.07158568 0.01889828 -0.0044863815 -0.08982429 0.06168525 0.10111106 0.15155156 -0.03137178 -0.028961927 -0.08516878 0.019509217 -0.005657471 -0.1455164 -0.13818619 -0.04988092 0.10741611 0.051704366 -0.27504092 0.143682 -0.1014244 -0.29986405 0.037111703 -0.17451292 -0.22669697 0.015890291 -0.018636696 0.06761642 0.029070191 0.00056977145 -0.16073714 0.07611994 0.11264923 0.07304841 0.27623948 -0.08244122 0.070475034 0.12840709 0.16488054 -0.06283716 0.1383858 0.052568033 -0.05975321 0.10845711 0.116796896 0.26819384 0.016970145 0.09906203 0.0050874674 -0.14097995 -0.11472526 -0.16016996 -0.02708581 0.0032253691 0.14370197 0.17330872 -0.039308954 -0.04274549 -0.096787006 -0.019306727 -0.0699126 -0.013823162 -0.17823133 0.092188425 0.13262153 0.07296045 -0.11892073 0.096794635 0.027391639 0.05113698 0.08727723 -0.005219002 -0.052949637 0.090678334 0.033714335 -0.10195056 0.03716315 0.049764276 0.06621435 0.0014822688 0.033841107 -0.15915124 0.015377386 0.13306782 -0.051199142 -0.047100052 -0.04511552 0.18242647 -0.1581886 0.10052262 -0.023739696 -0.3272817 0.0009170021 0.12154239 0.15781173 -0.18532076 0.008856637 -0.022019275 -0.13608131 -0.03613839 0.13978802 -0.087092236 -0.26366773 0.21008937 0.20659897 -0.2491558
23 -0.08543721 0.024832176 0.17154565 0.058627117 -0.0141858235 -0.05765507 0.031467725 0.06592742 0.063093916 -0.10458408 -0.027407559 -0.08953567 0.22144632 0.01866119 0.0024306118 -0.06790763 0.004174191 -0.14465535 0.041479185 -0.020405347 -0.03263941 0.03759725 0.20105799 0.06418994 0.01037015 0.004318166 -0.0939731 0.07895558 0.11162275 0.18124738 -0.021912614 -0.03406405 -0.07463921 -0.0018591599 -0.005933135 -0.13884002 -0.11276411 -0.031291034 0.09063696 0.049752112 -0.27319404 0.14549221 -0.105228215 -0.28950408 0.009810915 -0.15818024 -0.21241002 0.0017180687 0.0031757504 0.08512938 0.0124547165 -0.005750271 -0.13747166 0.054327846 0.07893615 0.07302591 0.27835527 -0.0640001 0.115194246 0.13812941 0.18465573 -0.10092454 0.13150972 0.042697016 -0.044853736 0.09632505 0.08398965 0.24780744 0.0451476 0.08962897 0.012754021 -0.14512843 -0.11843696 -0.14559744 -0.042921875 0.012523584 0.12490709 0.1841599 -0.06322245 -0.029199496 -0.11662858 -0.036614057 -0.06375125 -0.0104065575 -0.18253358 0.071784005 0.13038455 0.07306775 -0.11949733 0.10526656 0.05243958 0.06343859 0.07503124 -0.002861991 -0.045486897 0.09556578 0.029221969 -0.10437582 0.039881065 0.033442374 0.069938496 0.011207872 0.029639052 -0.1353728 0.036617544 0.13238801 -0.044362057 -0.054160874 -0.057249516 0.19064845 -0.11455443 0.09589095 -0.025353463 -0.28764412 -0.030190038 0.10861125 0.14642885 -0.17452581 -0.008192896 -0.016692381 -0.08073072 -0.050736643 0.13073783 -0.087172285 -0.23651633 0.22859871 0.16047356 -0.21111096
12 -0.12166778 -0.03731897 0.12454071 0.10046571 -0.015881917 -0.10064734 0.09322054 0.057609852 0.16537969 -0.053483367 -0.046674307 0.044689573 0.19155926 -0.07630414 0.053201277 -0.09922336 -0.030019665 -0.1633043 0.04605056 -0.046591543 0.0011225891 0.06650773 0.1625362 0.036217783 -0.018315583 0.038159944 -0.09483281 0.1355385 0.1353747 0.23177838 -0.020138191 -0.052793592 -0.0419669 -0.04268469 -0.018363984 -0.13499048 -0.057496365 0.013625249 0.03644933 0.032350134 -0.2460709 0.14454602 -0.114047185 -0.23007593 -0.06097992 -0.09852298 -0.1438744 -0.03907302 0.043498192 0.11205566 -0.024076251 -0.023789013 -0.086707614 -0.022339424 0.0071530975 0.066609465 0.26191717 -0.0055644303 0.21976101 0.14441429 0.22538406 -0.17006032 0.08962367 0.020638736 -0.023779351 0.046242204 -0.017324138 0.16400938 0.10341796 0.07944329 0.02701337 -0.13147424 -0.145147 -0.09910068 -0.081387475 0.019519227 0.04868979 0.20097525 -0.120771766 -0.003980279 -0.14488965 -0.08456551 -0.06471491 0.00480199 -0.17607139 0.0046349065 0.1277153 0.078513555 -0.103217706 0.118664354 0.11559866 0.10093926 0.029596882 0.019205183 -0.02952838 0.10574566 0.008211176 -0.10615602 0.04590753 -0.019496817 0.10395422 0.03283888 0.01379742 -0.07934364 0.11093082 0.123366825 -0.017820187 -0.06626938 -0.0785717 0.19971707 0.0020286748 0.077919886 -0.037712395 -0.1587887 -0.09690587 0.05725429 0.11161304 -0.1418276 -0.062244754 -0.010609272 0.07533894 -0.09082768 0.09570202 -0.06459763 -0.16151929 0.24372028 0.018278813 -0.09381666
