2708 128
35 -0.1781566 -0.101972826 -0.16338663 0.49972412 0.12380284 -0.07168807 0.35878047 0.439209 -0.037173368 0.15720107 -0.2336523 -0.3077528 0.0069431025 -0.18872713 -0.22016433 0.2399861 -0.53547364 -0.2548083 0.01045165 0.18476899 0.40950766 0.47606474 0.2677568 -0.11942028 -0.18076631 0.43574885 -0.22233982 0.6953811 -0.18293886 -0.11811936 -0.03252783 0.25295088 -0.03458485 -0.4115354 -0.102066405 0.38597026 0.35835242 0.061502237 -0.17521681 0.04865232 -0.50592273 -0.015165902 -0.1647554 0.14239323 0.304467 -0.13797344 0.109725006 0.13904744 -0.026927399 -0.3741687 -0.1548157 -0.007475223 -0.36079326 -0.11367749 -0.35036713 -0.0008142115 -0.015108157 0.30260804 0.20231356 -0.27375284 0.12262313 0.16555738 0.17966819 0.1458629 0.16797438 0.16437346 -0.17594236 0.006323177 -0.18898141 0.050738726 0.3306543 -0.4505341 0.19795944 -0.33292884 -0.35266626 -0.024255207 0.043324724 -0.19920354 0.16451989 0.026934033 -0.4012709 0.39703652 -0.09724834 -0.38423336 -0.17292765 0.018609319 -0.20918061 -0.322875 0.5056202 0.32682183 0.22600134 -0.16166553 0.17986375 -0.22388506 0.0047284397 -0.3705459 0.047354434 0.43584222 0.10144582 0.055270206 -0.22117618 -0.10012317 0.06317639 -0.029276105 -0.21179509 -0.040218886 -0.24304998 -0.029647766 0.40995762 -0.23402734 -0.334298 -0.031528037 0.2731348 -0.33974206 -0.112887695 0.2767246 0.32503065 0.035306834 -0.41880417 -0.0010128485 -0.1628867 -0.38164762 0.22851469 0.17126714 -0.4596895 0.15470138 0.6376945 -0.27734685
1365 -0.28858957 0.30921808 -0.030209847 0.52077687 0.13451234 0.1770491 -0.11798726 -0.24511498 0.15190232 0.001430099 0.005501935 -0.43681532 -0.12097805 0.061339747 0.32136208 -0.021148084 -0.091992535 -0.33557644 -0.18132776 0.09550347 0.11179795 0.40986773 -0.07698723 0.34577394 0.59764606 -0.092125736 0.2249098 0.10287053 -0.014304326 -0.2655038 -0.087008394 -0.13899356 -0.06890262 0.41173634 -0.5244549 -0.13754575 0.31540504 0.11302641 -0.19895734 -0.4145248 -0.48414972 0.3863527 -0.41426086 -0.31502357 0.16728446 -0.44318497 0.19670218 0.09233166 0.12520045 -0.2961546 0.047882043 0.20049374 -0.34917438 -0.35574746 -0.72734314 0.15409158 0.02940593 0.14120114 -0.47923583 -0.03569856 0.11504082 -0.5466075 -0.070505396 0.39971668 0.28698203 -0.062211126 0.18874593 -0.110248774 0.077624924 -0.4243398 0.47068933 -0.016412975 -0.44611308 -0.2553068 -0.04388632 -0.32945195 -0.46038502 0.28027114 0.46589056 -0.13891092 0.049763776 -0.33661664 -0.24679184 -0.3700834 0.013282619 -0.065458275 0.25434834 -0.2715357 -0.03960672 0.62209076 -0.1764844 -0.36405218 0.18521126 -0.12170746 -0.1623423 -0.08210701 0.19578926 -0.07903885 0.08121426 0.21946241 0.11241163 0.08802806 0.023492482 -0.116988875 -0.50990146 0.10231684 0.30320516 -0.24360289 0.21843983 -0.031139677 0.10636822 -0.19143492 0.18667974 -0.21760313 -0.54546505 0.023554076 0.1143592 0.009471161 0.18340355 -0.40302882 0.11828171 0.021713946 0.12100169 -0.018460516 -0.12620012 0.37329206 0.26154435 -0.22421852
6213 -0.3487648 0.48072812 -0.033639073 0.44831946 -0.16511959 0.3529497 0.18024276 -0.09368418 0.45812115 0.09709682 -0.059137166 -0.23345394 0.0025326766 0.132256 -0.023145331 -0.1460619 -0.0767673 -0.0097211385 -0.17563549 -0.2559074 -0.256528 0.1399762 0.1386835 0.03915609 -0.033058915 0.23938103 0.17331013 0.37103933 -0.2510853 -0.24401504 0.19086774 0.101181895 0.35718694 -0.062629074 -0.20150204 -0.03129596 -0.018091451 -0.44135994 -0.56441647 -0.28472516 -0.81672406 0.27781436 -0.15205674 -0.1736868 0.34869522 -0.21476002 -0.08942986 0.26559365 -0.42440742 -0.031604186 -0.04844028 0.3944544 -0.10697054 -0.15114976 -0.4293834 0.098587126 -0.4031302 0.21073046 -0.058398798 -0.39490256 0.14407384 -0.22178707 -0.0016674417 0.56882286 0.58850783 0.15430218 7.10692e-05 0.24050508 0.2340522 0.0068666264 0.36294103 0.26570955 -0.044923715 0.11427135 -0.2637153 -0.111721724 -0.039252542 0.21022002 0.34900478 -0.31999335 -0.21716668 0.4058439 -0.05351282 -0.3282712 -0.30330166 -0.0021503556 -0.049976297 -0.00035352024 0.06706733 0.054296564 -0.081143744 -0.43202412 0.12332818 -0.00037072835 -0.35143536 -0.21471782 0.16370703 0.47553658 -0.33770043 0.42036718 -0.038674515 -0.37330112 -0.015877545 0.2827659 -0.30006886 -0.0035172596 -0.33496037 -0.51590204 -0.023319721 -0.27323845 -0.21095023 -0.007743377 0.25725606 -0.12762341 -0.52350616 0.26851472 0.16258182 -0.17180638 0.08578996 0.3706138 -0.20269543 0.37927973 -0.19007753 0.26393545 0.21094987 -0.21139713 -0.2002883 0.18655758
3229 0.055148184 0.18195729 0.0060169115 0.6453305 0.25875878 0.26608968 -0.15211979 -0.31747007 0.23008138 -0.11392692 0.34636948 -0.61506385 0.12763707 -0.20691304 -0.0077706235 -0.14803183 -0.077190764 -0.26648894 0.16683774 0.39074022 0.39992377 0.23202375 -0.3822619 0.0018576264 0.005985492 -0.0006875939 0.4420309 0.43907627 0.15710104 -0.2482706 -0.006562102 -0.24515152 -0.32864043 -0.043021586 -0.30053154 0.24803483 0.41597822 0.014171022 -0.45030466 -0.37551317 -0.041332085 0.4103729 -0.23000242 -0.11129209 0.13134925 -0.16526318 0.060068116 0.014247362 0.20749259 -0.18779373 0.14657943 0.36512598 -0.3828668 0.11099432 -0.168413 0.10887312 -0.23429203 -0.15765421 0.19706343 0.007183188 0.20312528 -0.35290897 -0.0937621 0.81494963 0.21083723 0.31471613 0.07898874 0.38424903 0.1586681 -0.010239428 0.19392958 0.078801796 -0.006455404 0.027211608 0.18320882 -0.6784457 -0.13377906 0.26529935 0.42898098 -0.17804869 0.13458972 -0.31240743 -0.08566605 0.085082956 -0.041900557 -0.07666156 0.14604214 -0.6064463 0.04557147 0.2523637 -0.4385755 -0.11099357 0.07844436 -0.121963724 0.049990833 0.15727796 0.4689837 0.3448365 0.22124869 0.09377735 -0.41663587 -0.13299556 0.10472573 -0.034490786 -0.015593246 0.10248582 -0.19183455 -0.030930405 -0.10259596 -0.055576503 0.19353381 0.11029572 0.32280472 -0.2968166 -0.19463749 0.32540667 0.3178848 0.2493788 -0.513395 -0.32873002 -0.3975193 -0.28021693 0.027330393 -0.039037477 -0.08910861 0.21901931 0.33000648 -0.32074732
910 0.077949435 0.5327616 -0.101017535 0.26820496 -0.23494919 0.19440125 -0.16417557 -0.19460596 0.35798922 0.16063954 -0.14954747 -0.65088415 0.25346777 -0.0054348465 0.22586998 0.07824452 0.21814018 -0.18834834 -0.19740981 -0.24327236 0.2297063 0.655947 -0.12303409 -0.15088426 0.24704388 0.106951736 0.8544007 0.0879556 0.31697485 -0.3522489 0.009956904 -0.031136438 0.46791834 -0.1045787 0.031089807 0.21446379 0.20576933 -0.26713952 -0.53961706 -0.25020185 0.017904282 0.33808872 -0.17358837 -0.16309947 -0.14376599 -0.16289712 0.24101146 0.22919051 -0.109191924 -0.3151647 0.19625239 0.17729105 -0.6228778 0.34065107 -0.10193763 0.29393625 0.24579805 0.31826708 -0.015238349 -0.12686507 -0.20916232 -0.1452771 0.024019694 -0.08739812 0.27713394 -0.111011446 0.109748825 0.18611789 0.22302023 -0.20490636 0.11830995 -0.02913587 -0.5489286 0.091143146 -0.18879598 -0.4046564 -0.2323227 0.28244466 0.18502694 -0.1656809 0.28356603 -0.11872034 -0.28560984 -0.4070288 -0.48920938 -0.08158913 -0.09980893 0.18664406 -0.0579359 0.2846846 -0.12302414 -0.5488642 0.34798956 -0.033081856 -0.3030097 0.2805013 0.43482676 0.21863629 0.2735356 0.55807066 0.3224868 0.08090636 0.4356659 -0.06389858 -0.34920478 -0.22936024 0.18761468 0.1318817 0.13483846 -0.39007214 -0.06876315 0.22340387 -0.061832283 -0.5333906 -0.16572766 0.21245202 -0.21859305 0.011039029 -0.608936 -0.09814685 0.011229556 -0.04190384 0.06949985 0.07901692 -0.5877659 0.13268624 -0.21884848 -0.4645976
4330 -0.1705985 0.39491266 -0.18329889 0.47799623 -0.33982334 0.43527755 0.044041544 -0.16112724 -0.07807804 0.15043917 -0.0906224 -0.30804485 -0.11543191 -0.22238019 0.064048596 0.42135882 -0.2768709 -0.36598885 0.27236065 -0.30208984 -0.020091975 -0.26661012 -0.13492993 -0.15404838 0.042791724 0.057143353 0.37049136 -0.3145033 0.28855455 -0.4484955 0.12773024 0.00948039 0.24035335 0.1507155 -0.09038392 -0.40524364 -0.012822696 -0.40369463 -0.71161634 -0.4794951 0.06358114 0.15092844 -0.47367477 -0.23574142 -0.092788525 -0.4097424 0.46120974 -0.019953705 0.041088186 -0.08029869 0.08029555 0.44462636 -0.28321013 -0.24618992 -0.023624534 0.08545757 0.46084672 0.09306432 0.0055982783 0.42700133 0.191244 -0.2205488 -0.31027287 0.4825563 0.45236763 0.054660294 -0.31511936 0.46831846 0.079306155 0.15954183 0.18588948 0.2695833 -0.00504707 0.13357858 -0.25642046 -0.5460571 0.039473526 0.17359294 0.20320088 0.14336234 0.06618047 -0.057275537 -0.3082775 -0.31525895 -0.6765849 -0.04200405 0.460318 -0.2921167 0.10649253 0.28015214 0.65458673 0.006273086 -0.0821493 -0.09382146 -0.31916073 -0.44095638 0.4145366 0.14952686 0.19175258 0.2571308 -0.022665504 -0.16420776 0.31843707 0.20675103 -0.10550197 0.10410177 0.42602035 0.43287444 0.2452799 -0.5048019 0.3030261 -0.12946543 0.038934775 -0.052208364 -0.1822859 -0.30154294 0.11339081 -0.03224209 -0.35769117 0.104075946 0.27824703 -0.08297003 -0.32854626 0.4617476 -0.4340044 -0.30259117 0.39988244 0.03942553
114 0.1184154 0.26990262 0.3452345 0.0028683685 -0.050654445 0.052217677 -0.018793005 -0.3812268 0.16740964 -0.027625578 -0.27099147 -0.32858878 -0.2224424 -0.12386742 -0.04929876 -0.056473438 -0.38476112 0.019503416 -0.11385562 -0.51983935 -0.3215226 -0.1815295 -0.04185984 -0.010536032 0.13456875 0.29614633 -0.15843411 0.10944968 0.021433508 -0.2493991 0.40940422 0.0108976355 0.37785175 0.038962714 0.018962324 0.0226837 0.45458356 -0.59943753 -0.095636554 -0.28635988 -0.6446408 0.2969963 0.2730957 0.027899582 0.15814441 -0.546445 0.2685346 -0.09251588 0.09450881 -0.27740675 0.049263425 0.44988218 -0.6590835 -0.3591879 -0.4522421 0.223886 -0.6944875 0.21685784 -0.104767635 -0.50581104 0.023472968 -0.60932815 0.09963751 0.26681793 0.6299679 0.08318885 0.061347257 0.11779282 0.17883976 0.24122067 0.15210223 0.25193733 -0.009575061 0.2688946 -0.18083422 -0.19598411 0.104728 0.19233243 0.34173378 -0.105951875 -0.28002527 0.52320504 -0.31190765 -0.37738973 -0.08970233 0.037388213 0.18946704 -0.10642202 -0.035473343 0.34729972 0.11207007 -0.5353158 0.35356516 -0.18335538 -0.20808318 -0.111534186 0.20069584 0.66025746 -0.15966603 0.57301784 -0.38843617 -0.12120301 0.32938123 0.38507804 -0.4183842 -0.14880523 -0.08658812 -0.24072297 0.061764523 -0.16454826 0.10812447 0.33219722 0.3323751 -0.22148806 -0.6560451 0.05350076 0.23353142 -0.022970105 -0.08601775 0.10530903 -0.26419708 0.44622388 -0.40916714 0.15111412 0.37090388 0.18693253 -0.046024565 -0.18965046
3231 -0.25877944 0.4043584 0.5041724 0.0844556 0.023825781 0.2844166 0.43960413 0.11515648 0.6005805 -0.023936437 0.17928414 0.46702293 0.09365394 -0.20378742 -0.40988103 0.0015400095 0.10705631 -0.22733879 0.0074713565 -0.42545405 -0.17690566 0.36058906 0.26013115 0.38195655 0.15248173 0.5193664 0.5725581 0.59790474 0.19022334 0.015988955 0.265062 0.16381055 0.27047884 -0.41563344 0.40339798 0.13476859 -0.27266315 -0.16154854 -0.82256657 -0.46291697 -0.41846466 0.38963735 -0.3469318 0.4643218 0.2196361 -0.34287965 0.48193398 0.066298254 -0.07251746 -0.70758665 -0.28133762 0.7869825 -0.15012632 -0.3332556 -0.32751983 -0.06797123 0.3941357 0.0025490036 -0.40238234 0.18723828 0.025760273 0.033987574 -0.10720179 0.10396947 -0.49071637 0.15040056 -0.02095987 0.21442361 -0.049391646 0.0853099 0.2781847 0.021157192 -0.04184933 0.20754732 -0.41421515 -0.31479782 0.114868656 -0.05199119 0.066912435 0.41528034 -0.45213646 -0.019945944 -0.06096457 -0.092660055 0.12781149 0.102361135 0.2189619 -0.49524236 0.27235505 -0.052375495 -0.045135673 0.014929206 0.15514335 0.05517585 -0.08225455 -0.16050194 0.3930093 0.365221 0.16612294 -0.002091885 -0.11065032 0.10782383 -0.3059917 0.13969205 0.09478554 0.3112136 0.24107744 0.45844668 -0.19933671 -0.5346587 0.03595254 0.24059035 0.0031075857 -0.28538945 -0.069700025 -0.02064116 0.36475345 0.36072403 -0.17229357 -0.30420607 0.05021202 -0.2485726 0.4870303 0.19010128 -0.26699322 0.00047062835 0.32077208 -0.10308814
19621 -0.26735798 0.33449474 -0.54025495 0.27219018 0.19013518 0.07054812 -0.2942826 -0.2524372 0.13637415 0.29598898 -0.081901774 -0.4280467 0.120399535 -0.13920239 0.42208192 -0.09397591 -0.51373893 -0.19248243 -0.083704606 0.13770443 -0.046359196 0.47010654 -0.23771153 0.0790073 0.23587196 0.3097609 0.33159438 0.050202597 -0.26811826 -0.44692132 0.2155526 0.06457289 -0.25238618 0.35135916 0.15567523 -0.08787014 0.24675114 -0.20753206 -0.29826367 -0.36220622 -0.4964827 0.16334212 -0.5180458 -0.7233246 -0.071477056 -0.074332505 -0.07025406 0.04872837 0.08910419 0.10211942 0.2562098 0.2890865 -0.34563738 -0.04801445 -0.5083895 0.015082675 -0.102102645 0.37582788 -0.012579469 -0.08201703 -0.124007985 -0.15549307 0.17768046 0.47584713 0.021010758 0.09674477 -0.25566095 0.43835583 -0.4098596 -0.06733585 0.44046068 0.035758603 -0.61980325 0.11355967 -0.116164595 -0.4277134 -0.40880784 0.60227245 0.22949985 -0.47169772 -0.56618637 -0.38133276 0.06282336 -0.6110484 0.04300313 -0.33407682 0.58869594 -0.26350453 0.11865916 0.23733748 -0.14074668 -0.09397236 0.25743604 0.048314556 -0.31113836 -0.07073584 0.30067915 -0.30069065 0.24458733 0.029324476 0.31544238 -0.11204797 -0.06957158 0.27008903 -0.42259282 -0.3853451 0.40406293 0.04407594 0.4025478 -0.24739437 -0.034736868 0.09552039 0.27472487 -0.39580858 -0.023168862 0.55633473 0.12323675 -0.08480182 -0.5428046 -0.14781235 0.0112996055 -0.16822547 0.1184081 -0.08000678 -0.6287518 0.26585746 0.23579727 -0.51454246
1272 -0.4945654 -0.011918659 0.069052905 0.52099264 -0.085553 0.3602289 0.22261134 -0.050517716 -0.0010650968 0.23217523 0.12426077 -0.03936497 -0.10311898 0.29504868 -0.5450738 -0.16697672 -0.020497339 -0.61958414 -0.09577477 -0.12190669 -0.25489992 0.31344196 0.57890487 0.24661788 -0.34959477 -0.23775905 0.33698642 0.13845576 0.4823548 -0.20592801 0.18656275 -0.0035357794 -0.37650037 0.049798854 0.25247657 -0.038707532 0.2849681 -0.11209295 -0.28902996 -0.51900345 -0.67426753 0.16232449 -0.2292898 0.042252768 0.3188272 -0.30431202 -0.18954715 0.19639501 0.18621342 -0.41422662 -0.06657812 0.019055197 -0.15313356 -0.6085698 0.045803215 -0.022969978 0.084564425 0.3601026 -0.35042387 0.047275722 -0.49104804 -0.10220403 0.1743779 0.08794507 0.47727755 0.611626 0.010503686 -0.20833479 -0.303132 0.02184365 0.12326306 -0.03819514 -0.42077547 -0.29955846 0.05252221 0.39635643 0.17042056 0.20683987 0.13223535 -0.25156465 -0.25793132 0.21208373 -0.12626927 -0.21656415 0.011070586 0.26282048 0.37866697 -0.5018292 0.06568003 0.2586289 -0.08883643 0.30367103 0.09413985 -0.19363277 0.15677582 0.33698604 0.3638422 0.5144673 -0.11181622 0.27251878 -0.11237324 0.7164202 -0.18259202 0.34234536 -0.08207411 0.17931446 -0.19894123 0.27937442 0.32207176 -0.48307762 0.048573826 0.02068056 0.026231412 -0.41414317 -0.28300628 0.015485883 -0.3343397 -0.16263078 0.23595634 -0.13100696 -0.33864912 0.18887235 0.21355675 0.10824354 0.13052717 -0.10263376 0.2809509 -0.035490256
6214 -0.092329524 0.5640038 -0.10393995 0.24610224 0.15732023 0.05904235 -0.08728137 -0.24453375 -0.038262002 -0.005718958 -0.103879645 -0.29053828 -0.02950501 0.04635796 -0.22805764 0.09977976 -0.16450362 -0.24041174 -0.026938474 0.13854289 0.0703002 0.017579746 0.008087341 0.3575836 0.30114147 0.33814415 0.20923567 0.1896448 0.19224371 -0.23370215 0.20920883 0.37961784 0.14523353 -0.2814446 -0.29255575 -0.42934868 0.11409416 -0.51488954 0.022870326 -0.13529874 -0.5752771 0.37038732 -0.013440684 -0.11265679 0.55364794 -0.23218307 0.3453884 0.29010603 0.091136105 -0.2904376 0.329975 0.3339162 -0.27722678 0.04212464 -0.17102243 -0.08116444 -0.46465692 0.1923843 -0.475735 -0.11453025 0.26507223 -0.3268078 0.36571625 0.7770728 0.595714 0.009720036 -0.031625867 0.0029154785 0.4709418 0.20638935 0.26812366 0.5157063 -0.21644568 0.46828216 -0.08745284 0.17360267 -0.09101644 0.015216618 -0.012921279 -0.7030872 -0.13835485 0.4410594 0.11441381 -0.05242183 0.006547593 -0.06317184 0.20092377 -0.05840646 0.06727471 0.15363646 0.41781026 -0.3712031 0.06804013 -0.05285048 -0.21132143 -0.29674172 0.060308974 0.20980147 -0.15931448 0.36352482 -0.32666877 -0.0076695117 0.047357745 0.01013799 -0.2873159 -0.31496203 -0.42669538 0.13229898 0.018446272 -0.2690456 0.018422645 -0.37252146 0.4796055 -0.17638217 -0.50330436 0.2439016 -0.10643587 0.17653437 -0.13913429 0.19268073 0.1386619 0.21883197 -0.17686933 -0.062398404 0.58543324 0.39933553 -0.043510497 -0.09196848
2440 -0.011468498 0.2603048 -0.13329022 0.31748393 0.236163 -0.069261946 0.27527106 -0.2666694 0.6433962 0.09767974 0.23507477 -0.109834835 -0.14314863 -0.205206 -0.09096988 0.03904238 0.058768574 -0.050326403 -0.047151025 0.11482115 -0.5354847 -0.28471538 0.5296122 0.3540681 0.5513419 0.14003465 0.42285892 0.23640719 0.4660785 0.5855642 -0.18309984 -0.059926953 -0.5242317 -0.092004076 0.47892395 -0.68154764 -0.041082364 0.0993233 -0.4868012 -0.11984596 -0.39706978 0.24988632 -0.1916544 0.20106336 0.26843962 -0.61683816 0.69872904 0.010314402 -0.13430421 -0.40031743 -0.15699923 -0.2737945 -0.15697196 -0.4276752 -0.14967762 0.13025466 -0.13519613 0.02737443 -0.050596938 -0.42737 -0.3810491 0.011216829 0.32578936 -0.057151593 0.36618757 0.1875817 -0.31691647 0.3993714 -0.012192896 0.37931612 0.30659282 -0.11674922 -0.24183339 0.21649979 -0.16070583 0.36188698 -0.1567271 0.14853093 0.422665 -0.21225524 -0.219734 0.10229122 -0.1853616 -0.19141932 -0.692468 -0.15933433 0.27805352 -0.28891388 -0.17881872 0.19727682 -0.13245709 0.079462744 -0.19643971 -0.2730495 -0.02265137 -0.20332198 0.43329135 0.69211465 -0.24507697 0.60555923 0.038943913 0.7287252 -0.15087016 0.5074772 -0.2838067 0.33347842 -0.3337281 0.43944633 0.250484 0.077275045 -0.07293676 -0.27233526 -0.14041622 -0.13820039 -0.118005626 -0.22257826 0.45790786 0.5654114 -0.0069017983 -0.32589674 0.22367604 0.029202787 -0.13341804 0.15881842 0.12223691 -0.5287007 0.6383277 0.10417661
4584 -0.11031417 0.26044577 -0.19302091 0.51743907 -0.12312262 -0.003070062 -0.025673138 0.043831654 0.04457377 0.07247299 -0.093882285 -0.058672372 0.08090659 0.40670416 -0.05898558 -0.2376046 -0.18578526 -0.6040733 -0.34962842 -0.07955152 0.19647382 0.36176378 0.29261738 0.10848795 -0.11024404 0.040728584 0.25391728 0.30846864 0.284032 -0.36996025 0.07656379 0.0056363135 0.063060895 0.23233524 -0.19433281 -0.13748151 0.08874551 -0.29658854 -0.09079923 -0.31117526 -0.60803 0.28230056 0.17057186 -0.39562294 0.3475959 -0.21917477 0.20577456 -0.061203673 -0.10566459 -0.19710225 0.1295459 0.25242758 -0.41120556 -0.388732 -0.27329862 0.01440244 -0.4987658 0.43685135 -0.15530805 -0.7121185 0.342134 -0.47983673 0.014801734 0.733909 0.25047892 -0.18041605 -0.026780369 0.083610445 0.07030521 0.1517692 0.18064351 -0.29875678 -0.20013186 0.15456894 -0.24503577 0.029088076 0.019228531 0.40345067 0.14489439 -0.49322617 -0.34799993 0.5206047 -0.276898 0.030976523 0.08454317 0.07673596 0.024012838 -0.18059245 0.18715468 0.03873291 0.22446613 -0.4435007 0.11292027 -0.2933292 -0.5729316 -0.06217924 0.1470917 -0.0022629462 -0.22834115 0.28476483 -0.1411704 0.23082961 -0.17069879 -0.0077404664 -0.32680357 0.32557523 -0.14796972 -0.06370189 0.21782319 -0.4379054 0.13286228 0.20613307 0.032632932 -0.55202603 -0.32181305 0.23747292 0.33470246 -0.14341126 -0.20690237 -0.04646748 -0.26925203 0.6021532 -0.06629139 -0.07556947 -0.05575539 0.14532886 -0.1276301 -0.17998062
24966 -0.012265072 0.76196915 -0.092065275 0.007099568 0.3441429 0.5791585 0.12519845 -0.44744202 0.45504326 -0.57308877 -0.14945488 -0.40341654 0.14362533 0.044501465 -0.62872404 0.2377742 0.12511185 0.031869903 0.42496336 -0.28558546 0.53069586 0.327526 -0.23539926 0.24593276 0.001042455 0.27337092 0.7918484 -0.263299 0.2671051 -0.6593169 -0.20521301 -0.44773287 0.10066312 0.16089725 -0.27111927 0.22636637 0.3541905 -0.31424803 -0.2354971 -0.1825018 -0.21567182 0.012195355 -0.085576996 -0.3221616 0.05216871 -0.29747912 0.36282516 0.38668436 0.24169476 -0.42526594 0.054037567 0.31421977 -0.5022161 -0.04356759 0.19305642 0.33495542 0.24663126 0.46853745 -0.14505598 0.1700263 0.13395102 -0.12101307 0.083051614 0.34901953 0.14018874 0.44375193 0.13233387 0.51069933 -0.6645851 -0.18540646 -0.09871955 -0.03538619 -0.009332946 0.19231158 -0.26125765 0.08199378 -0.17406031 -0.24162129 -0.08443969 -0.13982682 -0.13569136 -0.17570263 0.062732734 -0.47879377 -0.4751246 -0.37619895 0.4690301 -0.5312341 -0.2007084 0.1890826 0.052664768 -0.18848135 0.31091622 0.22845578 -0.041260477 0.18001735 0.29257298 0.31916302 -0.06537063 0.26713648 0.065234125 -0.054370936 0.29741764 -0.2596845 -0.26869425 0.04597737 0.45794666 -0.32410434 -0.29043615 -0.41350344 -0.060333878 0.2652565 0.09460786 -0.079634294 -0.11083727 -0.057762433 0.26752248 0.2858077 -0.2396311 -0.0071539916 0.35001022 0.22734316 0.4173161 0.16050625 -0.005540725 -0.2369528 0.17185733 -0.27616203
887 0.008516503 0.14676139 -0.43285 0.57157534 0.17228499 0.09586986 0.2662368 0.00072776334 0.30566794 0.059277017 0.29598948 -0.08348155 -0.5104992 0.26288378 0.12890072 0.2450398 -0.16776644 -0.071109906 -0.28429404 0.053990897 -0.18550745 0.16231005 0.3354677 0.059497673 -0.31158745 0.21691968 -0.20083684 0.71357787 0.07058491 0.12622821 0.16912386 -0.034701463 0.2615707 -0.1702007 -0.15264487 0.23993377 0.26393017 -0.012569669 -0.4846774 -0.36479154 -0.67738193 0.03969104 0.33200392 0.06900227 0.54532284 -0.38956353 0.08032956 0.21038088 -0.46411017 0.2615031 -0.34202492 0.23030375 -0.3361876 0.13035047 -0.46882004 0.009064354 0.27925757 0.1344041 -0.19056517 -0.5087837 0.11642842 -0.038948197 0.2794426 0.35974014 0.77510154 -0.022778714 -0.13155067 0.038584672 0.21467784 -0.099776074 0.4646175 0.29675907 0.053542607 -0.1415345 -0.13406754 -0.41290832 -0.23245423 0.19350298 0.11772755 0.10031663 -0.18098865 -0.07756064 0.0061440566 -0.13371342 -0.22987503 0.15889207 0.2196941 -0.4136881 0.3482759 -0.07580429 0.00945769 -0.18785317 0.28665212 0.08946031 -0.21606922 -0.41869056 -0.0025832516 0.19966255 -0.5042938 -0.032903325 -0.018526187 -0.121851794 0.15643936 -0.18138513 -0.37301114 -0.2076938 -0.2663054 -0.07850103 -0.20024833 -0.1444905 -0.53364366 0.0942199 0.42489573 -0.2290456 -0.2435385 0.1046936 0.12377904 -0.058640763 -0.51001513 0.009721969 0.03882775 0.2965969 -0.24984775 -0.16449197 0.3286934 0.20255178 0.0074241282 0.39271638
2665 -0.17566802 0.65506256 0.19028279 0.31921765 -0.089972526 0.4327745 0.058454216 -0.19707076 0.77734584 0.33392757 -0.06077157 -0.0033435472 -0.06724155 0.028785998 0.09203582 -0.108160935 -0.5632353 -0.37519637 0.22241314 0.40890846 0.008137274 0.6889152 -0.15800942 0.04175677 0.4867626 -0.46594614 0.06154853 0.015387028 0.12971057 -0.33521464 0.4136793 -0.2675285 -0.016163832 0.08655876 -0.54465246 -0.22233525 0.1607529 -0.2548264 -0.18213907 -0.427111 -0.3976213 0.11848513 -0.53955543 -0.04972546 -0.06304009 -0.20054449 0.30086485 0.058684777 0.1600533 -0.21234567 0.20550528 0.2540477 -0.080297045 0.03183503 -0.58983517 0.56406873 0.05477146 -0.03145262 -0.044580918 0.25121617 0.0038687866 -0.20656873 0.39371392 0.51509315 0.48493254 0.0235548 0.21505745 0.23307528 -0.49814972 -0.15359211 0.38976517 -0.42528406 -0.6702914 0.080723904 -0.25437754 -0.48588514 -0.2781768 0.42586714 0.060908448 0.17624211 -0.34232244 -0.22596924 -0.09648789 -0.62081254 0.25629747 -0.2145722 0.34680477 -0.004987363 -0.07555812 0.45368522 -0.25994864 -0.7364919 -0.0012356825 -0.17894123 0.14051472 0.3072941 0.18928233 -0.16273087 0.09082278 0.21695465 0.46907115 -0.35363257 0.3698563 0.13707578 -0.30157575 -0.7154628 0.33401677 0.15446569 0.22695883 -0.43742138 -0.14751174 -0.7501648 -0.1622711 -0.3858805 -0.16515711 0.513966 0.7433227 0.025297625 -0.2496905 0.0751619 0.2723677 -0.46302 0.08133998 -0.104881935 0.07907019 -0.12880279 0.20306547 -0.7436691
8224 -0.19314525 0.17272799 0.23809572 0.11307974 -0.22611372 0.29770645 0.91074646 0.20380276 0.578433 0.20848384 0.15241109 0.23778912 0.0119053265 -0.026913784 -0.26686344 -0.0046649855 0.13469924 0.039781325 0.33873308 -0.17027377 -0.003253026 0.051262688 0.17856333 0.5618109 0.11326212 0.05233136 0.30023515 0.0043754824 0.31538582 0.10152158 -0.29662153 0.39352888 -0.517463 -0.39443526 -0.0052235187 -0.038783588 0.23929657 -0.27088073 -0.46728584 -0.2376525 -0.3910694 0.44692558 -0.048924364 -0.1084265 0.4372533 -0.32008073 0.23230818 0.20022303 -0.3579304 0.102373816 0.0887487 0.33896187 -0.4087666 -0.5727524 -0.2733157 0.0075762044 0.1381752 0.40661755 -0.31743154 -0.4315292 -0.4996499 0.27344945 0.24794137 0.30878377 0.36216447 0.46270573 -0.13606682 0.16503584 0.20668434 0.5278892 -0.026532823 -0.24518086 -0.36677736 -0.001971182 0.27364108 0.3255752 0.26490828 0.31250852 -0.11615444 0.12383944 -0.0122618275 0.27341688 -0.036414325 -0.684411 -0.18290742 0.26329133 0.40714142 -0.23638341 -0.21783137 0.48519728 -0.07598926 0.17971912 -0.14135975 0.3028811 0.09468221 0.14927675 0.20299214 0.66147333 0.059897922 0.41406393 -0.061680898 0.22386838 -0.23722588 0.12150259 -0.012089654 0.19640204 -0.356652 0.25527474 -0.4260434 -0.55633724 -0.17719938 -0.059354924 0.049702592 -0.18512104 0.1310479 -0.2025687 0.2228847 0.3807015 -0.25957853 -0.28274354 0.091572024 0.20270601 0.14328328 -0.465694 0.04823274 0.12699157 0.7535514 0.07479721
20193 -0.16799544 -0.09757472 0.013689948 -0.21602097 -0.14207883 -0.09727186 0.29003212 -0.026058437 0.4693604 0.15447716 0.34457237 -0.20648432 -0.35604855 -0.54880965 -0.021996014 -0.24350293 0.22205229 -0.13434896 0.4430011 -0.11533519 -0.17158306 0.14565049 -0.03339115 0.65410763 0.58590806 0.6666795 0.17950924 0.45497867 0.4488464 -0.40163234 0.31776336 0.05583973 -0.2923409 -0.063921444 0.5838613 -0.50047255 0.8032271 0.28367183 -0.6803756 -0.20401624 0.02515377 0.47943714 0.04312896 0.16752966 0.7228917 -0.21568246 -0.12737678 -0.15649053 -0.27163357 -0.5264253 0.118688695 0.24576192 -0.015890779 -0.12683363 -0.4757461 0.23238507 0.35062593 0.5160191 -0.21635027 -0.30492067 0.10046544 -0.3192564 0.16412814 -0.14289299 0.15369731 0.2671172 -0.23572466 -0.036035042 0.31849208 0.18256268 0.18459892 -0.5657179 -0.20054483 -0.3997815 -0.48725417 0.16515681 0.13872401 0.1692765 0.32952294 -0.6364867 -0.22204265 -0.10425853 -0.4419692 -0.5905907 -0.43894523 0.105904624 0.18229786 -0.49405545 -0.5243587 0.27669638 0.04629755 0.0675943 0.38483962 -0.101220325 0.40207446 0.033051312 -0.13420814 0.3211175 -0.43994576 0.40361777 0.23336315 -0.21967106 0.12829423 0.07070598 0.067242414 0.10297472 -0.19715776 0.43000686 0.009487562 -0.36801133 -0.41826522 0.1581221 0.3007736 -0.056355637 -0.110201955 0.33082417 0.5992757 0.4071136 -0.22589846 0.28598833 0.15998808 -0.11927661 -0.39899766 0.2241421 0.54322827 -0.07252598 0.08018794 0.69459045
12182 -0.11454809 -0.018157613 0.41124803 0.5584603 0.255879 0.37182882 -0.086936414 0.0758836 0.13717352 0.020782983 0.32010028 0.017606536 -0.29318067 -0.38722742 -0.6228589 0.37189537 0.050199587 -0.55782473 0.34002084 0.006137939 -0.48875564 0.14455427 0.31255603 0.87288296 -0.11423691 0.23021983 0.15419322 -0.35990378 0.72259176 0.5644269 0.015273771 0.12287142 -0.17835043 -0.32217783 0.5782181 0.036600865 0.298354 -0.21491824 0.3806063 -0.092805065 0.0056143724 -0.15512243 0.1054364 0.21981888 0.12669346 -0.80471116 0.7535456 0.07740105 0.10975706 -0.16754088 0.057135656 -0.048333913 -0.320684 0.032718506 -0.40328857 0.2151302 0.5111494 0.39516416 -0.2758889 0.06396578 -0.07421816 0.12135249 -0.080693096 0.60762525 0.32465333 0.060430244 0.19098206 0.43359232 0.0051140003 -0.07373937 -0.18107028 -0.09696567 -0.013043136 0.33418676 0.06440781 -0.51787883 0.32513037 0.2118449 0.26363093 -0.30734834 -0.31328347 0.21184984 0.0025032896 -0.89426553 -0.07789492 -0.06500188 0.25448048 -0.06741004 0.04085483 0.26862824 0.100328304 0.31485054 0.21008202 0.21287657 0.013844241 0.4877277 0.073901065 0.7415526 -0.42472816 0.57536995 0.35195655 0.3347211 0.067809805 0.010113928 -0.49982777 -0.19199495 0.056235455 0.28086796 -0.07353494 0.18595555 -0.2218758 -0.261397 0.1669832 -0.061822686 0.22765042 0.08335754 0.22689043 0.19239838 -0.61018395 0.43136132 0.016085602 -0.29343852 -0.24967039 0.1038172 -0.0122802695 -0.41024444 0.11777858 -0.21335249
82920 -0.29682267 0.025312733 0.006144777 0.43990782 0.54535407 0.09540278 0.69946647 0.53930813 0.18834929 0.2204438 0.10673194 -0.27579302 -0.27390808 -0.36470175 -0.19985442 0.50457245 -0.35197914 -0.527102 0.34033263 -0.0934955 0.26962987 0.27968577 0.035124063 -0.13506722 0.0020125916 0.5345337 -0.13514325 0.70041203 0.0010189197 -0.257532 0.108586796 0.1613255 0.37484995 -0.6446122 0.44125196 0.35362095 0.53224826 -0.12654516 -0.07081269 -0.13286062 -0.32894295 0.27066365 -0.17958744 0.24800129 0.6354581 -0.17526163 0.3641984 0.16427253 0.21123822 -0.14672248 -0.4852443 -0.2976738 -0.16377713 0.25550222 -0.3437038 0.17741212 0.20886028 0.30179796 0.32630634 -0.538064 -0.279587 0.13202044 0.2081558 0.2986035 0.54789424 0.10743222 0.19331753 0.07294135 -0.16391934 0.046280894 0.05425224 -0.20240247 0.061931863 -0.15258707 -0.38328105 0.17732717 -0.13295981 0.10854095 -0.20596156 -0.26470447 -0.40070298 0.079943806 -0.39258027 -0.030511102 -0.64666796 0.17666115 0.012487944 -0.30379105 0.37551704 0.43542126 0.37182158 -0.10491148 -0.09417212 0.037060212 0.055598166 -0.23155652 -0.3262525 -0.054671217 0.016362 -0.044279177 -0.510385 0.054775506 -0.1717458 0.022596128 -0.325016 0.016092058 -0.31774062 0.045755424 0.31949255 -0.17982826 -0.45027858 0.2337949 0.069106884 -0.016474565 -0.21075343 0.12016205 0.5538805 0.15539029 -0.5160374 0.06702628 -0.32504678 -0.34113073 0.13619924 -0.03966614 -0.6173122 0.10377221 0.44246137 -0.06996939
10169 -0.288696 0.29321542 0.33824393 0.192073 0.3078804 0.10687475 0.05073583 0.35048667 0.10031224 0.16787738 0.029495124 0.29976758 -0.1304798 -0.20072879 -0.16734037 -0.26418477 -0.14552706 -0.40117234 -0.08948613 -0.092354186 0.015947267 0.34518576 0.2023222 0.3745238 0.15794161 0.097493716 0.47751006 0.34739584 0.568073 -0.30701938 0.19071326 -0.17169815 -0.2716522 -0.5223364 0.50585294 0.35382316 -0.13087122 -0.4190227 -0.3667378 -0.48475733 -0.40757683 0.2805446 -0.025176236 0.38711938 0.42829162 -0.28892156 0.51674265 -0.20877104 0.04180578 -0.311916 -0.14645568 0.65661013 -0.42365035 -0.25205043 -0.28393143 -0.19419016 0.23183465 0.05569493 -0.3144438 0.04105502 -0.66523916 -0.09860683 -0.073108494 0.13114804 -0.116908334 0.2502988 -0.13092275 0.23608667 -0.07173708 -0.099704504 -0.02934197 -0.17521861 -0.4705625 0.35258517 -0.38720062 -0.355479 0.7844383 0.08010652 0.14905374 0.050644454 -0.55888337 0.33132148 -0.06660766 -0.15390094 -0.15710592 0.06998912 0.30446166 -0.92468673 0.02937784 -0.25969854 0.2132857 0.025511196 -0.13701682 -0.0006256386 0.18925008 -0.09504796 0.64309186 0.5699488 -0.088656016 0.005493378 -0.20039415 0.12866828 -0.20577805 0.06296298 -0.23746635 0.6260927 0.41514415 0.298266 -0.13085526 -0.14058991 -0.14651042 0.16272819 -0.14789279 -0.37942433 0.043900605 0.033934392 0.30625218 0.20509775 -0.2671281 0.015345449 0.10408165 -0.19519252 0.6424455 0.40977427 0.12609456 0.083319604 0.06879056 -0.16891785
12576 -0.14071342 0.13959993 -0.06363363 0.24280469 0.05580268 -0.06499722 0.2618699 0.18709037 0.25194055 0.20329204 -0.27022403 -0.28518 -0.4773959 0.035538264 -0.07348357 0.041400082 -0.49415243 -0.16211803 -0.31366855 0.013962729 0.2572737 0.57781917 0.44294468 0.12621768 0.12150618 0.40424955 -0.24000001 0.9783684 -0.15925801 -0.50040716 0.32319853 -0.10935164 0.17796461 -0.4552949 0.23429623 0.12627156 0.22715552 -0.14960815 -0.24736041 -0.20885397 -0.6198164 0.32456803 -0.084747784 -0.09787617 0.24617983 -0.47482306 0.07065778 0.23277792 -0.075751595 -0.27651206 -0.4137131 0.16930456 -0.29230124 0.2753416 -0.61762995 -0.041757703 -0.029270235 0.01195801 0.1156019 -0.5988166 0.06846626 -0.07434612 0.23587598 0.06616394 0.026143385 -0.023013858 -0.025231643 0.06440434 0.27564391 -0.15091085 0.1290544 -0.4026476 0.16571252 -0.0046951016 -0.21471217 0.024429752 0.006912061 0.09515472 -0.22312589 -0.2257256 -0.2441992 0.78426063 -0.28235063 -0.46684572 -0.37747115 0.016484946 0.32814008 -0.17841454 0.16651432 0.100050375 0.081337474 -0.41029948 0.18990946 -0.07347233 -0.39435208 -0.47438735 0.47368684 0.5861511 -0.3336895 -0.23854415 0.09128324 -0.53109676 0.09090716 0.20721532 -0.07553921 0.23617692 -0.27498794 0.10145735 0.08991431 0.16673872 -0.10734356 -0.19195053 0.3325548 -0.24872018 0.07265967 -0.12220068 0.16476229 -0.10727598 -0.018365521 0.19442047 -0.23053648 -0.17777862 -0.36996529 -0.003992632 -0.21349084 -0.08151376 0.2431803 0.07306171
22563 -0.46645886 0.3469316 0.1681562 0.69889337 0.03145247 0.4266571 0.6916743 -0.03358035 0.32338423 0.1218483 -0.3714329 0.25333372 -0.23124748 -0.23366731 0.3299293 0.0625965 0.3866388 -0.2532616 -0.192761 -0.55637974 0.046557643 0.15525311 -0.32754058 0.11147635 0.10757963 0.6803701 0.10450104 0.27340305 0.531772 -0.08377912 -0.5952423 0.10975145 -0.6886697 -0.24740869 0.10901019 0.02968459 -0.24149477 -0.11763058 -0.25384617 0.1035883 -0.06856955 0.2995702 -0.43803304 -0.030051684 0.042623643 -0.25584033 0.07951499 -0.2289134 -0.44013053 -0.13523404 0.124245755 0.15907165 -0.4741141 -0.5059505 -0.1303778 -0.23493588 0.15725084 -0.0013365942 0.12507458 0.19523898 -0.12061637 -0.24246486 0.129637 0.43954402 0.12809426 0.73145086 -0.5570646 0.48152673 -0.02508611 0.078635946 0.14260986 -0.14734077 -0.22987473 -0.007753579 -0.07177775 0.14884858 0.27508527 0.14189254 -0.000975551 -0.07637796 -0.20258692 0.37231597 -0.3220133 -0.65036845 -0.26053205 0.15092525 0.017657671 -0.35235035 -0.47544566 0.36813948 0.35773683 0.009322505 0.3538528 0.13201988 -0.20720002 0.22577061 -0.080057755 0.5786065 0.21636002 0.073196985 0.25757134 0.45603746 0.06352524 -0.17519104 -0.3634989 -0.27058542 -0.10389313 -0.038639907 -0.081791855 -0.26336372 -0.25765243 -0.29047886 0.007903954 0.011900043 -0.2007074 0.042408776 0.17641625 0.49687013 -0.19882078 0.0060396674 -0.14306688 0.14791213 -0.3452154 0.071200736 -0.044849534 -0.20265447 0.14344525 -0.06079572
12350 -0.45331365 -0.15804502 -0.032703068 0.5202821 -0.041115694 0.19928761 0.43758306 0.040876795 0.23648803 -0.06398548 0.30641416 -0.16190778 -0.16751058 -0.4422493 -0.5953588 0.3393131 -0.3435367 -0.4923302 -0.24550067 -0.31832045 -0.120681815 0.13535206 0.24010567 0.27046973 -0.04109636 -0.13959952 0.26910013 -0.20641579 0.38397115 0.13597962 -0.022233577 0.7194892 0.053660423 -0.5258941 0.55212164 -0.08291766 0.6378899 -0.43887338 -0.21441765 -0.056472965 -0.4388215 0.11784779 0.13486166 0.50125766 0.68960404 -0.5248397 0.6829572 -0.0480469 0.23861401 -0.12488801 -0.028757619 0.32106256 0.00063507777 0.18017972 -0.053293124 0.41509926 0.114208885 0.23544632 -0.1338904 -0.050490856 -0.2953098 0.055471063 0.36798882 0.43327448 0.36258775 0.18448374 0.31818196 0.3895391 0.16353174 -0.20320465 -0.16014147 -0.29024577 0.073234096 0.36278698 -0.1359413 -0.006487658 0.39799258 0.06614386 -0.23592046 -0.1700854 -0.079548 0.044230346 -0.31387085 -0.20803422 -0.45989633 -0.17317536 -0.006041008 -0.17638628 -0.48075643 0.38223523 0.3817157 0.5800735 -0.021156432 0.6042717 0.037436813 0.56241894 0.21895218 0.38459715 -0.24292164 0.31364542 0.19862624 0.5796413 -0.10936444 0.029866057 -0.35313487 0.13444045 0.15607098 0.2667626 0.20050898 0.054306693 -0.08259079 0.081974 -0.08011735 -0.08164473 -0.107155785 -0.04655371 0.6058851 -0.20701367 -0.42227855 0.21924399 -0.02718269 -0.07760728 -0.10062717 0.6034541 -0.2179214 -0.09661324 -0.1880921 -0.1619588
15429 -0.48107603 0.12080995 0.45804155 0.0842903 0.12655683 0.32742563 0.46667093 0.3175714 0.37055346 -0.12402148 0.2865079 -0.3437568 0.10924333 -0.17816839 -0.4902319 0.30017537 -0.40516758 -0.43405357 -0.31945008 -0.32779607 0.0024967915 0.090022594 -0.051576354 0.07585478 -0.020980319 0.16816032 -0.12880503 -0.10629732 0.69142973 -0.42333776 0.18310532 -0.1511621 -0.014400443 -0.48098686 0.3746219 -0.10932555 0.044843838 -0.2941295 0.17900985 -0.29427975 -0.14432098 -0.0052658003 0.1919408 0.50904197 0.25595286 -0.5753058 0.6684751 -0.21672337 0.18871489 -0.17847402 -0.12464825 0.57700664 -0.075790964 0.22775312 -0.18090829 -0.009143467 0.13758491 0.054700084 -0.328891 -0.29626396 -0.44028643 -0.22304715 -0.026003633 0.07414992 0.21519233 0.5491163 0.2864065 0.3039637 -0.14272301 -0.33024275 -0.25292844 -0.2094358 0.075822756 0.30564684 0.032071188 0.1146373 0.634625 0.2916093 -0.03942746 -0.32320172 -0.280217 0.27640715 -0.088476636 -0.61514723 -0.50815344 -0.26004583 0.011321341 -0.7555639 -0.42715502 0.3035662 -0.041651793 -0.24373887 -0.16316417 0.116592586 0.21552998 0.37568983 0.56616825 1.0391611 -0.43114778 0.39721495 0.007829489 0.22341964 0.0077784467 0.1202527 -0.33273828 0.15000719 0.22658874 0.54563135 0.1659233 0.42721123 -0.32409328 0.07857186 0.11761994 -0.08640167 -0.35152578 0.20360385 0.3905587 0.09830695 -0.4146061 0.43552646 -0.2129423 -0.0652416 0.14565359 0.7888241 -0.21652885 -0.311059 0.30229193 -0.28728724
8703 -0.1128557 0.7324221 -0.1569918 0.0853256 -0.38270807 0.035421774 0.5674392 0.12960346 0.7677093 0.31480265 0.085469976 0.29690176 -0.11753778 -0.06905757 -0.018026635 -0.095127106 0.21159777 -0.21646203 -0.35066196 -0.16106285 -0.14378737 0.12931068 0.066246696 0.40160292 0.40708548 0.5083202 -0.044546854 0.10711505 0.3915294 -0.112109706 0.510958 -0.19588505 -0.107798874 0.3638602 0.12331893 -0.1609248 0.087010875 -0.60487604 -0.66394526 -0.4875845 -0.36804026 0.5029734 -0.2745558 0.025124688 0.30657905 -0.78716016 -0.3652408 -0.17612271 0.020454112 -0.45361578 -0.06426083 0.20192945 -0.36003953 -0.26930842 -0.13829029 -0.02696426 0.24752583 0.27411735 -0.1651821 -0.37587556 -0.58321404 -0.44180408 0.0883589 0.07735467 0.1015704 -0.04452765 -0.5669737 -0.07805372 -0.10451951 0.3037476 0.0061977324 -0.15051492 0.034748565 0.1962943 -0.02407637 0.30042565 0.5264296 -0.09907328 0.06796278 -0.18748923 -0.27238724 0.4955405 -0.17702787 -0.4816781 -0.35390505 0.26841214 0.18914898 -0.32433018 -0.3076732 0.3032106 -0.033180386 -0.23869102 0.30940065 -0.2880109 0.05557151 -0.25297487 -0.11777178 0.3794495 -0.024068968 0.56488913 0.060554843 0.40700522 -0.49680436 -0.08588488 -0.08703326 0.06179511 -0.67934 -0.19225423 -0.077167615 -0.2660263 -0.37319517 -0.07785296 0.086073615 -0.24986356 -0.37899348 0.16853194 0.31125924 0.15839648 0.08137269 0.46986428 0.2632231 -0.1023384 -0.16841213 0.6200102 -0.2030328 -0.26507956 -0.09267382 0.21396065
39890 0.07431981 0.2979363 0.00035098716 0.23148176 0.6877392 0.20708196 0.014360901 -0.26608703 0.22313254 -0.08735897 -0.069604345 0.029624604 -0.27055946 -0.53503996 0.08620012 0.4222792 0.5080015 0.083777666 0.0583378 -0.083733045 0.027718578 0.18398337 0.48543346 0.23906346 0.24157237 -0.17246468 0.29824966 -0.104670234 0.21236077 -0.08708413 -0.24650624 -0.5872652 0.28081787 -0.3152098 -0.028703663 -0.22199884 -0.26654288 -0.64918447 -0.22810495 0.014191628 -0.21949646 0.19285533 -0.44070363 -0.4521564 -0.26362094 -0.66223806 0.7997965 0.39910737 0.5665133 -0.6513386 -0.12909976 0.53633696 -0.56161344 0.07429655 -0.030656535 -0.08306775 0.015105391 0.31315237 -0.5888805 0.2938513 -0.49983802 0.03932973 -0.102043554 -0.20532972 0.48420593 -0.08236403 -0.039380487 0.32805008 -0.0264106 0.35126525 0.14293386 -0.1670146 -0.02684071 0.30148965 0.03271538 -0.23689152 -0.13673678 0.46578106 0.005605139 -0.8099384 -0.19708443 -0.036499396 -0.51280147 -0.4543496 -0.28055295 0.34143808 0.21838915 -0.4643006 -0.2982132 0.1763996 0.16544954 -0.18110347 0.2504107 0.05664768 -0.20749408 0.27624524 0.05200464 0.45946234 -0.41598725 -0.1756047 -0.011654786 -0.11155233 0.19538768 -0.015955552 0.1267654 -0.19490755 -0.33801043 -0.47176605 -0.22223866 -0.19583878 0.17983645 -0.16231522 0.49140075 -0.43399656 -0.32427347 0.5048428 0.43888068 -0.2443823 -0.3822669 0.1265398 0.29171014 -0.25033703 -0.4104339 -0.04151982 0.4124452 0.19399132 0.13446446 -0.12313425
31353 0.12094463 -0.05290362 0.40246034 0.48228315 -0.3470128 0.27250713 0.26109776 -0.34776786 0.3971796 -0.39219213 0.537171 -0.09359747 0.008569311 -0.42059037 -0.15028138 0.44394436 -0.6995479 -0.64707345 0.34736603 -0.27326277 0.4271334 0.19650221 -0.2735717 0.6518213 0.29132068 0.38195428 0.938203 0.09837399 0.4743581 -0.11714814 -0.010420479 -0.477076 -0.11315895 -0.50577784 0.11361331 0.37866396 0.43267238 -0.4147893 0.22064528 -0.36504567 0.028545203 -0.10126591 -0.09806695 0.18011536 0.052594695 -0.31756037 0.51961553 0.5011603 -0.004300292 0.020052966 -0.28488752 0.035208505 -0.54694474 0.26421458 -0.053683735 0.5385781 -0.12484714 0.36369795 -0.019651629 -0.19560072 -0.2641686 -0.26655778 0.117753595 0.44821778 0.53156906 0.2849726 0.13962483 0.424119 0.17201903 -0.0064721475 0.021506734 0.22137627 0.047898896 0.28725544 -0.14752313 -0.36567408 -0.114695504 0.10988906 -0.08004298 -0.1613679 -0.2777103 0.10971312 -0.0495642 -0.30570138 0.31243065 -0.032936115 0.18877137 -0.48213768 -0.34335345 0.06554136 -0.30127072 0.37772056 -0.31905252 0.3756069 -0.51209104 0.26413673 0.42965907 0.26541337 -0.234635 0.8015557 -0.15798946 0.22067705 0.099655375 -0.05745932 -0.6216396 -0.4336396 0.27482855 -0.049023185 -0.040519137 -0.6192956 0.3545982 -0.18082522 0.11524334 -0.25623912 0.44383925 0.12041844 0.58469516 -0.14936624 -0.5981096 0.013198418 0.52151877 -0.27376205 -0.29942784 -0.123928204 0.015429075 -0.5265373 -0.013522587 -0.70904666
2653 -0.07161521 0.18798167 0.7489875 0.49445283 -0.213603 0.45278847 0.14979835 0.34181938 0.26931176 0.31319892 0.17686306 0.12731737 -0.5131507 -0.37442574 -0.6431307 -0.14814958 -0.11166674 -0.37168294 0.21904768 -0.26146483 -0.032966316 0.081739955 0.29172376 0.9764941 0.055012364 -0.051580343 0.16642822 -0.10516645 0.66502035 0.33113852 -0.38349885 0.2660032 0.16494873 -0.33127195 -0.17986253 -0.14987817 0.18872803 -0.013902932 0.05280318 0.29021963 -0.024470098 0.17081805 -0.051326036 -0.039178845 0.027879197 -0.5791492 0.5049229 -0.15273623 0.15538074 -0.34991926 0.048208944 0.18984118 -0.20720704 -0.23758109 -0.3823855 -0.052211925 0.31461084 0.35612354 0.033266492 -0.14865121 -0.5675124 0.015640259 0.10607929 0.7596009 0.20888814 0.17205262 0.021650128 0.5590516 -0.20100398 0.20942853 -0.17414914 0.12636875 -0.31461042 -0.12595488 0.21635927 -0.5135126 0.31506932 0.13418849 0.0143879475 -0.26807916 -0.30781916 -0.0135812275 -0.031134816 -0.52282786 -0.46581855 -0.008490843 0.30469245 -0.13824439 0.0062692794 0.10045658 -0.13711873 0.5627743 0.041847322 0.004250892 -0.2558867 -0.17114949 0.36589375 0.6715475 0.04878273 0.29043257 0.158525 0.41201797 0.3452513 0.13789043 -0.43662938 -0.13282819 -0.011573306 0.4961221 -0.13457583 0.062692516 -0.34985438 0.17162772 -0.04084372 0.015057872 0.23599692 0.015225896 0.31214744 0.022354914 -0.20864348 0.15690807 -0.2696646 -0.413891 -0.08385778 0.29601815 -0.29033393 -0.08656941 0.16712089 -0.38996148
643221 0.118413895 0.22184321 0.35026422 0.1903686 0.5537035 -0.29074636 0.41494924 0.38853976 0.18597707 -0.13895492 0.20214097 0.2653972 -0.025753068 0.0005019054 -0.088289775 0.7524776 -0.42905498 0.18490365 -0.30682227 -0.55776685 -0.78759575 -0.185512 -0.25699678 0.7390359 0.15374349 0.26557046 0.31458342 0.26349872 0.33689025 -0.2169567 0.062346667 -0.0966169 -0.021840775 -0.19677742 0.628083 -0.55016255 0.70774716 -0.5644198 -0.25899535 -0.49534506 -0.4235804 0.03884922 -0.2101668 -0.9447531 -0.067607105 -0.66600543 0.09932614 0.63753647 0.09046614 -0.50057006 0.22927508 0.10593884 -0.25292897 -0.078472346 0.15438126 0.30530623 0.18917088 0.44604978 0.2555789 0.127862 0.030078338 -0.5210152 0.27744013 0.08791463 0.18119043 -0.07545951 -0.52120024 0.7987099 -0.17494191 -0.19211784 0.15900438 -0.26526362 0.5622574 -0.21437044 -0.55202484 -0.56924224 0.13857597 0.5110702 0.4832578 -0.64812213 -0.3651963 -0.42309123 -0.35505223 -0.53880227 -0.3145699 -0.1546396 0.59154034 -0.31873393 0.29087484 -0.07632767 0.30279943 -0.06269357 -0.7562467 -0.29755265 0.07488955 0.03170137 0.32224232 -0.008190026 0.07292373 0.14254102 -0.22676313 -0.45896417 0.3598428 -0.40044045 0.090433754 -0.32262293 -0.13768381 0.3340129 -0.15493746 0.08214114 0.23776206 -0.51092696 0.66673636 -0.393382 -0.18630856 0.114328645 0.60370165 -0.11252624 -0.22850099 0.036671415 0.1956459 0.26438922 -0.5074259 0.6131774 -0.71182543 -0.08439065 0.48731187 -0.42613128
23738 -0.053925358 0.16653988 0.34909043 0.6445164 0.18433781 0.29877582 0.6506391 -0.061764386 0.38506168 0.31641498 0.050190557 0.26573518 0.24447101 0.068924725 -0.11683427 -0.08152949 0.56294966 -0.1737419 0.35560647 -0.28069803 -0.27698174 -0.19774577 0.5563371 0.41946846 0.07685613 -0.06288007 0.113586396 -0.11963814 0.24979326 0.12693536 -0.49085417 -0.028900772 -0.045815647 -0.40249622 0.093827754 -0.017253373 -0.016610753 -0.2812548 0.1172395 -0.07667839 -0.026490392 0.3265654 -0.06931305 0.19315362 0.27705392 -0.57358956 0.5131321 0.07619453 -0.27632415 -0.3387988 -0.07712668 0.40614596 -0.64961946 -0.5807822 -0.09848108 0.1913035 0.13462608 0.14196533 0.33534247 -0.09790931 -0.37611943 0.19799297 0.06899634 0.29766157 0.5727993 0.17797467 0.011465065 0.5455158 -0.04421183 0.289307 0.04681901 -0.18320625 -0.20981835 0.063556 0.5046733 0.18248993 0.36808473 0.09635139 -0.11010595 -0.14112027 -0.17763796 0.36184055 -0.27865005 -0.77439165 -0.36423922 0.5311835 0.28572786 -0.16786344 -0.43212274 0.34689578 0.026389081 -0.0013254702 0.6708093 0.08785665 -0.012789115 0.025064176 0.1164408 0.36269647 0.1192568 0.17904828 -0.2208819 0.40072155 0.22481291 -0.045387797 -0.22795872 -0.09004234 -0.34248108 0.39863604 0.14895053 -0.12838995 -0.07992162 -0.38713783 0.36952105 -0.15440488 0.25312218 -0.096661754 0.1265699 0.027093504 -0.3340661 -0.10399158 0.24033725 0.0712445 -0.27858236 0.16977635 -0.04478806 -0.33856487 0.46067694 -0.17937823
16819 -0.13154277 0.15737341 0.43544316 0.034821592 0.3941005 -0.16460933 0.5356548 0.3305232 0.20832723 -0.35004562 0.24940406 0.33295032 -0.34624782 0.12079283 -0.14172608 0.8897204 -0.3653107 0.20281816 -0.23962636 -0.628927 -0.5456764 -0.46215734 0.07627437 0.76836455 0.22157143 0.24503136 0.4467775 0.09643158 0.4338287 -0.17611244 -0.13961983 -0.036835514 0.0039412123 -0.22084486 0.34105536 -0.56248313 0.8209667 -0.102921255 -0.20193267 -0.6276365 -0.40183038 0.022321878 -0.2914807 -0.84259456 0.034947816 -0.57550204 -0.28742477 0.57407445 0.061161663 -0.48266548 0.013477549 0.13727415 -0.31601444 0.08551754 -0.071738645 0.6029701 0.03782281 0.30446675 0.3497662 -0.056485415 -0.057467397 -0.4592166 0.20008335 0.19289349 0.02963182 -0.023676293 -0.48041254 0.6464431 -0.4624205 -0.17134027 0.24794567 -0.30226865 0.3229175 -0.23543537 -0.41630244 -0.55265546 0.16651301 0.5759063 0.4172473 -0.5001208 -0.35245693 -0.30167297 -0.12287068 -0.4282458 -0.2690542 -0.1775749 0.5185684 -0.25129515 0.15391539 -0.21543719 0.23510782 -0.12796852 -0.61191964 -0.5338768 0.10335819 0.064245336 0.35453683 -0.041384343 -0.05718303 0.2047831 -0.2869838 -0.562012 0.23702063 -0.49587572 0.13472332 -0.052264575 -0.24375837 0.44447747 -0.031303182 0.07124493 0.17194656 -0.43589056 0.61732894 -0.5611599 -0.24196707 -7.407289e-05 0.48127538 -0.02279572 -0.10791829 0.17511852 0.19950664 0.33907062 -0.34233412 0.68237 -0.8758278 -0.06492717 0.6097356 -0.2964726
2658 -0.2494749 0.51906574 0.39164004 0.16995001 -0.08008039 0.3206502 0.29164222 -0.050804105 0.9276478 0.42910606 -0.18815452 0.13638042 -0.2546157 0.086207084 0.049246546 -0.11880947 -0.63515407 -0.506957 0.121610686 0.22569734 0.089406714 0.88087934 0.0049434393 0.008557268 0.33191594 -0.17994232 0.052435033 0.094961576 0.24464646 -0.13266028 0.42957687 -0.5402746 -0.0554134 0.009225664 -0.5587707 -0.38329408 -0.10324745 -0.21577048 -0.32764396 -0.5949673 -0.6300647 -0.087901935 -0.5050969 0.022287833 -0.14726327 -0.34484506 0.48311532 0.12571011 0.27545926 -0.34109822 0.16117416 0.037501674 -0.073971145 0.05520298 -0.7216892 0.66252774 -0.030741725 -0.091997735 -0.0027862133 0.1459533 -0.2144996 -0.3541667 0.53239113 0.71631753 0.5392438 -0.05199772 0.17234185 0.05999999 -0.6464692 0.2170684 0.54923964 -0.5778734 -0.63269055 -0.20890546 -0.4282312 -0.4970322 -0.15624654 0.6315546 -0.047151435 -0.0842135 -0.426451 -0.1646757 -0.1792303 -0.7908072 0.10412996 -0.31194955 0.33030593 -0.18134545 -0.075948834 0.42734426 -0.2767191 -0.9703566 -0.2742797 -0.35626623 0.18802805 0.56795335 0.21807595 0.09463752 -0.03057896 0.17227271 0.38828275 -0.20327407 0.5138426 0.333866 -0.10123631 -0.80233526 0.5194827 0.13436724 0.24332207 -0.27244872 -0.14863758 -0.7275529 -0.3195859 -0.34125882 -0.19765906 0.6956287 1.0250679 -0.037556417 -0.29054165 0.2552126 0.29676238 -0.45088175 0.006051753 0.065181606 -0.10163058 -0.11602367 -0.13856377 -0.9475213
4804 -0.30560806 0.055424694 0.28896582 0.314633 -0.032530304 0.34430057 0.2112216 -0.3619938 -0.08505548 0.053118903 0.28487167 -0.015793325 -0.19977567 -0.2050795 -0.46447998 0.4238183 -0.6068397 -0.8629966 0.050373483 -0.03240661 -0.26322705 0.09852982 -0.06339133 0.6727126 -0.59079176 0.17979765 0.18534534 -0.030303702 0.49719784 0.1594072 0.43775856 -0.048529483 0.1072824 -0.5562991 0.3120323 -0.10791256 0.15241826 -0.2361133 -0.014632217 0.12630583 -0.03415523 -0.16071558 -0.0908093 0.4959097 0.24075626 -0.85945415 0.64378554 -0.30852047 0.15615143 -0.22083224 0.17195782 0.04903419 -0.15150106 -0.011794321 -0.17851818 0.13293552 0.1805882 0.5936151 -0.48491538 -0.06590652 -0.4181024 0.33901948 -0.109935954 0.19932193 0.42355952 0.11886128 0.4341142 0.48761597 0.027646076 -0.14439243 -0.40320608 -0.19895144 -0.3364308 0.4112491 -0.20724753 -0.19770636 0.5134841 0.31787387 0.09638303 -0.1006101 -0.4380774 0.47028363 -0.36172026 -0.4577636 0.056428865 -0.059035942 -0.09318469 -0.049768336 -0.37897807 0.24564868 0.284394 0.074140936 0.01642782 0.25448292 0.06898134 0.25581318 0.17530124 0.7365928 -0.4451418 0.28813705 0.25593624 0.12551416 -0.05291059 0.1105936 -0.32869366 0.19387004 0.07325839 0.24884354 0.026952706 0.058200054 0.078267686 -0.0745604 0.08662536 -0.16134207 -0.34559685 0.09514595 0.5686626 -0.0028036307 -0.30832627 0.29822496 -0.08106587 0.21727443 -0.07025567 0.79216284 0.30207682 -0.69273233 0.29694745 -0.41981465
1688 -0.3010615 0.41107908 -0.2521753 0.7389705 0.44815272 0.22104356 0.45211414 0.64253163 0.4653127 0.43466657 0.20441264 -0.36535174 0.020780735 -0.11679545 -0.4681145 0.4238606 -0.5561051 -0.3903272 -0.024366599 0.16050994 0.4672792 0.2707717 0.24990988 0.1773674 -0.19790584 0.23529817 0.093875974 0.64361775 -0.35683563 0.27125695 0.31992874 0.063112706 0.0710755 -0.65224254 -0.04224875 0.25222254 0.18793127 0.11357919 -0.14440621 -0.11835312 -0.58337003 0.16535786 -0.3504672 0.3198644 -0.04128175 -0.1276199 0.03521056 0.19343285 -0.03170111 -0.27829236 -0.27667502 0.069667496 -0.14494723 0.2773812 -0.24772274 0.09763916 -0.06438086 0.43543142 0.0046062656 -0.366583 -0.076471426 0.38740665 0.51755476 0.4664896 0.04163051 0.1011013 0.008979317 0.08352581 -0.32570836 -0.09529561 -0.12176908 -0.39359158 0.46836728 -0.23985031 -0.22690299 -0.29006952 -0.2818595 -0.10623446 -0.038455714 0.065015875 -0.38445738 0.29924983 -0.28875172 -0.2569542 -0.27185035 -0.018554423 0.4650413 0.04491101 0.29979143 0.4751075 0.2552848 -0.08488664 0.26391423 -0.45980772 -0.049911026 -0.12048783 0.16129746 0.008368362 0.3280606 0.13776124 -0.06091508 -0.42542773 0.03605901 0.0940653 0.045805797 -0.009258859 -0.5508319 0.28982592 0.16063353 -0.26348096 -0.24452229 0.075061135 0.2956132 -0.44942802 0.08900449 0.23696858 0.30808842 0.12517397 -0.30965593 -0.17874159 -0.050862532 -0.36572596 -0.1458268 -0.09057514 -0.42058834 0.12910302 1.0526106 -0.22664127
3220 -0.29862425 0.11331476 0.5588285 0.22980344 -0.33629662 0.4613212 0.45058483 0.037003297 0.34247994 0.11673331 -0.06648232 0.19902216 -0.095603645 -0.06553366 0.22998582 0.22844326 -0.22045888 -0.48914996 0.30490303 -0.38529122 0.111657545 0.07798818 -0.2303862 0.42146558 0.32430607 0.57294047 0.98385227 0.41050348 0.3491863 0.05532773 -0.04805401 -0.35445285 -0.5419189 -0.26205817 0.34897044 -0.060993165 0.20749056 -0.55924785 -0.5478992 -0.2748159 -0.107249655 0.15157904 0.09813668 -0.0835528 0.11430654 -0.4740572 0.20452441 0.044126935 -0.19166017 -0.44178477 0.19732034 0.38288563 -0.6468579 -0.18559614 -0.22175163 -0.16520381 0.36474106 -0.39873502 -0.1592266 -0.14499296 -0.32383522 0.2076721 0.011953698 0.46725103 0.10267497 0.38110113 -0.36286053 0.3831187 0.23744516 0.19089304 0.3711165 -0.18690059 -0.080817536 0.04891841 -0.43011457 -0.18223862 0.25335586 0.116101615 -0.5155102 -0.035292774 -0.43314162 0.18166251 -0.09386495 -0.25110433 0.26334825 0.5000905 -0.17464744 -0.6890875 -0.2787768 0.114854075 0.019704286 0.32692814 0.13320942 0.1758017 -0.33931187 -0.106535695 0.022024803 0.8899399 0.054562796 0.22068964 -0.14763848 0.34225425 0.29912072 0.09507955 -0.11159947 -0.26798174 -0.16860424 0.33480412 -0.17051275 -0.22876738 0.15269908 -0.35438997 0.019028312 -0.06010732 -0.068631716 0.11504709 0.026631035 0.40553966 0.084698305 -0.11831631 0.4273854 -0.091403104 -0.33585706 0.23810568 -0.16101283 -0.3926327 -0.105837 -0.02360071
2696 -0.3317608 0.722539 0.060227737 0.22602475 -0.17814605 0.30357242 -0.17230476 -0.4774538 0.5592799 -0.011651626 -0.075224556 -0.14274526 0.05296395 -0.09557386 0.074497715 0.031803764 -0.29332167 -0.22197565 0.13495043 -0.079589285 0.45979926 0.303483 -0.17600708 0.16531487 0.48673016 0.0707112 0.4556239 0.12448944 0.50029606 -0.22962034 0.10254732 -0.6155776 -0.018535288 0.078236 -0.5004678 0.060986888 0.16393131 -0.4148174 -0.03420628 -0.5074449 -0.5259333 0.37342682 -0.19280364 0.10508089 -0.15249883 -0.32774243 0.43777663 0.2613775 -0.1998041 -0.20077318 0.25167572 0.098500654 -0.66067755 -0.03234668 -0.28546175 0.4917661 0.07168142 0.4704605 -0.04196258 0.0901677 -0.3280626 -0.49953872 0.19428097 0.16673462 0.49863082 -0.1664039 0.3250738 0.20089877 -0.4770377 -0.18498941 0.20122431 -0.30384433 -0.58673584 -0.0016688216 -0.5860429 -0.22512239 -0.5134522 0.4237686 0.3297549 0.31836855 0.15247756 -0.05575655 -0.13582663 -0.51681185 -0.4456349 -0.21492715 -0.06570004 0.15400796 -0.32286945 0.29475886 -0.08637497 -1.0904884 0.17765759 -0.08752039 0.019767225 0.4634191 0.113639385 0.03731513 0.21063726 0.4292528 0.5726401 -0.23071164 0.63604504 0.03692232 -0.36720827 -0.4090327 0.44780663 -0.03887842 0.38801277 -0.5903688 -0.22198083 -0.27402076 -0.37965867 -0.46430767 -0.123661794 0.25945663 0.512055 0.32090414 -0.43280885 0.14198539 0.16443023 -0.11568021 -0.12393261 -0.0985916 -0.5821868 0.06655312 0.3138438 -0.5809611
3191 -0.103126466 0.2156988 0.24120207 -0.049246646 0.64237463 0.34209815 -0.080290854 -0.5385515 0.041735694 -0.26863936 0.27536842 -0.010804303 -0.017036395 -0.29811746 0.08134272 0.5817825 0.40910828 0.2653201 0.3556989 -0.15532453 0.051151425 0.04087349 0.27222332 0.22606494 0.09070126 -0.3247788 0.61437994 0.14108804 0.5265628 -0.25322917 -0.6213535 -0.39939582 0.36797366 -0.08712402 -0.3297688 -0.18047538 -0.13573939 -0.34214798 -0.24932778 -0.055750947 -0.13255069 0.24183974 -0.5698917 -0.7756638 -0.30764726 -0.75337356 0.7096097 0.33175373 0.49895924 -0.55624706 -0.1960731 0.37800708 -0.41984618 0.043795664 -0.072401404 -0.019185428 0.3276577 0.5310961 -0.34014532 0.31255835 -0.3436385 0.0034311954 -0.044393525 0.24006477 -0.10417563 0.057053257 -0.21499 0.4993185 -0.3630883 0.17438954 -0.3011812 -0.13783275 0.012432045 0.18962522 -0.2968875 -0.60479784 0.4884334 0.28756505 0.31286493 -0.32202116 0.043920413 -0.31918922 -0.67645144 -0.29409775 -0.41604626 0.33089384 -0.10540064 -0.30736446 0.0383116 0.31338993 0.20082255 -0.09255451 -0.036112897 0.14552726 -0.036622263 0.08504608 0.3768595 0.44118273 -0.15524557 0.031750947 0.0060924343 0.041799393 0.27934793 0.02204384 -0.041109826 -0.16503778 -0.104313396 -0.5733709 -0.18507911 -0.18420361 0.060498368 0.044879526 0.38023406 -0.29012978 -0.11372945 0.12029002 0.57494885 -0.119062245 -0.4723147 -0.005303584 0.31903273 -0.2693804 -0.26384082 0.285156 -0.052334573 -0.023218859 0.40295774 -0.066496715
10796 0.015680209 0.13791107 -0.0018138114 0.21761324 -0.14805996 -0.02647445 0.22357759 -0.16130614 0.7771314 0.010354561 -0.029904952 -0.0066651413 -0.39316195 -0.014706662 -0.041489396 0.20494477 0.080904305 -0.29849973 -0.064582504 0.262483 0.12522736 -0.003654056 0.33729827 0.74221027 0.1307178 0.4954707 0.31807563 0.2330304 0.0037348664 -0.052911557 -0.032090876 -0.018064633 -0.22435445 0.054295722 -0.011495672 -0.568034 0.03841531 -0.07827698 -0.6582949 -0.2568356 -0.4670233 0.32426453 0.043638587 -0.15508312 0.65749776 -0.33987966 -0.2302215 0.16937977 -0.022121934 -0.22436456 -0.0978093 0.13639268 -0.51936984 -0.26493505 -0.0734911 0.035507068 -0.13933727 -0.19609047 -0.3363926 0.18828678 -0.17752066 -0.021666776 -0.12513141 0.055353433 0.37870345 -0.3741152 -0.014470382 0.15551117 0.7276629 0.16162059 0.7194256 0.18187763 -0.2123794 -0.06383704 0.43864682 0.2671138 0.031117821 0.5050021 -0.23932557 0.10267568 -0.40129444 0.16892812 0.2761085 -0.23820573 -0.51853573 0.21353836 -0.09876709 -0.6836286 -0.10296308 0.20208032 -0.17277981 -0.34374875 0.67513335 0.19109875 -0.44926134 -0.15467496 0.114295416 0.41040108 -0.46219495 0.1804251 -0.08072114 0.16166385 -0.30554304 -0.015616665 -0.26356173 0.19319846 -0.107519776 0.33776224 0.19081934 -0.43797213 -0.09663574 -0.19698527 0.34446946 -0.56985384 -0.220129 0.41467196 0.1396444 0.0970376 -0.12910989 -0.23259522 -0.31443992 0.09376116 0.05966615 0.3773495 0.3846117 -0.44785234 0.32366645 0.21997334
4335 0.1791483 0.21580452 0.04810088 0.41928583 -0.009163758 0.118991815 0.15044065 -0.31828976 -0.13450092 -0.20975164 0.2505743 -0.22598758 0.12693438 0.24531868 -0.061761964 0.56740814 -0.15580443 -0.12714146 0.5773068 -0.059724286 -0.11705565 -0.11609489 0.16134907 0.17033155 0.32225677 0.009389196 0.5210945 -0.16702147 0.29717237 -0.41535258 0.27214825 -0.13858892 0.20015061 -0.049401384 -0.026230024 -0.040194053 0.08116654 -0.7522041 0.012639126 -0.002318332 -0.09475188 0.377081 -0.49201804 -0.09211219 0.28801352 -0.30618253 0.8636638 0.16450554 -0.19490516 0.0014421102 0.0712904 0.42653814 -0.4982379 -0.033643022 -0.23875101 0.29930273 0.1635362 0.6398827 0.41909707 0.010139008 0.18113233 -0.25738636 -0.1935089 0.38196903 0.49245834 0.04890851 0.01280299 0.19600415 -0.10046246 -0.21371758 0.054530863 0.26767153 0.07985415 0.38580132 0.08983443 -0.631575 0.24649782 0.12522708 0.2640499 -0.13126472 -0.059079476 -0.085123844 -0.09692812 -0.6348135 -0.10238945 -0.17869586 0.4150972 -0.16606644 0.41512844 0.25063112 0.22300126 0.101446345 0.2165609 0.024525069 -0.35365957 0.1300888 0.32913518 0.062262964 -0.16072945 0.45425522 0.37382048 0.11761681 0.23475699 -0.4665756 -0.31337905 0.006949204 0.32463235 0.06137933 -0.5485817 -0.4899722 0.20828465 -0.22345503 0.4961908 0.17922407 0.12880684 -0.106535986 0.5106066 0.02329246 -1.0930194 0.019783067 0.14404061 -0.25896013 -0.13846408 0.15117584 -0.4178348 -0.5208187 0.12656114 -0.1776027
1481 -0.27662218 -0.010463671 -0.11115558 -0.12085385 0.10249345 0.23249902 0.38825065 0.08677066 0.14645183 -0.04920983 0.04911434 -0.09070928 -0.24246307 -0.26659954 -0.14853601 0.31256267 0.0642908 -0.16743158 -0.002200995 -0.25311878 0.301799 0.19775629 0.2985535 -0.012788691 0.66991955 0.1205128 0.2623155 0.29567075 0.5871563 0.032163773 0.47577012 -0.682927 -0.0525647 -0.53129154 0.12007026 -0.4166245 0.31971437 -0.04889929 -0.21292101 -0.21853577 -0.40525535 0.03899656 -0.12686026 -0.19497554 0.46780008 -0.45632005 0.1788414 -0.11368138 -0.10717949 -0.9789911 0.39058483 0.6463186 -0.4176661 -0.060198985 -0.7923118 0.1574626 0.18492126 0.11582809 -0.09568835 -0.30050847 -0.26783928 0.10960244 -0.019164963 -0.27767172 -0.122099414 -0.19641578 -0.10077565 0.16373977 0.14821146 0.289898 0.7197969 0.015981752 -0.04306375 -0.13969254 0.024291167 0.3380647 0.29575 0.43973714 -0.16897997 -0.5237989 -0.19944859 0.49702746 -0.057096407 -0.50936985 -0.12338209 -0.12264765 0.3918149 -0.21140906 0.27106556 0.14027327 -0.18873858 0.0701316 -0.34882054 0.00926381 -0.48692632 -0.3209701 0.1262705 0.38432914 0.23700069 0.04011957 0.10640337 -0.24334268 0.33618945 0.3524265 -0.035154764 0.23844483 -0.20972334 0.5228411 0.3785658 -0.48218605 0.080963954 -0.020772327 -0.061041106 -0.45359185 -0.3556054 0.16695172 -0.12051512 0.08550125 0.111185715 -0.26806152 0.095479496 0.29615533 0.15808241 0.14789617 0.80247563 -0.3474434 -0.06512923 0.07272947
85352 -0.25942796 0.43053842 0.0946778 0.46113685 0.4307516 0.031663783 0.6430109 0.58833927 0.06385909 -0.084589414 0.25567025 -0.11074074 0.10530647 -0.33064574 -0.047110874 0.5186167 -0.3016768 -0.4043505 0.106295586 0.022840856 0.13715795 0.9746424 0.17742617 0.0963547 0.06923722 0.47788092 0.30415496 0.8866611 -0.27761477 -0.321219 0.033957604 -0.021875003 0.13079919 -0.64298993 0.12433167 0.07359834 0.47515854 0.08234108 -0.0799497 -0.19047414 -0.5707554 0.13899526 -0.18652983 0.35868627 0.41929212 -0.10464262 0.14777488 0.3048325 0.24987523 0.01715804 -0.5921732 -0.33100381 -0.069984816 0.20003101 -0.35115033 0.26870975 0.1501217 0.4122482 -0.1870349 -0.18906245 0.058931626 -0.16479501 0.43763873 0.022520706 0.31854048 0.21283288 -0.07168256 0.10002237 -0.13957731 0.0070120394 0.06412029 -0.2986719 0.34254146 -0.6119175 -0.42517668 0.30008024 0.039914165 -0.07994761 0.14279236 -0.33347806 -0.030154606 0.23687367 -0.053378973 -0.4638725 -0.4471101 0.10785265 -0.21824574 -0.13141881 0.3860753 0.2214472 0.26988515 -0.12020878 0.01289607 -0.031913824 -0.14737302 -0.3701652 0.10686083 0.010699573 0.02741742 0.18843098 -0.46067744 -0.08412795 0.1584678 0.03718681 -0.058407582 -0.3027375 -0.38729647 0.21651034 0.30455282 -0.28316474 -0.11800002 0.1977398 0.26110122 -0.27353075 0.23551525 0.0005869055 0.27348447 0.060791884 -0.38773942 -0.14631687 -0.33732247 -0.3688957 0.036182526 -0.25120944 -0.5670889 0.18809618 0.59526885 -0.5302178
230879 -0.22405903 0.5322205 0.3200854 0.20978403 -0.23761116 0.4899908 0.5565341 0.15028763 0.76345867 0.3287195 -0.12798455 0.19475684 -0.31897 0.2172115 0.19678555 0.0066561042 -0.44423094 -0.534909 0.13731469 0.14188068 0.19915132 0.74993914 -0.1336267 0.06743598 0.4165886 -0.27640808 0.10587388 0.033592768 0.23520888 -0.18993047 0.28551117 -0.49930802 0.0059959283 0.02609144 -0.68754655 -0.4180461 -0.016962001 -0.15262067 -0.33243406 -0.73906666 -0.5849293 -0.07115944 -0.60711414 -0.026871046 -0.15595973 -0.34066373 0.50050205 0.019840196 0.23332237 -0.33357483 0.13443993 -0.26227793 -0.1812103 -0.14688036 -0.5850988 0.6680199 0.12836356 -0.2053698 -0.05971166 0.1540356 0.19408675 -0.25053513 0.4690788 0.80120164 0.5823015 -0.08011139 0.28716433 0.03607205 -0.63536406 0.29730687 0.51836234 -0.6054252 -0.43031812 -0.3897187 -0.41820085 -0.47812945 -0.17062268 0.6518968 -0.133927 -0.032135986 -0.36540478 -0.16961922 -0.36083254 -0.8351356 0.040451087 -0.19629516 0.33757222 -0.21125564 -0.19616222 0.410302 -0.017853187 -0.85385555 -0.14179492 -0.27619845 0.18686393 0.4675847 0.095981374 0.13124909 0.1287681 -0.029296288 0.27223316 -0.09718292 0.54644406 0.38818416 -0.06774502 -0.824191 0.49754834 0.18500255 0.15554622 -0.2140078 -0.06642419 -0.7276525 -0.19441196 -0.4847211 -0.14479423 0.52527463 1.1055912 0.064036176 -0.23496065 0.19246909 0.28783256 -0.24117167 -0.2586073 0.106942415 -0.20694071 -0.12822618 0.024947757 -0.9380035
117 -0.10897334 0.26268288 -0.22230072 0.3686808 0.5034899 0.31366694 0.11044464 -0.5001452 0.29624477 0.17063141 -0.3463418 -0.40387532 -0.07966508 0.22197914 -0.1416211 0.20068094 -0.17100501 -0.19448912 -0.097440824 -0.0041582817 -0.35407308 -0.0071228505 0.006927419 -0.002724302 -0.02316806 0.13135529 0.07171317 -0.024865154 0.44034332 -0.31785148 0.24635759 0.017268788 0.3919838 -0.25520372 0.10866359 -0.37398472 0.111947194 -0.51849544 -0.048200328 -0.26186484 -0.28665003 0.10022122 0.0011184611 -0.19466098 0.030265875 -0.3020482 0.5520272 0.21064362 -0.097094566 -0.052287534 -0.05077499 0.31173897 -0.3394028 -0.23420937 -0.36264315 -0.0620936 -0.3497822 0.32826662 -0.40584752 -0.38717312 -0.26466942 -0.24196935 -0.20620184 0.3915726 0.80547756 0.12056276 -0.33236003 0.38884223 0.086091615 0.33397064 0.0025888484 0.27196535 0.14420867 0.045251165 -0.22354752 0.00354115 -0.037866678 0.005262593 0.092321955 -0.28003755 0.044578813 0.43843085 -0.19883253 -0.24932839 -0.09942983 -0.14673425 -0.11053709 -0.3323053 0.040488776 0.23120135 0.0036047744 -0.4529522 0.24996763 -0.1989592 -0.47418806 0.12333304 -0.267138 0.7515542 -0.40175596 0.4486172 -0.41946238 -0.3472103 0.4353866 0.06423808 -0.16774917 -0.014190018 -0.22195728 -0.24360168 -0.053482275 -0.22565678 0.24683324 -0.07355091 0.37092805 -0.01631662 -0.69396925 0.47755393 0.0021640132 -0.3669012 -0.33590025 0.32208478 0.12870267 0.4017466 -0.41563687 -0.04482486 0.59115404 0.35600275 0.042082645 -0.21589196
35922 0.021908434 0.15244476 -0.09637708 0.459018 0.021603828 0.14111605 -0.009036318 -0.5313022 0.20147097 -0.13001223 0.26083663 -0.19194587 -0.052393496 0.023069173 -0.25897145 0.062226627 -0.66481173 -0.3372267 0.55161005 0.00957202 0.0018881102 0.3195007 0.029005652 0.2933601 0.009532617 0.12605685 0.52917045 -0.18224761 0.049794883 -0.2329429 0.055137236 0.03313421 -0.33630943 -0.15512854 0.035698917 0.31409946 0.45132828 -0.54490536 -0.054033324 -0.3534191 0.21925597 -0.084596425 -0.37712753 -0.06750239 0.12626919 -0.013581153 0.4703542 0.2150178 -0.0863736 -0.10323395 0.17170234 0.41517174 -0.33439636 0.25534618 -0.08455014 0.56430715 -0.21317758 0.37459964 0.08445298 0.22095656 -0.22634791 -0.30546817 0.2054503 0.6707919 0.42089763 -0.1300571 -0.23426946 0.1722682 0.102360114 -0.15148188 0.06914479 0.22459437 0.010109576 0.27015787 -0.0069509842 -0.51221675 0.21883601 0.10431647 0.06958148 -0.23146869 0.032331288 -0.38273406 -0.107885174 -0.15446281 -0.10219566 0.030318357 0.44727594 -0.5411319 0.16552462 0.3563662 -0.31512454 0.043919288 0.2728015 0.10130977 -0.3969025 0.5136239 0.20460443 0.030677168 -0.029819353 0.6943476 0.014479952 -0.27050146 0.07473864 -0.15221985 -0.3574635 -0.3542931 0.30662084 -0.096803814 -0.31572342 -0.4677042 0.64022666 -0.24315344 0.71258366 0.019675298 0.044172835 0.32992613 0.14440598 -0.11225662 -0.8083894 -0.2645186 0.21652108 -0.65761197 -0.06063593 0.1560315 -0.31424174 -0.18503748 -0.0020987184 -0.3987069
642894 0.26267374 0.111143544 0.29054588 0.45878863 0.3423374 -0.33234853 0.53934294 0.5012579 0.29130322 -0.2030396 0.2006976 0.2058182 -0.06858863 0.0014545575 -0.3327479 0.5541731 -0.36239716 -0.006138379 -0.29767746 -0.5826941 -0.7303852 -0.15483807 -0.2701872 0.6242848 0.020303225 0.25224862 0.3231552 0.3099665 0.20964272 -0.084238075 0.13089481 -0.025599597 -0.087882705 -0.0325756 0.6222896 -0.64478946 0.63191533 -0.45071298 -0.32775122 -0.7157249 -0.5367989 0.168483 -0.18200286 -0.92027366 -0.050303992 -0.6156846 -0.020168537 0.5405804 -0.09150197 -0.6955994 0.25801203 -0.1374599 -0.2698905 -0.13653368 0.1273115 0.44438523 0.13565068 0.14381795 0.44874462 -0.13656919 0.12727767 -0.5310648 0.33501542 0.15747318 -0.053054675 0.1883881 -0.372691 0.8040411 -0.32827452 -0.42762056 0.4496958 -0.35783702 0.45804965 -0.39511648 -0.43992364 -0.4412727 0.3494636 0.3091471 0.31978396 -0.382764 -0.310188 -0.44492996 -0.39175376 -0.6714255 -0.37099984 -0.16987394 0.69226027 -0.15285918 0.31061536 -0.09764459 0.330352 -0.0031643317 -0.82742846 -0.253234 -0.08403675 0.11309095 0.4139289 -0.055616274 0.05416247 0.25207496 -0.1733826 -0.41383135 0.4462228 -0.39585617 -0.08448987 -0.08127271 -0.13825296 0.46160853 -0.2734035 -0.048058838 0.05035515 -0.6056407 0.6958742 -0.46795323 -0.11975984 -0.1633426 0.8084318 -0.108959235 -0.27816278 0.089125894 0.04618224 0.32789657 -0.5850672 0.86313486 -0.7166371 -0.13476728 0.4804336 -0.50928444
39127 -0.17247494 0.6347268 -0.1513472 -0.06276719 0.078158975 0.5090348 0.62555367 0.0856041 0.38688877 0.0408544 -0.31679744 0.21729812 -0.35543057 -0.086890295 -0.5972903 -0.0075533395 0.071617216 -0.2593086 0.13152936 0.21033418 -0.12195469 0.009020839 0.10395851 0.3604708 0.27848032 0.20094003 0.6027168 0.33368474 0.17127939 -0.027844727 0.06358561 -0.15759602 -0.28432193 0.1753755 0.5272242 -0.31024867 -0.3127168 -0.13788234 -0.7605762 0.11509301 -0.48828936 0.11805478 -0.4137286 0.13887255 0.08315134 -0.51552397 0.77601844 0.39482257 -0.11187009 -0.46287203 -0.09941766 0.5763172 -0.09572582 -0.059690256 -0.43726757 -0.059194386 0.10599732 -0.16572249 -0.23539615 -0.07527159 -0.4871654 -0.17987746 0.14675237 -0.2727359 0.23242645 0.085946515 -0.3270248 0.76650834 -0.34156743 0.1330671 0.31650952 -0.25642765 -0.5511993 0.27853364 -0.41902897 0.009476077 0.14837879 0.37167674 0.15526223 0.116577804 -1.2411494 -0.23281541 -0.11770511 -0.35558006 0.2772718 0.16059603 0.13496119 -0.6430929 0.11529839 0.19050063 -0.14731987 -0.09809237 0.052490808 -0.34672853 0.010782312 0.36799753 0.2508252 0.23480096 0.11338881 0.11557736 -0.12436746 0.31163734 0.10417945 0.29488933 0.19858375 0.050615605 0.06367931 0.61829674 -0.39123315 -0.3769037 0.046852 0.25837326 -0.07288357 -0.41347614 -0.052788354 -0.23356631 0.46140727 0.36320913 -0.14168264 -0.42051023 -0.20200646 0.17646237 0.41022098 0.20554256 -0.013969678 -0.21174374 0.6850798 -0.09160577
54131 -0.22391257 0.29239368 -0.36876315 0.47452402 -0.07914288 -0.40424868 0.15163833 0.2798088 0.06541945 0.21019311 -0.37206545 -0.1809252 -0.110228926 -0.17276633 0.0021230832 0.5302099 -0.28917295 -0.24986078 0.07167656 0.37922326 -0.0629152 0.5343535 0.18988432 -0.34132314 -0.26368454 0.23746194 0.5489368 0.66867584 -0.21844582 -0.38866925 0.13944209 -0.03439722 0.2029058 -0.74842364 0.21775958 0.13622813 0.67515653 0.11845407 -0.1053423 0.07394738 -0.5067037 0.4792329 -0.023734288 0.09376355 0.55481106 0.0209149 -0.01537521 0.08184805 0.07576006 -0.3269374 -0.023508111 -0.50046 -0.46377245 0.10248696 -0.2959698 0.1074334 0.3042579 0.73778147 0.15083547 -0.099266164 -0.14045994 0.07175806 0.58166903 -0.06209079 0.09618289 -0.020605044 -0.1553488 0.0002649557 0.039225787 -0.29115495 0.12510712 -0.005597308 0.030021716 -0.20140845 -0.71826 -0.16735443 -0.28278974 0.17764294 0.23715788 0.02656712 -0.118022054 0.3569467 -0.12062305 -0.39226872 -0.47681442 0.12304178 -0.13540037 -0.40605414 0.29968193 0.17890397 0.24767484 -0.37307423 0.43973145 -0.34453532 0.0037001437 -0.05427232 0.124044165 -0.055994917 0.05742887 0.15623054 -0.23380671 -0.21708705 0.25768977 -0.18650544 0.097286224 -0.1513059 -0.16554576 0.28819147 -0.16529717 -0.40211105 0.044306666 0.037965603 0.2803266 -0.45748562 0.021827722 -0.3810259 0.290509 0.2680717 -0.6394709 0.432874 0.055614784 -0.44647002 -0.025710268 0.00013748955 -0.38038328 0.08464883 0.7243177 -0.06989509
210871 -0.35276878 0.03594847 -0.31436765 0.2701317 0.29225793 -0.39944273 0.70010436 -0.11610879 -0.01217157 0.3263164 -0.03543856 0.020041324 -0.36741567 0.22303177 0.21778263 0.382492 -0.38968223 -0.29878518 -0.01488466 -0.05046134 0.19828834 0.39807355 0.036554698 0.16069672 -0.17317504 0.4943426 0.0062076887 0.48158768 -0.06442725 0.050300788 0.2925146 0.24665599 0.33943194 -0.2670291 0.14432324 0.31042764 0.49368846 0.27382088 -0.326975 -0.07011529 -0.58154374 0.22407167 0.1667437 0.09165648 0.7693038 -0.04994612 -0.10622013 0.12035781 0.07281359 -0.089649774 -0.18203951 -0.29510665 -0.24784201 0.07406234 -0.42489642 -0.2772878 0.17714182 0.35333505 0.011940679 -0.543547 0.06498344 0.26093945 0.3041487 0.3861782 0.45823768 0.19502811 -0.31985116 0.03507047 -0.035309322 -0.13101807 0.12167055 -0.032368433 0.31514883 -0.27949208 -0.46458295 -0.16785572 -0.27311355 0.47161698 0.14649588 0.028475158 -0.070228815 0.107557185 -0.34610206 -0.44325122 -0.4760663 0.0900505 -0.17046265 -0.86166435 0.33270723 0.35235193 0.19155447 -0.4669732 0.30340374 -0.17717093 0.20618157 -0.4559148 -0.027270598 0.26717412 -0.40353242 -0.03563579 -0.10361714 -0.17864142 -0.16257344 -0.3299976 -0.043441452 -0.10155466 -0.40260884 -0.03921086 0.034847744 -0.13070717 -0.19855589 0.17427465 -0.13164747 -0.39750636 -0.30405077 0.2838514 0.276443 0.029437194 -0.41388896 -0.27271035 -0.20905778 -0.51773703 0.02971733 -0.26940778 -0.32756302 -0.10763866 0.14630777 0.0034637982
6334 -0.28485808 0.39668345 0.37316048 0.18005024 0.18969893 0.3008712 0.22736257 0.23032942 0.23246045 -0.09194078 -0.17002879 0.08105405 0.018689476 -0.23009372 -0.3903802 0.14068861 0.21691477 -0.25870168 0.04185632 -0.420444 0.27863422 0.17470118 0.02249906 0.48587236 0.05619485 0.13400432 0.52444774 0.46486005 0.5806755 0.12574159 0.09294185 0.17263564 -0.027337851 -0.6180309 -0.011165494 0.07173321 -0.07225241 -0.2298951 -0.6208234 0.11587055 -0.31744146 0.027166022 0.22370851 0.37470004 0.5409292 -0.41682735 0.22655375 -0.050368067 0.27990925 -0.50509167 0.14806 0.47626612 -0.47252774 -0.05901165 -0.6091103 -0.06539356 0.08910414 0.25457007 -0.23593956 0.041870084 -0.2755443 0.047606945 -0.19337416 0.17472623 -0.062840104 0.0013108078 -0.15844724 0.1952692 -0.33546722 -0.101498365 0.30146405 -0.021186767 -0.19107851 0.0062983627 -0.5156796 0.15292399 0.7180761 0.2524786 -0.10218398 -0.09244122 -0.45196873 0.11203976 0.17331432 -0.08425195 -0.28405106 -0.14548422 0.528998 -0.48406267 0.27508032 0.019523613 0.13896334 0.13497937 -0.03021906 -0.28488764 -0.0831825 -0.3114491 0.4748034 0.54706717 0.11337602 0.03653679 -0.0017548089 0.36806715 -0.14001821 -0.19829166 0.1624634 0.25591055 0.12370469 0.25906017 -0.23692481 -0.62324935 -0.21456023 0.087234095 -0.08983088 -0.1364639 0.020257948 -0.16511567 0.1575409 0.3505431 -0.022115516 -0.4694917 -0.022767797 -0.3750136 0.5820762 0.2668371 -0.02215118 -0.023895515 0.06804769 -0.1402197
5348 -0.27267402 0.63786703 0.06038815 0.27518633 -0.17490125 0.3535611 0.054444876 -0.34748846 0.5493887 -0.1156577 -0.06383468 -0.18264015 -0.065311134 -0.07520221 0.18747637 -0.08567214 -0.39846882 -0.21284595 0.11245894 0.022239788 0.32285058 0.31608626 -0.18272819 0.17989497 0.6245165 -0.027238963 0.43678382 0.30796912 0.4441338 -0.36133638 0.11965453 -0.47034428 -0.18639176 0.10174386 -0.603114 -0.065521106 0.14560173 -0.31046122 -0.027931469 -0.6988532 -0.4476085 0.41306573 -0.39095435 0.24840634 -0.2128626 -0.5903918 0.45254138 0.18672825 -0.07353516 -0.066821575 0.16508867 0.014130544 -0.7743679 -0.2224642 -0.32999772 0.5743762 0.048169743 0.45598656 0.0046014455 0.058795244 -0.1175313 -0.37316436 0.07672201 0.19062187 0.5604794 -0.17660832 0.3295924 0.16437769 -0.30529502 -0.3182066 0.12022175 -0.419719 -0.4698787 -0.050981876 -0.7156935 -0.3699233 -0.4721763 0.49732506 0.20250377 0.3206601 0.23740338 -0.14403617 -0.075713165 -0.4196746 -0.34618276 -0.010608244 -0.029119793 0.070508935 -0.46954814 0.2621033 -0.16844168 -1.0077828 0.32435116 -0.0018453168 -0.020255022 0.5387682 0.0363149 0.04093514 0.25205666 0.29204246 0.42180777 -0.17381173 0.55585235 0.21470039 -0.48582244 -0.53503233 0.3398733 -0.029182782 0.42205134 -0.4726756 -0.25374892 -0.42204 -0.133425 -0.6324222 -0.038799725 0.40188533 0.42982683 0.39684266 -0.42212337 0.16267693 0.12622096 0.14067483 -0.37444255 0.042950954 -0.56841236 0.05331067 0.5420328 -0.5605018
35797 -0.07448162 0.07583864 0.019568782 0.4602202 0.20372319 0.5791841 0.39636132 0.25437748 -0.0976512 0.06870981 0.010201583 0.33558872 -0.32955453 0.08648169 0.32591686 0.07504212 0.023752628 -0.17940837 0.3209371 -0.04375978 0.16975828 0.15198497 0.16319163 -0.37113723 0.42027524 -0.09071261 0.20968391 0.15830384 0.21481031 -0.43828222 -0.34233508 -0.0076799043 -0.12414783 -0.03029316 -0.43656456 -0.22963262 0.333027 -0.0431691 -0.10062557 -0.4865419 -0.14059679 0.63386476 -0.3740446 0.16856654 0.061836075 -0.8982417 0.17950423 -0.20272538 -0.03912039 -0.22584555 -0.10275721 0.037988786 -0.48857495 -0.38525242 -0.0005766127 0.1914795 0.35271683 0.14401183 0.05829226 -0.13293147 0.37972832 -0.23869735 0.14177456 0.8039789 0.3822448 0.10215331 0.035041098 -0.0024487549 -0.14475371 -0.2507781 0.25562966 -0.17599994 -0.10345794 -0.3437869 -0.5890109 -0.48863736 0.20621581 0.26490575 0.0029380603 0.059508435 0.028808037 -0.26720005 -0.25121343 -0.43065125 -0.3294498 0.4249264 0.13062197 0.02139884 0.0071425736 0.20572871 0.20653759 0.096781895 0.4319835 -0.119749516 -0.11862925 -0.18318713 0.31292084 0.060338713 0.17797758 -0.10862869 -0.024165448 0.23689577 0.08692479 0.36835927 -0.47180086 -0.184519 0.24996424 -0.1318161 -0.028934866 -0.23611744 0.12849252 -0.36118138 0.21108545 -0.60970134 0.2265694 -0.028461428 -0.1511275 0.40121776 -0.41637918 -0.29445377 0.07648238 0.06708689 -0.3356898 0.11954043 -0.6307771 0.06536865 0.51527053 -0.5259177
3218 -0.287186 0.5154896 -0.01344836 0.045971543 0.44117847 -0.03927612 0.84587044 0.4436373 0.41871408 0.2312154 -0.11267222 0.045509875 -0.4101727 -0.032350786 -0.55344844 -0.30944076 0.2933559 0.035190307 -0.20998731 0.26924944 -0.0487373 -0.045479793 0.37697506 0.23589788 0.45728335 0.15029415 0.30946127 0.4146684 0.6509025 0.30072707 -0.041783072 -0.089852184 -0.5347567 -0.10077311 0.56994563 0.043227065 0.2530221 -0.1894887 -0.3334799 -0.41661605 -0.31920502 0.09235486 -0.072727844 0.38894385 0.59488666 -0.2953456 0.49906296 -0.049489554 -0.24466127 -0.105639994 0.34214517 0.27286023 0.008646605 -0.21327044 -0.46655077 0.015672723 -0.07908611 -0.056750737 -0.14599556 -0.16654417 -0.60898095 0.106144905 0.069579825 0.012452421 -0.058622655 0.26035312 -0.4141865 0.62503886 -0.12623702 0.12291733 0.22114961 -0.3913479 -0.377433 0.2524985 0.101678744 0.27768207 0.39258257 0.7747086 -0.10285454 -0.057985034 -0.81634957 0.273812 -0.1033573 -0.5371936 -0.20673181 0.08821098 0.40601745 -0.28840768 0.045280714 0.42728937 -0.03652996 -0.05647306 -0.09991573 0.03242158 -0.13307872 0.031257007 0.21366802 0.26841605 -0.07317935 0.34930456 0.016828489 0.54809177 0.027648 0.09809037 -0.14199626 -0.41874844 -0.09897567 0.50102186 0.1927212 -0.06396469 -0.13530284 -0.3046822 0.23334998 -0.30448553 0.076543055 -0.02657832 -0.010674144 0.13569051 0.016994473 -0.32144034 0.18337068 0.11764157 -0.13350792 0.25892276 0.22512195 -0.19354092 0.75371706 -0.030882992
10177 -0.3536268 0.169286 0.39224404 0.46415487 -0.07389375 0.20726481 0.1681162 0.03522033 0.1191415 0.02216205 0.30341327 0.06796436 -0.071166754 -0.24279508 -0.4860729 0.09906481 -0.43604162 -0.7303535 -0.063722044 -0.32000372 -0.11022675 0.12191126 0.059566703 0.6255547 -0.19922078 -0.017995052 0.16522382 -0.08654256 0.55106735 -0.041206792 0.32383692 -0.15079835 0.03091005 -0.6553184 0.46570995 -0.07568123 0.09510012 -0.47154865 -0.017972922 0.037337866 -0.3487995 0.075842634 0.23271057 0.598869 0.4096977 -0.4742197 0.7455091 -0.10026917 0.23932666 -0.34812856 0.13075818 0.48305106 -0.3264829 0.13265523 -0.066307604 0.19028907 -0.017217135 0.14154254 -0.39548624 -0.17512378 -0.6334069 -0.07930112 0.0020504694 0.25433493 0.40050086 0.14248832 0.41331643 0.28773585 -0.07664814 -0.36471575 -0.18264946 -0.1679433 -0.2781732 0.59135455 -0.38330057 -0.09348521 0.6637757 0.29916725 0.13083124 -0.1269104 -0.60461533 0.36850542 -0.20167606 -0.39507034 -0.048062023 0.08242971 -0.10564732 -0.53212285 -0.2902604 0.3174973 0.33343437 0.24478084 -0.08567223 0.21717341 -0.0055430494 0.08869431 0.437476 0.66640514 -0.52487683 0.06727118 0.10996617 0.14761962 -0.061210953 0.069382876 -0.30698663 0.34433442 0.4601325 0.47613758 0.045597877 0.12706324 -0.13929495 0.09509634 0.024980163 -0.27156937 -0.14899367 0.15865947 0.67049444 -0.022528157 -0.24044715 0.51086146 -0.18572584 -0.010922485 0.03457065 0.6179379 0.04916957 -0.2466034 0.15001626 -0.47356623
35061 -0.11678159 0.108694635 -0.18246913 0.20388344 0.11454066 -0.071133256 0.28014332 0.21354805 0.17591608 0.18270798 0.009044718 -0.04147447 0.13933624 0.04838223 0.1561961 0.4000452 -0.74281347 -0.15478851 -0.28808787 0.24133894 -0.06295589 0.5728694 -0.1450047 0.1815603 0.17256293 0.6758358 -0.16488701 0.52762294 -0.10658791 -0.29278713 -0.17720322 0.011613256 0.1900546 -0.33452567 0.05449949 0.19054838 0.21914023 0.33683017 -0.25428957 0.045410503 -0.5608512 0.53674936 -0.14638191 -0.2565535 0.548071 0.15551004 0.13965712 0.0669997 0.23890436 -0.2510738 -0.00935066 0.08238837 -0.374238 0.051465362 -0.48468637 0.16120726 0.18647338 0.23723377 0.05193925 -0.33372983 0.025668396 -0.17650422 0.42672 0.2603798 0.38009146 0.64084905 -0.026886074 0.017089976 -0.46915486 -0.44931364 0.013518645 -0.106764115 0.18380685 -0.47655448 -0.6405934 -0.21731699 -0.21863611 0.43957165 0.34862962 -0.024699304 -0.38173547 -0.025912216 -0.18268453 -0.051084753 -0.06510734 0.55119115 0.023630459 -0.41371465 0.2102351 0.48959595 0.39028418 -0.052024085 0.26391244 -0.21979204 -0.37829188 -0.40779537 0.3872803 0.28302807 -0.123700276 -0.17053585 0.40076685 -0.16370925 -0.18898302 -0.06569655 -0.3443574 -0.36458752 -0.50534016 0.024177969 0.26144868 -0.10246385 -0.2707675 -0.02305081 0.068216965 -0.40066954 0.1253919 0.24198972 -0.013204483 -0.11513273 -0.3035039 0.024682902 -0.38377166 -0.43936568 0.059655573 -0.38967344 -0.12660451 -0.001510315 0.5827625 -0.117817655
34257 -0.57422894 0.4896099 -0.115920104 0.3593111 -0.010946696 0.047977477 0.29888517 -0.26878718 0.44835582 0.6982052 0.08335359 0.2697951 -0.07545584 0.012829137 -0.008705637 0.47010916 -0.3575863 -0.34422767 -0.43877995 -0.10160746 -0.18887624 0.5439053 0.2436499 0.7691553 0.12306742 -0.17766425 0.47959164 0.4110243 -0.35262913 -0.09711072 -0.061866943 -0.5508807 -0.7171095 0.14907788 0.046041317 -0.3767723 -0.021129828 -0.2897227 0.18504457 -0.54352504 -0.3983156 -0.2781551 -0.1714496 -0.021966496 0.21480936 -1.3846457 0.07127339 0.50451595 -0.27934554 -0.07499211 0.23821096 -0.20454678 0.22843762 -0.22172782 -0.95386916 -0.007900168 0.11890611 0.5553913 0.0062785554 -0.05249826 -0.47091892 -0.20180762 0.73719907 0.06389574 0.8721267 -0.061896417 -0.2424275 -0.08106499 -0.029088521 -0.5430572 -0.11915208 -0.3096431 0.3362439 0.109598465 -0.2081443 0.05922957 0.058642592 0.16112228 0.5438812 -0.4686732 -0.1833411 -0.23469348 -0.16012701 -0.5231673 -0.41633123 -0.23208964 0.47298348 -0.4897636 -0.5500399 0.2389726 -0.27470484 -0.5302105 -0.2696316 -0.50183845 0.48370275 -0.018031843 0.50022584 0.37573686 0.01296662 0.59753054 -0.054563656 0.4116443 -0.14783432 -0.0075654928 -0.36355245 0.13045226 0.2237 0.41574833 0.054859933 -0.661467 -0.12156176 -0.016128477 0.15742962 -0.69017786 -0.10662967 0.193562 0.26007637 -0.36169624 -0.10441947 -0.61147386 0.015197918 -0.09536467 0.057943933 0.6950976 0.1881707 -0.2493939 0.47574633 -0.14605546
54129 -0.1372173 0.24375394 -0.15520531 1.0492595 0.21589275 -0.13280934 0.18925188 0.0960393 0.39783913 0.44342294 -0.19649874 -0.32076094 -0.34961534 -0.23587361 -0.32718122 0.5715134 -0.09321173 -0.31692216 0.1687983 0.3745217 -0.2158532 0.65919024 0.24437495 0.060293984 -0.04459827 0.22085917 -0.023356527 0.45304832 0.18829936 -0.2033549 -0.010158939 0.25072208 0.3759505 -0.60101056 0.41839722 0.5109561 0.5891212 -0.57617766 -0.25190967 0.30673543 -0.35789308 0.34787747 0.09620561 0.2106209 0.23848186 -0.23378195 -0.0638637 0.12116154 0.14745659 -0.28324875 -0.15339103 -0.4679458 0.08877156 -0.32838982 -0.42354366 0.34831536 0.05300157 0.63201195 -0.29961014 -0.40847898 -0.1541673 0.24561669 0.50787455 -0.14396095 0.098118685 0.24316211 -0.40933555 -0.12139819 -0.17163251 -0.2420065 0.58970124 0.0031395121 0.40953425 -0.037941832 -0.70010865 0.06905679 -0.07447935 0.0979885 0.18186377 -0.08406536 -0.44063973 0.020378303 -0.016106384 -0.17120866 -0.10167867 0.19034988 -0.21150154 -0.21162996 0.7833974 0.15334822 0.22055951 0.014309021 0.46588308 -0.48193854 0.46957675 -0.14995462 0.39539635 0.285169 -0.23758303 0.06706036 -0.39402324 -0.21820544 0.41724196 -0.04486025 -0.4079945 -0.17194586 -0.53262806 -0.088247724 -0.15652105 -0.26088524 -0.047789853 -0.11362449 0.17655526 -0.36438137 -0.14475729 0.1515559 0.27373618 -0.032859217 -0.12239668 0.083339386 -0.23254962 -0.05363481 0.09061006 -0.008283529 -0.19996499 0.28679776 0.40616256 -0.29193607
89547 -0.3424366 0.23116125 -0.2418407 0.22343923 0.2934152 0.35180712 0.22225372 0.13226655 0.2116999 -0.10865166 0.09870632 0.023446111 -0.036110204 -0.21419731 -0.26404947 0.68984634 -0.51975757 -0.47077096 -0.55791473 -0.26290265 -0.19876066 0.20055214 -0.2510566 0.38368168 -0.36554754 0.2334591 0.32256377 0.17039616 0.72522944 -0.27736232 0.19430947 0.24387346 0.30638573 -0.35204428 -0.09677734 -0.2823802 -0.06427729 -0.15274327 -0.0037700473 -0.04590294 -0.02597262 0.27313176 -0.14674562 0.049775403 0.037405748 -0.46660644 0.22408028 -0.47219598 0.071991794 -0.06658269 -0.007262977 0.12702842 -0.21177207 -0.0021360605 -0.2616895 0.055059776 0.073513776 0.08280623 -0.3623405 -0.6064951 -0.24845067 -0.13196938 -0.16854133 0.26215926 0.22420391 0.7743482 0.4052731 0.36149818 -0.20402385 0.17207782 -0.30010742 0.4045514 -0.355261 -0.08159989 -0.08721639 -0.11511393 0.4513743 0.06900923 0.12014148 0.15769523 -0.33926135 0.5366953 -0.13115767 -0.50999963 0.10956697 -0.0010273419 -0.16021875 -0.06516272 -0.050529916 0.43373695 0.017138116 -0.18769951 0.27443457 -0.24315205 -0.42804858 0.076984785 0.21965995 0.96248174 -0.2754293 0.25543475 0.10949134 -0.114807844 0.035086863 0.33608952 0.016516466 0.56336117 -0.37131473 0.31674108 -0.27943298 0.22805105 -0.09366725 0.31718045 -0.037993487 -0.33745387 -0.53254086 0.24286416 0.03765998 -0.0483803 -0.52996993 -0.005786617 -0.43091425 0.07634138 -0.29383442 0.08716612 -0.038846258 -0.2505178 0.38555667 -0.42316726
38205 -0.10568613 0.30442777 -0.29573047 0.774027 0.62550986 -0.14588413 0.35106847 -0.01326042 0.044464476 0.19377296 -0.083966196 -0.214983 -0.35472542 0.15103365 -0.07250925 0.27353033 -0.30895078 -0.277693 -0.12379822 0.115535855 0.05972667 0.20831446 0.12689659 0.24025704 -0.1396897 0.38016018 -0.36577314 0.55728406 0.022411656 0.2140901 0.1654205 0.30524454 0.60130465 -0.472637 0.21100904 0.2976064 0.34602368 0.022956999 -0.2405456 -0.048556756 -0.42847463 0.26355606 0.5593322 0.01691944 0.20302121 -0.4300828 0.23739813 0.11330694 0.056343764 -0.33153987 -0.28472754 -0.052133363 -0.22922659 0.11818725 -0.21730486 0.4317518 0.034880355 0.40384406 -0.15647288 -0.12463964 0.047045734 -0.060303684 0.65837586 0.13868567 0.47663373 0.3356759 -0.46153745 -0.048390497 -0.03941725 -0.15155125 0.4227915 0.0821538 0.3324498 -0.32283944 -0.38256547 -0.2215364 -0.43194512 0.3704234 0.4416293 -0.10041371 -0.3178615 -0.033842973 0.3186597 -0.20030051 -0.18352816 -0.25635207 -0.3027519 -0.46312293 0.6621584 0.117161945 0.30391446 -0.3526899 0.34092867 -0.16593708 0.059654467 -0.5185669 0.120915115 0.17117925 -0.6238183 0.14738962 0.10905949 -0.3802658 0.033173967 -0.18501936 -0.25072536 0.07515131 -0.76085794 -0.042344384 0.14354785 -0.06800766 -0.101265885 0.06677386 0.36629206 -0.4310828 -0.30890632 0.44833663 0.20616117 -0.09481699 -0.21158366 0.08537275 -0.39493343 -0.013492764 -0.18675734 0.038627945 -0.21438946 -0.015930654 0.38189128 0.06604767
18777 -0.07294289 0.3252243 -0.031032678 0.49632037 0.60507196 0.1742578 0.30901688 -0.34558216 -0.018321702 -0.16892646 -0.40390116 -0.10497347 0.0534265 0.24264707 -0.2289424 0.39771023 -0.10320216 0.09806316 0.29469633 0.097930476 -0.8084249 -0.016613249 0.35593686 0.3967 0.11284422 -0.08087904 0.26143497 -0.095700264 0.40098935 -0.06271544 0.3131339 -0.17538288 0.34739685 0.020626798 0.15777585 -0.22154906 0.41125196 -0.70115477 0.005511168 -0.251491 -0.30599463 0.1854787 -0.11062132 -0.3678119 0.19074994 -0.7203574 0.4816951 0.029355355 -0.0033669288 -0.1379865 -0.018637663 0.48386255 -0.30462095 -0.23191628 -0.25515568 0.035568014 0.18795498 0.57205725 -0.09177659 -0.02903016 -0.3993355 -0.0032779172 -0.3004578 0.46425602 0.52132857 0.23703685 -0.3327529 0.37345466 -0.04631729 0.08013808 -0.17486352 0.1523574 -0.0014249625 0.60675365 0.6101762 -0.4820738 0.36058456 0.08703279 -0.12848142 -0.394336 -0.3506405 0.25086153 -0.3224237 -0.25181386 -0.09666196 0.015099441 0.49774683 -0.10109859 0.17530912 0.12616152 0.0474706 0.05279506 0.4023252 0.20443033 -0.1974519 0.21283494 0.00673436 0.43862653 -0.83166987 0.8422343 -0.08201223 -0.17392823 0.31692612 -0.32212266 -0.2868987 -0.12357395 -0.020148309 0.13353898 -0.2097443 -0.030646589 0.33023426 -0.47341016 0.72877103 -0.058967464 -0.15340471 0.24767263 -0.25958204 -0.304998 -0.51274097 0.33220103 0.5467772 -0.3250775 0.08291878 0.24096814 -0.28357452 -0.23201458 0.06678794 -0.10215792
28350 -0.233742 0.46585682 -0.18994915 0.38358712 -0.21062958 0.084137924 0.34618813 -0.051979315 0.4102599 -0.001732814 -0.17843115 -0.19829059 -0.47499076 0.10889269 -0.08812934 0.25294355 -0.27892408 -0.29595128 -0.1020041 -0.41099817 -0.19780831 0.26404324 0.07238159 0.084885225 -0.028265612 0.4457228 0.13770519 0.11425758 0.15046193 -0.5132291 0.40343386 -0.26746753 0.4526456 -0.22734691 -0.045188434 -0.20554383 0.23430069 -0.5088475 -0.44352332 -0.22645873 -0.8402549 0.10721438 0.16574743 -0.17530406 -0.16042234 -0.48763376 0.041841492 0.19657834 -0.31544238 -0.1158407 0.32099488 0.3380607 0.0017246853 -0.102925636 -0.5430023 0.12483955 -0.38790333 0.20680535 -0.29437605 -0.3808023 0.028474083 -0.08928779 -0.22893135 0.40963852 0.39047852 0.18937561 -0.08752663 0.14118342 0.3752576 0.0054024504 -0.1263615 0.20710382 -0.13375115 -0.112755954 -0.10611653 -0.18299429 -0.15507695 0.11031114 0.47727728 -0.3504474 -0.43493828 0.15696482 -0.18229686 -0.42775452 0.09645015 -0.04857758 0.114196226 -0.10001222 0.318303 -0.0008218271 -0.16620164 -0.8470372 0.21042655 0.0039320467 -0.35687453 -0.12951376 0.18578175 0.7197007 -0.59021735 0.54977036 -0.3227955 -0.39167053 0.16171801 0.17076074 -0.2971445 0.03774139 -0.15883787 -0.5136347 -0.040901102 -0.28130007 -0.18055941 -0.092470415 0.41407767 -0.1896296 -0.68046737 0.03770018 0.022988264 -0.12510014 -0.12797527 0.085626744 -0.40441954 0.49015927 -0.6704125 0.49300537 0.2225015 0.084533215 -0.4682324 -0.32814157
2654 0.039923787 0.31292596 0.32656968 0.35090983 -0.080106005 0.38013607 0.34117904 -0.19749044 0.5392454 0.43391275 0.2099899 0.30527356 -0.06930822 -0.061063446 -0.18382166 0.010691998 0.18532233 -0.10638613 0.108522944 -0.1120677 -0.025351739 -0.10084107 0.26559788 0.7622571 -0.2317848 0.03712617 0.41639048 0.08417327 0.35872862 0.11791342 -0.48171487 0.29461336 0.114630066 -0.2674767 -0.08796904 -0.5449411 0.024939448 -0.16435166 -0.15629546 0.27530196 -0.16146664 0.04507663 -0.5433476 -0.21110326 0.02516628 -0.8936547 0.29267946 -0.24212134 -0.04164109 -0.64600277 0.13286223 0.37996158 -0.0025661346 -0.33106515 -0.23478329 0.026710207 0.3478852 0.2480295 0.19849487 0.35948393 -0.33012125 0.08719321 0.2397656 0.48264092 0.19711067 0.4367549 -0.3180507 0.8637723 -0.4086733 -0.0016620453 0.18027893 -0.14344452 -0.50890005 -0.02258633 0.017104091 -0.5508875 0.48697054 0.17744632 0.068061024 0.28403455 -0.27794808 0.106114596 0.03753719 -0.95406914 -0.28981054 0.2716003 0.06543343 -0.19476497 -0.023290476 0.5427645 0.08855613 0.5106809 0.36338323 -0.029687697 -0.16632298 -0.33683035 0.40532693 0.20177169 0.12823874 -0.11945133 0.35554296 0.40818995 0.5944388 -0.28793672 -0.039329927 -0.41193676 -0.14945401 0.51847374 0.22493978 -0.19604282 -0.20078006 0.026262281 -0.30046892 -0.12674318 0.032393757 -0.3180888 0.45899528 0.40304875 -0.019008787 0.052309353 -0.02226336 -0.35670587 0.15114403 0.28426278 -0.17470923 -0.40185583 0.061033804 -0.4463555
6910 -0.20264024 0.15726776 0.30630058 0.38032588 -0.32245654 0.1513355 0.1502556 -3.3448392e-05 0.6110781 0.10657021 0.27251935 -0.3115235 -0.008505203 -0.29013216 0.13873884 0.3194851 0.09673753 -0.44051152 -0.043260656 -0.24871455 -0.23695448 0.09868866 0.052676577 -0.08129953 0.29499674 0.48480624 0.71300465 0.26234242 0.09421748 0.042060837 -0.10138226 -0.13516809 -0.01907852 0.07547976 -0.42953178 -0.29638338 0.79874873 -0.0111245625 -0.4285629 -0.8768972 -0.012671843 0.07227752 -0.3961834 -0.25641856 -0.03196226 -0.37005007 0.62433296 0.1445886 0.17736723 -0.7430909 0.47754753 0.591764 0.11342946 0.0128610665 -0.2106634 0.96225715 -0.23912993 0.15780795 0.41159067 0.38161916 0.28840822 -0.006190793 0.1624969 0.35932398 0.12867267 0.26111427 0.004054958 0.32020947 -0.20484544 -0.24943201 -0.029191632 -0.38273314 -0.15286446 0.47917494 -0.6606752 -0.44143683 -0.39938557 0.68498063 0.37316728 0.120969206 0.22299732 -0.27512756 -0.13095771 -0.2561275 -0.5588291 0.2699069 0.46759796 -0.19424504 0.417694 0.20476481 0.14691481 0.22480026 -0.52597576 -0.21387726 -0.2540046 0.2296455 0.5478437 0.0487963 -0.06195853 -0.124106415 -0.0005687108 -0.2902072 0.53348005 -0.5874854 -0.09472499 0.15792497 0.3215005 0.39233658 -0.17360468 -0.28529122 0.5414044 -0.060209572 0.825049 -0.2208775 -0.6118938 0.14516579 0.47338745 -0.23645106 -0.574353 0.033564772 -0.6373006 0.003517935 -0.47100395 0.46535045 -0.4194931 -0.23285805 0.5044989 0.24024644
17476 -0.0646526 0.015410349 -0.46946582 0.74911577 0.4328825 -0.035037443 0.38449416 -0.5211022 0.266682 0.44118407 -0.23187724 -0.33185494 -0.5799653 0.5059181 -0.058541555 0.12055364 -0.48973036 -0.36008066 -0.115089476 0.14904639 -0.47534335 -0.013204308 0.31504858 0.22350052 -0.01650525 0.10590219 0.11078197 0.15932612 0.1399126 -0.26459652 0.07555928 0.1828648 0.3306495 -0.15440886 0.24099867 0.19277243 0.18587829 -0.54375863 -0.29357335 -0.056000497 -0.24969229 0.10461177 -0.05560582 -0.067317024 0.15748292 -0.30125967 0.22661068 0.1677874 0.007819623 -0.13078494 -0.11595388 0.0696857 -0.22110847 -0.08771972 -0.31266695 0.10532675 -0.40143472 0.31693268 -0.15620647 -0.21796961 -0.07300606 -0.16541184 0.0917651 0.13832629 0.59933555 0.21543722 -0.45067137 0.08698897 0.13566487 -0.08022857 0.1803829 0.3979532 0.35722938 0.01827103 -0.3256372 -0.39176804 -0.09370001 0.054744754 -0.23133706 -0.05330278 -0.30220816 0.16235398 0.14838366 -0.10318355 0.24227409 0.058085516 0.005931889 -0.3851013 0.46117884 0.25866175 -0.235187 0.0342938 0.25035268 -0.15975003 -0.33177266 0.1397029 0.1638155 0.3567205 -0.91998017 0.42914808 -0.18824232 -0.04876193 0.14251897 -0.4091797 -0.49541783 0.058715362 -0.16978985 -0.2838149 -0.110665284 -0.42504358 0.06344529 -0.30286735 0.36871785 0.09223695 -0.10987153 0.5201179 -0.04761952 -0.4256391 -0.23615447 0.30977795 0.04163015 0.25966012 0.09168505 0.0059938063 0.28674152 0.031653617 -0.1247096 -0.2341354
65074 -0.5117198 0.55767775 0.21532235 0.59880894 0.04637067 0.3231342 0.6131614 0.43676224 0.24212466 0.07981259 0.07705462 0.14731738 -0.51728034 -0.5262682 -0.05431643 0.4066997 0.32187656 -0.16377132 0.29956174 -0.07311863 0.042367373 0.07903765 0.6413435 0.78550804 0.27230778 -0.35338375 0.61505365 -0.27686086 -0.046999395 -0.42589465 -0.07622918 -0.71015346 0.3597941 -0.46736622 -0.13676158 -0.24974371 0.26379794 -0.18867594 -0.46958715 0.2072067 0.3898497 0.11470141 -0.22459546 -0.14503479 -0.14326768 -0.52901465 0.9578599 0.31494066 0.35539907 -0.77135015 0.32971334 0.050141588 -0.32941055 -0.035118062 0.09519987 -0.23280536 -0.03654732 0.20856678 -0.7887696 0.41779253 -0.33740053 0.22174704 0.7376655 -0.24582064 0.4024521 -0.011858018 -0.13298543 0.39262804 -0.15998933 -0.18790226 -0.41244113 -0.75336844 0.15030968 0.3299463 -0.5395699 -0.20123956 -0.8343054 0.5093397 0.12611023 -0.75001884 -0.6684937 0.087071374 -0.44783542 -0.3327429 -0.17657034 0.021451492 0.18326303 -0.464863 -0.26991722 0.24776614 0.20603982 -0.16974439 0.17500992 -0.1728286 -0.35154957 0.09318466 -0.13782097 0.3521951 -0.15812968 -0.19579533 -0.50821143 -0.24973132 0.11135097 0.27764714 -0.39177105 -0.045976285 -0.06578832 -0.23289421 -0.40647164 -0.29717195 0.58511615 -0.38675335 0.8554891 -0.73783493 -0.3075779 0.35253817 1.0322459 -0.5231291 -0.7689425 -0.0523298 0.042634256 -0.6023195 -0.7779186 0.26853654 0.43022457 0.0912794 0.44881123 -0.49451938
3243 -0.15039334 0.011205463 0.43273744 0.16670202 -0.5077092 0.28811255 0.26866692 0.09559724 0.33132577 0.18839982 0.1973023 -0.012562465 -0.30535504 0.16003364 -0.05918859 0.14487503 -0.04036215 -0.39591426 0.0035255915 0.32019898 0.25398314 0.019567186 0.07693855 0.62004983 0.14538841 0.21011367 0.46952724 0.26836035 0.24801141 -0.025102476 -0.51476556 0.3445565 0.105166316 0.03450564 -0.35282618 -0.12054293 0.52217793 -0.1877314 -0.24068896 0.16124193 0.044392265 0.18458147 -0.48175606 0.020647071 0.1254802 -0.22738543 -0.03293499 0.08664398 -0.12628701 -0.16057411 -0.062187318 -0.018524896 -0.43473127 -0.4759842 -0.5089907 0.4377546 0.25999442 0.07814449 -0.19470167 -0.32928914 -0.42766187 -0.06564502 -0.29144156 0.32918134 0.49520546 -0.021021169 -0.0012930437 0.2366632 0.33836022 0.14958775 0.13308607 0.62307495 -0.27264953 0.043074746 0.41624305 -0.097233556 0.27410427 0.49195924 0.20077614 -0.33066604 -0.46499795 0.3086367 0.16573177 -0.38573992 -0.5136904 0.05809192 0.058542553 -0.21774213 0.009116334 0.057956185 -0.27112037 0.39055368 0.43388286 0.14228234 -0.5539308 0.37681618 0.41209516 0.644836 0.2249922 0.65741235 -0.22265127 0.1476394 0.041534472 0.025111385 -0.55418617 0.004298661 -0.089546025 -0.07942212 -0.19356878 -0.5921901 -0.031856764 0.36774358 -0.013394755 -0.89239025 0.23610038 0.20989932 0.20995353 -0.05280861 -0.27905053 -0.12591559 -0.6279186 -0.22860214 -0.1437718 0.46775207 0.39769128 -0.23766051 0.1937058 -0.22468337
46491 -0.3903494 0.38017058 0.2289477 0.42140925 0.21920411 0.05316691 0.5983131 0.3606767 0.32877582 0.54380196 -0.2291361 0.395873 -0.34066418 -0.025794249 -0.15346487 -0.6766141 0.40711227 -0.1326615 -0.49346787 0.12541464 -0.07017858 0.1665711 0.14223084 0.2946988 0.4477889 0.056498606 0.26712197 0.085396096 0.3204887 -0.042612273 -0.00013926986 0.10602271 -0.6063654 0.01720871 -0.10198584 0.21693705 0.5056575 -0.64883775 -0.6154728 -0.39160994 -0.22043455 0.53173035 -0.47890124 0.16966434 0.1873594 -0.14319958 0.046581574 -0.29905406 -0.11664551 -0.13232271 0.32020915 0.21408316 -0.17286758 -0.2079225 -0.16288221 -0.3029259 0.10818114 0.016776191 -0.04787718 0.06776608 -0.58277625 -0.03360694 -0.16190884 0.4182055 -0.054458845 0.34974355 -0.35311282 0.19761898 -0.23675272 0.30879244 0.3139527 -0.6204151 -0.40930513 -0.0301787 -0.16165653 0.180893 0.6921618 0.37808844 0.012580296 -0.19036068 -0.4688243 0.26887202 -0.38974455 -0.98402005 -0.46982908 0.21518415 0.12498611 -0.31012577 0.31640255 0.2621532 0.15399727 0.17127068 0.08258076 -0.1317901 -0.14512727 -0.13723092 0.31677806 0.41660142 -0.037076022 0.3385502 0.23335387 0.52951515 0.2015201 -0.021772444 -0.29160902 -0.47357115 -0.26332307 -0.032768715 -0.13691 -0.24363029 -0.1279615 -0.19127072 0.27223834 -0.47287294 -0.5581864 0.07933208 -0.060525373 0.2351103 0.071168974 -0.061044235 0.0811139 -0.15889426 0.088011734 0.37207723 -0.44101518 -0.22519413 0.59294635 -0.43975154
3233 -0.22810918 0.1481809 0.3330115 -0.1326287 -0.06312407 0.24792217 -0.07917473 -0.45442793 0.017903969 0.030871253 -0.060165346 0.20358418 -0.021630222 -0.17852059 -0.25032696 0.3058456 -0.30607337 -0.022232674 0.016464012 -0.07006714 -0.22901133 0.12196958 -0.030900393 0.579614 -0.09372346 0.07452613 0.87744784 0.55965906 0.20204194 0.23069802 0.091351345 0.097439826 -0.3010496 -0.30417597 0.10371819 -0.18996409 0.001733486 -0.22589807 -0.4769476 -0.17334162 -0.3245644 -0.15747264 -0.30117846 0.06816331 0.019648224 -0.5642225 0.28220156 -0.11946577 -0.002635142 -0.2285785 -0.18947838 0.41462612 -0.09659352 -0.32671788 -0.22970875 0.25825733 0.31207535 0.053373702 -0.28969294 -0.28251487 -0.316575 0.1217868 -0.27328563 0.2114556 -0.013849096 0.18427247 -0.09900213 0.46613663 -0.23879915 0.28487998 0.024744816 -0.124599166 -0.72281253 -0.0180908 -0.21508317 -0.39964747 0.12205276 -0.17498259 -0.2898056 0.12080852 -0.28006506 0.06743474 -0.5202669 -0.68724364 -0.28335375 0.20061857 -0.13687193 -0.62927544 -0.1848146 -0.00810218 -0.049849145 0.16155988 0.33553424 -0.18344523 -0.43263716 -0.18569335 0.4271122 0.77898484 0.04585727 0.24715725 0.2382919 0.10818022 -0.16984434 0.21423712 -0.30046982 0.41151333 -0.17975254 0.8623615 -0.32760438 0.022644036 -0.16735864 0.29070303 0.17978767 -0.12026683 -0.27456036 -0.37664717 0.6424399 0.41774142 -0.44681498 0.3953585 0.12975658 0.09678256 -0.23952907 0.24003333 0.07307393 -0.4798749 0.39989066 -0.21546064
