2708 128
35 0.067242704 0.03540523 0.3915563 0.34231302 -0.39871615 0.13418531 -0.11760361 0.061565682 -0.015732348 -0.17461233 -0.40424138 -0.4099708 -0.09259935 -0.2413361 0.29795393 -0.23930547 0.57988405 0.4321991 -0.2908779 -0.13400365 0.17778808 0.07687934 0.040740915 -0.07256536 -0.20349948 0.7367169 0.2383212 -0.18971585 -0.17661563 0.00012997931 -0.3338118 0.15527438 0.5849234 -0.032611076 -0.08326542 0.20288496 -0.113220505 -0.07945463 -0.21048701 -0.4361754 -0.015259443 -0.38041657 -0.3589621 0.2687203 0.21630318 -0.37542713 0.23501915 0.11731426 -0.29592812 -0.4191477 -0.043456674 0.38589686 -0.13630176 -0.22560842 -0.33075204 -0.17186815 0.030737603 -0.32542133 0.0016636112 0.53753525 0.29869568 -0.3748859 -0.012231368 -0.62463945 0.08775151 0.21994275 -0.33411136 -0.03284073 -0.13957074 -0.098965324 0.14757524 0.093767084 0.3111022 -0.1659647 -0.050123874 0.19273043 0.3616437 -0.001725394 -0.13298027 -0.21414015 -0.39813316 0.044334877 0.5972721 0.28547096 0.047296513 -0.103315406 0.18875168 -0.15574594 0.04701887 -0.13205832 0.42494634 0.38577166 0.08739567 0.22971357 0.1670078 0.029158894 -0.21200593 0.07081928 0.2579211 0.008627259 -0.3659239 0.16677056 -0.11377809 -0.31961644 0.40900597 -0.19767667 -0.121790715 0.14830752 -0.34599715 0.44754457 0.07758334 0.043524496 0.00907833 -0.010523155 0.09050719 0.114106715 -0.087849915 0.061038934 -0.16648734 -0.050772484 0.10651499 0.24609363 0.14576948 -0.48249575 -0.12058958 0.1971275 0.26675972 0.30887195
1365 0.5783368 -0.7001064 -0.18735948 -0.19688413 -0.03840824 -0.55853635 0.16182972 0.3946837 -0.3516656 -0.3538694 -0.027538227 -0.067014255 0.004067159 -0.17433032 -0.15974781 -0.004347155 -0.040814284 0.24249974 0.1063921 0.124033205 0.22827055 0.3945599 0.4637285 0.02047564 0.27324522 0.30171636 0.5519215 0.10040201 -0.081824616 -0.43046337 -0.33144796 0.15409127 0.3932491 0.28546318 -0.2533067 0.4628496 0.1652593 0.007306092 0.0023237772 -0.0038788754 0.09992162 0.31746858 0.29055992 0.37208942 0.13458028 -0.28022376 0.039027024 0.04605375 -0.5629593 -0.50662774 0.33007357 0.38418216 -0.21792251 0.20251301 0.12554277 0.22920349 0.13436358 -0.16213518 0.06408701 -0.0173445 0.056040023 0.023733355 0.12962495 -0.20158759 0.07538649 0.1269526 -0.19910121 0.032993875 -0.49563882 0.011370934 0.014125468 0.31845063 0.58208346 -0.09091859 0.2323388 0.21617405 -0.08471715 0.48187214 -0.3293588 -0.17340493 -0.073063865 -0.21217522 -0.27505067 -0.22007452 -0.41251403 -0.111292325 0.23780984 -0.2752046 0.11379834 -0.102009915 -0.42625973 0.5818371 0.11394787 -0.017442789 -0.200771 0.23087327 0.13974309 0.11012994 0.26752415 0.13400607 0.016626742 0.19496821 -0.17248535 -0.41840178 0.2683959 -0.18227598 -0.26390165 -0.04116828 0.14472602 -0.54349977 0.09713854 0.05324389 -0.26531222 0.13339442 0.16927604 0.1677271 -0.17652111 -0.34806877 -0.22743289 0.4258553 0.270237 0.049019612 0.40051132 -0.04677395 -0.002972211 0.1965417 0.36127314 0.10841849
6213 0.29845923 0.23760311 0.21259703 -0.039071027 -0.37011793 -0.6266126 -0.05993038 0.37287274 -0.38469473 0.00021426284 -0.2791596 -0.17177138 0.39636576 0.36246446 0.10533903 -0.08883625 0.090443596 0.04025111 0.004913282 0.3597742 -0.4174647 0.009192417 0.6354629 0.30484486 -0.18257609 0.10215812 0.38354328 0.312816 0.24982391 -0.10520931 -0.32863325 -0.41822746 -0.049390335 0.19878338 -0.39647388 0.31904125 -0.1306612 -0.029067354 -0.13195251 0.12542036 -0.18272366 -0.20300902 -0.10368988 0.23273566 0.5819146 -0.092904486 0.36714837 0.041415166 -0.5667293 -0.22370096 -0.26414305 0.25954387 -0.35185397 0.28693652 -0.20537944 0.35507268 0.3935015 -0.041325178 -0.26781088 0.009142734 0.022551376 -0.31124705 0.2862388 -0.583138 -0.12435481 0.033416912 -0.26581275 0.087666616 -0.15909056 0.11874796 0.3390655 0.06544349 0.2492679 -0.14593674 -0.14691715 0.36817434 0.36954567 0.12655483 0.14448345 -0.14570408 -0.40257153 -0.15622285 -0.071973346 -0.19724302 -0.22327426 -0.032014087 -0.02817823 0.15803567 0.057873853 0.12177453 0.0305905 0.38169587 -0.13395864 0.06867809 0.45271453 0.18763165 -0.14244811 -0.014340393 0.36062562 0.3689413 -0.15093602 0.18539003 0.24895379 0.0027467727 0.25529033 -0.40894127 -0.22336912 -0.21058291 0.29921114 -0.07093222 0.17080769 0.11727352 -0.31830212 0.031199696 -0.27497512 -0.034807008 -0.09872599 0.13163762 0.19031596 0.6187911 0.5071705 0.1589768 0.13687684 -0.57634187 0.16631846 0.17171861 0.115267314 -0.011350465
3229 0.20603688 -0.55694747 -0.050954327 -0.13508315 -0.4724044 -0.30573207 -0.5144441 0.18413377 -0.011114785 -0.13394524 0.36161572 -0.1729669 0.14715825 0.1937797 -0.25721452 0.059323262 0.09566004 -0.3000744 0.21020393 -0.2586343 0.114581354 0.30148202 0.39241362 -0.18260163 0.46444264 0.5030836 0.18855679 -0.08412031 -0.28300482 -0.54783803 -0.05345626 0.07095819 0.11931923 0.050621767 -0.2388849 0.063135654 -0.29432067 -0.10764197 -0.03307059 -0.3669432 -0.031915642 -0.4511569 -0.19653846 0.75964105 0.26353547 -0.05455343 0.34839648 0.27321136 -0.62694025 0.1052637 -0.20792416 0.3000391 0.14074571 0.20116116 0.40563583 0.103157334 0.32949877 -0.077965885 0.28529924 0.12793966 0.09525102 0.007842327 -0.020607194 -0.25634453 0.48057866 0.17251863 -0.004767899 0.19118276 -0.20474675 -0.11096237 0.13491523 0.26778316 0.584002 -0.15385428 0.25219962 0.24558848 -0.18099992 0.26048514 0.06745494 0.17771031 0.21246998 0.28743786 -0.05781583 -0.05358015 0.15241139 -0.2091008 0.36207062 -0.059601717 0.106987745 0.014407692 -0.24537402 0.6327878 0.017704627 0.25070903 0.08864662 0.13150042 0.51646805 -0.045480005 0.46735165 -0.2944918 0.12641524 0.4534619 -0.014368705 -0.17610554 0.056628875 0.24745889 -0.32533357 -0.01912178 -0.12721938 0.10480381 0.3969311 0.019247483 -0.14465156 0.05169521 -0.28944367 0.0024326516 -0.0149011975 -0.16645283 -0.25356054 0.027369995 -0.1162266 0.21671478 0.16610736 -0.18490161 0.16963904 0.16963698 0.3090328 0.33341375
910 0.51793283 -0.05022866 -0.2789537 -0.006834073 0.41180736 0.01815505 -0.0509718 0.81701726 0.20043904 -0.48235598 0.2732504 0.066752546 -0.17587973 -0.09953533 -0.3826721 -0.036959663 0.059046343 0.049061175 0.14272867 -0.04898103 0.167178 -0.12547 0.58568186 -0.16362722 0.46987703 0.25862074 0.47490713 -0.12300592 0.06771719 -0.5057021 -0.08096529 -0.009949636 0.6352677 0.104542114 -0.12712947 0.11471057 0.10291757 0.19186635 -0.08789679 0.34142274 -0.47343987 0.07614548 -0.38708523 0.4381589 -0.03047868 -0.18914965 -0.074360654 -0.1685367 -0.7727993 -0.17472641 -0.26246458 0.2484039 0.3096473 0.3919256 0.33523366 -0.06648242 0.4963734 -0.057517037 -0.24449372 0.50833285 -0.058136474 -0.10994057 -0.0026434038 -0.006393856 0.12448715 -0.061290026 -0.05103418 -0.06860408 -0.2247974 -0.124075525 0.27479404 0.15180126 0.2015159 -0.38727492 -0.42949465 0.010297172 0.35803595 0.5192539 0.07881047 -0.23014903 -0.22737318 -0.08201827 -0.2098647 -0.081220575 -0.55174667 -0.03650572 0.18950708 -0.09280544 -0.3398095 -0.03567046 -0.32369676 0.57239145 -0.19119205 0.02138617 0.25313804 0.32842693 -0.10593736 -0.090734854 0.2230165 -0.09747899 -0.23224838 0.15424277 -0.17048974 -0.1998997 -0.20623724 -0.4155309 -0.31719905 0.18994863 -0.030594954 -0.60163075 0.1056833 0.10374322 -0.04341528 -0.07342906 -0.37040788 -0.37498373 -0.092361785 0.42088285 -0.31555426 -0.31719366 0.20580055 0.30940038 0.6719717 -0.06709437 -0.29071268 0.05130987 0.09599328 0.09725514
4330 0.24093124 -0.17494594 0.33145893 -0.35617316 0.03756159 0.15776095 0.18709679 0.51815623 -0.17382812 0.27755722 0.23167177 0.09124333 -0.559691 -0.3924754 -0.3345561 0.03747991 -0.11832084 0.16163781 0.652036 -0.24856085 0.6747639 0.06394508 0.8472754 0.11756802 0.06522572 0.21803989 0.46200103 0.24194352 -0.28187448 -0.33407205 -0.27649236 -0.03351707 0.114349484 0.0044814507 -0.53393596 0.13567366 -0.28572693 -0.27686372 -0.51830465 -0.11256556 -0.21968688 -0.047366776 0.23668939 -0.08378521 0.26217735 -0.17703825 0.67966986 0.0036642596 -0.59596884 -0.2862909 -0.21376018 0.25481704 -0.34030777 0.06262578 0.007898598 0.3340944 0.031956512 -0.20113337 -0.03919188 0.007355296 -0.035010476 0.036044866 0.18779919 -0.081378736 0.042465914 0.10751419 -0.26831955 -0.49914736 -0.41869283 -0.067488536 0.19636407 0.018490536 0.12758268 -0.081946835 0.22890134 0.23195198 0.23752299 0.16849975 0.29003724 0.079646155 -0.22489679 -0.3277873 -0.39559925 0.17758925 0.092958115 -0.07055342 0.062166367 -0.038309462 0.25356358 0.0755668 -0.25013664 0.23665544 -0.12220689 0.25706366 0.14895312 0.30093527 -0.26717666 0.028307343 0.085841805 0.15483452 0.26272348 -0.35183084 -0.32625055 -0.50614214 0.106319234 0.003961118 -0.00897565 -0.200797 -0.262721 -0.20705138 0.11591853 0.36382672 -0.12710083 -0.39750132 -0.9579069 -0.2975697 -0.36878407 0.14177154 -0.09831201 -0.3530659 0.3937657 -0.037809078 0.47758982 -0.22070232 -0.08486406 0.16855104 0.025798094 0.21444456
114 0.34297892 0.15240422 0.091740735 0.29445004 -0.5682556 -0.73144406 -0.03259754 0.24966703 -0.11250062 -0.3215776 -0.14406313 -0.013356003 0.2792432 0.4590307 -0.09069017 0.44821775 0.00076281547 -0.11602267 0.35303983 0.46507713 -0.16364263 -0.11197989 0.5322945 0.27993926 -0.24946637 -0.052646525 0.23653483 0.085305095 0.4277996 -0.30369145 -0.38759163 -0.5081675 0.074549496 0.28127393 -0.20560889 0.4906619 -0.156319 0.062861085 -0.28774238 0.020592084 -0.10914382 -0.25515702 -0.06591059 0.36047798 0.09664955 -0.2803552 0.4091393 0.19942476 -0.5222283 0.014189515 -0.3013423 0.4467582 -0.30326584 0.26904213 -0.106576666 0.25872725 0.21404313 0.41058964 -0.47153667 0.044446796 0.11004408 -0.33050677 0.15500629 -0.25960267 0.04639223 -0.07587598 -0.071874015 0.10152114 -0.18901238 -0.07759443 0.27667433 0.09727126 0.42144525 -0.008502845 -0.29546028 -0.13137545 0.22336872 -0.23662071 0.21576342 -0.044808056 -0.02030206 -0.22398116 -0.23936601 -0.068289705 0.18996641 -0.37318408 0.366616 -0.13744469 0.18198982 0.24717635 -0.1156791 0.4822008 -0.04500615 -0.14526021 -0.067098975 0.29442087 0.11333798 0.19815081 0.6622637 0.538626 -0.2703242 -0.19082232 -0.102031186 -0.30016485 0.40248477 -0.0021886742 0.04623257 0.16252612 0.13729823 -0.12084739 -0.36253145 0.35372144 -0.25233132 0.44375712 -0.35467637 -0.13311009 -0.43552846 0.17279166 -0.5056836 0.43574357 0.12817043 0.2850896 0.21831858 -0.9269029 0.043419357 0.21236101 -0.07590888 -0.05034505
3231 -0.016280152 0.020936342 0.1761098 -0.11053065 -0.38324252 0.36048725 0.30190742 0.4441909 -0.30499387 -0.02043309 0.08948496 0.14616 -0.22585483 -0.08500459 -0.051284634 0.36188376 -0.11284866 0.40593165 0.4368103 0.0271363 0.12496701 -0.15609586 0.19251129 -0.055889748 -0.36296836 0.34011507 0.381816 -0.3140844 -0.3232817 -0.045853402 -0.15244776 -0.07310479 0.12870814 -0.58841383 0.074322045 -0.42387533 0.12090823 -0.5335128 -0.14350654 -0.45944408 -0.07796436 -0.13073428 -0.18726815 -0.1411692 0.51970035 0.079371214 0.11858696 0.5998554 -0.4504153 -0.18998858 -0.4957599 0.6004621 0.1645994 0.34679633 0.4611533 0.23951426 0.22913708 -0.20336644 0.53083503 0.33896872 0.47043332 -0.27435523 0.21455103 -0.44859546 -0.14935291 -0.01976247 -0.094437875 -0.20972995 -0.55029255 0.19285086 0.00010129034 0.2594652 0.36604807 -0.09796876 0.4448217 -0.04819986 0.49437502 0.13097866 -0.13551891 0.123733595 0.2760636 -0.20993577 -0.23720953 0.35409135 0.34078264 0.4115764 -0.059338793 0.07641845 -0.087407835 -0.18245687 0.29315668 0.42086536 -0.29741576 -0.075322844 -0.102588475 0.0381359 0.13233866 0.3551289 0.2966739 0.73310935 0.09029201 0.34600434 -0.27882075 -0.09187241 0.2195752 -0.8197176 0.23503551 -0.10593108 -0.3557373 -0.029889118 0.002913974 0.008028567 0.11036513 -0.17590906 0.18576139 -0.5016103 0.10811564 0.28954792 -0.037795044 0.20483714 0.29087588 0.8156658 -0.020171257 0.07416922 0.13641176 -0.10498 -0.21887547 0.26175728
19621 0.7158209 -0.040241946 0.16163267 -0.04098042 -0.14979126 -0.15644772 -0.18109657 0.5348855 -0.37826627 0.038150378 0.18727644 0.06915286 0.27095094 -0.15571654 -0.21458268 0.011345481 0.0874741 0.41866338 0.12250477 -0.39868608 0.5801041 0.49842757 0.39281884 0.015268992 -0.019106539 0.5853989 0.4145453 -0.4571451 0.08809255 -0.4599131 0.19638705 0.19276704 0.37782878 0.36470562 0.03001772 0.38732228 -0.0074648475 0.14872652 -0.48227897 0.050162062 -0.1387717 0.17391314 -0.17614928 0.17310622 0.034015488 -0.13274595 0.09763241 0.488814 -1.1443754 -0.4020539 0.3630355 0.06525129 0.0345896 0.07658589 0.33696347 0.11189624 -0.041886292 0.09402932 -0.008472946 -0.044213522 -0.013995506 0.39402327 0.32087314 -0.14690502 0.13771997 0.40266863 -0.121267974 0.44543034 -0.250429 -0.15692851 0.12561643 0.42318368 0.16206399 -0.32965174 0.36717507 0.3506276 -0.0057815793 0.24247341 -0.3469406 0.21306626 -0.42624292 -0.036867213 0.16468678 -0.14125054 -0.45543042 -0.39711076 0.088106014 -0.21738482 -0.21306998 -0.026430463 -0.6505524 0.81480944 0.1564776 -0.051916 0.23674622 0.40560013 0.13526908 -0.04984306 0.06782194 0.02099909 -0.11440238 -0.04474076 0.04830176 -0.05739703 0.07000422 0.12249233 -0.12083538 -0.42070943 0.18782568 -0.018140212 0.14035651 0.08676614 -0.7666679 0.1734625 -0.04137296 0.15260197 -0.30335644 0.010001137 -0.17241083 -0.113938585 0.28839135 0.26443535 0.38242173 -0.07929362 -0.2773598 -0.06609299 0.0875353 0.67435956
1272 -0.1013676 0.025769994 0.2515608 -0.3233815 -0.5374616 -0.26194778 0.10650259 0.119508915 -0.13046497 -0.22698191 -0.20800954 -0.3916273 -0.18433785 0.2645293 0.19787426 0.17668055 0.025739316 0.06108641 -0.09041485 -0.4109838 0.22730917 0.13426551 0.28909606 -0.06555514 0.006606089 -0.20631815 -0.26682225 -0.14366965 0.056223687 0.19271871 -0.17827024 -0.11930395 0.17666052 -0.017776102 -0.3510906 -0.014661649 -0.2590361 0.01980486 -0.45147896 -0.23173366 0.19695054 0.10198924 0.08058736 0.121693045 0.032567628 -0.15033107 -0.024968544 0.40697697 -0.7900878 -0.47215697 -0.12553176 0.26774415 -0.20235969 0.3898845 0.31407323 0.2817338 0.2913035 -0.001352995 -0.05227472 0.00038086346 0.28446707 -0.5025566 -0.21764389 -0.03140193 -0.26186773 -0.34059808 0.2891571 -0.47198993 -0.03355492 -0.014527772 0.015365365 0.35203934 0.1792704 -0.1537819 0.23166206 0.48246375 0.33441305 0.35699183 -0.6752094 0.26850733 -0.19497696 -0.5238622 -0.051152207 -0.19917427 -0.3107516 -0.106455766 -0.04392965 0.3584354 0.07079266 0.1296223 0.25021428 0.3313754 -0.40480894 0.05781338 -0.32786122 0.2980844 0.06936635 0.09000229 -0.089299835 0.44528145 -0.18814042 0.46453008 -0.4095928 -0.3554869 0.04789041 -0.31813043 0.1085565 0.23802078 0.04728574 0.22608109 0.14521126 -0.54889935 0.101406164 0.15298814 -0.35773283 -0.116711564 0.06892122 -0.6999668 0.22669452 0.3653967 0.3251101 0.50772035 -0.016765488 -0.3624786 -0.26907292 -0.024125978 -0.2717029 0.19117253
6214 0.27766258 -0.09972565 0.62040687 0.47855368 -0.19701415 -0.37535113 -0.32944193 0.32635513 -0.32155496 0.13283238 -0.48979935 0.39084986 0.33299658 0.2746058 -0.044219702 0.052201346 -0.093975574 0.42478016 0.17167532 0.4513366 -0.34570888 0.10779834 0.3866754 0.3330075 -0.029725397 0.21984553 0.19991629 0.17148472 0.3372427 -0.115093306 0.033056118 -0.3553886 -0.0983115 0.13408604 -0.45634612 0.36321884 -0.10357344 -0.028739296 -0.21944499 -0.12831253 -0.052034527 -0.057689793 -0.15671842 0.64296037 0.11914158 0.06589815 0.09377833 0.2657688 -0.4894242 -0.021113817 -0.52097636 0.35167205 -0.54592973 -0.05566802 -0.03328 0.30941916 0.29791594 -0.18453413 -0.3493023 -0.22458999 0.20283861 -0.31287333 0.012977277 -0.2688731 -0.15556128 0.105114795 -0.046306934 0.06399176 -0.016560458 -0.11451175 0.20772147 0.38243586 0.6299015 0.19531266 -0.0240445 0.15585162 0.613531 0.063689135 0.05201914 0.05696736 -0.40736505 -0.21612428 -0.6422716 -0.3011582 -0.10847513 -0.015777297 0.16752496 -0.47329646 0.07731076 -0.04327257 -0.2471452 0.17892586 -0.0840836 -0.04646504 0.32810107 -0.027390534 0.20107423 0.004609747 0.068739176 0.06374139 -0.23978932 -0.31193227 -0.3106145 -0.28164688 0.5218976 0.26545247 0.092401735 0.016021641 0.08796377 -0.09905456 -0.1126447 -0.009192285 0.18824293 0.1389994 -0.15071858 -0.064388 -0.2501753 -0.37092948 -0.33613622 0.7786864 -0.0069589037 0.21766454 0.26482937 -0.2472267 0.17387724 0.20608512 0.27946997 0.14299078
2440 -0.2127787 0.15350653 0.2641988 0.19849496 -0.20984031 -0.42200163 0.3422415 0.051438086 -0.48067954 0.44209543 -0.15423901 -0.13530056 -0.27885336 -0.008643981 0.12086079 0.39277327 -0.081798166 0.104616605 0.3617303 -0.4153926 -0.55086076 -0.39696863 0.5120725 0.19758794 -0.34010816 -0.015155428 -0.14476566 -0.071842924 0.03187693 -0.5461507 -0.3943033 -0.22254802 0.01864363 -0.050961338 -0.31699845 0.025540275 -0.0155119775 -0.4767305 -0.16298817 -0.5117479 0.5616004 -0.05846467 0.17057917 0.36923036 0.30878448 0.013491232 -0.018760491 0.34972206 -0.52676237 -0.11191642 0.028156847 0.24916878 0.003126236 0.36129078 0.18113118 0.032713957 -0.0038244838 -0.290174 0.004180378 0.704078 -0.20894067 -0.6829711 -0.47016364 0.2743009 -0.8068832 -0.48358393 -0.23557016 -0.081498906 -0.12612016 -0.4646476 -0.41113093 -0.14712588 0.16805343 -0.13784175 0.31456274 0.6197384 0.6581678 0.21680787 -0.35772863 0.09750617 0.20915717 -0.2846108 -0.11103983 0.069908686 0.21959747 0.15738247 -0.16288671 -0.287212 0.47592184 -0.1390667 0.32420874 0.5997511 -0.62391686 0.115586385 -0.31790507 0.4053631 0.053689275 0.29255277 0.25540984 0.2896648 -0.102793 -0.12856814 -0.4936966 -0.44985637 0.26138037 -0.16942012 0.09724352 0.24943867 -0.079189725 -0.26846427 0.023043955 -0.34304634 -0.22020437 -0.12914678 -0.27973938 0.22837216 -0.46651182 -0.09084772 -0.01984816 0.43366846 0.16160412 0.19569243 0.25851217 0.1552876 0.038045414 -0.08891179 -0.12031416 -0.18764074
4584 0.6703353 -0.37018174 0.4243796 0.10974278 -0.64833987 -0.071831115 0.010046724 0.38062608 0.00314929 0.056266062 -0.31259093 0.09159551 0.26560187 0.43849358 0.21323264 0.4023626 0.16047151 0.40408078 -0.124887235 -0.1755331 -0.072060384 -0.07570237 0.54162204 0.3429902 0.12523583 0.060859706 0.23764083 0.1831412 0.21508919 -0.37110597 -0.24201722 -0.49686387 0.09864285 0.35784963 -0.47252795 0.19879942 -0.0019855232 0.08480262 -0.0697433 -0.20710823 -0.08038998 0.28285795 -0.22796938 0.26161698 0.3349293 -0.283516 -0.05555482 0.26291847 -0.596742 -0.34770995 -0.1009308 0.88695735 -0.32682765 0.21127701 -0.3078251 0.40029788 0.2931895 0.10593242 -0.33096662 0.11651275 0.14354683 -0.18758208 0.107587926 -0.14329088 0.19790506 -0.08271855 -0.13764845 -0.22893798 -0.28565893 -0.21170641 0.13149881 0.21186143 0.5459883 0.09340313 -0.3036383 -0.19735187 0.15338312 0.35834566 0.084791385 -0.0018085408 -0.3875435 0.29895422 0.018666575 -0.16588983 -0.012676257 0.010078958 0.25259453 0.18780781 0.07215513 0.048179235 -0.039415795 0.3337843 -0.04784049 0.29229316 0.36147887 0.2832755 0.19954613 -0.16358031 -0.041253902 0.16878606 -0.38792396 0.08713767 -0.122906625 -0.2699966 0.26631978 -0.16730985 -0.1397808 -0.0065469583 0.01316013 -0.08216935 -0.20547622 -0.16949697 -0.0037244447 0.24870464 -0.20888259 -0.066893555 0.087871574 -0.1977154 -0.058553405 0.65392077 0.25430825 0.11737673 0.42177466 -0.22917606 -0.16267303 0.10130521 0.17071119 -0.014321334
24966 0.17862393 -0.4195066 0.21161966 -0.23275045 0.04763116 0.08415653 0.25762355 0.72981185 -0.18018329 -0.38867712 0.6892051 0.12502249 0.03597719 0.114343025 -0.5009685 -0.12637064 -0.07045504 0.3067878 -0.06426205 0.06734033 0.61844313 0.066432275 0.4023445 -0.028119158 0.54647547 0.3411853 0.1464342 0.1353927 -0.13248175 -0.72978795 0.0015760586 0.017759658 0.3807414 0.12264442 -0.16307598 -0.22965482 -0.25800768 -0.15174025 0.088542335 -0.22565474 0.39984486 -0.11651891 0.047769718 0.1547657 0.36641762 -0.14111225 -0.016837569 -0.02708803 -0.59412223 0.11985345 -0.7872057 -0.07168904 0.40219587 0.46217635 0.09618869 0.148097 0.33399603 -0.5780805 -0.5520787 0.32896498 -0.096827134 -0.37657624 0.1608856 -0.21696974 0.3816147 -0.0114503205 -0.20579259 0.13904074 -0.25661823 0.108237825 0.10172562 0.36242354 0.28161037 -0.68692154 -0.009490892 0.24380943 0.6958366 -0.024524255 -0.43190914 -0.26226798 -0.16554917 -0.18339744 -0.7301807 0.1589321 -0.35849124 0.010828677 0.0044236104 0.36533538 0.12714118 -0.1270219 -0.14975682 0.6316273 0.11465883 -0.31163323 0.16817357 -0.31490916 -0.1354729 0.39585954 -0.19617414 -0.0037664294 -0.11503234 -0.051982872 0.041331265 0.07426716 -0.20478638 -3.746894e-05 0.06851175 0.05107869 -0.020046838 -0.09109149 0.20975061 -0.0058059655 -0.10554964 -0.066550806 -0.6355075 -0.2278286 -0.21158814 -0.18864775 -0.2344149 -0.16812533 0.4065746 0.3918141 -0.21744795 -0.38650227 0.5393967 0.12358827 -0.30835003 0.26309216
887 0.26978832 -0.09325509 0.05918728 0.08064736 -0.007150475 -0.31851974 0.26125082 0.3634352 -0.062210053 0.1299945 -0.7239531 -0.60618776 0.023170691 0.0966401 -0.09109435 0.025338564 0.44830045 0.12947398 0.22531606 -0.15010369 -0.5702606 0.45480353 0.24629554 0.18968149 -0.35002884 0.08721707 0.26840928 0.21160953 0.28564304 0.2227794 0.03780438 -0.113442674 -0.0848926 0.019730229 -0.22549494 0.150428 -0.03378326 -0.0095786685 -0.29774964 -0.32738882 -0.29297376 -0.10994764 -0.010418922 0.551976 0.4474549 -0.21822202 0.039171223 0.02655612 -0.23040506 -0.13110262 -0.46577543 0.31397414 -0.4725006 0.08082122 0.010332316 0.29322 -0.114906326 -0.30041853 0.31952673 0.14874889 -0.011251303 -0.129041 0.15917388 -0.46045384 -0.17172085 0.25248864 -0.021896936 0.28072765 -0.33932188 0.080599144 0.18552755 0.026976382 0.23427024 0.07577878 -0.40229383 0.55021 0.31185007 0.018374473 0.040236574 -0.25935397 -0.5085169 0.061323304 -0.016067224 0.07232631 -0.109091945 -5.126556e-05 0.021088177 -0.3025793 0.014901623 -0.22372006 -0.09564757 0.7121645 -0.14871009 0.33063406 0.48928586 0.11538677 -0.15607381 -0.094222195 0.5536744 0.44001377 -0.60674274 0.39576387 -0.3969371 0.2506337 0.3460301 -0.12825188 -0.2790178 -0.5337002 -0.05317568 -0.124246664 0.011832413 -0.20961726 -0.15034336 -0.16171715 -0.015289191 0.26872003 -0.035155505 -0.026143333 0.07196964 0.012616856 0.30381694 0.27576864 -0.038010113 -1.0443146 -0.27581367 -0.23123462 -0.042634398 -0.123201564
2665 0.8236334 -0.27152383 0.036088645 0.26312277 0.06168279 -0.014162182 -0.15386316 0.5308202 -0.8526728 0.18112063 0.18443547 0.12798868 0.19940403 -0.13582183 -0.58444005 -0.19535756 0.27073106 0.37866184 0.17915897 0.11995071 0.48600483 0.14873971 0.8344499 -0.19200313 0.00362313 0.40771544 0.23204336 0.011586232 -0.12229477 -0.33692932 -0.20903018 0.4889305 0.59678113 0.06931236 -0.36667404 -0.017166696 0.2819035 -0.06438074 -0.051709235 0.37055892 0.2039042 0.25454122 -0.11704857 0.8132776 0.13827153 -0.0026840603 -0.17612937 0.53281647 -0.7562737 -0.6323059 -0.005701875 0.22610717 -0.030006735 0.3199782 0.09687912 0.22307196 -0.17429438 0.013702252 -0.21101137 0.24492805 -0.010726426 0.07428308 -0.10648269 -0.16335896 0.43383104 0.17091163 0.4497658 -0.03287051 -0.15542543 0.15081696 -0.5175084 0.2785001 0.5888344 -0.39517412 0.39864844 0.50223124 0.35248998 0.6647736 0.11336481 -0.20142983 0.046291396 -0.36694965 -0.05209595 -0.20292647 -0.0057451255 -0.108491115 -0.20595527 -0.48740813 -0.018705642 0.20079084 -0.5416016 0.80228156 0.1966395 0.2518166 -0.26528892 0.084847674 -0.2905148 0.16381133 0.025230156 -0.12635924 0.12609878 0.62403077 0.39689824 -0.34885854 0.40732816 0.00933158 -0.5153682 0.318303 0.37096706 -0.25316334 -0.3315798 -0.21536182 -0.87931824 0.16715577 0.062184036 0.005419123 -0.1187565 -0.044654824 -0.301843 -0.3391675 0.08983096 0.1844049 -0.018344864 0.08317865 0.17786165 -0.19726123 -0.19274005 0.33566725
8224 -0.24897875 -0.20338124 0.22431615 -0.07577449 -0.3872864 -0.32956967 0.04372092 0.69861895 -0.30026415 0.08509815 -0.0984758 -0.14150605 0.041345228 0.10404873 -0.43035033 -0.13804054 0.16336872 -0.23239565 0.24513666 -0.42634484 -0.119437434 0.21807618 0.020588716 0.24138688 -0.34600264 0.25941592 -0.078666374 -0.08541752 -0.22577529 -0.11566549 -0.36839193 -0.29030022 -0.12594578 -0.31237388 -0.06333348 -0.029824488 0.016367571 -0.18050966 0.010729495 -0.5258303 -0.06596599 0.6600603 -0.3266763 -0.07627921 0.16131349 0.3412262 -0.4602744 0.19703607 -0.32074293 -0.27402848 -0.033925325 0.20140584 -0.09646936 0.4769144 0.37675107 -0.30658618 0.07150699 -0.36227974 -0.4028475 0.6028033 0.26321393 -0.57016075 -0.24555969 -0.4121709 -0.63792104 -0.13027267 -0.029811902 -0.4619996 -0.14993757 -0.55952936 0.21497229 0.31829485 0.30287483 0.13740835 0.16982746 0.69466454 0.31006327 -0.16961409 -0.2732465 0.12609588 -0.30370775 -0.34744486 -0.53023416 0.10253852 0.36240205 -0.31287447 -0.2023117 -0.0632653 -0.04197739 0.35695028 0.4581371 0.41920438 -0.39895004 0.256546 -0.36416727 -0.0029350105 0.36585775 0.12347075 0.16141051 0.23516646 0.080231704 0.12345546 -0.30900112 -0.23070736 0.2547571 -0.22531739 0.4030561 0.3025085 -0.12084738 0.010971437 0.26712897 0.24853414 -0.021315422 -0.34262678 -0.25816852 -0.043822937 -0.18181501 0.0630257 0.14991914 0.45745593 -0.0009234521 0.51690847 0.0051991134 -0.35640618 0.067861326 0.0811385 0.14171727 0.28471237
20193 -0.13153899 0.30376843 0.1452955 0.37539613 -0.001648862 -0.52158326 0.19039991 0.15395513 -0.41541734 0.21464469 0.051716905 -0.31802192 -0.22521338 -0.41721773 -0.20144953 -0.20182854 0.37202376 0.2139962 0.7898974 -0.61917144 -0.10449757 -0.20402242 0.20728791 -0.24152341 -0.5079294 0.10474721 -0.13285872 -0.3109755 0.45823857 0.07235294 0.20460969 0.37280494 0.22721283 -0.12053819 0.34579912 -0.3957715 0.063011386 -0.4579062 0.17645298 -0.13276137 -0.09997701 0.080087274 0.16394761 0.3695613 0.06831181 0.20124274 0.3627884 0.7622426 -0.38109365 0.31426054 0.019395053 0.4173036 0.20956509 0.7923887 0.022826394 0.24661261 -0.040765308 -0.51659894 -0.013212964 0.27335265 -0.61815864 -0.43274602 -0.1429387 -0.28914234 0.16668667 0.039366752 -0.15251438 0.12628238 -0.27899027 -0.15373456 0.10191097 0.3757604 0.4263928 -0.22545251 -0.0901283 -0.0057664383 0.73229057 -0.11616051 0.075843126 0.27576345 -0.17838046 -0.52980024 -0.3586676 -0.5484675 0.28776735 -0.58987147 0.22294205 -0.19462879 0.07734241 0.03065954 0.14230692 0.62106186 -0.435921 -0.00629665 0.16604798 0.17248745 -0.23238839 0.05601669 0.33088472 0.7119826 0.016577242 -0.010218501 -0.096507244 0.060391143 0.5663882 -0.043099575 -0.27477524 0.23362906 -0.6225706 -0.25379515 -0.07986742 0.41290072 -0.04286906 0.06673582 -0.04173398 0.062099814 -0.029523859 -0.35990167 0.699918 0.68968946 0.21934612 0.74823684 0.35185012 0.05341458 0.15920573 -0.28541818 0.31100893 -0.031415496
12182 0.03724619 0.3174533 0.18907188 -0.10475261 0.0692357 -0.2640404 0.42768666 0.44195893 0.12775177 -0.073251046 0.13253857 0.03017611 -0.19786571 0.1878097 -0.686316 0.10839475 0.42599443 0.055559546 0.19369121 -0.06922201 0.11338774 -0.19564395 0.2913517 -0.1265725 -0.1483408 0.5805968 -0.4177658 -0.14751385 0.24199261 -0.32532054 -0.52251655 0.45910594 -0.085742585 0.35564125 -0.3939909 0.34413192 -0.11756573 -0.21354254 0.07743656 -0.9271828 0.20805383 -0.13627712 0.14200732 0.29994264 -0.18828525 0.0063803084 -0.12992142 0.58811146 -0.48199555 0.22929245 -0.4703934 0.34312615 -0.17772485 0.35311052 0.045698393 -0.24147317 0.08658243 -0.53582126 0.23585641 0.06778111 0.49869964 -0.35260278 -0.5857991 0.08815219 -0.05394397 -0.03524351 0.6938956 -0.25634208 -0.11301765 -0.17194313 -0.40073 0.4703922 0.09812193 -0.17928231 0.067719504 0.36423442 0.5320789 0.27153236 -0.027267411 0.1683726 -0.20431665 -0.5787383 0.19374606 -0.10798921 -0.15892567 -0.28748214 -0.21270391 -0.5127996 0.15062991 0.18957518 0.035508625 0.50059265 -0.5523733 0.45157528 0.24513642 0.0941294 0.083764516 0.15609178 -0.17925519 0.2752521 0.32773104 -0.4841847 0.057175383 -0.55094254 -0.77067745 -0.4091049 0.42330572 -0.030451406 -0.1606225 0.15358764 -0.22616208 0.24960884 -0.12163989 0.03341828 -0.4718112 -0.08211194 -0.29894453 0.29910982 -0.32833046 0.42509225 -0.19071797 0.31047097 -0.345195 -0.2762345 0.25258842 -0.024223939 -0.18471155 -0.4020483
82920 0.012538574 0.5305449 0.42279154 0.089693934 -0.41289842 0.072672166 -0.045114823 0.45349374 -0.14122342 0.06295653 -0.23151706 -0.11063816 0.3484719 -0.113065355 0.0014209654 -0.26414114 0.6559312 0.61946535 0.23590581 -0.5321385 0.41162047 0.14047067 -0.052264906 -0.09384246 -0.1544969 0.7462395 -0.11846285 -0.70503074 -0.1944077 -0.01340566 -0.12883826 0.30987775 0.27023602 -0.11542424 0.024017587 0.13328792 0.1612394 -0.20318504 -0.01594704 -0.38359484 0.053486533 -0.021764087 -0.37301376 0.30835322 -0.025364986 -0.4047554 0.32645229 -0.3680623 -0.13073803 -0.40307018 -0.43984225 0.33693305 0.3776692 -0.034998834 -0.17554623 -0.39933214 -0.09549199 -0.28670982 -0.10854827 0.27588627 0.32824674 -0.5826826 0.15983135 -0.64982694 -0.14011341 0.055065263 -0.058660403 0.3126093 -0.16678779 -0.21684241 -0.33277532 0.46165347 0.37080848 -0.32227594 -0.07554198 0.02054166 0.2695821 0.13577755 -0.0894915 -0.35799184 -0.45506373 -0.19116654 0.16397484 0.4988942 -0.046830382 -0.4465516 0.3875643 -0.22360125 0.34467873 0.15163903 0.31778526 0.38085938 -0.066156894 0.10635894 0.12099486 -0.09070903 -0.09610709 0.16377625 0.8339857 0.11747346 -0.45570242 -0.24092175 -0.26655325 0.0678429 0.28834382 -0.3704917 -0.11891661 0.04439277 -0.3597427 0.4953816 0.06951428 0.0016021235 0.089535706 0.030506836 -0.029867262 -0.065879814 0.22783886 -0.21575134 -0.19034944 0.1396757 0.28569806 0.124835774 0.25939578 -1.0146505 -0.29817373 0.2091221 0.1113939 0.04754946
10169 -0.1952413 0.19828622 0.54267645 -0.09379075 -0.3556425 0.1502371 -0.18707877 0.18942112 -0.02452123 -0.152691 0.15961915 -0.15153497 0.046351198 -0.06537317 0.08843673 0.2976155 -0.18168984 0.46457198 0.0560404 -0.038828228 0.19706365 0.12235967 0.08828446 0.12633337 -0.07206346 0.24468178 -0.5406433 -0.37836993 -0.22288148 -0.1190893 -0.077902004 -0.077639535 0.46730474 -0.54951304 -0.045060497 -0.098413944 0.18599088 -0.3463715 -0.23691262 -0.6243227 -0.13631245 0.2568708 0.1705559 0.14083572 0.017531697 0.031137615 0.068011954 0.75886816 -0.5646153 -0.573781 -0.53040236 0.68787795 -0.17032847 0.5840168 0.63286823 -0.0270072 0.16527355 -0.094820745 0.65171236 0.34187976 0.3228613 -0.5924326 -0.124908894 -0.5283716 0.035988282 0.09994845 0.06668491 -0.27778065 -0.52916145 -0.05408167 -0.23050384 0.115680225 0.041339934 -0.30599514 0.15590087 0.048358127 0.4200204 0.3270823 -0.09403809 -0.020727435 -0.14696705 -0.42076322 -0.09547931 0.35067555 0.32270575 0.12050954 -0.023035588 0.057034545 -0.26107106 -0.04958338 -0.14285237 0.4598675 -0.30712134 -0.063531294 0.14973196 0.11786031 0.22982801 0.12745503 -0.27335858 0.43949223 0.017539471 0.27215093 -0.1672899 -0.15134844 -0.12630463 -0.50329286 0.045189098 -0.4483285 0.052974083 -0.2522578 0.021339938 0.0005694055 0.49020842 0.120131314 -0.26849836 -0.4749031 -0.06318765 0.18379913 0.32252374 0.27693474 0.5081109 0.26474687 -0.051737767 -0.18029642 0.2766176 -0.19712551 -0.31169173 0.06344485
12576 0.5102307 0.16008061 0.55878747 0.36527014 -0.12969518 -0.23056634 -0.3608812 0.4472289 -0.09952387 -0.08846299 -0.17355052 -0.1992089 0.08156903 -0.19851366 0.10700373 -0.25605446 0.4940049 0.040439196 0.26441106 0.48484334 -0.0977648 -0.041164905 -0.007824438 -0.067878485 -0.3144999 0.16802971 0.034438856 0.10460801 -0.13183632 -0.29343644 -0.42908546 0.12787199 0.37375814 -0.1633719 0.107696645 0.28667414 -0.18634947 -0.016785763 -0.2228047 -0.20704994 -0.019930698 -0.25773647 -0.096968345 0.086832166 0.17237099 -0.3134692 0.15503354 0.00055476825 -0.06692204 -0.18654852 -0.07569657 0.62446874 -0.41399717 -0.043386374 -0.2553747 0.45928332 -0.051206198 -0.27670547 0.16787125 0.5746928 0.33748168 -0.2879408 0.12815084 -0.5969241 0.17052028 -0.13772544 0.008442036 0.14275655 -0.1733115 0.018146776 -0.06034181 -0.073218465 0.13086179 -0.13641006 -0.18642272 0.02788655 0.36976585 0.0906428 0.051807348 -0.30511063 -0.4625842 -0.26569083 0.17205055 0.33106586 0.14870031 0.07523889 0.3508089 -0.23498856 -0.2709845 -0.028691387 0.35721466 0.42551965 -0.4236783 0.47266242 0.47526667 0.1668104 0.11051059 0.047347136 0.69646966 0.9495304 -0.50271297 0.26903304 -0.25585842 -0.24211337 0.33834141 -0.41912934 -0.36180753 -0.010708017 0.15984482 0.22783324 0.17724031 0.017692883 0.11466864 0.2589565 0.19654189 0.36304 -0.20166345 0.12773634 0.48154184 0.15668544 0.10261574 0.37513375 0.16091408 -0.3633184 0.112327494 0.04023366 0.20157596 -0.098828964
22563 -0.25749427 0.29230702 -0.06636469 0.11026021 -0.021598361 -0.18105207 0.28695804 0.3001309 -0.17198716 0.24490805 0.21006401 -0.39435858 -0.12364081 -0.007145832 -0.47133467 -0.27140382 0.08530405 -0.13985881 -0.037587535 -0.28900596 0.10226112 0.13794392 0.3391547 0.42894748 -0.0064943996 0.41149095 -0.044142928 -0.13406318 -0.38282016 -0.27171224 -0.120988585 -0.40384823 0.15869772 0.5511101 -0.08231488 0.15475832 -0.52500284 -0.19866714 -0.3648965 -0.60871804 0.0009725823 0.1876557 -0.46481463 0.040060233 -0.22828642 -0.03312352 0.10696705 0.21382156 -0.58398926 0.084662676 -0.05272954 0.15153328 -0.10620822 0.26729152 0.27512544 -0.29431322 -0.20966923 0.050122876 0.11645245 0.40570366 0.16114472 -0.3498616 -0.36438698 -0.46332994 -0.052406695 -0.4657841 -0.67360085 -0.39935324 -0.25374094 -0.24547459 0.10853209 0.0091263605 0.45503765 0.26725176 0.26116696 0.21313286 0.67647713 0.5258646 -0.4630426 0.31186166 -0.12390889 -0.5116977 -0.080957636 -0.23907234 0.011605105 -0.19156691 -0.27242252 0.22938728 -0.25496003 0.3800567 0.65760523 0.35732248 -0.344547 0.02443859 0.29799432 -0.14939208 -0.040865358 0.002781039 -0.09775587 -0.006945748 -0.02162988 0.12968378 -0.1874112 -0.43386084 0.2722162 -0.34457582 0.02144221 0.1090405 0.28968367 -0.3095183 -0.31979153 0.8486017 -0.27555355 -0.34958777 0.14345035 -0.36862475 -0.27646416 -0.27630204 -0.035513923 -0.05374608 0.432704 0.20150986 0.033306394 -0.35296938 -0.052304294 0.013362872 0.15663683 0.019003106
12350 -0.28352317 0.41940513 0.45733914 0.24094182 -0.4448622 -0.032643482 0.34574297 0.20065528 -0.13216496 -0.15881315 0.25190443 0.20318948 -0.48733708 0.36243343 -0.2551529 -0.14486767 0.1109459 0.096325256 0.14828503 -0.33734265 0.10695091 0.08746213 0.48507452 0.057945915 -0.024441218 0.6694547 -0.3891243 -0.53886795 0.23446317 -0.06534487 -0.12520021 0.20774943 -0.030485626 0.032967012 -0.048888333 0.09528868 0.14192358 -0.42592004 -0.25483048 -0.6038218 0.34392768 0.11878122 0.1984334 0.45455182 0.20989588 -0.4870883 0.2364759 0.22633713 -0.22723326 -0.22584194 -0.6842177 0.17418014 -0.034602903 0.46245587 -0.23576702 -0.53819597 0.093966104 -0.14260565 0.20236963 0.055752087 0.1188364 -0.10171884 -0.1825096 -0.295129 0.09179047 -0.04651634 0.4189362 -0.4322502 -0.13945907 -0.24658892 -0.37590113 0.36723518 0.584069 -0.49262896 -0.072529756 0.4146275 0.44642517 -0.09488869 0.30238083 -0.17848665 -0.3640838 -0.46566087 0.35205868 -0.19256599 -0.18608062 -0.24424191 0.24196026 -0.00230932 0.2968817 -0.008636542 0.11141921 0.18775086 -0.75136507 0.30752864 0.0559619 0.1975178 -0.058243435 0.43255255 0.17148118 0.062419448 -0.21484043 -0.3099048 -0.08490248 -0.16235614 -0.47630897 -0.66815317 0.5192019 0.25422356 0.107703745 -0.41028813 -0.071276784 0.0074332086 0.24964187 0.091403864 -0.40612474 -0.12624377 -0.1951988 0.19743134 -0.26294428 0.5398592 0.08594257 0.0349892 -0.22528087 -0.4011441 0.12801677 -0.025394972 -0.017424868 0.15210333
15429 0.17558824 0.69275004 0.91056705 -0.06242834 -0.49796888 -0.34496373 -0.011660749 0.17498106 0.17531794 -0.19781029 0.2542379 -0.2307212 -0.035803188 -0.0085805645 -0.5079652 -0.08959083 -0.03379594 0.14482693 0.34261402 0.07711607 0.06387711 -0.4028973 0.22953643 0.1818264 -0.20753092 0.64944273 -0.47650233 -0.5504874 -0.33153468 -0.32177892 -0.3539411 0.18666139 0.47648793 -0.16429757 -0.045742586 0.21404313 -0.26138622 -0.8650648 -0.15191182 -0.39553216 0.08572341 0.01688822 0.21283515 0.4776366 -0.00882341 0.09812408 0.16585802 0.27255645 -0.49192023 0.10399391 -0.5591209 0.27382675 -0.0011318893 0.7743764 0.1531412 -0.012625199 -0.041387647 0.019831255 0.19819345 0.13983646 0.043345816 -0.6075687 0.004908979 -0.16728868 -0.004834981 0.15541607 0.23837295 -0.7493617 -0.21042693 -0.37723774 -0.10651147 -0.0848539 0.39356136 -0.67106605 0.050111793 0.0040784804 0.6470349 -0.10020738 0.03846693 -0.24989827 -0.2944788 -0.81874484 0.29697388 -0.051567696 0.14837217 -0.1928713 0.009050257 0.017887304 -0.14002012 -0.2360769 0.1224298 0.7286664 -0.3243403 0.2946604 -0.25343907 0.31152183 -0.1122848 0.367687 0.07968452 0.5293579 -0.29280862 0.08733953 -0.033231482 -0.14410225 -0.3595671 -0.49849302 0.5057477 0.04799604 0.31295347 -0.06813642 0.034233615 0.11749907 -0.109427154 0.4539655 -0.34812367 -0.31180763 -0.020007439 -0.020423641 -0.42974374 0.27459705 0.42518163 -0.1527287 -0.24153847 -0.5156479 0.36513296 -0.38360202 -0.21452972 -0.28749573
8703 0.089471705 0.30801016 0.07131462 0.2519983 -0.2752151 -0.33964515 0.40592185 0.058701355 -0.107973464 -0.17883688 -0.028470336 0.2270222 -0.24285303 0.22809693 -0.3782871 0.108561404 0.030764772 0.053263128 0.22452284 -0.30088872 0.14104033 -0.038528766 0.7617755 0.35254022 -0.55315936 0.10596932 0.04337709 0.068701 0.42318195 -0.012687386 -0.24173962 -0.31387353 0.2048151 -0.20528969 0.30038056 0.12894624 -0.20229918 -0.37568882 0.06672235 -0.35685983 -0.04276167 0.22770049 -0.34081644 0.08375416 0.35419613 0.085613534 0.38230887 0.17983106 -0.7427072 0.008809187 0.14790912 0.2908146 -0.42617238 0.61632204 -0.11151384 0.30478635 0.27277398 -0.22563447 -0.13893391 0.118426904 -0.23751 -0.7892459 -0.55928993 -0.82407063 -0.101786256 -0.3047518 -0.50515395 -0.35214382 0.45335886 -0.045856066 0.0030992278 -0.10162999 0.24015185 -0.22372311 -0.15997228 -0.23384528 0.7371901 0.19940047 -0.49666238 0.21877928 -0.13059345 -0.06543663 0.08558989 -0.16686271 0.29776838 -0.0831042 -0.16303492 -0.56937116 -0.14700706 0.14141461 0.18810052 0.4766491 -0.37197173 0.16567792 -0.11773437 0.1779676 0.06109041 -0.083942026 -0.091544114 0.3565917 -0.05902218 0.34809083 0.058153994 0.12191741 0.52810055 -0.5338401 -0.18448174 0.08603443 0.09206594 -0.373415 0.40556222 0.279396 -0.054052845 0.07758222 -0.25545713 -0.31081775 -0.2446889 -0.1574958 0.3617348 0.43168455 0.7766242 0.5669009 0.14834332 -0.26531398 -0.22638927 -0.12550327 6.4028936e-05 0.13801987
39890 0.40949604 -0.1856411 0.5468431 -0.21729018 0.42214516 -0.2967558 0.18258391 0.20175482 -0.34185764 -0.16899477 0.22186476 0.12703 0.04899242 0.16582839 -0.36487567 0.1993124 0.38224426 0.26585415 0.45779377 -0.103873365 0.06176133 -0.21541066 0.89796454 0.7228761 -0.08105208 -0.26219702 0.10370885 0.29022044 0.22355792 -0.38465384 -0.20166568 -0.01719391 0.23611933 -0.38917428 -0.65080345 0.08901846 -0.017368715 0.25539267 -0.0018444717 -0.66011 -0.31043428 -0.45883378 0.21260501 0.25065336 -0.08349788 0.33307645 0.32211822 0.08664672 -0.2891323 -0.40606415 -0.74084383 -0.16783875 -0.24755289 0.15761487 0.47841528 0.015277671 0.15574545 -0.14737378 -0.025195515 0.4656542 0.010632286 -0.3783442 0.12605408 -0.52439636 0.0973949 0.020741502 0.031442508 -0.11067602 -0.036521707 -0.19871616 -0.75443804 0.30995604 0.4984264 -0.39238703 -0.32944146 0.22919965 0.542136 -0.05736638 -0.36994237 0.21095036 0.34001103 -0.3694706 -0.8741164 0.2590202 -0.25350472 -0.25683436 0.27835387 -0.09232618 0.008656394 -0.09436234 0.09605135 0.24682924 -0.12880109 0.110233806 0.47964707 -0.31257993 0.22266854 -0.54794544 -0.22704996 0.00026102478 0.04252231 -0.03403171 -0.38591397 0.112554274 -0.20576508 -0.079119764 -0.010740659 0.12120894 0.10015087 -0.01975417 -0.040121194 0.5374433 -0.15089391 0.48635313 -0.06159892 -0.11161198 -0.37005916 0.092684396 -0.41531393 0.28938082 -0.16225561 0.11184495 0.55186576 -0.13886058 0.09176324 -0.05537512 0.3962791 0.40346298
31353 0.2721463 0.1459172 -0.028857468 0.06976748 -0.31103328 0.080796875 -0.26065183 0.803208 0.0804049 0.054560028 0.4251898 0.13923462 0.015632616 0.28097424 -0.46854734 -0.26417375 -0.09772685 -0.050585296 -0.08905135 0.104031585 0.088604175 -0.084524944 0.3122197 0.16311844 0.047134336 0.35137892 -0.39597356 -0.15324327 0.09023095 -0.19394144 0.3317712 -0.01676688 0.23056926 0.104148366 -0.21981047 -0.25409606 -0.009723983 -0.03666081 -0.07663783 -0.620263 0.20955563 -0.42483598 0.30060014 0.9747678 0.56193304 -0.20960315 0.30257323 0.15456828 -0.9303619 0.14364128 -0.36030436 0.6025239 0.5199256 0.53247947 0.2434251 0.0010925914 -0.341811 -0.51986915 -0.19690178 0.49384782 0.35554138 0.0953546 -0.35356012 -0.20076616 0.43801984 0.09200991 0.5517936 -0.39694265 -0.352412 -0.19519147 -0.19499503 0.97562677 0.5595848 0.13724832 0.13449465 0.102350086 0.4625897 0.51971614 0.42758203 0.14781915 -0.659962 -0.48935863 -0.43470722 0.47867048 -0.5286316 0.11621139 0.41968033 -0.18662918 -0.2177352 0.040279273 0.08727963 0.54217696 -0.33139756 0.7839699 -0.07584199 0.026462577 -0.21724616 0.07134318 0.03383019 -0.067732096 0.3983295 -0.11774866 -0.07484059 0.044757042 -0.1776427 -0.32886076 0.4149577 0.14402784 0.143775 -0.0089047635 0.25941196 0.48570022 -0.38697663 -0.039792214 -0.62653637 -0.10223167 -0.54720706 0.13953821 -0.5648277 0.2458782 -0.1642516 0.17868972 -0.17835267 -0.39492652 -0.16912575 -0.45175993 -0.25847226 0.05737993
2653 -0.51930547 0.274492 0.4301955 -0.31392574 0.29354233 -0.07792803 0.18040678 0.5196823 -0.057191208 0.06971813 -0.062071543 -0.37349546 -0.11458586 0.40558735 -0.7169192 0.25539634 0.11656638 0.20875752 0.09860619 -0.09574685 0.20184954 -0.15428858 0.26323408 0.07097219 -0.011307409 0.46204412 0.031957515 -0.2890503 0.29964355 -0.3624822 -0.050605055 0.42749262 0.052093137 0.06211176 -0.49641266 0.44682032 0.040349633 0.07721241 -0.03121039 -0.6604286 0.037007164 0.07513317 0.07707076 0.3658423 0.17585655 0.039452486 -0.4733829 0.537154 -0.52699095 -0.04121685 -0.10966184 0.5850438 0.14285697 0.22714218 0.50823283 -0.31967208 -0.18313324 -0.4064587 0.11180392 -0.025373634 0.44983062 -0.8739381 -0.17726174 -0.09418553 0.0020906858 -0.37181258 0.1524856 -0.57084 -0.1322475 -0.28904125 -0.28588417 0.1709531 -0.19246298 0.08479988 0.41998434 0.11410464 0.3989422 0.23233546 0.040728346 -0.012663482 0.13573259 -0.22116333 0.11373402 -0.042248312 0.09068275 -0.06610975 -0.28798294 -0.21874265 0.25305083 0.12291179 -0.03051433 0.51829576 -0.45129663 0.5573831 -0.00929058 0.18045932 0.44894618 0.10456615 -0.034907535 -0.23674367 0.18014301 -0.32871655 -0.32270342 -0.42680162 -0.36471102 -0.63632655 0.4411078 0.07087174 -0.3945309 0.2762195 -0.05350269 0.45148888 -0.033248533 0.29786018 -0.49058345 0.047140732 -0.35693923 0.013385331 -0.16936536 -0.10398157 0.1377733 0.20075178 -0.083341874 -0.6696498 0.15755333 -0.083211064 -0.23638786 -0.0085719
643221 0.71715754 0.004906306 0.59141934 0.114205025 -0.3551859 -0.5197769 0.41403672 0.5017872 -0.55851614 0.5449004 -0.06893984 -0.13882552 0.10632013 0.3368032 0.098043464 -0.40691477 0.4547792 0.53889745 0.5075744 -0.59236056 0.22186977 -0.8187705 0.6267102 0.029591653 0.33149964 -0.07654638 0.70598507 -0.44831294 -0.38029543 -0.5644417 -0.26987514 0.071706034 -0.38707975 0.038452607 -0.41308045 -0.22052635 0.43974125 -0.2982865 -0.003276751 -0.054383244 0.09716371 -0.42536432 0.27650163 -0.3682192 -0.04690515 -0.45878074 0.24698153 0.5646889 -0.45523408 -0.50339574 -0.01927012 -0.17654595 -0.1930222 0.21364722 0.17806245 -0.16196737 0.09558114 -1.0810099 0.21473941 0.51129854 -0.59795004 -0.5128621 0.09533808 -0.5535868 0.22492819 0.22979605 -0.24524133 0.048706423 -0.33716208 -0.21951199 -0.16153263 0.36462662 -0.26907438 -0.6505785 0.02038339 0.045238674 0.41365102 -0.07674018 0.02797475 0.056911785 0.07763827 -0.27960834 -0.35473144 0.47817233 -0.5901106 -0.5604358 0.11436852 -0.7907008 0.06811888 -0.16392843 0.04213595 -0.07768469 -0.072793454 0.49108303 -0.0393635 0.43653962 0.576839 -0.07264436 0.037335943 0.49591956 0.4818376 -0.4408535 0.097731866 -0.20110178 0.13966833 -0.06210683 0.12999594 -0.54908943 -0.45610338 -0.03617695 -0.22994871 0.6515763 -0.33907208 0.0933079 -0.64095354 -0.18545826 -0.16605085 0.03407905 -0.15778539 -0.5020381 -0.020441838 0.724813 0.2677029 -0.56629515 -0.06445038 -0.10225857 0.04241772 -0.0984587
23738 -0.32353905 0.24607392 0.2706967 0.050222836 0.20962755 -0.4601645 0.39361158 0.47483686 0.1362177 0.26794755 -0.0470206 -0.012916578 -0.021919468 -0.05283357 -0.78278077 0.034759484 0.3234032 -0.27923787 -0.0051809438 -0.25801042 0.041046787 0.09495268 0.16494508 0.2734519 -0.3286786 0.10100661 -0.25122148 0.15458883 -0.1546733 -0.49864194 -0.30646437 -0.24020311 -0.53384674 -0.32561263 -0.26856792 0.30999666 -0.30863404 -0.04343987 -0.23461755 -0.64213693 -0.1159702 0.29954258 0.06863471 0.22193913 0.112954065 0.15768723 -0.026863458 0.1970967 -0.54907864 -0.5129759 0.021714786 -0.00666639 0.38944852 0.25210285 0.14680673 -0.5185207 -0.014808783 -0.27501643 -0.33714136 0.4397768 0.2535832 -0.2027125 -0.22913505 -0.4341979 -0.13791056 -0.5557602 -0.016476998 -0.29790795 -0.2060702 -0.042838335 -0.24503022 0.22675036 0.114662826 0.008146321 -0.36834842 0.32660386 0.18948919 0.107265584 -0.32530645 0.43711066 -0.27829766 -0.35399175 -0.35349274 0.030403074 0.24217275 -0.076044396 -0.24798045 -0.42399582 0.07188693 0.2631072 0.24700895 0.38319474 -0.81909204 0.18502289 -0.060536202 -0.077330105 -0.18485525 -0.16343218 0.27355182 0.33605164 0.06225539 -0.108997434 -0.49350595 -0.5453499 -0.36398843 -0.6556984 0.45167974 0.04264623 -0.07115757 0.25222224 0.02895942 -0.01899777 -0.3213646 0.06562885 -0.21740794 -0.23471634 -0.5439671 -0.10170982 -0.23153128 0.28874663 0.5046699 0.103531085 0.0896906 -0.2723083 0.07222688 0.2870002 0.14007533 0.27133247
16819 0.5797812 0.10038785 0.437936 0.18473029 -0.5285317 -0.5176701 0.4689299 0.28611732 -0.57092464 0.61356556 -0.17636673 0.056615725 0.08185348 0.4880201 0.25283056 -0.47938472 0.15976986 0.25815704 0.40598017 -0.40446654 0.3573431 -0.6153463 0.76665854 -0.117665015 0.40842324 -0.34210417 0.76552546 -0.4550198 -0.27414134 -0.56142604 -0.40697658 -0.08897011 -0.25483066 -0.11012625 -0.23920342 -0.29245627 0.23958574 -0.33852226 -0.029817043 -0.13750355 0.19223627 -0.24509072 0.18094455 -0.2875701 0.1647106 -0.56263363 0.2469798 0.7826821 -0.34673408 -0.5824188 -0.12817517 -0.22559223 -0.1907842 0.37497878 0.17402294 -0.061190665 -0.062973365 -0.88072646 0.200222 0.41272223 -0.5481975 -0.33682248 0.09790462 -0.61111116 0.32050776 0.06286302 -0.27928692 -0.18143162 -0.11356573 -0.26129493 -0.21596794 0.2536617 -0.08766839 -0.75300664 0.13424267 0.0016476003 0.36325163 -0.106874906 0.14792874 -0.05253066 -0.12183756 -0.19579281 -0.37303752 0.25553876 -0.58908415 -0.47377738 0.166544 -0.700691 0.10669569 -0.08305468 0.049377993 0.17238544 -0.12917314 0.47654742 -0.0034048771 0.6421489 0.8345439 -0.097558215 -0.033512652 0.46504545 0.31010583 -0.22418939 -0.180002 -0.13841277 0.1701284 -0.20942672 0.08036815 -0.525561 -0.4870565 0.10296676 -0.25445783 0.5080887 -0.4198944 -0.0832213 -0.57154155 -0.17257911 -0.28228563 -0.014446608 -0.04451538 -0.66992056 -0.16434821 0.5948123 -0.13034844 -0.48942345 -0.18549387 -0.103707686 0.063020155 -0.13233936
2658 0.954627 -0.2365071 0.08470929 0.41839078 -0.0071474807 -0.06793515 0.048872676 0.71348363 -1.0016587 0.48560736 0.018560031 -0.011938822 0.28470042 -0.14782053 -0.75120145 -0.19405665 0.3574993 0.4251106 0.10130019 0.33396858 0.58783793 0.045026697 1.0099617 -0.092930846 -0.35293812 0.29993263 0.06198728 -0.11305756 -0.28991157 -0.34967315 -0.28476006 0.28552866 0.6104311 0.10843252 -0.40327743 0.018348753 0.35767502 -0.036915746 0.055213906 0.35586756 -0.0355127 0.09128106 -0.23109268 0.9387081 0.05014619 0.12077704 -0.11647707 0.49338385 -0.9124559 -0.54635763 0.07236841 0.26376578 0.08495204 0.457839 0.02055348 0.31371817 -0.35307568 0.13682863 -0.39416388 0.35210872 0.02584553 -0.055093467 -0.16137521 -0.31088558 0.4948807 0.08904229 0.5986954 -0.1295315 -0.30191565 0.32077938 -0.8539608 0.33119574 0.65866333 -0.28322735 0.40862957 0.5084865 0.41761413 0.64160204 0.17047925 -0.117446594 0.18475688 -0.5547669 -0.10868734 -0.11453624 0.002404185 -0.33574447 0.03106138 -0.5606291 -0.10040229 0.20499824 -0.35568267 0.7481083 0.11117878 0.24085915 -0.30560714 0.26929176 -0.24831237 -0.084929444 -0.10115025 -0.027177662 0.0066956636 0.54035294 0.26760733 -0.4941134 0.30892605 -0.12591735 -0.38095465 0.3773532 0.5051701 -0.33102548 -0.76135844 -0.17163514 -1.0423249 0.29023635 0.2896883 -0.24865006 -0.08066469 -0.16071348 -0.11545572 -0.47157645 0.05261845 0.44486788 -0.06482343 0.054430265 0.1557288 -0.1585634 -0.27193296 0.30822784
4804 -0.10047636 0.25515082 0.7888556 -0.48951122 -0.097077794 -0.114287846 0.31470597 0.053989094 0.13880672 -0.107967004 0.100765176 0.06473872 -0.10350424 0.28359008 -0.28504324 0.07305289 0.12817188 0.24826291 0.2946147 0.10142616 0.17207374 -0.24890013 0.5017267 0.0993631 0.062748656 0.4759159 -0.22975372 -0.19302951 -0.04404458 -0.12347222 -0.16867124 0.21570306 0.030161211 -0.07792945 -0.16469286 0.05259205 -0.03633315 -0.23314176 -0.11022393 -0.48787272 0.13957128 -0.25549763 0.30153328 0.4181699 -0.013194973 -0.09037985 0.31831157 0.28009295 0.071292356 -0.24750297 -0.44496036 0.5402237 -0.069190085 0.61051774 -0.23949581 -0.7025923 0.006552635 0.13441078 0.07192068 -0.07249753 -0.13847332 -0.24430409 -0.21562667 -0.17202985 -0.23236957 0.26989582 0.91332245 -0.6103847 0.106633395 -0.27518588 -0.3051224 0.5288953 0.069603235 -0.47752905 0.30420125 0.26455313 0.6264631 0.42198125 0.2584406 -0.14381723 -0.07647309 -0.7309043 0.08162368 -0.2021166 0.05024878 -0.21786042 -0.18046165 -0.25110006 0.27149284 0.26393002 0.09766973 0.38469025 -0.31286955 0.65896654 0.03019234 0.29708847 -0.17887038 0.4430778 0.08853329 0.61516845 0.06977223 -0.22595523 -0.15106231 -0.45195684 -0.12818463 -0.3711038 0.27937028 0.4043995 0.23477016 0.07232779 0.04314666 0.35768452 -0.3459187 0.4456616 -0.37917674 -0.45821235 -0.2803467 0.24593051 -0.11871142 0.4428942 0.23305139 0.42618498 -0.28841275 -0.6251139 0.39182842 -0.12689522 -0.42017755 -0.3709767
1688 -0.040077224 0.09574081 0.3599416 0.2313512 -0.40686765 0.26622838 -0.17965458 0.16503766 -0.12774721 -0.19908485 -0.3900264 0.12387594 -0.0566875 -0.19316316 0.215557 -0.24402802 0.4915804 0.26358446 -0.14497598 0.11398466 0.094059125 0.10808544 0.12321323 -0.280135 0.06930332 0.6744576 0.46993932 -0.30805188 -0.0029002153 -0.38420266 -0.55494475 0.6258869 0.124211386 -0.19273072 -0.24152659 -0.023830565 -0.1670922 0.17522986 -0.081926584 -0.14279903 0.19504471 -0.17505778 -0.35598376 0.40912974 0.4298856 -0.31817144 0.35235173 0.015602039 0.21471345 -0.6089259 0.011506634 0.13001418 -0.036690965 -0.16930576 0.20474991 -0.15951276 0.21351093 -0.25401407 -0.0003129053 0.39155376 0.39724708 -0.3620801 -0.010788743 -0.8232513 0.11795607 0.039392848 -0.10441344 0.5344179 -0.34321934 -0.2526499 -0.3851881 0.18551643 0.3579529 -0.17956118 0.0031393198 0.62801874 0.44176167 -0.06879691 -0.40204856 0.13018121 -0.411107 -0.0730011 0.3785065 0.21281584 0.048375778 -0.41038278 0.030533778 -0.49062538 -0.093248874 -0.08440776 0.5071648 0.5696117 0.09554107 0.3607696 0.28183326 -0.078377366 -0.002855209 0.047957513 0.8049896 0.038311254 -0.5528811 -0.03973578 -0.313188 -0.4517544 0.71075684 -0.49728784 0.11025606 0.07867775 -0.55300564 0.61464524 -0.10160607 -0.04099467 -0.25614727 0.049951915 0.062299177 -0.11737689 -0.16482207 -0.034025904 -0.0043416247 -0.33333793 -0.118535936 0.41819045 -0.0099208215 -0.32708654 0.10627477 0.20877242 0.030163871 0.09824554
3220 0.2415424 -0.14857592 0.19338775 0.23343399 -0.118463404 -0.38583887 0.24555132 -0.056759812 -0.09077049 0.43085954 0.22045025 0.09322997 -0.12378583 -0.16593905 -0.39450613 0.12386772 -0.010730603 -0.0056181154 -0.1757197 0.058214135 -0.10686747 0.21004085 0.48512107 0.19713855 -0.18105151 0.25279617 0.07676938 -0.28992563 -0.11593432 -0.251966 0.19768085 -0.24511853 0.12743452 0.0882759 -0.041177597 -0.083342016 0.22403234 -0.43252227 0.08449113 -0.48309323 0.073615 -0.049489755 -0.084020115 0.12418176 0.5605407 -0.011981662 0.41598278 0.33540562 -0.76104033 0.2533388 -0.40216723 0.41586295 0.19649836 0.6891095 0.5912066 -0.09259352 -0.0019203791 -0.4170544 0.14564164 0.57710224 0.16515502 -0.27067006 -0.2629629 -0.51117885 0.4116404 0.1313896 0.16955264 -0.33175224 -0.06832 -0.2915511 0.08092795 0.56063265 -0.043430813 0.2162724 0.06667228 0.2689106 0.15354708 0.5885735 -0.19807823 0.08262406 0.12553641 -0.69603384 -0.41367862 0.35194048 0.36811176 0.47808412 -0.31105682 0.034873832 -0.09029437 0.51879954 0.27403906 0.19545484 -0.8768286 0.3141663 -0.20007606 -0.01598936 -0.09824101 -0.21549009 -0.14763753 0.34869182 -0.08332132 0.084037445 -0.323852 -0.58203167 0.128051 -0.26757017 0.11277009 0.20868908 0.007832254 -0.07758841 -0.12711315 0.8458493 -0.11745998 -0.5304511 -0.021344766 -0.31614387 -0.4545452 -0.24748836 0.23812 0.14142647 0.42885187 0.5407014 0.08364362 -0.30655918 -0.042920172 -0.08489381 -0.36098173 0.11839224
2696 0.72054166 -0.26604098 -0.24189937 0.033601094 0.4246052 -0.121698156 0.05479868 0.96255547 -0.37615067 -0.3216164 0.20796403 0.20097001 0.1374672 0.04587571 -0.41230074 -0.35296816 -0.066912964 0.15313743 0.32990956 0.08103371 0.16509235 -0.12706079 0.55791014 0.15367389 0.14049155 0.18600054 0.3378156 -0.39446545 -0.18593879 -0.6208049 -0.3219904 0.4259893 0.7821846 0.2687114 -0.3954158 0.12329059 -0.04026388 -0.026393078 0.037648764 0.06018753 -0.1549969 0.42382744 -0.24313459 0.8273948 -0.17861988 -0.07266572 -0.3238085 0.21849246 -0.8408724 -0.16238666 -0.3306787 0.37487167 0.1856853 0.41667175 0.15539092 0.057259534 0.16362225 -0.17613813 -0.6165789 0.40138888 -0.10485933 0.15791841 -0.1267336 -0.15903468 0.22473031 0.25500077 0.16513635 -0.29976046 -0.26460448 0.3470778 0.14781177 0.049222637 0.7127341 -0.41439 0.20176469 0.0014710178 0.43256447 0.2961641 -0.06362822 -0.21984723 -0.6397838 -0.66356283 -0.66844887 -0.1229992 -0.31051332 -0.22672082 0.11044588 -0.4274181 -0.031080158 0.056261316 -0.12602703 0.82372755 0.27017602 0.11513006 -0.039060075 0.47024336 -0.5655426 0.16341932 -0.18446791 -0.16092065 -0.008985122 0.26163712 0.07633637 -0.54108715 0.22015946 -0.3811431 -0.5266118 0.4459022 0.17173845 -0.5038569 -0.28510535 0.19172522 -0.55183166 0.2476369 -0.41182843 -0.19040103 0.14702506 0.17159455 -0.35936946 -0.4949548 0.00093861687 0.16766948 0.21360753 0.19662493 0.2864588 -0.10378104 -0.0146523 0.18581103
3191 0.36390164 -0.07287195 0.44354898 -0.5859305 0.22030285 -0.08118292 0.51495475 0.45893756 0.07669019 -0.15302789 0.5049088 -0.42099026 -0.11218397 -0.13279869 -0.3875216 -0.15003224 0.36408707 -0.20082897 0.41800985 -0.14349523 0.2895924 -0.3323552 0.51682687 0.43890983 -0.10776303 -0.07297825 0.34486458 0.25989085 -0.2771986 -0.39257932 -0.17388634 0.24800539 0.053032704 -0.22869892 -0.51148576 0.025961012 0.059869867 0.11552843 -0.11821145 -0.7631622 -0.0004983852 -0.50290453 0.15318866 0.33195233 0.37171862 0.1846346 0.23105472 0.263239 -0.42482418 -0.21479525 -0.5817184 -0.18564606 -0.011186168 0.42957398 0.43190718 -0.016478937 0.5639769 -0.3799476 -0.016269144 0.16040356 0.11753253 -0.22566019 0.37043598 -0.50627667 0.13539043 0.15837942 -0.24764673 -0.041087303 -0.16302723 -0.2908912 -0.58533806 -0.032669187 0.2573527 -0.45243627 0.0850168 -0.1118921 0.40531757 0.21793057 -0.25942212 0.17850997 0.6029635 -0.39172655 -0.74904865 0.40535632 -0.20615263 -0.18184538 0.23276049 -0.19451827 0.4995962 -0.023560915 -0.17069934 0.417385 -0.4289141 -0.41192237 0.5201856 -0.34153405 0.17216514 -0.23009636 -0.4251328 -0.15749945 0.28114584 -0.17517783 -0.5994954 -0.276386 -0.16376919 -0.09382776 -0.13426931 -0.04944087 0.021545516 -0.17072521 -0.20764534 0.4134008 -0.5579418 0.30341125 -0.3182319 -0.08920673 -0.53381133 -0.11901393 -0.28976128 -0.16298674 -0.28213215 0.36636305 0.075564384 0.026828647 -0.018656261 -0.053570986 -0.036120456 0.36402184
10796 0.32749265 0.020582754 -0.05370357 -0.20498927 -0.31497538 -0.5637021 -0.35618806 0.23771013 -0.81980413 -0.042893775 -0.37637404 0.054952674 1.2474484e-06 0.12560652 -0.027141994 0.22798237 0.24806008 0.19066486 0.55527765 -0.12732787 -0.15531996 0.118289135 0.4433924 0.18110482 0.13352334 0.029616931 -0.17838688 0.30943424 0.3794056 -0.05887828 0.012413075 -0.11644902 -0.1653942 -0.25990814 -0.010791846 -0.07800887 -0.085762836 -0.21427089 0.026761986 -0.5088176 -0.12631212 0.055464976 -0.19644475 0.4181619 0.3754763 0.3855648 -0.07039645 0.22895357 -0.6613838 -0.059406336 -0.0708941 0.22830462 -0.58051157 0.4454889 0.283143 -0.1598964 -0.11276748 -0.3083391 0.006898761 0.5054207 4.0170096e-05 -0.12627977 -0.010204823 -0.31242687 -0.14667545 0.14097574 -0.341914 -0.3750588 0.048552673 0.2492733 0.26598477 0.46688876 0.22545207 0.37039372 0.0047188834 0.22568096 0.17123015 -0.14463614 -0.46776983 0.039303195 0.15572178 -0.26671267 -0.36152303 -0.24975301 0.12532921 0.21241845 -0.021428458 -0.04850727 -0.28902337 -0.010703838 0.117068626 0.6830513 -0.31115165 0.62149805 -0.035073157 0.16882643 -0.010380119 -0.07946128 0.30984694 0.4709051 -0.37652293 0.22156017 -0.56381685 -0.01584755 0.020710882 -0.24872452 -0.050881885 0.28303218 -0.16080256 -0.27785528 0.3604972 -0.44003662 0.10195988 -0.26802102 0.13691744 -0.2177509 -0.19345412 0.12343895 0.077953614 0.4664352 0.6689254 0.42246982 0.1510849 -0.38928214 -0.109329514 0.015676076 0.2797183 0.008203061
4335 0.450778 0.15089568 0.39331868 -0.44175363 -0.18533404 0.27691317 0.27959603 0.865518 0.3855012 0.04066461 0.2948296 0.19474405 -0.46752718 -0.15745223 -0.6133523 0.042346105 0.2580497 -0.007675398 0.43293548 -0.14507286 0.32805997 -0.13028923 0.29106268 -0.08087101 0.079003274 0.2760697 0.37559858 0.20802179 -0.3698151 -0.17486708 -0.38051593 0.20481268 -0.2671557 0.086048335 -0.6291384 -0.22634557 -0.039926883 -0.1505372 -0.19420685 0.013189232 0.34890515 0.022874199 0.3952096 0.39505765 0.17620158 -0.051303342 0.043532655 0.42398173 -0.4039966 -0.1629047 -0.2956639 0.1813574 -0.14126739 0.16320619 0.3279978 -0.032683946 0.28039712 -0.34364277 -0.30867416 0.1598332 0.23779626 -0.10762908 -0.3814132 -0.32300106 0.30972424 -0.0267827 0.18809915 -0.18200447 -0.59640974 0.06481756 -0.028077822 0.24589857 0.13583216 -0.40230647 -0.50721943 0.51065755 0.30908236 0.21694621 0.2912758 -0.036925096 -0.50563943 -0.068376325 -0.33676827 0.37598795 -0.2739165 -0.058641367 0.20013508 -0.5880877 -0.2993871 -0.1516705 -0.444061 0.46521798 -0.16509044 0.15694141 0.24554281 -0.0556927 -0.41453844 0.061987385 0.28934506 -0.08541631 0.6108648 -0.113428555 0.022540167 -0.09714646 -0.17677175 0.1718073 0.28384063 -0.53153783 -0.30797586 -0.3020387 -0.019655438 0.41036707 -0.34727675 -0.2844099 -0.65096456 -0.24831161 -0.32340437 0.26230854 -0.57514584 0.34847993 0.18195693 0.032083247 0.3706834 -0.3607497 0.37025058 -0.15672365 0.14044456 0.073487185
1481 0.27705264 -0.025142448 0.51072484 0.08490059 -0.070847884 -0.31891224 -0.21147248 -0.27965513 -0.43504336 -0.14515935 -0.033866156 0.124029264 -0.0063167126 0.036237285 0.07369013 -0.018617705 0.09902701 0.25364497 0.12955177 0.2475421 -0.28893262 0.017262759 0.3645002 0.3308874 -0.11606431 0.18993221 0.22244115 0.068707414 0.097984016 -0.34862337 0.18508168 0.1280078 -0.0071789967 -0.16095203 -0.112169094 0.27150726 0.06677867 -0.2657217 0.45113724 0.3520477 0.20852344 -0.0002376257 0.27534023 -0.15865794 -0.23464152 0.33442262 0.4119028 0.42909738 -0.83107096 -0.38717973 -0.10208465 0.87357676 0.010960874 0.25133464 0.06804306 -0.06108292 -0.094769776 -0.40883467 0.0022077744 0.481343 -0.19224729 -0.735071 0.30725226 0.14035758 -0.08545247 -0.35186192 0.09799087 -0.2713155 -0.03566261 -0.0901252 0.10332016 0.31946632 0.15756486 -0.20344011 -0.28795844 -0.047926035 0.33689252 0.16051859 -0.32473812 0.15147606 0.17732528 -0.46699262 -0.40640968 0.30338967 0.33525676 -0.10764449 0.47175205 0.097432666 -0.15002477 0.037860442 0.31712136 0.49352938 -0.53135026 0.4253379 0.2834136 0.2830083 -0.21833944 -0.09706792 -0.0668769 0.45384458 -0.19654578 -0.042024184 -0.64331007 -0.39170805 -0.0035470726 0.058566827 -0.4125757 0.16386458 -0.05713756 -0.10158101 -0.4775537 0.031508703 0.43762505 -0.22544971 0.2753299 0.16109966 -0.5946992 -0.16744578 0.38304186 0.19601181 0.49478382 0.79366356 -0.0033986901 -0.32489666 0.4088455 -0.46896565 0.36420053 0.4582212
85352 0.2276275 0.16035141 0.38028845 0.23574649 -0.17544188 0.3718278 -0.038607728 0.39365646 -0.38803318 0.43623745 -0.21112642 -0.12144328 0.086432 -0.52113605 0.22950271 -0.21461155 0.53181684 0.23391515 0.07144375 -0.2667159 0.16069871 0.13552895 -0.13768329 -0.1583156 0.019667089 0.3692474 -0.060673755 -0.22414488 -0.226097 -0.1430813 -0.23897937 0.4645226 0.56401664 -0.13881172 -0.44430852 -0.036837745 0.10712213 0.07670843 -0.072687745 -0.08649681 0.23375387 -0.36762828 -0.33636725 0.42912793 0.040063303 -0.34040624 0.2819885 -0.24242534 -0.39542133 -0.20490184 0.05585227 0.58836776 0.43950382 -0.18890134 -0.26495576 0.09996779 0.22307001 -0.2487338 -0.09386005 0.600271 0.44930428 -0.3771197 0.098888926 -0.52017486 -0.008525534 0.29132307 -0.04782763 0.10247949 -0.11664464 -0.2701285 0.019591384 0.3649637 0.42650437 -0.024516491 -0.036121264 0.10076369 0.7694018 0.3753367 -0.16362906 -0.22939685 -0.37541175 -0.21645634 0.31589082 0.6655319 -0.21384774 -0.251424 0.05799658 -0.2600173 -0.046206553 0.09440252 0.6382099 0.35084757 -0.1740397 0.10668256 0.22771111 0.081612065 0.1504483 -0.008547208 0.58916914 -0.038799234 -0.63959277 -0.11340544 -0.23470365 -0.09412736 0.3740881 -0.6442451 -0.11326937 0.14005359 -0.36514547 0.5369818 0.4196905 0.2518743 0.063924015 0.4577657 -0.2231888 0.06929638 0.117059395 -0.20094912 -0.15587291 -0.22777617 -0.04137251 0.034413386 -0.04142034 -0.6808311 -0.08065697 0.035910152 0.16263111 0.07462644
230879 0.9510093 -0.4602549 0.073295444 0.59603834 0.054430343 -0.0462812 0.25815266 0.6085761 -0.82956535 0.5471754 -0.031391893 -0.040406268 0.13103233 -0.3639109 -0.775267 -0.1329516 0.47312313 0.35848954 0.16044486 0.23896576 0.7664142 0.16530675 0.9238599 -0.03269288 -0.42076632 0.4633119 0.14314507 -0.07450379 -0.5645724 -0.38501585 -0.37080866 0.049261197 0.41374213 0.012049837 -0.43971896 0.09422382 0.29130483 -0.120408595 0.097923994 0.25813535 -0.035417665 0.017138092 -0.19928692 0.99602467 -0.011009788 -0.15221961 -0.021560052 0.39504725 -0.916797 -0.5423418 -0.13284518 0.27776474 0.077004254 0.6074728 0.014518977 0.5097958 -0.44167173 0.15084103 -0.4517609 0.40770918 0.060250293 -0.14571978 -0.10806919 -0.27235118 0.43781552 0.11235398 0.5484079 -0.27969074 -0.19694686 0.4700789 -0.91472787 0.26064867 0.77910185 -0.21577388 0.34196416 0.50750387 0.36986014 0.71520483 0.2863789 -0.19524856 0.24090464 -0.52363867 -0.25483248 -0.17865479 -0.02861052 -0.20805448 0.013280088 -0.54010767 -0.03729974 0.18152569 -0.23431394 0.66004425 0.11464489 0.2938899 -0.09157912 0.3200128 -0.27601263 -0.036900643 -0.14234383 0.12256796 -0.12613657 0.46310174 0.29666498 -0.643731 0.36544546 -0.14629216 -0.2918111 0.3708449 0.33005485 -0.27867094 -0.6679816 -0.26457736 -0.9475925 0.29246968 0.2656524 -0.38444525 -0.0971999 -0.3829203 -0.053970985 -0.3615402 -0.007747258 0.4079301 -0.01799888 -0.05356068 0.39342546 0.02104966 -0.1884072 0.2898622
117 0.73041064 -0.3312404 0.37356555 0.17078558 0.01755972 -0.6399668 -0.10319658 0.24183121 -0.120931536 -0.14226997 -0.26427928 -0.17383482 0.13059178 0.3570537 -0.37209278 0.20678142 0.24102657 0.17898527 -0.06336809 0.29723305 -0.006147358 -0.27723062 0.7612049 0.22861354 -0.21828748 0.122518085 0.23820513 0.21750587 0.29451075 -0.04966532 -0.31085092 -0.5869803 0.070425525 0.08134331 -0.8132927 0.19445926 -0.38517419 -0.032229356 -0.15891424 -0.20068303 -0.098837696 -0.5852367 0.19212972 0.43130788 -0.28758737 0.015049591 0.57620776 0.15061425 -0.27151528 0.07387497 -0.60870165 0.2671376 -0.19923422 0.10019263 0.05926933 0.6013563 0.4013128 -0.031923905 -0.36896664 0.2429889 -0.011201751 -0.53290725 -0.047301732 -0.12911624 -0.50365776 0.058536507 0.33356678 0.08113392 0.09439545 -0.17213142 0.20247583 0.32823533 0.284966 -0.18772097 -0.07679094 0.0055669905 0.46859694 -0.11433318 0.055596102 0.09028365 -0.35283163 -0.43376824 -0.5757241 -0.18734787 -0.34919044 -0.35523525 -0.0303742 -0.23621298 0.23186815 0.10070974 -0.052906692 0.15509237 0.1136423 -0.08507277 0.33004212 -0.08201296 -0.051764566 -0.18073575 0.37041515 0.43311843 -0.37065932 0.03275478 -0.26534858 -0.17231096 0.18091933 -0.07103547 0.09294347 -0.09380268 0.31899303 0.092968605 -0.18105578 0.39364228 -0.046598308 0.22781812 -0.20399679 -0.10161614 0.079374656 0.27331525 -0.54439807 0.5735741 0.05555222 -0.020172434 0.52847004 -0.59133697 0.038108848 0.06354259 -0.17546172 0.082049586
35922 0.5564397 -0.20450635 0.1369211 0.117523834 -0.22800861 0.10034811 -0.28256813 0.5031839 0.07823165 -0.050496727 0.44676927 -0.02077171 -0.08694196 -0.0011260542 -0.55301636 -0.41554064 -0.03399847 -0.13657144 -0.18169633 -0.046323616 0.3342376 0.14670339 0.45534033 -0.123728104 0.09323022 0.23405531 -0.06812361 0.1283249 0.111224726 -0.23973122 0.075445585 -0.057038367 0.16448201 0.18914302 -0.31053877 -0.33494094 0.003400157 -0.032755557 -0.24934953 -0.15919685 0.21968795 -0.2872792 0.29028797 0.766447 0.24137983 -0.12524912 0.035978835 0.45104116 -0.7906643 -0.03311413 -0.14902028 0.2179217 0.111820914 0.05189915 0.6066942 -0.19299391 0.237935 -0.3094029 0.018471465 0.087182455 0.10694262 0.15218137 0.11951749 -0.4432192 0.53408676 0.23694696 0.25833368 -0.081928544 -0.2976611 -0.17337595 0.07083864 0.62440485 -0.06408151 -0.3502981 -0.09997605 0.3148481 0.29819995 0.26543173 0.21379909 0.2927979 -0.49361047 -0.08101478 -0.17850798 0.1214358 -0.25599524 0.007692831 0.36268508 -0.49436867 -0.016199106 0.015908448 -0.5090267 0.34197047 -0.1239306 0.5377916 0.078574635 -0.23251754 -0.031576116 -0.18349478 0.64677477 -0.049159147 0.6685564 0.09499966 0.010954459 -0.02785728 -0.09829615 0.11895874 -0.022186192 -0.25003225 -0.159581 -0.16037416 0.04817308 0.4360614 -0.25429997 -0.034775335 -0.50201505 -0.4175262 -0.20820402 0.28075966 -0.87104654 0.4096238 -0.23620366 0.34239787 0.24055889 -0.14896886 -0.018604463 -0.092619345 -0.06283363 0.18602054
642894 0.5101863 0.2501755 0.50130063 0.06484888 -0.6097661 -0.5760631 0.4054875 0.6301333 -0.57470036 0.48547372 -0.1296785 -0.07154893 -0.06318731 0.36342424 0.10203129 -0.35832205 0.18773101 0.478003 0.5912582 -0.52847546 0.12241939 -0.48743024 0.67234653 -0.10942768 0.6295891 -0.18821126 0.48692167 -0.6510156 -0.2905348 -0.625633 -0.22647576 0.22124133 -0.37989897 0.039397635 -0.22225432 0.0182916 0.4802841 -0.3376961 -0.08893364 -0.112671226 0.37520978 -0.50355965 0.15169027 -0.44753483 0.21521376 -0.17791328 0.4020113 0.6117167 -0.53477716 -0.742332 -0.15766327 -0.19899237 -0.35476977 0.5240006 0.12492681 -0.24784367 -0.0006288142 -0.9342325 0.39263874 0.3739782 -0.62937254 -0.53396755 0.111870095 -0.6958258 0.12112053 0.22283606 -0.0741227 -0.09462867 -0.2209603 -0.14235884 -0.007904891 0.5133454 -0.12872927 -0.6356789 0.0055332375 0.13889222 0.16547373 -0.010024071 0.12485257 0.054103296 0.029181907 -0.32773778 -0.22726254 0.45005384 -0.52616566 -0.616 0.22025591 -0.7530378 -0.05309567 -0.23579973 0.13047954 -0.098845296 0.108640246 0.54044265 -0.15146588 0.5005492 0.78818995 -0.014926804 0.19576754 0.5511521 0.70611995 -0.479031 0.029648885 -0.054933954 0.21616982 -0.20273702 0.16617328 -0.41602144 -0.4516141 -0.10934893 -0.000112973445 0.6468457 -0.62950224 -0.12422972 -0.60928 -0.2330034 -0.07359613 0.10774255 -0.013065739 -0.54194903 0.09426156 0.5188369 0.31963328 -0.79173595 -0.17967813 -0.18167649 0.07632238 -0.048003122
39127 0.08791353 -0.21697505 0.5121111 -0.3047206 -0.6337527 0.193964 0.24964935 0.10828936 -0.39552358 0.36457223 0.05325138 -0.048564162 -0.40317714 0.15333384 -0.15798447 0.27702346 -0.027483083 0.59731686 0.48897964 -0.30216783 0.12055502 -0.10256533 0.28956157 0.16908687 0.06789917 -0.30405828 0.14883164 -0.57171315 -0.06906249 -0.53650093 -0.37926742 -0.13167928 0.31840035 -0.5936395 -0.29077822 0.09135353 0.51824945 -0.2944346 -0.40470666 -0.5958001 0.18775122 -0.11872101 -0.15288933 0.20604067 -0.22380574 0.25478697 -0.07755924 0.34696278 -0.3866254 -0.3327684 -0.274047 0.6152183 0.04659322 0.21189196 0.5248203 0.21783969 -0.13832451 -0.397292 -0.06260228 0.5741102 -0.2327969 -0.21912651 -0.1156563 -0.39007935 -0.24801868 0.13100168 0.14297198 -0.054701403 -0.6674527 -0.17111534 -0.086776994 0.5717234 0.033984825 -0.34091538 0.1995963 0.38987747 0.4312112 0.23871483 -0.574477 0.33700955 0.06301375 -0.6531312 -0.11004633 0.322278 0.3776085 -0.101255424 -0.27225676 0.11584877 -0.1361663 0.22946848 0.564073 0.60501117 -0.33231843 -0.08484839 -0.24359836 0.26342312 0.24103582 0.6238206 0.064535104 0.4707188 0.016182706 0.4903476 -0.05470188 -0.23963068 0.3121942 -0.22686054 0.1711765 -0.004749622 -0.16181262 -0.25682798 0.3972162 -0.15714574 -0.43902072 -0.2508121 0.24945533 -0.25049803 -0.2790804 0.26935628 0.11959601 -0.1094506 0.39273584 0.8478798 0.044702943 0.43518102 0.28826776 0.100474924 -0.53268254 0.56924576
54131 0.26666677 -0.120112754 0.6663023 0.19538014 0.0803818 0.52696776 0.060738888 0.78415173 -0.14057562 -0.06667377 -0.14412628 -0.3417616 -0.247086 -0.32046586 0.4493125 -0.62605876 0.5928891 0.42038432 0.31658068 -0.009810592 0.055874143 0.0942822 0.14655036 -0.13892652 -0.41386992 0.18196411 -0.3935803 -0.4067524 -0.18957326 0.07147879 -0.049316622 0.21838297 0.4068695 0.169161 -0.1718709 -0.115526795 0.012906916 0.041080765 -0.24552172 0.05994199 -0.16437612 -0.09835533 -0.48740622 0.07035325 0.088630885 -0.30593467 0.21436398 0.27402458 -0.16077656 0.052766237 0.04818356 0.44024166 0.020175723 0.040001553 -0.085622765 -0.14143322 0.41773614 -0.58026505 -0.07229059 0.5462331 0.26343167 -0.15348712 -0.41141418 -0.69522715 0.16393758 0.17972043 -0.24015558 0.08321844 -0.42722312 0.014763789 -0.25595254 0.24979009 0.120543145 -0.516084 -0.24645787 0.41323343 0.37142116 0.1923193 0.21111572 -0.28275862 -0.236517 0.0009735734 0.28832424 0.48901 -0.058748584 -0.30966607 0.19737488 -0.39470106 -0.25865865 -0.23745519 0.023339799 0.3140577 0.30802822 -0.088240206 0.33973086 0.53885895 -0.040154357 -0.12747955 0.6808829 0.24718504 -0.17460607 0.06847866 -0.4772805 -0.20701334 0.5263241 -0.4005735 -0.33430487 0.26882306 -0.16462404 0.04829148 0.13640794 0.046187643 -0.14251281 0.13267645 -0.17108303 -0.17777605 0.22767243 -0.086655445 -0.02169247 -0.05974906 -0.10970507 0.22198935 0.1283419 -0.4120353 -0.2758029 0.5194435 0.14274073 0.45336643
210871 0.021268506 0.14357702 0.29568222 0.106703445 -0.21638493 0.107211 -0.087754436 0.26363432 -0.18250209 0.09747547 -0.7320883 -0.4098802 0.047679137 -0.053236034 0.2417076 -0.23943056 0.57206523 0.34823695 0.40193853 -0.23017985 0.15607908 0.17044635 0.2534193 0.03288763 -0.4037989 0.46046627 0.02417562 -0.061270244 0.15097043 0.21253423 0.012645701 0.37453762 0.47633538 0.34698433 -0.031361807 -0.17481439 0.26530734 -0.20245647 -0.046241947 -0.45178536 0.1083668 -0.09299169 -0.46018225 0.4918162 0.13863689 -0.1516286 0.54435927 0.029899353 -0.09267318 -0.17296888 -0.2248583 0.36444715 0.3370691 0.05127664 -0.31946427 -0.0075323004 0.1750497 -0.1050895 0.14192483 0.5751189 0.18257849 -0.33875653 -0.09082736 -0.5565326 0.19332479 0.15174277 -0.31124908 -0.022589806 -0.25404269 -0.053295493 0.13960111 0.3816641 0.38029072 -0.19574939 -0.08967329 0.6041556 0.5253443 0.18920362 -0.22465725 -0.5375552 -0.28538194 0.28556433 0.35858828 0.38596076 -0.15443279 -0.12392539 -0.061434142 -0.2600871 -0.120819226 0.0723652 0.10818251 0.23188707 0.2659016 -0.137831 0.512245 -0.06332996 -0.038577545 -0.008240763 0.461394 0.5007038 -0.48775092 0.3530752 -0.5225194 -0.17312561 0.12995255 -0.010144249 -0.3936643 -0.32398495 0.1530108 0.19038475 -0.32057202 0.01051597 -0.16800089 0.04583008 0.120799944 0.2862997 0.1080881 0.11411646 0.38558993 0.20430844 0.17392027 0.22792 0.19407056 -0.59790075 -0.2873546 0.20302221 0.037378654 0.21179353
6334 -0.2917974 0.013013932 0.34386492 -0.42494053 -0.4997368 0.350097 -0.101089545 0.4007243 -0.1527311 -0.28830013 -0.13296293 -0.06115627 -0.12706318 0.19859175 0.11255434 0.34648344 -0.16676244 0.49265593 0.15196237 0.10414456 -0.06852999 0.13969752 -0.00085572747 0.4062267 0.006778541 0.5806001 0.13940099 -0.2864243 -0.25118825 -0.41950953 -0.06025031 0.16712774 0.04077401 -0.3428104 -0.19955899 -0.21421258 -0.13031173 -0.43104866 0.38741547 -0.5752694 0.16589934 0.10254361 -0.21440747 -0.19195704 0.11921011 0.32037678 -0.21140786 0.7913927 -0.6336467 -0.22329819 -0.1913485 0.54171896 -0.065616734 0.49636754 0.32929605 0.06625806 0.10953411 -0.32087374 0.08609456 0.37930453 0.3398997 -0.4744501 0.13401042 -0.4322677 0.095117226 0.06920188 -0.11312379 -0.5596924 -0.16101179 0.00029086877 0.017197723 0.058636513 -0.023308817 -0.013014048 0.37213287 0.068339005 0.57175744 0.18188259 -0.30338347 -0.04495888 0.24084236 -0.2730097 -0.047710355 0.4196273 0.34746027 0.05735086 0.13675506 0.031533852 -0.109662905 -0.08378701 0.18203743 0.15259367 -0.46415925 0.049285345 0.06860898 -0.003940153 -0.036622457 0.5866571 -0.08871222 0.42018074 -0.2875031 0.2598565 -0.25572845 -0.21754603 0.107503004 -0.514972 0.032263182 -0.25836718 -0.30820733 -0.20043452 -0.15359889 0.10972425 0.3968989 0.007824399 -0.25090832 -0.28851116 -0.28013903 -0.12791093 0.037905656 -0.13998756 0.45450225 0.5153502 -0.10258114 -0.356271 0.3154422 0.17505278 -0.13148856 0.28427377
5348 0.7524428 -0.41568604 -0.40044773 0.065925494 0.42805314 -0.05547676 -0.028231027 0.81751984 -0.3747572 -0.25212762 0.112687044 0.0662056 0.03886177 -0.15004347 -0.24593894 -0.33263892 0.071924835 0.09714684 0.1771791 -0.105469815 0.2910133 -0.058940113 0.4688182 0.15777512 0.008086815 0.2986839 0.36835873 -0.37904182 -0.35810804 -0.72800213 -0.41406578 0.41739848 0.5279435 0.31205818 -0.5078762 0.2119407 -0.044258893 0.09136745 0.07143264 -0.011341 -0.17544523 0.3176799 -0.21921106 0.94949365 0.049062703 -0.3385189 -0.191272 0.22764787 -0.8235505 -0.12893043 -0.16795868 0.5830388 0.011575994 0.2752818 0.15490612 0.19726077 0.0025108801 0.03560355 -0.36638302 0.25170088 -0.1721268 0.118485026 0.03402885 -0.054139793 0.29214782 0.22688906 0.15027699 -0.33565298 -0.11606095 0.31859243 -0.14900284 -0.07463866 0.6645601 -0.38911203 0.28010708 -0.055236932 0.45901635 0.41847363 -0.117162384 -0.31665322 -0.5733346 -0.82817966 -0.7021913 -0.26587284 -0.21817589 -0.30375147 -0.0024782917 -0.45277178 -0.0632944 0.07130438 -0.15044884 0.821142 0.31176716 0.41968265 0.06786104 0.48516178 -0.5878675 0.18237412 -0.14772797 0.022470383 -0.002255958 0.40969244 0.13521996 -0.5270506 0.40006512 -0.39579698 -0.5885827 0.36899352 -0.030095363 -0.27926493 -0.109424256 0.16174915 -0.6358495 0.2778903 -0.4578332 -0.026481874 0.15196964 -0.0798271 -0.24023172 -0.3184922 -0.06484461 0.22647661 0.23313457 0.11000259 0.43694377 -0.1289939 -0.044549502 0.27354628
35797 0.0133363 -0.33037564 -0.21482517 -0.23377077 0.10458756 0.18015793 0.37104574 0.40016866 -0.021729993 0.3140311 -0.23648776 0.05190592 -0.7357184 -0.6268954 -0.060318034 -0.16177754 0.16573523 0.13096705 0.27995467 -0.56528527 0.37757877 0.26966622 0.090768285 -0.033103976 -0.27136427 0.26022923 0.17446136 0.08509519 -0.842228 -0.60664636 -0.20545554 0.14339396 -0.20386113 0.5487212 -0.5037052 0.28615338 -0.26283827 0.28233543 -0.03345686 -0.35732517 -0.008604934 0.02300819 -0.24938504 0.41477853 0.5216908 -0.60489535 0.24507356 -0.17477413 -0.4148936 -0.47218835 -0.15313804 0.3148817 -0.058589708 0.096252136 0.4617884 0.17080465 0.08400852 0.104389556 0.14917506 0.10609399 0.12723158 -0.23346701 0.10974549 -0.26591352 0.39423424 -0.22504619 -0.1959191 -0.29495665 -0.18536223 -0.022818461 -0.26622757 0.14394867 0.5604441 0.014335938 -0.0032870593 0.13581508 -0.013371954 0.6538054 -0.100841634 -0.46552473 -0.11407993 -0.37917623 -0.47209942 0.03767286 -0.1278926 -0.1459873 0.23073807 -0.3725677 -0.49395573 0.2639483 -0.23385236 0.2739052 -0.20768802 0.3247221 -0.10541764 0.14087717 0.101364754 -0.08971036 -0.04924704 -0.1430318 -0.0029860984 0.29549518 -0.16684982 -0.39758435 0.13617234 -0.3886468 -0.24209596 -0.0016424934 -0.1534949 0.21613081 -0.23131506 0.30892915 -0.48897555 -0.04533812 -0.3215596 -0.033378173 -0.2923384 -0.19428012 -0.03559923 0.21384485 0.04388602 0.39988893 0.18954656 -0.38996872 0.18963504 0.3878537 0.18201937 0.16989008
3218 -0.04194157 0.1259556 0.21563233 0.34743166 -0.4373465 -0.28655663 -0.07279352 -0.12118753 -0.2697663 0.31934097 -0.4280463 0.11936314 0.050736394 0.2028468 -0.58611953 -0.041705646 0.18545544 0.12844458 0.40730283 -0.24172693 -0.048445284 0.07304471 0.17370473 0.21597765 -0.22907734 0.0095297685 -0.13442999 -0.70221037 -0.1173893 -0.36722678 -0.43390897 -0.016222708 -0.06809424 -0.1974532 -0.3635556 -0.014671279 0.068857245 -0.38492113 -0.15373184 -0.3000307 0.22581577 0.42197648 -0.0961761 0.18936452 -0.18910547 0.3004122 -0.19450098 0.62460476 -0.4082786 -0.29189986 0.08154253 0.41148266 -0.24590625 0.47647062 0.6388507 -0.046241023 -0.23541689 -0.410005 0.20038505 0.58468425 -0.193921 -0.6615012 -0.42012346 -0.32398024 -0.48935694 -0.46514753 -0.038292464 0.4091968 -0.34967527 -0.5719106 0.18277933 0.1095057 0.12803784 -0.21436189 -0.09524325 0.23448393 0.3148101 0.31745946 -0.38188148 -0.08037988 -0.19994569 -0.79038703 0.15781227 0.3524105 0.11231044 -0.20293939 -0.25088727 0.018598761 0.104674436 0.05708212 0.49634922 0.56823546 -0.86789095 0.30969512 0.008874591 0.03153911 0.11603991 0.60355246 -0.10319489 0.6699472 -0.0921742 0.43512475 -0.39852524 -0.46671346 -0.2130784 -0.16134372 0.2268359 -0.21908052 -0.041023474 0.06564919 -0.02534228 -0.13180564 0.0075975265 -0.20472613 0.13038132 -0.2767719 -0.25942335 -0.12398577 -0.15895386 0.43852234 0.4564737 0.14044249 0.25892153 0.32610428 -0.003425893 0.24365115 -0.12266611 0.44972807
10177 -0.22482504 0.42342585 0.8170644 -0.16630483 -0.23249564 -0.11559757 0.14421327 0.047365498 -0.107417025 -0.104890406 0.35624763 -0.068770304 0.017898649 0.3166491 -0.17927763 0.35025612 0.018220512 0.48110917 0.054426648 0.008434859 0.112217546 -0.22374672 0.53164595 0.16321841 0.04969633 0.5612709 -0.5602021 -0.3356722 0.08065347 -0.18588735 -0.17964163 0.14010666 0.42733252 -0.30496585 -0.12563494 0.123589545 0.10235611 -0.5114307 -0.14863683 -0.53279376 0.114529625 0.17119384 0.27944106 0.37085864 -0.06414749 -0.04436692 0.33399785 0.52802396 -0.28539902 -0.27011815 -0.76787066 0.54180217 -0.18982175 0.68632245 0.021161279 -0.35276553 -0.017355194 -0.009144265 0.47875553 0.2647632 0.08779688 -0.41732866 -0.02129552 -0.23615365 0.20298874 0.32439834 0.5009896 -0.5558837 -0.20712756 -0.21685316 -0.34033474 0.46558818 0.43597713 -0.63530207 0.21323925 0.20600188 0.5264056 0.20540826 0.40379757 -0.11129586 -0.13401367 -0.651252 0.24115556 0.010562646 -0.035930898 0.008999641 -0.14672714 -0.20171003 -0.12183946 0.09015927 -0.05220408 0.28879565 -0.45850208 0.50235605 0.016908526 0.43000466 -0.04352121 0.5493076 -0.07826059 0.40144703 -0.031904984 -0.009665442 -0.08764611 -0.37717354 -0.32863072 -0.6221245 0.44961718 0.037071984 0.31712508 -0.037030872 0.15573919 0.18952616 -0.0078212125 0.50936985 -0.45030808 -0.17552158 -0.2798301 0.21551329 -0.05527631 0.42755362 0.28396806 0.07644341 -0.3197403 -0.61016434 0.41288316 -0.36668575 -0.29403052 0.030586677
35061 0.13590893 0.15238485 0.27568823 0.011978664 -0.55263025 -0.16950634 -0.16738577 0.6686084 -0.13496098 0.27757683 -0.35585913 -0.84213763 0.11174832 -0.32299238 0.17455246 -0.011328039 0.67764 0.5403098 -0.13951819 -0.04847906 -0.16217017 0.21778832 0.14514935 -0.1688991 -0.25091967 0.87787503 -0.010707503 -0.005491288 -0.25558478 -0.088348195 0.18201986 0.46599683 0.34783322 0.3179326 0.046521813 -0.15650038 0.1431928 0.10323054 -0.5589953 -0.26212922 0.2451398 -0.1352017 0.079341486 0.11843512 -0.13731973 -0.29219833 0.27132937 0.11812926 -0.22327425 -0.074347876 0.06406828 0.38075227 0.089378215 -0.034942813 -0.17728357 0.2594069 0.1593981 -0.028389871 -0.000722214 0.3420845 -0.17533483 -0.23259121 0.06822164 -0.38917926 0.03824117 0.3497741 -0.32723096 0.16557193 -0.2510008 -0.2713113 -0.23563837 0.46802923 0.4267836 -0.057484336 -0.034671735 0.45144713 0.16875777 0.15166493 0.11433543 0.08276459 -0.5088363 -0.014047333 0.52880794 0.24998462 -0.39559087 -0.06836555 0.14754348 -0.31655765 -0.42633486 0.092733815 -0.09065448 0.3359831 0.17686726 0.0013144347 0.24806562 -0.0818156 0.15058132 0.22535342 0.28331634 0.28011805 -0.5933261 0.1538369 -0.55264664 -0.24221136 0.1270382 -0.4470614 -0.20553626 0.21370232 0.071949236 0.34655595 -0.024462974 0.1172738 -0.23188384 0.3056171 0.05429118 -0.10933033 -0.09918757 -0.2594531 0.24845892 -0.0972152 0.00945479 0.48598874 0.33169818 -0.33261886 -0.09018773 0.08039279 0.6198597 -0.06823688
34257 0.104055166 -0.30776513 -0.03697348 -0.18263598 -0.06306691 -0.4169067 -0.31663743 0.48844582 -0.15676379 -0.085141845 -0.1683977 0.068827204 -0.4408104 0.19585901 0.3034531 0.0913555 0.26394495 0.15591455 0.32772002 0.013770651 0.24858975 0.13258538 -0.26243237 0.6411656 -0.023559073 0.0955224 -0.08894553 -0.79888445 0.3969151 -0.1357116 -0.9373561 0.088967174 0.3106553 0.14857452 -0.2859332 0.1881255 0.19871576 -0.137634 -0.05678117 -0.62996805 0.118889585 0.124444745 0.43546188 0.6447196 0.13203238 0.24860671 0.3643356 0.25025523 -0.3265792 -0.8496214 0.3098661 -0.13289325 -0.39502057 0.46780217 0.07729275 0.39821383 0.1057103 -0.57309103 -0.137761 0.72525907 -0.21141872 -0.5049295 -0.31139114 -0.035178456 0.5233961 -0.42505476 0.36071438 -0.5461631 -0.23331577 0.052697413 -0.31447417 0.42219287 0.57788885 -0.60941076 0.59918725 0.6934613 0.50157565 0.24980709 -0.4574679 -0.08690126 -0.20384078 -0.45972747 0.14299825 0.06265848 -0.35345575 -0.5677413 0.3077951 -0.4184448 -0.23089613 0.0035423634 0.402828 0.51084936 -0.3861338 0.26430172 -0.25368363 0.10635694 0.15727758 -0.12972534 0.38879728 0.524706 -0.27315244 0.121175215 -0.24776039 -0.112385936 0.3601277 -0.49239933 -0.15839696 -0.0104091335 0.016175058 -0.89580333 -0.15365896 -0.40426806 -1.2909299 0.45423767 -0.5922716 0.26702368 -0.008242763 -0.59976757 -0.1685453 0.5403671 0.32235566 0.39710274 0.3603881 -0.0069936123 -0.23344852 -0.19319083 0.19671364 0.20585369
54129 0.14279494 -0.0758862 0.3243119 0.29787114 -0.33882076 0.3611802 -0.30323118 0.34219068 -0.5071422 -0.05955231 -0.2259681 -0.5860887 0.13526224 -0.17484328 0.44894546 -0.041160133 0.79571414 0.3079076 0.03513424 0.0076505844 0.27281564 0.3904057 0.26848322 -0.0754802 -0.40223876 0.038240597 -0.12775257 -0.34753242 0.26195574 0.15140554 -0.07018877 0.17330849 0.45970243 0.038203612 -0.48993444 0.068034224 -0.3606781 0.38268763 0.16500804 -0.21240798 0.17457892 -0.15053529 -0.26357466 0.5966152 0.07113619 -0.2840499 -0.012604031 0.0802269 -0.28274292 -0.4178687 -0.32449558 0.21001923 -0.32248515 -0.18346918 -0.07151641 0.26051643 -0.10198745 -0.7838858 -0.16777276 0.2917748 0.35466897 -0.38443717 -0.053352494 -0.6001074 0.1337345 0.40248218 0.22355194 0.5959248 0.037722908 -0.08773835 -0.11924172 0.1416913 0.09963453 -0.41160837 -0.062016744 0.5379783 0.49168703 0.51543003 -0.0717848 -0.2791746 -0.22462459 -0.3542782 0.53629124 0.31519482 -0.15571977 -0.37214026 -0.121085 -0.2023003 -0.30124527 -0.44370437 0.17753835 0.12312729 0.07473519 -0.12026654 0.1716987 0.2827242 -0.082269475 0.060819313 0.42222524 0.18628693 -0.5466876 0.2739803 -0.2904341 -0.21800716 0.5352781 -0.4114508 0.39984393 0.4535231 0.08234117 0.18323596 -0.124048226 0.41445094 0.24326007 -0.08059425 -0.30374822 0.10009792 0.06125926 0.22806682 -0.19982278 0.30841398 -0.12828054 0.79431766 -0.15480527 -0.750677 -0.42633358 0.49560103 -0.23828001 0.32209253
89547 0.13375749 0.039298434 0.8715582 -0.18495369 -0.38276306 -0.06749158 0.16702503 0.35700262 0.23282729 -0.07599632 0.12560032 -0.2610584 -0.43930835 0.18122971 -0.4236324 0.26803192 0.25216255 0.10656891 -0.1619799 0.3948813 -0.2066764 0.109201655 0.19743109 0.42398214 0.14633152 0.6229605 0.33392233 0.29403192 -0.059537657 -0.008337154 -0.3476626 0.2380847 0.17993113 0.12035993 -0.15244235 0.11168479 -0.31541288 0.0682743 -0.3548479 -0.47592396 -0.19513528 -0.11714071 0.14313903 0.3676675 -0.1988754 0.13430959 0.50952923 0.1668507 -0.044166222 0.1052948 -0.45317817 0.55991244 0.117969766 0.4490352 0.34950227 -0.22837701 0.19943225 0.15619643 -0.012974352 -0.027330294 -0.016257044 -0.64318347 -0.12520973 -0.27317855 -0.53064644 0.17583168 0.12146888 -0.6472123 -0.22407502 -0.22965655 0.27689543 0.111919366 0.2088182 -0.35703185 0.1032357 -0.028106587 0.36583087 0.37223765 -0.14121999 0.056456503 0.20589986 -0.33890155 0.24253143 -0.21722779 -0.2982152 -0.32754764 -0.22542875 -0.092973046 -0.4567896 -0.08403143 0.42915 0.685319 0.23259811 0.27629596 -0.18181257 0.5354761 0.35286707 -0.045021202 0.2832175 0.42854083 -0.8237392 0.11292879 -0.061382182 -0.31486848 -0.113242306 -0.13991699 -0.0014486962 0.20486073 0.35176453 0.0774089 -0.11188496 0.28345975 -0.48407733 0.15008141 -0.17208736 -0.44144562 -0.0525172 0.33011314 0.15570335 0.2706926 0.22999805 0.23227781 -0.16247736 -0.6732436 0.13510117 0.02174844 -0.17637958 -0.45060915
38205 0.39416894 0.19794813 0.3039377 0.27368787 -0.33265138 -0.17560157 -0.20991337 0.54512846 -0.60762453 0.08600039 -0.5197736 -0.67071605 -0.0106720375 -0.031003295 0.23164105 -0.06262488 0.8366358 0.17245498 0.18928576 -0.21748422 -0.10407606 -0.032802302 0.59560585 0.09217959 -0.0052093593 0.4146149 0.30798542 0.03575609 0.40018556 0.1520118 -0.072262734 0.461228 0.38088164 0.22948907 -0.24280702 -0.030484831 -0.11897883 -0.122484885 -0.08643563 -0.3881458 0.060497623 0.02106921 -0.332117 0.25193655 0.40138072 -0.16908748 0.35697147 -0.017261792 -0.065296665 0.07528878 -0.44898927 0.3276408 -0.19512959 -0.15331526 -0.47178927 0.19067392 0.22508304 -0.4588366 0.10134289 0.23129174 0.13204473 -0.24166465 0.0062391865 -0.5414709 -0.015646797 0.47874832 0.1667552 0.1933814 -0.03446901 0.045475967 0.110722095 0.32187128 -0.026161639 -0.1093062 0.0067467554 0.50160754 0.58405274 0.22349936 -0.06486296 -0.11184282 -0.58923954 -0.07337856 0.20472583 0.19014862 -0.15509023 -0.2891123 0.0052860817 -0.20786138 -0.085422024 -0.3456035 0.29798982 -0.06874303 0.35262623 -0.13288128 0.28379124 -0.12920159 -0.115816645 0.24460453 0.48351815 0.47193205 -0.44781107 0.27120656 -0.69002527 -0.28679797 0.40459508 -0.010100331 -0.06861922 -0.12986234 0.19607423 0.35781735 -0.28627312 -0.24618827 0.004580381 -0.17584282 -0.27678132 0.2958561 -0.046059936 0.072836004 -0.009906078 0.17215274 -0.03711848 0.55143595 -0.02430586 -0.86292404 -0.2931344 0.056355592 -0.18887386 -0.12014187
18777 0.38047028 -0.12811573 0.6049959 -0.12786347 0.021582557 -0.25607878 0.40503263 0.33526707 -0.02291649 -0.3814517 -0.027889853 0.16947226 -0.011548344 0.39678338 -0.44498068 -0.29766852 0.5129149 0.16485137 0.33686337 0.2445464 0.5244462 -0.32266176 0.76922065 0.35377926 0.11513637 0.050126806 0.14823452 0.2218962 0.18803784 0.11125416 -0.6277573 -0.09117467 -0.56076723 0.27638426 -0.5553943 -0.08127024 -0.3547393 0.026232097 -0.18602593 -0.3889557 0.058149915 -0.2256423 0.28301826 0.4247144 -0.33528784 -0.055902313 0.20192935 0.31912416 -0.3637594 -0.33948782 -0.6132391 -0.0066963253 -0.24076264 0.084118895 0.25072265 0.07610644 0.017595448 -0.37012067 0.16519116 0.059166644 0.0034433203 -0.30661476 -0.18238598 -0.45658413 -0.09905763 0.02003027 -0.0049639386 -0.021921264 -0.5567613 -0.15887459 -0.24621776 0.24599086 -0.31125998 -0.34431887 -0.49288723 0.15352535 0.6810087 0.13376011 -0.3628652 0.40653056 -0.46005666 -0.3376467 -0.22648396 0.18997326 -0.16599627 0.006515186 -0.17479517 -0.50625676 -0.00291312 0.33864713 -0.54129755 0.4355136 -0.64296937 0.21833138 0.063920274 0.029585656 -0.23601924 -0.086271144 -0.007764226 0.42017058 -0.02367085 0.012211689 0.07703984 0.18861958 -0.31040955 0.31441543 0.48302084 -0.45455474 0.045371458 0.027971335 -0.021891976 0.5164625 0.039048344 -0.097405545 -0.40471733 -0.19132008 -0.25953484 0.2858172 -0.696076 0.745007 0.21941751 0.20993029 0.20949294 -0.33950767 0.08340427 0.08014414 -0.104039066 0.009597123
28350 0.7155988 -0.067980155 0.48122945 -0.14810736 -0.36881626 -0.5218387 -0.009798594 0.37145466 -0.37561753 -0.053656477 -0.36146495 -0.12025191 0.25330797 0.5008386 0.054116696 -0.1703774 0.17111853 0.063685894 -0.0810187 0.6704949 -0.07774904 -0.22789761 0.64748347 0.18010569 0.07099701 -0.05954385 0.60348743 0.1505125 0.45478538 -0.24464934 -0.32969466 -0.30373 0.16776298 0.27001703 -0.25625283 0.48542032 -0.23765276 -0.18799318 -0.09049837 -0.05935548 -0.41031492 -0.33822507 -0.29706368 0.059247382 0.076375544 -0.07591113 0.68681824 -0.012779191 -0.6375118 -0.25261712 -0.25762305 0.28048038 -0.51093465 0.387877 -0.13795076 0.44418946 0.24573067 -0.15157813 -0.3486789 0.0078106644 -0.017683325 -0.068983614 0.14660648 -0.3739825 0.061162636 0.25580534 0.032833718 -0.16147263 0.000783642 0.23556894 0.6956742 0.20887712 0.29076058 -0.046419065 0.0053453376 0.147705 0.46514004 0.2866954 -0.03155089 -0.14042561 -0.09805279 0.024185993 -0.23853135 -0.011553312 0.08872768 -0.20058478 0.20206991 0.014400489 0.031759042 0.33096725 0.07607134 0.3583576 -0.2560486 0.19256797 0.18084772 0.23787977 -0.0391686 -0.27540052 0.6484535 0.22596207 -0.5547267 0.3610229 0.033708423 0.042301934 0.16107227 -0.35630226 0.18706818 -0.14080733 0.25257778 -0.12853657 -0.18127063 0.35425153 -0.4836578 0.31833005 -0.34232172 0.040659033 -0.2964903 0.16257326 -0.10016633 0.5380014 0.457742 0.5479138 0.15167859 -0.71061885 0.03512208 0.08467152 -0.089089505 -0.3634411
2654 -0.58851296 0.14909446 0.4237204 -0.37975058 0.16179876 0.023282753 0.4036573 0.5326095 -0.5286479 0.36901146 0.17627572 -0.195056 -0.40346834 0.010545631 -0.8677615 0.23077554 0.16329135 0.36679152 0.0017545349 -0.18514837 0.29683474 0.06758255 0.49859494 0.082400136 -0.16496256 0.42427218 0.5227401 -0.15618445 0.011451803 0.010079071 -0.2161991 0.41220397 -0.17330955 0.16312268 -0.4919822 0.09318821 -0.14477919 0.31139788 -0.15133272 -0.4780917 -0.036983572 0.32011852 -0.11257516 0.11339169 0.43629357 0.21146083 -0.45457214 0.8310838 -0.3825273 -0.05051207 -0.35860205 0.13026856 -0.04350752 0.15550508 0.19467264 -0.23949513 -0.095260546 -0.34350598 0.15591367 0.3335955 0.2796035 -0.50698996 -0.10422431 -0.25471494 0.19712949 -0.58451843 -0.46904317 -0.33742812 -0.25392503 0.06879297 -0.32966718 0.027381387 0.08784738 -0.20619403 0.3569718 0.42071915 0.44625804 0.4127954 0.10388711 0.26733842 0.2862636 -0.38788116 -0.072729014 -0.031345874 -0.23588286 0.15134433 -0.44662854 -0.0675884 0.15616615 0.095440224 0.14298466 0.44510832 -0.8309496 0.243704 0.18736835 0.28080788 0.26690763 0.25935704 0.058177266 0.029922554 0.3548534 -0.14622717 -0.3619363 -0.59209806 -0.33940023 -0.24201314 0.18733393 0.26888 -0.3157525 -0.14269938 0.035315745 0.35397938 -0.58087236 0.055825543 0.013404212 -0.2390957 -0.54256094 0.3407303 -0.07701674 -0.26682445 0.60031897 0.372218 -0.16050096 -0.31550857 0.041513793 0.1348694 -0.3456971 0.36683857
6910 0.15691014 -0.4908418 -0.13961828 0.1294827 0.1727567 -0.22581181 0.12847988 0.76760185 -0.29400948 0.30738473 -0.041387234 -0.45169348 -0.60338813 0.10627959 -0.11102002 -0.11024602 0.07063685 -0.14279775 0.59912634 0.028927408 0.50906307 -0.04420921 1.0016392 -0.03824735 0.3545097 0.21624884 0.74017066 -0.2787701 -0.03286401 -1.0549753 -0.25316447 0.4761739 -0.1627731 0.17507665 -0.1612287 -0.34027013 0.3174633 -0.48220512 -0.25206703 -0.2568619 0.36445102 -0.4328459 -0.041912213 0.20925675 0.4241095 -0.3436149 0.6669544 0.5955845 -0.21522667 -0.62367314 -0.14145684 0.3029327 -0.54985213 0.5299572 0.39518824 0.26355696 -0.10905176 0.051123913 0.03395662 0.25099197 -0.38684854 0.115026355 0.006549284 -0.29175302 0.26444826 -0.13169855 -0.12612982 -0.593924 -0.22377999 0.23032221 0.186865 0.3527198 0.060854953 -0.56050587 0.040109374 0.5147425 0.066978894 0.05585734 0.33254772 0.24738078 -0.38372076 0.10346978 -0.37110126 0.39422098 0.2920379 -0.09970404 0.68511826 -0.36215574 0.34272182 -0.106435046 -0.34584692 0.8365013 0.28869626 -0.09990776 0.6223247 0.38279122 0.5561803 -0.11273966 0.45962772 0.015265247 0.48206624 -0.08500606 0.05579286 -0.073684864 -0.11021369 -0.6942711 -0.091826536 0.0074615125 -0.35891375 0.13326287 -0.048398413 0.33700275 -0.33630443 -0.34710065 -0.42252588 -0.02290733 -0.4050924 -0.035465926 -0.10553316 -0.46480393 -0.34438193 0.4125458 0.3504599 -0.16173801 -0.0364153 -0.026285836 0.58109367 0.13735148
17476 0.8625694 -0.07716875 0.2337969 0.11088817 -0.4023879 -0.13571829 -0.15868697 0.36049417 -0.24986348 -0.07333952 -0.3678347 -0.65382314 -0.05403853 0.23458537 -0.39247444 -0.022258634 0.34582347 0.24396537 -0.37167227 0.24944495 0.010100025 -0.03311891 0.47274676 -0.21899073 0.015423567 -0.14889781 0.06794227 0.21926302 0.26615405 0.44076443 -0.15879235 -0.25976843 -0.12847619 0.20136848 -0.4824495 -0.16611962 -0.34829372 0.017014025 0.1492635 -0.32538578 0.2557622 -0.29464877 0.2732501 0.70301604 0.037903495 -0.17292845 0.25839612 0.21066256 -0.24399887 -0.09065945 -0.19208981 0.304868 -0.43115506 0.108439334 -0.1422582 0.1946738 0.15745966 -0.18940622 0.009176437 0.2911462 0.14790764 -0.10807766 -0.3229089 -0.1763065 -0.069066204 0.2499725 0.36240813 0.43557206 -0.14758372 0.1031423 0.11377977 0.25289023 0.14556986 -0.00063254056 0.17823654 0.554652 0.44206712 0.23861429 -0.053556003 0.28572887 -0.5023923 -0.30270866 -0.33980054 0.15392463 -0.40310737 -0.054609217 -0.03315618 -0.32378122 -0.03272015 -0.3344865 -0.22233221 0.13778393 -0.25292823 -0.036103033 0.3558477 -0.13105527 -0.08296409 -0.16984637 0.3065994 0.37416005 -0.38136858 0.3168796 -0.30291408 0.093570456 0.027791228 0.0012005428 0.15871836 -0.31159633 0.18459085 -0.053810447 -0.17872666 0.028964346 0.09754884 -0.012018588 -0.065311246 0.07112109 -0.011755381 0.18727869 -0.2525386 0.78729695 0.24173948 0.34858134 0.3993474 -0.6962826 -0.21498577 0.048554447 -0.33905137 -0.03905764
65074 0.090725236 0.044923205 0.67098475 0.067547046 0.62903506 0.079569064 0.5259949 0.62461495 -0.6563771 0.16096088 -0.07412891 0.14569056 -0.1073466 0.18295176 -0.43283883 0.36071134 0.464133 0.39449716 0.52956 0.014350588 0.03161044 0.24349819 0.21841715 0.4705298 0.49624455 -0.046880353 -0.09507861 -0.26379874 0.4540614 -0.60572034 -0.16050659 0.35841528 0.58324736 -0.9505643 -0.9369875 -0.58432883 -0.11587539 -0.10628468 -0.031830408 -0.4251365 -0.09417729 -0.88562775 -0.17752454 0.13519242 0.112031065 0.23555224 0.8429213 0.70730275 -0.25571465 -0.6570316 -0.5876445 -0.2492003 -0.20943098 0.5563953 0.5218031 -0.05680238 -0.14618999 -0.36434126 -0.15185624 0.7752568 -0.31428334 -0.3772856 0.056643564 -0.8416802 0.40073425 -0.30336028 0.031128412 -0.09201525 0.19141577 -0.393496 -0.7765113 0.55541736 0.19929421 -0.8793553 -0.47506365 0.43000662 0.6138982 0.047167517 -0.5669152 -0.048076015 0.047780074 -0.13224483 -0.2990958 -0.24308643 -0.18334945 -0.38480267 0.4864964 0.083551854 0.22551724 -0.04719336 0.30596253 0.019665103 0.4590367 0.40572837 0.8456222 -0.106892414 0.20873971 -0.06675467 0.38787252 0.19739108 0.25427362 0.407957 -0.15323322 0.08751908 0.31705278 -0.53770345 0.32236513 0.17122532 -0.0070932554 0.28078532 -0.46410528 0.49243197 -0.63509625 0.5544892 -0.363104 -0.09086442 -0.36089015 -0.0018812302 -0.3584634 0.26941666 -0.0668287 0.27113342 0.858267 -0.029008167 0.21393715 -0.021296993 0.26068452 0.30271327
3243 -0.12832744 0.015370174 -0.044278346 -0.45915067 -0.3135631 -0.12616098 -0.4779888 0.47966 -0.21093696 -0.3905211 -0.41390216 -0.19454835 -0.17969286 0.32444817 -0.14464122 0.07182977 0.5434656 0.07238518 0.09883642 -0.21220812 0.31884018 0.36820734 0.5970977 0.37925056 -0.027641125 0.4007286 -0.10956152 0.22960077 0.3560384 -0.46906024 0.10325144 -0.33056572 -0.07349395 0.2859923 -0.6597801 0.14918368 0.0009152178 0.29884636 0.063970454 -0.35676435 -0.17757678 -0.24759828 0.19363202 0.55849195 0.2435464 -0.19907893 -0.33854145 0.15501872 -0.88487184 0.12342907 0.032003857 0.39474562 0.07617147 0.7657921 0.45688203 -0.45797893 -0.051011197 -0.35105792 -0.17029054 -0.16629271 0.1720065 -0.67166865 -0.31862164 -0.107084684 -0.26744488 -0.0034134549 0.014544913 -0.52088743 -0.30535653 -0.0704396 0.25244203 0.42505932 0.06442571 0.14782526 0.095339134 0.33933794 0.01790074 0.032428022 0.34820384 -0.028561104 0.33298826 -0.15856244 -0.17592552 -0.089773625 -0.26838407 -0.22324552 0.11441893 0.030185873 -0.4352434 0.16479123 0.5288044 0.7084051 -0.40468562 0.72813135 -0.25175357 0.20655324 0.26916087 -0.30839676 0.41859147 -0.18391606 0.1970897 0.2292499 -0.035586316 -0.25321388 -0.38903803 -0.29178596 -0.17271882 0.27628547 -0.3807579 -0.2839849 0.056016617 0.25162393 -0.06353322 0.08087948 -0.22294863 -0.27530628 -0.10042122 0.07366828 0.36351657 0.38207415 0.20664637 0.46123767 0.019918434 -0.018412424 0.10912921 0.20582862 -0.109828115 0.19095789
46491 -0.27011472 0.2655244 0.2335965 0.11483103 -0.12391874 -0.03848502 -0.042652324 0.30858243 -0.028990319 -0.07349136 -0.42335382 -0.05942655 -0.20153737 0.15563348 -0.6059147 -0.04829338 -0.020330895 -0.122394636 -0.19522898 -0.36358696 0.34920716 0.0923653 0.70047206 0.15362313 -0.5233093 0.22091116 -0.008030593 -0.38274148 -0.2530845 -0.06972697 -0.56452787 0.16732536 0.066477224 0.05224449 -0.07414138 0.35074842 0.109324455 -0.01186948 -0.2376066 -0.24210112 -0.034297235 0.35132432 -0.31890872 -0.08074461 0.16024038 -0.024775002 -0.12320233 0.7214119 -0.7403659 -0.8139664 0.16965313 0.36286125 -0.19830096 0.39943495 0.6099063 -0.041445147 0.040308554 -0.05673427 0.27149674 0.8146734 -0.27225712 -0.48847657 -0.42344853 -0.6263573 -0.039196223 -0.48767152 -0.72066486 -0.16925089 0.1766389 -0.44887927 0.074899554 0.15955767 0.019264858 -0.19203003 0.1679568 -0.015015059 0.38071868 0.75027925 -0.31718734 -0.19373517 -0.14890407 -0.49154273 0.24776308 -0.15436234 0.103685886 -0.35865396 -0.42945313 -0.05567923 -0.114027634 0.27414212 0.18917543 0.3560553 -0.3134404 0.5939558 -0.12250957 0.026906278 0.27898633 0.59180576 -0.38378164 0.109982245 0.109120436 0.6689627 0.0038752626 -0.37717277 0.4624541 -0.3659053 -0.09227634 -0.105217904 -0.041104175 -0.22348104 0.096578605 0.3474955 0.12174545 -0.29951513 -0.11867852 -0.31255442 -0.41568002 -0.048756983 -0.13288143 0.46612677 0.33954865 0.44961643 0.14587247 0.061917912 -0.043628316 0.26232287 0.1540839 0.30943853
3233 -0.26540834 -0.10860861 0.72602403 -0.17467508 -0.045611873 -0.19351245 0.611166 0.37003377 0.020475399 0.4191012 -0.18272838 0.02427754 -0.5035696 -0.25112653 -0.01933142 -0.1466332 -0.034525864 0.114366144 -0.07056011 0.19336255 0.16219547 -0.21311046 0.66681826 0.16449215 -0.2976267 0.5018497 0.17572732 0.062769696 -0.20428795 -0.33797038 -0.24685086 -0.20538303 0.022661228 -0.541877 0.29872888 -0.21453403 0.12716933 -0.07126778 -0.22788556 -0.4306297 -0.35253578 -0.11770769 0.35516787 0.24350739 0.35431743 -0.07437902 0.023103105 0.607923 -0.47661585 0.10427086 -0.59913146 0.3302528 0.32416722 0.29353523 0.14261106 -0.2966197 -0.12997991 -0.43374023 0.038173094 0.04319301 0.2721748 -0.64795125 -0.097507 -0.15250057 -0.23352222 0.032363445 0.078549266 -0.30724502 -0.50570464 -0.15907463 -0.18639785 0.19441673 -0.08233281 -0.18788822 0.49544808 0.39121866 0.2579747 0.36278722 -0.163096 0.07924305 0.25155416 -0.1614434 -0.2346716 -0.056309875 0.19635661 0.15247779 -0.2412106 0.2116515 0.15821366 -0.11422314 0.12800431 0.74065435 -0.33620495 0.5476253 0.16325001 0.3532536 0.21889438 0.1551112 -0.02350525 0.6339529 0.03885497 -0.33732712 -0.14746855 -0.74675345 0.25877246 -0.22485214 -0.35969102 0.40064013 0.042827725 -0.2160091 0.2979549 0.27503616 -0.3046008 -0.03189456 -0.3348168 -0.40642142 -0.47092745 0.24367212 0.1390902 0.13262828 0.36969528 0.317248 -0.16530123 0.05250618 0.16675298 -0.08784513 -0.73459333 -0.018127343
