2405 128
489 -0.13290319 0.3279589 0.34806654 0.26889867 0.11867701 -0.2853205 0.17637162 0.03866445 -0.14101893 -0.04382201 -0.010759032 0.206398 -0.3083149 -0.016704872 -0.0836961 0.2628885 -0.178316 0.009775148 0.08849215 0.10614958 0.2024525 0.28469032 -0.22416854 -0.24316865 0.33708254 0.096907064 -0.0036084119 0.30345583 0.12114845 -0.05852498 -0.17416778 0.16241239 -0.20356382 -0.23348059 -0.096553124 -0.16831301 -0.03812148 0.2728239 0.114850424 0.11040253 0.018263085 -0.057719678 -0.17265052 0.044319525 0.11644551 -0.35338166 -0.053480763 -0.08552354 -0.09621598 -0.1862595 -0.092043065 0.22415178 -0.06414508 0.2498857 0.037492912 0.11637001 0.0045701875 0.19023897 -0.14094199 -0.2759871 -0.12035861 0.013873061 -0.36404082 -0.11638509 -0.10530472 0.1772794 -0.32481518 -0.14443523 0.10261277 0.1904821 -0.07516119 -0.03821162 0.19428398 0.13094671 -0.42179304 0.27478662 0.011193995 0.30932632 0.2189746 -0.1800882 -0.058809582 -0.109962985 -0.010915524 0.12098525 -0.11026927 -0.38240534 0.07436842 0.08446444 0.029799404 -0.37804404 -0.019306578 0.024018114 0.025840117 0.43698746 0.072393045 0.20511517 0.5748896 0.1508315 -0.18055429 0.5485969 -0.024692297 -0.22043146 -0.23630655 0.2825547 0.10210261 -0.065430574 -0.084721506 0.044683732 -0.18765523 0.31547266 0.33027756 0.22490089 0.17257185 0.085517466 -0.24768828 -0.1610935 -0.3390801 -0.11803696 0.1274213 0.4473143 0.21930474 0.21460603 0.104276486 0.37693048 0.09380975 0.076392405 0.10904676 0.061951175
393 0.3130264 0.43649197 -0.30520475 -0.23922427 -0.25087413 -0.11155089 0.24658103 -0.33968896 -0.100112736 -0.18079935 -0.1161124 0.16098127 0.2961956 -0.10946669 0.16103078 0.43356654 0.08071497 -0.12403509 -0.25972483 0.22518796 0.14514491 0.3131917 0.09311304 0.18623053 -0.033784125 -0.043577567 0.334962 -0.22976872 0.0073105292 -0.08080089 0.15888667 -0.008818793 -0.054236818 -0.08766172 0.20773304 -0.12007295 -0.24578172 0.35010043 0.013538025 -0.21440099 0.4816465 0.030329047 -0.27066642 0.022301897 -0.16979593 0.11478945 -0.17169918 -0.124624096 -0.22653636 -0.09120553 0.25649282 -0.13902453 -0.062017817 -0.121165425 -0.15928176 -0.04227964 -0.07733464 0.10864879 -0.060616452 -0.052277576 0.12821989 -0.09802793 0.03557527 0.17926694 -0.19301195 -0.13974208 -0.09034334 -0.019979326 -0.24029414 -0.15361705 0.16515677 -0.14499858 0.040617976 0.09973524 0.32479605 -0.45716882 -0.19831878 0.27874818 -0.099159926 -0.08422459 0.022311077 -0.14537324 0.1876603 0.034343783 -0.3719664 -0.30967447 0.033975855 -0.13794899 0.117412955 -0.15612142 -0.22146578 -0.016384453 -0.004850447 -0.012594968 0.29470748 0.37818444 -0.2558901 0.057304148 0.31552607 0.06788007 -0.32083032 -0.16256772 0.10090227 -0.2632019 -0.28948238 -0.36535144 0.093993604 0.1422205 -0.12184287 0.08213273 -0.06616388 0.2918873 0.1462495 0.33656737 0.08304352 -0.1156268 -0.20285988 -0.14237134 0.30513063 0.5301907 -0.34486932 0.039959874 -0.21973713 -0.01844409 0.06037437 0.041095007 -0.19318524 -0.23350388
445 -0.002985143 0.115004964 0.41634178 0.20918745 -0.15438129 0.0969947 -0.21963526 -0.30941096 -0.08589797 -0.1710331 0.11049193 -0.0140021285 0.12668979 -0.11970369 -0.03139179 -0.20237973 -0.07394785 0.12502162 -0.08948755 0.080677934 0.10628692 -0.25754502 -0.045930415 0.1483022 0.17232104 0.18903315 0.1266763 -0.40735888 -0.052409373 0.009498826 -0.12006246 -0.094357945 0.23511946 0.13981277 0.028766863 0.14672683 -0.21406466 0.2613089 0.34679985 -0.07850571 0.17650421 0.011848299 -0.13175431 -0.089976534 -0.11596977 0.09900683 -0.13094075 -0.10408731 -0.2980118 -0.008358009 -0.008255433 -0.16960876 0.18137568 0.12474919 -8.493558e-05 0.10286483 0.14981863 0.049605813 0.10123936 0.18555391 0.11106115 -0.09251251 -0.39927664 -0.09112354 -0.1237195 0.14602433 0.156816 -0.32801256 0.22783639 0.070583835 -0.00052649877 0.09482396 0.015814437 -0.11378 -0.35737213 -0.2803499 -0.1889272 -0.047526218 0.0033499578 -0.36015305 0.3659533 -0.12000383 0.14190394 -0.09150989 -0.12754442 -0.4038162 -0.04216127 0.015190139 0.11088864 0.19039558 -0.37070745 -0.2567307 0.24790645 -0.06603869 0.10070438 0.30643752 -0.113318704 0.1539186 0.106246285 0.78184706 0.10669964 -0.42104557 0.15026689 -0.26251942 -0.13987468 0.013410266 -0.24887863 0.22280593 -0.22253495 -0.27928993 0.20349456 0.030446153 -0.035814576 -0.4481445 -0.3044546 -0.2396835 -0.452393 -0.00037774286 0.13648549 0.14297946 -0.23601185 -0.055059727 -0.24689351 -0.03500315 -0.015336698 0.24997503 0.09939697 0.10886908
526 -0.021221021 0.5099117 0.48267746 0.3126267 -0.31003547 0.15688686 0.07490046 0.07492638 -0.0020354397 0.5817855 0.042787153 0.027385414 0.037185594 0.21880274 -0.035306394 0.60629207 0.4296245 0.015377699 -0.25105938 -0.07011264 0.20521162 0.15561834 -0.14867653 0.44230175 0.1470778 -0.1938792 -0.32475245 -0.15272617 -0.26852572 -0.30671632 0.21341942 0.1587423 -0.23046762 -0.39452872 -0.017778058 -0.3544736 -0.23469022 0.14965327 -0.13526972 -0.2651112 0.32937902 -0.12530854 0.5615461 -0.15648586 0.13474731 -0.66860765 -0.022138925 -0.040406384 0.36400196 0.10991895 0.28933048 0.35279518 -0.124259226 0.11920457 0.17215237 -0.2391549 -0.01704803 -0.070508644 -0.25772414 -0.20385921 -0.03235199 -0.3393325 0.19754486 0.11186696 -0.12898757 0.04226368 -0.17191058 0.12176744 0.09200443 -0.030869784 0.051589042 -0.075187296 0.1496928 -0.4323734 -0.09739904 -0.23258188 0.2540132 0.24105828 0.053915173 0.055847686 -0.131388 0.08616312 0.28357732 -0.0013170197 -0.07243087 -0.014272341 -0.14921796 0.15305811 0.07635718 -0.22379495 -0.3170081 -0.09213343 0.63284516 0.42179596 -0.20687638 0.023242638 0.14738312 0.1777621 0.09453132 0.42942312 0.16138369 -0.19539429 0.32246724 -0.32159415 0.4502699 0.23715301 -0.028758919 -0.3301251 0.059018113 -0.16622809 -0.08824253 -0.11374497 -0.095913105 -0.022922242 -0.3402625 -0.18201849 -0.2275706 0.005728225 0.16890152 0.19973259 0.08796124 0.20162474 0.0771708 -0.14365757 -0.39398363 0.338255 0.10330285 -0.013719797
708 -0.26108894 -0.22653484 0.08834411 0.05573518 -0.41033202 -0.36192963 0.5514346 0.11170219 0.1747235 -0.37550718 0.01191475 0.3387609 0.43236113 0.1094591 0.34499252 0.0005050811 -0.05871907 0.17331454 -0.20595834 -0.0761321 -0.13208245 -0.10751661 -0.47364375 0.3983269 0.08738892 -0.07041528 -0.4147555 -0.053589247 0.18754768 -0.24987794 0.115546174 0.10242894 0.07925906 -0.17997262 0.047528803 0.14002638 -0.34698614 0.1907851 -0.020106232 0.16616651 -0.19239986 0.077768415 -0.0467521 -0.073047005 -0.29090866 -0.40061212 -0.21513215 0.15914719 -0.48436913 -0.11955448 0.503729 -0.37698278 -0.08736003 0.034716185 0.19598968 -0.15349273 -0.13314691 -0.2434326 0.09386394 0.03272897 0.07005259 -0.41630265 -0.34247413 -0.2543761 -0.3012372 -0.27737308 -0.28937918 -0.024655964 -0.21156204 -0.13450839 -0.008690543 -0.11960623 -0.09260285 -0.06843465 0.16656928 -0.07405694 -0.057205297 0.069249116 -0.03777047 -0.06661524 -0.03407831 -0.059103154 -0.3992888 0.5093009 0.21211003 -0.42170113 -0.37469053 -0.15456545 -0.033314902 -0.1268712 -0.3708065 0.008617338 0.15715109 0.048112314 0.39338952 -0.0051056077 -0.3006021 0.019906128 0.25130433 0.5570581 0.21028495 -0.0003213778 -0.0037849688 0.1948654 -0.34393063 -0.015952379 0.06961046 -0.046541385 0.055827953 0.4032365 -0.13365544 0.22719927 -0.41442683 0.035936516 -0.07484072 -0.2244328 -0.10418071 -0.3373249 0.35743904 -0.014824054 0.18730035 -0.07171333 -0.23245987 0.17527431 -0.25568628 0.2549829 0.031968854 -0.25423723
400 0.17505227 -0.001748941 0.11480059 -0.055523656 -0.15574796 0.035038 9.641191e-05 -0.17629057 0.12029517 -0.2300096 -0.11252831 0.31524795 0.32586962 0.11419119 -0.1404505 0.242621 0.087816 0.18074808 0.037370138 0.04831005 0.03738538 -0.25153047 -0.23965372 -0.033693824 0.35611364 -0.02535428 -0.13181135 -0.57694805 -0.37494636 -0.024679577 -0.040652685 -0.08947911 -0.1758211 0.05923338 0.02464731 0.035466462 -0.08514503 0.38372844 0.19864866 -0.100357905 -0.032165866 -0.047695942 0.009150763 -0.24454075 0.049767517 -0.38864565 0.18892589 -0.1638754 0.27314657 -0.24595754 -0.34854123 -0.3614865 0.035511285 0.08558168 -0.15811056 -0.096065685 -0.37201762 -0.18059105 0.09301111 0.38381323 0.32607108 -0.72758585 -0.15919946 0.26019153 -0.33145782 0.25020206 0.098063745 -0.17820297 0.1906867 0.06999959 -0.2705399 -0.27480692 0.34450287 -0.15564062 -0.20117489 -0.22729208 -0.08323079 0.3765793 0.2980968 -0.29801095 0.40223086 0.08407786 -0.3624059 0.31669024 -0.16459633 -0.2273778 -0.40668285 0.112900004 -0.06262552 -0.05973538 -0.07334493 0.1281431 -0.07094969 0.1406426 0.10473834 -0.16285619 -0.060578726 -0.15750964 -0.239725 0.09772053 -0.066361815 -0.009357943 0.07525296 -0.35895994 -0.024601407 -0.33584833 -0.44831815 0.27413312 -0.14727916 0.13764521 -0.19227429 0.28250968 0.31902465 -0.19780813 0.16123228 0.15745892 -0.7638555 -0.18359089 0.48260295 -0.13081667 -0.4005752 0.21279 -0.28962058 0.008419935 -0.008015023 0.15255469 -0.1574181 -0.124955416
43 -0.021377362 0.4722118 0.16310939 0.16987734 -0.07489426 -0.097041 -0.10305894 -0.3622179 0.38427234 0.20155431 -0.3182005 -0.0941983 0.23101771 -0.03191674 0.117129505 -0.06924386 -0.013070757 -0.2265203 0.020066036 -0.29094288 0.14165989 0.37443954 0.5082542 0.44084284 -0.0063637355 -0.18405649 0.1464849 0.046366084 -0.13906455 -0.22819917 0.2920556 0.34998438 -0.20787427 0.06511317 0.38665396 0.040053543 -0.04073332 0.16193993 -0.10628165 -0.15425976 0.13304587 -0.30118084 0.29907715 -0.060958136 0.15385917 0.12348056 0.24643737 -0.023855943 0.1325547 -0.14141761 -0.047778454 -0.41133758 -0.16438551 -0.008633092 -0.11023677 -0.08098366 -0.030199349 0.036468554 0.36344638 0.14658608 0.023067709 -0.42290205 -0.09121426 0.09398339 -0.0076093455 -0.27616617 -0.39342862 0.118952565 -0.08358793 0.08597369 0.48418772 -0.83463037 -0.016415784 -0.22498567 0.098251164 -0.078446984 0.09244018 0.32709286 0.32017347 -0.21597666 0.2994337 0.06717846 -0.06160836 -0.27608016 -0.18424527 -0.4929922 0.03536784 -0.31629074 0.27436435 -0.3066945 -0.3802313 -0.07076432 0.38305786 0.08379088 -0.041762438 -0.36811277 0.34868723 0.232852 0.2853386 0.21311454 0.23393004 -0.3392083 0.0044265 -0.27544305 -0.5128466 -0.20044972 -0.09283991 0.5705539 0.072190076 0.18086776 0.49781135 0.17319654 -0.10955749 0.06711728 0.2375178 -0.005841612 -0.021800471 0.092318796 0.09110893 0.34776738 -0.30940628 -0.28754544 0.0021145865 0.34988448 -0.042972352 -0.075461306 0.04847671 0.055628482
624 0.050893288 0.29234624 0.810849 0.32499382 -0.35172814 -0.11611536 0.026269874 -0.090918995 -0.15796219 0.5429002 0.0453575 0.12958387 0.015637923 0.15459226 -0.26781926 0.14370555 0.41155574 0.44501477 -0.2027279 0.046582367 0.16879934 0.38384148 -0.44499847 0.23363206 -0.13737984 -0.37902132 0.09202332 0.1594314 -0.3604865 0.010183739 0.22672053 0.011006603 -0.1433664 -0.56803155 -0.08309338 -0.19443327 -0.5891209 0.23039278 0.016464008 -0.1850685 0.027464025 0.09592825 0.27419195 0.33065614 0.26972914 -0.23399575 0.29103377 -0.20461094 0.31511945 -0.44071418 0.4738142 -0.13660185 -0.38489902 0.43458667 -0.103126585 0.04444451 0.25504085 0.12599418 -0.28102896 0.25825238 0.07486572 -0.37871742 -0.06757663 -0.1475897 -0.41520783 0.14645696 -0.3152635 -0.091028005 0.026308298 -0.11325108 -0.21719866 -0.37565947 -0.03445393 0.03521555 -0.019708753 0.10046868 0.19323981 -0.041734945 -0.035774663 -0.050121944 0.37871143 -0.25212592 0.16153052 -0.27423817 -0.4701844 -0.09528418 0.036138214 0.41355428 0.46281266 -0.54490983 -0.39050812 -0.10329244 0.4384891 0.102218375 0.2107551 0.048529044 0.18355408 -0.23669614 0.13200316 0.08367328 0.24634738 0.35371298 0.17226812 0.25438726 0.21454547 -0.009183278 0.1684198 -0.030737389 0.36982423 0.33122122 0.14584148 0.057953503 -0.029023532 0.047790598 -0.15607959 -0.041065533 -0.3690485 -0.020373415 0.019704027 0.62899303 -0.33629873 0.033917103 0.26748988 -0.46726924 0.013719996 0.50469404 -0.11805194 0.2619514
525 -0.25858375 0.07824706 0.07431594 0.25944343 0.13753295 0.14067288 -0.04461201 0.010074777 -0.08918154 0.17722179 -0.06802649 0.152347 0.9166426 0.011874395 -0.065407336 -0.034120873 -0.18236218 0.12786542 0.10480254 0.15097772 0.18244976 0.115876056 -0.014270146 0.24271823 0.070250705 -0.019851979 0.00054725143 -0.19318981 -0.04904688 0.008253255 0.116511144 0.050793678 -0.30222914 -0.0031141823 0.5607151 0.021032522 -0.0075270715 0.4235093 0.6637632 -0.037770122 -0.3897226 0.1205653 -0.079822905 0.26868907 -0.014130583 0.1413852 -0.20525867 -0.061935123 -0.12796828 0.17942618 0.20938483 -0.21460377 -0.15648529 0.1252452 0.14881982 -0.4493183 -0.13562305 0.033135798 -0.2745382 -0.0026702783 -0.06404362 -0.010465548 -0.019217461 -0.58017164 -0.33349526 -0.012313857 0.11024732 -0.04934986 0.03592678 0.1105961 -0.15965948 -0.46302745 0.3530315 -0.19337592 -0.16110711 0.28676727 0.10190369 0.27875203 0.06360392 -0.4380028 0.5010937 -0.06133022 -0.19871566 0.057392932 0.17050499 -0.17680733 -0.20011693 0.18459895 0.06433845 -0.21199253 -0.49090788 0.03880393 0.23228736 0.024113558 -0.21476051 -0.09801506 -0.14250964 0.17266525 0.38149908 0.06369646 -0.12764454 -0.16454403 0.11607024 -0.09757481 0.0011130923 -0.16605414 0.13241541 0.012544968 -0.29189858 -0.26549327 0.14477861 0.04743132 0.33311713 -0.039103765 0.26697123 -0.36665282 -0.47804415 0.11177421 0.5263805 -0.12948109 -0.053446457 0.16737637 -0.077373296 0.2915842 -0.31738743 0.16681632 -0.3546874 0.06205907
1412 0.034062527 -0.1764735 0.121702835 0.05811052 -0.21402663 0.3579115 0.039529752 0.118237466 0.44879144 -0.17189781 -0.17646256 0.12570225 0.021744369 0.32485154 -0.08994522 -0.11535047 0.0752583 0.052827995 -0.07669237 -0.1485084 0.17287742 0.4212034 0.14539143 -0.49505925 0.4468434 0.10027299 0.07878742 0.20828764 -0.34720552 -0.011394558 0.35399806 0.4862853 -0.18217589 -0.09694574 0.02710867 -0.14628498 -0.17471242 0.43243068 -0.17585813 -0.33310336 0.15710805 -0.43829647 0.055453263 -0.102914445 -0.02807121 0.41779462 -0.20151414 -0.08697114 0.11916155 -0.34683973 0.44824886 -0.13220297 -0.16201684 -0.0023198882 0.07490493 -0.1562452 0.17348477 -0.33325952 0.11969817 0.1736417 -0.30313808 0.11930233 -0.097391345 0.06672836 -0.13043207 -0.33840567 0.2787547 -0.04309023 -0.00749925 0.33155596 0.3668814 0.0953681 -0.41277525 -0.35454342 0.10264535 0.136801 0.18505934 -0.033847965 0.24261028 0.31762478 0.044030305 -0.4243078 0.3179156 -0.1771409 -0.10277106 0.08783864 -0.039545193 0.36207938 0.38031176 -0.40772378 -0.12540214 0.2067896 0.30548555 0.11432849 -0.05323127 0.18772645 0.079831995 0.2923198 0.1868245 0.27637485 -0.10075576 -0.09260779 0.3168627 0.18885045 0.0012651809 -0.37956008 0.4265915 0.2835607 -0.28362644 0.45928738 0.14381562 0.3712081 -0.21770798 -0.33915308 0.05472731 0.0375736 -0.7865635 -0.21482633 0.03584349 0.4734043 -0.18862474 -0.22159076 0.01753992 0.08957864 -0.13812162 -0.35810834 -0.13796973 0.41575652
1647 -0.07620185 0.3138457 0.2445358 0.06624173 -0.10823352 -0.13403155 0.028985038 0.09602937 -0.031313606 0.08254544 0.10976742 0.088166505 0.12871188 0.31053674 -0.23958121 0.4053654 0.04229441 0.51546 -0.16170177 0.23035333 -0.35599047 0.012861508 0.21947405 0.14940602 0.22310822 0.37677357 -0.011744985 -0.2317364 0.29490831 0.0070971013 -0.09754385 -0.011327271 -0.14750595 -0.18803726 0.024720244 -0.38733548 -0.3051731 0.0130451135 -0.031729903 0.15771173 0.10796762 -0.0071384492 -0.14768188 0.15000051 -0.10086731 -0.24467666 -0.528774 -0.053323306 -0.3430848 0.23874785 0.098942615 -0.23931153 0.030859614 0.04597728 -0.25624347 -0.52632654 0.13885221 0.030372225 -0.27169278 -0.033083763 0.19417924 -0.25369245 0.09544816 -0.31343746 -0.24246323 -0.23973206 -0.48293224 -0.30002683 0.16097149 -0.3258854 0.058397427 -0.6645887 -0.16303322 0.0693641 -0.18243471 0.038451567 -0.04564809 0.101357594 -0.07095859 -0.20979586 0.23976663 0.36493284 0.091293454 0.3359139 0.2550106 -0.9538868 -0.41815722 0.017726094 0.31993094 0.25822267 -0.30851632 -0.1078324 0.24731584 0.11130765 0.2621589 -0.21291986 -0.25299987 0.25996467 -0.21936613 0.086353086 0.21704523 -0.22266266 -0.1954564 0.115808874 0.109563224 -0.064038806 -0.04435915 -0.07042484 -0.3208337 0.4611041 -0.22836168 0.3674961 -0.21559134 -0.20033418 0.25161862 0.035812475 -0.007668514 -0.3244344 0.13817216 0.0011921991 -0.052674484 -0.09586191 -0.6233157 -0.17946374 -0.27629313 -0.14764884 -0.3306312 -0.2576851
509 0.12945063 0.12908952 -0.2230223 0.07398959 -0.2623358 0.12737323 -0.0014714674 -0.033994757 0.3003181 0.14366171 0.18901297 -0.8313213 0.119108096 0.176157 -0.18122566 0.3754126 -0.173164 -0.33408773 0.1558395 0.42498213 -0.1306497 -0.18420118 -0.21454793 -0.014270677 0.03446844 0.14675294 0.18989612 -0.26727948 0.03581762 0.1054096 -0.27420685 0.26547483 0.26439074 -0.07824538 -0.26667175 -0.15648071 0.17719822 0.23559818 -0.02949894 -0.03315694 -0.25069487 0.0659459 0.01685016 0.26619363 -0.13584042 -0.59930307 -0.09009126 -0.09429063 -0.19627248 -0.56712085 0.5452661 -0.12167449 0.1535003 0.12747765 -0.1775667 -0.14358671 0.010750687 0.10357682 0.15399455 -0.051113404 -0.06511658 0.2865027 -0.30901724 0.35808128 0.104721315 0.33363825 -0.17552221 -0.2810275 0.10001195 0.011581223 -0.32554668 -0.36821008 0.12381529 -0.2001766 -0.07841116 0.506231 0.28674638 -0.051214404 0.28145015 -0.30192283 0.12056237 0.121433504 0.025010446 0.19099471 -0.017016513 -0.31869695 -0.1438275 0.011261058 -0.0041865115 -0.5950898 0.16161032 0.20145111 0.15939884 0.05880708 -0.080719344 0.20617639 0.018197825 0.13744749 0.21553893 0.3207237 0.37586698 0.266831 0.015631247 -0.10112646 -0.12297166 -0.07415564 0.019508338 -0.15139337 0.07572374 0.3329923 0.12407403 0.5520026 0.47101358 -0.07656289 -0.12824066 0.11413956 -0.26980573 0.0119228335 0.2750804 0.69058925 -0.05964426 0.06478592 0.34946257 0.17880602 -0.30696744 0.19973809 -0.09809707 -0.11556533
471 0.15291248 -0.2002099 0.27876675 0.12365689 -0.07441682 -0.1445461 0.13244975 -0.118555225 0.39113212 -0.13317074 -0.04426568 0.16545969 0.64848715 0.21141867 -0.030691985 0.081267715 0.20543152 -0.130922 -0.2646583 0.5776834 -0.40533406 0.270913 0.47615445 -0.10196572 0.003655414 0.29186004 0.23204058 -0.0033093493 -0.012162913 0.07445356 -0.046267 0.0029567305 0.20596302 0.39806974 0.0141997095 -0.28774795 0.13108657 0.27446085 -0.53742623 0.29065025 0.29142717 0.2961347 -0.070624955 0.43412432 -0.24415119 -0.2124878 -0.11051302 -0.19837737 -0.17722173 -0.19355372 0.060781777 0.31137663 -0.15892869 0.34539667 -0.13306987 0.070645906 0.10103697 -0.096513204 0.064145535 -0.035316758 0.3123985 -0.2793988 -0.2449335 -0.048913985 -0.00430716 0.02825531 -0.18739994 0.39107266 0.01304316 -0.40427762 -0.083654955 0.25808492 0.26863036 0.09966597 -0.40926632 0.076265715 -0.3329155 -0.011643655 -0.24287331 -0.16777603 0.29879197 -0.20357054 -0.24676076 0.18956418 -0.30544314 -0.7811448 -0.14095989 0.34867394 0.2271154 -0.069705576 0.17359878 -0.28044888 0.3447541 0.28750253 0.032228928 -0.0013031574 -0.16897091 0.18707898 0.25135547 0.12740861 -0.3036223 -0.0465608 0.010847961 0.12981115 0.20050353 -0.2987023 -0.01753155 0.17622688 -0.07133011 0.45676798 -0.053891066 -0.23512715 -0.16361435 -0.2103756 0.53975385 -0.24060492 -0.25087592 0.042251963 0.36733162 0.64959514 0.1372211 -0.00021999372 -0.2680971 -0.08825585 -0.17416528 0.5203829 -0.046289947 0.019799266
1525 -0.045724448 0.40145215 0.07144742 0.5657295 0.22679324 0.0070198127 0.5044037 0.14371005 -0.049599696 -0.25053987 0.031869393 -0.26818645 -0.12706295 0.36386204 -0.0026972564 0.07778444 -0.055984426 -0.060955666 -0.2974624 0.0014494748 0.25043303 0.059039503 -0.025926381 0.16077064 0.3591018 -0.02056996 -0.3179159 -0.05860341 -0.04586769 -0.45634317 -0.4334124 -0.078445464 -0.2020479 -0.11125003 0.2699934 -0.16017148 -0.28953353 0.057167973 -0.022060208 -0.5213205 -0.4853888 0.25804254 -0.31303337 0.005990019 -0.120376155 -0.2778758 -0.13466932 0.10242882 -0.41395175 -0.3230807 0.33197632 -0.064906515 0.25137925 0.24269183 -0.28461677 -0.04089268 0.31202343 -0.14303456 -0.14198993 -0.01500789 -0.09234729 -0.11687211 -0.062710896 0.04113751 -0.17717998 0.24237868 0.1472709 0.09579215 0.42990935 0.43567505 0.25022697 -0.03169701 0.35361594 -0.017738909 0.13081987 0.20543112 0.10359437 0.34430596 0.0039446508 -0.0982062 -0.47504434 0.30742675 0.04925145 -0.07938157 0.10380534 -0.33856872 -0.15467699 -0.08113994 0.15310183 -0.5552091 -0.21226548 -0.32701707 0.45815232 0.29223174 0.09943001 -0.19226694 0.08193284 -0.042503398 0.062003136 -0.12989669 0.27989239 0.045633957 -0.11528883 -0.13276091 0.11099127 -0.37246823 -0.17582121 0.063002124 -0.005759009 -0.15973035 0.10332055 0.2908513 -0.10792385 -0.38409597 -0.67677873 0.021294728 -0.23679803 -0.08312487 0.50265145 0.032752104 0.04920911 0.048940342 -0.14262505 -0.018604627 -0.12132575 0.12626241 -0.5393738 -0.44210547
1717 0.14204562 0.38837016 -0.09755911 0.10050533 0.012172204 0.10577237 0.107300416 -0.2828042 -0.08371205 0.048271764 0.1832413 0.24704269 0.2727798 0.24304129 0.01040519 0.18918972 -0.3386471 -0.029729988 -0.4745147 0.15288235 0.2506514 0.24824174 0.09656635 0.13863003 -0.15127023 0.2732464 -0.00024621456 -0.5096712 0.47093955 -0.01636257 0.10973439 -0.07973267 -0.055891953 0.537425 -0.19390771 -0.3163334 0.3963014 0.17508273 0.32971868 0.01570279 -0.03990186 0.059010096 -0.1706301 -0.04037763 -0.01673008 -0.049407173 0.33086354 -0.53099155 -0.11653404 -0.2612564 -0.28079373 -0.051556524 -0.14242567 0.07693501 -0.11150771 0.12609822 0.00053610344 -0.32375818 -0.1703032 0.006497119 0.27425033 -0.6354243 -0.16508406 0.025761534 -0.048507515 -0.06744705 -0.3009405 0.45565796 0.1802802 -0.38584903 0.045334 -0.07388029 0.3179531 0.07656214 -0.41684958 0.23279317 -0.1028931 -0.07526816 0.18068145 -0.21663748 0.48836827 -0.07226023 -0.5692937 0.06386075 -0.19014435 -0.72070986 -0.1976818 0.20023642 -0.13525608 -0.15522496 -0.42037588 -0.23917893 0.62452954 -0.0561727 0.02995845 0.09654205 -0.25087094 0.1640385 -0.00641692 0.08136306 -0.15534648 -0.06962499 -0.18840304 0.112100765 0.07655019 -0.3231803 -0.04714974 0.051862072 0.0077840965 -0.20216371 -0.02102187 -0.5034288 0.037856165 -0.16236286 -0.057200752 -0.13118696 -0.27277693 -0.43200946 0.31600976 0.585579 -0.1749887 -0.12660298 0.048558965 0.26686528 -0.115272135 -0.01749613 0.060981452 -0.21125326
235 0.4918577 0.16398273 0.44955844 0.12754057 -0.10565915 -0.16779369 0.06344587 0.15688653 0.23721999 0.47760028 0.117176734 0.29600564 -0.05952844 -0.036324266 -0.44804463 -0.08183041 -0.329896 -0.3522625 -0.22579648 -0.13980916 0.44065502 0.02683159 0.323458 0.26523465 0.08198859 0.51769346 -0.0131018 0.14496723 -0.23979804 0.14548646 -0.009071802 0.10736117 -0.27685064 0.13504869 -0.17458811 0.09593863 0.07481071 0.273707 -0.06271472 -0.39748403 -0.024604883 -0.06956475 0.33335993 -0.07068283 -0.26954713 0.026615486 -0.22168683 0.14670253 -0.22144781 -0.3209954 0.21944745 -0.07631165 -0.1564615 0.13562119 -0.26279783 -0.24634953 0.2248019 -0.13798851 -0.00198715 -0.09474095 -0.24577303 -0.07804897 -0.7292013 -0.1249276 0.17759064 -0.34266058 -0.22384617 -0.4516618 -0.021876466 0.27627856 0.5504192 0.0038861225 -0.34305477 -0.33664918 0.13426451 0.056736853 0.31832463 -0.09477858 -0.13037002 0.26669836 -0.066965625 -0.56522316 0.18516321 0.1961022 -0.10271247 -0.36535424 0.17253782 0.1763552 -0.030703735 -0.154022 -0.09389964 -0.004946228 0.288719 -0.017702347 0.006333609 -0.18146482 0.39909273 -0.19321956 -0.0031927777 0.18935475 -0.17208537 -0.26171926 -0.06537404 -0.2917021 -0.03168584 -0.29421443 0.34790456 0.28573337 0.021657113 0.4819331 -0.083153315 0.15603955 -0.5226495 0.06384681 0.34735814 -0.16985862 -0.3482564 0.012600974 0.11692611 0.055966385 -0.40787578 -0.35106137 0.02032177 0.10025325 0.087599225 -0.31060603 0.08462589 0.09422755
682 -0.07776286 0.43261945 -0.0337034 0.34782028 0.101596 -0.028161861 0.37338778 -0.077630356 0.18501247 -0.2374945 0.04413845 -0.05281216 0.027347708 -0.10364902 -0.21850757 0.21282957 0.11411203 0.24802372 -0.08600569 -0.24539308 -0.33236524 -0.020847453 -0.62298274 0.13527928 0.16812608 0.054202378 -0.011877546 -0.021628497 -0.40877497 0.30865502 0.26972947 0.11880951 -0.15189593 -0.11570628 0.07015258 -0.21097335 0.41687655 -0.19147864 0.13020684 -0.23268932 -0.052552775 0.5440951 0.32873535 0.023530807 -0.43324962 0.44253406 -0.09238207 -0.3693203 0.11853397 0.45279324 0.20713164 -0.11735096 0.06078562 -0.028721241 0.00741167 0.23934828 -0.07103011 0.0817591 -0.11717069 -0.58708125 0.10720855 -0.22634727 -0.45857248 -0.2845878 0.39158526 0.2836446 0.10688045 -0.021556677 0.41048503 -0.16647209 0.30880848 -0.18776146 -0.1057596 -0.32963273 -0.25182083 -0.12228299 0.48363718 0.10775681 0.20068723 -0.00029181107 -0.16526325 -0.37665257 -0.08226447 0.07568674 -0.061450385 -0.6395803 -0.032345448 -0.0018330626 0.19610831 0.29441455 0.11886735 -0.3218901 0.4040176 0.309418 0.15899481 0.07992813 -0.16089785 0.0706151 -0.13388082 0.17665313 -0.05752088 -0.18972896 0.16405945 -0.3600682 0.066195324 0.012045187 0.0006544665 0.31670368 0.44983062 0.1654677 -0.11346854 0.60110843 -0.40061727 -0.36471587 0.20694005 0.0575504 -0.1896735 -0.3909057 0.4506103 0.31298062 -0.0739914 0.003467007 0.13442259 0.13860807 0.06435839 -0.0048407423 -0.16249119 -0.12799497
1467 0.34558076 0.17822234 0.0968955 -0.035297837 -0.1964152 0.041139055 0.03427528 -0.41580135 0.100151576 0.10461849 0.0016746684 0.2323841 -0.34480736 0.38776746 -0.29034698 -0.183 -0.02063215 0.13881078 -0.073637925 -0.04651271 0.2676161 0.18326764 0.5279527 -0.08816036 0.23882419 0.23176576 0.115821816 -0.0010392376 -0.11667892 0.1917771 0.4869165 0.10458252 -0.24769627 0.16218902 0.0010256694 0.06931835 -0.26995197 0.27816722 -0.17437482 -0.09113826 0.18351331 -0.102266654 0.25111148 0.17193472 -0.19106284 -0.28855437 -0.3378436 0.024150409 -0.041829888 -0.22341576 0.34630573 -0.21585964 -0.2619016 0.23601845 0.020561513 -0.38647416 0.5161298 -0.076792076 0.07684163 0.096236646 0.20997418 0.40149638 -0.5351546 -0.26056448 -0.16756572 0.101082236 0.30223322 0.17986937 -0.013334094 0.6213069 0.14423352 -0.07519034 -0.23507434 -0.2909049 -0.17978036 -0.015261063 0.29469502 -0.33180338 0.22114924 0.49480644 0.25139987 -0.34518564 -0.029609911 0.2768664 0.24012938 -0.086833194 0.21471034 0.29232126 0.1799682 -0.4719781 -0.024481189 0.38809833 -0.1680682 0.122565545 -0.16069782 -0.2348431 0.44304886 -0.060006436 0.24607773 0.13642788 0.16411178 -0.30887264 0.21231353 -0.08900672 0.11130191 -0.26385528 0.6960841 0.20032175 -0.2791623 0.15780134 -0.03033418 -0.055938058 -0.10216655 -0.43374932 -0.11303542 0.036919337 -0.52603054 -0.045293055 0.44971716 0.2974641 -0.32670775 -0.26579112 0.33847737 -0.10187505 0.0503728 0.00800161 0.12804252 0.082837395
458 -0.16083446 0.20309372 -0.112104766 0.047808677 -0.22587731 -0.04823199 0.42061558 0.06772591 -0.08894429 -0.14469995 -0.048140265 0.24446172 0.21712771 -0.18776953 -0.09784395 -0.028221222 -0.017250799 0.44393584 -0.0042524277 -0.16341957 0.6288435 -0.051061947 0.13456291 0.067831926 -0.426135 -0.12381234 -0.12008908 0.20464203 0.1582825 -0.157489 0.23746656 0.099458665 -0.44115227 -0.29443938 0.4011555 0.06587349 0.1681126 0.22345744 -0.23039663 -0.042119227 -0.20641537 0.08494428 0.046977684 -0.16840322 -0.3671111 -0.16084954 -0.10419439 -0.10626688 0.12706377 0.086421244 0.23942167 -0.2234088 -0.8338432 0.0070685246 -0.16272971 -0.08315422 0.09408706 0.27660003 -0.011208712 -0.1730394 -0.051892888 -0.7435923 -0.29131302 0.1442679 -0.37254632 0.0629825 0.07603456 -0.26535207 0.08248594 0.083502114 -0.31892717 -0.107221 0.14516367 -0.23878196 0.24314547 -0.061106034 0.14065726 -0.08642384 0.2412199 -0.36560303 0.1722928 0.30953357 -0.3611792 0.03589133 -0.22731927 -0.27344283 -0.16427805 -0.20643452 0.2369039 -0.17674567 -0.029644607 0.2278445 0.11135316 -0.24274774 0.08137958 0.23969099 0.104111865 -0.23307423 0.14478631 -0.10465424 0.2738619 -0.22172436 -0.032254472 -0.44569716 -0.13898738 -0.5275151 -0.10503101 0.459061 -0.1751879 0.14795342 0.18541977 0.1162725 -0.07933475 -0.38850123 0.041207805 -0.36443672 -0.40513968 0.17646132 0.14924069 0.30189306 -0.26731142 0.095933236 -0.07181286 -0.035446122 -0.40636873 0.26542118 0.23555179 0.41664115
713 -0.09098234 0.051808618 -0.01358169 -0.18119778 -0.05016295 -0.15037078 0.2972976 -0.27358174 0.096717715 0.2809005 0.4110459 0.39237884 0.17499545 -0.015774129 0.26007503 -0.08291662 0.10254469 0.49721935 0.010552407 0.42836636 -0.046188645 -0.16413237 0.0993894 0.30103728 0.024976572 0.24967982 -0.15947077 -0.11081019 0.046990264 0.47739846 0.123939686 -0.04359003 -0.04999512 -0.10904091 0.28164575 -0.10396191 0.16299835 0.5739523 0.28899932 -0.018473355 -0.12042455 -0.07099985 0.4708656 0.12387265 0.14545321 -0.2817364 -0.1987388 -0.37808445 -0.38959575 0.061790008 0.08309908 -0.13945563 -0.04238842 0.4303165 -0.0015931706 -0.37194118 0.26270506 -0.5281023 -0.25173387 -0.45978642 0.16758892 -0.45557934 -0.09610088 -0.41402116 0.18980639 0.025304925 0.17455052 -0.4211439 0.22335294 -0.44057453 -0.23564473 -0.124513015 0.18636653 -0.3793251 -0.06870644 -0.13623285 0.25821987 0.216058 -0.0043129 0.12545517 0.41130385 -0.47824445 0.15614839 0.010903561 0.028104065 -0.066311106 -0.17781255 -0.17599973 0.16073462 -0.04244345 0.13151664 0.01860062 0.1330064 0.005329669 0.092093185 -0.1023078 0.2330559 0.23135862 0.22410743 0.06431802 0.4780504 -0.20491815 -0.09750987 0.25409526 -0.04159251 0.11595692 0.6210101 0.23285176 -0.41911843 -0.21532397 0.077468574 0.2870519 -0.0040095584 -0.20567779 0.032552943 -0.6551478 -0.4768556 -0.22496736 0.86148876 -0.08216258 -0.09073819 0.120872155 -0.15805696 0.28365648 -0.27771685 -0.052812222 0.22155072 -0.18428539
228 0.28199407 -0.1268433 0.5089358 -0.13078828 -0.029556202 0.05686798 0.3009958 -0.052282378 0.22844745 0.4712005 0.34935373 0.03225411 -0.2638213 0.24515837 -0.42804405 -0.051813144 0.04377079 -0.13200639 -0.12077781 -0.13581258 0.5689747 0.048333377 0.3678504 0.35178393 0.23198062 0.65244186 0.13363719 0.08778824 -0.14556013 -0.06414699 0.22815149 0.0578452 -0.2265363 -0.08488255 -0.19543736 0.07861505 -0.045443553 0.50721467 -0.04265445 -0.12556121 -0.2458733 -0.53508794 0.16092658 0.058251552 -0.20017883 0.19165924 -0.1546616 0.14806522 -0.107593834 -0.38214737 0.5461476 -0.33595216 -0.15441467 0.29164368 -0.4738045 -0.20215838 0.42736885 -0.13384536 0.10003461 -0.19430827 -0.2978675 -0.19093536 -0.46679002 0.016703218 0.21421535 -0.33604735 -0.03284618 -0.045819934 -0.20681526 0.41314545 0.32150984 0.5532482 -0.28236017 0.036023796 -0.10625445 0.02150757 0.4192725 0.3299016 0.1180216 0.28844333 0.019360533 -0.42839882 0.026297383 0.22249824 -0.101030625 -0.04468785 0.040512633 0.11979956 0.121706225 -0.30576497 -0.09914784 -0.11380602 0.21758556 -0.19157396 -0.1300892 -0.008780999 0.17351031 0.23558207 0.35194895 0.19756648 -0.010335263 -0.22916456 -0.013434114 -0.24607968 0.007337211 -0.2571218 0.31816652 0.50292397 -0.057419557 0.19678365 -0.00647036 0.1691683 -0.26309973 0.011518772 0.11409005 0.11042028 -0.3671778 -0.25919187 0.28116155 0.12401615 -0.32448864 -0.19396661 -0.031373654 -0.46515328 0.03844478 -0.035974834 0.23402818 0.04432229
2288 0.28701285 0.40341353 0.41337878 -0.055537988 -0.12804481 0.2800407 0.21601008 0.18223242 -0.19639672 0.2570915 0.28913966 0.09902385 -0.104891226 -0.103285655 0.49121073 0.69126064 0.049358353 -0.025386062 -0.38538218 0.00792993 -0.11604554 -0.04029147 -0.20213126 0.11515212 0.5218785 -0.19428031 -0.04013703 0.20675825 0.55281186 -0.31009477 0.16346115 0.14383604 -0.1600155 -0.091700405 0.19030488 0.18741842 -0.41751432 0.16765577 -0.05816836 -0.5869281 -0.18618272 0.34300563 0.2411759 0.15468846 -0.039913204 0.059846465 -0.16906056 -0.23649535 -0.4577971 0.14611611 0.17124048 0.36914662 -0.047014184 0.09648545 0.3405463 -0.42892626 -0.17247562 -0.30562997 -0.27239186 -0.06692365 0.18759929 -0.23216692 -0.237841 0.015568355 -0.11237167 0.22824384 0.25774586 -0.22282118 0.08889782 0.20553958 -0.25826448 -0.3556441 0.36940047 -0.017501615 0.33143196 0.007138126 0.25216448 0.36018002 -0.06089989 -0.007487203 -0.0819031 -0.2585025 -0.42243168 0.1391485 0.048067167 -0.4184904 -0.44824827 0.3278646 -0.3519435 -0.49421632 -0.090054296 -0.24821809 0.26863036 0.0087714195 -0.01802401 0.48233378 0.032883283 0.09676449 -0.02092661 -0.2159557 -0.027460339 0.14089145 0.03415075 -0.33867306 -0.008825323 0.08248503 -0.1363695 0.18260108 -0.15838769 0.16913864 -0.030233063 -0.024004241 0.20516483 0.18639854 -0.43306425 -0.042633202 -0.31161192 0.09300214 0.16968559 0.44499624 -0.62027913 0.08866943 -0.015154246 0.0070782723 -0.21209806 -0.020892542 -0.5423071 0.096097715
405 0.3835679 0.19008449 0.37404624 0.23874 0.011159226 -0.10941216 -0.4334666 -0.044210322 -0.06341294 0.13588269 0.06624274 -0.08854346 0.1924498 -0.18041672 -0.31769183 0.14217037 0.49763778 0.14089774 -0.09371827 0.334068 -0.058310404 -0.22507954 -0.05311565 0.28998834 0.21006703 0.17153586 -0.41649362 0.2830857 -0.010596908 -0.095515035 0.03703178 0.52435005 -0.19959712 0.0075446917 -0.30117226 -0.38528064 -0.20808017 0.19510971 0.19188145 0.15021412 0.055200167 -0.15074135 0.17117421 0.16001657 0.34604186 0.14082521 -0.12515017 -0.27750117 -0.27702013 0.43175393 -0.101460606 0.11303985 0.0088859135 0.16842517 0.09012362 -0.14649789 0.045123793 0.16863072 0.18745495 -0.16501053 0.07555894 -0.04378421 -0.25170794 -0.23684081 -0.07573658 0.097758465 -0.06826576 0.2000213 0.277537 -0.06123742 -0.01697685 -0.2588086 0.009207574 -0.29130262 0.05800555 0.1100667 0.11555719 0.34331802 0.4080054 0.15863396 0.07402605 0.021106603 0.10096022 0.39215013 0.0059212167 -0.0794219 0.47773287 0.17050298 0.16715088 -0.5223628 0.5173949 0.44939122 0.098839 -0.26712546 0.14732787 0.05925255 0.38506642 -0.067686796 -0.047161225 0.59260464 0.01444322 -0.041850712 -0.36229268 -0.28011346 -0.116525404 -0.30961522 -0.5743823 -0.22009936 0.4182441 0.37818056 0.0070274877 0.22620216 0.10859397 0.097620256 -0.6944222 -0.31695002 -0.21958438 -0.5669838 0.50614613 0.43108758 -0.081333205 0.06418411 0.11125407 0.04555864 -0.72288823 0.11621157 -0.18454304 -0.3172948
602 0.095135 0.2946456 0.27922714 0.12561168 -0.13033162 0.16719712 -0.058027886 -0.3834302 -0.016113942 -0.2844733 0.3370271 0.18266737 0.07222597 0.17971453 -0.24337506 -0.19272578 0.08301538 -0.12159266 -0.056994393 0.1465218 0.03160428 0.34624976 -0.43522188 0.3288461 0.18750475 -0.52159315 0.0676764 0.27796188 -0.3456014 -0.004399709 0.27977484 0.050104074 0.15042473 -0.5867065 -0.32904255 -0.29742748 -0.2987055 0.40076342 0.08969962 -0.23436719 0.007867746 -0.009702173 -0.116432734 -0.14532283 -0.05539225 0.029637603 0.14703937 -0.3761771 0.1663686 -0.42098832 0.40022764 -0.1826748 -0.39949423 0.14284523 -0.045921095 -0.2283919 0.4861262 -0.0065693078 -0.27179953 0.22144414 -0.26309538 -0.22512588 -0.19984408 0.21887392 -0.16067533 0.29947597 0.06727555 -0.10769594 -0.2700987 -0.0691811 -0.47483146 -0.17248169 -0.10390527 0.1666411 0.13758054 0.20385993 0.05404436 0.7095604 0.007489608 -0.004022676 0.21317695 -0.16668387 -0.3628078 0.15107507 0.03695116 0.021674093 -0.067695335 0.42071944 0.18989326 0.1533003 -0.07886339 -0.4041649 0.17995359 0.45362934 0.31635687 -0.28276247 0.17989601 0.07687792 -0.01555671 0.12015162 0.0012418545 -0.30307782 -0.40458357 0.19999252 0.1799664 0.059347805 0.31667653 0.14455393 0.45478633 0.27404615 0.19125696 -0.17069541 0.032995816 -0.10298286 -0.6611188 0.4484419 -0.5867691 0.12040302 0.04104771 0.71810466 -0.12132612 0.38397393 0.21237685 -0.25094798 -0.3984517 0.14154194 0.039836295 0.120915726
391 0.2721343 0.428428 -0.12562168 -0.1626085 -0.2896629 0.13404036 -0.23455968 0.18239006 -0.20796451 -0.40381244 -0.34093028 0.28234684 0.23330882 0.59480715 -0.18133879 0.21919622 0.15923455 -0.054526024 0.12205733 -0.086528875 0.20471393 0.06540989 0.37621734 0.20906363 0.0049145315 -0.15937048 -0.30294618 -0.27813637 0.09716918 -0.12303272 0.6047021 0.4320227 0.15309684 0.0006608541 0.44896767 -0.21592058 -0.09307724 0.15293716 -0.35601485 0.0024547025 -0.20138381 0.15972567 0.24998233 0.18829085 -0.23193276 -0.12095921 -0.04423787 0.4340873 -0.075809486 0.191283 0.13732018 -0.19249512 0.14897177 -0.12830405 -0.34364295 -0.27795812 0.25227073 0.01204888 0.16281721 -0.1758537 -0.086484 -0.06858527 -0.5079084 0.22080912 0.30619058 0.36929742 -0.053461075 -0.22728956 -0.04990963 0.20605902 -0.019126771 -0.34787375 -0.17338884 -0.13500017 -0.24220392 -0.08248699 0.2204618 -0.06944208 0.4266194 -0.106169164 0.14845827 -0.11535696 0.06720956 -0.22117183 -0.21707055 -0.22098471 0.10260809 -0.019042723 0.26537704 -0.36841103 -0.54200906 0.47388208 0.4354892 0.11313894 0.32892203 -0.04901003 0.0064328383 0.4010884 0.1611752 0.06302113 0.058269136 -0.0070395404 0.1211965 -0.108016446 -0.37135231 -0.36496943 0.19578546 0.40660447 -0.29126647 -0.081484616 -0.00019767937 0.051438466 -0.40446377 0.24804705 -0.0029111702 -0.008111236 -0.31920516 -0.34323472 0.30671075 0.11980265 0.119499035 -0.12736084 -0.14966017 0.05277416 -0.3466825 -0.55863225 0.18544047 0.03873555
476 0.07745701 0.3339043 0.80723405 0.76333654 -0.40639207 -0.08813197 -0.19505295 0.28794175 -0.20760973 0.1914073 0.25341755 -0.24230558 -0.113613635 0.06252462 0.36212048 0.5342792 0.22701085 -0.34895733 -0.075308785 0.20211238 -0.16881269 0.008979194 -0.062778026 0.040136404 -0.1325308 -0.4864631 -0.2630503 0.13507938 0.040877663 0.22623304 0.20158654 -0.000704809 0.20019698 -0.40916264 -0.15998639 0.29298437 -0.123587325 0.49663463 -0.11788287 -0.06740274 0.27186164 -0.21738948 0.1114893 0.0513807 -0.04363097 0.32051823 0.36348844 -0.25380176 0.046153847 -0.16214629 0.1859196 0.1036678 -0.11197044 0.0025951033 -0.10478683 -0.29798427 -0.027597345 0.32727748 -0.23111394 0.003734402 0.066472165 -0.13359544 -0.2937491 -0.23503682 -0.4771075 0.008186372 -0.06924654 0.23483375 0.3292749 0.20182823 -0.01282598 0.18326682 0.13928938 -0.123552576 -0.004588806 0.105703674 0.1513424 0.4436149 -0.04428447 0.010714547 -0.11153883 -0.014677769 -0.2740284 0.613593 0.060967654 0.07150479 0.33920655 -0.15110852 0.30124637 -0.4531081 0.076120086 0.2194723 0.64320767 0.29159498 0.24401605 -0.07618734 0.2458291 0.17264871 -0.14066394 0.30523956 0.20587765 0.043748252 0.16859151 0.099486694 0.02499342 -0.08698638 0.104192965 0.24432392 0.02062457 -0.19522995 0.34339833 0.12949048 0.31572127 -0.19547498 -0.1458085 0.38955602 -0.5773509 0.21884243 0.45105505 0.25966626 -0.24499795 -0.07566516 0.2973203 0.02386449 0.15091915 0.0038832224 -0.26945505 -0.33145472
69 0.22034036 0.367336 0.14833657 0.310612 -0.3561624 -0.1325636 0.25134486 -0.25750887 0.16672449 0.08850878 -0.06527229 0.3838512 0.11059481 0.50432587 0.24196333 0.20252074 -0.10858754 0.20626447 0.25387284 -0.07148719 0.42748827 0.48213965 0.29527593 0.4380198 0.10861158 0.14428373 0.3548262 -0.044627566 -0.20381743 -0.08646196 0.14519621 0.16281639 -0.30766052 0.46917012 0.101535514 0.034735147 0.030650327 0.1445642 0.51166624 -0.098011814 -0.10716599 -0.026566656 0.21637242 0.25593477 -0.12599002 0.08751507 -0.32956514 0.043800306 0.09984041 -0.4098082 0.31805474 -0.15455724 -0.20503938 0.33077013 -0.27300996 -2.5595014e-05 0.16904835 -0.13750693 0.10658892 0.29874778 0.048916623 -0.15449531 -0.15908529 0.2676784 -0.054298952 0.104011044 0.04325441 -0.11244762 0.21963918 0.52375877 0.070333816 0.19390662 -0.27581286 -0.055587243 0.3400972 -0.0693976 0.18721795 0.3999441 0.049562663 0.15791495 0.5208676 -0.39883244 -0.16408662 0.077558614 -0.21368745 -0.018156411 0.44071335 -0.1192614 0.15427217 0.11930602 -0.27285787 0.04028824 0.7616481 0.113323614 -0.108433165 -0.5114255 0.23711851 -0.06557859 0.3080182 0.31765857 0.21433 -0.11584865 -0.24034849 -0.15953994 0.15635525 -0.115869574 -0.45222127 0.5479721 0.085416205 0.11748627 0.10276142 0.70930445 -0.18745665 0.107538335 -0.12916145 -0.21062957 0.45194852 0.04581164 0.0024454389 0.3692212 0.11126075 0.07789522 -0.10753491 0.33481976 0.23884095 -0.25177696 -0.10743338 -0.0815964
569 0.3379695 0.2174192 0.8371576 0.4793774 -0.4199622 -0.01741192 0.035799075 -0.00554293 -0.008491391 0.76188284 0.10048839 0.07170619 -0.19905871 0.18656282 -0.31150353 -0.04490397 0.18642023 0.39338404 -0.2990244 0.095986 -0.010775272 0.4112086 -0.23351392 0.11598474 -0.0763695 -0.345484 0.09934782 0.19802427 -0.24815488 0.07516909 0.320224 -0.18541604 0.022151625 -0.51901007 -0.030604098 -0.04384244 -0.73979264 0.16784388 -0.13789032 -0.485019 0.0696276 -0.10353621 0.19232625 0.23160781 0.24457139 -0.22787052 0.26854467 0.0024816545 0.4032254 -0.3090154 0.5905772 -0.39788178 -0.40371898 0.57888347 0.1163955 0.020588856 0.50273126 0.11161478 -0.3767266 0.28631377 0.23681548 -0.13269769 0.15810601 -0.14782141 -0.30258635 0.059670437 -0.13714103 -0.10446393 0.2876679 0.10896927 -0.09421318 -0.36621293 -0.07966582 -0.29953074 0.020916669 0.030092493 0.15387766 0.1650234 0.07272901 -0.045499183 0.39252022 -0.6571082 0.012506214 -0.07513464 -0.35023475 -0.17838642 -0.16794439 0.6838618 0.3914834 -0.75396645 -0.38003895 -0.12915234 0.33725312 0.04553084 0.41469082 0.16830337 -0.041921787 -0.21481258 -0.09473676 -0.13092946 0.16422635 0.2985396 0.19431433 0.075100265 0.15880895 -0.0035654572 0.19134866 -0.013173958 0.35160348 0.27597696 -0.03138059 -0.13311663 -0.09624807 0.082301885 -0.4995599 0.1707228 -0.6043322 -0.19735783 -0.02386611 0.6436527 -0.2994225 0.056376927 -0.0024542462 -0.4722402 -0.32057333 0.39295143 0.26036957 0.3197185
6 -0.36439696 -0.112668104 -0.24686292 -0.038230922 -0.15135351 -0.42934796 -0.08797754 -0.12723918 -0.030079825 0.1839024 0.065447524 -0.21200943 0.18337554 -0.004926862 0.62395364 -0.022846 0.23081514 0.31733912 -0.34523886 -0.11822126 -0.015874194 0.12780184 0.08798992 0.28527728 0.35669053 0.6271301 0.26311305 -0.44578183 0.27483758 0.029602146 -0.013636502 0.36586127 -0.29526973 -0.40826935 0.38492727 -0.25068644 -0.09763166 0.36521026 -0.12312438 -0.05930244 0.05947678 0.093664594 -0.3994451 0.084120676 -0.33600795 0.03182746 0.10271729 0.3212257 -0.32368454 0.19350836 0.057724945 -0.07205244 -0.32458442 -0.13888809 -0.27453828 -0.41066396 0.089769594 0.07517167 -0.393678 -0.3202179 0.034543436 -0.33408132 -0.32953006 0.054508235 -0.123920366 -0.07739449 -0.109297246 -0.18320394 0.11884973 -0.21990302 0.11990455 0.15010926 -0.19813967 -0.21152687 -0.054287437 -0.21831566 0.067859106 0.41601908 0.06511717 0.06755609 0.33652243 0.22866696 -0.2563054 0.41836885 -0.16123323 -0.608985 0.0048579276 0.27047914 0.14445215 0.12044626 -0.43949997 -0.04599897 0.12255192 0.22775413 0.14112076 0.05088196 -0.047087476 -0.19037582 -0.21895747 -0.021001903 0.25814277 -0.19202928 -0.073365405 0.10270303 -0.26536182 -0.16012454 -0.3693583 -0.07353892 -0.20901893 0.11595058 -0.40615043 0.37750345 -0.10926777 -0.072671354 0.07319781 0.3196627 -0.4288284 0.15764728 0.29506585 0.2296008 -0.047836773 0.066553935 -0.44053084 0.14887771 -0.28239897 0.35744303 -0.41109535 0.027796365
1637 -0.11988987 0.5775626 -0.023388412 -0.037733868 -0.23614456 -0.09458781 0.16884755 -0.13897914 0.14074983 -0.01749218 -0.26359648 0.12036843 0.029434986 0.33108607 -0.06858806 0.57447004 0.32305887 0.15881385 -0.124180935 0.2338768 -0.4827692 0.036749233 0.03526981 0.042778626 0.12673421 0.18080573 -0.04533531 -0.36668098 -0.24068987 0.39966074 -0.25250962 0.17834632 -0.05431879 -0.12127314 0.061401315 -0.14300758 0.10047393 0.2630123 0.10846532 -0.044119596 -0.026650472 -0.057554625 0.13593476 0.044943117 -0.28244767 0.0053125243 -0.16211727 -0.5034566 -0.32381117 0.36400762 0.19672324 -0.124795504 -0.2265304 0.4016184 -0.123107135 -0.47752714 0.33962983 -0.007764837 -0.45833126 -0.04364436 0.0609335 -0.65652025 0.1955387 -0.43753242 -0.15019938 -0.4030825 -0.43642217 -0.15908305 0.16440326 0.12682581 0.354777 -0.40968308 -0.13480121 0.118138716 -0.36138192 -0.030337278 -0.28028965 0.31944948 0.24750102 -0.34690502 -0.17424822 0.30882552 0.14453487 0.6518793 0.03567285 -0.4995284 -0.4512045 -0.088702746 0.03961931 0.067084715 -0.38501367 -0.1267322 0.08333985 0.15679541 0.5528983 -0.13370085 -0.22274503 0.15013011 -0.117588036 0.3843988 0.19263805 -0.07974989 0.0063923737 -0.035126686 0.09583045 -0.24676348 0.025924817 -0.099510275 -0.12226523 0.45576012 -0.13254085 -0.004856271 -0.018487511 0.023464406 -0.020716593 -0.081694335 -0.1432104 -0.40165985 -0.034548864 -0.0018104054 0.3774653 -0.311169 -0.4036671 -0.009930534 -0.3142976 0.15179184 0.08340694 -0.25185153
1653 -0.02048197 0.22429916 0.10508097 0.2740136 -0.20109317 -0.01383477 -0.11473639 0.13365446 -0.07387001 -0.1239242 0.061852764 0.1890026 0.23269673 0.22180745 -0.07538692 0.34212318 0.2627507 0.5444641 -0.27578098 0.33993852 -0.14271688 -0.073322564 0.012259494 0.20023853 -0.045263316 -0.072962746 0.09172978 -0.2833245 -0.040788863 0.015935643 -0.3167948 0.018450093 0.036829103 -0.2936918 0.30132344 -0.05327207 0.17019396 0.092575125 -0.14222719 0.10943602 0.240298 0.3716129 0.095700786 0.17096403 -0.09094383 -0.35088736 -0.33659062 -0.14587028 -0.41452467 0.27481973 0.08109289 -0.15589158 -0.36920276 0.1608491 -0.22236638 -0.5828184 0.19039612 -0.60374933 -0.35601753 0.0742095 -0.2851461 -0.41872403 0.14431606 -0.067535974 0.017107574 -0.026265431 -0.3787439 0.271449 0.1596453 -0.3947209 0.28307956 -0.1051381 -0.22457023 -0.34468699 -0.37560114 -0.6192916 0.12816177 0.21391134 0.20754047 -0.11684078 -0.099223256 -0.045312975 0.001723288 0.20245703 -0.14178762 -0.47241503 -0.17725784 0.1311291 0.20609641 -0.06037888 -0.558489 0.108382456 0.1784482 0.06971533 0.2577875 0.037993953 0.07936907 0.012562934 -0.048325475 0.40307945 0.32674778 -0.16520016 0.08748303 -0.010219568 0.15323505 -0.017985823 -0.1879198 -0.18416971 0.335116 0.42107368 0.07690747 -0.2430251 0.15003705 0.020658223 0.15424281 -0.045261357 -0.034241065 -0.26039973 0.51668847 0.30129582 0.11954886 -0.12301093 -0.3919114 -0.28496367 -0.11099076 0.33959424 -0.02090925 0.0035653696
496 -0.043006584 0.83480835 0.36778188 -0.21317539 -0.085249536 -0.18732181 0.20302205 0.14286265 0.007913112 -0.17897542 -0.18736686 0.035662226 0.23871243 -0.032568876 0.17525834 -0.14901884 -0.07017664 -0.063124284 -0.26974165 -0.27250266 -0.035513848 -0.027603285 0.5592836 0.123315126 -0.649469 0.21008521 -0.06620111 -0.14011948 -0.115489796 -0.49867135 0.29642758 0.20909876 0.104893684 -0.044412974 0.5407131 0.0064586117 0.0014505932 0.5722129 0.12618338 0.3194974 -0.5566011 0.22413942 -0.030724637 -0.26578963 0.3363398 -0.33603543 -0.31476736 0.20977779 0.028615238 0.109437086 0.17177577 -0.50249255 0.027247401 0.004859287 -0.257256 -0.05949238 0.3123616 0.09833531 0.206648 0.14059636 0.04474616 -0.41075554 -0.056469493 -0.16476701 -0.05593907 -0.008555786 -0.0053028637 -0.10291041 0.3212839 -0.057454567 0.0550773 0.037052218 -0.17081755 -0.26113454 0.09208161 0.055685457 0.10953123 0.15591455 0.71123284 -0.02223593 0.08996688 -0.31657895 0.13872945 0.35593808 -0.07574898 -0.5084826 -0.17033954 -0.3313437 -0.36892417 -0.34694076 -0.023560587 0.36455658 0.6134405 -0.056514286 0.037647486 0.11661812 0.5793265 0.34544045 0.17429483 -0.081506744 -0.12407992 -0.07652117 0.04038377 -0.10180687 -0.18713579 -0.10918491 0.34845865 0.23164329 0.062308192 0.23360004 0.030719342 0.15702997 -0.2209145 -0.1273551 -0.028045774 -0.09650529 -0.33489183 0.03569503 -0.02577932 0.22772814 0.10064607 0.20433989 0.29405034 -0.050380222 -0.067313455 0.0121275885 -0.41730827 0.04290597
1465 0.1295507 0.0345761 0.013495695 0.05051145 -0.2003924 0.16997948 0.05241427 0.034668807 0.27114695 0.32004014 0.06151879 0.28779352 -0.2322033 0.39305183 -0.65604955 -0.17578931 0.067302145 -0.018513337 -0.06939857 -0.18889685 0.4125582 0.106599115 0.3455788 -0.10068195 0.3224799 -0.009416714 0.14082164 0.043832395 -0.3751318 0.34272382 0.32558033 0.16279447 0.05196078 0.046172697 -0.050737802 -0.08026887 -0.19552632 0.62440187 -0.09980668 0.120895684 0.040920097 -0.07510727 0.15438186 0.076402485 0.09163273 0.0068302667 -0.2330707 0.13494122 -0.024374112 -0.11342657 0.4383 -0.18108486 -0.10744483 0.30386156 -0.20898916 -0.37886056 0.6878053 -0.33869892 0.05444419 -0.053719606 0.25914326 0.06747367 -0.26088023 -0.1884625 0.03566579 -0.36448234 0.053561263 -0.0078918105 -0.07929309 0.37331566 0.4548865 0.049692445 -0.49531302 -0.1845137 -0.18994005 0.012027302 0.20762028 -0.19354449 0.022385508 0.38138586 0.3552161 -0.7888172 0.023710005 0.29766157 0.30847028 -0.15963238 0.25431898 0.2999111 0.344339 -0.60257614 -0.070760936 0.061196215 0.093060695 -0.1618337 -0.02369043 -0.1136977 -0.15878713 0.21721688 0.3770013 0.26821068 0.056110676 -0.10904939 0.20335007 -0.07102363 -0.06856431 -0.3265795 0.20496278 0.15737414 -0.036395002 0.41333383 -0.04190328 -0.019461375 -0.06495055 -0.31950614 -0.1177482 0.026472107 -0.60005176 -0.023716005 0.06841706 0.50319 -0.278246 -0.21696539 0.42008573 -0.109367654 -0.06939202 -0.01581701 -0.063381426 0.20263733
1445 0.48682564 0.21949339 0.045995936 0.116382994 -0.06884767 0.2908649 0.27948505 -0.17970555 0.40167165 0.28006557 0.09605094 0.19399345 -0.32028103 0.15719171 -0.286393 -0.18254912 -0.08825778 0.274731 -0.047014482 -0.13721773 0.41286913 0.25029594 0.28406993 0.37498608 0.17316085 0.34545743 0.37185484 -0.13832544 -0.20331073 0.11224612 0.23594561 -0.144629 -0.18445827 -0.24583699 -0.060397513 0.2494296 -0.17350665 0.17004299 -0.351816 0.0070606177 0.17688906 0.100342944 0.2934105 -0.105263874 -0.22246684 0.047890827 -0.09324347 -0.2191502 -0.37144315 -0.32536945 0.43279287 -0.08783825 -0.071794875 0.020476377 -0.073432304 -0.5741321 0.5328408 -0.085708104 0.16111986 -0.2514863 0.43646932 0.18374613 -0.12329009 -0.12651421 -0.23434985 -0.051588 -0.069474384 -0.20929284 0.013870502 0.14039037 0.07050188 0.18321796 -0.08326885 -0.31472236 0.06738681 0.1895744 0.38822758 -0.48423892 0.033883452 0.6742813 0.28812617 -0.70480573 0.012616052 0.09855685 0.190815 0.1349824 -0.21095775 0.30706316 0.3245767 -0.69013953 0.004483408 0.33753052 0.19110759 0.10685657 0.12694581 -0.1466795 -0.03188796 0.1740067 0.45235345 0.22835541 0.23494337 0.0033448788 0.2642637 0.12085175 0.2511492 -0.24510622 0.07586484 0.46758112 -0.117532626 0.1660511 0.29068395 0.09054196 -0.258037 -0.13052002 -0.04906021 -0.23918308 -0.5171655 0.18185706 0.1357557 0.23806939 -0.31384543 -0.075811446 0.22575742 0.043101907 -0.00817529 -0.4619568 -0.07257843 0.07127186
1648 0.08500033 0.13524456 0.11508985 0.32948095 -0.48127216 0.09199941 0.04588554 -0.064789616 0.033907335 0.27714074 -0.13079749 0.2925447 0.2620312 0.32979766 0.021268005 0.40999016 0.18051882 0.0021666465 -0.12579514 -0.06856586 -0.26903966 -0.028699161 0.33274212 -0.2472123 0.05912179 0.1496114 -0.22283249 -0.015019739 -0.02030022 0.21555766 -0.22901084 -0.053678118 -0.27302894 -0.3328452 0.078385524 -0.26529208 -0.07258408 -0.0007098004 0.0013238043 0.06756057 0.22351554 0.15941325 -0.15234348 -0.0103033995 -0.44157922 0.07611913 -0.13167632 -0.39340386 -0.5668384 -0.08261663 0.18828647 -0.3585985 -0.07959711 -0.08050448 -0.23223585 -0.62329715 0.18412246 -0.49330702 -0.2529649 -0.3261255 0.08507001 -0.31308246 0.057824895 -0.21360298 -0.025753926 -0.19493109 -0.17961471 -0.1815728 0.17392427 -0.3593876 0.15594634 -0.33975756 0.007585482 0.07129943 0.01867001 -0.26921093 0.24380293 0.46536666 0.33250025 -0.38924608 0.079818495 0.19285017 0.07120022 0.21944214 0.31376642 -0.68380594 -0.35734507 0.243658 -0.22116238 0.23716782 -0.44039005 -0.041693132 0.08897823 0.16266581 0.20715164 0.043141857 0.0029414068 -0.08059672 0.095669895 0.39974305 0.29473493 -0.18049312 -0.10115991 0.102376364 -0.03679198 -0.21395391 -0.15016319 0.106300786 -0.14795876 0.36571607 -0.24248481 0.17030168 -0.21747532 -0.20116943 0.22610794 -0.101381384 0.047430843 -0.3891417 0.19380273 0.114722565 0.47274053 0.10157008 -0.5148841 -0.19786286 -0.27999324 -0.037304528 -0.28593308 -0.12019572
1641 -0.13868365 0.099772185 0.021881647 0.16945413 -0.21567471 -0.051195357 0.12302428 0.060728103 0.34009093 -0.010127645 -0.12564188 0.09000321 0.10647964 0.23338497 -0.023354013 0.33200926 0.1356294 0.44767296 -0.35328802 0.18003872 -0.13968486 -0.0279658 -0.1212544 0.10977775 0.3578368 0.20558065 0.37578377 -0.10219893 0.012805543 -0.060694486 -0.38713318 0.18133554 0.09951106 -0.24348933 0.2803827 0.17302188 -0.052606642 0.057429675 0.012711358 -0.08343954 0.046671454 0.16218577 0.3622469 -0.21366456 -0.092166394 -0.17587596 -0.27697802 -0.37799042 -0.34071887 0.23383385 0.22689457 -0.4222414 -0.06297471 0.29976952 0.005996749 -0.45411545 0.20176381 -0.3427642 -0.39112777 0.041521296 -0.23165719 -0.49489564 0.024437267 -0.29935077 -0.003024201 -0.029669326 -0.19322792 0.2897724 0.17039843 -0.5694299 0.33066985 -0.27202594 -0.19277416 -0.4852829 -0.58956623 -0.4547727 0.17623547 0.17580597 -0.017648544 -0.003820011 -0.05409439 -0.11170096 0.22625822 0.43586516 -0.07043658 -0.4957687 -0.13699873 0.014631837 0.27014416 -0.49731386 -0.4557197 0.16025446 0.47385627 0.31454408 0.09401032 0.10009869 -0.05953182 0.04926179 -0.25043902 0.32456216 0.29101944 -0.18547536 -0.097960226 -0.1789116 0.08643842 0.08508484 -0.13768914 0.15551206 0.30737442 0.5915176 -0.028016219 -0.33160067 -0.0314395 0.11441389 0.13741967 0.23346187 0.21983638 -0.3497809 0.41169068 -0.033265945 0.25814852 0.1977377 -0.22158477 -0.29411495 0.021269068 0.17945 0.0846235 0.07963088
1722 0.45950547 0.18134521 0.1451173 0.16136417 -0.03649052 0.28543127 0.26522836 0.092859216 0.13708444 0.45348567 0.08797819 0.051758327 0.2226319 0.22909714 0.0475992 0.07732061 -0.13791002 -0.17398308 -0.6108725 0.27222928 -0.09108806 0.55392003 -0.34907785 0.37160602 -0.23263533 0.38976875 0.13204394 -0.3715958 0.088009804 -0.122880965 0.2989125 0.17176016 0.06853682 0.45138273 -0.2114147 0.11493002 0.15553685 0.12535235 0.08762459 0.2820307 0.18006374 -0.07691252 -0.25288013 0.059806257 0.18619366 -0.015004174 0.29808876 -0.24732924 -0.041379116 0.023353374 -0.026878836 0.3245053 -0.25958428 -0.3061062 0.1056232 -0.05698547 0.13742985 -0.16475874 -0.36893663 -0.13021004 0.18836257 -0.553245 -0.16351521 -0.09554932 -0.18890229 0.2972658 0.024608172 0.4721249 0.2851755 -0.12870625 -0.004279824 -0.36584213 0.084260054 0.13932595 0.119587466 0.21447088 0.093730286 0.12945059 -0.23102728 -0.64982635 0.013003797 -0.51945794 0.28577393 0.039640103 0.1712063 -0.25378245 -0.1452774 -0.049619943 -0.0034096392 -0.067160994 -0.21422791 -0.13046461 0.14358693 0.49148026 0.070994325 0.092025444 -0.1547711 -0.12024687 -0.08106074 0.17720836 -0.08622026 -0.07026211 -0.23641717 0.2768096 0.009306017 -0.019542027 -0.2557286 -0.058490474 -0.5150098 0.14151746 0.33362868 0.07594526 0.14143729 0.004334287 -0.46362883 0.05694229 -0.52923316 -0.3329579 0.39201683 0.621392 -0.2917018 -0.04836662 0.35138497 -0.14840823 -0.5190592 -0.5000687 -0.14899786 -0.12084834
1638 0.117453724 0.37145725 0.15020202 0.23344445 -0.20365599 -0.110285684 0.292212 -0.042930324 0.35255736 -0.10849995 -0.09074995 -0.06227348 0.16578913 0.41205555 -0.043008413 0.20449403 0.2082278 0.52117383 -0.1877885 -0.03493668 -0.3914709 -0.13259012 0.09963453 -0.123728305 0.17652786 0.021812405 -0.19895425 -0.25677037 -0.12612753 0.18537864 -0.4250133 -0.14170726 -0.18784344 -0.116639666 0.088678256 -0.30147314 -0.10130998 0.12064278 0.05743669 -0.19625692 0.07331381 0.45405176 -0.22770563 0.0037720893 -0.25529313 0.053009532 -0.41939574 -0.3772211 -0.37424335 0.20684068 0.52693796 0.0677736 -0.075020626 0.28658536 -0.27449727 -0.7732909 -0.016804976 -0.12767826 -0.3145047 -0.18754509 -0.08285381 -0.43548453 -0.20741746 -0.14889179 -0.031110024 -0.5134143 -0.27390274 0.17313673 0.18782765 -0.047234036 -0.20591965 -0.26701626 -0.08389468 -0.0008592619 -0.25455892 -0.09928823 0.24043652 0.46470022 -0.08097318 -0.30903304 -0.08693593 -0.07329404 0.24501269 0.112120375 0.2559217 -0.68026894 -0.3266756 0.19826563 0.027181908 -0.07152576 -0.35018155 -0.014287287 0.16767196 0.090172864 0.35090557 0.19664136 0.13026752 -0.13140237 -0.09374675 0.4039569 0.22952382 -0.40209657 -0.21172065 -0.03820691 0.13187562 -0.21743765 -0.36356586 0.24376866 0.054046016 0.15960102 -0.3420123 0.15877879 -0.097613305 -0.104422726 0.1894596 0.28435004 -0.052347966 0.13103047 0.14104767 -0.30069673 -0.07458612 0.055493 -0.40135488 -0.08457044 -0.45567766 0.12397187 0.05706085 -0.15227884
510 -0.09336598 0.17007568 0.20505415 0.4184799 -0.22876546 0.17091715 -0.1738161 0.20564885 0.035165753 0.14580354 0.16756888 -0.4056012 -0.06935828 -0.01786906 0.07505735 0.4893708 0.12715559 -0.15551302 -0.27217534 0.10532771 -0.042434406 -0.064635366 -0.2912627 0.2484342 0.0005880507 0.13102145 -0.22152533 0.05530048 -0.27406427 0.24645646 -0.109686 0.32225242 0.06441832 -0.40401974 -0.112742566 -0.006950159 0.23998739 0.18072063 -0.17181091 0.010618233 0.19880542 -0.24526553 0.4289122 0.23013772 -0.15206654 -0.18286732 0.3710955 0.14116184 -0.27442795 -0.19650377 0.016388152 0.2314282 -0.027426884 0.05318372 -0.3475688 -0.057837915 0.09565398 0.1548467 -0.07470419 0.17823784 0.17724225 0.15447134 -0.27184433 -0.30743355 0.020835903 0.24031812 -0.24017057 -0.087640025 0.33138534 0.2883735 0.03964182 -0.19567233 -0.05427537 0.07960725 0.66080415 0.32324237 -0.42294344 0.31178766 0.32593668 -0.35919172 -0.38203615 0.02004971 -0.24623844 0.24929303 0.11287243 -0.10584155 -0.15765704 0.12165937 -0.32682216 -0.2141954 0.113413095 -0.08127529 0.12222441 0.25322616 0.28584373 0.602953 0.17873241 0.21181768 0.5727649 0.24652861 -0.07405276 0.12969592 -0.11709224 -0.031580135 0.1811671 -0.3605708 -0.13362952 -0.04200263 -0.39349514 0.1774835 -0.21489508 0.4127741 0.0260574 -0.2688639 -0.36526674 0.09618674 -0.4975308 0.14634576 0.6302882 0.27551612 -0.5883718 0.35327932 0.31525865 0.013006931 -0.2516248 -0.20142972 -0.12876464 -0.10576518
2148 -0.03885587 0.5276658 0.27318138 0.37057087 -0.10666741 0.028965749 -0.28761816 -0.0649908 -0.053968802 0.18782848 -0.4169817 -0.08151512 0.16029257 0.32638013 0.47876585 0.448153 -0.06934514 0.10680749 0.21896026 -0.064642176 -0.3468553 0.008925167 -0.04703544 0.33058596 0.33996215 0.09776654 -0.15439932 0.07122265 0.035104714 -0.31958702 0.38520995 -0.06773692 -0.105506845 -0.17575414 0.5494407 0.07164197 -0.14285503 0.2880953 0.24821225 -0.099504575 -0.02039723 0.22710943 -0.019510206 -0.32921636 0.19810775 -0.50035214 -0.13242052 0.12963277 0.14641131 -0.06351773 0.38475645 0.19917466 -0.17247742 0.3566759 -0.22068107 -0.27564645 0.3803622 0.026006285 -0.5243036 0.008103035 0.055389162 -0.13433357 -0.09299111 0.10138221 -0.024221228 -0.013006542 0.088999994 -0.45932585 0.17062712 0.20059702 -0.2889651 -0.08031421 -0.07791081 -0.10454491 0.1513166 -0.06331177 -0.2561812 0.29430306 0.08725505 -0.02175825 -0.17706168 0.14063789 0.38488522 0.31678143 0.24033953 -1.0645815 -0.15100062 0.14150715 -0.10699299 -0.5344961 -0.46904048 -0.53764606 -0.11717547 0.014578175 -0.037598476 0.43032405 0.008336585 0.06639404 -0.29168725 -0.013895308 -0.13010673 -0.03377145 -0.50281405 -0.053026833 0.14980769 0.1070477 -0.035436813 0.23109628 -0.13900866 0.19208251 -0.27911964 0.36410215 0.16662605 0.22250603 -0.13964283 -0.18386824 -0.68946457 -0.10025958 0.23784703 0.03604796 -0.38832808 -0.4102571 0.068004444 0.32817653 -0.49444363 0.30117646 -0.16338731 0.047276016
696 0.11949676 0.33782682 -0.5255619 -0.22577119 -0.15599391 0.010671017 0.019169249 0.0010317286 0.38055387 -0.064255424 0.0032728568 0.28749916 -0.19778137 0.028451899 0.0029451917 -0.19608203 -0.011843036 0.35127413 0.06963046 0.10407616 0.21557611 0.16088398 -0.019018814 -0.42124918 0.3623731 -0.097295076 -0.0114302905 -0.06882915 -0.04500252 0.26399848 0.033231877 0.23285384 -0.37231526 0.29289126 -0.42712283 0.47180042 -0.36624438 0.3082505 -0.007717863 -0.34746778 -0.07774614 0.5219236 -0.26308632 0.14565612 0.2861368 -0.4028662 -0.24690065 -0.29798746 -0.1321552 -0.3850775 0.10322469 -0.38092506 0.10542303 0.38586512 0.0004275495 0.096400246 0.5977914 0.1733242 -0.22972034 -0.42446876 -0.19900075 -0.14998977 -0.26834226 -0.5304474 0.20347495 0.076369435 0.23957421 -0.020020941 0.14445108 -0.5248041 -0.0070547485 -0.050566215 -0.3358347 -0.16174048 0.27138364 0.15217978 -0.024813546 -0.27209893 -0.0016095905 0.019102853 0.45838267 -0.6978287 0.1327472 0.3118924 -0.12079055 0.06527757 -0.18214133 0.046224147 0.22448277 -0.12997362 -0.11231862 0.28676414 0.3938506 -0.02258371 -0.09277229 -0.308594 0.22219147 0.31547815 0.6022047 0.046909276 0.22853565 -0.2001295 -0.07027252 -0.09847237 -0.11023634 0.112217635 0.15251847 0.49419194 -0.036624514 0.24818751 -0.14656235 -0.11190396 -0.10482211 -0.16340436 -0.010654918 -0.086923845 -0.5879598 0.14931977 0.54049224 -0.20034778 -0.22541507 -0.2104935 -0.4341874 0.4252502 -0.24259144 -0.11194989 0.020799948 -0.2764687
1466 0.27434063 -0.12166012 0.11883539 0.19153075 -0.287091 0.5223362 0.15224102 0.082348675 -0.035809327 0.4148571 0.12859008 -0.05190581 0.011055041 0.21879461 -0.39837867 -0.01037547 0.3500176 0.2144621 -0.23380905 -0.19949318 0.39107636 0.18639988 0.26632193 0.39240414 0.316341 0.20618269 0.14905858 -0.116528876 -0.08361985 0.6066358 0.21392788 0.046626396 -0.32428432 -0.15714958 -0.0126468 0.26899704 -0.144226 0.49754614 -0.16621114 -0.13385282 -0.14053851 -0.045545366 0.026783908 0.055656053 0.5571824 0.29012284 -0.19667275 0.0104794195 -0.25724235 -0.24827756 0.24309124 -0.2966044 -0.13680232 0.04966414 -0.11426908 -0.35251483 0.53397226 0.098704934 0.1584713 -0.23858212 -0.05504932 0.027312748 -0.54722464 -0.050587244 -0.04916024 -0.2819929 0.33994034 -0.018148324 -0.009029163 0.31496334 0.24949315 -0.026473513 -0.11920063 -0.14612097 -0.23892213 -0.1988462 -0.011624038 -0.286662 0.15418684 0.66620344 0.23432183 -0.55038065 0.0545665 0.1778852 -0.13998836 -0.11347947 -0.05583822 0.46320707 0.12535022 -0.5921639 -0.10214901 0.07315149 0.15229142 -0.17627454 -0.068534836 -0.4302889 0.2834456 0.2757736 0.2786263 0.06206081 0.11843969 -0.3665465 0.33390272 -0.10193832 -0.00438017 -0.3037184 0.09907962 0.13169734 -0.22744732 0.47078213 0.15142448 0.3547482 -0.28226733 -0.14603804 0.119017564 -0.18805867 -0.42578328 -0.043293778 -0.018607479 0.21998875 -0.37153888 -0.3079256 0.2580812 -0.03862562 0.00056009216 -0.105806775 -0.43782258 0.4850808
68 0.009068337 0.17122118 -0.14903459 0.243629 0.019153511 -0.012151648 -0.041514862 -0.09766022 0.08829849 0.31751835 0.046665657 0.18762976 -0.34156114 -0.11106027 -0.08395972 -0.13162254 0.11814722 -0.31437016 -0.3519814 0.012381101 -0.013809578 0.2829266 0.20850292 -0.04876413 0.173853 -0.054367654 0.15993091 -0.19891419 -0.053980224 -0.6206387 0.30712876 -0.23689504 -0.16660462 0.38699976 0.27602667 0.17891495 0.028553424 0.37319028 -0.15525126 0.09106838 0.23685469 -0.10513248 0.43840328 0.15432408 -0.15799671 -0.12132003 0.39316264 0.12780815 -0.11847273 -0.09836799 -0.22248305 -0.2150387 -0.20406668 0.030638425 -0.20911615 -0.15064712 0.31813195 0.09792164 0.2866972 0.5974063 -0.55728817 -0.23362166 -0.056032363 0.31242502 -0.24528103 -0.49838564 -0.11010412 -0.31657898 0.20324343 0.20856966 -0.011660265 -0.5083169 -0.103850186 0.12918013 -0.26228914 0.024606762 0.31151736 -0.04907344 0.2728137 0.2115941 0.23386616 -0.5260953 0.04737225 -0.23871344 -0.5459523 -0.18288685 -0.07186447 0.14632954 0.42289746 -0.34946936 -0.5439301 -0.29637593 0.46888325 -0.16905302 -0.21035865 -0.21378894 0.4190372 0.046213657 0.2803218 0.55832565 0.04985635 0.19288532 -0.04233459 -0.29063457 -0.11708792 -0.27713835 0.20103309 0.13911544 -0.28470486 0.25402752 0.18091446 0.2921463 -0.41791257 -0.119561404 0.1511859 0.2078059 -0.75040424 0.007436158 -0.040045634 0.372362 -0.079474755 -0.035364136 -0.015911829 0.30561423 0.051057067 -0.5145158 -0.069281295 0.052808896
31 0.3859417 0.35865688 -0.0968894 0.34293583 0.09499221 0.16337807 -0.044396218 -0.01122403 0.17314593 0.22904712 0.20157158 0.52460265 0.1780506 0.154906 -0.16789284 0.09122611 0.20744728 -0.24404424 -0.13275598 -0.25444064 0.41485378 0.185986 0.15057054 0.19830094 0.17848098 0.13148615 0.23260738 0.12247077 -0.15551129 0.2480355 0.115604125 0.17737974 -0.006230765 0.00886893 0.107049644 0.11755024 -0.10570385 0.19449528 0.15699719 -0.016831746 -0.19002543 -0.18789846 0.22177157 -0.21181582 -0.39266735 0.055359144 -0.26947471 0.29619244 0.2180741 -0.55062026 0.22558324 -0.3225544 -0.12533922 0.4831493 -0.13589379 0.13061371 0.17612207 0.28278464 -0.11869519 0.09853173 0.20031789 -0.17803217 -0.40729323 0.0042536864 0.16020943 -0.13285355 -0.1416589 -0.75034255 0.06571339 -0.048331432 0.7401346 -0.48695776 -0.00608509 -0.25119388 0.031981286 -0.22160439 0.13526827 0.35640666 -0.06646838 0.026485533 0.14282288 -0.34611556 0.06275085 0.044243675 -0.30971625 -0.089333095 0.15337291 -0.015249258 -0.12596725 -0.032002673 0.3814406 0.00965764 0.32201704 0.20768318 -0.16083018 -0.22763598 0.15117943 0.07494829 0.19432493 0.07631983 -0.06734822 -0.33692068 0.05072012 -0.32977903 0.049535092 0.04363054 -0.17365247 0.5446596 0.26539588 0.1791656 0.122076176 0.1911212 -0.24318108 -0.3641387 0.39473662 0.3811985 -0.16667002 -0.108946875 0.36996338 0.48834765 -0.034288496 -0.12306786 0.4520165 0.019722594 -0.14173727 -0.17987724 0.16510276 -0.19810739
2159 0.3223191 0.05811183 0.13214737 0.30172715 0.053737745 -0.16532739 0.23500827 -0.22525227 0.2251268 -0.034674443 -0.021779848 -0.121825606 0.015253102 0.06954387 0.28692544 0.3708883 0.33190694 0.5749436 -0.27155378 -0.14648433 0.09382846 -0.2824268 0.032360245 0.29188514 -0.101103984 0.39348194 -0.076670446 -0.43543035 0.20756646 -0.35726315 0.008878696 -0.22345199 -0.07332797 0.211355 -0.24477644 -0.027813258 0.30329445 0.42069423 0.020938043 -0.7001918 0.22038923 0.049189042 0.20937634 0.20434444 0.22463533 -0.6004848 -0.26362562 -0.21593006 -0.4465692 0.32857376 -0.056888036 -0.25108448 -0.26489553 -0.10437938 -0.57158506 -0.26174206 0.15023328 -0.13698661 0.2966714 0.34168002 -0.07723058 0.035081964 -0.6112092 -0.55306005 -0.43464607 0.31683743 0.057391677 -0.047920413 -0.34755096 -0.534393 -0.21511844 -0.20582494 -0.27823538 -0.086260356 -0.18232098 -0.086305946 -0.064815395 0.3217102 0.35991153 -0.05691184 0.0037609586 -0.47311217 -0.1832533 0.07880154 0.28204173 -0.29155228 -0.3237804 0.40376052 0.15910436 -0.15739061 -0.139154 -0.017790154 -0.4801381 0.0269309 -0.11089257 0.13985798 0.021159729 0.23475964 -0.047493976 0.28821287 0.29281738 -0.0488263 -0.023948511 0.06732362 -0.095394716 -0.09231224 0.37403256 -0.12434897 0.07558621 -0.05986242 0.30940676 0.35295057 0.07135397 -0.021211475 0.1388509 -0.22299755 -0.4080836 0.0065994775 0.32283983 -0.14754243 0.4414437 -0.14714631 0.013914414 0.27320638 -0.4359332 0.3172496 -0.3938241 0.11928902
1645 0.0058039674 0.33332613 0.066999234 0.38867956 -0.13135143 0.23672429 0.08520546 0.4411276 0.16145882 0.0057993596 -0.08149422 0.2620012 0.07139507 0.43319738 -0.028069831 0.17265733 0.094509415 0.25582463 -0.15686998 0.1133194 -0.46568072 0.047614988 0.24950829 0.29949898 0.38754708 0.36054888 0.030801695 -0.21307644 -0.29391286 0.031543013 -0.048561167 -0.22860317 -0.18460023 -0.18453991 0.18802416 -0.108804405 0.042831685 -0.026348677 -0.14915633 -0.29862574 0.3379637 0.08838075 0.117468 0.2140794 -0.50951993 -0.14446613 0.22968341 -0.18739006 -0.14612545 0.31610644 -0.19358289 -0.42357117 0.016164852 0.48903152 -0.101624 -0.68667406 0.18607883 -0.14257748 -0.74673724 -0.27471933 0.0828635 -0.30559725 -0.24831766 -0.3524942 0.00249408 -0.09244004 -0.18118207 0.018605055 0.10357925 -0.4369674 0.091637425 -0.22783194 -0.34017608 0.18804492 -0.3698439 0.2342258 0.20653419 0.12687208 0.44709378 -0.19998665 -0.2373293 -0.20852837 0.14808357 0.4200945 -0.28091392 -0.6156644 -0.21123344 0.0641846 -0.054795872 -0.08808014 0.08623153 0.097353406 0.3296954 0.046750385 0.59218 -0.12051761 0.010803124 -0.53737634 0.38672057 0.10370847 0.42309466 -0.45677876 0.039226085 -0.1306453 0.16143763 -0.350986 -0.040975165 -0.27924174 -0.15989037 0.20317508 -0.15470254 0.2232114 -0.4192594 0.23166762 0.23457265 -0.026263697 0.22485875 0.096352935 0.25348356 -0.039974302 0.04774703 -0.08462915 -0.3886936 -0.23433733 -0.06909356 0.32151988 0.2947479 -0.3114665
1621 -0.09553294 0.32251674 0.35279015 0.20534568 -0.21705474 0.1369675 -0.026403695 0.16916254 -0.19858249 -0.024371635 0.1689933 0.27317083 0.09660305 0.44270426 -0.2347544 0.35439005 -0.009824153 0.20571193 -0.03138293 0.21724062 0.11004385 0.07550049 0.12672634 -0.07780272 0.30543348 -0.034482475 -0.014335661 -0.14595379 -0.04163956 0.02626416 -0.16674258 -0.31056634 -0.18220784 -0.15297942 0.19277537 0.08231659 0.07200602 0.09850595 0.19802792 -0.19360788 0.42892003 0.26531732 0.1253669 0.026578348 -0.16348788 -0.36584973 0.106516704 -0.40379286 -0.46347442 0.46455857 0.20309174 -0.26409644 -0.18623142 0.21802786 0.1393999 -0.68468267 0.14113739 -0.19739126 -0.3639724 -0.23400183 -0.055432692 -0.29850116 -0.23645635 -0.2982763 -0.08702598 -0.19901468 -0.55462456 0.22160809 0.3307613 -0.40105224 0.123856395 0.075150415 -0.5335381 -0.23508708 -0.29274264 -0.35108262 0.068993144 0.0902412 -0.03723884 -0.3252973 -0.11736955 0.15977901 -0.0030675246 0.35028374 0.25428513 -0.69641536 -0.38644105 -0.13136421 0.5754833 -0.19610819 -0.254088 -0.0117494445 0.2103859 0.1892762 0.23615149 -0.17667225 0.14547497 -0.46240926 0.020136382 0.055522025 0.0018619355 -0.04960368 0.15796936 -0.29129976 0.3323553 -0.0072879344 0.17571528 0.02716326 0.2701223 0.5266418 -0.022038516 -0.015664522 -0.074500054 -0.050161496 0.0039324923 0.12413159 0.29920495 -0.2211236 0.37339428 0.23335092 0.1951802 -0.059360094 -0.4018347 -0.02885791 -0.36029193 0.24399932 0.029063467 0.27051672
1330 0.28105795 -0.33370852 -0.12882765 0.28968 -0.019929644 0.068429306 -0.21735089 -0.085242465 -0.11536311 -0.11582922 -0.010531618 0.14939927 0.042202912 -0.12634769 0.11594169 0.68901944 -0.03372017 0.025952563 -0.12544578 0.4257775 0.050854206 -0.085630186 -0.26654544 0.53072345 0.45631886 0.066759795 -0.11759626 0.13653557 0.1752375 -0.35192856 -0.2048464 -0.13225354 0.29346022 -0.1255944 -0.028617943 -0.22341116 0.30325606 0.36808366 -0.08099861 0.026742661 -0.12433355 -0.07416869 -0.114370234 0.1545056 0.03366733 0.19100723 -0.19850376 -0.031906787 0.29546997 -0.54074913 -0.21031569 0.32104555 0.54371387 -0.005386902 -0.30917922 -0.18614173 0.25687364 0.02144167 0.01003421 0.033213492 0.42305046 -0.00023844701 -0.33763885 -0.18468183 0.15140691 -0.20367067 -0.42427772 0.6508991 0.07099219 -0.054230444 -0.4613815 -0.29732496 0.27364168 -0.008493194 -0.070671216 -0.100908846 -0.1315258 0.32920796 0.23266514 -0.19431019 0.24559027 -0.20356108 -0.0039164936 0.21440104 -0.36438143 -0.37947902 0.30359745 0.26686054 0.05435277 -0.123777114 -0.14379974 -0.16970545 0.17917718 0.3413668 0.33556697 0.19719142 0.29709807 -0.056703895 0.12641117 0.5479793 -0.044366498 -0.033736568 0.028751638 -0.1227792 0.0017951899 -0.32160786 0.43692103 -0.007919336 0.34253722 0.36806673 -0.2639033 0.50871223 -0.09612424 -0.091565676 -0.5572052 0.39855018 -0.8316966 0.21375567 -0.07543368 0.4359345 -0.36534306 -0.042563677 0.29269788 0.026329707 -0.31451452 0.39465177 0.0967637 -0.28911093
2330 -0.12976283 0.28063154 -0.34505138 0.16480169 -0.33405435 0.07163148 0.09874727 -0.11786204 0.026438057 0.016294818 -0.1168601 -0.09256668 0.42649326 0.20463102 0.023093848 0.34753338 0.18405546 0.37386304 -0.059512936 -0.0145768095 0.031761058 0.11263068 0.13555005 0.14934313 0.34915695 0.4313161 0.4034164 -0.109299004 -0.1350986 0.0492581 -0.4269571 -0.4134114 -0.008150044 -0.4007056 0.2716431 -0.07249078 -0.38020903 0.17343944 -0.29776067 0.08016012 0.19434336 -0.24426341 -0.21508792 0.19819124 -0.2508731 0.0055094 -0.28306702 -0.08938278 -0.16340722 0.38161185 0.10151312 0.10709467 0.3242563 0.17903653 -0.18447737 -0.66910475 -0.0006448273 0.14395766 -0.24805011 -0.261069 0.39840403 -0.5643052 -0.1918114 -0.21510671 0.1925537 -0.032995146 -0.21861382 -0.49313876 -0.07187319 -0.3260287 -0.29166728 -0.17297551 0.23416038 0.11366965 0.119616255 -0.20117408 0.22788084 0.17831917 0.2115824 -0.27219522 0.26613855 0.34603763 -0.25705057 0.4028131 0.2095026 -0.5773981 -0.4749997 0.13879636 0.11840998 -0.2122663 -0.41613057 -0.11963345 -0.018924559 0.40976176 0.27563626 -0.062053617 0.19221067 -0.0101291435 -0.062590554 0.4285596 -0.13106449 -0.26615193 -0.001512476 0.026181338 0.1767149 -0.24855658 -0.20131192 -0.1082577 0.20286207 0.026760412 -0.32298338 0.25349617 -0.4687408 -0.3582291 0.3931872 -0.044901993 0.122528225 -0.36115387 0.23411623 0.30255702 0.27737522 -0.23050515 -0.23327912 -0.4008153 -0.1321172 0.057073984 -0.35414186 -0.60409826
568 0.010757642 0.32109568 0.9365231 0.4811864 -0.22281232 0.0029365905 -0.23279767 0.040908083 -0.10561423 0.55152756 0.010177806 0.20237643 -0.24318847 0.3316889 -0.13684626 0.19074354 0.29528633 0.2808613 -0.23816577 0.01022805 -0.08119567 0.5280881 -0.45961314 0.084417835 -0.04603516 -0.28214315 0.014662533 0.03308505 -0.29335657 0.24072824 0.3060871 -0.100601256 -0.19427073 -0.59818065 -0.06292484 -0.35182 -0.77759695 0.18117572 0.01809264 -0.23673527 -0.079697005 -0.22204213 0.44452852 0.28163612 0.0075449934 -0.35989854 0.33614632 0.112374574 0.19521187 -0.354056 0.4159977 -0.3906521 -0.45259947 0.5666683 -0.02114932 0.1547544 0.2344254 -0.0626299 -0.2945384 0.15582788 -0.042203788 -0.33391827 0.018343888 0.13406141 -0.27615345 -0.16458279 -0.12724891 -0.019231794 0.13612175 0.043683928 -0.2970884 -0.34963855 0.14112917 -0.24015354 0.10317684 -0.17763281 -0.009737001 -0.09746881 0.038065452 0.059248533 0.24730866 -0.3610525 0.20169413 0.19154038 -0.22005877 -0.24156442 -0.07775022 0.6942593 0.29005164 -0.44615787 -0.37013352 -0.30793953 0.5843153 0.3492591 0.23791815 0.17961714 0.23783633 -0.1256871 0.0818198 0.04435609 0.016682126 0.3451021 0.10719837 0.078677736 0.11156095 0.03638885 0.3008164 -0.30403882 0.40127653 0.21801877 -0.10083912 -0.042407177 -0.29809302 -0.38022974 -0.43635958 0.13373253 -0.68916667 0.1417403 -0.1786374 0.7505574 -0.379234 -0.1919439 -0.10319251 -0.27026784 -0.20628345 0.38526508 0.1785144 0.4297642
399 -0.020363238 -0.29731053 0.046511166 -0.20208798 -0.32143837 0.13977893 0.08008074 -0.15553251 -0.2924696 -0.10395612 -0.5276289 -0.31484786 0.20128532 -0.06573798 0.03534188 0.06578056 0.08528625 -0.034113638 -0.29713213 0.23233314 0.27319714 0.18820809 -0.10541806 0.19364895 -0.05100282 -0.017418325 0.30040205 -0.36334917 0.030006407 0.08914067 0.056776762 0.3354837 -0.4572014 0.27423817 0.18414232 0.1448403 0.16326995 0.24799536 -0.18178743 -0.18102306 -0.32566077 0.32836747 -0.5010953 0.08385177 -0.16806352 -0.0962202 0.047082234 -0.04538027 -0.28984156 0.1923095 0.6310543 -0.54605395 -0.27299854 -0.0026193643 -0.28623158 0.25198033 0.06557742 -0.06758436 -0.021081919 0.17954767 0.09980313 -0.5306767 0.15264474 -0.24593475 -0.528123 0.38675952 -0.039394237 -0.6848817 0.5097306 -0.13874975 -0.030358134 -0.080654286 0.080643445 -0.5420889 -0.48710576 0.26515216 0.1791632 0.4270444 -0.022675514 0.23785287 0.22209078 -0.02047998 -0.27938908 0.13565148 -0.025246974 -0.08917007 0.04489675 0.20644364 -0.33323896 -0.18530798 -0.37966627 -0.17535293 0.39217177 0.2234105 0.29958737 0.094413504 0.21684359 0.16697414 0.04324122 -0.06926909 0.09289183 -0.60990506 -0.086937174 -0.26662678 0.0877425 -0.055731826 -0.14054939 0.041568466 0.016898511 8.2288294e-05 0.19404724 0.22988854 0.08635752 -0.33463365 -0.063440904 -0.112171784 -0.47699907 -0.12924176 0.0775642 0.123841934 -0.2791007 -0.35648465 -0.059090275 0.15132222 -0.122273706 0.30471227 -0.16576535 -0.28989857
254 -0.24646345 0.22269718 -0.313352 0.017415155 0.27332044 0.13708203 0.14558113 -0.16406749 0.28320763 0.08434349 -0.1796403 0.17309944 0.09746695 -0.2635956 0.39870638 -0.015750956 0.24326417 -0.06060423 0.46613097 0.6357026 0.39233905 0.57407796 -0.24876478 0.2743253 -0.10820714 -0.19824708 -0.14204887 0.46486986 -0.3120855 0.3810021 0.0021462946 0.13281344 0.19488573 0.2185098 -0.33783558 -0.32414398 0.33101895 0.29060057 0.026869528 -0.2793652 -0.15580244 -0.36583966 -0.2876653 0.4798555 0.37944296 -0.00679263 0.058084343 -0.35196373 -0.53368443 0.145989 0.35433418 -0.069977425 0.518813 0.014995873 0.09355726 -0.3797889 0.11436798 -0.27121773 -0.09692513 0.51746356 0.25492325 0.07293845 0.11399145 -0.45252782 -0.3968782 0.036982805 0.08560137 -0.22857314 0.41130573 -0.39472175 -0.10756977 0.45653367 0.20154102 0.16559602 0.012718854 -0.0034925803 0.2341544 -0.114229165 0.26660576 -0.2665025 0.17282079 -0.061824456 0.051945753 0.06508758 -0.2223877 -0.30455732 -0.25538886 0.14881949 -0.031780683 -0.5205663 -0.15136635 -0.20263799 0.2284158 -0.046928957 0.19439556 0.029206933 0.3072192 0.366863 0.326296 0.4978028 -0.33091548 0.0124464305 -0.30742574 -0.058614664 0.22636457 -0.05049201 0.22328074 0.63864875 -0.5667765 0.3831565 -0.13600732 0.17537893 -0.43055725 -0.046325862 0.0750494 0.30015838 -0.16357258 -0.1814402 0.68128276 0.4328056 -0.54066855 0.21969813 -0.106491655 0.31243843 -0.26032424 0.005079113 -0.21920569 0.33114263
1573 -0.38371715 -0.15975888 0.22059093 0.1510391 -0.15925755 0.3326248 0.29509643 0.033715837 0.11773705 0.4035188 -0.4038821 0.20268063 -0.44765028 0.16386525 -0.30632386 -0.3196443 0.72786796 -0.016963333 -0.20046307 0.24980019 -0.028987495 0.10333149 0.22543542 0.062274262 0.5265853 0.3790541 0.3066315 0.16750659 0.13195035 0.25479367 0.09699146 -0.092178755 -0.06097371 -0.20694779 -0.3205536 0.3046084 0.034718078 0.42159507 0.08366039 -0.1907195 -0.25600302 -0.022484249 0.12996973 -0.24220055 0.23952086 0.06401025 0.038074378 -0.15299839 0.26959878 0.12913406 0.18136677 0.18530808 -0.22029115 0.53214645 -0.095892735 0.19423026 0.4314436 0.025204055 -0.02519048 0.24299513 0.35728317 -0.35522282 -0.05920123 -0.27455008 0.16362742 0.196266 0.20844035 -0.08333693 0.024467584 -0.30188257 -0.117610216 0.14881182 -0.16468795 0.3946101 0.07220027 -0.27783674 -0.01838668 -0.22503169 0.14189719 -0.26373136 -0.15723588 -0.568781 0.25053927 0.13146909 -0.38157636 -0.034048893 0.13727215 0.19986828 0.21379782 -0.21984099 0.04161446 0.44752023 0.3855836 -0.4076056 0.4008217 0.04509259 -0.11832304 0.053110745 0.112914406 0.18872482 0.18969291 -0.5171129 0.5187453 -0.6184286 -0.44222292 -0.06775631 0.3315921 0.27548486 0.10120207 0.65812683 0.11937156 -0.13752978 0.04535104 -0.051480424 0.1021198 -0.01677364 -0.3825063 -0.3689674 0.077867195 0.40455875 0.43459624 0.18163325 -0.062367775 0.2934475 -0.37860584 -0.18080911 -0.29405105 -0.05335569
226 0.2737755 -0.06723067 0.6617309 0.11897859 -0.12713356 0.13809553 0.19086552 0.09754543 0.25948095 0.4902682 0.2680569 -0.015420268 0.013005195 0.149034 -0.614845 0.16253778 -0.32290035 -0.11918315 -0.015707714 -0.01367786 0.2868704 0.29131874 0.2300497 0.09337179 -0.10403589 0.18670231 0.13052054 -0.03502898 -0.34646776 0.087719396 0.32737985 -0.01158617 -0.13165884 -0.42371285 -0.1746528 0.26966414 -0.29770678 0.40639853 0.17168978 -0.31460643 0.13048235 -0.25026637 0.05776864 0.12018095 -0.10709054 0.16171013 -0.10857169 0.14241295 -0.04323804 -0.16062881 0.25988567 -0.06965393 -0.19998777 0.03335427 -0.37397894 -0.065752305 0.5771976 -0.4095668 -0.10219583 -0.19118533 -0.17791122 0.10245354 -0.5102931 -0.2073727 -0.14432912 -0.15342754 0.19000866 -0.120871484 -0.14948738 0.53973496 0.67145777 0.30056268 -0.25736734 0.22752875 -0.0031778736 -0.14251232 0.16080686 -0.17677152 0.18839765 0.36975166 -0.009646551 -0.3993717 0.075507924 0.14848223 0.20571388 -0.378307 0.05821934 0.42505258 -0.024477398 -0.55225456 -0.18955883 0.0777963 0.17796206 -0.24180609 -0.27608085 -0.13655983 0.14241038 0.23686087 0.35621014 0.33642945 -0.026435504 -0.17953968 -0.08780285 -0.49675268 0.1014885 -0.10556153 0.20894688 0.076567635 -0.30123878 0.53253055 -0.001688405 0.18130472 -0.5326146 -0.34488705 0.079867676 0.12927945 -0.33100396 0.15609218 0.27701008 0.12190797 -0.20810853 -0.014923506 0.04651834 0.0037144322 -0.24067023 -0.30923656 -0.2725258 0.2088315
493 -0.008780044 1.0465766 0.4521438 0.20919034 -0.023202475 0.23474005 0.03974418 0.13325815 0.15630744 0.51384896 0.3529506 -0.15691571 -0.21195523 -0.13755997 0.119156346 0.35883692 0.0030197548 -0.20651957 -0.24083771 0.17855585 0.31239122 -0.08855637 -0.5009971 0.35166258 0.0145664355 -0.14803787 -0.19092122 -0.2822706 -0.12379462 -0.0090372125 -0.32393602 0.26133215 -0.041895024 -0.053754635 -0.02131441 -0.024424063 -0.08882152 -0.057202324 -0.22583425 -0.17685863 0.17123197 -0.28902942 0.1550474 0.03598691 -0.09988137 -0.12218438 0.024388017 -0.27492157 0.29464525 -0.24522163 0.10069758 0.3821027 0.026633184 -0.07982771 0.103824615 -0.033964414 -0.1847599 0.4055653 0.14006276 0.25850406 -0.14747202 -0.4753502 0.071740955 -0.02618407 -0.2351296 -0.009668769 0.53991634 -0.124873094 0.107820526 0.13020048 0.0663067 -0.14083955 0.4710916 -0.38720143 0.20176092 0.26377547 0.13913943 0.3518152 0.106656164 0.31982917 0.04982649 0.10354112 -0.103093095 0.23725802 -0.08484311 -0.5315425 -0.1264213 0.23493703 0.3001921 -0.21874987 -0.5469576 -0.043523166 0.62400633 0.4146954 0.6674474 -0.11417165 -0.023216603 -0.3295011 0.17391585 0.19071752 -0.15906875 -0.255767 -0.037219666 0.43340728 0.023807436 0.049631786 0.12950826 0.12975304 0.21081215 0.008377813 0.0075976024 -0.012299399 0.5373935 -0.120463304 -0.19693068 0.044693604 -0.53241014 0.03566735 0.31186292 0.38002443 -0.3328353 -0.4894922 0.09927751 -0.027551547 -0.22801237 -0.38685894 0.16010383 -0.31373832
1434 0.055495944 -0.14390735 0.033185847 0.20032391 -0.40405586 0.04607877 0.0014963076 0.028428232 0.12120039 0.32658026 0.04520139 0.3293545 -0.2551356 0.44886303 -0.3468723 -0.13342246 -0.031695925 0.12136847 -0.20190382 -0.009045318 0.46651337 0.3862244 0.1973006 0.047775466 0.6217381 0.120752715 0.13287194 0.11970946 -0.4827522 0.25499746 0.34325105 0.25004742 -0.36681902 0.2945622 0.020425314 0.12967388 -0.31847164 0.3559691 -0.3252111 0.10065427 0.28825212 -0.14182493 -0.008642534 0.032570835 -0.13361546 -0.0091700265 -0.28770718 -0.015909255 -0.009832684 -0.32594922 0.42824283 -0.2665964 -0.16902502 0.28703824 -0.30170357 -0.22454783 0.44955498 -0.28127083 0.42141646 0.2727889 0.123314954 0.043178357 -0.2939973 -0.1603546 -0.107391775 -0.1824309 0.06599847 -0.06692412 0.14413495 0.44365183 0.22376853 0.090201706 -0.111919425 -0.06550694 -0.29806063 0.21927711 0.21664745 -0.5388226 0.23820488 0.46583787 0.28709227 -0.52121824 0.008697565 0.0656703 -0.110433094 -0.28903216 0.17062539 0.12917012 0.23879778 -0.74593717 -0.3219783 -0.09009619 0.08118019 -0.17773758 0.23953356 -0.30682385 -0.17104909 0.42451987 0.39893395 0.27710584 -0.01130283 -0.39404196 0.13320939 -0.20529835 -0.09648015 -0.25255263 0.42172107 0.47375265 0.10706432 0.107888654 0.1384553 0.1425851 -0.5528829 -0.09233003 0.31884548 -0.1265615 -0.40046036 0.13127574 -0.09811115 0.37812817 -0.24064168 -0.08595236 0.411523 0.0970591 -0.22274536 -0.10502276 0.1901264 0.38931262
1646 -0.06532659 0.34155655 0.124015905 0.20878848 -0.025347127 -0.19559419 0.16959253 0.06596851 0.119176 0.18406224 -0.007556425 0.12156784 -0.21909447 0.091359675 -0.014308556 0.23962174 -0.09186957 0.61473686 -0.038617615 -0.07567427 -0.20512179 -0.09453224 0.42673323 0.28668803 0.2407942 0.39274517 0.11722125 -0.21245849 -0.32206064 -0.03470639 -0.3263638 0.21944654 0.109975606 -0.21209693 0.110086024 -0.051912125 0.38704765 0.1289772 -0.11217827 -0.22394194 0.08804571 0.060709585 -0.2931879 -0.044758826 -0.4102606 -0.24923253 0.19248237 -0.43039155 -0.31935304 0.34503263 0.31592306 -0.17173973 -0.033388622 0.39352986 -0.38546148 -0.77029586 -0.06085288 -0.3827446 -0.53319186 -0.21479139 -0.13127264 -0.3123047 -0.0029237045 -0.27715978 -0.21822034 -0.25140885 -0.2876751 0.12593324 0.15071627 -0.22184695 -0.14341697 -0.23039582 -0.28120935 0.045178838 -0.20327713 -0.16514052 0.1133472 0.034486406 0.0735249 -0.451535 0.045726106 0.10796779 -0.04134464 0.5398323 -0.21619545 -0.708067 -0.21059145 0.2060169 0.097403534 0.19680898 -0.18325359 0.19375195 0.42446595 0.07072933 0.6168329 0.08498607 0.022050554 -0.56066626 0.16301554 0.43147215 -0.012033497 -0.42321944 0.33527532 0.13797747 -0.08023311 0.11769423 -0.039686687 0.037575223 0.18549992 0.47642475 -0.21959555 0.26995683 -0.2766854 -0.17084222 0.06914144 0.03527921 -0.072025366 -0.31258285 0.2989825 -0.05905925 0.42432544 0.026880378 -0.3628148 -0.2626019 -0.26713267 0.15712397 0.20571999 -0.04827409
1832 -0.32395846 0.023477405 -0.2062435 0.0873832 0.05486821 -0.039363857 0.2023639 0.015814995 0.15590951 0.06588783 -0.006657053 0.21987516 0.67581487 0.7136124 0.034368463 0.27710965 0.09419189 0.19443454 -0.433642 0.2586065 -0.101230845 0.49212715 -0.06769108 0.09124562 -0.3062078 0.57953894 0.22069827 -0.17965077 0.28702462 0.15999223 0.24223915 -0.2680866 -0.09195061 0.31354904 0.24520932 -0.14961764 -0.07475232 0.20469229 0.3155253 0.0047906996 0.023080684 0.008175301 -0.0257884 0.38129252 0.17225653 -0.15753405 0.4206274 -0.14588629 -0.42347282 -0.32659927 -0.27591595 -0.03189911 0.1663653 -0.459076 0.011207548 -0.082215 0.14930171 -0.115705706 -0.08318823 -0.2767242 0.15184674 -0.06955168 -0.29500112 0.034864135 -0.32794905 0.4401686 -0.12194182 -0.120560855 0.13169494 0.021531142 -0.116147734 -0.28893057 0.049457792 0.054412995 -0.104858525 0.032712508 -0.15396138 0.03678047 -0.58526254 -0.27380484 0.2514721 0.13299516 -0.16547339 0.32478768 -0.46531054 -0.51523465 -0.122945644 0.15377913 -0.2703284 0.05267588 0.12665983 -0.29546872 -0.32930094 0.06852874 -0.1108468 -0.43396416 -0.06163434 0.14541544 0.23538704 0.09674079 0.14543048 -0.31092247 0.03837212 -0.18927397 0.157744 -0.06624054 -0.44043055 0.25819167 0.20303577 0.4897787 0.06432361 -0.1637587 0.20455807 -0.18566003 -0.12824063 -0.1430209 -0.6964316 -0.1352134 0.19585761 0.91651917 -0.11471676 -0.2370912 -0.03645283 -0.34128892 -0.2269623 -0.10284761 -0.14744559 -0.011890173
464 -0.10283265 -0.23001964 0.06776254 -0.31498212 -0.32134816 -0.23133752 0.24241358 -0.14624187 0.2403429 -0.5050108 -0.09288995 -0.06679636 -0.08008912 0.31394988 0.08969653 -0.009783526 -0.28827372 -0.23377958 0.0048318678 -0.27616888 0.12160345 -0.15658377 -0.09870063 0.23111625 -0.30151847 -0.21876669 0.07386308 0.2802931 0.10402055 0.035861798 -0.1665463 0.3193315 -0.18442309 0.29614758 -0.3339533 -0.073593825 -0.26833445 -0.17101358 0.20720476 0.070823275 -0.04218574 0.4017112 0.21277364 0.10208327 0.28359538 -0.37008774 0.28057858 -0.17266501 -0.44153297 -0.16438161 0.3175186 -0.022893617 -0.18272443 0.19153112 -0.20858724 0.014808598 0.40325525 0.091712065 -0.103631675 -0.42724693 0.12287576 -0.13922946 0.013185818 -0.44139498 -0.2868367 0.124317326 -0.34092104 0.051817153 0.13712162 -0.31652957 -0.19860119 -0.11569016 -0.15804362 0.057847966 0.18085347 -0.13003372 0.14953402 0.2726094 -0.062485803 -0.51806945 -0.115087986 0.06977769 -0.22486815 0.13261093 -0.7830999 -0.96022403 0.08562598 0.1937742 -0.08248167 0.018527057 -0.15710883 -0.0695739 0.2657387 0.25068694 0.1661902 -0.34495553 -0.23033535 -0.095340826 0.19290267 0.13828959 0.20112216 0.086537175 -0.1422144 0.0061167157 -0.013788263 -0.42999923 0.19715387 0.08843718 -0.15538183 0.17283937 0.024801802 0.19558677 -0.119888455 -0.19946443 0.41038206 -0.6894989 -0.5486003 -0.29886594 0.19547631 0.48726135 -0.5541279 0.026472056 0.32470942 -0.10999638 -0.2096652 -0.32813844 0.01662787 -0.34066007
2197 -0.083684586 0.45145836 0.10633261 0.025863769 0.11314451 0.28199396 -0.25520533 -0.052737206 -0.03677115 0.44612837 -0.2500316 -0.007318362 -0.13282102 -0.01018476 0.5851892 0.45057228 -0.23317464 0.11467797 -0.10730434 0.017515093 -0.29429027 -0.118857175 0.036968168 0.09437236 0.072267346 -0.04884717 -0.07190312 0.1761683 0.22492571 -0.52175075 0.30602917 -0.0029126003 0.18637837 0.04391114 0.30587205 -0.0024033163 -0.013721731 0.29631063 0.24285583 -0.12568145 -0.10264201 -6.19898e-05 -0.123569176 -0.078279436 -0.29748094 -0.5466924 -0.1897632 0.018798215 -0.38610432 -0.27454168 0.5118892 -0.003261512 0.03862894 0.27512684 -0.13765779 -0.21668094 0.401062 0.35639372 0.008145738 -0.24975757 0.16183364 -0.6555501 -0.34138215 0.12886034 -0.097328365 -0.063936196 0.23533389 -0.34750542 0.24837804 0.26308534 0.014206624 -0.3266209 0.12562598 -0.33759344 0.1541734 0.08653752 -0.067134626 0.33225903 0.10407912 0.120643355 -0.33247715 0.097438276 0.20351446 0.11235519 -0.04795397 -1.0231302 -0.5337033 0.15611978 -0.04522569 -0.2109072 -0.46310928 0.15853052 -0.2146931 -0.052218627 -0.07943215 0.4012584 -0.10197279 0.059013788 0.0895949 0.08302635 -0.074232824 -0.0156200975 -0.15151446 -0.07289966 0.1859317 -0.14659733 -0.40353048 -0.04823768 0.1502075 0.16884296 -0.06414563 0.23832561 0.045873538 0.1668221 -0.24952248 0.096924305 -0.52027756 -0.072337076 0.23448578 0.2874689 -0.45446068 -0.06700725 0.1581284 0.12182082 -0.523961 0.55723083 -0.36617824 0.03995432
1264 0.26414564 -0.24178776 -0.06991079 0.48168498 0.016225476 -0.16535614 0.16174565 -0.21862794 -0.17685364 0.04207625 0.2714961 0.12025681 0.13923675 -0.2788394 0.08429402 0.50124043 0.13062002 0.046856444 -0.18895294 0.44457164 -0.05767537 0.09312072 -0.47187558 0.57900524 0.040790528 -0.118612505 -0.14729707 0.151736 -0.0819056 -0.271808 -0.29322618 0.11315581 -0.16170345 -0.12359951 -0.2588216 -0.22560917 0.3128092 -0.10592071 -0.19975455 -0.2544566 0.027678724 -0.20856182 0.033473004 0.31156936 -0.05869979 0.17925449 -0.12128299 0.02221425 -0.21272409 -0.48504362 0.22228017 0.39962044 0.24876487 0.06675108 -0.055461485 -0.33664748 0.356666 0.007366468 0.30333954 0.56510836 0.5712092 -0.2008423 -0.47462663 -0.46165627 -0.13310674 0.12228263 -0.31653735 0.02476846 0.35288876 -0.26901004 0.15654595 -0.1800022 -0.29563826 -0.07646965 0.26646337 -0.13674499 -0.07226288 0.45402592 0.45666495 0.098606326 0.29557827 0.07575389 -0.24291286 0.22582245 -0.3025257 -0.50726706 -0.06598754 -0.010788802 0.08734398 -0.23581228 -0.035808437 -0.08138142 -0.14677793 0.5319897 -0.15537202 0.30392772 0.27672115 0.11477848 0.10332012 0.34534565 -0.47760338 -0.4080958 0.1358623 -0.11615217 0.06068777 -0.56527275 0.47364905 0.20900029 -0.03556333 -0.00021541287 -0.08670258 0.5764025 0.006963507 -0.43007654 -0.85130966 -0.21915427 -0.3319951 0.5220358 -0.03844128 0.677518 -0.18388477 -0.14656828 0.064514704 0.055777576 0.095646404 0.04605253 0.21039906 0.09489426
1540 -0.18106867 0.29259714 0.22588685 0.37447453 0.17729685 0.3391805 0.49766356 0.10777351 -0.13400681 0.3469555 -0.17718609 0.11597551 -0.12402756 0.1671119 0.14495473 0.06183533 0.22184409 0.15160422 -0.0814884 0.041207504 0.13804899 -0.22931741 0.07977273 0.19899137 0.36812022 -0.3115674 -0.21362326 0.108293496 -0.036332496 -0.22997536 -0.07497192 0.12300588 -0.2822561 0.07387239 0.3252059 -0.5907345 -0.12230015 0.4562537 -0.19300972 -0.43251416 -0.21775503 0.49697214 0.07161183 -0.16949047 -0.019498494 -0.21242008 0.044910382 -0.1687781 -0.053427756 -0.32579774 0.55689305 0.038624156 0.042166583 -0.07373594 0.21814583 -0.15690951 0.23786338 -0.32509032 0.05236416 -0.21098517 0.078267336 -0.12569246 -0.12428808 -0.17891596 -0.35127863 0.079647 -0.012167826 -0.21878424 0.17054673 0.2689139 0.13128638 -0.4562699 0.3397629 0.13130629 0.32312948 0.06463126 -0.0025164236 0.37500197 -0.09154822 -0.026795052 -0.57627195 -0.060708713 -0.47085 -0.06489708 0.0627784 -0.56008464 -0.2427449 -0.021625465 0.18261606 -0.47169834 -0.10945624 0.13746321 0.12979537 -0.022210369 -0.08854717 0.26476532 0.0045200135 0.042323343 0.13831648 0.3005265 0.01195121 -0.031926963 0.056668203 -0.16669913 0.29680464 0.20759755 -0.35368887 -0.08139902 -0.09795123 -0.0026546395 0.00043388866 0.28003496 0.0056680557 -0.41796142 -0.27149922 0.04437991 -0.5570769 0.14684953 0.38639182 -0.13551372 -0.25602147 -0.05389426 -0.013401822 0.048465263 0.09500927 0.12959611 -0.17122474 -0.2534684
1654 -0.027757354 0.10045146 0.35723487 0.3610636 -0.31249705 -0.18558277 0.074348554 -0.18437746 -0.07252901 0.0767917 -0.010766335 0.19837815 -0.16373532 0.44225127 -0.0251647 0.22161612 0.26042596 0.23274672 -0.20666093 0.26787916 -0.29717076 -0.23556554 0.2070405 -0.026282245 0.41493857 0.060007844 -0.086869836 -0.097525276 -0.20963278 0.06520368 -0.3074643 -0.1749354 -0.15915261 -0.16485165 0.031092048 0.0013384656 0.04309381 0.1561644 0.2657357 0.14337085 0.22940901 0.031235605 0.07504396 0.22999412 -0.23134229 -0.29699185 -0.36635226 -0.29850253 -0.14471623 0.41221535 0.09792089 -0.24849188 -0.21690226 0.11118358 0.0059406594 -0.55152136 0.58285004 -0.43604982 -0.53890103 0.099976525 -0.16213763 -0.27024254 -0.08939704 -0.28702557 0.003346025 0.0104101915 -0.49412787 0.22130167 0.1557442 -0.33244348 -0.22356594 -0.061070453 -0.36327833 -0.17644961 -0.5114391 -0.23303668 0.24765456 0.50498426 0.013383832 -0.4159752 -0.23960045 -0.10889327 -0.15308517 0.27567002 0.14042209 -0.6189373 -0.29662788 -0.37022528 0.065071955 -0.12701298 -0.14996499 0.08269069 0.20639743 0.31374535 0.14672485 -0.0026944338 0.33532456 -0.43056887 -0.029131172 0.118776046 0.072483264 0.0090674255 0.11264745 -0.07660465 0.16447134 -0.12984997 0.10417444 0.08025248 0.122181006 0.43060905 0.09351885 -0.0146031305 -0.24540187 -0.22679554 0.07387721 -0.015974695 0.1267276 -0.38082016 0.55954814 0.16018476 0.4189874 -0.050391838 -0.39944205 -0.032106865 -0.46705547 0.10173019 -0.0687171 -0.043134227
3 -0.21810468 0.19162424 -0.017373115 -0.035292733 -0.35746962 0.12834635 0.18826509 -0.07671564 0.19245575 0.27304417 -0.20495874 0.19161357 0.2748351 0.54958653 -0.10214828 0.54507697 0.028186569 0.34929764 -0.28050208 0.09071323 -0.121913195 -0.1884071 0.18927588 0.23908427 0.5916244 0.06731589 -0.12463086 -0.16590117 -0.10495646 0.29368198 -0.38739005 -0.027006002 0.018790253 -0.12413161 0.23759815 -0.11102818 -0.01902936 0.16443612 0.17758423 -0.09466357 0.26006192 0.1325915 -0.077185646 0.11953267 -0.31160173 -0.10760135 -0.33200535 -0.358887 -0.48010015 0.4174679 0.18871576 -0.1669182 -0.14288612 0.019929523 -0.21305755 -0.49829626 -0.06962311 -0.24677432 -0.64178526 -0.15583538 -0.17151798 -0.29951409 -0.23956247 -0.081621535 0.07656279 -0.30022418 -0.49692237 -0.09074749 0.087482445 -0.39168444 0.082792856 -0.0051450105 -0.363537 -0.15052901 -0.29749578 -0.10968565 -0.07969126 0.2416371 0.026447339 -0.26276007 0.0041491804 0.123103455 0.108939976 0.30036783 0.13037392 -0.5914432 -0.51056474 0.046605922 0.34940132 0.16041692 -0.5224773 -0.044230912 0.13693605 0.11040153 0.40645975 -0.19111434 0.19347815 -0.34944093 -0.21300638 0.4141644 0.02360922 -0.01883056 0.15490143 -0.08716113 -0.029059805 -0.2937091 -0.0853611 0.18553123 -0.02351369 0.11924593 0.1356174 0.057749532 -0.23324294 -0.07238447 0.22970013 0.2052499 -0.0023224156 -0.10497909 0.49155068 0.21440634 0.42816713 -0.19010581 -0.2426301 -0.11394918 -0.11438749 0.25264025 -0.074105434 0.082892574
397 -0.42202583 0.17667815 0.27569947 -0.00081617 0.097831376 -0.07673329 0.5039331 -0.3581495 -0.07291766 -0.3304451 0.11179154 -0.11931306 0.640984 0.1965418 0.20933174 0.16630945 0.14218616 0.13563523 -0.14033106 -0.058620736 0.1470183 -0.16255222 -0.022581482 0.0027516207 -0.1522879 0.035044145 0.1129701 0.092770204 -0.30792287 0.49519026 0.2134725 0.0419565 -0.23685049 0.2767302 0.20891902 -0.022748195 -0.023910027 -0.15329933 0.23445876 0.2057341 -0.22154635 -0.2535766 -0.22989777 0.0737043 -0.3551595 -0.10852353 0.30168355 -0.118604384 0.12987494 -0.057341874 0.3206534 -0.41328073 -0.4432114 0.5545395 0.037376218 -0.05314788 0.112876326 -0.44988763 -0.57604235 -0.22612023 0.025928373 0.0111480085 -0.1842059 -0.0776807 -0.2139002 -0.3122388 0.11656653 0.07639484 0.06922118 -0.20889089 -0.28435698 -0.3170735 0.14279766 0.02689331 0.051754728 -0.17677432 -0.03879004 -0.11338555 0.025745753 -0.44583026 0.26135454 0.030643703 -0.4994243 -0.19679923 -0.7666339 -0.29635617 0.00079503737 0.26859167 0.09170222 -0.115002275 -0.23083673 0.03916226 0.34485784 0.21276489 0.09313006 -0.017535798 -0.03430486 0.22658668 0.102205515 -0.11496366 0.29644164 0.046852075 -0.37056306 -0.22314158 0.18685327 -0.28205985 -0.090488605 -0.103312895 0.035408814 0.22968327 0.19559579 -0.015519713 -0.091405295 -0.12486812 -0.027773598 -0.09219212 -0.7306431 0.08307212 -0.13111822 0.45457852 0.063969694 -0.21858074 0.7379774 -0.23841907 -0.296175 0.10764457 0.010615556 -0.19736813
277 -0.21283999 0.16121705 -0.06462914 0.15626638 -0.1419591 -0.08898357 0.25979027 -0.25082955 0.09481082 -0.034819968 0.075994715 -0.046060137 0.25273246 -0.040559623 -0.019069068 -0.058781788 0.4089246 -0.49681115 0.088919945 0.25760657 0.1408 -0.20180768 -0.33987433 0.42917573 -0.4481134 -0.11480137 0.08475368 -0.069905095 -0.2634715 0.44166186 0.41180968 -0.07551872 -0.23803034 0.06261792 -0.23625483 0.35247004 -0.1720004 0.48571885 0.019144371 0.09273607 -0.12783599 0.012562366 0.21889225 0.20487128 -0.05801756 0.28359976 0.2713591 -0.18716177 0.08780971 -0.09268228 0.15835072 0.07395832 -0.12254755 0.086371064 -0.23660348 -0.09956373 -0.0023022061 0.022837885 0.06348938 -0.046342578 0.20497163 -0.23432879 -0.32189736 -0.29554477 -0.035488684 0.15804957 -0.22938341 0.042886525 0.54683393 0.20500825 -0.1362166 -0.09738972 0.47538292 -0.09973942 -0.35932568 -0.17036697 0.0048824074 0.37650397 0.16572672 -0.3333668 0.31088203 0.15875451 -0.0877459 0.33050743 0.014178526 -0.102662966 -0.090576805 0.27621108 0.0018824904 -0.3135507 -0.4643726 0.1949723 0.28916374 0.21837567 0.27314624 0.31225997 0.3889933 -0.06552489 0.32265094 0.03991372 0.264845 -0.010928164 -0.34026456 0.072761536 0.3412144 0.25416633 -0.17502955 -0.0978547 -0.06567974 -0.009974665 0.36327782 0.04408747 0.08746588 -0.010038781 -0.17515966 -0.08813528 -0.46036115 0.058633555 0.47740668 0.09464034 -0.041232027 -0.33821446 -0.09225995 -0.20527688 -0.40441355 0.16586776 -0.30105382 -0.13353297
1443 0.08757434 -0.16401432 -0.01963084 0.36443797 -0.08715879 0.06740924 -0.15803552 0.06761716 0.18431668 0.40023986 0.060610317 0.3638024 -0.055494618 0.22790995 -0.34639472 -0.029837245 0.16762319 0.4581422 -0.17133805 -0.36286992 0.5796516 0.21832348 0.10597066 -0.06051383 0.48096266 -0.06744829 0.020966258 -0.09121686 -0.40419748 0.055969525 0.064842105 0.013075684 -0.33309406 -0.15721627 0.18367933 0.36195505 -0.099098176 0.5499904 0.0204357 0.26047257 0.26112762 0.03384576 0.3754708 0.2676273 0.18835899 -0.09549118 0.057496022 0.14236178 -0.015522624 0.009850049 0.22412215 0.03622019 0.25489172 0.19304447 -0.21305525 -0.15164115 0.3355779 -0.02103276 0.106551684 0.005668989 0.26034555 0.010867439 -0.25210685 0.24535827 -0.36195242 -0.52119935 0.07805186 -0.14109148 0.03356446 0.5715347 0.36199266 0.11951083 -0.24101731 -0.11564562 -0.18112953 0.2040649 0.09481704 -0.5091114 0.37437516 0.46788964 0.12174783 -0.61878955 0.26080236 0.14610432 -0.026971322 -0.2621769 -0.19977723 -0.009469313 0.30353752 -0.3874409 -0.19848123 0.15952349 0.094509475 0.10095181 -0.06397586 0.20217639 -0.3209281 0.4060424 0.2781366 0.11577597 0.33208108 -0.35212788 0.43851227 -0.20395182 -0.14690845 -0.45747742 0.32096365 0.6958921 0.07654257 0.17705406 -0.0023891137 -0.085695714 -0.48584348 -0.06874356 -0.020968007 0.23918737 -0.23790456 -0.08688923 0.33404604 0.66221726 -0.18593301 -0.36824656 0.12803625 -0.2885153 -0.014722262 -0.30390036 -0.009623957 0.1339844
