2708 128
35 0.10983132 -0.14224514 0.011786751 0.13963512 0.15230715 0.07849922 -0.06270787 -0.11159682 -0.6135574 0.29499733 -0.04565979 -0.28211844 -0.15135567 -0.10475714 0.2654322 0.17829971 -0.38747028 0.010126031 -0.46253553 0.18847159 0.1872908 0.075839914 -0.4315549 0.38491684 -0.12967168 -0.2071768 -0.07770388 0.0087467125 -0.1716787 -0.38857225 -0.46570128 0.86096835 -0.09931768 -0.25763008 0.34810126 -0.16495162 -0.1070691 -0.08176682 -0.063004576 0.3189432 0.3232577 -0.04566523 0.40522426 -0.013994679 -0.5011112 0.16584289 0.16798954 0.12757947 -0.26216128 -0.15366094 -0.15743147 0.2338923 0.11471256 -0.17829661 -0.08332535 -0.21553527 0.14295381 -0.07937797 -0.19507939 -0.10227886 -0.2149525 0.44782245 -0.400344 0.25350288 0.06248597 -0.0072372174 0.0069475197 -0.47116295 0.31359866 0.32527354 -0.21496376 -0.20683305 0.16470887 0.4552415 0.012362086 -0.118996926 -0.6546499 0.04409482 0.18011208 0.4956909 -0.11011151 0.017269416 -0.33284536 0.18124825 -0.1826313 -0.034744766 0.06791997 -0.078922406 -0.2349497 0.19856587 0.38545576 -0.24374601 0.110672735 -0.03896326 0.060734972 -0.3991069 -0.05347065 0.08762192 0.05936024 0.08557504 0.21551654 0.41429746 -0.14727905 -0.097137436 0.15143482 -0.117538236 -0.018024627 -0.19609444 -0.09054555 0.17731695 -0.050436355 0.38000137 -0.04257618 0.03347729 -0.31091836 0.2014908 -0.07420468 -0.50256526 0.4065592 0.05450581 -0.44316906 -0.045580953 0.0012723582 -0.023202874 0.28939968 -0.11798922 0.12785512 0.43493235
1365 0.25683776 0.33367792 0.1218643 0.3589696 -0.15235798 -0.09019188 0.33128342 0.1410739 -0.16241367 0.08988289 -0.44596222 -0.0039799158 0.24330781 -0.45122993 0.3027793 0.46286008 0.11192538 0.10451737 0.029457463 0.1939922 0.17193265 -0.036172524 -0.08838251 0.2123121 -0.21001822 -0.3911186 -0.20792204 0.6538374 0.41939908 -0.18067192 -0.2164021 0.5496219 0.15672716 -0.036817845 0.02936122 -0.011535005 0.052718926 0.36447033 -0.012870354 0.47008047 0.30480742 -0.491795 0.28868246 -0.32364568 -0.2577325 0.19552992 0.21852909 -0.4660738 0.22036818 -0.4776856 -0.31514966 0.031032348 -0.016889771 -0.14963019 0.0073415204 -0.119472645 -0.39456767 -0.13244392 -0.2532011 -0.20716661 -0.14770043 0.289595 0.18195373 0.6492804 -0.086460225 -0.2215914 0.08222919 -0.14708985 0.09578854 -0.024785528 -0.05838801 -0.09951886 0.15639655 0.04322184 -0.13382773 -0.33925512 0.049487717 0.31302392 -0.10727641 0.5258116 -0.3969609 0.26793674 0.0032650619 -0.34143063 0.47928554 0.12392813 0.391566 0.3000108 0.0046874005 -0.15210068 0.106879994 0.097554766 0.07369321 0.041510973 -0.08698361 0.1939942 -0.116100356 -0.18361136 0.3335475 -0.17026794 0.2771325 -0.1578054 0.44671544 -0.011102447 -0.008493114 0.26309153 -0.093950704 -0.5120689 0.3748474 0.011628298 -0.27080977 0.10321678 -0.19612543 0.08705623 0.4381679 0.17954168 -0.41846865 0.122771434 0.4899326 0.23243935 0.05777319 -0.24564922 0.33499607 0.114617735 -0.044757146 -0.028873304 0.52459496 0.3629296
3229 -0.15120395 -0.04586217 0.19512112 0.19912326 0.038107682 -0.15251444 0.5043708 -0.19357914 -0.46864212 0.1167523 0.030449968 -0.074327104 0.35370368 -0.4316528 0.17963333 0.24328282 -0.37877277 -0.0854937 0.07276225 -0.17367849 0.55781716 0.4238318 -0.08105292 0.140709 0.22808488 -0.10924486 -0.14171734 0.041147824 0.30512008 -0.18910407 -0.2904612 0.2131214 0.2802901 0.012237843 0.40462926 -0.11980232 0.038208827 0.06824696 -0.029854726 -0.05681079 -0.17327248 -0.26743168 0.19941056 0.0071712453 0.039563652 0.031852845 0.07118619 0.0873919 -0.0037270356 0.05871357 -0.41547683 -0.3054722 -0.32216606 -0.31004485 -0.035793915 -0.38754576 -0.20789161 0.024660032 0.12128971 -0.17376667 0.17019565 0.12411902 0.19524135 0.17557243 -0.16717198 -0.09059617 0.06582457 -0.62328035 -0.01089631 -0.10111831 0.16683741 -0.38910437 0.08095935 0.27604446 -0.019874979 -0.21440732 -0.5077523 0.13104841 -0.5545804 0.25616094 -0.5391065 0.11847149 0.38257173 -0.014469144 0.35123432 -0.3003649 -0.06660237 0.25138757 -0.28213346 -0.013106157 0.042178284 -0.07085779 0.08866622 0.37676254 0.16668062 0.29115742 0.09669718 0.1060982 0.209349 -0.11071226 0.27574396 -0.19167545 0.3185443 0.17337082 0.20263918 0.07116741 -0.38120052 -0.2832688 0.07690348 0.022702388 -0.338866 -0.123441175 0.06459475 0.4199333 0.44729775 0.18117031 -0.2379026 0.017683709 0.8112951 -0.09099725 -0.1705868 -0.31754076 0.13266692 0.008413082 0.14308554 -0.54502594 0.46276432 0.21105698
6213 0.46018952 0.15203916 -0.06563105 0.26249292 0.14968565 -0.09032643 -0.13738988 -0.24355823 -0.20178519 0.5284931 -0.19583432 0.44401968 0.3948815 -0.3127189 0.1460181 0.6716883 0.23794723 0.22984275 0.1290137 0.06352151 -0.036806136 0.34784895 -0.2809883 -0.12839055 0.15523075 -0.118122205 0.2063767 0.34792727 -0.5783819 -0.116944626 0.39996225 0.5411329 0.22405414 0.3265 0.18603957 -0.12319612 -0.040138487 -0.06528642 0.08588072 0.05725343 0.35503376 0.06666393 0.46277046 -0.37969658 -0.17662036 0.13091147 0.2867578 0.13705388 -0.025420992 -0.24848099 0.090664834 0.19123438 -0.057310622 0.12550579 -0.06458143 -0.07309984 0.008265192 -0.23838855 0.20388214 -0.23842765 -0.03307205 0.34984168 0.39624497 0.25719595 0.11403712 0.1554024 0.11140151 -0.08884894 -0.04324589 -0.034954537 -0.3931159 -0.2604121 0.049882047 -0.064541556 -0.0979869 0.17978378 -0.2593484 0.12187424 -0.17462048 0.43101948 -0.12591483 0.46555892 -0.22893953 -0.021519432 0.046105955 -0.42446682 -0.019088482 0.12669165 -0.21135634 -0.5412703 -0.11347267 -0.4467332 -0.23040457 0.0629715 0.14409469 0.5203014 -0.11723919 0.562134 -0.09640386 0.048956614 -0.12535101 0.021430189 0.21305385 -0.07223398 0.42486146 -0.1549958 -0.058957208 -0.30569226 0.06776154 -0.10506799 -0.10788197 0.19889468 -0.13771874 0.59767705 0.26745534 0.33850256 -0.43073118 -0.5207049 0.19384554 0.51801145 0.0034684553 0.22806342 -0.27034146 -0.3061952 0.39931554 -0.15376453 0.120896704 0.5637374
910 0.16777815 -0.10764573 0.123197794 -0.07187852 0.012710587 0.002378452 0.29510418 0.016165726 -0.16466083 0.10456007 -0.81962645 -0.20358193 0.36169958 -0.3112647 -0.06584656 0.26059452 -0.3301423 0.04571921 -0.022045914 -0.06549472 -0.03996658 -0.32886264 0.25629172 -0.12176632 -0.17490184 -0.641319 0.025640165 0.42884606 0.13200581 -0.20809935 -0.11194906 -0.0077249575 -0.35111892 0.15415081 0.15193233 0.40370685 -0.23815605 0.25361174 -0.00049817143 0.523279 -0.2408345 -0.25974363 0.341755 -0.476041 -0.25603783 0.21764089 0.3149064 -0.51321405 0.28422084 -0.379452 -0.101476 -0.19511305 -0.32933873 -0.04508152 0.034218464 -0.90735126 -0.4797779 -0.06629143 0.28068402 -0.12468668 -0.40610284 0.15987305 0.00042526392 0.005427116 -0.35185084 0.121103905 0.14919493 -0.122939214 -0.25854805 -0.78885424 0.05090443 0.1033158 -0.10236225 -0.064942636 -0.187932 -0.09305587 -0.38241968 -0.029261352 -0.26145035 -0.2106668 -0.18652804 0.20058376 0.043314215 -0.35343748 0.03746304 0.0087798685 -0.12903322 0.30516934 0.15180402 -0.4088021 0.12636611 -0.031282667 0.13667253 0.1412619 0.047139384 0.17686565 -0.32590508 0.22899568 0.3275674 0.22375013 0.086301155 0.4886874 0.19550599 0.25787267 0.21027306 0.4113905 0.098308526 0.043614853 0.4693617 0.046629235 -0.27779844 0.040080383 -0.14269383 0.0059714317 0.34224668 -0.024967931 -0.3749219 -0.37455153 0.64520913 0.16139999 -0.09573478 0.22027782 0.2350983 -0.43665963 -0.059431687 -0.27363357 0.6361146 0.44198212
114 0.40085575 0.29320115 0.06948969 0.2610341 0.056379743 -0.06868516 -0.37426347 -0.056690805 -0.4805337 0.5704005 -0.2243962 0.17566203 0.18996945 -0.16882761 0.07465375 0.9341545 -0.1950238 0.012083757 -0.14930992 0.19934174 0.06881531 0.30084854 -0.37460563 -0.20236734 -0.37017 0.09659653 -0.19844505 0.24981345 -0.34640834 -0.24971074 0.109930076 0.52018267 0.43996677 0.21112312 0.28471857 -0.28025964 -0.37950334 -0.3964908 -0.07982694 0.25096118 -0.049277723 0.15859511 0.51208174 -0.41640437 -0.2837705 -0.04472259 0.11039654 0.046653952 0.2870989 0.1962259 -0.17110497 0.12768988 -0.4187063 0.3841027 0.4366234 0.07952513 -0.49787754 -0.47182122 0.1789386 -0.2894571 -0.3965254 -0.04381986 -0.05049236 0.31421804 0.19194737 0.12573098 0.5291726 -0.02890452 -0.008269625 -0.28592232 -0.4932233 -0.25104627 -0.00656487 0.0026073845 -0.23421462 0.05227023 0.024988037 -0.036476266 -0.1680676 0.16857457 -0.2177648 0.22713915 -0.096352056 -0.28688598 0.3036323 -0.088811375 0.26043096 -0.17527953 -0.19931716 -0.38032284 0.14839062 -0.4145083 -0.19741023 0.3688838 0.43242034 0.29343796 -0.31204155 0.25729057 0.15479654 -0.19166006 -0.142052 -0.10425615 0.44669846 -0.3400713 0.49458292 -0.34394446 -0.050847396 -0.09443257 -0.029486224 -0.20730661 -0.19767345 -0.06631705 0.01518277 0.5974104 0.47022572 0.19347003 -0.57632124 -0.35238966 0.52727896 0.19228478 0.21361484 -0.11717887 -0.14921859 -0.14948983 0.6939983 -0.038701244 -0.26226228 0.36076668
4330 0.13205923 0.28994823 -0.08106021 0.026738206 -0.33291304 -0.111499764 0.26776096 0.13529193 -0.0024068414 0.22421709 -0.3090698 0.15329991 0.3347856 0.16182856 0.13265322 0.0404618 -0.85041744 -0.32170215 -0.5180607 -0.263927 -0.48489505 -0.1676291 0.49285066 0.3428631 0.006741135 -0.31689253 -0.2401026 -0.031864375 0.07631273 -0.23461108 -0.10151221 0.48832378 -0.49525955 0.1506889 -0.20686573 -0.05906535 -0.61034787 -0.017459441 -0.015467707 0.19329838 -0.040483214 -0.5600664 -0.04547793 0.1266852 0.09794447 -0.013874557 0.4057645 -0.40070885 0.43222314 0.33904067 0.12371186 0.16183072 0.10463324 0.076227956 -0.07158669 -0.3395115 0.07361994 -0.24570227 0.23944297 0.004040545 0.092261724 0.49657372 0.18190075 0.06103 0.0666273 0.1992189 -0.03676828 -0.019249324 -0.27085245 -0.108028665 0.056438208 0.03746647 0.06653629 0.39709347 -0.25334406 -0.109082244 -0.34205332 -0.038221605 -0.0301806 0.1558271 -0.07834659 0.42995065 -0.24196757 -0.035525393 0.60659 -0.28813833 0.113680825 -0.1776098 -0.1926645 -0.6048556 0.17422818 -0.1624019 0.2715171 0.26255333 0.02017635 0.42519936 -0.23052321 0.4945047 -0.18765192 0.066248015 0.0021155935 0.28984946 -0.10202161 0.09936598 -0.11383398 0.42764127 -0.32858738 -0.009425224 -0.15027513 -0.06980287 -0.054346424 -0.020840792 -0.4117532 0.44129592 0.27164263 0.16507828 -0.27686685 0.060981438 0.7053005 0.20873204 0.2778037 -0.5823337 -0.26323098 0.28880286 0.22332554 -0.39973405 0.61859256 0.58208394
1272 0.023167856 0.08946526 0.22164646 0.32256562 -0.10585958 -0.03587429 -0.10262575 -0.22591329 0.43093836 0.0037121668 0.11400592 -0.015364586 -0.14335948 0.065486416 -0.5306467 0.3910663 -0.46743953 0.012114796 0.3497245 0.22283465 0.26494274 0.41662514 -0.31513515 0.23598708 0.20339207 -0.60856587 0.88982064 -0.14031005 0.07950024 -0.0762133 -0.09296935 0.38697577 0.27855945 -0.1421774 0.03197996 -0.41052583 -0.40519854 -0.0007840463 -0.27650958 0.44154564 -0.44771418 0.10166309 0.42928752 -0.1607406 -0.71574724 0.20930415 0.10746019 -0.5071906 -0.07943971 -0.044409372 -0.26377496 -0.022233889 0.1394719 0.09076244 0.28198043 0.12555668 -0.14385623 -0.19026773 -0.49430323 0.16396052 0.23751777 0.44235635 0.43094805 0.016592966 0.121022 -0.15867478 0.6810438 -0.03760863 0.28376985 -0.0001913558 0.0143765425 0.06473246 0.32070097 0.09539028 -0.10357893 -0.03340196 -0.15883428 -0.04192482 -0.078530274 0.20218948 0.27984807 0.70612496 -0.33751458 -0.5568619 0.27928457 -0.34508404 -0.012056743 0.09137828 -0.1450466 -0.2385527 -0.31058088 -0.084858544 -0.29273766 0.077134095 0.079989366 -0.16769594 -0.027588844 0.15853585 0.17867471 0.0009142594 -0.06446073 -0.347019 0.40661216 0.2575035 0.13998753 -0.08370018 -0.052557155 -0.3618451 -0.19992162 0.39576536 0.29168993 0.15388355 0.0034994257 0.14709733 0.16997904 0.11090389 -0.24848601 -0.1650094 0.49772653 0.1454188 0.14100356 0.22631685 0.32656893 -0.21596695 0.20066951 -0.33146825 0.19930014 0.23511247
19621 0.68827134 -0.0028350856 0.23697053 -0.008009335 -0.0012782954 -0.04378776 0.12250969 -0.098790005 -0.0055046706 0.22097418 -0.085291445 -0.1947461 -0.13351415 -0.4456664 0.35189265 0.29460463 -0.12234752 -0.063990116 -0.15785879 -0.06308358 0.36403438 -0.27877113 0.2972467 0.07522293 0.35231707 -0.593368 -0.3530363 -0.32899788 0.041752227 -0.08682683 -0.07761416 0.52410525 0.010507058 -0.08945764 -0.071007386 0.18991521 0.23723926 0.24094783 -0.039659437 0.23599419 0.1199917 -0.51977104 0.054052595 -0.5551788 0.069485 0.18591337 0.21886115 -0.26982057 -0.11012085 -0.50825095 -0.41845506 -0.072527856 0.36737722 -0.18663348 -0.36864942 -0.026092878 -0.16570336 -0.20542869 -0.17422119 0.20670862 0.05114212 0.0740314 -0.14366688 0.57786876 -0.526308 0.03742677 0.055124965 -0.2378282 -0.1372812 -0.23597004 0.04838396 -0.35662156 -0.07733269 0.24426939 -0.49820545 -0.2994361 -0.36812782 0.15208548 -0.4330712 0.12122416 -0.5053495 0.46235758 0.06994493 -0.42255154 0.29020032 -0.30679497 0.27956837 0.20211475 -0.04856688 -0.29579517 0.24629849 0.082339495 0.22787324 0.02858175 0.46327808 0.15278125 -0.22060263 -0.31596103 0.48292848 0.13430412 0.45852223 -0.038322583 0.32298648 -0.14263715 -0.016513314 0.20561415 -0.18460909 -0.56612676 0.7054521 0.20304659 -0.25834447 0.0032038721 -0.22361766 0.33036187 0.29265276 0.29449588 -0.7293334 -0.6876063 0.35765165 -0.020279728 -0.11030691 -0.26690605 -0.094824515 0.040696573 0.093099646 -0.19853695 0.56099766 0.28539774
3231 0.026748458 -0.15316467 0.041556362 -0.25456315 -0.009578881 0.16722631 -0.18292628 0.3824017 -0.040105525 0.51477265 -0.03639439 -0.25892907 -0.0041063824 0.27005115 -0.2205878 0.5823817 -0.5866327 -0.041488554 0.20350227 -0.4417147 -0.21186116 0.352643 -0.124255896 0.05962127 -0.12327792 -0.4922047 0.281705 -0.30564502 -0.16502704 0.47955596 -0.11874658 0.4348765 0.18120842 -0.21081464 -0.15710545 0.2696052 -0.1370917 0.054675844 -0.047861062 -0.013437594 -0.15352902 0.15504211 0.52334225 0.25889936 -0.46408832 0.12761645 0.43682015 -0.24867235 -0.39413112 0.22718713 -0.19145998 0.07512401 0.07098219 -0.23265192 -0.24636224 -0.51565784 0.057425976 0.1262993 0.24043995 -0.02196418 0.11126861 -0.10388597 0.1240359 0.18656845 -0.46105874 0.40697855 0.51350725 -0.00415409 0.3645756 -0.1912219 0.12733084 -0.30057892 0.22737883 0.7744434 0.14650717 0.028994381 -0.121516034 0.011430775 -0.021644782 0.4853294 0.3656151 0.18357025 -0.23597153 0.029278459 0.26907098 -0.5932667 -0.113325484 0.42270702 -0.2978977 -0.2035822 -0.2305351 0.17977445 -0.44615516 0.19060849 0.09386616 -0.11969721 -0.13218993 0.053611528 0.15830879 -0.085660264 0.30148888 0.4010477 0.013514869 -0.3534258 0.8152627 0.3720249 -0.05705329 -0.52274984 -0.24031623 0.101848446 0.071035944 -0.17788921 -0.17337954 -0.014472807 0.14643295 0.23977523 -0.17708136 0.12883456 0.10144714 -0.32433593 -0.008938101 0.02395381 0.49163482 0.25045404 0.5159953 -0.086033955 0.3318051 0.48510265
2440 -0.11030511 0.012916544 -0.06519387 0.48817006 -0.47844836 -0.052241687 -0.31453952 -0.088840105 -0.7785316 -0.19788496 -0.030876726 0.30070648 -0.076049194 0.31693742 -0.5476895 0.5912393 -0.08629589 0.037182465 -0.055577416 0.26228973 -0.5015401 0.26979497 -0.5641473 0.22030634 -0.43555865 -0.23279603 0.45197627 -0.49540266 -0.29829127 -0.35188234 -0.4361134 0.64413637 0.026222091 -0.1915416 -0.070504054 -0.27335453 -0.095566235 -0.3817761 -0.61029917 0.28262198 -0.22521694 0.26697335 0.45925006 0.41541228 -0.47652373 0.1399126 0.31488135 -0.6062859 -0.14797695 0.08667058 -0.18956357 -0.39979488 0.013116485 0.1735917 -0.29943445 0.12576635 0.14071788 0.29204565 0.08624988 0.16005749 0.12512703 0.2707164 0.3356685 0.3060305 -0.4156977 -0.15693465 0.15960735 0.050263148 -0.103983045 0.098144 -0.29814196 -0.60859454 0.37378484 0.14329417 -0.1281883 -0.39606193 -0.11070052 -0.36555904 -0.22743447 0.72185266 0.5219025 0.427995 -0.32451946 -0.6197391 0.22010761 -0.18699212 -0.2633496 0.36102137 -0.37027583 -0.10646154 -0.03612092 0.08932023 -0.023161318 0.13432406 0.012551345 0.03925533 0.023448585 0.4055259 -0.095166765 0.48532748 -0.12942597 -0.34619382 0.32679722 -0.1269173 0.3547048 0.21408558 -0.30008358 -0.5541341 -0.18829478 -0.06531899 0.06194862 -0.19088645 -0.7455035 -0.38130945 0.37843034 0.06838208 0.0020610946 -0.0064467234 -0.048507698 0.16662398 0.25775853 0.19495834 0.0755617 -0.26012325 -0.020635346 -0.14081134 0.041242026 0.6407891
887 0.2558933 -0.010740632 -0.2774045 -0.044148695 0.34671134 0.08592924 0.3016931 0.077301994 -0.2307462 0.1674611 -0.18678358 0.43760106 0.13582514 -0.23305292 0.11655088 0.41754267 0.12490058 0.041982703 -0.09146031 0.28115565 0.25629812 0.33767432 -0.10827983 -0.06597752 0.20687541 0.042002708 0.12803559 0.5511522 -0.31155103 0.14451504 -0.07198063 0.8716982 -0.064207144 -0.0029216895 -0.0902794 -0.5150495 0.15131882 -0.097377814 -0.56823814 0.09749867 0.017443407 0.22798671 0.63185364 0.22038902 0.0025525764 0.35308775 0.40738687 0.5032169 -0.10059504 -0.08454215 -0.02121257 0.2939274 0.22639817 0.33662534 -0.19602484 -0.13563149 0.2149134 -0.31545374 -0.19687167 -0.38585842 -0.44145423 0.31155905 -0.23040128 0.15536205 -0.00074725796 -0.050472498 0.068731464 -0.12391303 -0.52181435 0.27507904 -0.16173144 -0.56806207 0.14747806 0.15925294 -0.22202429 -0.0019709745 -0.095244795 0.32873902 0.108635746 0.13888961 0.081324145 0.21593681 0.09086459 -0.013545396 -0.006266519 -0.24419373 0.24831271 0.07411962 -0.14945285 -0.2697197 -0.023438964 -0.11340375 -0.29286095 -0.026744708 0.28701386 0.09455099 0.11911031 0.47101432 -0.025729412 0.14296319 0.030245455 0.05985063 -0.16879858 -0.28272805 0.31240007 0.26897854 -0.20914501 -0.14980173 0.2070995 -0.3658998 -0.18629949 0.27642512 -0.30821937 0.30527952 0.040267307 0.28875753 -0.03036954 -0.7194576 0.5063813 0.33407313 -0.011229555 0.5623444 0.013040277 -0.30560502 0.28703994 -0.34192994 0.16268551 0.6384573
24966 0.09470432 -0.3079377 -0.22126447 0.2095202 0.12268278 -0.45907536 0.03377984 0.0013342074 0.10156603 0.7059967 -0.24241792 0.06611964 0.48526654 -0.19726218 -0.21086037 0.14264633 -0.1029271 -0.14500184 0.23499179 0.17706063 -0.120275475 -0.120614946 -0.1303701 0.6401344 -0.46419016 -0.7123262 0.33592507 -0.14939837 0.046165396 -0.08620491 0.3913429 0.44284222 0.04743368 -0.17621863 -0.25662267 0.01719864 -0.25296468 0.13795279 0.3107679 0.058538586 -0.17464703 -0.18650997 0.27593938 -0.24335143 -0.22954373 0.19551751 0.47169778 -0.485497 -0.20108621 -0.048477955 -0.07691627 -0.70617735 -0.54686564 0.20765938 0.1137525 -0.54184175 0.14615262 -0.20029418 0.51889354 0.10122182 -0.3579235 -0.30352947 0.29148516 0.19008707 0.24200472 -0.03282006 -0.3124058 0.5992492 -0.094689116 -0.36206546 0.21482034 -0.3591634 -0.036355566 -0.0012278886 0.094914824 0.023310062 -0.21404292 0.044705946 -0.38976473 -0.1627618 -0.11211748 -0.14094137 0.2003406 -0.48213044 0.4434674 -0.44789967 -0.1755019 0.20617075 -0.10104513 -0.024565669 0.08477716 -0.34190223 0.14036976 0.48773283 -0.14173615 0.11340429 -0.083818056 0.022278428 0.2672618 -0.26426864 0.23122694 0.032277357 0.18591425 0.13078007 0.49637046 0.5002248 -0.13913259 0.32885644 0.062019605 0.13542254 0.009638263 0.25631297 -0.26485124 0.23160952 -0.43792835 0.12967975 -0.41269422 -0.01184117 0.8985626 0.11550465 -0.04489537 -0.060768377 0.59527475 0.2694383 0.30857825 -0.23709881 0.44628406 0.77115566
4584 -0.11970304 0.21738923 0.13501595 0.09692618 0.2545285 -0.057737067 0.07958957 0.04252856 -0.36044422 0.099832855 -0.09704539 -0.08055648 0.45624548 -0.32029337 -0.22228773 0.6675757 0.17191358 -0.11839675 -0.06444212 0.06882145 -0.14623922 -0.15738614 -0.44229555 0.39359725 -0.21622759 0.082564816 0.13102572 0.4306934 -0.12839137 0.118775755 0.20272666 0.55579245 -0.046988405 0.28387243 0.11602634 -0.23790848 0.055013515 0.21334958 0.29258123 0.43001306 0.32743034 0.20363486 0.032670837 -0.2666162 -0.3849287 0.17550845 0.20593943 -0.17343442 0.039955832 -0.21371834 0.0034581155 0.167083 0.12088648 -0.09141946 0.08364825 0.04023512 0.09894711 -0.50628644 -0.21510203 -0.42543054 -0.35148567 0.1865061 -0.14688022 0.47243455 -0.044710413 0.09997297 0.41385928 0.07715047 0.30689695 -0.37129933 -0.06950085 -0.04554987 -0.14765555 -0.15926827 -0.5031649 0.11472991 -0.06648653 0.30273184 0.04390199 0.46341753 -0.19009286 0.40507263 -0.05388503 -0.3131402 0.18340397 0.21688694 -0.038594823 0.22075054 -0.12518704 -0.22363767 0.07101361 -0.300666 0.01280073 0.15396348 0.37816298 0.61706406 -0.16970316 0.15179522 0.007864467 0.17296375 -0.02033187 -0.1687869 0.35437667 -0.13944691 0.45949945 -0.05563736 -0.117460676 -0.78866655 -0.14876446 0.3681289 -0.13432798 0.00028460403 0.0016236581 0.483669 0.50805116 0.36104408 -0.54371995 -0.20628841 0.6767187 0.50036746 0.04387319 0.051005024 -0.045765728 -0.21199422 0.5955422 -0.46919733 0.3596461 0.11051651
6214 0.41590515 -0.32719156 0.11592407 0.047016874 -0.11583717 -0.24516302 -0.042224873 0.10327786 -0.014776474 0.29196516 -0.085416496 0.3704259 -0.050927445 -0.25130984 0.31237587 0.9182982 0.08787539 0.07053476 -0.20079996 -0.108770624 -0.29362878 0.010575118 -0.24975826 0.21958452 -0.26624802 0.10634337 -0.10549677 0.20171401 -0.16092826 0.05165273 0.16919456 0.5054478 0.20293543 0.1319331 0.017529074 -0.3408051 0.1336081 -0.22279024 0.12905785 0.19291802 0.6277536 0.28757894 0.46309105 -0.16474734 -0.21618074 0.3727489 0.38254148 -0.08062009 0.356539 -0.2569276 -0.22115818 0.1299136 -0.284149 0.11734352 0.12083156 0.35112956 -0.11939583 -0.41970587 -0.36793083 -0.14874934 -0.4798914 -0.07060231 0.04368865 0.25643194 0.28248313 0.19195694 0.31487057 -0.17108639 0.15622035 -0.07657918 -0.38655227 -0.29573599 -0.065029345 0.046579577 -0.5916616 -0.1729399 -0.19712022 -0.067560285 -0.6360449 0.034186818 -0.24593611 0.17595088 -0.2494151 0.096842535 0.56346685 -0.1973555 -0.15927215 0.4495233 -0.21359962 -0.24995852 0.21768826 0.035127304 0.07791793 0.22035056 0.31547758 0.27793607 -0.10584558 -0.06339497 -0.40950704 -0.11118627 -0.34200925 -0.091337405 -0.053650703 0.14368202 0.51538646 -0.12096901 -0.42312297 -0.34326363 -0.14999314 -0.15437913 0.043453917 0.115227036 0.08444323 0.12342749 0.14302684 -0.25406322 -0.41162795 -0.0860415 0.6880409 0.6308261 0.56710327 -0.024355125 -0.22139668 -0.1425915 0.19988607 -0.14804567 0.16431025 0.31593195
2665 0.17661811 -0.6306493 0.09692331 -0.20484804 0.07512308 0.22757241 0.15761033 0.23251915 -0.12278412 0.17307672 0.013945643 -0.106007755 0.10967368 -0.6458821 0.45446014 0.44984198 -0.11752737 0.1082809 -0.5120368 -0.15146647 0.12845021 -0.2761446 -0.2512634 0.4199196 -0.060557745 -0.8282363 -0.31037676 0.47085974 0.19806933 -0.48706126 0.17565958 0.6208661 0.016641332 -0.14773364 -0.09260714 0.35882607 0.03635491 0.43058655 -0.3992932 0.1835315 0.11727981 -0.83912075 0.045997713 -0.18904936 -0.11484695 -0.014768195 0.36303917 -0.6688237 0.48643875 -0.4890063 -0.38092142 -0.0537101 0.2611857 -0.004781635 -0.43262887 0.04976502 -0.59387404 -0.46263584 0.47443438 0.26412868 0.45140603 0.020057322 0.21347573 0.3313896 0.023581473 -0.1222461 -0.46016943 0.056369014 0.2345222 -0.19360173 -0.2692395 0.20835474 0.25088653 0.47031105 -0.52588713 0.1709854 -0.42595148 0.085750125 -0.5571586 0.36307016 -0.16536352 0.19387352 0.6092848 -0.29041666 0.11723047 -0.38586867 0.045964733 0.17789365 -0.22003534 -0.21425602 0.4462767 0.025944745 0.072337314 0.39208052 0.032466058 -0.07919082 0.09803518 0.017318334 0.271344 -0.25992468 0.18501191 -0.48118162 0.26054966 -0.37172982 0.09685598 0.18207957 -0.09560807 -0.36754707 0.20011437 -0.008518236 -0.14423501 0.06329069 -0.856665 0.14726116 0.22859472 0.28860912 -0.8243747 -0.08876656 0.30248427 0.4487651 0.11622445 0.11319476 0.99282146 0.384244 -0.10299306 -0.4325142 0.23859413 0.14509703
8224 0.01211933 -0.0075161145 0.28259566 0.50451666 -0.08855626 0.10115599 -0.5130155 -0.6153196 -0.5988263 -0.10624258 0.007703109 0.17095594 -0.057245143 0.60243237 -0.24682283 0.496503 -0.44877484 -0.06076703 0.4558003 0.017821271 -0.09901979 0.55772585 -0.11763401 0.39187542 -0.20620494 -0.5713813 0.36545897 -0.12472335 0.3750115 0.21378888 0.055748254 0.47713575 0.17399411 -0.004745123 -0.47106737 -0.47906348 -0.33494753 -0.021415098 -0.11546453 -0.15139656 -0.29115835 -0.13855408 0.39951688 0.3445997 -0.31920242 0.026781457 0.3082792 0.30151775 -0.021195317 0.083641656 -0.2279155 -0.04489052 0.03152502 0.26112026 -0.48013684 0.0013958736 -0.43014252 0.2238927 -0.027243424 -0.18690108 -0.23281789 -0.1388704 0.5570049 0.32825872 0.09034315 0.055608653 0.33383796 -0.071389906 0.12330744 0.08607564 -0.10823671 -0.22073282 0.14985095 0.073516406 -0.2750683 0.01587036 -0.24899171 -0.04505726 -0.03432387 0.45692247 0.42944244 0.4495283 -0.28573182 -0.20159093 0.05978067 -0.3826714 0.040089175 0.3272156 -0.27154672 -0.2671031 0.17927359 0.2299574 -0.13788435 -0.21510002 0.078297324 0.17156811 -0.36057246 0.08545438 0.11159715 0.5723843 -0.35559472 -0.14405131 0.4437613 0.0033882607 0.43473914 0.15942614 -0.00462041 -0.08925973 -0.5981618 0.6510736 -0.16423404 0.06461379 -0.016276374 -0.2527245 -0.31080395 -0.017046463 -0.41507763 -0.011842404 0.5362763 0.14481322 0.42888862 -0.24425086 0.24848786 -0.051351484 0.22661583 -0.46432987 0.26394963 0.22290115
20193 0.13976498 -0.47146454 0.39795798 0.34873414 -0.18050055 0.25206766 -0.3250969 0.163414 -0.4157029 -0.09350456 -0.30128267 0.04254572 -0.33795565 0.35792834 0.16533035 0.7494179 -0.38117978 -0.29143065 -0.048790272 -0.28163546 -0.17264046 0.6241145 -0.28212726 0.121800125 -0.10154984 -0.14902644 0.3468769 -0.2846379 -0.42293796 -0.05584278 -0.25590724 0.48448393 0.021603987 0.33509657 -0.009994488 0.4721852 -0.11320908 -0.37487328 -0.5644584 0.4216308 -0.6110199 0.46598542 0.6940382 0.28960848 -0.61624324 -0.054736577 0.83780587 -0.19835584 -0.349056 -0.15170065 0.08048426 -0.46347776 -0.11170375 0.15104999 -0.03239849 0.49234387 -0.21831512 -0.22005437 0.18056008 0.17411278 -0.14681134 0.46032244 0.4466843 0.13590243 0.033762224 0.01203195 -0.4230128 0.06512746 -0.3212787 0.03792322 -0.017772445 -0.09126074 0.7142097 -0.38458997 -0.16849016 -0.017479692 -0.05443203 0.21929409 -0.37245032 -0.06985646 0.13702329 0.015305623 0.408055 0.306744 0.6472273 -0.5215083 0.040943995 0.53941995 -0.19521135 0.059547123 0.32880124 0.039102603 -0.13667688 0.121208005 -0.19962199 -0.0493782 0.15806107 0.80252385 0.53614485 0.17043851 0.23126894 0.20257671 0.56849074 -0.39802212 0.25643706 -0.04688508 -0.11207792 -0.20329675 -0.18973717 0.19484918 0.018582277 0.0084568225 0.09773336 0.52767134 0.03268357 0.15672366 -0.083338104 0.0010621704 0.2740047 0.684617 0.45298582 0.24449654 -0.3423224 -0.25376147 -0.24718516 -0.34725496 0.15508243 0.678736
82920 -0.06382763 0.014290722 0.0765015 -0.010740919 0.10700426 0.2679631 -0.012183011 0.1667159 -0.12872124 0.27310857 -0.3378739 0.23050632 -0.14374988 0.039262846 0.09230191 0.40674838 -0.5739273 -0.026629345 -0.28686595 0.506408 0.52590907 -0.02677208 -0.21403144 0.31509155 -0.40962464 -0.17353304 -0.09662827 -0.27677047 -0.06112608 -0.312892 -1.1493726 0.49757394 -0.19858353 -0.24120717 0.22269922 -0.021050077 -0.26427257 -0.18818973 -0.1888975 0.45404413 0.2816083 0.0008868528 0.37639263 0.3316134 -0.17954755 0.02843837 0.3199905 -0.05219793 -0.33067644 -0.10653299 0.1352674 0.53096545 -0.01994482 -0.30386645 -0.45587257 0.19613826 -0.4612649 -0.37970087 0.12256222 0.031946547 -0.43813333 0.289565 -0.18233253 0.46144915 0.30193287 0.25213972 0.03345608 -0.60649717 0.25419876 -0.27444994 -0.37312415 -0.3206991 0.010890711 0.18516657 -0.10132209 0.042413395 -0.49039426 -0.024056012 -0.014974664 0.33222777 -0.07228561 0.0026309094 -0.19981685 -0.022682987 -0.3978461 0.14009848 0.08055268 -0.05467899 0.45618796 0.08204343 0.52257746 0.057929277 -0.123162866 -0.08380409 0.017656257 -0.52375245 -0.05042572 0.036110055 0.2750996 0.04726584 0.2463204 0.031117335 -0.16841921 -0.012191709 0.37738088 -0.020719875 0.28756002 -0.2014248 -0.5042849 0.092420064 -0.1073881 0.06125432 -0.034216974 0.1686694 -0.7285554 0.25304723 -0.23581856 -0.4368441 0.71120435 -0.08982558 -0.3786295 0.16010058 -0.14661819 -0.17858633 0.30874562 -0.5733619 0.41188505 0.76985
12182 0.25096256 -0.5470878 -0.100792676 0.49370503 -0.4123367 0.011178979 -0.24792975 0.09132025 -0.3498804 -0.16307445 0.01152963 -0.14809972 -0.33293477 -0.07041998 -0.3214192 -0.15575936 -0.023189278 -0.0161883 -0.45690852 0.33549976 -0.082877345 0.48323256 -0.08351751 0.24329387 -0.5179696 -0.43677437 -0.06334512 0.24808995 0.003993607 -0.8257732 -0.19235496 0.4081225 -0.047381893 -0.43144983 -0.24558385 -0.5302808 -0.3977609 -0.11416154 -0.29589385 0.22277956 -0.6085988 0.19892259 0.18977816 0.076074004 0.28022745 -0.18051593 0.4366685 -0.01366326 -0.2373857 0.08961447 0.008686502 -0.086179525 -0.13406086 0.73010856 -0.066585265 -0.0892991 -0.11723452 -0.2102012 -0.35063782 0.08592132 0.18623765 -0.09651464 0.5428513 -0.07101563 0.1468477 0.3571813 0.13077606 -0.36155114 0.3058564 -0.29956168 0.10028723 0.0049095866 -0.23354816 0.2478583 -0.5126539 -0.53684574 -0.2394543 -0.4675184 -0.19774751 -0.1651649 0.58271 0.53189564 0.077261515 -0.2257427 -0.17201376 -0.7301665 -0.32768187 0.19648793 0.35216197 -0.091393426 0.25824478 -0.35321894 -0.011371504 0.48709592 -0.3912159 0.39318085 -0.1359391 0.06497139 0.4993555 -0.087568134 0.110246964 -0.17221816 0.073988624 -0.064652964 0.3033976 -0.049806762 0.039621763 -0.3486749 0.1727358 0.1296105 0.2261602 0.16904129 -0.47039592 0.33136615 0.16121137 0.40620878 0.01735376 -0.44094282 0.79310125 0.19587022 0.698902 -0.008749688 -0.100580186 -0.32001868 0.24264146 -0.03881349 -0.09554912 0.56633127
22563 -0.12828413 -0.16798425 -0.0108545385 0.31210876 0.24867702 -0.20114893 -0.171273 0.014770755 -0.3485459 0.51657695 -0.3258129 -0.017403508 -0.12621479 0.3110817 0.37632185 0.30774313 -0.25826448 -0.3092609 0.43011126 0.14193703 0.023341147 0.5413736 0.10982159 0.40940464 -0.21702635 -0.5123741 0.34788123 -0.31411925 -0.24033615 -0.44017693 0.29035634 0.32782564 -0.015015466 -0.05733473 -0.5635232 -0.10100396 -0.47344005 -0.12441857 0.27370352 -0.14198902 -0.46729386 0.1623103 0.49060825 0.17373636 -0.34051722 -0.1715957 0.51273 -0.36161956 0.29135057 -0.3162985 -0.5494043 -0.010961967 0.05036917 0.12837659 -0.069359496 -0.3328216 0.05973987 0.16681047 -0.07091667 0.22623728 -0.0795979 0.402213 0.15258655 -0.085969135 0.23337518 -0.111412525 0.3672244 -0.27610174 0.27736035 0.0040592463 -0.26430434 -0.33054274 -0.058706462 0.0024453606 -0.1327689 0.010167226 -0.2717448 -0.014853937 -0.41671747 0.36449707 -0.27493376 0.62839586 -0.8040904 0.010735042 -0.34698933 -0.22243081 0.09188361 -0.20615777 0.49044657 -0.5597127 0.31346768 -0.15647584 0.40293008 -0.11919863 0.07413963 0.09966975 -0.02102419 0.09816184 0.06166346 0.105428725 -0.20547363 -0.07502535 0.535352 -0.13676934 0.3471876 0.3126994 -0.19252032 -0.29926208 -0.07373613 0.39534038 -0.03364259 -0.39871684 -0.044176016 0.05719438 0.24905777 -0.05793816 0.017787423 -0.48498634 0.103417724 0.37301552 0.28574586 -0.20556816 0.37258935 -0.25702682 -0.3143749 -0.027226755 0.42469153 0.6416131
10169 0.077511676 -0.23393744 0.37609115 -0.029133279 -0.26017073 0.18859884 -0.39749357 0.12721695 0.328118 0.23891777 -0.15766431 -0.2784525 0.049825747 0.16479246 0.040666148 0.18296947 -0.33385113 0.09987599 0.26010343 -0.3522336 0.22306077 0.50981146 0.040176146 0.29135707 0.028864967 -0.1878579 0.050145358 -0.35786772 -0.032681074 -0.18958715 -0.14208783 0.42912602 0.20599446 -0.533212 0.06482865 -0.071715586 -0.30802077 -0.2501649 -0.18327232 0.07102702 -0.21897256 -0.080823325 0.41248325 0.2747136 -0.85211396 0.1543193 0.70036423 -0.1286808 -0.043293513 -0.035113946 -0.11634441 -0.39141628 0.31275976 0.099777475 -0.11183973 -0.37095577 -0.04961916 -0.23028082 0.14250097 0.21580558 -0.25785047 -0.035349157 0.53131616 -0.16870838 -0.032846853 0.12509112 0.5807455 -0.116522186 0.63875175 -0.29608235 -0.13998225 0.053004995 0.33978102 0.29828912 -0.2675954 -0.3470751 -0.04764582 0.057191648 0.0710601 0.51047975 0.43993002 0.15539101 -0.31717443 -0.21570906 0.0114366785 -0.65384686 -0.20996627 0.35327396 0.1185898 0.109121375 -0.2776273 -0.0873443 -0.28527266 -0.1131785 -0.12325295 0.14038812 0.24475764 -0.22039121 0.6853276 0.2553042 0.11553141 0.10317433 0.0003079342 -0.19845422 0.53785074 0.052196417 -0.08930684 -0.6142781 -0.16932878 -0.17228287 0.29194015 -0.1727978 -0.2743649 0.42904472 0.25057152 0.513147 -0.13087611 0.25203058 0.26467237 0.06941591 -0.24701248 -0.41000107 0.3175008 -0.07416584 0.82408977 -0.08335318 0.20787661 0.40950394
12350 -0.20722105 -0.4002078 0.10073173 0.13833128 -0.021229075 0.19249734 -0.25615892 0.510262 -0.107254304 -0.16851513 0.03394029 0.3032952 0.09165374 0.04296062 -0.39928427 0.14596395 -0.045365646 -0.5395407 -0.03543444 -0.056382265 -0.01946629 -0.12049686 -0.3083641 0.21323866 -0.39612076 -0.53413117 -0.0359525 -0.030766116 -0.22756472 -0.30276078 -0.41484055 0.47612163 -0.20263417 -0.20473227 -0.10057091 -0.3407433 -0.30287576 -0.47368562 -0.028808985 0.25631908 -0.35223085 0.46730193 0.3963598 0.5049015 -0.37663212 -0.03698636 0.43064848 -0.42957857 -0.096858144 0.19742003 -0.012691073 0.19305988 -0.25983658 0.016471457 -0.08200626 0.07060908 -0.5909671 -0.1727357 0.027005378 -0.13374543 0.14233218 -0.06298039 0.20985681 -0.14731547 0.664726 0.47892216 0.10982916 -0.6316911 0.30699092 -0.24188532 -0.34242818 -0.052322146 -0.0011792597 0.06374195 -0.47540876 -0.6716115 0.042636625 -0.4414908 -0.1060492 -0.08098103 0.09648552 0.30341822 0.039408166 -0.5761942 -0.08920699 -0.787386 0.06963746 -0.11479811 0.3691479 -0.15188873 0.0050998586 -0.13325073 -0.33055824 0.43854254 -0.22272477 0.22619261 -0.24025998 0.18844038 0.44111562 0.12180557 -0.15234086 -0.24124338 0.065114185 -0.12980343 0.43700665 0.065822706 0.3373379 -0.21840443 0.22880545 0.3477345 0.2040401 0.135078 0.14369482 0.4663529 -0.111743644 -0.06785898 -0.3647877 -0.4850242 0.4890823 -0.20413707 0.13477877 -0.11799041 0.002656371 -0.3780269 -0.15104362 -0.044186387 0.05015417 0.868291
4335 0.35650024 0.20028 0.4329569 -0.013876087 -0.03766235 -0.34411672 0.24048005 0.2515369 -0.34976545 0.45675793 -0.5095545 -0.0866776 0.5337951 -0.4171293 0.5511763 0.39645538 -0.47484842 -0.57143766 -0.30904752 -0.2925948 -0.58869433 -0.0972423 -0.073747166 0.20114836 -0.2960386 -0.81153584 -0.012275246 0.30215546 0.10726918 -0.18304323 -0.1464574 0.4166887 -0.25552452 -0.0056771045 -0.049575616 -0.13370414 -1.0084527 0.013811331 -0.17791177 0.21016443 0.013285532 -0.32124174 0.29886898 0.22045334 0.7393915 0.035357725 0.32550734 -0.32690004 0.08753294 0.5224903 -0.40751815 -0.32492682 -0.2617359 0.52211994 -0.0725955 -0.3512343 -0.20564073 -0.10392314 0.2005229 0.16177872 0.26630622 -0.18936326 0.30093384 0.054489415 -0.100695446 0.47717315 -0.17238538 -0.20379621 -0.27068263 -0.21280645 -0.045347806 -0.19718018 -0.28385293 -0.012542954 -0.48097953 -0.19734827 -0.13847864 -0.08124787 -0.107666336 0.11495484 0.052562464 0.42011863 0.16492762 -0.56443274 -0.14319463 -0.33466926 -0.087781005 0.07731024 0.16004626 -0.29389682 0.24384151 -0.01322431 -0.025612133 0.61094093 -0.16637744 0.5101528 -0.28535786 0.112112515 -0.24643567 -0.015992472 0.048016693 0.053717468 -0.032264497 -0.016215809 0.40392736 0.2207821 -0.058874547 0.09781881 0.0541864 -0.03678514 0.29969692 -0.29600775 -0.33264688 0.29385012 0.24961099 0.2546151 -0.09394597 -0.23468095 0.4980003 -0.033341613 0.15086791 -0.040576022 0.21294442 0.3850203 0.36060742 -0.496434 0.51036114 0.35475034
15429 0.18550761 -0.43665245 0.21385884 0.54474187 -0.28303364 0.11888174 -0.31553167 0.20614113 0.111295536 0.28484586 -0.5538876 0.414758 0.1325761 -0.31309867 -0.07688216 0.02710805 0.09213312 -0.35524476 -0.10956387 0.0070811165 0.15484512 0.37366116 -0.091706455 -0.117374286 -0.2733749 -0.46067157 0.3180047 -0.36053398 -0.31115425 -0.4717335 -0.087500826 0.2762171 -0.15864275 -0.29997778 0.1983922 -0.12940443 -0.37530327 -0.06546638 -0.12162503 -0.014596909 -0.4053736 0.20850919 0.0976777 0.24365442 -0.7114011 0.32406634 0.3020257 -0.028878583 0.03678774 0.3252999 0.23705044 -0.30122337 -0.22923428 0.35777918 0.14539431 -0.31574646 -0.58117247 -0.16733427 -0.065552816 -0.092255734 -0.16824882 0.039362386 0.34829447 -0.14168975 0.4525951 0.40696263 0.07684521 -0.19792905 0.575293 -0.7246681 -0.08402865 -0.21072507 -0.21195014 0.4189026 -0.24873541 -0.34818253 0.18475527 -0.51104456 -0.32945848 0.1717068 0.59127766 0.5287481 -0.21036765 -0.14624962 0.09465431 -0.96664816 -0.31448188 -0.027809665 0.102990255 0.13733293 0.09266658 -0.264681 -0.46657106 0.025867397 -0.2762856 -0.06622848 0.026088601 0.33856907 0.40240514 0.45116237 -0.021608884 -0.124939665 0.2146389 -0.12707095 0.2617675 0.1888975 -0.11517198 -0.47167364 -0.35878155 -0.32040292 0.47454503 -0.18092133 -0.31526548 0.5769335 0.06672127 0.32924458 -0.2286425 -0.31350908 0.53152573 -0.1948007 -0.20363219 -0.1877109 0.18832798 -0.22436877 0.3132744 -0.39808255 0.07992577 0.6430104
1481 0.20748608 -0.34615725 0.25998816 0.1348574 -0.17402522 -0.040095795 0.04626498 0.14123763 -0.50019485 0.56972265 -0.031552486 -0.22494656 -0.47184995 0.13634259 0.13333592 0.73596156 -0.32421538 -0.18046027 0.31582883 -0.2565816 -0.41591763 0.33516842 0.11318758 0.45431304 -0.23490411 -0.050564166 0.024688376 -0.3649428 -0.17920636 0.19552998 0.0036962477 0.2744907 -0.1592015 0.37349483 -0.0014267272 0.17196584 0.35184518 0.069997065 -0.08238563 0.4260787 0.3099343 0.21379992 0.5053045 0.17414956 -0.90056044 0.005582285 0.6659078 -0.092161335 0.09137398 0.008139049 -0.043733448 -0.12400854 -0.09511798 -0.12862381 0.12205546 -0.17992477 -0.7743 -0.1239066 0.18807088 -0.26306462 -0.124144584 0.8476835 0.28627506 -0.22683188 -0.2848734 -0.13064577 -0.020342229 -0.06576928 -0.32651404 -0.19760509 -0.15882741 -0.098249115 -0.22746429 -0.21482308 -0.45946553 -0.056151588 -0.1238784 -0.18400928 -0.34332997 0.30532235 0.53214115 0.21089597 0.2627625 -0.19620647 0.3440862 -0.29762974 0.23484632 0.16678587 -0.16755664 -0.19868924 -0.15652198 0.0028759972 -0.13420288 -0.065847404 0.25099832 -0.036355894 0.22481266 0.12974653 0.21247377 -0.24999745 -0.48355657 0.16471173 0.34621885 -0.12692009 0.0707197 -0.28090605 -0.63846314 -0.12166952 -0.4614985 -0.08314536 0.020410387 0.3327397 -0.21746054 0.0047446634 0.330957 0.354022 0.40333667 -0.32964996 0.33835542 0.3556656 0.4620814 0.038222156 0.09897078 -0.40669653 0.7866001 -0.1717404 0.43796366 0.44950446
117 0.17119072 -0.03137449 0.19054545 -0.05244876 0.15428284 -0.2543267 -0.45310417 -0.13837251 -0.064963266 0.43478686 -0.30245066 0.33778977 0.18147515 -0.22563612 0.24179594 0.76819843 -0.20040259 0.056841664 -0.35356653 0.34955427 -0.3212829 0.039836515 -0.28742927 -0.24579754 -0.35376644 0.14292534 0.053588305 0.27810216 0.019871742 -0.5047446 0.2088457 0.010723058 0.28601453 0.4084771 0.38919827 -0.56032 -0.2312638 0.20219126 -0.22141919 0.3484002 0.1828947 0.22602701 0.5549921 -0.46577093 0.11192171 0.2018113 0.12410155 0.3129034 0.50183856 -0.32339445 -0.08850605 -0.21960211 0.20048603 0.32648972 0.3373093 0.23506676 -0.018512657 -0.11528923 -0.039897647 -0.33473706 -0.07342396 0.15960826 -0.12831856 0.026512265 0.07389959 0.7674209 0.04136905 0.018407747 -0.08822761 -0.33375508 -0.36615098 -0.31492853 0.034989297 -0.15170358 -0.3701046 0.036136813 -0.23026685 -0.2916445 -0.39617044 0.048413206 -0.14600417 0.65608823 -0.19268496 -0.07002602 0.29922524 -0.44036087 0.2413627 0.26318964 -0.21293958 -0.3644071 0.10968096 -0.2081563 -0.10048108 0.329425 -0.122710936 0.25431186 -0.31416816 0.04316225 -0.22821286 0.044543933 -0.3945977 -0.13407506 -0.14066188 -0.20001908 0.6253767 -0.13721126 -0.35593444 -0.22185843 -0.32526693 -0.3725403 0.10831996 0.094883 0.021740885 0.72686714 0.23078153 0.09890257 -0.49671304 -0.53687584 0.62007475 0.2744185 -0.05486377 0.14116614 0.35642552 -0.115206055 0.41272438 -0.20897338 0.041611254 0.6744125
10796 -0.18009365 -0.27030456 0.2906659 0.063877985 -0.14234583 0.14718635 -0.36395204 -0.5787777 -0.35073766 -0.03997587 -0.48781016 0.06640549 -0.0075075678 -0.14631832 -0.19202596 0.7356292 -0.021386482 -0.44711527 0.23441125 -0.12194525 0.09838454 0.587443 -0.02547247 0.0122979 -0.06837273 -0.21528274 0.35505578 -0.056074478 -0.2588718 0.39289647 -0.29462898 0.7693624 0.20336856 -0.18654576 0.11451396 -0.17550303 -0.053177614 0.17733811 -0.12925816 0.046047654 -0.05363906 0.022966534 0.48829988 -0.034248393 -0.5430545 0.30555135 0.2979356 -0.054569185 -0.25913763 -0.4424792 -0.13504346 0.054600656 -0.044381026 0.13543878 -0.188023 -0.2424091 0.034580763 0.36818874 -0.38718352 -0.29699382 -0.0412576 0.08454917 0.27433267 0.4989368 -0.122248404 -0.10007417 0.19798982 -0.17834933 -0.37655178 -0.1068378 -0.29201093 -0.29823753 0.046846762 0.2155223 -0.4814179 0.049606625 -0.22413906 0.21752827 -0.23021115 0.4725645 0.33639166 0.2680573 -0.06601925 -0.018355194 0.63154286 -0.32664365 0.15311477 -0.0075870175 0.12758768 -0.1982125 -0.118966766 0.2181294 -0.38285154 -0.11542208 0.49993148 0.68228155 -0.1364622 0.5921577 0.15345658 0.09189206 -0.4212329 -0.09105758 0.019381274 0.06590901 0.2751453 -0.109121926 -0.34945896 -0.10524906 -0.0962797 -0.036122937 -0.081278265 0.16788024 -0.012645496 0.25113234 0.36594078 -0.18236463 0.07876717 -0.08249358 0.4688004 0.3763132 0.4026778 -0.19740364 0.33307362 0.0069970414 -0.0414681 -0.09081786 -0.19121985 0.7834621
2653 -0.078184664 -0.51872545 -0.17040919 0.16212946 -0.31984723 -0.1660287 -0.5781174 0.17532301 -0.32173583 0.32714948 -0.029561838 -0.2946873 -0.021975363 0.024617728 0.03634743 0.13990791 -0.3721297 -0.097427614 0.045287203 0.3574686 0.08040213 0.25830755 0.020229567 0.6143098 -0.60729617 -0.17577888 0.19644168 0.0066753654 0.46457475 -0.6466806 -0.121511444 0.42628807 0.17254537 -0.3624873 -0.31803724 -0.32512373 -0.64216584 -0.118736655 -0.43399265 0.18167934 -0.66307104 0.016824106 0.18131725 0.21212809 -0.024823584 -0.057551265 0.19693957 -0.17581132 -0.54263586 -0.09399151 0.028569344 0.16014646 -0.054701056 0.43957868 -0.51729804 -0.260228 0.15417814 -0.27505884 -0.33632928 0.17097187 -0.15644805 0.07847556 0.36430556 -0.23383191 0.13494927 -0.13358195 0.18872984 -0.51806515 -0.12678559 -0.56657356 0.036335483 -0.27973968 -0.027322873 0.57697946 -0.32486305 -0.5360945 -0.36516324 -0.4808477 0.13374403 0.1459081 0.49717873 0.43347648 -0.089673474 0.20261218 0.020169446 -0.54270077 -0.036904935 0.1882787 -0.0222039 -0.27608296 -0.13478515 -0.094411254 -0.34615898 0.44330734 -0.35227883 0.3081737 -0.38726684 0.024895413 0.48375922 0.1765004 0.2052134 -0.31818455 0.120355554 -0.056757666 0.31408224 -0.096600674 0.4158521 -0.62874836 -0.037516985 0.5138741 0.08631331 0.15377177 -0.53515095 0.12228618 0.11846581 0.30259785 -0.3653654 -0.29655474 0.49275273 0.036991414 0.66548085 -0.31360272 -0.26095238 0.026212586 0.14636898 -0.16337506 0.2650804 0.0043068435
39890 -0.009923737 -0.33195597 0.21074836 -0.31552315 -0.14463519 -0.42897862 -0.021513809 0.23302235 -0.602892 0.3725873 -0.4450398 0.12493802 -0.20720188 -0.15758243 0.14270033 0.41280937 -0.04106918 0.2809066 -0.05336686 0.2100205 -0.30268502 -0.15740566 0.27077034 0.69733876 -0.18914069 -0.12618232 -0.18658443 0.23338836 0.08529073 -0.4996936 -0.27370867 0.16893943 0.41130853 0.09947944 -0.36289105 -0.21169665 -0.14286429 0.12408342 -0.4064409 -0.09054057 -0.09709871 0.022362728 0.72620934 -0.65550315 -0.014447839 -0.40834442 0.27145606 -0.19515394 -0.072765656 -0.026360609 0.16841711 -0.4969427 0.06169387 0.26208857 -0.048645776 -0.4096679 -0.075278364 0.0023462567 0.16788676 0.07756809 0.2260965 0.63840246 0.67653644 0.14871982 -0.23384598 0.27509385 -0.063950144 -0.17906284 0.023891663 -0.5503881 0.30510622 -0.04883885 0.2950685 -0.12247125 -0.61763453 -0.15737562 -0.19016239 0.027725164 -0.32854015 0.0690351 0.50785106 0.47097328 -0.068055086 -0.45134124 0.7939978 -0.035503276 -0.06800669 0.28253543 -0.04073432 -0.17338298 0.30695152 -0.12961715 -0.033328436 0.13406797 0.046641357 0.17172784 -0.2101449 -0.43356723 -0.3237055 0.4185697 -0.33723402 -0.17369619 -0.25848675 0.010592407 0.0675183 -0.24893172 -0.5242778 -0.05847331 -0.32459414 -0.1573822 0.004454734 0.38482437 0.022001127 0.8031768 -0.17039791 0.16737865 0.081260495 0.2980218 0.60595125 -0.019465456 0.30746016 0.060828175 0.5220844 -0.6966163 0.36359715 -0.35723627 0.105638735 0.8780617
85352 0.52125686 0.05040756 -0.03243892 -0.23205976 0.22399451 0.15084453 0.062076733 -0.1002 -0.40833127 0.044479627 -0.5106816 0.006525214 -0.22345051 0.2962042 0.13934667 0.43710488 -0.5146098 -0.09549493 -0.54070383 0.7158962 0.3468602 0.08244014 -0.32199937 0.40186775 -0.53402746 -0.2155923 0.040621966 0.2118732 -0.14514501 -0.51531684 -1.089219 0.7221456 -0.312765 -0.46978113 0.38492638 0.43165812 -0.08564544 -0.16808769 -0.2431912 0.5360692 -0.017447645 0.05919021 0.30402377 -0.23262182 -0.2738538 -0.16177292 0.20137766 0.1268335 -0.14784953 -0.03327526 -0.13804606 0.033971768 -0.12973756 -0.24922386 -0.39020157 -0.024938935 -0.27850074 -0.2619296 0.15836887 -0.026398098 -0.23576766 0.043070704 -0.15363835 0.23868209 0.4533146 0.17434949 -0.23045735 -0.22129413 0.05131214 0.02677815 -0.20525983 -0.16119087 -0.2572344 0.45617467 0.048662517 0.26739177 -0.60025746 0.16303577 0.12146694 0.14446416 0.03712418 0.031147236 -0.52868146 0.30672652 -0.020287246 0.12052864 -0.036427144 0.17758586 0.3526664 0.45814258 0.4714315 -0.18099724 -0.05361559 0.14066117 -0.023791874 -0.3879044 -0.44414604 -0.1332461 -0.1293282 0.037320737 0.51273596 0.50484335 0.20664479 0.017352484 0.4702506 0.03890154 -0.06390511 -0.5999943 -0.3144803 0.42527527 -0.05923887 -0.15296277 0.08800625 0.11990295 -0.67320395 0.15585275 -0.092656195 -0.17193635 0.59456134 -0.02427926 -0.43361586 0.13387585 0.20891345 -0.15770008 0.31036022 -0.47013077 0.8916997 0.3444825
8703 -0.12283342 -0.47032467 0.5404276 0.49520972 0.006643358 0.316172 -0.39485836 -0.04552803 -0.3934609 0.30922338 -0.45095173 0.24723352 -0.12781508 0.13595591 -0.41335583 0.95184183 -0.034354035 0.21006311 0.23823328 -0.19076024 0.039208174 0.30821842 -0.14848547 -0.28689393 -0.14841335 -0.7184952 0.6164117 0.17665598 -0.6425766 0.16600977 0.02199216 0.5817281 0.18444672 0.07951982 -0.16150573 -0.2059266 -0.47478005 0.051199168 -0.23221652 0.17014597 -0.5095245 0.093598574 0.8284218 -0.21164472 -0.7459585 -0.12536533 0.20080341 -0.005057259 -0.15526634 -0.0090048015 0.013162537 0.089104496 0.34611616 0.05054191 -0.034848616 -0.1721191 -0.4428809 0.1980673 0.15954223 -0.16477506 -0.031620268 0.57230663 0.53050566 -0.008454346 0.1398622 0.11873875 0.031229647 0.16822952 -0.15701061 -0.10297355 -0.43524906 -0.31313908 -0.13068257 0.31031987 -0.13621394 0.10411302 0.09754787 0.017111946 -0.35207272 0.20394406 -0.02506252 0.31026623 -0.51516396 0.20369682 0.26410675 -0.02453854 -0.30871838 0.14649443 -0.2884684 -0.41329148 -0.047387518 -0.06732474 -0.31306675 0.18877372 0.09229257 0.066150725 0.12605499 0.31497285 -0.054434728 -0.089365825 0.3002934 0.09422768 0.4487207 -0.19915244 0.03340452 0.16492109 0.1048835 -0.03363729 0.15791813 0.67019725 0.19566926 0.0149156945 -0.42384163 0.5794962 0.08014585 0.17489113 -0.06554009 0.32297722 0.39422706 0.4744546 0.33286312 -0.22090945 0.0950328 -0.40199167 0.08229385 -0.16728806 -0.313138 0.33675525
1688 0.32878312 -0.32120666 0.096024014 -0.29504386 0.27622345 0.09435225 0.0035382453 0.40837425 -0.57283115 -0.06636068 0.054664288 0.16841082 0.012564918 0.26456276 0.26800007 0.38936698 -0.7356153 -0.023660302 -0.091787 0.38516214 0.55694884 0.009434098 -0.28720334 0.20956035 -0.39807537 -0.1981617 -0.059494022 0.006646142 -0.17957483 -0.22976193 -1.0688186 1.0028083 0.2730035 -0.09517852 0.6010915 0.44593132 -0.021231448 0.22331238 -0.1571718 0.12618473 0.052337587 -0.086110085 0.4177874 0.31987977 -0.15685186 -0.11335362 -0.0039219963 -0.4130567 -0.19411963 0.024723133 0.13173205 0.35737792 0.28433698 0.12434847 -0.3495188 -0.3174262 -0.042271905 0.17961825 0.20629321 -0.37327456 -0.02723384 0.2048326 -0.07684532 0.08315509 0.30364567 1.5984908e-05 -0.18402715 -0.16895282 -0.0065224166 0.4039903 -0.21905716 -0.5184575 0.011588977 0.28871173 -0.07109415 -0.12673888 -1.032681 0.20288555 0.5386611 0.46392128 0.4073594 0.21193264 -0.23398493 0.11217851 0.062473834 0.11872163 0.14958279 0.1824846 -0.35064477 -0.086507045 0.4733438 0.23246244 -0.35309348 0.04815176 -0.0019457857 -0.12950474 0.14212456 -0.21866098 -0.17424297 0.05070741 0.11202986 0.37106222 -0.29349038 -0.0036204474 0.31540614 -0.34341687 -0.27962345 -0.34746096 -0.33989042 0.59264034 -0.06495855 0.6054627 -0.1376484 0.07973872 -0.45234576 0.4542919 -0.30195966 -0.3426798 0.3737651 -0.2881711 -0.38282022 0.076018825 0.10796778 -0.19633855 0.521867 -0.5627438 0.35520998 0.4774706
3220 -0.047011603 -0.26134095 -0.08847727 0.09448877 -0.25968337 -0.13254859 -0.16634327 0.348672 -0.2916206 0.33045754 -0.60063183 -0.27707717 -0.11129058 0.17018723 -0.26150966 0.41888213 -0.37867635 -0.16111794 0.15101215 -0.37930733 -0.08811049 0.52180856 0.22686113 0.4738955 -0.20146222 -0.084663406 0.22800112 -0.48032308 -0.027679697 -0.2506929 0.09015701 0.16556108 -0.08311106 0.037588544 -0.34226215 0.09146924 -0.37574112 0.12067639 0.08577327 0.12708797 -0.44532964 -0.039395828 0.6272327 0.23810972 -0.116829276 -0.36273462 0.6812885 -0.10686162 0.08162817 0.0068678483 -0.09456057 0.2501997 0.40849918 -0.12716399 -0.12363528 -0.095703095 -0.33698642 0.06797287 0.34353527 0.16000523 -0.11032734 0.19302207 0.64360845 0.20702925 0.14007297 -0.021410707 0.7818417 -0.07473537 5.0138646e-05 -0.28725877 -0.21975139 -0.14759395 0.16343574 0.78650707 -0.2737546 0.10276453 -0.68232876 -0.2248069 -0.31050873 0.19218211 -0.19028397 0.4458076 -0.21784449 0.35965398 0.10045304 -0.4454183 -0.35539034 0.1522769 0.023165897 -0.012216765 -0.2415898 -0.06578903 0.16007805 0.08908236 0.25162315 0.1367659 0.03606121 0.26794246 -0.355066 -0.14644179 -0.1748353 -0.42201066 0.25862134 -0.47183686 0.789601 0.47354597 -0.025593009 0.0034069242 -0.35304418 0.44808123 0.3200424 -0.09720879 -0.12668015 -0.27057242 0.19148791 0.17469193 0.48644 -0.18968523 0.5475687 0.36696202 0.36178413 -0.3588232 0.67741156 -0.5084113 0.01694367 -0.16447946 0.5713102 0.40102148
31353 0.3322642 -0.34879082 -0.36100233 0.07998623 -0.12975307 0.091002874 -0.31284484 0.30983663 -0.08136172 0.29700348 -0.5416334 -0.24372539 0.05433809 -0.2554115 -0.24891374 0.1701304 -0.20855239 -0.22554755 0.19360712 -0.24560915 0.11220977 0.17308076 -0.2941501 0.42212486 -0.28329244 -0.6790452 0.14770302 -0.014409486 0.27202865 -0.5335585 -0.26336944 0.46875906 -0.5638618 -0.65515023 -0.018247046 -0.13262863 -0.17769323 0.18456925 -0.31936094 0.2547089 -0.35639894 -0.10837161 0.75154835 0.21803772 0.6812372 -0.113468654 0.28530017 0.03521894 -0.20631008 0.26219642 -0.058108114 -0.25091538 -0.09485828 -0.30837104 -0.3137063 0.24004172 -0.2762034 -0.4912593 0.40430772 -0.045761723 -0.25688824 -0.30447114 0.16181447 0.11513624 0.09994062 0.107652694 -0.0883767 0.12800919 0.16246541 -0.5654675 -0.1170935 0.42666075 -0.24146901 0.1253712 -0.5972775 -0.4129813 -0.7727945 -0.13923849 -0.513562 -0.15244913 -0.14524148 0.33001423 0.20048448 -0.4422468 0.13995278 -0.61125714 -0.22016823 0.09597334 0.41851863 0.09875653 -0.16593282 -0.05828322 -0.2553432 0.12696326 -0.3430985 0.69472903 -0.6028121 -0.018524602 0.02942773 -0.33590543 -0.07676283 0.0925071 0.26604673 -0.22010776 0.73032236 0.24025719 -0.012151626 -0.20255046 0.108055845 -0.15157835 -0.100362666 -0.0018435763 -0.17310697 0.49671003 -0.0055934363 0.011052568 -0.018576724 -0.3801949 0.9965022 -0.21182586 0.39905247 -0.06292904 0.13627103 -0.2898789 -0.16323437 -0.43450838 0.2871694 0.17723715
230879 0.38412848 -0.9281968 -0.040938053 -0.083979905 -0.075648636 -0.052251276 0.19462943 0.18671732 -0.33929747 -0.11487648 -0.033304233 -0.09318085 0.061948493 -0.7639909 0.4981358 0.28750768 -0.43711925 0.25676525 -0.4401128 0.03733666 0.1439752 -0.118283205 -0.2026311 0.55708766 -0.108512335 -0.86521953 -0.23443265 0.43054324 -0.04315157 -0.55723923 -0.02150109 0.46717167 0.21454668 -0.19808386 -0.037690822 0.44931665 0.23413609 0.29235032 -0.44962868 0.13257417 -0.047948755 -0.9718323 0.4100028 -0.035596564 -0.2182466 -0.09807101 0.3822522 -0.49866292 0.76461893 -0.16277575 -0.26362962 0.12433223 0.2947459 -0.013000114 -0.5679794 0.02665533 -0.667609 -0.565845 0.04834916 0.21813379 0.61380035 0.095714584 -0.0022640012 0.36073184 0.33303332 -0.17544298 -0.3894522 0.016795065 0.25213662 -0.3541046 -0.23304482 0.420497 0.24847491 0.67409545 -0.83746415 0.18841955 -0.2641122 0.18298198 -0.2674788 0.4908801 -0.23911773 0.20211636 0.41174516 -0.07931062 0.085647404 -0.880935 0.37891147 0.09087561 -0.12716138 -0.59128225 0.78804976 0.15496957 0.19087477 0.31920445 -0.14458133 -0.24049768 -0.007483034 0.16852407 0.15536918 -0.2451184 0.24878845 -0.6517859 0.38058004 -0.7050684 0.05301859 -0.0547597 0.032160774 -0.786813 -0.019759374 0.043935213 0.03271173 -0.15281853 -0.97173935 -0.24860135 0.28626633 0.34145722 -0.5876157 -0.032403525 0.42601958 0.57895064 0.42807767 0.31018692 0.87060565 0.044439733 0.011342667 -0.4643357 0.11619961 0.57580626
4804 0.24812333 -0.3325411 0.04682546 0.45862123 -0.16021423 0.19981621 -0.28292108 0.2530375 -0.20152387 -0.013285786 -0.0850744 0.22427826 -0.14731863 -0.32433116 -0.23130082 -0.17235681 0.41206515 -0.054118406 -0.5510953 0.124003574 -0.49979308 -0.16427317 -0.32236496 0.08049425 -0.36114 -0.52898043 -0.020819161 -0.0697356 -0.101070136 -0.5258225 -0.50692564 0.27385578 -0.20810676 -0.45458093 -0.22862296 -0.21895832 -0.45461467 -0.061370786 -0.5562513 0.03887069 -0.42130595 -0.22820337 0.15336278 0.41891804 -0.08026547 -0.11569334 0.42556968 -0.35289475 0.15624306 0.049577918 -0.057936333 0.03347501 -0.4163389 0.26879463 0.054169778 -0.093898654 -0.45127192 -0.10687373 0.050080862 0.03574033 0.12978205 -0.041975137 0.26531154 -0.18363364 0.37945417 0.36410758 0.27201056 -0.35670725 0.7291333 -0.44927597 -0.1342537 -0.18532786 0.18522407 0.2510924 -0.3572297 -0.2417091 -0.16192797 -0.646331 -0.12611035 0.12275356 0.41089982 0.3894563 -0.18587852 0.06552388 0.10517547 -1.0061873 -0.018104654 0.10023477 0.28789032 -0.09324624 -0.12401363 -0.3398941 -0.47850776 0.31863725 -0.18331812 0.5411958 -0.34042057 0.05866422 0.36711642 0.2129695 -0.3841482 -0.30415085 0.102066256 0.06296091 0.608837 0.016551206 0.15725194 -0.59428346 -0.16243272 0.23050646 0.5720885 0.060792252 -0.29887086 0.41053024 -0.06305957 0.45325387 -0.12464711 -0.37283626 0.56081885 0.40783268 0.057200454 0.0013154576 0.25314662 -0.2747776 0.29441676 0.19059202 -0.2515767 0.3260625
2658 0.4761084 -0.9154753 0.09608765 0.12725037 -0.02664094 0.36503467 0.045933645 0.15033777 -0.32472876 -0.043767057 -0.06720853 -0.2623692 -0.025529994 -0.77900743 0.46187735 0.43065408 -0.17158438 0.25251487 -0.42725444 0.07514189 0.17783143 -0.034177806 -0.41829216 0.2112464 -0.24397422 -0.794693 -0.39619488 0.36907044 -0.084144324 -0.572333 0.11282423 0.6275919 0.21696174 -0.21731758 0.021065619 0.61975855 0.35358465 0.4302471 -0.68005574 0.28446656 -0.05234428 -0.77763927 0.40812314 0.0735663 -0.26177716 0.04253726 0.4458596 -0.5443062 0.5576436 -0.43237165 -0.280001 0.018257957 0.036408942 -0.2339566 -0.56079274 0.30241758 -0.78289944 -0.468069 0.23583625 0.23345973 0.49438405 0.012729221 0.023162704 0.40365607 0.20833488 0.053766876 -0.4540687 0.012177259 0.17878966 -0.50659084 -0.31774396 0.27591434 0.23317888 0.49197236 -0.9635477 0.08402686 -0.45105064 -0.017289106 -0.46733108 0.48831022 -0.053426463 0.004811592 0.7289396 -0.20362481 -0.06393412 -0.841141 0.22547697 0.22883916 -0.1649723 -0.38098654 0.71337295 0.11645657 0.09511648 0.381717 -0.13619126 -0.13666907 0.26343614 0.25444376 0.41717893 -0.21132231 0.25909555 -0.6496331 0.4306459 -0.5850536 0.26252815 -0.051616598 -0.013343366 -0.88949174 0.05748226 0.12843424 0.19002676 -0.090773776 -0.9419342 -0.13408668 -0.00706919 0.44375366 -0.72425395 -0.14845984 0.406766 0.4522943 0.1424787 0.3587998 0.7948037 0.07065809 -0.21989545 -0.42400965 0.10339471 0.41385627
12576 -0.07017708 0.20139332 0.24075055 0.21007381 0.08416721 -0.082694545 -0.38373327 0.28506917 -0.4477793 0.39708778 -0.26088664 0.38836524 -0.13360089 -0.1213131 0.27889955 0.48947337 0.14768836 0.08762088 -0.14987561 0.09780964 0.15621908 0.16732235 -0.25502068 0.013797625 0.17248285 0.079110995 -0.20839417 -0.11477598 -0.4211373 -0.082567684 -0.15192343 0.7075943 -0.050173957 0.045228027 0.14910898 0.100676745 0.2028432 -0.082747474 -0.23776545 0.20150271 -0.014642964 0.019046308 1.0259193 -0.5590569 -0.5091088 0.15507618 0.7492619 0.12337071 -0.03741497 -0.053176753 0.11366323 0.5001876 0.04925184 0.14911616 -0.24018262 -0.30784637 -0.13047165 -0.18727085 -0.062095147 -0.31221193 -0.20629583 0.55239564 0.023372633 0.24642965 0.36425725 0.27404696 -0.11140906 -0.09707431 -0.20905684 0.5744311 -0.015944494 -0.42749977 0.09823398 0.08367472 -0.208178 0.24432802 -0.5006971 0.2032381 0.2841089 0.5097988 0.22014467 -0.032893736 0.08042011 0.13423415 -0.1956183 -0.3587783 -0.10502205 0.15806666 -0.1719913 0.21834935 0.21547945 0.03518381 -0.67940396 -0.08478767 0.3727102 -0.00027806198 0.04581564 0.08600301 -0.07885119 0.3297253 0.2765899 0.30563965 -0.08239358 -0.18299346 0.41213337 -0.22059014 -0.26876375 -0.29445702 -0.059673645 -0.12708539 0.005864901 0.3653127 -0.3654221 0.27964726 0.24453025 0.43643346 -0.23783094 -0.20202851 0.26158085 0.07202338 -0.061244797 0.14670698 -0.1482096 -0.4395773 0.4997909 -0.23760949 0.3612052 0.24827887
23738 -0.06234486 0.022806 -0.36288613 -0.046236545 -0.23890097 -0.45346335 -0.47205922 -0.31755733 -0.48634383 0.116850816 -0.28196496 0.20315392 -0.100919664 0.47991836 0.016553266 0.34018505 -0.03268038 0.0011450192 -0.0018944737 -0.28853408 0.02546328 0.37089363 -0.010226549 0.24790215 -0.4632962 -0.2996709 0.10178292 0.21245648 0.03350277 0.0022822714 -0.45887807 0.4145781 0.31593543 -0.12682046 -0.4375133 -0.5332184 -0.5039783 -0.55137384 -0.17839818 0.074741885 -0.41750398 0.21532525 0.47102186 0.12034088 0.037438072 -0.1512537 0.7169378 -0.30469573 -0.024968365 0.07149248 -0.04094397 -0.12345107 0.08210074 0.5413028 -0.5226283 -0.30787393 0.02764681 0.3418706 0.043912165 -0.1563096 0.38984436 0.009937115 0.67247844 0.019759333 0.30154628 0.004648911 0.13151406 -0.4181351 0.015196355 -0.15900078 -0.10565869 -0.41014463 -0.033236742 0.27761072 -0.402696 -0.03653579 -0.21828942 -0.044346713 -0.3408026 0.056775838 0.64164907 0.47340718 -0.35098982 -0.28332284 -0.43596816 -0.40201482 -0.09327324 -0.04168307 0.19804613 -0.47053 0.37217745 0.30519474 -0.19617777 0.21883278 -0.16906966 0.39453158 -0.28341532 -0.11153791 -0.056996804 0.12137734 -0.32383746 -0.20306543 0.33263803 -0.054105256 0.19948737 -0.17800863 -0.15004663 0.25843272 -0.29032016 0.42466062 0.0049439957 0.043085594 -0.04456695 -0.0034149217 0.1272714 -0.10060053 -0.16342132 -0.3028563 0.32331058 -0.20484503 0.45364657 0.05882636 0.19157389 -0.20826139 0.21108213 -0.20506561 0.051978875 0.62517774
35922 0.5250254 -0.4153008 -0.032676343 -0.009990287 0.09417743 -0.42878032 0.3087286 0.16573636 -0.3065509 0.4407275 -0.18155077 -0.3115339 0.2730127 -0.38637206 0.029144263 0.45005673 -0.3547094 -0.23272581 0.08403777 -0.35684028 0.21772453 0.12420238 0.054904893 -0.089239925 -0.38381785 -0.53936714 -0.1002657 0.34690458 0.3265166 0.0752638 -0.19636108 0.2842513 -0.41015708 -0.117461495 -0.027085861 -0.2727233 -0.456826 0.33534512 -0.21399942 0.028808214 -0.057831973 -0.33184704 0.5208685 0.2041639 0.9136203 -0.17717823 0.33256525 -0.08286983 -0.059278578 -0.091999166 -0.27567145 -0.2301234 0.007514896 -0.24583627 0.064122505 -0.05521945 -0.2522916 -0.14189264 0.2620761 -0.024031706 0.12730342 -0.29906788 0.2623146 -0.0155992145 0.022571998 0.44330332 0.05862738 -0.1431581 -0.3027178 0.052921653 -0.08592335 -0.115499854 -0.024764413 -0.04130714 -0.44298157 -0.37201813 -0.59537035 -0.15191293 -0.51251096 -0.058421362 -0.34879848 0.011501583 0.3163492 -0.727476 -0.08390447 -0.32450745 -0.3488276 0.37032488 0.11087367 0.21138665 0.3802328 -0.044350952 0.038963642 0.45229214 -0.10417252 0.5117113 -0.1508841 -0.12413374 0.22015947 -0.23907043 0.40251383 -0.17482434 0.06334876 -0.044239487 0.39892837 0.038381204 -0.09459147 -0.100737154 0.4084402 -0.14579311 -0.06396713 -0.24038333 -0.16991721 0.43084553 0.18257749 0.28221312 -0.13238771 -0.34954554 1.0696721 -0.09620632 0.29561695 -0.26044235 0.2865048 0.09071182 0.14665577 -0.4305054 0.51089454 0.08901484
3218 0.05826863 -0.48377222 0.17989482 0.3918211 -0.016745606 0.14043835 -0.26914635 -0.21366493 -0.30173424 -0.2574211 0.12791218 0.17530389 -0.77005774 0.54531765 -0.053270467 0.67587095 -0.2665758 -0.17100115 0.28295064 -0.12796433 0.17104355 0.60575813 -0.3213754 0.0760718 -0.30354682 -0.49754575 0.3053972 -0.39650977 -0.2581888 -0.0052088317 -0.3983202 0.27727503 0.26502326 0.12246583 -0.027451174 -0.35351217 -0.106510065 -0.21326707 -0.061208293 0.15364988 -0.094021 -0.02812307 0.7275142 0.31930408 -0.5753208 0.013118341 0.27334654 -0.5230447 -0.10897661 -0.3121807 0.18085106 -0.20476636 0.1836385 0.24011862 -0.19643676 -0.09325002 -0.058493692 0.21297672 -0.1205919 0.2185638 -0.13348058 -0.3620884 0.64739215 0.05263398 0.008181596 -0.1973836 0.15615162 -0.33296564 -0.14303873 -0.13227381 -0.0031549619 0.098464355 0.20846795 0.12718572 -0.2962251 -0.2365942 -0.15293692 -0.30693495 -0.29892984 0.47687906 0.15795118 0.322294 -0.17003368 -0.48540705 -0.19815776 -0.48678806 -0.3535944 -0.06621933 -0.21223551 -0.08491418 0.059691586 0.2915884 -0.23219746 -0.30220136 -0.24486668 -0.05471641 -0.05440201 -0.0920752 0.06948871 0.26690093 -0.2936409 -0.14659661 0.41529897 -0.24797326 0.106312364 0.114892945 -0.17690466 -0.34322238 -0.18711112 0.4588695 0.04710402 -0.22259147 -0.5069353 -0.09094604 0.81724346 0.3271844 -0.16671446 -0.10850647 0.47226724 0.19114943 0.09222503 -0.17719492 0.28026733 -0.12795638 0.5008812 -0.17694066 0.31323713 0.96090895
16819 0.48374835 -0.3468746 0.44269404 0.28929618 -0.4548206 -0.6806426 0.3990866 -0.13718085 -0.10536885 0.22996062 0.24462727 0.05575192 0.11859222 -0.19633628 0.059813455 0.4898452 -0.095314614 0.48318145 -0.31008095 -0.11006533 -0.20833787 -0.40746686 0.24993216 0.33725753 -0.21698394 -0.022356566 0.30572537 0.23680487 -0.32662147 -0.42498153 -0.4362068 0.68319565 0.10826617 -0.09981715 -0.2027182 0.36808184 0.050600138 -0.28983545 -0.4627176 0.2307753 -0.024964942 -0.33113793 0.25088862 0.037549023 0.42705786 -0.73065656 -0.3009067 -0.67059064 0.11638001 0.56356597 0.5242429 -0.66506577 0.6215086 0.04707678 -0.44292074 -0.18783188 -0.45205888 -0.19899142 0.07498112 0.27596617 0.17001487 -0.18284242 0.35668412 0.13294841 0.19249399 0.09739297 -0.19668531 0.07289022 -0.4572561 0.049082115 -0.0693411 0.09118337 -0.1194279 0.23389636 0.1669652 -0.51367795 -0.41222805 -0.18587169 0.2860891 0.5657747 -0.4045724 0.056320466 -0.16314116 -0.08125038 -0.09593164 -0.9326224 0.47597927 -0.0068058306 0.32637888 0.029028311 0.6051333 -0.2861753 -0.22330141 0.22847249 0.15403642 -0.010359105 0.2873076 0.37063348 0.39509314 0.3913945 -0.01909191 -0.15778232 0.62742996 -0.20819776 0.27544338 0.4328277 -0.020198917 -0.64353144 -1.0573585 -0.21559852 0.28286916 0.627228 0.04445257 0.4014754 -0.08350355 0.20978935 -0.69790465 -0.4943771 0.2712292 0.015104696 0.52654314 -0.20884389 0.6512287 -0.49087098 0.3483375 -0.4461706 0.43932614 0.44882396
3191 -0.11329437 -0.13750266 0.04305159 -0.30184913 -0.11507828 -0.6589692 0.08926544 0.10738849 -0.42998943 0.38977116 0.084960245 -0.020012395 0.2978252 -0.38108185 0.14131053 0.455222 -0.22643268 0.219122 -0.29125667 0.18317506 -0.41134563 -0.32442367 0.19882423 0.7875836 0.060422298 -0.33365178 -0.023078758 0.13102405 0.05658007 -0.32304752 -0.16824554 0.34148514 0.25189838 -0.23825833 -0.43351546 -0.094178945 -0.21526136 -0.054166775 -0.5261717 0.036422104 -0.15154551 -0.44352826 0.5146663 -0.3383941 0.19596218 -0.50191396 -0.045812685 -0.3803585 -0.16407907 0.19617648 0.007046134 -0.41564322 0.023266764 0.6842243 -0.184585 -0.5770278 0.22344832 -0.091493756 0.42122528 0.0221352 0.06253212 0.27157804 0.7805113 -0.017325258 -0.40497878 0.43675306 0.03563703 -0.39519572 0.223431 -0.27362958 0.33185473 -0.19564064 -0.07995839 0.095078796 0.06663894 -0.28782308 -0.2041201 -0.21371555 -0.14645402 -0.013913694 0.09751892 0.1684835 -0.20033956 -0.48191935 0.61647326 -0.17028202 -0.10800509 0.5701911 -0.25696942 -0.27080625 0.32830086 -0.24243526 0.13477913 0.2116474 -0.16405201 -0.012878493 -0.24259028 -0.36251312 -0.121371485 0.29992458 0.020533869 -0.074528135 0.09388993 -0.18414445 0.13321877 0.55130476 -0.550082 0.082027175 -0.29526386 -0.33104774 -0.00013453442 0.07026725 -0.04019996 0.7228055 -0.22351965 0.021027721 0.13980584 0.11500004 0.69440883 0.064986154 0.39428845 -0.22467867 0.6165566 -0.019336449 -0.0004805189 -0.2977667 0.42443493 0.57284325
6334 -0.11830669 -0.13576762 0.029567106 0.07326716 0.46306083 -0.1746395 -0.34780553 -0.115028895 0.108157076 0.35123208 0.03826397 -0.25232637 -0.062340844 0.22969016 -0.08194079 0.33275023 -0.42253003 -0.13754421 0.10704586 0.003696527 -0.06307106 0.34410557 0.06321171 0.7329138 -0.32210025 -0.26712295 0.20715773 -0.6117934 -0.17242984 0.08277082 -0.094589554 0.08874918 -0.0708103 -0.30331084 0.17008409 -0.18774365 -0.53306854 0.13300021 -0.1550652 0.49329844 0.3899542 -0.10196669 0.46349904 0.10987585 -0.505947 0.14180864 0.54627204 -0.16500811 -0.12975264 0.066201665 0.15083116 -0.013066737 0.12410282 -0.0291942 -0.18981701 -0.45202175 0.0727796 -0.26876858 0.07284969 -0.025861613 -0.29725492 0.05922959 0.28552845 -0.24688815 -0.52564687 -0.2024883 0.47550148 -0.41762018 0.5948178 -0.37290046 0.3481062 0.07507428 0.04061019 0.5814709 -0.041610565 -0.3417781 -0.2780352 -0.18773325 0.14297079 0.4840131 0.27399293 -0.08164218 -0.16734272 0.18849076 0.33936363 -0.6915565 -0.2909533 -0.04041385 -0.32891318 0.091482 -0.21491715 -0.23189533 -0.15900977 -0.09312928 -0.13651106 0.16165507 0.15329534 0.17701517 0.082031496 0.11798139 -0.018859688 0.35030943 0.28933662 -0.05200272 0.531328 0.05001022 -0.09482458 -0.28783795 -0.42106533 0.071849525 0.35124993 -0.22104278 -0.35457304 0.11567097 0.22242646 0.16897221 -0.10926815 0.17431991 0.26482168 0.04781132 0.21565692 -0.21582845 0.22644949 -0.27343804 0.58456385 -0.056335732 0.2204315 0.8738033
210871 0.25298694 0.17318033 0.28225067 0.010931168 0.08562113 0.52586347 0.22914469 -0.31418142 -0.4550748 0.0886295 0.15162088 0.30582732 -0.15723898 -0.2738212 0.41614538 0.2933722 -0.2282262 -0.1973088 -0.49790305 0.5606654 0.35037822 0.07461613 -0.4770433 -0.13104229 -0.2683854 0.19095086 -0.0028836299 -0.01015306 -0.38836065 0.005105686 -0.27193347 0.64189756 -0.3052974 -0.3275004 0.050500385 0.18111354 -0.1560264 0.01988769 -0.20075686 0.1414629 0.20260237 0.2919699 0.8459142 0.034778275 -0.401828 0.37161332 0.46921748 0.36206323 -0.22716953 -0.20236209 0.09261183 0.16351855 -0.36271307 -0.15508777 -0.49233064 0.10479059 0.18540516 -0.09441382 -0.08442212 -0.25577378 -0.31900513 0.2475071 -0.27736196 0.04986928 -0.08246825 0.38403472 0.40664247 -0.5768643 -0.20146215 0.280241 0.21504457 -0.23034255 0.103445664 -0.17056197 0.16647984 -0.05560572 -0.5970895 0.07402441 0.12456576 0.3521275 -0.17304344 0.118329704 -0.15773375 0.21511255 -0.21792036 -0.008544338 0.35228127 0.15990411 0.2244857 -0.043341625 0.10642215 -0.18064696 -0.16525058 0.08482369 0.074985966 -0.36262244 -0.02702015 0.29370192 0.15842274 0.11659683 0.19855636 0.12174979 0.15836433 -0.23582166 0.2915324 0.3536051 0.05217865 -0.17851284 -0.3252514 0.4692897 -0.027271984 -0.031227617 -0.20228407 0.23109406 -0.107130684 0.13135023 -0.0061878385 -0.4040536 0.5939933 0.4459973 -0.36422467 0.40999806 0.29578942 -0.14469615 0.22372195 -0.21450298 0.21218584 0.9808995
642894 0.5157701 -0.47071767 0.6437589 0.3172714 -0.3576606 -0.7057696 0.41790485 0.28359517 -0.43895075 0.2884626 0.3650134 0.09307885 0.07349144 0.07934456 0.14949526 0.713324 -0.28412452 0.56606346 -0.47025183 -0.28316674 -0.4458338 -0.42572373 0.14564633 0.1743199 -0.19434205 -0.138265 0.1439177 0.07599456 -0.4854793 -0.3035171 -0.39153376 0.8931203 -0.19657089 -0.1204713 -0.06767598 0.42966637 -0.04297015 -0.08923359 -0.09360011 0.2726596 -0.35050985 -0.39370477 0.020165695 0.12498834 0.16561452 -0.6161336 0.09303628 -0.78994083 0.016480234 0.64963925 0.6278877 -0.65461475 0.7445371 0.06693728 -0.2792203 -0.24724506 -0.5290995 -0.14166063 -0.17464396 0.14209336 0.0019559944 -0.109170176 0.21418345 0.06598997 -0.13497014 0.13000348 0.040476184 0.19304734 -0.20098075 -0.025970766 -0.20090863 -0.12910265 -0.32789788 0.13847595 0.025589537 -0.7363133 -0.39759427 -0.45061627 0.44618163 0.8453629 -0.09434535 0.09969913 -0.1553247 0.058169432 -0.07795897 -0.49700218 0.54812676 -0.27453458 0.30968288 0.14236678 0.60274565 -0.5260601 -0.307227 0.374246 0.39621627 0.21911308 -0.155887 0.6149416 0.35165918 0.37898836 0.2956273 0.18714155 0.49944416 -0.14140321 0.3565861 0.50781196 0.2955266 -0.6473971 -0.8257413 -0.21244042 0.44337285 0.66938466 0.2615266 0.21605952 -0.08221783 0.33090383 -0.772116 -0.5589389 0.6754592 -0.20733504 0.6069374 -0.44073537 0.4864741 -0.744424 0.42651826 -0.38433945 0.27190328 0.5892438
6913 0.4450831 0.050479528 0.19098325 0.112581946 -0.39720225 -0.22241321 0.4493 0.121570125 -0.021670207 0.15095413 -0.10934278 0.15571834 0.5872661 0.031706695 0.13097414 0.4584762 -0.15666951 -0.10766551 -0.5075443 -0.2868335 -0.6480611 -0.48509103 0.6149683 0.43480483 -0.2178783 -0.29000774 -0.007287637 0.73119414 0.041224893 -0.3060045 -0.1354104 0.8106247 0.07661904 0.24225985 0.027699865 0.44531828 -0.365491 -0.5284983 -0.08231692 0.2669992 -0.11627182 -0.4654065 0.17888322 0.46220914 0.36500564 -0.1560474 0.15312399 -0.5827741 0.41656157 0.7849541 0.30055094 -0.43404675 0.14416769 0.13777468 -0.37111515 -0.47880742 -0.14249389 -0.19196624 0.19839695 0.055098068 0.43023303 0.00800898 0.20023754 0.061222166 0.105053805 0.4081262 -0.13977912 0.037779503 -0.4358128 0.047455385 0.0010226915 -0.1703752 -0.31272036 0.3738201 0.17208014 -0.118826106 -0.16850235 -0.15363099 0.10740818 0.27724865 -0.35471693 0.49019566 0.03336259 -0.1458857 0.2124763 -0.6449756 0.3367378 -0.34729847 0.13196711 -0.12176862 0.48485455 -0.075882934 0.20737651 0.3820616 0.12064116 0.5321723 0.12729463 0.14814383 0.4118867 0.18648708 0.0022756904 0.13385108 0.17335135 -0.038951498 0.14391774 0.5946152 -0.17815372 -0.26215872 -0.021715427 -0.06546319 0.46383074 0.1519522 -0.22282003 0.23141487 0.32993418 0.35879514 -0.43789065 0.0012780206 0.8430566 -0.120731875 0.5233525 -0.19694941 -0.13072214 -0.0931519 0.38356394 -0.34685916 0.37870246 0.380461
54131 0.6629546 0.06726373 0.18345717 -0.18891783 -0.10059847 0.2729142 0.1200171 -0.020556025 -0.27687508 0.05556571 -0.25945202 -0.18133901 -0.03607519 0.20365526 0.36304763 0.1719929 -0.23306799 -0.19253264 -0.50544536 0.53571934 0.20141602 -0.20295887 -0.41559315 0.2567353 0.0068792063 -0.092877164 -0.16054161 0.056014102 -0.35149097 -0.40602115 -0.36828536 0.4418836 -0.19040501 -0.21842049 0.4249499 0.46616545 -0.46997336 -0.09989741 -0.38072848 0.42163536 0.08139289 -0.08318492 0.8304323 0.30165187 -0.58404756 0.3973838 0.44430926 -0.05235611 -0.26316887 0.00281887 0.23363468 -0.008831699 -0.16144031 -0.3768491 0.00884866 -0.25742957 0.23992392 -0.25040367 0.058556616 -0.3295141 -0.23425418 -0.03598457 -0.13073856 0.10681205 0.25384724 0.34645683 0.0016890261 -0.09593596 0.09583208 0.2303793 0.22447255 0.0744943 0.3763245 -0.100536786 -0.030503687 -0.12810645 -0.8275438 -0.045735214 0.46655878 0.53963315 -0.05188729 0.15523393 -0.13505866 0.26538664 -0.16076468 -0.08917921 0.37499994 -0.084285386 0.022556912 -0.20723146 0.1653478 -0.16992564 0.00019668156 0.25538954 -0.15363549 -0.21850161 -0.21407045 0.08987154 0.5262128 0.39632583 0.51888114 0.4431737 -0.12175795 0.13309932 0.39398488 0.23115525 -0.00083389593 0.092705704 -0.40041837 -0.08743778 0.24896938 -0.11665569 0.14286852 -0.006932143 -0.12957735 0.13264376 -0.3897873 -0.3400217 0.47043785 0.6859339 -0.35561982 0.1561423 0.49104428 -0.23008686 0.58308834 -0.5204095 0.47781134 -0.08578132
38205 0.27632987 -0.4832845 0.17392938 0.1649704 -0.0027025954 0.26062784 0.13163991 -0.6505484 -0.1512957 0.10417518 -0.06699205 0.37425205 -0.078012735 -0.24505325 0.24802256 0.6575058 -0.036959313 0.050897732 -0.24554643 0.52048427 0.52842355 0.047067314 -0.4777347 -0.03315256 -0.11017202 -0.08443032 0.04521929 -0.06751611 -0.46358067 -0.10225793 -0.29312417 0.8341559 -0.041152615 0.20611626 0.23809782 -0.16216725 -0.10559687 0.0982355 -0.37059888 0.28403902 0.43370035 0.301698 0.55602145 -0.52372825 0.019225566 0.6775646 0.32424188 0.20523274 -0.31395638 -0.20217247 -0.07419885 0.08255481 0.14397447 0.1325037 -0.24724768 0.06414456 0.2786985 -0.18841043 -0.16575485 -0.52322036 -0.22896798 0.16475177 -0.16482197 0.19957696 -0.06535302 0.26432347 0.24084267 -0.58980095 -0.2519279 0.3283902 -0.12711295 0.059524618 0.24071983 0.13302559 0.029371338 -0.39355755 -0.89097434 0.0018114253 0.23320918 0.3409099 0.096564606 -0.15877397 -0.07621489 0.49502394 0.16528948 -0.16866863 0.3483014 0.1130698 0.09975488 -0.24369483 0.081448264 -0.08000832 -0.07447044 0.50255775 0.16433913 -0.15474781 0.00047464517 0.58609605 -0.24996233 0.18289573 0.31921008 0.40235713 -0.17633006 -0.21321456 0.41181344 0.07568322 0.110722475 -0.11102614 -0.12657438 0.12770127 0.06980104 0.09820241 -0.34227502 0.18872929 0.02450169 0.22308587 0.1484549 -0.41535053 0.44598055 0.30928287 -0.2257535 0.54657984 0.37978846 -0.0170715 0.39118388 -0.5547423 0.13131407 0.46558803
18777 0.51065695 0.009161824 0.1275125 0.3447559 -0.19058143 -0.7552345 -0.054179832 -0.27557302 -0.28673625 -0.07296183 0.052878316 0.2714323 0.115031995 -0.06495805 0.09752957 0.20906511 -0.2481284 -0.27283534 -0.11667487 0.046462044 -0.16152297 0.21624261 -0.2569332 0.031156605 -0.41120958 -0.6407754 0.16173317 0.369533 -0.060128834 -0.14736186 -0.17943116 0.16964579 -0.053062007 -0.039032906 -0.26959294 -0.42493457 -0.35179254 0.007827004 -0.27814487 0.15236327 -0.11849421 -0.08616487 0.55021113 -0.38008648 0.8416302 -0.041466005 0.46874782 -0.14237997 0.13949417 0.21694532 0.033874992 -0.34844145 -0.02591122 0.7133107 0.14786564 -0.30229554 -0.101209626 -0.32944885 -0.3711853 -0.09235357 0.20093946 0.078775086 0.5040705 0.037111215 0.017961146 0.45778218 0.041481465 -0.42387867 -0.2824923 0.04735144 -0.1649286 -0.16018133 -0.19061953 -0.16938742 -0.3714385 -0.15762715 0.18166818 -0.40074795 -0.2882876 0.15857442 0.19831553 0.19951025 -0.3007542 -0.48875484 0.21883917 -0.4588039 0.008793895 0.006475458 0.11600986 -0.63998127 0.17753704 -0.3999291 -0.3605548 0.1435249 -0.062295724 0.32795405 0.049455352 -0.13422215 -0.23989195 -0.022689013 0.44661543 -0.18087994 -0.21467343 -0.0063752956 0.5539454 0.2280084 -0.36759427 -0.0044722003 -0.0068104304 -0.21731424 0.7356648 0.10412959 -0.21340612 0.66409034 0.1368608 -0.11863537 0.013381839 -0.24859047 0.62617743 0.69586295 0.40235958 -0.21444024 0.28400508 -0.2208878 0.82751983 -0.29006705 0.34606406 0.22539513
2696 -0.16329974 -0.61659586 -0.21157852 -0.09450896 0.37493196 0.14287353 0.47858685 -0.1054194 -0.055389814 0.2999776 -0.41376996 -0.2929683 0.16640432 -0.45427218 0.24167638 0.37168613 -0.10318992 0.10888144 -0.08942388 0.31949067 -0.10663699 -0.4347325 -0.16340272 0.09678912 -0.36474463 -0.5910832 0.027784776 0.6039149 0.06700004 -0.6152656 0.029591568 0.52997243 -0.22179157 0.19633691 0.019786818 0.2921527 -0.06098701 0.38062322 -0.085210785 0.3531584 -0.16889694 -0.46294805 0.09502137 -0.5451958 -0.2956754 -0.14412233 0.13810234 -0.96452975 0.48487797 -0.47200814 -0.1517193 -0.10534282 -0.049163185 -0.05684158 -0.15462643 -0.53632945 -0.63822895 -0.24867253 0.5688404 0.21166259 -0.062107448 0.09642985 0.182052 0.2517847 -0.16464278 -0.018845536 -0.36012533 0.32773107 -0.06555414 -0.7433407 0.010060654 0.044050235 -0.31829715 -0.06492446 -0.10880393 -0.111597694 -0.36838752 0.34836325 -0.569027 0.35575822 -0.08530706 0.2630203 0.11293075 -0.2689257 0.049525205 -0.45619568 0.12225181 0.38929322 0.09203804 -0.3770563 0.6549859 -0.22601962 0.06940984 0.32373115 -0.29634616 0.03458042 -0.14989962 -0.11901563 0.16707696 0.12502684 0.015297197 0.31999928 0.48895714 -0.124622434 0.25072333 0.22552446 0.00088301866 -0.15774827 0.27430573 -0.16755019 -0.2202223 -0.15225156 -0.7790807 -0.112912 0.12954718 0.16974124 -0.71076304 -0.29231328 0.7823636 0.34676623 0.119341485 0.4104794 0.74198073 0.24402054 -0.1679594 -0.36362004 0.5084574 0.46292114
2654 0.03709258 -0.0936137 -0.039230764 -0.116760865 -0.23211731 -0.51730865 -0.5278829 0.030426847 -0.5543395 0.4811515 0.16612437 -0.079172924 -0.009744505 0.40553224 -0.23984511 0.15000336 -0.16551739 -0.11054829 -0.2912279 -0.07998306 -0.07068121 0.13244271 -0.1481159 0.59417194 -0.50440824 -0.3785849 -0.048169494 -0.047378257 0.1730263 -0.29591063 0.03883001 0.58767426 0.023368899 -0.3534269 -0.5468735 0.13797589 -0.6051814 -0.29937777 -0.33890796 0.28261796 -0.57870835 -0.07597846 0.37272802 0.086068325 -0.033252023 -0.06475168 0.12672086 -0.6620299 -0.13563225 -0.18118437 0.12329002 0.16910619 -0.018605836 0.43827018 -0.83480066 -0.37153962 0.10042252 0.22134092 -0.2248135 0.07024832 0.047937796 0.36285385 0.19895335 0.08833733 -0.07233769 -0.33294183 0.032974668 -0.29191026 -0.08127996 -0.37844363 0.30914426 -0.29085985 0.3404952 0.9025422 -0.012351719 -0.26056215 -0.2867577 -0.44143373 0.082738 0.010004893 0.2927394 0.31157935 -0.3119091 0.28943482 0.122135594 -0.38498166 -0.051188596 -0.25614047 -0.05737556 -0.5497257 -0.21525571 -0.21029797 -0.03789307 0.36507875 -0.1287439 0.2804717 -0.41544566 0.14629555 0.5116128 0.07258181 0.24140063 -0.42377844 0.14603081 -0.44621834 0.25829616 0.13344431 0.033379402 -0.3985369 0.025083719 0.3277985 -0.07083555 0.11563198 -0.2686057 0.01433744 0.17053795 0.0009212207 -0.39505324 -0.0642111 -0.06577708 0.18390246 0.7901706 -0.21998142 0.34084603 -0.048406072 -0.1414759 -0.05244744 0.27883366 0.5535283
643221 0.7212132 -0.44445607 0.7112811 0.16085255 -0.20830627 -0.90189874 0.39298126 0.30580494 -0.24623382 0.40917057 0.22304046 0.007913961 -0.0470434 0.006574155 0.23836033 0.53541625 -0.28980386 0.32444558 -0.4137752 -0.18933715 -0.3215998 -0.51595396 0.1263641 0.31862688 -0.21655166 -0.25902525 0.24356186 0.33346432 -0.3872566 -0.3376459 -0.28794184 0.789134 -0.031731714 -0.005169547 -0.17797017 0.5224383 -0.06839062 -0.14106663 -0.3044128 0.3015369 -0.2308187 -0.44623312 0.23193173 0.21374696 0.53072375 -0.65236574 -0.15893906 -0.5085815 -0.059078675 0.6967197 0.55075425 -0.82826734 0.70261914 0.23359309 -0.35387328 -0.09366097 -0.50716084 -0.21559103 0.18272239 0.14987622 0.30601874 -0.12525561 0.25786597 0.16173548 0.04600439 0.18010437 -0.23780686 0.07805405 -0.25378278 0.040237237 -0.1699573 -0.02920413 -0.44522342 0.10397014 0.030937625 -0.4801028 -0.4232355 -0.36349165 0.18502498 0.6947296 -0.23635559 -0.16014875 -0.119733445 -0.15512286 -0.062282544 -0.67566127 0.46947685 -0.19340897 0.34201312 0.14806537 0.7223669 -0.5311689 -0.2766721 0.2790553 0.31620848 0.04130718 0.1538747 0.3319993 0.17298843 0.40491316 0.22007912 -0.052248552 0.42223436 -0.23025405 0.15275964 0.68115026 0.18861838 -0.56194323 -0.51402175 -0.31225643 0.4810005 0.65400803 0.16773692 0.32828182 -0.12298225 0.13487326 -0.7936068 -0.5039371 0.77359915 0.034900043 0.71953905 -0.17237996 0.3818743 -0.4931354 0.3694699 -0.44753197 0.5254757 0.33702627
35797 0.05512266 0.26378086 -0.3803832 0.19949085 -0.051007036 -0.38016796 0.5100113 0.24141741 -0.08857501 -0.008713046 -0.4024492 -0.057687126 0.08907333 -0.09642991 0.10350286 -0.04274277 -0.34704667 -0.24705891 -0.093544886 0.03834192 0.22448115 -0.08198052 -0.04524056 0.5727619 -0.05546033 -0.38334668 -0.059986442 0.30300608 0.1272605 0.017931083 -0.47074834 0.26296437 0.09965368 -0.12214222 0.12651156 -0.25912833 -0.12975398 -0.0012173635 0.27030215 0.3402962 0.19795753 -0.38860944 0.37030098 -0.15487005 -0.20183699 0.10474598 0.24197201 -0.20455037 0.41905954 0.4128231 -0.16900077 0.1233502 0.49372682 0.39985007 -0.5072505 -0.308106 -0.2047132 -0.3146734 0.13768138 -0.16779546 0.064442836 0.5885739 0.31768763 -0.061606616 0.25038975 -0.20593563 0.26524585 -0.09658136 0.14648435 0.30681577 0.053043745 0.09722781 -0.08473847 0.517552 -0.25571695 0.15749197 -0.298956 0.4876613 0.26445618 0.20360765 -0.13114324 0.6054696 -0.30837613 -0.3819824 -0.15162253 -0.5810369 0.21285404 0.2159784 0.19096105 -0.3311691 0.48237163 0.115331665 0.3330189 0.16370244 0.12673272 0.1887382 -0.48019823 -0.058791004 0.26070648 -0.14259265 0.3594432 0.30711317 0.24083844 -0.4178432 -0.08536579 0.62556624 0.10139106 -0.18352287 -0.10685331 0.25648937 -0.43302745 0.061763804 -0.47811857 -0.13043754 0.12032063 -0.2618361 -0.037206747 -0.00023855362 0.50041693 0.43983853 0.34878984 -0.027179342 0.13332988 -0.015046995 0.104804665 -0.18906493 0.46697596 0.45637894
5348 -0.08958675 -0.6205313 -0.41868037 0.08017646 -0.041970186 0.10462422 0.53939635 0.043448858 -0.10628734 0.21880662 -0.5984285 -0.23512848 -0.15631858 -0.52180636 0.4505715 0.30166763 -0.18302593 -0.04797764 0.081839316 0.15471141 -0.08862291 -0.44549373 -0.27792987 0.20636457 -0.30072662 -0.60846525 0.17787531 0.56743145 0.1023092 -0.37535736 -0.107609436 0.65492356 0.007692625 0.29915622 0.039964166 0.04461561 0.057830416 0.3932925 -0.08069157 0.26082957 -0.13155968 -0.5870635 0.14673589 -0.43471628 -0.4436105 -0.13969961 0.14124802 -0.8432253 0.49213105 -0.24808857 -0.26656234 -0.13935462 0.06803065 -0.06446577 -0.30525696 -0.3124527 -0.79936254 -0.40120345 0.42630225 0.11513119 0.07197482 0.022231208 -0.0700344 0.49045843 0.0675038 -0.21181896 -0.39287427 0.4187094 -0.25094226 -0.42095727 0.00822957 0.00019992681 -0.23540512 0.07315307 -0.13815178 0.25629237 -0.1846776 0.49780753 -0.45793274 0.2921717 -0.24450798 0.3645888 0.13148661 -0.23151672 0.20192175 -0.6393659 0.4406915 0.5017492 -0.0388284 -0.57472545 0.77783334 -0.22060527 0.0331171 0.25381893 -0.250286 0.06897455 -0.19072351 -0.03123427 0.48889533 -0.044511925 0.06585837 0.26387376 0.62410426 -0.11466911 0.014170713 0.26215586 0.250731 -0.18627371 0.10471656 -0.22100744 -0.20081137 -0.15864445 -0.8124518 -0.18380673 0.24612528 -0.008448375 -0.6330229 -0.3160776 0.5498928 0.58550024 0.098714955 0.14080809 0.63234633 0.20520139 0.05177337 -0.551478 0.36434653 0.39517963
39127 -0.012912062 -0.39184406 0.14599732 0.37207338 -0.13858381 0.224602 -0.66909504 -0.057028577 0.078284875 0.22176431 -0.095356256 -0.20812888 -0.41411173 0.25056276 -0.34320414 0.5818256 -0.8465762 -0.10296008 0.08751482 0.22858599 -0.37365738 0.44185925 -0.17525774 0.34541887 0.18277681 -0.2604569 0.39381006 -0.44299513 -0.21041021 0.11188586 -0.09764926 0.3613926 0.3671106 -0.2700324 -0.17455395 0.01660348 -0.03879688 -0.18618935 -0.25440836 0.17115495 0.060343772 -0.31385636 0.6933074 0.18255012 -0.49820545 -0.14370921 0.22242928 -0.7944888 -0.14905024 -0.19991511 0.23132569 -0.2869806 0.34659153 0.1984768 -0.020528005 -0.4063132 -0.08128731 0.45186922 0.035499096 0.43203196 -0.12710963 -0.07446718 0.057378445 0.33063883 -0.01794073 0.30734313 0.19404694 0.186704 0.4727142 -0.45050177 0.21836835 -0.14164051 0.44705632 0.313704 0.30850127 -0.26319984 -0.16119911 0.08695817 -0.12171808 0.18186443 -0.18118799 0.46027872 0.03063746 -0.2060188 0.263179 -0.6680575 -0.50048935 0.207688 -0.3922542 -0.16326022 0.023323078 0.380585 -0.43080118 0.0491957 -0.11642772 -0.014769695 -0.018755198 0.11370019 0.4638917 0.023784557 -0.11642261 -0.107111625 0.23367772 -0.19168982 0.15870607 0.5355123 -0.44318396 -0.50261325 0.035869263 0.43106145 0.07861465 0.11868482 -0.12996979 -0.045860533 0.6789634 0.47650725 -0.27788234 -0.0807485 0.1459416 0.13121827 0.01716227 -0.08483075 0.63427585 0.053410597 0.80720997 -0.34735462 0.41598767 1.0136461
28350 0.45876345 0.0025020514 0.40866137 0.11955567 -0.17623456 -0.08223746 -0.20039433 0.11547793 -0.08693759 0.41215053 -0.37757814 -0.0052577457 0.57356566 -0.32740268 0.19205765 0.88785845 0.021079153 -0.039256077 0.04056686 0.14729114 -0.167269 0.3426549 -0.14947487 -0.38958767 0.12503572 -0.039594162 0.0834894 0.47894517 -0.7337008 -0.2856271 0.22735094 0.34572458 -0.11843306 0.074019335 0.40795055 -0.49976203 -0.14948769 0.056430083 0.22504169 0.20107955 0.2566997 -0.19658357 0.55947614 -0.97065634 -0.15169847 0.02087164 0.08756167 -0.08532319 0.12466629 -0.31224605 0.18950565 0.054805562 0.00437892 -0.03441733 -0.015536487 -0.18649699 -0.4304068 -0.6772381 0.08932205 -0.29001155 -0.49678275 0.40030026 0.0756584 0.48512918 0.27500948 0.28206775 0.20053568 0.22880591 -0.13898234 -0.23510237 -0.54967046 -0.54618317 0.10980096 0.11096758 -0.32659528 -0.11544894 -0.3472693 0.15042733 -0.24239515 0.2720899 -0.36973962 0.54707384 0.30321342 -0.03732459 0.3561418 -0.4778576 -0.22423941 0.37957883 0.054180317 -0.24506548 -0.2734292 -0.35990897 -0.31176895 0.17856768 0.14185974 0.36079374 -0.25771537 0.4542592 0.05423715 0.15865307 -0.010416159 -0.46013758 0.3587536 -0.35771552 0.49207592 -0.110701755 0.15885402 -0.073593825 -0.28293484 -0.35032853 0.04600817 0.1450014 0.2151157 0.54642016 0.6387898 0.3047362 -0.45004395 -0.5484919 0.34664285 0.36050868 -0.027579537 0.027163094 0.078866534 -0.3172861 0.5053858 -0.048747968 0.09546437 0.47053316
89547 0.26565248 0.11051535 0.14887033 0.6537288 -0.14626342 0.019393545 -0.40577352 0.12864472 -0.07932505 0.5302279 -0.6841228 0.21192181 0.0032218958 -0.0017439874 0.19517983 0.28128707 -0.05153595 -0.20183712 -0.0500665 0.5697234 0.0046646935 0.057070486 -0.3434116 -0.036069024 -0.39667332 -0.1518395 -0.0043227416 -0.064519666 0.2377512 -0.32982925 -0.38815463 0.23343733 0.10341761 0.22876881 0.49198598 -0.15847449 -0.26612207 0.18678711 0.28895155 -0.1434682 -0.48023432 0.093347155 -0.031105554 -0.13157447 -0.45646557 0.4459231 0.16355938 -0.15268269 0.09486188 0.20867415 0.021895695 -0.06553938 -0.37490514 0.39218664 0.108724564 -0.24123512 -0.20324062 -0.10634916 -0.19844456 -0.16026492 -0.08045998 0.41586402 -0.11260947 -0.09963416 0.33427694 0.40131527 0.19737542 -0.4951181 0.5360887 -0.40077665 -0.37420923 -0.37375283 0.36548778 0.33507547 -0.23710138 0.1494976 -0.09208752 -0.44891065 -0.22284746 0.20204297 0.25522277 0.7186833 -0.32750097 0.3235987 0.30491674 -0.5345218 -0.08380145 -0.020290425 -0.10229171 -0.35320315 -0.034541145 -0.8290561 -0.42559212 0.47944632 -0.15627062 0.33115497 -0.20871069 0.113424666 0.24081737 0.4762582 -0.2896872 -0.23981252 0.401078 0.0073016216 0.45569968 0.08233364 0.10100433 -0.4749226 -0.32680705 0.16162778 0.32444805 0.08082923 -0.045975342 0.38731077 0.23439825 0.36501083 -0.049415935 -0.35430968 0.22202332 0.10881298 -0.2433426 -0.118873775 0.55264014 -0.43123853 0.40632555 -0.07898645 0.28831542 0.13572389
3243 -0.32679155 -0.24527428 -0.21596567 0.40890935 -0.41628185 -0.030853653 -0.5755655 -0.0017968762 -0.43696406 0.5611742 -0.1569242 -0.33546457 -0.1863027 -0.01642625 0.06620282 0.3154573 0.47628284 -0.106051944 0.39120203 0.21224502 -0.22026263 0.5513667 -0.42761883 0.41845414 -0.1695784 -0.45829663 0.49641684 -0.02898634 0.5493153 -0.027442401 -0.36391172 0.68031794 0.18309341 -0.3254196 0.1825119 -0.27934864 -0.30424082 0.33350375 0.020763788 0.32736036 -0.6243313 -0.1500692 0.40248457 0.1601955 -0.0057690064 0.28514686 -0.056982692 -0.030698122 -0.170877 -0.30694792 -0.06494951 0.081968464 -0.27211353 -0.3228755 -0.046967424 -0.31931615 -0.15736993 0.07695713 -0.01648778 -0.46145093 0.22766672 -0.2504291 0.29149193 0.079485714 -0.05327343 0.13061911 0.21539783 -0.35306898 -0.3073658 -0.1999478 -0.022474494 0.06527803 -0.13354944 0.42618173 -0.44221416 0.21121703 -0.2898665 -0.23442784 0.10355646 0.24622534 0.24361415 0.5456701 -0.13519026 -0.087528124 0.027191956 -0.45608547 0.0036666915 0.21771057 -0.10483551 -0.13978234 -0.14325096 -0.12101413 -0.12068086 0.5153513 0.049297616 0.29444036 -0.46250662 0.3628616 0.17037733 0.008972358 0.09160029 0.06727845 0.4369837 0.2175561 0.08876015 -0.14105055 0.35736465 -0.48835343 0.21341053 0.02855362 -0.49684933 0.08723678 0.2541833 0.22872777 0.5716166 -0.017914366 0.15091456 -0.14899147 0.695207 0.55616635 0.49510497 -0.1474078 0.16558829 -0.20125975 0.0961096 -0.3322869 0.27114734 0.3260348
35061 0.2944321 0.1571843 0.02031997 0.02544537 0.019213097 -0.015699979 -0.13452919 -0.015861057 -0.2194897 0.265937 -0.28173238 0.12857333 0.059334163 0.010918865 0.60455275 0.30956754 -0.33792868 -0.09997706 0.0861706 0.651661 0.18118462 -0.0474476 -0.24411842 0.08712873 -0.045394525 -0.34772757 -0.049531624 -0.10276699 -0.5139222 -0.076526634 -0.5318506 0.59475285 -0.22515276 -0.39502245 0.10398867 0.40458497 -0.06351242 0.070534416 -0.03419853 0.16314405 0.06353565 0.09346316 0.5407158 -0.07788557 -0.06537051 0.13133772 0.25481308 0.23322749 -0.22799511 -0.18630934 -0.08673039 0.074911475 0.19004835 0.032493312 -0.2609611 0.24005112 0.46268877 -0.36307865 -0.3536003 -0.3069962 -0.4004738 0.39505556 -0.37024564 0.045794703 -0.11436212 0.118365236 -0.037601106 -0.81867695 0.4471225 0.55339694 -0.030515326 -0.2663978 0.06884615 -0.16626815 -0.0951943 -0.10892645 -0.5828322 0.20781837 0.114356786 0.19246064 -0.24927405 0.5733447 -0.043202516 0.34865725 0.0055243536 -0.102217026 0.53840303 0.08378174 0.12567066 0.3327114 0.31215996 -0.10671219 -0.22584088 0.2798513 0.4708372 -0.44442165 0.018649044 -0.21543422 0.040417023 0.30102876 0.5814625 0.15616468 0.3542984 -0.23863967 0.30742857 0.0004851113 0.18017352 -0.39096102 -0.08481223 0.59640497 -0.2391652 -0.06926357 0.027664589 0.008343516 0.43445876 0.2336022 -0.083047435 -0.38001475 0.40027556 0.34740657 -0.029415311 0.1223121 0.2699496 -0.38589278 0.199002 -0.1742607 0.56854504 0.37001416
10177 0.17653744 -0.44905517 0.08597221 0.13405232 -0.3360338 0.28774273 -0.58733624 0.46256876 0.23132937 0.06933595 -0.2629849 0.11771921 -0.004466954 -0.24132991 -0.1974525 0.06857684 -0.064265035 -0.19872937 0.05396447 -0.17099108 0.017460274 0.06957421 -0.18969828 0.14669468 -0.22678839 -0.512123 0.07655019 -0.16732174 -0.3865484 -0.62253124 -0.25175634 0.4300304 0.20490775 -0.518096 -0.3171998 -0.32627946 -0.29416472 -0.05260418 -0.39961457 0.11061687 -0.51687604 -0.023318412 0.15617312 0.27280968 -0.52158 -0.032172654 0.4580466 -0.57691157 -0.10109735 0.08627507 0.022043435 -0.2794951 0.12432803 0.020781033 0.19171199 -0.034756888 -0.4776009 -0.46691245 -0.09687062 -0.1009994 0.20344724 0.14437295 0.22943301 -0.21804076 0.60007095 0.25427505 0.2745438 -0.17697008 0.93826646 -0.40546593 -0.019920127 -0.119185455 -0.109136194 0.28296587 -0.48919636 -0.624187 -0.16440341 -0.44084293 -0.11278658 0.21022332 0.44678152 0.15730038 0.0068648555 -0.1775284 0.06640086 -1.0909778 -0.041713387 0.12993783 0.2314784 0.19549358 -0.10455109 -0.27986923 -0.3899127 0.114449896 -0.14419267 0.1801835 -0.09212044 0.10528775 0.48579407 0.49215752 -0.18935983 0.046103623 -0.048242334 -0.22541714 0.5654148 -0.06275077 0.15824445 -0.70084804 -0.0032923417 0.12866929 0.31726554 0.014149653 -0.34090632 0.7653017 -0.19907686 0.3626259 -0.30753428 -0.14700273 0.59148735 -0.102616124 0.21421108 -0.12438565 0.24929896 -0.3621215 0.4818367 0.07662176 -0.14340052 0.45402542
54129 0.7283157 -0.16724041 0.03110344 0.008718504 0.30722436 0.0129658 0.14250249 -0.42402706 -0.13600633 0.05145263 -0.08857501 -0.035625502 -0.22310574 -0.024817841 0.3295489 0.55213284 -0.48213395 -0.015349324 -0.60549825 0.47117835 0.21680571 -0.29967222 -0.74610126 0.19836389 -0.26876205 -0.18641062 0.30684745 0.16078864 -0.011145167 -0.32076952 -0.010053335 0.77216 0.28506407 -0.2024007 0.9113213 -0.23754425 -0.3891577 0.2331021 -0.58528996 0.46013504 0.41416883 -0.11959742 0.9940886 -0.28710198 -0.17129752 0.6070842 0.1428667 0.106631964 -0.33572635 0.18084937 0.14817877 -0.09217247 0.3055238 -0.12121 -0.12635481 -0.17884816 0.023284765 -0.35488117 0.12726982 -0.41904268 -0.17506988 0.35771796 -0.52099997 -0.1595271 -0.017025437 -0.018619934 0.5548918 -0.08619219 0.06961411 0.17221957 -0.33715498 0.108225614 0.45745006 -0.04710313 -0.22483759 -0.17068857 -0.9514035 -0.32686126 0.23700018 0.34474242 0.021895282 0.033528857 0.0075982674 0.18310212 0.2895873 -0.13214156 0.07653231 0.032799073 -0.030621724 0.052965563 0.10562862 -0.05858259 -0.1296578 0.031520467 -0.32926968 -0.44879162 -0.18632582 0.38754693 0.1704173 -0.076670125 0.72365737 0.21917415 -0.28410056 -0.3161531 0.25679716 -0.21116129 0.16113763 0.18637425 -0.43311647 0.21681312 0.22221155 -0.13631988 0.122055635 0.032155532 -0.04869592 -0.00012248376 -0.2167192 -0.46285883 0.53966737 0.32552817 -0.17443842 0.37103304 0.21051954 -0.1613322 0.6801995 -0.97166204 0.054986406 0.40417135
17476 0.40724584 -0.21330675 0.13232301 0.10520165 0.44745082 -0.11934952 -0.15654437 -0.13292085 -0.07761352 0.016790096 -0.10146331 0.15068203 -0.021660987 -0.505937 0.20172499 0.41014406 -0.23002605 -0.2159738 -0.21286798 0.2561535 0.015062152 0.33436266 -0.47800878 -0.0321664 0.085908495 -0.13415864 0.12836732 0.11005366 0.05331984 -0.46909043 0.08202597 0.45527565 0.130163 -0.015306837 0.28811237 -0.70967704 -0.04870184 0.32363784 -0.39773723 0.21892555 0.24817672 -0.007451623 0.6917916 -0.2638818 0.55469567 0.44306308 0.5776137 0.20576803 0.08529362 0.01783435 0.09759161 -0.043846156 0.31750074 0.19761126 -0.10177777 0.3423095 -0.042587057 -0.14326395 -0.1775452 -0.5752581 -0.25706786 0.198196 -0.25336674 0.10392563 0.031290244 0.39704803 0.21173924 0.17061816 -0.057355564 0.22545893 -0.7307206 -0.051068477 0.25290006 -0.15530217 -0.079609334 -0.123356715 -0.29697144 -0.3763707 0.06711202 0.08560004 0.018513544 0.28790277 -0.021234253 -0.39100417 0.17118007 -0.03866887 -0.36540636 0.1209834 -0.011351595 -0.34208947 0.19561502 -0.1421896 -0.36326104 0.09218842 -0.0463917 0.4559782 0.11528882 -0.023982275 -0.026892355 -0.124929756 0.007143482 -0.20173214 -0.0578457 -0.22370847 0.66790515 -0.31112936 -0.18974507 -0.057609558 0.07396603 -0.25139576 0.016490469 -0.034383904 -0.2330548 0.74949294 0.18114576 0.17633283 -0.19700564 -0.49290004 0.7040999 0.19676629 0.23419142 0.14465196 0.4889062 -0.10803457 0.14230251 -0.47613582 -0.03007348 0.5919886
1956 0.07135114 -0.6957541 0.45356578 -0.09208555 -0.22070378 -0.1361312 0.07225908 -0.020101387 -0.9574243 0.37943295 -0.251143 -0.015838949 -0.59947675 0.3626912 -0.3879276 0.5449223 -0.30296537 -0.017521914 -0.39158115 0.09827371 0.096290134 0.33197832 -0.05611824 0.44007915 -0.014370255 -0.27783743 0.03220044 0.20165052 -0.1733623 -0.26477444 -0.23213813 0.86292064 -0.40479988 0.03658946 0.1498114 0.31518078 0.019819029 0.01225731 -0.31613085 0.1766135 -0.046946865 0.4214986 0.33990014 0.5228095 -0.12709534 -0.07645669 0.06328373 0.5166535 -0.7396241 0.11837447 -0.18482865 0.33368295 0.10913584 -0.3054282 -0.5049922 -0.054533847 -0.25068262 0.0071733454 -0.04219361 0.027653256 -0.11922349 0.26161537 -0.16087097 -0.09928109 -0.02630807 0.21936668 -0.12385004 -0.48019865 0.16068989 -0.042753078 -0.17162651 -0.15604924 0.2085221 0.15925837 0.07487547 0.16132106 -0.07153522 0.018737411 -0.0035064318 0.47613347 0.14206474 0.32340708 -0.15330109 0.08155716 0.4560267 0.07920425 0.02049604 0.6040984 -0.69980353 -0.020838967 -0.005960542 -0.17511491 -0.016319575 -0.09390183 -0.15176958 -0.6492255 0.009110967 0.53940684 0.30555797 0.2590883 0.06844111 0.16116084 0.028821269 -0.26902598 0.38008174 0.23289716 -0.24958417 -0.039975915 -0.215 0.4877386 0.0797368 0.1554252 -0.3316133 -0.06976073 -0.063094966 0.24433176 -0.21002185 0.10654662 0.28420892 0.4425431 0.39565682 0.21503481 -0.13334236 -0.03604763 0.20206013 0.07111408 0.21217585 0.29039514
34257 0.07822586 0.17651579 0.56572026 -0.12834857 -0.054556336 -0.1407512 0.2118049 0.46367532 -0.30491033 0.12688433 -0.06440266 -0.012432043 -0.26569247 -0.28041008 -0.068646245 1.0377667 0.44136143 0.05116558 0.052785236 0.04755209 0.20433402 -0.09843892 0.07722241 0.64916193 -0.0038514035 -0.025903933 0.666377 -0.22718944 -0.19413082 -0.48210722 -0.7010378 0.81819546 -0.29802558 -0.54727834 -0.101502605 -0.41463968 -0.47553718 -0.26207572 0.09372359 0.4136061 -0.17989841 -0.39059716 0.6143514 -0.011064882 -0.35789028 0.23248835 -0.34043092 -0.5885548 0.13613851 -0.14556536 -0.5516025 0.23347956 0.32532555 0.39921176 -0.34801608 0.0713231 -0.46574843 -0.0038764079 0.27538693 -0.22343281 0.14427893 0.10079802 0.4485006 0.21198267 -0.31188342 0.10824945 0.5450902 0.48599634 0.27380872 0.13923153 -0.3815626 0.38072705 -0.12129094 0.32967678 0.15331577 -0.6337688 -0.18323936 -0.25919822 -0.5835197 0.5042068 0.040216774 0.4130817 -0.123001195 -0.09075904 0.66925067 -0.3530915 0.054164432 0.11177075 0.20660375 -0.048805207 -0.14351948 0.42875892 -0.5710291 0.67829967 0.07054161 -0.38154548 0.01903611 -0.15651236 0.3606447 0.10323085 0.34832227 -0.8032992 0.12904544 0.073036894 -0.11039998 0.15558149 -0.3130922 -0.5776587 0.042090297 0.045762613 0.19863975 0.26842096 -0.56509274 -0.10033017 0.6069277 0.29580638 -0.7439 -0.1556589 0.61354977 0.49730793 -0.3690453 0.8293802 0.6072746 -0.43921196 0.1255807 -0.34897077 0.0015691551 0.6359816
79809 -0.21213359 0.0063018943 -0.114308126 0.20932077 -0.4301513 -0.72005713 -0.28131992 -0.06093498 -0.26419798 0.11081674 0.06756623 0.36865002 -0.1396655 -0.11336493 0.01800291 0.30588365 -0.16855569 -0.36429033 0.3532989 -0.05393644 -0.2723423 0.036638115 -0.294298 0.66891384 -0.18667899 -0.3700783 0.39551365 -0.14603657 0.36894354 -0.29070657 -0.07182787 0.40181905 0.21592224 -0.27396366 -0.68706435 -0.11907178 -0.14985429 0.06636772 -0.1573238 0.2510191 -0.2985653 -0.12600079 0.5061814 -0.1042206 0.4271193 0.053089462 0.26490048 -0.2305335 0.06899979 0.44357657 0.079089545 -0.62814176 -0.5049899 0.8009102 -0.60225487 -0.45779637 -0.078447424 -0.46902087 -0.08114962 0.05272842 -0.41430262 0.2275266 0.74002516 0.5036842 -0.11869919 0.33205658 -0.34540924 -0.06269343 0.22046565 -0.2333395 -0.17618544 -0.18296732 -0.6726018 -0.1299067 0.15005605 -0.04254077 -0.011244225 -0.038115807 -0.5572326 0.10911735 0.27538958 -0.05159153 -0.37821904 -0.38645604 0.30097497 -0.4279524 -0.1528034 0.034367405 0.2758817 -0.28336132 0.38883895 -0.42430764 0.0022672303 0.1274542 -0.18348414 0.17242004 -0.028787322 0.11357484 0.20543626 0.15142669 -0.034822986 -0.024695316 0.25168827 -0.09422704 0.44323692 0.58468354 -0.17244796 0.16831672 -0.11054837 -0.13335578 0.34889945 0.34907928 -0.10709426 0.07187943 -0.37284997 -0.33395013 -0.42488897 -0.12339273 0.97696435 0.21065564 0.37961385 -0.22118011 0.564455 -0.049058776 0.10917548 -0.4807187 0.48496318 0.60319304
10183 -0.101375535 -0.10691503 0.06696291 0.060159132 -0.20551877 -0.0032828117 -0.591899 0.23408923 -0.4480885 0.17860188 -0.3525471 -0.12113342 -0.25979453 0.021714455 -0.03429789 0.78867185 0.17066957 0.17353201 0.21460727 0.08290337 -0.37365562 0.82565874 -0.4959263 0.034816988 0.029639704 -0.19032863 0.35174388 -0.02528965 -0.24176815 0.14487167 -0.23823473 0.6283137 0.26705524 -0.30887797 0.7557203 -0.117913246 -0.24855964 0.04493618 -0.5074256 0.39274105 -0.031168316 0.38512656 0.83316785 -0.25914833 -0.18301713 0.20865922 0.6185856 0.1151045 0.054896723 -0.22173487 0.09863661 0.066527575 0.04002036 -0.50174195 0.01946763 0.21542262 -0.20976958 -0.0047092503 0.34524933 -0.2530278 0.08627004 0.18046258 0.044593506 -0.1730278 -0.13156977 -0.0726045 -0.20148559 0.13986729 -0.13691802 -0.026047891 -0.10984355 -0.08364705 -0.0637086 0.07948422 -0.30532536 0.33383253 -0.123950705 -0.22395155 0.21091548 0.06658052 0.2975785 0.45214346 0.14717905 -0.32292303 0.56573623 -0.20710209 -0.17168333 0.6563767 -0.28337005 0.03521484 -0.23619421 0.36844102 -0.5999168 0.10801205 -0.029719125 0.121311605 0.22523431 0.31001237 0.26463208 -0.29886308 -0.021228466 0.11368647 0.07005139 -0.23531444 0.39740953 -0.46546224 -0.12936299 -0.18854655 0.069339104 0.26461625 0.19282289 0.70066404 -0.13525543 0.22615452 0.03720773 0.32206753 -0.019466637 -0.22664793 0.6573966 0.5914746 0.8946855 0.36367008 -0.08923765 -0.25219563 0.123770975 0.110777244 0.1833183 0.69867384
