2405 128
489 -0.25224957 -0.0010913179 -0.15596616 -0.066358835 0.032904226 -0.0913573 -0.22763173 0.047260836 0.031013101 0.038829505 0.09797896 0.07287764 -0.12327773 0.06688629 -0.014442884 0.06800434 0.10959005 0.5261051 0.19189215 -0.0077541177 -0.4309734 -0.15330216 -0.1098001 -0.2735129 -0.047640815 -0.33921513 0.16934007 -0.0654784 -0.043906443 0.16840252 0.05609562 -0.12146228 0.2609147 0.32381186 0.16316369 0.13316375 -0.26568294 0.22326604 -0.19176596 0.501285 0.21654652 0.0816475 0.24347879 0.012074271 0.3977656 -0.025418933 0.006652822 -0.26830614 -0.18297017 0.17289409 -0.1849538 0.0094354125 0.043010697 -0.3479762 -0.03808848 0.1778407 0.27319688 0.2874808 -0.593026 -0.041313022 0.047279716 -0.058172118 0.04623031 0.080308355 0.05130528 0.46292284 -0.12512018 0.093757346 -0.07837017 -0.36595246 -0.06326496 0.26927012 0.12927987 0.093753554 -0.005645022 -0.1885397 0.14573175 0.1891246 -0.014135022 -0.013666148 0.22236285 -0.15848464 -0.09465326 0.08624242 0.14832573 -0.55858886 0.023624647 0.11691916 0.25690043 -0.34471813 0.035535008 0.6051023 0.18915102 -0.14213423 0.06122794 0.031378612 0.22809209 0.024232348 -0.07767129 -0.19532324 -0.23296548 -0.12902132 -0.20461221 0.32629824 0.14920244 0.26765105 0.22549002 0.17091691 0.42254758 0.03075117 0.031065583 0.03895686 0.27644444 0.061515752 0.030000623 0.05439388 -0.33901167 0.001310021 0.4957017 -0.01872999 -0.3996043 -0.2521922 0.09542863 0.46052587 -0.22565319 0.46991625 -0.15764816 -0.051858976
393 0.32889342 0.27009782 0.04136741 -0.095806 0.04297057 -0.1776531 0.090828195 0.023540722 -0.076406695 -0.4728866 0.092090815 0.12344171 -0.08022669 -0.070670016 0.10528913 -0.33634573 -0.0391737 0.20416693 0.13157639 0.45211864 -0.25352722 -0.2239814 -0.048773505 0.06449089 -0.21403028 0.05082954 -0.028154684 0.19915733 0.12720858 0.08015191 -0.31094012 0.054011226 -0.010492099 0.36203536 0.17723064 -0.11831239 0.38706926 -0.03779879 0.19452803 0.17193075 0.15663044 -0.1507164 -0.20191462 -0.05885217 0.1608161 -0.06428264 0.48564517 0.098331176 0.20907697 0.023149418 0.31349924 0.23917983 -0.006474949 0.1293813 -0.014077199 0.3109791 0.23433305 0.54201204 -0.34975824 -0.1606788 0.41427886 -0.087199986 0.14065388 0.011482551 0.38694665 -0.09260736 0.2854321 -0.1730057 0.13137864 -0.21243168 -0.04643833 -0.10318751 0.8303395 -0.13457608 -0.056802392 0.13474673 -0.1306911 -0.19029006 -0.34447336 -0.26355654 0.153358 -0.005809442 0.35065642 0.22425555 0.25075814 0.20858821 0.031643838 0.07731697 0.30897462 -0.094087884 0.23824278 -0.06464773 -0.18942335 -0.369474 0.090041526 0.29756445 -0.2753986 -0.34609634 -0.000681319 -0.27413234 0.24824445 -0.17597628 -0.5088312 -0.010743736 0.082437225 0.27508613 -0.30460128 0.030018544 0.42348304 -0.23204602 -0.12705676 -0.07168392 -0.047468863 0.0038730188 -0.18671991 0.013226029 -0.1296173 -0.16986981 0.019732725 0.07745616 -0.1069782 -0.18233962 0.28670937 0.19685239 0.14249356 0.055236045 -0.17986344 0.13320637
445 0.22918974 0.027847175 -0.30407816 -0.34848288 -0.12597303 0.44579047 -0.24015068 0.22211827 -0.20644614 -0.53104955 -0.2518385 -0.13530658 0.018125603 0.049253967 -0.21178228 -0.06670856 -0.25022823 0.35696134 -0.005356078 0.36357176 -0.12962092 0.099359296 -0.40656373 -0.013195459 0.21208254 -0.09381437 -0.17923085 0.30094117 0.13426687 0.19201644 0.13626891 -0.13709414 0.11354807 0.1724898 0.03399436 -0.120472625 0.19171482 -0.24557056 -0.25154707 -0.124990426 0.4944073 -0.10157974 -0.17328797 -0.15030007 0.52393675 -0.0852209 0.0067638257 -0.01910098 -0.23279656 -0.19484311 0.07946403 0.25270408 -0.15997586 -0.099587694 0.11082836 0.4388456 0.027430084 0.37372303 0.103865586 -0.23323496 0.058269907 -0.17304415 -0.116462424 -0.14238396 0.01043702 0.32694203 -0.3359294 0.2782442 -0.12974446 -0.46595556 -0.025309186 -0.5720671 0.2155247 0.10679823 0.10789677 0.36005273 0.17074136 0.4945593 0.16109186 -0.033210192 0.14925678 -0.09796141 0.004770899 0.13118689 0.090811335 -0.07809109 0.007832057 -0.09628037 0.41188264 0.26435763 0.018943708 -0.1057954 -0.17802264 -0.30764452 -0.04993115 0.008692766 -0.23821512 -0.01606447 -0.12200582 0.35074955 -0.14124008 -0.35152248 -0.08377649 0.055258833 0.14890516 -0.038508553 -0.41457796 -0.06283684 -0.09389773 -0.16357994 -0.026475992 0.15504052 0.17521913 0.06909501 -0.14702879 -0.22633496 -0.10261435 -0.32677177 -0.35185245 -0.17445982 -0.026037846 0.19788168 -0.3707857 0.27460656 -0.10517338 0.21426132 0.25153446 0.085302144
526 0.03811548 0.1579594 -0.23059882 -0.24739192 -0.14808562 0.21386579 0.17233 -0.13163054 0.07453804 0.118211314 -0.3492068 -0.11592426 0.21104147 -0.15486975 -0.056922343 0.029901115 0.016695563 0.4434739 0.24079445 -0.06624517 -0.26397485 0.22110856 0.08494382 -0.1504285 -0.06755048 -0.44518182 0.15841532 0.08936908 -0.13163422 -0.15783954 0.18657583 0.25238207 0.0036412089 -0.072403565 0.063152395 0.062140647 0.30155066 0.19966224 -0.371566 0.03025239 0.1331366 0.007964645 0.38317502 0.2788329 -0.1273772 0.23745963 0.030847551 0.11854515 0.20841876 -0.10694584 -0.099958576 0.26396933 0.30645385 -0.17197284 -0.1810247 0.25564256 0.91587013 0.42561513 -0.31745163 -0.048401494 0.086990185 0.010504148 -0.14696403 -0.18557788 0.0026026524 -0.30663002 -0.09710748 0.017684361 -0.37319282 -0.31169835 -0.35030955 0.12227507 0.18555352 0.0070337295 0.025678087 0.10624555 -0.2999828 0.03185708 0.48056757 0.38154802 -0.6069292 -0.061461557 0.08243455 0.39130726 -0.08596609 -0.06430922 -0.14741865 -0.30762577 0.1417982 0.03313811 0.08820577 -0.23074754 0.44211945 -0.05457959 -0.1715824 -0.050779812 -0.08195632 -0.38519815 0.31370166 0.12847398 -0.018599804 -0.026888719 0.124905154 0.48999357 0.010601137 0.36709496 0.1547497 -0.24105918 0.24698646 -0.028722739 -0.36775762 0.4594148 0.5783944 -0.09614111 0.2773394 0.10172775 -0.2721177 0.016470414 0.5180831 -0.032510277 -0.10454226 -0.40814418 0.051270865 0.19063365 0.17072958 0.10148594 -0.17183329 -0.093754396
708 -0.28297248 0.1296402 -0.13024524 -0.07744806 0.21098031 0.23489618 0.18966168 0.3397233 0.32848886 0.12870748 -0.05651532 0.13791391 -0.469222 -0.5009193 0.119749956 0.10004141 0.0687249 0.6670102 -0.028552964 -0.07107859 -0.060988937 0.45065555 -0.38896298 -0.1510704 -0.077768415 -0.035007294 -0.33605048 0.6916863 -0.41142935 0.19949172 -0.23015188 -0.12981053 0.18142092 0.088885605 -0.21822482 0.1596147 -0.23269264 0.11641431 -0.21499969 0.40122414 0.2734614 -0.08802774 -0.044181585 -0.09677846 0.1252002 -0.13163108 -0.18188557 0.3919254 0.08763181 0.5476576 0.41671562 0.09392876 0.36615852 -0.13540043 0.47920346 0.08971919 0.21342696 0.13696937 -0.004644087 -0.077819645 0.46432015 0.040261414 -0.25372365 -0.027980424 0.49858215 -0.5561409 0.045446653 0.1925477 0.06778169 -0.07182609 0.054845173 0.06264761 0.34774548 -0.16038916 -0.18392816 0.06365653 0.6786202 -0.055599462 -0.16679163 0.35331583 -0.08687131 -0.06695149 -0.034369025 0.19940211 -0.3329765 -0.1435957 -0.09801155 -0.1795389 0.015476984 -0.14119923 -0.20952879 0.1977572 -0.3486172 0.029528162 -0.15578645 0.027471375 -0.23416285 -0.34387028 0.14091715 0.21470918 0.4811022 -0.49706122 0.16150889 0.35791215 0.2887565 -0.002150275 -0.01724455 0.094404526 0.18793187 -0.15754229 -0.15511705 0.08685956 -0.096023016 0.13427873 -0.35666144 0.22215024 0.08261797 -0.17956854 0.13139746 -0.029263612 -0.039147392 -0.13114212 0.06866759 0.3244867 0.103310056 0.061097413 0.014618696 -0.07595856
400 -0.17804994 0.06433799 0.09148222 -0.51355946 -0.27253956 0.2267551 -0.5596838 -0.30216247 0.31317693 0.21788582 -0.2565707 -0.06886118 0.052958235 -0.042394534 0.12294024 0.011313019 -0.2759292 0.3510665 0.06933792 0.09244003 -0.14807178 0.03019297 -0.20501395 0.07698423 -0.19306351 -0.066814564 -0.122728415 0.5777599 -0.52212685 0.46773052 -0.32559147 -0.0047768652 0.065109335 0.27985445 0.15851898 0.0765623 -0.1797841 0.009911098 -0.21087383 0.120786674 0.06733549 0.13544925 0.24088697 -0.4702221 0.15399006 0.18035422 -0.15313685 -0.046710815 0.29080644 0.098430134 0.44155154 -0.39966512 0.026934678 0.037279245 0.18445644 0.035311233 0.63840985 0.19182204 -0.5516856 -0.584993 -0.14441833 0.108134724 -0.19360352 0.06275849 0.12157545 -0.06753204 -0.3876307 0.22049043 0.11351441 -0.23322937 0.289511 0.043779086 0.5959203 -0.066452704 0.06623722 0.4306827 -0.17475757 0.38681155 -0.17973597 0.22911273 -0.06439691 -0.2008768 0.3151947 -0.32715166 -0.00436081 0.06628451 0.039511282 0.56804603 0.015191274 -0.016037414 -0.2945676 -0.21895832 0.14246449 -0.49695674 0.2218389 -0.12533166 0.19214776 0.032589726 0.21096855 0.43090975 0.16734754 -0.04159835 -0.43777862 -0.123664156 0.23550007 -0.10544811 -0.123509526 0.23283471 -0.017975604 -0.1877671 -0.104493044 -0.23231961 -0.06294889 -0.11128273 -0.09258502 -0.21262848 -0.3455933 -0.109050594 0.042529687 0.40930086 0.119148605 0.15412267 -0.21847183 -0.00032007083 0.09579327 -0.13627931 0.15618366 0.17610063
43 -0.18362069 -0.21979877 0.18236613 0.059069023 -0.051442493 0.23158984 -0.2874802 -0.074448735 0.25943536 -0.40199867 -0.08387017 -0.4039712 -0.18170421 -0.49419686 -0.13994014 -0.14597988 0.25636518 0.03710275 0.19188787 0.16619925 0.09380146 0.048862513 -0.3821259 0.023075454 0.19890092 -0.15202335 -0.25351694 -0.17478356 0.22035447 0.11912334 -0.27394816 -0.07725646 0.04134576 0.099984534 -0.23861524 0.09757415 -0.03882517 0.31979883 0.31745642 0.32274845 -0.18379691 -0.49463874 0.093571134 0.1676107 0.28648692 -0.15390149 0.6188457 -0.037229158 0.037577383 0.014929812 0.11107481 -0.2056009 -0.26640967 0.089743875 -0.1454845 0.37285584 0.53143066 0.4992752 0.26448867 -0.39531046 0.4730804 0.068553776 -0.1982429 0.15369518 -0.34120667 -0.14268774 -0.31078163 0.016039884 -0.066672154 -0.023793254 0.14774613 -0.2985995 0.46273604 -0.20197493 0.33779192 0.42298374 -0.3810016 0.17986947 -0.4907607 0.4622529 0.10713075 -0.11142868 0.01743949 0.43169284 0.2698272 -0.15897995 -0.4786244 -0.35653818 0.10823634 -0.081438094 -0.14270034 0.026043149 -0.040521905 -0.12564917 -0.33614454 0.2259767 0.0010783315 -0.23780441 0.1837869 0.21162833 0.026632506 0.030182434 -0.24052548 -0.088849366 0.13400406 0.46993926 0.06339467 0.27981645 0.207282 0.43822944 -0.22533253 -0.097281225 0.0016512668 -0.57299 -0.041509133 -0.09352738 -0.010377938 -0.3641041 0.28476405 0.17640354 0.14121841 -0.28342772 -0.015608197 -0.058009543 -0.4094646 0.2759879 0.014894619 0.0077391537
525 -0.10198355 0.101814024 -0.1216244 -0.379359 -0.24271552 0.21331625 -0.4198279 -0.19617344 -0.055440295 -0.005343753 0.20532222 0.28247702 -0.41725695 -0.50629425 -0.24155094 0.31247658 0.018418776 0.31972316 -0.0879822 0.54517925 -0.30474687 0.23130304 -0.29729676 0.23682256 0.096643224 -0.34329012 -0.029020406 0.0069935345 -0.34347084 0.14318423 -0.29989514 -0.32299587 0.02860001 0.111822926 0.24441361 -0.07152952 0.1646275 0.04985562 0.1974179 0.32078797 0.06732675 -0.11214709 -0.28395534 -0.41364726 0.37062523 0.6121886 -0.042169552 -0.60990673 0.40371412 0.06351068 0.069148205 -0.36251378 0.18928708 0.3817231 0.24326947 0.27863315 0.42559338 0.07590646 -0.4154834 -0.2809774 0.15528601 0.20796776 -0.35333338 0.1314408 -0.040605962 0.15552957 0.24946111 0.34022987 -0.23818949 -0.05040553 -0.18690632 -0.14266424 0.49860302 0.19069792 0.14206067 -0.1226722 0.17071128 0.52428466 -0.11510754 0.19019401 -0.30261102 0.26515517 0.08518927 0.005688469 0.14943793 0.0002634983 -0.20234264 -0.34371904 0.18956731 -0.15264916 -0.32727095 -0.09322091 0.1431153 -0.052027084 0.032967538 0.120270975 0.086548194 0.087419726 0.16862829 0.25180328 -0.017897164 -0.21473022 0.010284418 -0.08346712 -0.08762982 0.29395556 -0.3772922 0.2980129 0.044525206 0.38490653 -0.085415944 0.36036193 -0.20708269 0.1372321 0.0013666534 -0.17573714 0.4085555 -0.23059177 0.06384337 0.032633554 -0.13939933 0.118719384 -0.044805355 0.45129234 -0.1608898 0.09774724 -0.25741765 0.23667991
509 0.007023351 0.20235768 0.23766975 0.28416142 0.08421498 0.24536456 -0.21841772 0.21941034 -0.028972998 0.16601188 0.015813312 -0.22870447 0.3359787 0.108896434 -0.1314991 -0.0370235 0.33298853 0.26095057 0.035105594 0.47306797 -0.26865616 0.011682852 0.095251456 -0.21347569 0.12738992 0.031406797 -0.10979585 0.17740385 -0.07927156 -0.09230546 -0.08536094 0.11669106 -0.25873244 0.2957258 0.13990234 0.4417017 0.17998481 0.38168415 -0.144687 0.42359465 0.6776637 -0.08428829 0.4182009 -0.045967 0.12079801 0.62854487 -0.18359053 -0.21178636 -0.10387064 0.38857406 0.2043475 0.042153113 0.24196528 -0.24411418 0.12527972 0.08050481 0.31111607 0.28063828 -0.11841271 -0.15455729 -0.31556144 0.18418613 -0.18470171 0.053352155 -0.59869045 -0.03743585 0.054811176 0.18174697 -0.11032523 -0.5600202 -0.15075131 -0.035905305 0.31014952 -0.11391955 -0.09721562 -0.21375507 0.15638645 -0.18917483 0.029698594 -0.1185674 0.077194646 0.24770829 0.39733192 0.014236453 -0.3408847 -0.4857649 0.033730045 0.24197298 -0.1590199 0.04978022 0.21378633 0.09031683 -0.05589871 0.06646226 -0.2946031 0.6079979 -0.065510966 0.05966638 -0.058379017 0.28209022 -0.07928532 -0.33910012 -0.48261705 0.068478264 0.077312276 0.23768358 0.07911778 -0.28600353 0.18531759 -0.31507808 0.0010428347 -0.5042102 0.06324087 0.050131246 -0.24466306 -0.037657935 0.32578677 -0.03533668 0.3435562 -0.04372016 -0.060471106 0.05110679 0.23134418 0.7172584 0.5117707 0.55720437 -0.03508562 0.43681175
1412 0.23116677 -0.40754223 0.054604847 0.116180696 -0.14644991 0.47897944 0.3031553 -0.20021312 0.16402054 0.50605065 0.08593322 0.17890158 0.03287757 -0.009643615 0.33944005 -0.2551055 0.028389422 -0.11731335 -0.124651164 0.36628458 -0.26526234 -0.20302722 0.30107754 0.24294284 0.044927653 -0.096303545 -0.51592714 -0.15723434 -0.16096127 -0.1323652 -0.0770319 -0.42309275 0.006139001 0.14060147 -0.21059786 0.06905838 -0.30304912 0.0798112 0.3240482 0.5575222 0.42891422 -0.51544607 0.1751978 -0.06403423 0.29570058 -0.002651979 0.10746685 -0.035381917 -0.04574748 -0.11561578 0.42352343 -0.06873981 -0.11385844 -0.050522752 -0.14793122 -0.108637914 0.48930153 -0.11289332 -0.4977858 -0.08626988 -0.117578566 -0.4434849 -0.110864066 0.19428091 -0.22186618 -0.35076246 0.15859787 -0.027008118 -0.036106013 0.090345144 0.04016505 -0.4620611 0.07594213 -0.13560063 0.28552535 0.23488984 -0.13487911 -0.014451734 -0.15373814 -0.04571558 -0.26754066 0.33035424 -0.002738283 0.076233424 0.0024166862 0.13717818 -0.74205786 -0.60826164 0.6944961 -0.055101868 0.24268961 -0.17297785 -0.27755657 -0.16356258 0.29085258 0.10627422 -0.31186122 0.19837542 -0.11068663 -0.0049779047 -0.210312 -0.36585426 -0.020159308 0.033167608 0.34235352 0.35071534 0.19691706 -0.12203161 0.044224016 0.4032644 -0.026363878 0.06994543 0.11644345 0.11349633 -0.040069904 0.2999544 -0.2943782 -0.16198592 0.22211753 -0.5995153 -0.43863776 -0.41803145 -0.31418186 0.17254268 -0.19816609 -0.14354455 0.19388571 0.34815308
682 -0.11098473 0.05451419 -0.4997932 -0.25538102 0.3054976 -0.03786046 0.23956664 0.392092 0.22646779 0.20084286 0.46920648 -0.14718229 0.11942706 0.14804389 0.098655276 -0.07984695 0.30744573 0.45906124 0.18693572 -0.035697002 -0.26080856 0.030986605 -0.3181547 0.038580254 0.23334649 0.032095898 -0.006574582 0.48609912 -0.040244788 -0.25661942 0.039100174 -0.13369776 0.059766103 -0.0190201 0.072199024 0.14297466 -0.0064893183 0.20989208 -0.16260767 -0.0038461084 0.31343836 -0.3804921 -0.19278866 -0.075825274 -0.045523528 0.38192344 0.2798789 0.22751322 -0.36935756 -8.889429e-05 0.16516034 -0.70223516 -0.20729358 -0.090141974 -0.27429453 0.0064383573 0.04119487 0.03540842 -0.09429778 -0.5501342 -0.31277755 -0.12199514 0.16658042 0.4371265 -0.090828724 -0.27267852 -0.025644058 0.2591488 -0.25504994 0.06895496 -0.38363895 -0.29928458 0.1565188 0.15760572 0.3525027 0.021249948 0.40375003 -0.039780382 -0.20262936 0.4107799 -0.5948169 -0.0106427 -0.1390668 0.36727113 0.10199822 0.0029405195 0.39905235 -0.1436753 0.026010556 -0.04068159 -0.04620048 0.014566853 0.16298865 -0.21011207 0.29324952 0.36581564 0.13647687 -0.43482792 0.43580258 -0.15358675 -0.023378871 0.04423404 -0.36171275 0.1555258 0.7004928 0.48028865 -0.18033814 -0.08916224 0.5272533 -0.40036738 -0.30708846 0.028312808 -0.24676713 -0.033506673 0.32366782 -0.14953217 -0.15252905 -0.095472805 0.25619286 -0.1157778 -0.13250017 0.012655777 -0.2538969 0.31472722 -0.44760516 -0.17691347 0.41101354 0.050061706
235 0.07324413 -0.19634679 -0.047965672 -0.13637449 -0.22690694 0.036254857 -0.095550165 -0.108703874 0.14952667 0.2593492 -0.28292394 -0.076707795 0.083826214 -0.0029064345 0.18307288 0.06970769 0.06764094 -0.10669084 -0.22432078 -0.12341789 -0.14179604 -0.40042266 -0.21067499 -0.22001751 0.22483517 -0.11147029 -0.41456798 0.1329259 0.56715655 -0.17857504 -0.1695936 0.03649662 0.31251773 -0.23058529 0.08868381 -0.0056499536 -0.06386622 -0.017970217 0.23589692 0.37247357 0.20221388 -0.73308665 0.10199199 0.2282233 0.39197382 -0.39118737 -0.037259214 0.02164128 0.013594683 0.073879756 0.3892527 -0.38146022 -0.43703014 -0.21533027 -0.18636954 0.3570095 0.5125005 0.2997446 -0.31927663 -0.20297611 0.054311518 -0.692266 -0.27249727 0.31968376 0.08487964 -0.067958705 -0.13021234 0.07406845 -0.069522634 -0.23796725 -0.23850878 0.035006434 0.29083657 0.28020546 0.06649392 0.2662547 0.11651496 -0.19980995 -0.3600021 0.13526835 0.21635117 -0.1487479 -0.19301814 0.09689829 -0.018876236 -0.2638785 0.021128818 -0.6369153 0.13199729 0.09384166 0.04446034 -0.2575335 -0.43987432 -0.42291486 0.047425605 -0.3139517 -0.1786052 0.24458462 -0.25601044 0.01395136 0.39193416 -0.056568272 0.09808283 0.10003726 0.19509865 0.4809654 0.03454671 -0.03966872 -0.24513507 -0.09271997 -0.3303652 -0.06768514 0.3138419 0.09986503 0.16681772 0.029609358 0.28446037 -0.34923965 0.2892382 -0.0561658 0.03687665 -0.4515252 -0.19050817 0.45669436 -0.19565055 -0.14598575 0.072413296 0.022923209
1525 -0.3551936 0.23246773 -0.38245657 0.13649873 0.085180834 -0.117142 -0.32948446 0.0631873 0.11407359 -0.12852551 0.069554396 -0.18929487 0.315386 0.0043595713 0.12724574 0.06763072 -0.2982598 0.3852605 0.26277077 0.33174852 0.31491438 0.021396395 -0.083228275 -0.016310668 -0.09544053 0.1071309 0.16879855 0.49916902 -0.32512033 -0.18237658 0.06702132 -0.24858655 -0.19148208 0.075479425 0.28637192 0.2701694 -0.07811333 0.017824225 0.14960033 -0.19183598 0.12720685 -0.07737846 -0.038681135 0.50624573 0.3526262 0.4635128 0.23544149 -0.008636785 0.23791918 0.08887073 0.15570305 0.38445988 0.55912745 -0.06737718 -0.20960645 0.19468285 0.5628851 0.041401524 -0.015985193 0.2487044 0.37973922 -0.099644676 -0.7432705 0.3989285 -0.17248894 -0.2665213 0.04052341 0.037731472 -0.20871475 -0.068235 0.17953637 0.32338983 0.35581452 -0.16636331 0.25517428 -0.12972191 0.09654537 0.40395215 -0.28508493 0.34362033 -0.3398263 -0.03261356 -0.10073826 0.13211787 -0.20995152 -0.26769292 -0.015726514 -0.021375855 0.03728162 -0.18210106 0.17793445 -0.08451311 -0.46870142 0.08723775 0.12635542 -0.037596945 -0.08151954 0.19067742 0.3121428 -0.06125414 0.06636697 -0.19815078 -0.10357282 0.3921337 -0.05403266 0.20238143 0.16402814 0.20632707 0.57900137 -0.18729724 -0.26769683 -0.43529534 0.16219677 -0.020896927 0.11649186 -0.35891283 -0.26324803 0.008770945 0.28992474 -0.41706216 -0.6709064 0.054954875 -0.0694938 0.7090116 0.09439309 0.216885 0.18645382 0.12242014
624 -0.08741467 -0.041535884 -0.15209365 0.3364626 -0.5828441 0.38159472 -0.16315094 -0.026814438 0.27195868 0.27156684 0.15920484 0.03800807 -0.6086361 -0.32380232 0.22328101 -0.27412423 0.1990797 0.42273918 0.17204173 0.29359487 -0.06703183 0.34115344 -0.059983023 -0.21178797 0.12748541 0.030384604 0.30339697 0.22452705 -0.12728956 0.47703615 0.24429905 0.23671156 -0.07204259 0.19205928 0.16148946 -0.01956883 0.15710068 0.38685498 0.19955173 0.6566905 0.22609685 -0.34662458 0.416648 0.17331336 -0.21111251 0.023624513 0.13426468 0.0770214 0.32441294 -0.39308128 0.08698256 0.58571476 0.095099136 0.25795656 -0.24058169 0.25689778 0.59063566 0.4721565 0.068598695 -0.31697112 -0.6735254 -0.112892255 0.34159473 -0.08804747 -0.5944981 -0.42858627 -0.2548443 0.40792608 -0.45793784 -0.2346223 -0.0006636687 -0.14500296 0.36984044 0.43361515 -0.053069577 0.21780871 -0.11068814 0.11329304 -0.0031336409 0.27940437 -0.099188186 0.06598327 -0.044240624 0.118447974 -0.13548617 0.0984658 0.058724582 -0.18692888 -0.09674078 0.071367204 0.23611647 0.0050250078 0.38725138 -0.20754403 0.39776686 -0.42588583 -0.57163507 -0.0024768517 -0.084809504 0.19832253 -0.01926182 0.12667464 -0.0047611203 0.022929473 -0.18444437 0.5014642 -0.11412048 -0.034243997 -0.0044319984 0.20622957 -0.23257333 -0.14467283 0.23329787 -0.07143787 -0.006147937 0.41725582 -0.38665184 -0.06523535 0.46661073 0.20744713 -0.39962417 -0.37804583 0.09387668 0.3883786 -0.24954715 0.19462402 0.062265597 -0.2841361
1717 -0.047280364 -0.32947534 -0.60748655 0.08108114 -0.057602946 0.41425186 -0.3151491 -0.22845553 0.1773758 -0.3027753 0.1771739 -0.02451581 0.07803903 0.12841041 0.4507879 -0.35713485 0.55727184 0.041612454 0.027569104 0.48788905 -0.25241256 0.13045326 -0.063633755 -0.07892818 0.19860044 0.19382578 -0.3486091 -0.022355719 -0.08453642 0.57878846 -0.5735087 -0.12188905 0.01696542 0.37538287 0.06246256 0.078996025 0.3898428 0.20759507 -0.007939123 -0.060595267 -0.12155078 -0.021571713 0.22938517 -0.1076908 0.3315572 0.15980679 0.6628185 -0.16671541 0.029771434 0.14089696 0.25913882 -0.32870597 -0.09433781 -0.061836995 0.24030773 0.47185338 0.3027494 0.018301299 0.013264437 -0.40069792 0.306419 0.06052779 -0.0025613825 -0.22995038 0.5413194 -0.045649875 0.080432415 0.42399725 0.40614122 -0.31909284 0.01846569 0.4481067 0.2551958 0.2385431 0.06238831 -0.04923247 -0.15910617 0.4832049 0.498332 -0.43040276 -0.039306335 -0.113146745 -0.10021126 0.372744 0.05101041 -0.18494132 -0.09469257 0.12885611 0.14879137 -0.2697184 -0.39053315 0.09927682 -0.0635772 0.041431762 0.17879264 -0.34110427 0.09222301 0.13728213 0.09525478 0.41788083 0.14619344 -0.28003782 -0.12228705 0.13494281 -0.23498039 -0.034745976 0.47998688 0.064844295 -0.03413382 -0.24213669 -0.029458929 0.02050217 0.23779862 -0.113061376 -0.020640649 -0.32049242 0.12898089 -0.53106666 0.06365236 -0.02456063 0.07919021 -0.3828615 -0.47025523 0.2603389 -0.06938172 -0.06525824 -0.08308109 -0.035974775
1647 0.25454903 0.12179302 -0.50287485 -0.1062927 0.17762548 -0.36789495 -0.03489329 0.3968959 0.2601548 0.07430473 -0.2366139 0.032034732 -0.19143222 -0.35354298 -0.11090261 -0.43831265 0.11541127 0.36950243 -0.28782356 0.31755108 -0.19115514 0.17293157 -0.3294126 -0.28023645 0.22953786 -0.1865649 -0.25844416 0.35730407 -0.4275678 0.24636927 -0.38555005 0.34397003 0.1755161 -0.37707993 -0.47925812 -0.37620953 0.028538082 0.041318435 -0.1720198 0.15814185 0.101522885 -0.2240051 0.009675601 0.33787695 0.028011702 0.17658603 0.45060244 -0.23455176 -0.012900836 0.29284683 0.34567884 0.29719707 0.009672628 -0.2217535 0.21894908 0.24249364 0.3381142 0.25701222 -0.45925346 -0.19174173 0.26267895 -0.023739835 0.007150185 0.07954977 0.24944802 -0.1005535 0.081279546 -0.13660593 0.24214259 0.028247826 -0.17138983 -0.017614169 0.5653037 -0.13376653 0.15471826 0.48574308 0.7244972 0.13780594 0.14954521 -0.12377552 -0.14898975 0.12842253 0.46137127 0.39144206 -0.19299 -0.15953794 0.18783368 0.06602836 0.07298563 -0.3329326 -0.24226086 -0.28535816 0.31131583 0.03323619 0.07099697 -0.21271303 0.30647266 0.20771663 0.51226294 0.1427983 -0.106886454 -0.321294 0.08442136 -0.04227871 0.5667005 -0.16187115 0.14642593 -0.06396032 0.2850159 0.00436974 -0.16851392 0.18382029 -0.3227713 0.056640074 -0.13518384 0.30279288 0.0400545 -0.06531751 0.25467056 -0.43199298 -0.033268422 -0.12597317 -0.0663008 0.13910815 0.38393804 0.022439351 0.061001923 0.19622795
458 0.009748123 0.2835144 -0.43830392 0.2654842 -0.0059183454 0.14004159 -0.29469487 0.29737183 0.5239427 -0.4810385 0.13946746 0.21288736 -0.1216621 -0.27618024 0.0046086647 0.04681809 0.07860334 -0.14442638 0.0953174 -0.26196605 -0.13464704 0.2765928 -0.06662487 -0.03943078 -0.32094678 -0.03777084 -0.093596235 -0.19537096 -0.23484187 -0.05945296 0.095616415 0.19479732 -0.2867695 0.12526378 0.33423173 0.48029196 0.24780397 -0.021141704 0.24263741 0.19833788 0.23371857 0.0062474497 -0.030307988 0.15954126 0.2510707 -0.21229266 0.2962689 0.097704716 -0.044971664 0.1288816 0.41337755 0.08795769 -0.15054804 0.15391736 0.31120178 0.42912593 0.128638 0.6430111 -0.23106118 -0.2955065 -0.14216481 0.079604544 -0.5637166 -0.20364422 0.058585465 0.12973535 -0.112102844 -0.069471955 -0.29246628 -0.14631188 -0.084229484 0.050956342 0.4188447 0.18595007 0.2762349 0.4650941 0.07295773 0.293216 -0.3938305 0.1737886 -0.2512826 -0.29501072 -0.04646683 -0.35681707 -0.23340094 -0.14604154 -0.48689395 -0.42241478 0.16311008 0.10179466 -0.42806134 0.003970165 0.04824531 -0.24122542 0.4392228 0.095184654 -0.3826346 -0.08780671 0.14458843 0.2949481 0.38703743 -0.10881804 -0.320698 0.039186206 0.8988886 0.6326779 0.12442429 -0.09966527 -0.17693628 0.05591108 -0.2499903 -0.06325556 -0.0030325828 -0.09033502 -0.13097568 -0.081803635 0.0828917 0.19787697 0.36669815 0.35621476 -0.15374167 0.047957838 -0.04869272 0.4341432 0.1567926 -0.062044457 -0.18256548 -0.09188205
471 0.23155811 -0.22363587 0.1783172 -0.19509771 0.44588107 0.29653326 -0.20446894 -0.0483092 0.066242814 0.01977038 0.076202534 -0.32341072 -0.35969776 0.11522881 0.13417524 0.027842645 0.4514677 0.14358975 -0.0885607 0.79750663 -0.22921808 0.026373759 0.17988926 0.014172422 0.44900396 -0.09124543 -0.15722844 0.08425548 -0.12697344 0.57944095 -0.06811795 0.15751463 0.46131396 0.13565849 -0.2894218 -0.117238544 -0.03371626 0.3262166 -0.1223718 -0.1893939 0.25623348 -0.2349932 -0.4733764 -0.0669703 0.3578679 0.35674673 0.3671973 -0.28844988 -0.17364143 0.6126347 0.40384698 0.27873412 -0.42120847 0.017044988 -0.18558244 0.50781196 0.12780969 0.34992635 -0.48296806 0.06521371 -0.26023105 0.1017377 -0.23370416 -0.33763355 0.4203255 -0.18059956 -0.37703532 -0.067055374 0.10695716 0.082050875 0.19158478 0.15421002 0.47821265 0.44902498 -0.22550412 -0.3181261 0.26148716 0.3638304 -0.079860784 -0.130963 -0.055735074 -0.22006299 0.20245017 0.2810071 0.022470942 0.08311412 -0.38051733 0.1763431 0.071822315 -0.25796464 -0.18533108 0.04472741 0.1543431 0.28359312 -0.030294206 0.0072810706 0.5573657 0.016434472 0.27337408 0.24394548 -0.05129782 -0.24460872 -0.3686979 0.18623675 0.010945516 0.48815882 0.14398989 -0.29316714 -0.36018595 -0.17605013 0.13362226 0.053899508 0.2644233 0.023027653 -0.1832694 0.10490026 -0.20306219 -0.08721088 0.11433869 -0.31263962 0.24664839 -0.47960877 -0.19262928 0.4365564 0.085549265 -0.620418 0.05504599 0.05741344
2288 -0.42054364 0.3634954 -0.1428399 -0.41446146 -0.19957277 -0.012693921 0.0906007 0.26714534 0.3112154 -0.20284289 -0.115851864 0.21801105 0.18410708 -0.40680137 0.30856088 0.2129969 -0.058484476 -0.02356391 -0.08220153 0.34277505 -0.272434 -0.06721305 -0.09380759 0.818826 -0.20640515 0.49691036 -0.16731437 0.5556261 -0.30557403 -0.13112621 0.038007256 0.49867973 0.036406364 0.4334124 0.030966043 0.08705835 0.1286953 0.23276907 0.16700797 0.5524001 0.39651674 0.020763827 -0.11754882 -0.26887086 0.29212677 0.47187996 0.06328888 0.23599249 0.54415727 -0.075507976 0.16428673 0.1980188 -0.175233 -0.035117365 0.2108914 0.7965362 0.15034588 -0.23922358 -0.23420203 0.034326714 0.034864116 0.20739503 0.07401146 -0.21869597 -0.21526779 -0.09712891 0.016746322 0.120987765 -0.3707657 0.18621667 -0.19793585 0.2168985 0.33130443 -0.103946485 0.35686028 -0.0668726 -0.23068973 -0.056077745 0.31952837 0.0235566 0.0015044558 0.18967932 0.0064011994 0.1591353 0.09199937 -0.4230225 -0.061756343 -0.26426232 0.003200389 0.074593954 0.02627601 -0.02865189 0.006226647 -0.2397581 0.07337837 0.012983376 -0.053418975 0.15301324 0.2883448 0.08969701 -0.07638811 0.26386416 -0.19425812 0.38050577 0.06296738 -0.017555008 -0.12210704 0.037133988 0.4676496 -0.2901823 0.10657387 -0.069337204 0.1973095 0.27405724 0.10943514 -0.106088646 -0.4374561 -0.11380578 0.3317919 0.0153051615 -0.23606241 -0.31598622 -0.20571409 0.5064218 -0.07263578 0.3951963 0.027079169 -0.11388348
69 0.12163096 -0.42365226 -0.35146925 -0.130094 -0.4092337 0.0076977736 -0.2501617 -0.20453827 0.08207621 0.05577527 0.25363573 -0.48033544 0.302124 -0.41346473 0.094090275 -0.25844488 0.08047997 0.26733306 -0.112549186 0.13383022 0.030463941 -0.015053931 0.036609516 -0.02187863 0.08075148 -0.17990023 -0.06517701 0.029951828 0.5715755 0.045071106 -0.084616296 0.09877634 -0.04918679 0.2169513 -0.40436488 0.45041654 0.09984608 0.010807357 -0.27452546 0.59565043 -0.06916598 -0.12299822 0.03851351 0.46102333 -0.02432327 -0.020566901 0.23398054 -0.2650746 0.30725074 0.30156118 -0.08743494 -0.20195109 0.057178337 0.10241527 -0.22133219 0.44120353 0.20670792 0.25277576 -0.46801516 0.03295855 -0.116089806 -0.13666977 -0.6952957 -0.1536826 -0.117124155 -0.09411533 -0.07385031 0.20762604 0.0035677562 0.03970319 0.24810795 -0.49483302 0.27145085 0.06009769 0.096267514 0.23135978 0.122485116 0.27720717 -0.47759062 0.6193209 0.024689404 0.2838679 0.31074315 0.28822586 0.028138304 -0.27617234 -0.32424796 -0.37230784 0.16513336 -0.063931376 0.005622939 0.047358427 -0.52560127 0.006048753 -0.058681574 0.15684316 -0.10726326 -0.27822876 0.053244334 -0.15461233 0.44702262 -0.31075191 -0.2385303 -0.39487672 0.31262848 0.25976744 -0.28151557 0.23072436 0.13086887 -0.07843976 -0.4447779 -0.2429217 0.22622803 -0.45166764 0.093136445 -0.086580195 -0.13634871 -0.1986486 0.2660583 -0.4810681 -0.40354192 0.086082324 -0.045341086 0.20630787 -0.070623755 -0.19624946 -0.40030703 0.014275753
228 -0.004892965 -0.11811794 0.07251409 -0.006555906 -0.29663825 0.06407426 -0.17501082 0.013796373 0.14605397 0.4547349 -0.09868026 0.19544227 -0.11265827 -0.10814036 0.18983302 -0.0050115297 -0.09543081 0.12504123 -0.17459244 0.32366857 -0.26915842 -0.2569999 -0.2241306 -0.01277151 0.30215225 0.0115064485 -0.27221534 0.12792006 0.40111497 -0.11296027 -0.28183675 0.10161114 0.4562024 -0.08565703 -0.088440344 -0.20924738 0.13455275 0.04977659 0.4668866 0.5738443 0.28026938 -0.61780924 0.63422936 0.09188723 0.3261703 -0.07674472 0.056202672 -0.15734614 0.26897493 0.065897495 -0.02845559 -0.099850774 -0.32297957 -0.28326857 -0.24118035 0.07629994 0.33141136 0.15747519 -0.37005335 -0.31370944 -0.027042745 -0.6180205 -0.46002954 0.31516686 0.0674688 -0.17519028 -0.31583288 -0.08657476 0.058301684 -0.029405942 -0.31523043 -0.040932253 0.010314016 0.15289712 0.14261849 0.04157521 0.21194139 -0.21261261 -0.59405625 0.2310935 0.12000553 -0.056331355 0.20979868 0.31805414 -0.045192905 0.02109978 -0.32377255 -0.36629596 0.11757538 0.05583893 0.43928978 -0.2471945 -0.46354213 -0.24884196 0.06933576 -0.15257406 -0.48347196 0.30408412 -0.17763746 0.25228438 0.42125264 -0.31000793 0.31022483 -0.0836145 0.15963966 0.32935315 -0.0176051 -0.11037931 0.018597828 -0.08910732 -0.08881376 0.048501186 0.20153606 0.035171513 0.2533007 -0.19069396 0.075284794 -0.58930194 0.15077557 -0.007452029 -0.0043821414 -0.19930592 -0.18180603 0.34421614 0.08196375 -0.122872256 0.16763 -0.035788193
1467 -0.0546988 -0.19396774 -0.34804296 0.03532737 -0.20928587 0.17948806 -0.08691957 -0.6004902 0.054791216 -0.044990744 -0.25198075 0.14431192 -0.2398032 0.089198545 0.32048884 -0.030263439 -0.36476782 0.23414384 -0.18203507 0.48502487 -0.38006127 0.12492546 0.2675923 0.075548775 0.10640103 -0.04070062 -0.4471622 -0.18854193 0.088726304 -0.10244512 -0.33985433 -0.2116533 -0.2527092 0.030901408 -0.2031529 -0.17450935 0.08270357 0.065228455 0.60111517 0.36075297 0.35504395 -0.24789353 0.20180878 -0.04508615 -0.14233008 -0.10044767 -0.13860571 0.0023991098 0.0865401 -0.16198456 0.15629196 -0.32015124 -0.12335362 -0.24364264 -0.18725418 0.08499525 0.34089875 0.22098294 -0.25799173 0.11239189 0.12176991 -0.46239868 -0.3113716 0.21446232 -0.3533872 0.037263226 -0.30758464 -0.27877912 -0.16085641 -0.39177996 -0.23470755 0.29598743 0.19590494 -0.06264947 0.15769577 0.5049887 0.106509246 -0.3093866 -0.19972755 0.032133855 -0.20282945 0.083428614 0.02821473 0.062392067 -0.32031226 -0.026688986 0.19499335 -0.56145656 0.6044378 -0.10521643 -0.017485268 0.07876179 -0.5076397 -0.0872238 -0.23046443 -0.028877093 -0.17192881 0.3858191 -0.005716797 0.41183108 0.060016744 -0.048410524 -0.11258316 0.059547648 0.43226445 0.37871313 0.3100562 0.041087024 0.31757325 0.17031644 -0.4251672 0.036276966 0.0984991 -0.11877274 0.06922357 0.1323808 -0.027826553 -0.19551404 0.2916529 -0.36693653 -0.08925247 0.266853 -0.22034173 0.528248 -0.34000236 -0.08723376 0.41515148 0.1998918
405 0.0994409 -0.67118156 -0.2212547 0.13083753 -0.2521148 -0.16949923 -0.09906355 -0.31715557 0.20111766 0.36248016 0.192944 -0.15774299 0.09783557 -0.31512886 0.052256223 -0.42516315 0.072901666 0.17953889 0.6359266 0.30752298 -0.5244037 0.076956354 -0.1011124 -0.11324468 0.07158247 0.04454623 -0.38772961 0.22300945 -0.25710648 0.07514486 0.14830762 -0.010060905 0.039436597 0.24670902 0.44573477 -0.2732024 0.2534953 0.07824609 0.15543312 -0.24926935 0.21372163 0.2718288 0.05294904 0.03486014 0.08165415 -0.06524217 -0.1245735 -0.18732812 -0.3408939 0.15920906 -0.028484868 -0.14559317 0.21056414 -0.003067484 -0.1665385 0.23506753 0.41248137 0.19965361 -0.3223727 -0.38092428 -0.041217983 -0.23463896 0.30994788 -0.23028219 -0.14282839 -0.36045694 0.07684314 -0.29374248 -0.12773547 -0.12424439 -0.15529847 -0.116088174 -0.065228224 -0.110991366 -0.297092 -0.09501362 0.46103713 0.29457578 0.45587224 0.3917043 -0.1265715 0.0875964 -0.4455335 0.3144363 0.21028432 -0.5563528 0.11199605 0.24446343 0.388053 0.03946839 -0.22796975 0.3330897 0.28023478 0.06249213 -0.07624012 -0.04423898 -0.10436621 -0.16718945 0.038971454 0.054296855 0.58714145 -0.14837559 -0.076218754 0.17717633 0.22376996 0.1995719 0.33649313 0.15632384 0.21411574 0.18347067 -0.32566905 -0.27140754 -0.08407697 0.40156567 0.28074065 -0.4760998 -0.24598008 -0.6172582 0.27409422 0.05626473 -0.35937968 0.015774956 -0.21554448 0.36401233 0.32737938 0.47540393 -0.010339108 0.37595946
496 -0.28777876 0.2261997 -0.30225375 0.34018716 0.1814769 0.26798663 0.22703366 0.17329757 -0.09408444 0.25689086 -0.70125425 -0.23998617 0.015660288 -0.3480162 -0.15412298 0.07240736 0.4616238 0.5502004 -0.3731893 0.38772494 -0.27498883 -0.016043827 0.06599865 0.33729067 -0.25716838 -0.060032293 -0.12242351 -0.09445412 -0.030142833 -0.30653802 -0.03662194 0.18381907 -0.02253265 0.55588275 -0.13220042 0.17172444 -0.30379853 -0.16944587 0.28430688 0.0666024 -0.043920703 -0.012522523 0.111541264 0.13113298 0.50312364 0.23190047 0.21704231 -0.27976266 0.27397814 0.33115432 0.051570825 -0.0727441 0.22702959 0.10718684 0.07452937 0.25904742 0.83745587 0.43031108 -0.1425406 -0.19500814 0.30866948 -0.005693147 0.020211939 0.2106552 -0.018492974 -0.45702505 -0.24491479 0.27314663 -0.30114186 -0.3304122 -0.26700783 -0.29143533 0.017845074 -0.18251245 0.11105706 -0.022672012 -0.1648874 0.1887802 -0.5040356 -0.039531056 0.2182284 -0.20537008 -0.36804372 0.21244381 -0.25632167 -0.019950202 0.22272816 -0.36014473 0.3328819 -0.031500455 -0.35544962 -0.08137332 -0.15508744 -0.32229444 0.49448264 0.45851648 0.30865574 0.016477456 -0.3137562 0.101689175 0.3547241 -0.23215103 -0.23956624 -0.1861075 0.25675386 0.6526049 0.668276 -0.08996785 0.16121043 0.19827111 -0.059596837 0.015872652 0.15111268 -0.1464217 0.22896689 0.025325544 0.056147005 -0.047853082 0.08707306 0.17628941 0.014500079 -0.059579704 -0.08841818 -0.11891844 -0.0023630995 -0.08987373 0.077182025 -0.33540758
391 0.4066964 0.22160327 -0.14026473 0.27980405 0.17902294 0.3367733 0.04739433 0.19576041 0.2056905 -0.05165057 -0.39063588 -0.08211033 0.061696734 0.13551082 -0.24832746 -0.25742877 -0.12284423 0.19628057 0.10920767 0.57987386 -0.048869394 0.2118694 -0.3377919 0.16946237 -0.10803663 0.012802363 -0.38029936 -0.14854056 0.15558495 -0.35801092 -0.29921368 -0.024881639 -0.11477163 0.3663294 -0.23439255 -0.013401536 -0.18448876 0.3649309 0.35657212 0.33746877 0.45000222 -0.0016699343 -0.1312163 -0.010373007 0.42891368 -0.64472055 0.6907339 -0.1852778 0.3533235 -0.26249456 -0.17308474 -0.010683607 -0.2781232 -0.29974684 -0.1413182 -0.028809188 0.44112897 0.064292535 -0.46408203 -0.117588624 -0.050569024 0.25710285 -0.22474985 0.25796393 -0.5228267 -0.3221343 -0.09294518 0.27476582 -0.12125691 -0.029591426 0.10943306 0.17808898 0.5035789 -0.040139515 -0.31375197 0.28013933 0.07260368 0.17001344 -0.1530776 0.30999422 -0.10704208 -0.13946803 -0.28618327 -0.23374927 0.08989939 0.03977144 -0.1304722 -0.2924688 0.44272292 -0.039606594 -0.18585038 -0.2504419 0.025318522 -0.3659151 -0.10925227 0.013144131 0.12435095 -0.27668887 0.3327829 -0.21880206 0.20215847 -0.6003061 -0.08062689 0.21348599 0.30876228 0.072991475 0.29001096 0.24308188 -0.01252226 0.19427381 -0.43296474 -0.14212328 -0.1088889 0.14598455 -0.09385434 0.07287309 0.17456675 -0.24257462 0.33008727 0.30701134 0.18348438 -0.014491373 0.05914329 0.31496218 -0.15654038 -0.25494018 0.09697954 -0.118869565
713 -0.0043482822 0.11419324 -0.30583718 -0.18181081 -0.31307122 -0.12167533 0.16845779 0.12609503 0.25890383 0.25671852 -0.19139367 0.30816314 -0.37696537 -0.36828718 -0.20261866 -0.35250735 -0.12177757 0.13195033 0.09065898 0.16512758 -0.22744408 0.3481043 0.1266369 -0.31065753 -0.049587168 0.32004705 0.052880943 -0.112231866 0.024847332 -0.012584765 0.048233323 -0.11508646 0.31797788 0.09640985 0.24149756 -0.15885916 0.041667935 0.0936536 -0.017873202 0.46655774 0.57948303 -0.09461498 -0.4218205 -0.2839518 -0.075928435 0.19964717 0.21934517 -0.6157077 -0.07783259 0.34554672 0.0758419 -0.73484576 -0.092535675 0.22744377 0.032597143 0.27217686 0.46377516 0.18284471 0.047186673 0.09637794 0.5141268 0.07215673 -0.22686082 -0.25602812 0.35840228 -0.19036657 0.09407547 0.26913193 -0.24601726 0.04688755 -0.397844 -0.29933563 0.37929228 -0.07882698 0.23650692 0.52968115 0.22673845 -0.073608026 -0.021918828 0.4304235 -0.2926157 0.03450001 -0.24978277 0.12636957 0.30367962 -0.06340742 0.34460083 0.13648738 0.15496862 -0.34884465 -0.40940875 0.15211222 0.27336213 0.057739027 -0.2130624 -0.28037894 -0.49280193 0.14522292 0.05693235 0.50195956 0.0028668179 -0.4991909 -0.21969637 0.13700289 -0.25126848 0.0951356 0.09888725 -0.48866463 -0.124653414 -0.11424012 -0.2599746 0.12887341 0.21645403 0.053977706 0.2120832 0.12592416 0.011195588 -0.258085 0.19305208 0.10582985 -0.014707121 0.38812906 -0.24128227 0.8401439 -0.15153474 -0.38824752 0.31912306 -0.07084235
602 -0.22841603 0.09921885 -0.13888706 -0.15620422 -0.22979641 -0.0520504 0.39720666 -0.17032456 0.295164 0.36305714 -0.08868651 -0.31835797 -0.7622511 -0.027268099 0.2298244 -0.42032713 -0.0026359216 0.27908364 0.28282228 0.45767632 -0.5960691 0.0014581704 -0.10638257 -0.03702783 0.39712542 0.04947316 0.24432454 0.59065014 -0.13963273 0.3646449 -0.0032492485 -0.05414229 -0.18352705 0.07669931 0.048699066 0.15903881 0.3733521 0.3427693 0.14547198 0.13882875 0.047421314 -0.031867944 -0.013235146 0.2493712 -0.14760023 0.2806236 0.32449743 -0.25257003 0.044993825 -0.22011021 -0.05749069 0.78427106 0.36813626 0.039188296 -0.09912902 -0.3932702 0.2906221 -0.29452914 -0.2069246 -0.35169166 -0.17757559 -0.5381347 0.094559796 -0.1536443 -0.46569985 -0.01911648 -0.11408061 0.57280755 -0.5843545 -0.2670534 0.090736955 -0.18459466 0.22162613 0.4476879 0.36386237 0.22406352 -0.06437553 0.26698908 0.14325373 0.15166236 -0.15417051 0.11328624 0.20702931 0.4149773 0.08763473 -0.25161123 -0.17748618 -0.079825304 -0.0061739115 -0.31469005 -0.11131384 0.39280158 0.07458894 -0.33721507 -0.13977867 -0.0006127979 -0.28414124 0.055686288 -0.5571885 -0.0014509266 0.023029108 0.0638756 -0.09259985 0.508577 0.19602543 0.11377517 -0.23134816 -0.25411126 -0.12058655 -0.00011290987 0.28744692 -0.30141804 0.18518601 0.2545948 0.05087034 0.07120487 -0.42728248 0.022431698 0.30153567 0.023489827 -0.38325801 -0.179066 -0.11165664 0.116408296 0.19549868 -0.25289333 -0.05568894 -0.25648466
476 -0.17806748 -0.5553124 -0.3010511 0.26674387 0.10120187 0.53376436 0.032990806 -0.03390492 -0.034489732 0.18595235 -0.12871048 -0.14919353 0.6083276 -0.34138894 0.10386991 0.17828646 -0.079561904 0.1979432 0.18503456 0.29256654 0.09696588 -0.056301136 -0.3587589 -0.13314135 0.52080494 0.08016671 0.2505709 0.259261 -0.3213216 0.08484724 0.20073934 0.3807835 -0.14032957 0.006691565 -0.08401918 0.05652013 0.04272714 0.06100509 0.75296617 0.32903266 0.0068708966 0.05323946 0.12450692 -0.1719193 -0.17244 0.17123082 0.59010494 -0.37952736 -0.15083967 -0.042137574 0.63458735 0.08150108 0.25214913 0.08968316 -0.1388421 0.32432264 0.11659662 -0.123384625 -0.43815267 -0.17542383 0.066788025 -0.47435477 -0.062152255 -0.27774873 -0.37191853 0.03303846 -0.020427959 0.07447345 -0.37250546 0.046756275 0.005548872 0.058257796 0.32986432 -0.12415844 0.0028624388 -0.010099232 0.0504977 -0.10226444 0.053352892 0.32306603 0.15996744 -0.22658616 -0.10749816 0.16958712 -0.14282787 -0.18160114 0.034195233 -0.12252504 -0.037718818 -0.09669368 0.17882411 -0.023523636 0.1505557 -0.18239324 -0.3971695 -0.11002716 0.07282213 -0.10132556 -0.39562953 0.5732176 0.15368824 0.31414017 -0.07799659 0.21856311 0.0011010353 0.37013745 -0.0074442243 0.026888745 0.44985172 -0.03520801 -0.20935337 -0.1050682 0.5684368 0.11542644 0.17407477 -0.03179888 -0.4783592 0.18413068 0.24685642 0.14767262 -0.3305861 -0.26145002 0.13206254 0.45632914 0.13100575 0.44061434 0.23261283 0.058273662
1722 0.1242319 -0.10459392 -0.41461775 -0.3734232 -0.29491326 0.040143177 -0.10434101 -0.24972208 0.18215582 -0.11516202 -0.28277463 0.39606997 0.26329347 0.15105703 0.09620667 -0.2657287 0.25342733 0.03616776 0.26232952 0.61612517 0.0016965832 0.21247518 0.2640147 -0.6300638 0.06535886 0.2663356 -0.06985546 -0.01410398 -0.09026928 0.027202815 0.07976741 0.0995368 -0.010924656 0.1589281 0.033526253 0.31051055 0.5068088 0.4259511 0.1507051 0.4324464 0.007850067 -0.006555624 0.36208516 -0.073495165 0.30345827 0.44106492 0.43826842 -0.030197421 0.048864268 -0.15325755 0.32768288 -0.12267244 0.023488348 -0.051989462 -0.039893445 0.36773083 0.382697 -0.06990791 -0.27773774 -0.48486796 0.13953537 -0.001766258 0.12270481 0.018548938 0.3034141 0.12632768 0.031186346 0.4062644 0.2844044 -0.14085229 -0.17851487 0.318888 0.34537566 -0.12312673 0.47578883 -0.39177105 0.07394406 0.29467648 0.3626846 -0.21319175 0.3602295 -0.18840109 0.2427635 0.20444849 0.52426225 -0.4554677 0.22032979 -0.41877845 0.104746535 -0.16323887 0.0011718026 0.08429448 0.6157649 0.38769248 0.01843416 0.07315163 -0.28012115 0.14546144 0.17056453 0.43039548 0.31604373 -0.17000706 -0.49745786 0.33099943 -0.14244841 0.11510223 -0.06588076 0.11144723 -0.029819531 0.05550072 -0.12916382 -0.42959157 -0.06210515 0.10654277 -0.08398899 -0.11127566 -0.28649694 0.02917558 0.4173426 -0.033322215 -0.18799591 -0.28124154 -0.19590998 -0.14237618 0.10244443 0.025088234 0.3606718 -0.06686665
696 0.42063108 0.038287055 -0.12321588 -0.29885414 -0.36827505 0.0071755457 -0.06252573 -0.2115648 -0.23868985 0.2600391 -0.16414206 0.15237139 -0.25617754 0.05797849 -0.3578923 -0.336175 -0.11812933 -0.18836547 -0.37029874 0.47762153 -0.2676543 0.029726848 -0.35181347 -0.28669992 0.028866831 0.56350857 -0.11580998 0.031495955 0.09346006 0.107331805 -0.0066659073 -0.0270258 0.38502142 0.10254558 -0.28821197 0.14589351 -0.66227365 0.37131712 0.020921549 0.32911566 0.08550085 -0.39921406 -0.2617225 -0.10469823 0.12503263 -0.04201491 -0.3336722 -0.4387754 -0.2152881 -0.007018767 0.104012795 -0.15477121 0.028133364 0.2078533 -0.050139576 0.25524363 0.31498978 0.06309759 0.15635732 -0.24836794 0.2564312 0.10425265 -0.6138631 0.20238975 -0.15974614 -0.1372598 -0.32430178 0.23860699 -0.11866988 0.10465173 -0.1255267 -0.35044104 0.49409273 0.036152612 -0.030593537 0.042398497 0.26874143 -0.29543275 -0.28111944 0.051816404 -0.3626464 0.07952726 -0.0818859 -0.10630565 -0.16861784 0.2245864 0.13343439 -0.25235617 0.20410548 -0.29953003 -0.05523563 0.525153 -0.6361632 -0.43151614 0.49598193 0.38165402 -0.3156225 0.0094238445 0.035605118 0.5644722 0.2673706 0.08643919 -0.30365005 0.45510092 -0.037825543 -0.15156369 -0.036536597 -0.13529253 0.32177627 0.286913 -0.16306287 -0.0563731 0.1922535 0.04105509 0.4302453 -0.058580074 0.050113946 -0.12791267 0.4002585 -0.18853647 -0.03032035 -0.19129235 -0.36927006 0.5426896 0.29720554 -0.26520202 -0.17381585 0.035164256
2159 -0.25894752 0.15003468 -0.34056112 -0.060939576 0.3518856 0.30123517 0.061766516 -0.5855269 -0.13381116 -0.03304032 -0.10583363 -0.06233026 0.15462993 -0.122273624 0.012644577 -0.05693658 -0.30385128 0.29105553 0.0033331686 0.26721936 -0.1192881 0.123032786 0.15978639 -0.2469685 0.0004932143 0.30924466 -0.028934421 0.6168273 -0.13434863 -0.0051151193 0.13604021 -0.11355742 0.26334354 0.07566592 0.26566243 -0.3610661 -0.004188986 0.51835656 0.19056116 0.13570535 0.26425758 0.2751026 0.37703374 -0.4061947 -0.46687546 -0.20158608 0.07478416 0.008465788 0.20266 -0.015346204 0.12276105 -0.017806424 0.34205553 -0.51552993 0.2675455 0.8436625 0.6273661 0.24758019 -0.17844677 0.0198618 0.030294592 -0.07154261 -0.093587816 -0.27112868 0.33715475 0.17497526 0.104603104 0.21767291 -0.18014011 0.14984281 -0.10290978 -0.28961635 0.2534017 0.072285056 0.24182719 0.40400064 0.26568127 0.2834014 -0.2762088 -0.029224431 0.1043978 0.3977971 0.039486658 0.23999569 -0.26934713 -0.05132142 -0.17869234 -0.0726816 0.7069029 0.01791049 -0.42722505 0.32615536 -0.055359013 0.09171006 -0.25728524 0.104269356 0.022700293 0.29631072 0.64108664 -0.16516137 0.24354948 -0.5273577 -0.29805845 0.012598818 0.1271762 0.005798685 -0.08910831 -0.47555 0.4145504 -0.09941079 -0.06496201 0.10341925 -0.025791142 0.21830207 -0.01597949 -0.014771784 0.455117 0.25141093 -0.15687369 0.23932998 0.41589952 -0.023786897 -0.41739178 0.27617654 0.14144275 -0.11760372 0.1581483 -0.06521365
6 -0.24531274 0.4813182 0.053782955 -0.016692337 0.19591571 0.13187632 0.13229822 0.15390585 -0.20723943 -0.073712595 -0.0941839 0.28080818 -0.13078843 -0.42046586 -0.12888269 0.055295017 0.3279912 0.41613337 0.28423485 0.3344389 0.016047435 0.022732684 -0.067317046 0.3783039 -0.16517477 -0.24998926 -0.36291245 0.34677655 -0.18047492 0.2580279 -0.30453348 0.30121985 0.046858724 -0.14475237 -0.1566261 -0.1264544 0.124230295 0.41738078 -0.21051385 0.08832777 0.15943539 0.032942872 0.2084746 0.18382324 0.3686754 0.17186794 0.29953998 0.18703449 -0.14594553 -0.079603806 0.49517992 0.0054876907 -0.1310518 -0.26196602 0.018944236 0.5461749 0.40682924 0.16301382 -0.24854425 -0.36324835 0.21041845 -0.3688105 0.17007582 -0.12537736 0.473256 0.119199865 0.13306223 -0.12007149 0.055645335 0.33262184 0.013790823 -0.335964 0.40953067 -0.16466804 0.0030037516 0.3290607 0.29444364 0.15481842 -0.060719218 0.15937245 -0.15186459 0.4579873 0.13454057 0.18930985 0.2626011 -0.10765932 0.08623822 0.5185598 -0.3123161 -0.3100828 -0.10333401 -0.011177732 -0.30634564 -0.31386974 0.3206179 -0.25485402 0.15515038 -0.27131847 0.1450192 0.2967701 0.41271695 -0.13431282 -0.23483643 -0.110046886 0.48251343 -0.33536097 0.2794321 0.15651092 0.24393764 0.32826132 -0.31186795 0.06330224 0.15299287 0.1362754 0.021792825 -0.14847368 0.25222546 0.048972398 0.25858295 -0.38103956 -0.40449202 0.30525124 -0.2275346 0.4324581 0.2869121 0.03830254 0.07681367 0.29960948
1573 0.26868057 -0.36359593 -0.05475054 -0.25746444 -0.014926065 0.27200985 0.54217005 -0.26622695 0.28765875 -0.059635602 -0.009103744 0.35473692 -0.3405517 -0.10778964 0.08253465 -0.16586334 -0.10539361 -0.12706581 0.0688116 0.16178752 -0.45826924 0.45137715 -0.6101253 0.16262382 0.20308885 -0.105454855 0.09513121 0.121513955 -0.10671653 -0.07828661 0.016834438 -0.13603039 0.3921687 0.42641798 0.019635385 -0.1638698 -0.4066243 0.27555606 0.13184622 -0.02379396 -0.14495762 -0.19204588 0.3849363 0.07568674 0.013397377 -0.24454877 0.080833435 0.1300953 0.23077658 -0.049337424 0.1290301 -0.10496926 -0.14327069 -0.1609686 -0.22179894 0.16375327 0.2692313 0.6255425 -0.28491107 -0.3603371 -0.649504 -0.18374956 -0.4039196 0.0837341 0.11721699 -0.3007075 -0.1996413 0.15592532 -0.46877378 0.047263686 -0.20000206 -0.3429601 0.10072391 -0.45870245 -0.3657672 0.07465213 0.1428944 0.09987545 -0.19170083 -0.5463374 -0.037099596 -0.31768078 -0.14178616 0.25870454 -0.2596594 0.57751346 -0.19808331 -0.41760606 0.11657997 -0.33758095 0.09019267 0.47422138 0.04879317 -0.20383573 -0.11164805 -0.0070703696 0.027756216 0.31858677 0.09726905 0.32818955 0.10116295 0.13890688 -0.052323785 -0.15044664 0.19072063 0.23831941 0.0078339055 0.104681656 0.20590459 -0.34776503 -0.122072734 -0.30701458 0.04960792 0.08182652 0.13705073 -0.34976774 0.6139135 -0.24776605 0.6513712 -0.4517634 -0.09200635 0.06866544 0.14005958 0.49954817 -0.025439711 -0.14870723 0.15846238 0.14601822
569 -0.16711801 0.09804575 -0.19915627 0.14551377 -0.45424995 0.26798704 -0.040738992 0.0047347494 -0.11514429 0.30877715 0.20209508 -0.028842337 -0.24448587 -0.06361323 0.34279758 -0.11890423 0.017899266 0.25375873 0.006803563 0.36269027 -0.1739816 0.4138976 -0.050769385 -0.073478214 0.24748428 -0.03254808 0.119344786 0.50520486 -0.39364126 0.3970145 0.1857394 -0.042701416 -0.06922991 0.3877327 0.21282873 0.00044992226 0.41001543 0.39682 0.55519825 0.5405857 0.36316428 -0.43280715 0.40856794 0.3512759 -0.04994325 0.21894462 0.12420022 0.050595623 0.25945106 -0.48722348 -0.08238639 0.6471377 0.08570965 -0.011112241 -0.391984 0.18058832 0.65981025 0.4049133 0.0669589 -0.10622536 -0.4032581 -0.24819551 0.16738017 -0.20508245 -0.67177063 -0.4935308 -0.41330636 0.46801826 -0.43217367 -0.013828491 -0.2514982 -0.0047438713 0.021387113 0.4428915 -0.05412575 0.44049478 -0.07490602 0.03108577 -0.2367316 0.13915043 -0.06028945 0.117164284 -0.07455886 0.13765514 -0.32459754 0.16293904 -0.18181378 -0.59897834 0.034371 -0.08744696 0.0805115 -0.12989025 0.39402756 -0.35391048 0.2012863 -0.34093934 -0.43486828 0.15622771 -0.24146844 0.12336861 -0.15858506 0.12815723 0.06577957 0.097040065 0.05748583 0.2830102 -0.09914465 0.032240562 -0.0853693 -0.14634252 -0.11291008 -0.2709727 0.30299297 0.3137978 0.21895114 0.3612433 -0.22566438 0.00990679 0.5441894 0.025039632 -0.20515126 -0.57106036 -0.18315838 0.33589154 -0.18231401 -0.100368224 0.06555043 -0.14081235
1445 0.002535753 -0.34448165 0.090996586 0.0053131017 -0.21862894 0.21547468 0.1249633 -0.021917008 0.3585782 0.008710296 -0.22665776 0.2223741 -0.22231455 0.2016886 0.13287514 -0.23329048 -0.2871849 -0.01866081 -0.3907402 0.47944903 -0.2389396 0.28883502 0.08948205 -0.31333363 0.07730284 0.14157237 -0.37637305 0.03175063 0.16231042 -0.19043332 -0.0762316 -0.2925139 -0.039453816 -0.0025216513 -0.0076169595 0.110926375 -0.18693791 0.3107621 0.37086347 0.5894772 0.1860189 -0.27102613 0.10939133 -0.14995019 0.02025872 -0.07569389 -0.017494556 0.21111 0.28006744 -0.08107954 0.3602956 -0.40881383 -0.15345204 0.13923925 -0.584955 0.1048625 0.5143202 0.16355202 -0.1610269 0.3812539 0.28305626 -0.5437371 -0.41647285 0.12658529 -0.01451174 -0.006411703 -0.4814065 0.048810396 -0.28290147 -0.18141317 -0.09453283 -0.2895966 0.5229174 0.16559616 0.18309312 0.22905153 -0.10487623 -0.23993514 -0.26728928 0.119561575 0.10360036 0.30868474 0.5021566 -0.06528707 -0.16006367 -0.0895895 -0.037611682 -0.539729 0.4058887 0.10188752 0.10463269 -0.01641684 -0.26644254 0.17213714 0.016765803 -0.08522752 -0.38611966 0.48882097 -0.35690674 0.2853399 0.09498237 -0.29823166 0.107551984 0.24390575 0.34796932 -0.0069036796 0.026821772 -0.03854754 -0.007140429 -0.043327097 -0.50566363 0.11644717 0.2256893 -0.039269958 0.07574706 0.034288354 0.06279772 -0.08583108 0.11636767 -0.2674058 -0.20345934 -0.18626608 -0.31212398 0.6071095 -0.18776196 0.058364876 0.1991343 -0.015353041
2330 0.37217453 -0.014036051 -0.00028688516 -0.42423382 0.28532737 -0.25751713 -0.107289866 0.4911843 0.072893634 0.086325906 -0.42735922 -0.20760489 -0.35185394 -0.28343204 0.0881123 -0.12862913 0.19488323 0.046233956 -0.069572814 0.4228291 -0.047838952 0.07266117 -0.14394845 -0.29794255 0.1400129 0.16883309 -0.18108442 0.18267116 -0.44052395 0.20344886 -0.33637568 0.49623838 0.19100748 -0.15344863 -0.013955645 -0.25207293 -0.15159985 0.29626605 -0.06328841 0.07672709 0.37016454 -0.15613207 0.31841666 0.1323412 0.3598079 0.11856019 0.2593031 -0.05606736 0.09542281 -0.0033094357 0.27153125 0.37159008 0.062083717 -0.32504103 0.36637494 -0.121602386 0.56643635 0.6429111 -0.29038745 0.16187388 0.40484717 0.033600256 0.21046983 0.31057104 0.17714658 -0.10133879 -0.0099215675 -0.19880736 -0.08532221 0.29822782 -0.07972342 -0.06803635 0.5393613 0.124053754 -0.2894067 0.15859272 0.50638217 0.20816973 0.080075055 0.046764404 0.11931156 0.116612956 -0.20302108 0.23674765 0.2758422 -0.13167837 0.2762456 0.42819667 -0.067422636 -0.3478455 0.058168463 -0.35316598 -0.0014058092 0.098450966 0.321806 -0.16946658 0.047899257 0.10572769 0.22428091 -0.0074138516 0.24905863 -0.10066959 -0.02831736 0.017221138 0.55387676 0.059481494 -0.23958899 -0.16903852 0.39429644 -0.0983273 -0.055100128 0.21532676 -0.19316888 -0.20750208 -0.1481097 -0.2617273 0.34335822 0.26419973 0.34161997 -0.16559452 -0.10290241 -0.16342817 -0.1289248 0.7320838 -0.22319284 0.10079533 -0.15131123 0.1326865
1466 0.21624163 -0.2682449 0.27928758 0.14456914 -0.39077532 0.14894836 0.1990887 -0.028610913 0.0296252 0.086658105 -0.19287598 0.28835362 -0.2606889 0.34752923 0.009283456 -0.037671894 -0.012463208 -0.021959629 -0.25926298 0.33907813 -0.47536346 0.21141386 0.059674695 0.17739175 0.030335747 0.015355623 -0.4749099 0.25985706 0.08347241 -0.0074516367 -0.016746359 -0.07268397 0.2609687 0.112341724 -0.14814915 -0.09638015 0.1845581 0.119390905 0.6045312 0.42517945 0.2974875 -0.2208433 0.23992415 0.027456602 0.08162494 0.051169362 -0.08976916 0.20894378 0.18175331 -0.2332181 0.05724446 -0.47542197 -0.33734703 -0.22499867 -0.15419291 0.36847788 0.7350281 0.20920123 -0.43114382 0.00010110828 -0.008175726 -0.52385265 -0.21073036 0.3697164 -0.15368155 -0.16190678 -0.15209693 0.046196062 -0.14801061 -0.106010154 -0.25154948 -0.21242346 0.06300501 0.25339425 -0.028158046 0.03691253 0.109429695 -0.13034765 -0.52624846 0.20806494 -0.15511152 0.1202336 0.28092882 0.15985166 -0.23169807 0.15167658 -0.23995893 -0.25205055 0.41457015 0.073910646 0.039250772 0.0023123801 -0.22615623 0.0690595 -0.08888724 0.00919885 -0.18972604 0.51265645 -0.27577415 0.5041827 0.38765427 -0.027254354 0.082480274 -0.16752294 0.14601338 0.31872937 0.16752197 0.0691073 0.12468668 0.25264305 -0.03215073 0.06680058 0.12599298 0.15589869 0.43052816 -0.29773626 0.072190486 -0.037177198 0.3832247 -0.3123262 -0.4583693 -0.09764155 -0.20722583 0.45575994 -0.10612225 -0.14633347 0.39694902 0.14481731
510 -0.10581316 -0.4062769 0.06397179 -0.15346147 0.09417351 0.5012693 0.05351842 0.21577539 0.22675009 0.25236735 -0.2606262 -0.11002246 0.38233975 -0.25541177 0.37669638 -0.113175556 0.4121732 -0.08511077 0.20468938 0.16611527 -0.09835793 -0.06570771 -0.10508752 -0.004415422 0.37006143 0.26720482 -0.14573272 0.1222932 -0.5565608 -0.57821745 -0.30494648 0.030988922 -0.19234058 -0.18293966 0.32525593 0.40582517 -0.11114225 0.24369551 0.18963152 0.4038956 -0.029228909 0.39238647 0.05384354 -0.16801901 0.015912041 0.32523286 -0.20418254 0.19614333 0.30784482 0.13772973 -0.10825269 0.33912203 0.2556865 -0.13494454 -0.2130619 0.034227222 0.19882225 0.24320035 -0.24963579 -0.41551685 -0.095212914 -0.62701285 -0.07220764 -0.08414029 -0.1150182 -0.14696065 -0.019558994 0.22617507 0.018799746 -0.4586402 0.076254725 0.15658814 0.41081735 -0.028742572 0.057118714 -0.24393891 0.14354752 0.03156653 0.2087742 -0.11997077 0.44872913 -0.07302899 0.076991 0.19649625 0.31697595 -0.5331974 0.26632416 0.28940055 0.15503338 0.28916594 0.118322894 0.18649632 -0.014449711 -0.4205533 -0.0075634243 0.49376795 -0.13876188 -0.11093593 0.43460098 0.37024754 -0.041336406 -0.17449737 -0.086426675 -0.19037607 0.20463623 0.40408716 -0.35900885 0.1309666 0.3546743 0.23045021 -0.23168257 -0.30185837 -0.046287797 0.38097697 -0.0816863 -0.24260356 -0.33190238 0.035630718 0.29262614 -0.0011004386 -0.47261655 -0.12888706 -0.2491235 0.58687973 -0.037753865 -0.14999653 0.1768486 0.000744315
1641 0.42361596 -0.15922749 -0.46430668 -0.048842855 0.25935277 0.19201007 0.55088216 0.17454378 -0.12941854 0.37411714 -0.047489796 -0.3827379 -0.20623854 -0.11211419 -0.13521127 -0.38596624 0.15693521 0.65608007 0.21828684 0.09078402 -0.3462668 0.30198228 -0.43083423 -0.17371404 0.19759013 0.10984204 0.082934 0.33497375 -0.52963597 0.20755093 -0.09349548 -0.010249596 -0.18025339 -0.055716388 -0.083456 -0.38197863 0.17968714 0.52142197 -0.116291665 0.32448438 0.118661925 -0.23488829 -0.2287092 0.09646198 0.11872425 0.1689305 0.194068 0.08522398 -0.030863723 0.29535443 0.25918174 -0.5108008 -0.05275734 -0.51223826 0.07883088 0.1289246 0.29585567 0.45320073 -0.09236491 0.026961207 0.46767414 0.027468346 0.0028941957 0.047967177 -0.0068950444 -0.19558106 -0.032936614 0.09061502 -0.14764051 -0.053413756 -0.06476314 -0.06695561 0.44903395 0.017897815 0.21154349 0.36663523 0.32379338 0.40453464 -0.3651906 0.15983106 -0.4567904 -0.12583733 -0.029948728 0.25544786 0.07308288 0.200594 -0.19586842 -0.04330916 -0.035363574 -0.3954172 -0.113075376 -0.3440297 0.1441814 -0.3490028 0.10584118 -0.047931638 -0.033354383 -0.02246773 0.24808346 0.023599273 0.36444873 0.35076728 0.13395596 -0.0055191065 0.07301831 -0.4092645 0.5781639 0.013574872 0.06441336 -0.38828856 0.07996261 0.3424719 0.25437915 0.38860252 -0.20566972 0.014674026 -0.07936075 -0.050049413 0.22537577 -0.16419668 0.21471508 -0.13312383 0.13109711 0.4310427 -0.010605153 0.030814549 0.075179376 0.14245157
31 -0.05652543 -0.21642189 0.11805458 -0.013310769 0.015415934 0.2548198 -0.112878546 0.012227345 0.18305607 0.033705648 0.100177586 -0.12054009 -0.16720103 -0.13438547 0.17630453 -0.21192047 0.00015969924 -0.058039334 -0.19789557 0.24031855 -0.0042408644 0.34250823 -0.32307506 -0.25952736 0.082027026 0.19172797 -0.13300352 0.110403374 0.5777574 0.02091509 -0.23156463 -0.07931761 -0.013958534 0.055262018 -0.09213237 -0.019196097 0.04671516 0.12981345 0.21290605 0.18864864 -0.20409027 -0.44313604 0.23333059 0.050036103 0.39024475 0.03148745 0.53259015 -0.0529135 0.15273082 0.05263728 0.078055635 -0.348314 -0.08484868 -0.14218658 -0.30311042 0.19356212 0.1587879 0.5331458 -0.19423836 -0.27936548 -0.2928196 -0.30014467 -0.4450208 0.28808206 -0.28281504 -0.010834667 0.008015961 0.2933576 -0.011524091 -0.27699503 0.11240676 0.03900792 0.32464167 0.18400785 0.08019727 0.18498483 -0.102147676 -0.08818918 -0.7692231 0.2987774 -0.08744139 0.36031917 -0.079325 0.5626578 0.19818144 0.024377119 0.07006737 -0.17041111 0.33388257 -0.0029022477 -0.15704308 -0.15311183 -0.16745321 -0.7842983 -0.26117486 0.2249482 -0.025441138 -0.085092135 -0.27562964 0.05366327 0.651581 0.14607528 0.052567855 0.32909155 0.16244228 0.5283696 -0.064642414 -0.3873596 0.034007296 -0.3518113 0.016571747 -0.2312397 0.41773733 -0.06613457 0.009373454 0.019849347 -0.011996347 0.16099988 0.14861241 -0.2084606 -0.18542671 -0.015046281 -0.33934376 0.17296568 -0.08098517 0.07293894 -0.06294275 0.060533468
1653 0.1363815 -0.120471 -0.37064576 0.18549104 0.31433797 0.31639624 0.37562284 0.28864017 0.26086476 0.1508873 -0.21843234 -0.3602248 -0.067236334 -0.21623263 -0.07340113 -0.189188 0.37252712 0.30010813 0.14265321 0.35468706 -0.4358066 0.13752145 -0.1484656 -0.03917714 0.14513817 -0.11858065 0.057668444 0.25185916 -0.4542366 0.29421 -0.18214484 0.11805636 -0.1694047 0.053518154 -0.23959988 -0.5839409 -0.009004534 0.6929407 -0.24020016 -0.01659752 0.1601582 -0.18248661 0.012507265 0.21307914 -0.03990068 0.13523108 0.13890189 0.05791445 -0.028217575 0.15879756 0.26814124 -0.19890663 0.042316686 0.068802975 0.13575867 0.25699848 0.22233383 0.4491861 -0.08436034 0.038850013 0.217563 -0.060788196 -0.18389857 -0.047841787 0.17940588 -0.27921724 -0.09834053 0.13631436 -0.08759906 0.06554016 0.1421429 -0.003689225 0.2742106 0.11071802 0.25133735 0.42156997 0.31115994 0.18332164 -0.06484918 0.20851767 -0.20798454 -0.031708818 0.2874098 0.21218245 0.01956857 0.111282006 -0.011998782 0.027673384 0.008770055 -0.27420655 0.063709445 -0.004571098 0.28893545 -0.26701814 0.055314112 -0.5270773 -0.48226452 -0.029330827 0.5414753 0.027860671 0.3838485 0.024811605 -0.0337588 0.11677157 0.22226715 -0.09531128 0.2588386 -0.31146455 -0.10551145 -0.13190062 -0.13906793 0.15057784 0.07691299 0.42754474 -0.3051246 -0.21280316 0.25876087 0.059739623 0.38731495 -0.24261986 0.44257447 -0.034161434 0.050576553 0.44373596 0.2680402 -0.093120135 -0.036773838 0.22049741
1637 -0.04212659 0.01663861 -0.3170482 -0.07087189 -0.13253641 0.015308701 0.19641289 0.41182792 0.3321349 -0.13088356 -0.30980134 -0.22602823 -0.36347932 -0.065527074 -0.19432981 -0.07071376 0.3699125 0.213553 0.272163 0.3245328 0.020873632 0.08923243 -0.33393523 -0.3680541 0.12860906 -0.35007644 -0.09740026 0.4647237 -0.45753253 0.00999769 -0.16672438 0.22540002 0.17884564 -0.25351068 -0.4925915 -0.5504816 -0.35536462 -0.0050384835 -0.008187551 0.23476908 -0.064486764 0.07451929 -0.19749872 0.12746787 0.06050814 0.17918564 0.2361799 -0.09625301 -0.032963235 0.06091648 0.17691581 -0.06887125 -0.08535606 -0.18683946 0.105886534 0.02322473 0.23968863 0.838119 -0.26255745 -0.32859233 0.2562621 0.07772464 0.019003246 -0.09569097 0.3700422 -0.32891738 0.020941736 0.43746832 -0.026517842 -0.09604422 -0.07011961 -0.011892192 0.33911538 -0.22835445 0.010004303 0.31078482 0.45758182 -0.21200657 -0.04459465 -0.2733273 -0.17611778 0.03264443 0.07547294 0.34296188 -0.011257832 -0.41715804 0.15460013 0.2936385 0.4453357 -0.14983012 0.10337656 -0.454084 0.35264266 -0.31097347 0.04814332 -0.38894972 -0.17608689 0.0043649897 0.52035165 0.164058 0.029461812 -0.27060673 -0.3650744 -0.22584997 0.23054597 -0.3210734 -0.063551635 0.27870357 0.24946791 -0.0902303 -0.24526918 0.097952716 0.00040536944 0.12753755 -0.14621083 -0.27099493 -0.036628682 -0.19162717 0.29526404 -0.2248741 0.00065761653 -0.3498687 0.0805202 0.37786862 0.25925243 0.082240954 0.121279664 -0.18846907
399 0.039445233 0.45430312 -0.19426744 0.41713518 -0.40564427 0.2632104 -0.2409229 0.06539982 -0.085699186 -0.42531067 -0.36562136 0.36123192 0.008134567 0.027702227 0.16188031 0.40286678 -0.11347116 0.30699617 0.378408 0.23183852 -0.15251997 -0.18547389 -0.25345212 -0.20330055 0.11646094 0.52207345 -0.18695937 0.41334626 -0.13485639 0.23393251 -0.1488041 0.069913365 -0.042478204 0.33973375 -0.29660237 -0.09042092 0.1841396 0.08803965 0.122047774 -0.015812756 0.25859752 0.044963848 -0.03021934 0.21846056 0.22396997 0.20752144 -0.24951865 -0.1815496 -0.043632504 0.124374814 0.47536626 -0.101233646 0.17061743 -0.30622151 0.026926722 0.48569334 0.29358378 0.28214657 -0.11588997 -0.08662619 -0.15886645 -0.22624503 -0.20856601 0.55147326 -0.027350802 -0.11097611 0.30854347 0.5941598 -0.16844338 -0.5846782 -0.18344963 -0.1661902 0.5680198 0.22041404 0.17291132 0.35295027 0.003398854 0.39872113 -0.27054983 0.04840688 -0.2624709 0.20789641 0.28223658 0.16923429 -0.1663623 -0.15563622 -0.23477936 0.24589005 -0.07089937 -0.13647479 -0.07964585 0.02483195 0.20710367 0.33419684 0.1403586 0.03580533 0.06450348 -0.06056283 0.15106235 0.32889757 0.5128457 -0.008328651 0.0009859198 -0.12999102 0.11542641 0.0128253335 0.05386097 0.039093085 0.16041355 0.25761414 -0.19811104 0.36022484 -0.08441048 -0.43929902 -0.0148988515 -0.21348202 -0.17396268 0.08402988 -0.052937366 -0.009205702 -0.19276233 0.16306862 -0.31178406 0.35862893 0.04408844 -0.14757505 0.19787581 0.11338977
1465 0.019794412 -0.17354763 0.0786904 -0.0050218785 -0.24484856 0.30481663 0.3041714 -0.31234118 0.1490942 0.20746528 -0.09393839 0.1589208 -0.14950243 0.28382444 0.25928998 -0.2316703 -0.099024236 0.15093595 -0.326849 0.34184265 -0.36188754 0.2920539 -0.06591419 0.06552758 0.23736556 -0.10221795 -0.47832847 0.04668143 0.046216484 -0.1957293 -0.296499 -0.34521002 -0.034354776 0.4144548 -0.20796108 -0.18860702 0.0014380398 0.007868618 0.50430304 0.48356012 0.3438292 -0.36560056 0.21841988 -0.15818083 0.09173149 -0.19833635 0.006758282 -0.0560989 -0.009614748 -0.09179555 -0.07002092 -0.19571343 -0.20601001 -0.31268722 -0.2791209 -0.025679383 0.52633893 0.39099643 -0.2622728 0.10455959 -0.100324765 -0.45228356 -0.24036013 0.320788 -0.37984225 -0.18593271 -0.17029198 -0.07369784 -0.14851739 -0.13465703 -0.16246441 -0.053893816 0.23206455 0.213353 -0.017402764 0.44766226 -0.02815819 -0.1936811 -0.43642223 -0.10313418 -0.1333295 0.011032531 0.23471841 0.30113867 -0.34749 -0.064270206 -0.30317882 -0.2856702 0.44525367 0.13284391 0.04261853 -0.108773924 -0.4190155 -0.102244645 0.20934007 -0.085267015 -0.39991993 0.33417368 -0.25458944 0.28761995 0.08425821 -0.2205283 -0.03506101 0.057298843 0.3553306 0.19736582 -0.07702194 -0.013923472 -0.19540434 0.123563275 -0.3064193 -0.11747331 0.21967381 0.14145732 0.21326697 0.07490091 -0.046705123 -0.2489667 0.33725265 -0.48302937 -0.099187024 -0.015953815 -0.14877841 0.6029642 0.17973742 -0.12682988 0.053720955 0.2515061
68 0.012159427 -0.1898296 0.09953769 0.047724407 -0.3016714 0.38597813 -0.2242429 -0.26062974 0.07639496 0.24078108 -0.17042287 0.14185752 0.12789063 -0.0792962 0.19810808 -0.31515023 -0.17688325 0.12709908 -0.13604976 -0.09149617 0.15385601 0.020356141 -0.30920526 0.30912694 0.0072091892 -0.2921964 -0.56275177 -0.052297544 0.031216564 -0.19105855 -0.069504224 -0.10537965 0.15909453 0.42792314 -0.25250378 0.059755173 0.087307654 0.36805627 0.33690673 0.30305457 0.20010024 -0.34488982 -0.08732158 0.45676282 0.41375124 -0.026009683 0.40623513 0.37122196 -0.13381302 -0.22779568 0.08677828 -0.01104826 -0.47785744 0.035968117 0.035608843 -0.105472766 0.63302565 0.23298219 -0.4573797 -0.21602856 0.2987409 -0.30362716 -0.49110922 0.40339342 -0.40020373 -0.022070825 -0.20684649 0.3738364 -0.011490818 -0.18352695 -0.17211038 0.00144676 0.33808416 -0.09646452 0.06588788 0.2656805 -0.09450417 0.20425408 -0.0734696 0.24166273 0.16768181 -0.3501992 0.447115 0.41255075 -0.059068568 -0.2473186 0.040886763 -0.5356078 0.29296312 -0.16561419 -0.23248993 0.14253382 0.15357722 0.0651308 -0.0056912582 0.21949452 -0.4681292 -0.01955687 -0.047627762 -0.0949897 0.0369447 -0.2842584 -0.49169832 0.042312164 -0.067470506 -0.32112613 0.16750054 -0.35687345 0.10216479 0.22398974 0.35520896 -0.18501967 0.37775144 -0.13795781 0.2251728 -0.14381415 -0.1587692 -0.22404742 0.13178375 0.08141023 0.12909828 -0.26336446 -0.4171401 0.11820161 -0.4608831 0.03514655 -0.20792669 0.017497348
2148 -0.46750018 0.70368004 -0.05094185 -0.013784153 -0.2709331 0.22062275 -0.24475457 0.06626881 -0.0521726 0.07901398 -0.2843315 0.2952096 0.34994444 -0.17167811 -0.22128436 0.018334014 -0.061180077 0.65206504 0.24251968 0.39313385 -0.0070123677 0.2451962 0.0833611 0.35692644 0.05352821 -0.2921473 0.03424541 0.33367842 -0.39797232 -0.20565762 -0.0012112422 0.29756248 0.313589 0.1318434 0.08092321 0.3406551 -0.013334068 0.3517246 -0.13116665 0.36298642 -0.0050057066 -0.13671063 0.08345433 0.31637564 -0.13040733 0.41447237 0.11482066 -0.2724636 0.05530674 -0.10126069 0.31604305 0.25008056 0.046924893 0.086950764 -0.012966378 0.5301744 0.48020467 0.26409265 -0.31894395 -0.08673169 0.1985766 -0.42170173 -0.008451873 0.06262041 -0.00075708306 -0.35341492 0.02878026 -0.10744598 -0.073545806 -0.106257506 -0.43464002 0.16818115 0.7223126 -0.15748209 0.20107748 -0.19977418 0.13551879 0.4481727 -0.24486117 -0.15266502 0.099529184 0.38312167 -0.037633892 0.22110006 -0.13372071 -0.6380736 0.18197416 -0.052758843 0.18833363 0.19887994 -0.21242745 -0.30529752 -0.055876963 -0.47755587 0.15363635 -0.00093008584 0.12713498 -0.017181614 0.44676995 0.1623561 -0.051882483 0.12028611 0.033088174 0.17656735 0.6254564 0.12249306 -0.20578392 0.038706444 0.06810475 0.20372452 -0.10998913 0.03789096 0.04523751 -0.074742876 -0.13189366 -0.119351365 -0.3479186 -0.29280487 0.112082094 0.014198796 0.011216868 -0.056433737 -0.035237443 0.17363891 0.42724147 0.39130983 -0.119127944 -0.26007903
1832 -0.005148005 -0.065057166 -0.042032544 -0.18369994 0.014053854 0.295698 0.08369786 -0.029073557 0.31011954 0.043126415 0.10181366 0.035639375 -0.2899585 -0.071461 0.13071297 -0.7405484 0.24919023 0.34007126 -0.077580914 0.87417823 0.052969817 -0.15022735 0.31262892 0.056770343 0.07841096 0.17814556 0.122340634 0.20566301 0.41671744 -0.14120543 -0.20155734 -0.09587123 0.17131571 0.4884007 0.15566769 -0.015561148 0.0880782 0.09939477 0.112894766 0.22692622 0.046382528 0.45393345 -0.1557226 -0.14332333 0.61462516 0.39454973 0.2110893 0.35245317 -0.18966345 0.32660666 0.43110156 0.032052223 -0.09527628 -0.11005472 0.17002662 0.5112507 0.5060256 0.20379199 0.26547614 -0.25757158 -0.15915847 0.19544445 -0.03485946 -0.14845632 -0.14840257 0.32028887 0.03551019 0.124435164 0.42510593 -0.4398473 0.027464734 0.32427123 0.59145314 0.25167283 -0.04122517 -0.022549694 0.5822493 0.26032788 0.031009337 -0.43986914 0.013679958 0.5790579 0.35550037 0.16432694 -0.053020414 -0.2505668 0.049356814 -0.12522036 -0.24647339 -0.22412775 -0.1961529 -0.047303293 0.40549335 0.39569467 0.10174543 -0.247542 -0.08857273 0.12371553 0.038428273 0.44619966 0.20638064 -0.09894168 -0.08863474 0.15543512 -0.0074533867 0.1374401 0.083028995 0.22799645 0.054628957 -0.0057813777 0.017445916 -0.06564462 0.059272427 -0.02557477 -0.13323492 -0.346848 -0.30677146 -0.13671383 0.07580703 -0.045008913 -0.17800482 0.13018149 -0.12622443 0.36587894 0.23185974 -0.19677818 0.001694423 0.12247389
493 -0.059822127 -0.16473652 -0.2237849 0.19095032 -0.21134283 0.20407385 -0.21868098 0.00035419562 0.10559785 0.027247105 -0.19779934 -0.14092797 0.23928064 -0.33560145 0.19202907 0.15538502 0.22609061 0.1354815 0.40390968 0.05831159 0.09912739 -0.038486686 0.10601307 0.013706071 0.3528973 -0.16697195 0.23597182 0.21033937 -0.046327252 -0.41965494 0.0056287423 0.3488782 -0.0584187 0.111926675 0.2062783 0.37305722 0.026442416 0.47193253 0.054857 0.22305009 -0.0011867385 -0.13310696 0.14772795 -0.08408851 0.37779492 0.26558867 0.15809308 -0.14524385 0.23659399 -0.14715882 0.41583157 0.50295216 -0.08100175 0.0032073138 0.05534881 -0.15784533 0.40873447 0.04446247 0.07498479 -0.32564855 -0.02982122 0.38426486 0.05324001 -0.24620053 -0.044037737 0.043554273 0.45452836 0.10145988 -0.348619 -0.19517267 -0.06482298 0.040080037 0.2173783 0.33946538 0.040217914 0.17463964 -0.50405544 0.10622558 0.25770456 0.26904315 0.17521486 0.10556469 0.17326403 0.35966927 -0.084692016 -0.20779176 0.1761659 -0.23155421 0.47767225 -0.60974526 0.116246484 -0.4937968 0.45249823 -0.6636627 -0.032473613 0.105175525 -0.43157098 0.11633689 0.23529385 0.61420715 0.3846634 -0.029234366 -0.065657 0.4408905 0.095102 -0.1370461 0.14243488 0.4586065 0.3418281 -0.12329985 -0.14218122 -0.24008052 0.70580596 0.3715313 -0.14046752 0.18601654 -0.15821403 0.18312041 0.13097098 0.23262936 -0.55996436 -0.37077987 -0.4000713 0.14002557 -0.25919244 0.16011606 0.42337272 0.406315
1648 0.07817936 -0.089695185 -0.2579724 0.028794734 0.20763385 -0.014945784 -0.105768904 0.49217993 0.16827272 0.040618178 -0.4151445 -0.06105335 -0.09032199 -0.19219315 -0.08120458 -0.21000579 0.27560937 0.29140165 0.18979831 0.42850205 0.0693537 0.0893146 -0.29772985 -0.39819863 0.13805446 0.026929695 -0.08755026 0.5407417 -0.4305719 0.13372484 -0.3313076 0.25002226 -0.05243194 -0.06464226 -0.4933008 -0.5822234 -0.19820501 0.22424102 -0.09108016 0.27939013 0.39061284 0.08791245 0.002797826 0.26497617 0.051699225 0.06430192 0.11122978 0.26318818 -0.07733367 0.14982711 -0.03644484 -0.24690337 0.04976649 0.20900632 0.23777594 0.438391 0.48057193 0.17027384 -0.334901 -0.024896631 0.20420957 0.034340885 -0.14946586 0.031788494 0.09165483 -0.3351631 0.048833206 -0.09206833 -0.040426616 0.18758184 -0.18196014 -0.24301109 0.60291725 0.19558583 0.11798505 0.3200804 0.45137835 0.19012487 0.09898174 -0.11518783 -0.25385216 -0.07396482 0.032086372 0.17510052 0.261853 -0.15866877 0.1625535 0.026048206 -0.2818638 -0.5292626 0.2955363 -0.17725602 -0.0055476013 -0.057139326 0.4207113 -0.32354066 0.058959916 0.02017314 0.42502126 -0.10581517 0.21082024 -0.19115153 0.12617849 0.19185276 0.37825674 0.11419904 -0.049359888 -0.13974337 0.19454496 -0.1844059 0.33903188 0.15380946 -0.1468167 -0.21832114 -0.20325801 -0.17812687 0.039124418 -0.20573398 0.25577155 -0.27543944 0.14703554 -0.22986606 -0.17960984 0.35174063 0.3908974 0.04745691 0.19324587 0.16074525
226 0.22129865 -0.2874203 0.1383705 0.17749566 -0.47192147 0.0120872175 0.025576271 -0.16015181 0.13426621 0.26004744 -0.214205 -0.006761439 -0.014674911 0.039317615 0.35205457 -0.031193301 -0.060837314 0.16936187 -0.29400164 0.2017833 -0.37459153 0.018246597 -0.07759235 -0.18578777 0.17283423 -0.2475089 -0.4893662 0.12775879 0.15846698 -0.14710069 -0.266945 -0.11830282 0.12019235 0.07790173 -0.1025175 0.10790986 0.13521111 0.21201386 0.40206027 0.35924786 0.44922563 -0.5585515 0.22217791 -0.06670913 0.06981668 0.0157182 -0.20982164 -0.025151854 -0.014310196 0.18135934 -0.121946484 -0.107558504 -0.20179552 -0.21195415 -0.33606344 0.34314132 0.7380155 0.12564144 -0.24846415 0.11365563 -0.18911104 -0.79690486 -0.30980143 0.3256382 0.053829316 -0.2495298 -0.1510308 -0.04068302 -0.13319747 -0.04658446 -0.17244951 -0.18851043 0.36288208 0.19841492 0.131514 0.09357919 0.15467633 -0.47156823 -0.50564134 0.121988356 0.12524368 -0.37970826 0.24542223 0.17369196 -0.049943224 -0.07354226 -0.2806609 -0.58424145 0.47756374 0.03373253 -0.03368938 -0.16641128 -0.23597915 -0.35944614 -0.056229178 -0.044076458 -0.18095976 0.37094066 -0.016582852 -0.07066958 -0.05521078 0.18518393 0.2867579 0.004433723 0.33734867 0.19603564 -0.065165214 0.13820456 0.22764266 -0.018937573 0.11068764 0.07975694 0.03865431 0.1760411 0.16509262 -0.30116355 0.016384343 -0.3356328 0.23229808 -0.23918046 -0.2715318 -0.26495475 -0.11872047 0.20945103 -0.0036531454 -0.13684104 0.03509408 0.15628767
1645 -0.2000646 -0.1795208 -0.009399285 -0.17759857 0.25366086 -0.11052454 0.2471685 -0.0033692468 0.28712353 0.23800148 -0.46340925 -0.20747118 -0.4527009 0.39844584 -0.052586507 -0.25749812 0.08350224 0.08990348 0.099162206 0.48086566 0.16234371 -0.014105047 -0.21756668 -0.19350249 0.1799538 -0.43963617 -0.076268345 0.13433726 -0.50054497 -0.054121323 -0.28238052 -0.21837272 0.58819467 -0.27124676 -0.14796717 -0.44074583 -0.12205904 0.09294369 0.5821496 0.27757567 0.3587702 0.059551235 0.29076895 0.14625807 0.17066164 0.21512166 0.21669365 0.33322644 -0.2222884 -0.131587 0.14288528 -0.39973214 -0.044906277 -0.43065798 -0.057026178 0.2523213 0.18831836 0.50199264 -0.11981383 0.0128108505 0.5275236 -0.60488254 -0.20789063 -0.2106136 0.5073289 -0.067883834 -0.022620492 0.017271005 -0.4545917 0.20852363 -0.046798274 0.07058981 0.37032524 0.0859748 0.032227106 0.23571242 0.19491981 0.3440755 0.14831696 0.2902264 -0.15553017 0.0058411476 -0.007734891 0.3107359 0.055646926 -0.03604059 0.53580123 -0.17686571 -0.35755324 0.067297064 -0.10673356 -0.14604238 0.55822355 -0.33523276 0.23466197 0.071068786 -0.0050336216 -0.33946955 0.14276123 -0.11156334 0.2827259 -0.023869725 -0.10814184 0.13623604 0.15881725 -0.094129056 0.05033595 -0.38700125 0.19489935 -0.43094707 -0.25366202 0.16938765 -0.05059789 -0.15711032 -0.18303725 0.0020167727 0.30575454 -0.02277776 0.33847788 -0.3362592 0.21150576 -0.30609494 -0.26430014 0.419238 0.47703043 -0.10218538 0.038845565 0.20999068
1330 -0.36006284 -0.044006605 0.2492972 -0.2624975 -0.22046746 0.012619158 0.07283999 -0.38590294 -0.18279344 0.067653306 0.20380402 0.18144956 -0.3210603 0.26449856 0.14573611 -0.31781375 0.19016661 0.107851446 0.32150325 0.35358882 -0.528398 -0.3635709 0.09399498 0.11793119 0.2673295 0.15483148 0.082752414 0.4578271 -0.58561003 -0.0774323 -0.13101006 0.057966102 -0.21694267 0.42843437 -0.09310045 -0.22304422 -0.10053288 0.055209845 -0.034129117 -0.041448027 0.21536763 -0.0752384 0.4893891 -0.1010274 0.050196774 0.43234482 0.206999 -0.2362722 -0.42921582 -0.12373068 0.10003312 0.41118625 0.24680454 0.07862212 0.090916775 0.54485416 0.13109715 0.5872824 -0.36796787 -0.1909031 -0.016350357 -0.2874788 0.39340577 0.015364706 -0.04319274 0.37969744 0.148032 -0.071794964 -0.05019401 -0.07034375 0.2671281 0.008236322 0.47588292 -0.04154963 -0.593317 0.091624364 0.04014254 -0.11301658 0.18159059 0.5112388 0.35977414 -0.007767056 0.15740675 0.21957575 -0.01566921 -0.46634114 -0.18841754 0.042087514 0.30722556 0.23764808 -0.12370999 -0.19760376 -0.11709426 0.07156135 -0.22852993 0.37621406 -0.36864185 0.22673228 0.07890577 0.040454943 -0.29569402 -0.28564453 -0.065434314 0.2539568 0.07390242 0.49528128 0.2826112 -0.21129069 0.367737 0.06534734 -0.09478595 -0.31224987 0.021895355 0.017894788 -0.43022627 -0.50995743 -0.36287573 0.016548187 0.50224364 0.05519848 -0.21676034 -0.018081568 -0.043658584 0.22614735 0.13942194 -0.09586231 0.2171734 0.20877741
568 -0.04570007 0.074246265 -0.18829237 0.12821028 -0.512459 0.55392236 -0.021655029 -0.27686754 0.10901114 0.3861828 0.16879226 0.004441374 -0.24377905 -0.054574225 0.10655777 -0.07381155 0.017370533 0.2848871 0.16349329 0.28220627 -0.23747422 0.4770338 -0.1296441 -0.116509594 0.26628312 -0.36363867 0.13094845 0.41008615 -0.22461142 0.3430938 -0.053222593 0.11085256 -0.014937244 0.1260892 0.20816971 -0.11349751 0.31410322 0.37891966 0.048394125 0.467935 0.41081363 -0.2856925 0.45244625 0.44024506 -0.24479094 0.070128314 0.2954822 -0.0652448 0.30091155 -0.846745 -0.011281162 0.62985563 0.23021576 -0.15156119 -0.13900997 0.06851279 0.8645068 0.46892825 0.2562902 -0.09189573 -0.42242038 -0.35960183 0.13460892 -0.21993415 -0.5189278 -0.31057337 -0.42247736 0.29224068 -0.37004247 -0.095121145 -0.004535009 -0.022691196 0.22689003 0.26663432 0.04462372 0.2898136 -0.27184954 0.025345098 -0.09705249 0.3502275 -0.028987477 0.089658976 -0.09796319 0.32711563 -0.15066995 -0.15000078 -0.12074328 -0.39702162 0.037154943 0.06374113 0.016710944 0.08456651 0.32344505 -0.24396534 0.25939882 -0.2812498 -0.5272843 -0.020271221 -0.09505339 0.15113534 -0.15242995 -0.048437778 0.11176991 0.22547749 0.0026676536 0.47535852 -0.17146957 -0.12499768 -0.00788975 -0.17031494 -0.10977479 0.08197915 0.3435621 0.17794502 0.10545746 0.41595545 -0.5296439 -0.16552009 0.5739691 0.111508854 -0.15932564 -0.43513218 -0.26829433 0.33593476 0.036589228 -0.11819539 -0.1548407 -0.13669981
2197 -0.29700842 0.68072116 -0.042981416 -0.26968214 -0.23850973 -0.018446127 -0.06071707 0.20549722 0.04625102 -0.34943566 -0.276636 -0.0052923886 0.013431992 -0.3674421 0.041625906 -0.037608143 0.2668703 0.6824615 0.12925783 0.41232297 0.018051384 0.20243579 -0.05300984 0.4322519 -0.2488312 0.3582475 -0.19422352 0.44940168 -0.1851548 -0.16955166 0.12766013 0.35617006 0.17743996 0.21435453 0.08614787 0.144364 0.21512195 0.4303356 0.038955405 0.1958668 0.41469365 0.04934395 -0.060750186 0.38456106 0.18257381 0.28896952 0.17151335 -0.15702258 0.15465464 0.044298615 0.19309859 0.05347803 0.38368043 0.16726248 0.0464514 0.38670108 0.53970104 0.091351755 0.099707946 -0.08666575 0.13244487 -0.10083892 0.18314277 -0.19120415 -0.14427774 -0.42699528 -0.097475186 -0.13731675 -0.00083507824 -0.16474625 -0.33459625 0.07527307 0.41819498 -0.11588842 0.2549009 0.15087423 -0.061876293 0.25292766 -0.17419176 -0.01547785 0.30291334 0.32770202 -0.004315359 0.19488855 0.05758377 -0.5282633 0.0063291695 0.021841675 0.31735468 0.25431713 -0.3496851 0.022624252 -0.069057494 -0.35854238 -0.13231541 0.623839 -0.106271386 0.23502113 0.30771047 0.028600955 0.05560604 -0.057682376 -0.055705257 0.14108974 0.5434393 0.19842093 0.25951827 -0.08283834 0.118136875 -0.018145261 -0.22908096 -0.23531225 0.0052898913 -0.1247624 0.08128753 -0.16294901 -0.12082299 -0.09230623 0.23888958 0.06784095 -0.27552333 -0.067214206 -0.10553977 0.5169217 0.48239428 0.3526503 -0.210966 -0.31518444
254 0.061131656 -0.4090892 0.3244836 0.33622274 -0.22968924 0.43667617 -0.079542875 -0.074599124 -0.00037250816 0.16622935 -0.27340516 0.11195404 -0.39654055 0.044442456 0.09518318 -0.47615844 0.21554404 0.18446703 0.22395998 0.54388005 -0.41238698 0.14818154 -0.28875512 -0.36492598 0.559039 0.16591246 -0.1531529 0.21635419 -0.1491773 -0.20573388 0.33615 0.0081004035 0.57327616 0.32028207 0.0295761 0.3108789 0.2600737 0.055768047 -0.178173 0.3264901 0.09772248 -0.19576053 -0.36853424 -0.48272794 0.28035536 0.07994207 -0.22662497 0.07710197 0.059702985 0.29643643 0.18385436 0.024911318 -0.11459929 0.03982265 0.29676133 0.4812825 0.120493315 0.19908062 -0.70142406 0.016569884 0.36184236 0.03832774 -0.1756694 -0.0850433 -0.06819761 -0.039760694 0.49766564 0.36962312 0.26524106 0.18845968 0.10265471 -0.083432026 0.4063819 0.044803724 0.23888184 0.31843442 -0.28147408 0.11130714 -0.3922365 -0.0747878 -0.167561 -0.3851064 -0.16136093 0.32398424 0.09299338 0.037685614 0.026631402 0.5586884 0.21178615 -0.041514076 0.24192385 0.34788832 -0.029840022 0.03314862 0.2626653 0.21565714 -0.25756222 0.09210914 -0.15215337 -0.008747092 -0.41998655 -0.4028433 -0.02604899 -0.057110436 -0.19918871 0.3766324 -0.16823137 0.2898071 0.07729221 0.20446648 0.15967633 -0.45110652 0.043531243 -0.06710301 0.003628034 0.01484245 -0.105850875 -0.11409709 0.14265142 0.08763395 -0.2426585 0.0073715183 -0.22006784 0.4693196 0.124505766 -0.0913571 0.07826284 -0.07927338
397 -0.12413903 0.04090464 -0.3916501 0.3336053 -0.39223087 0.48402405 0.13517843 0.09716978 0.20087099 -0.021099687 0.19765292 -0.05561444 -0.23357323 -0.027575826 -0.005422319 0.24995607 0.43783873 0.20285468 -0.1929965 0.33363965 -0.0689784 -0.08041591 0.18161084 -0.02240822 0.26358098 -0.0658565 0.19363806 0.37314084 -0.23149931 0.015494038 -0.45222563 0.007666003 -0.19086272 0.49851987 -0.10905799 0.049179204 0.34911996 -0.014471384 -0.06556587 0.43293986 0.1989862 -0.069203354 -0.23900586 0.12063781 0.48966756 0.17428188 0.23679926 0.13754705 0.16318981 0.11087364 0.16894071 0.00020791085 0.13577645 0.10528888 0.060430095 -0.23175524 0.38677582 0.031519733 -0.09603323 -0.44550136 -0.5069816 0.09163524 0.11908951 -0.15610234 0.46079504 -0.0056465017 -0.040486645 0.15975946 0.012851137 0.046572357 0.3071372 -0.1796214 0.033821926 0.2564053 -0.17921631 0.30244002 -0.0021088365 0.24386176 -0.25735378 -0.10992973 -0.34250456 -0.031110533 -0.104297854 0.078078076 -0.14282358 -0.15723786 -0.13345188 0.05995838 -0.24306227 0.18465035 -0.2787994 -0.13739184 -0.0621041 -0.012570527 0.34283254 -0.05830894 -0.20168358 -0.28165674 -0.13707882 -0.12454611 0.22477889 -0.10010548 -0.25162354 0.34620664 0.24471255 0.5918925 -0.23153466 -0.17856878 -0.15779862 0.1597582 -0.20520666 0.22014344 0.2560835 0.36663964 -0.32902732 0.012919011 -0.26908192 -0.3332949 0.4446047 0.14096221 -0.4305718 0.3624434 -0.23990503 0.6742059 -0.032957505 -0.19085492 -0.14555293 -0.15154517
1621 0.075048454 -0.24829246 -0.31173512 -0.15189464 0.11312497 0.23360558 0.113094226 0.031769335 0.1244478 0.28106254 -0.28321925 -0.1639459 -0.38253716 -0.026142335 -0.010003586 -0.24958636 0.44722098 0.118020564 0.43935904 0.43721887 -0.07412561 0.025187993 -0.39732707 -0.08763698 0.23370956 -0.6683224 0.08890518 0.5307041 -0.25411937 0.32506174 0.05684603 0.21969143 0.16074306 -0.13174555 0.0548745 -0.30881667 -0.109097496 0.22898732 -0.12442039 0.21558271 0.05645424 -0.17425227 0.05708578 0.27086827 -0.10171749 0.14898045 0.6311837 -0.1009884 -0.14190154 0.32093266 0.19155474 -0.4472435 0.046001483 -0.101071715 0.029643271 0.35584426 0.20383961 0.2753963 -0.2988838 0.18982078 0.4225395 -0.39743778 -0.05880519 -0.2417726 0.28706592 -0.37082034 0.022847362 -0.21170597 -0.2547615 -0.03307679 -0.19516495 -0.1366778 0.21835895 0.25253922 0.21958546 0.17211722 0.26567075 0.34270805 -0.009433151 0.024883734 -0.5481786 -0.17048189 0.20972279 0.23974003 -0.09183985 -0.20814872 0.09482895 0.18154481 -0.09956483 -0.05687559 -0.09406673 -0.1277113 0.2676873 -0.47238892 0.17447959 -0.17498806 -0.22087876 0.08871353 0.2752726 -0.20893145 0.34755093 0.11911195 0.16271466 -0.091385126 0.29520503 -0.19278766 -0.07594589 0.08400214 0.31853372 -0.20364459 -0.19265057 0.034770235 0.11322673 0.31926724 -0.18245816 0.00909442 -0.06930352 -0.33173782 0.26384246 -0.30906403 0.3917536 0.10115642 0.12941928 0.47830707 0.039851055 -0.0023400928 -0.17683716 -0.1944897
1430 -0.10223284 -0.21062285 0.24628331 0.26028964 -0.523223 0.107158646 0.24465242 -0.26897776 0.10247128 0.1442128 -0.08482457 0.20646307 -0.117310494 0.28676113 0.2882207 -0.07580314 -0.08468007 0.16209885 -0.115814686 0.38585037 -0.23262696 0.0812548 -0.029148575 0.116695374 0.27922887 -0.14726004 -0.39849797 0.21889044 -0.19505408 -0.3087185 -0.21126138 -0.2375676 0.12659751 0.09948797 -0.17427616 0.2162672 -0.1868272 -0.023778172 0.40566432 0.23002182 0.42824405 -0.40506917 0.1398947 -0.047258534 0.10317913 -0.006646169 0.055457987 0.067458294 0.13640031 -0.21399096 -0.2115242 -0.293728 -0.40106946 -0.1374423 -0.49671802 0.3599901 0.82935536 0.039115828 -0.36844864 0.12191777 -0.011786577 -0.6047045 -0.26164746 0.51838994 -0.13231173 -0.25474975 -0.29073846 -0.027207272 -0.19051166 -0.1284893 -0.24723314 -0.20065908 0.40779537 0.051647916 0.25507802 0.33530852 0.048979606 -0.33674285 -0.11128736 0.005883758 -0.2496984 0.06592669 0.14105524 0.008367098 -0.24916658 -0.064130045 -0.03874877 -0.80571324 0.42809945 0.0049857344 0.15310651 -0.22590403 -0.2946577 -0.1412676 0.008438375 -0.28366122 -0.37932312 0.62054074 -0.2818877 0.36191452 0.18307284 -0.25887182 0.10501107 0.09626581 0.511728 0.1903483 -0.069104545 -0.033811852 -0.03766449 0.0682885 -0.0858325 -0.15425253 0.19213203 -0.08628573 0.080729045 -0.11304818 0.053342804 -0.18731275 0.41449225 -0.22617455 -0.18910956 -0.17874978 -0.15975136 0.4676506 -0.4540148 -0.23099492 0.11798605 0.20528738
1638 -0.08647855 0.07830409 -0.411849 -0.02859922 -0.047804642 0.20633487 0.32550237 0.44802916 -0.15547113 0.034313645 -0.2287768 -0.08341275 -0.18966231 -0.3083356 -0.23709567 0.12615837 0.27879578 0.06982789 0.14512782 0.6529607 -0.18218596 -0.23836197 -0.26310605 -0.25006175 0.4123448 -0.07063033 -0.09371679 0.40216953 -0.7089013 -0.085615285 -0.4837926 0.2651271 0.106238455 -0.102065824 -0.00036319514 -0.33753294 -0.57073796 -0.009881231 -0.056428697 0.36270985 0.28998703 0.0154630225 0.20201454 0.32295874 -0.018913947 0.35308796 0.25169483 0.02674743 -0.2489337 0.13092855 0.12918061 -0.1887444 -0.038710073 -0.169008 -0.105037175 0.33391857 0.1612862 0.36983147 0.10255107 0.03935511 0.2621689 -0.16875422 -0.13906337 -0.09369057 0.22601867 -0.321549 -0.12976085 -0.16244367 -0.16750306 0.2859352 0.11043347 -0.201742 0.37673604 -0.04993159 0.28404415 0.3741388 0.20269267 0.2393718 0.12768888 0.31774062 -0.37722117 -0.005453958 0.13925055 0.2679764 0.018671805 -0.0042415466 0.04011122 0.09314388 0.008946238 -0.2948001 0.11293942 -0.19463505 -0.08073084 -0.2628936 0.40812147 -0.11449842 0.02237083 -0.20065275 0.32124186 0.13222188 0.20800845 -0.20981331 -0.03225491 0.15339178 0.3975473 -0.13536468 -0.2150742 0.062144738 0.24745531 -0.10065086 -0.073164985 -0.19384171 0.12933193 -0.3271784 -0.11021802 -0.1984845 -0.042338606 0.072538964 0.1613411 -0.28649327 0.088931695 -0.06947264 -0.049546916 0.23860605 0.5180035 0.22136192 -0.07074651 -0.064030744
962 0.03922969 0.38678893 -0.36284092 -0.39503592 -0.34017897 0.62143713 -0.36305487 -0.39909336 0.4980141 0.14181434 -0.113824956 -0.07922369 -0.69571644 -0.08706743 0.13426793 -0.3725758 0.042348675 0.012808965 -0.05674956 0.1437305 0.09942985 0.2628244 -0.1690821 -0.11475088 0.112338245 -0.22596662 -0.044545386 0.39791632 0.59159803 -0.12989986 0.059030265 -0.3127541 -0.010728237 0.19881259 0.044739474 0.14259605 -0.11665898 0.289533 -0.33555093 0.010258099 0.14327368 -0.24360141 -0.45764378 -0.17239639 -0.055214375 -0.039005328 0.068415575 -0.18446186 0.0089476155 0.36669332 0.06359512 -0.32791045 0.09009766 -0.02822441 0.30259383 0.12661466 0.13416597 0.4082275 -0.53810966 -0.096677125 0.3075404 -0.15963395 0.18793325 -0.12158459 0.22183385 -0.066492334 -0.15044431 0.00358822 -0.2615079 -0.03637803 -0.052341953 -0.03755291 0.29866216 0.0038450155 -0.2517074 0.051983528 -0.04732791 -0.22763354 0.0062036975 0.022601895 -0.16154397 -0.33492932 -0.14923151 0.1929555 -0.24176711 -0.12223509 0.21498555 -0.46469393 -0.04939563 -0.051438324 -0.017410701 -0.05125314 0.08413892 -0.24069723 -0.03183554 -0.074621804 -0.07012097 0.17479123 0.20208678 0.616397 0.38746297 -0.2120008 -0.64056456 0.21211487 0.10685368 0.22197346 0.30003405 0.18482102 0.17480281 0.34636453 -0.4643062 0.36313376 0.018212698 -0.23482327 -0.13949518 0.07230336 0.4510719 -0.30124635 0.16516712 -0.06518378 -0.0722287 0.21383321 -0.025623195 0.5323313 0.03694274 0.32497028 0.32998392 0.065726236
277 0.21127707 0.14423321 -0.20685506 0.10706484 -0.24472187 0.15974307 -0.08724785 -0.23395273 0.31450987 0.12592003 -0.0871161 -0.054410726 0.036983997 -0.25626075 0.035959512 0.15336019 0.26165265 0.15190373 0.106079966 0.5197358 -0.12282623 0.086334474 -0.12326923 -0.45564044 0.28539264 0.20944712 -0.20615329 -0.09470339 -0.4559163 0.19899711 0.018194135 0.037771896 0.07744148 0.02930264 -0.26945943 -0.096323654 0.17187984 0.3515338 -0.18311603 0.21956165 0.28639024 -0.21710461 0.061192468 -0.09872419 0.18091166 -0.00752253 -0.05782376 0.07471329 0.24859107 0.3064409 0.25505006 -0.0026056815 0.17881088 0.1739117 0.25877362 0.29392183 0.36925596 0.110780604 0.053375762 -0.41017514 -0.3432573 0.07594318 -0.17551927 -0.23838724 0.078386664 -0.05315291 0.36474118 0.6343994 -0.40102732 -0.17465669 -0.07985882 0.022354262 0.10018698 0.14041263 -0.09820909 0.08741812 0.1320392 0.054551475 -0.14370328 0.15553536 0.17113881 0.08655943 0.11071212 -0.0073636607 0.023571352 -0.2521248 0.0041383817 0.25486043 0.25296605 -0.4034047 -0.1915832 -0.57751673 0.03083551 0.29973853 0.04649966 -0.07875731 -0.15060611 0.038943004 0.08999548 0.4795979 0.35798308 0.08989131 -0.13912547 0.23702785 -0.0038812798 0.82323563 -0.10069017 0.26039684 0.120978415 -0.094985224 -0.1716839 0.12057207 0.10855514 0.1364029 0.072920635 -0.15813725 -0.20117868 -0.097160004 0.027269514 0.39542434 -0.08202378 0.1348806 -0.3409362 0.2446646 -0.2334506 0.58819324 -0.09768138 -0.31291515
146 0.38116553 0.06705943 -0.084551506 0.11922793 -0.18173395 0.3694375 -0.114120655 -0.067852125 0.0043433635 -0.020944294 0.30980217 -0.25506657 -0.34337845 -0.3392202 -0.1032988 -0.2926565 0.34955978 0.16130984 -0.030822147 -0.062247608 0.12871982 0.4183404 0.014781431 0.003830683 0.24809283 0.18927182 0.27589482 0.22834174 0.15261331 0.11844301 -0.043879163 0.035580605 -0.033889215 0.11953116 -0.121999 0.21406154 0.35853034 0.33575815 0.5502533 0.2460421 -0.16291946 -0.48466116 0.21438631 -0.26314354 0.46953014 0.23558246 0.19368272 0.099843815 0.28318468 -0.0020506482 0.32073894 0.27047125 0.35326013 -0.28237596 -0.25255644 0.109195806 0.40575603 0.28698283 0.017562268 -0.2564031 0.40691757 0.0144251585 -0.011982227 0.13555138 -0.2357297 0.018961988 -0.18866391 0.14846665 -0.4076129 -0.46524203 0.26337248 -0.18258229 0.2778418 0.03544679 0.33275083 -0.077566266 -0.29108348 0.07535067 -0.39083526 0.08443092 -0.40471208 0.24939822 0.2565167 -0.17400697 -0.17169695 -0.1978334 0.21841358 -0.2574445 -0.045255248 0.1541519 -0.13897301 0.19759135 -0.042922735 -0.059078082 -0.031442724 0.0521851 0.13077939 -0.13661423 -0.20704913 0.11869286 0.46114597 -0.039302178 -0.17099422 -0.093287565 0.31103656 0.1784262 -0.0034456295 -0.5526301 0.38010237 -0.04989699 -0.073788986 0.22659805 0.36349097 -0.45424402 0.017883357 -0.45259184 -0.111266986 -0.16641782 0.15713863 -0.04730518 -0.16822062 -0.1493397 -0.003098984 0.42818832 -0.18241936 0.33995622 0.16853456 -0.40145352
464 -0.116721384 -0.14262468 -0.65207756 -0.07488437 0.19591989 -0.022522334 0.021629699 -0.14814267 0.0458728 -0.23326205 -0.17565659 -0.1855964 -0.31187427 -0.049191292 0.1957461 -0.14283438 0.23889427 0.21611826 0.15016091 0.112796076 -0.039579853 -0.054628804 0.15282352 -0.17487171 0.10201918 0.00026279417 -0.003172638 0.18700473 -0.07898163 0.03789168 -0.20277075 -0.14099094 0.37290695 0.21096243 -0.39764208 0.27613077 -0.08972689 -0.1452743 -0.18233863 0.47190344 0.318304 -0.13894819 -0.1558409 -0.13217433 0.16655837 -0.19051464 0.44586858 0.14294748 0.09131527 0.27913865 0.46930787 0.18609579 -0.026784198 0.2327023 -0.19283059 0.28217486 0.09615584 -0.1391331 0.25412592 -0.5480736 -0.07893522 0.13960277 0.13239436 0.21972367 0.22340919 -0.40103447 -0.21258277 0.121818535 0.24374014 -0.41039807 0.24268828 0.18263674 0.4196084 0.02975425 -0.08960124 -0.028086487 0.07879959 0.033414938 -0.07550427 -0.53280526 -0.07176696 -0.18514039 0.1789087 0.5281063 0.06600264 -0.30626792 -0.029900135 0.22395776 -0.12523998 0.2458831 -0.14716156 0.44020838 -0.020737836 0.09884134 0.44263613 0.15765263 -0.1067353 0.062670425 0.24143596 0.2184779 0.23530224 -0.38518745 -0.13645817 0.0963063 0.09166948 0.44517118 -0.30861086 -0.098476574 -0.08228909 0.30262712 0.009097959 0.33495826 0.2024837 -0.17699787 -0.35868043 0.051698197 -0.027469782 -0.16861787 0.7547859 0.4146551 -0.34309053 0.24508338 -0.29864007 0.8551386 0.02347907 0.19861051 0.35317028 -0.04347151
63 0.31921786 -0.03229943 -0.09285966 0.1922105 0.14107321 -0.09437532 0.007126333 0.06693856 0.18512604 0.048476756 0.19037265 0.037791662 -0.38736564 -0.12857704 -0.37892896 -0.1625516 0.039473742 0.20659707 0.36021352 0.18541674 0.06807979 0.16543011 -0.13337956 0.08201326 -0.1271392 0.061462417 -0.61110216 0.011309942 0.16575453 -0.32531026 -0.097078435 0.13278654 0.22464336 0.034759127 -0.53099126 0.020527126 -0.066222265 0.2747999 -0.1133736 0.25683627 0.20856647 -0.4203451 0.30127877 0.21009108 0.21373977 0.1617522 0.2372952 0.32565603 -0.10302192 -0.073830694 0.38315845 -0.3745527 -0.43615174 -0.31252763 -0.23769256 0.2924863 0.24737306 0.19594139 -0.5853371 -0.25007197 0.39817512 -0.11401702 0.05192536 0.35373977 0.21868579 0.30410898 -0.505215 0.17398159 -0.33717084 -0.17248175 0.38232133 -0.027714444 0.24060325 0.20279747 -0.15577465 -0.01940132 -0.15622999 -0.25743052 -0.49558407 0.12341743 -0.13841963 0.16253497 -0.65295 0.06527212 -0.23549108 -0.25106534 0.023209281 -0.18163726 0.23215167 -0.062266413 -0.13880922 0.33103704 -0.3611841 -0.35623035 -0.1643677 -0.16335602 -0.075019285 -0.43529302 0.24209021 -0.05002049 0.34557566 0.09104903 -0.22300066 0.14311178 -0.14119937 0.16211528 0.44549322 -0.08440936 0.097518876 -0.045497194 -0.21514028 -0.085336864 0.3671797 -0.043947186 -0.19998693 -0.37241465 -0.30166578 -0.32958472 -0.2404282 0.025174659 0.007767617 -0.15519181 -0.38294467 0.50289303 0.23657733 -0.1705961 -0.31907293 0.36882675
411 0.20085552 0.17127119 -0.024582125 -0.24504034 0.05359951 0.18064909 -0.14306793 -0.08611529 -0.103506364 -0.29144382 0.09311078 -0.15754077 0.0027255681 -0.16015099 0.22498077 -0.09151197 0.46260646 0.26981813 -0.061138622 0.20562506 -0.33714777 0.34649718 -0.47956505 -0.2079536 -0.5833351 -0.13439249 -0.16951814 0.36501348 0.018069003 0.09591306 -0.276145 0.23061791 0.13720115 0.33090895 -0.6895841 -0.2892896 0.05528982 0.39219055 0.12974826 -0.17021374 0.2525847 -0.020726418 -0.19878183 0.018364836 0.035832167 0.111562595 0.21466209 0.237684 0.15957822 0.11039972 0.52872896 -0.22121361 0.12161006 0.49916092 -0.18390885 0.51255906 0.39521608 0.22872117 -0.054137 -0.020090988 0.08827371 -0.29613242 0.0690645 -0.011139887 0.083752476 -0.05779562 0.07298834 0.04893676 -0.28233474 0.22166933 0.0995835 -0.025134772 0.7197966 0.065614946 0.3442813 0.3480929 0.02772263 0.34678096 0.19450305 -0.044314485 0.31700298 0.37501073 0.25258484 -0.32162866 0.6165602 -0.0852164 -0.0029076333 0.20350188 -0.26870564 -0.38410658 0.19393517 -0.0149365 0.16686189 -0.14423063 0.2395015 -0.07003216 -0.18247552 -0.22131777 0.43369445 0.08455447 0.59985745 -0.25602478 -0.19439632 0.062857956 0.20074765 0.52374715 -0.23807505 -0.120293856 0.261639 0.16725488 -0.4343092 -0.11246481 -0.073159866 0.28617597 0.26691133 -0.27883837 0.20590012 -0.24009907 0.050887074 0.17498864 -0.3315956 0.11422138 0.0071807117 0.17040233 -0.11951058 0.091035396 -0.20063365 0.4354552
1540 -0.22464818 0.41579887 -0.18374644 -0.072987534 -0.30269718 0.2452535 -0.13867807 0.45654434 0.20964514 -0.26514202 0.009862963 -0.034106787 -0.2541 -0.36136407 -0.09446478 0.44491976 0.3283936 0.35498327 0.05269883 0.41823357 -0.062120523 0.06422178 -0.15975562 0.26501194 -0.17496651 -0.05489096 0.15161464 0.13914151 -0.49027023 -0.4065673 -0.0807584 0.0076456 -0.2161059 0.18014866 0.2878681 0.14168291 -0.10504724 0.024729956 0.1671493 0.36887512 0.19018133 -0.19489357 0.14189488 0.02432827 -0.096807115 0.16787738 0.06954653 0.036710683 -0.06204316 -0.23263222 0.1151971 0.20525208 0.30731353 -0.07408636 -0.1823412 0.5184356 0.46304703 -0.048449937 -0.10302093 -0.0539711 0.022439808 -0.2732528 -0.33291388 0.112297215 -0.10561197 -0.45246497 0.15723507 0.14691325 -0.23101431 -0.023404783 0.117313616 0.22093329 0.08731133 -0.1416864 0.3099812 0.114240006 0.21074755 0.06152779 0.03872103 0.23164898 -0.0088857375 -0.2628396 0.51123905 -0.11780044 -0.040678676 0.070406966 -0.06518742 -0.06963869 0.24804951 0.03798801 -0.16873443 0.13876303 0.1245952 -0.011132121 -0.27491385 -0.013324246 0.14282294 0.26900223 0.39961493 -0.038639203 -0.11876164 -0.07791945 0.129627 0.45833844 -0.06690969 0.3588869 0.059846703 0.25527018 0.30282706 -0.26852134 -0.14285849 -0.08072744 0.2813112 -0.2904294 0.2486056 -0.2910813 -0.29597417 -0.042389262 0.22623982 -0.15167812 -0.29838443 0.039062604 -0.21700564 0.694688 0.4272254 -0.009888729 0.35059696 0.048824463
119 0.10134179 -0.053108547 -0.06960748 0.093198135 -0.019081444 0.55764943 -0.25965443 -0.13430654 0.074506946 -0.079617776 -0.3281556 -0.43840408 -0.19622277 -0.34866577 0.28639382 -0.2621766 0.33242705 -0.15442081 -0.15327893 -0.0064019216 -0.011200013 0.16468693 0.2918017 -0.1669411 0.21112184 0.22442776 0.15655124 0.31849304 -0.077159315 0.38394547 -0.29372182 0.25609112 0.021100393 0.02800114 -0.084591225 -0.20765972 0.123382606 -0.03604471 -0.112620115 0.21147923 -0.025829578 -0.3776715 -0.4796687 -0.33179456 0.050062582 0.016994163 0.41535065 -0.07017879 -0.26917654 0.22574726 0.42086688 0.021325123 -0.13707377 -0.42223886 -0.0110399015 0.06375551 0.8535017 0.15612973 0.11176513 0.11004235 0.3771187 0.35492972 -0.33787152 -0.19724052 0.36067888 -0.066047095 -0.58227956 -0.0671629 -0.0034112001 -0.13174687 0.17635322 0.0012066116 0.6427915 -0.037727296 0.124712385 -0.06523567 0.24416418 -0.034988113 -0.37679395 0.21495569 -0.06581645 -0.054283876 0.152462 -0.42534533 -0.10478849 -0.47340238 0.16585252 -0.18158597 0.48838374 -0.22111626 -0.19084571 0.28490004 -0.18247359 -0.29675013 0.1958868 -0.09868459 -0.23125982 -0.24687223 -0.19038142 0.097138956 0.19806245 -0.08379646 -0.25707322 -0.02983463 -0.22029969 -0.053418547 0.2848394 -0.097584195 0.025306417 0.13596995 -0.13626257 0.08682674 0.11841985 -0.14088906 -0.18598543 0.2765198 0.46469715 -0.47016254 -0.0037247492 0.2149627 -0.14982931 0.06910035 -0.6141656 0.34473792 -0.17729358 0.14767407 0.101012245 -0.13815433
