2708 128
35 -0.0013714376 0.003703543 0.0015005228 0.0022851129 -0.0020380253 -0.001271395 0.001289411 -0.003465148 -0.00319684 0.0023726593 -0.0007633129 0.0005443297 0.00039807722 0.0016171451 -0.0026107414 -0.0020622308 0.0035968993 -0.0022537864 -0.0007733948 9.959547e-05 -0.00023925297 0.0015128258 -0.0015557321 0.0012016287 -1.688114e-05 -0.0023368932 -0.0007646283 -0.0013073062 0.004039931 0.0020278185 -0.0028816268 -0.00030241237 0.00051901833 -0.003571035 -0.0039178566 0.003214611 -0.0003556722 -0.0013800381 -0.0001443743 -0.0036735206 -0.00088124693 0.0035209467 0.0024182186 0.000302587 -0.0016318602 0.002409456 0.00063317246 0.00089900964 -0.00034558686 -0.0032193356 -0.0038870366 0.0014668078 -0.0035798498 0.0006518009 -0.0015660499 0.00021009524 -0.00050088845 0.00021649884 0.0025716345 -0.0024680593 -0.0021958305 -0.0010882585 0.0025158848 0.003273787 -0.0028806552 0.0023087123 -0.0035534925 -0.003815312 -0.0022338913 0.00014102073 -0.00065681944 -0.0019402932 0.00047720043 0.0014169575 -0.0016091967 0.00027637783 0.0031269623 0.003652083 0.003836368 -0.0035271551 -0.0020486356 -0.0015590751 0.0035287417 -0.00099451 -0.0029286484 0.0021417032 0.00039248206 -0.003151323 -0.0016991086 0.0022202143 0.00084928743 -0.0025042524 0.003735276 -0.00018468588 0.0006421753 0.00035620292 0.0030912948 0.0034610431 0.00043213912 -0.0006689177 -0.002503093 0.0033485799 0.0009952278 0.0034621072 -0.0005402037 -0.001792165 -0.000972964 0.0023261649 -0.002472453 0.0031246035 -0.0033179082 0.0023482982 0.0008954468 0.0008077323 -0.000903202 0.0032516029 -0.0037304794 -0.003712728 -0.0038222466 -0.0003248616 -0.00027247876 0.00014187374 -0.0025323895 -0.00027666762 -0.00096178474 -0.0036242595 -0.0023492498 -0.0032526585
1365 -0.001675782 0.003023842 0.0023019584 -0.00053264166 -0.0029677933 0.00014760515 0.00048516743 0.002199256 2.1468664e-05 -0.0015131278 -0.0036308337 0.0038997955 -0.00144083 -0.0010880774 -0.0028907813 -0.0027015174 -0.00067800336 0.0015337013 -0.00039731 -0.0032352095 0.000187879 0.0019531967 -0.0015569789 0.00014674485 -0.00074782566 0.002463295 0.0018728005 -0.0021331406 0.0018833558 0.0017434633 0.003328859 0.0003880146 -0.0027756442 0.0003497324 -0.00042170603 0.00119479 0.0025898234 -0.0018590082 0.00044908738 0.0018397184 -0.000107919695 -0.0025975283 -0.0025454508 -0.0019406735 0.00045005057 -0.0029030289 -0.0036787246 0.0025168161 -0.0014638964 0.0024307964 -0.00044113598 -0.0034894892 -0.0007899483 -0.00030713744 0.0039865877 -0.00021141919 -0.0020821358 0.00300109 0.0039210813 -0.002057896 0.0024444344 0.0014640104 0.0009963306 -0.0028358577 0.003198434 0.0031069417 -0.002807777 -0.0019335166 0.0016879254 0.0018503462 0.0029117996 0.0020667182 0.0010166033 0.0015240372 0.0020659333 -0.0029172627 -0.0038653836 -0.0016491319 -0.0013445714 -0.0031999978 -0.0020880464 0.00060253975 0.00044883983 -0.0024314725 0.0033594372 -0.0030555723 -0.0014708105 -0.0020487318 -0.001287061 0.0017129001 0.0034557863 -0.0015540475 -0.002840554 0.0036850453 0.0032348896 -0.0012690116 -0.00078847754 -0.000974013 0.0023139052 0.00028389005 -0.000915051 -0.0036250183 -0.002278489 -0.00066418236 0.00039355218 -0.0034038236 0.0004222303 -0.00031414808 0.0038673836 -0.0019367744 0.0002786414 0.0020525781 -0.0036420315 -0.0008967812 -0.0023979228 -0.0016347326 0.0025151088 -0.0016308142 0.0013598467 -0.003550465 -0.0028263018 0.0009942473 0.0020719355 -0.0031313514 0.0013617197 -0.0037639402 0.003676008 -0.002737635
3229 0.002502511 0.004143366 -0.0013510962 0.0031395925 0.003473208 -0.002134417 -0.00024818702 -0.0027903505 -0.00033671808 -0.0036198676 0.0025555447 -0.00032559372 -0.0023768141 -0.00032451245 0.0019769196 -0.0018131565 0.001916752 -0.0008620095 0.001561414 9.941705e-05 -0.0005000649 -0.0030542575 9.99088e-06 0.0017637243 0.0033853333 0.00028046858 0.0025956722 0.0009759427 0.0029516744 0.0026301697 0.00026321627 0.0038413815 -0.0028216608 0.00272321 -0.0011484916 0.00062761083 0.00021142028 0.0015910908 0.0030150719 0.00079071545 0.00079769694 -0.00068418076 0.0010065953 0.0005966859 -0.00048898044 -0.00043933486 0.0009033703 -0.0030268335 0.0022811254 -0.0039005163 -0.00069322105 0.0021543845 0.00312424 -0.002653561 0.0036956626 -0.00018938069 0.0025139912 0.0011092807 -0.0017685425 -0.00037336606 -0.0030780737 0.0009825601 0.003822268 0.0024514848 0.0020125785 -0.00055378175 0.0034861863 0.0016626207 -0.002289322 -0.003253233 -0.000698643 -0.0023740325 -0.0020103676 0.002060016 0.00037898382 0.0016562255 -0.0011460343 0.0041717784 -0.0022427507 0.0026426124 0.0035189132 -0.0034788498 -0.0033695425 0.001981744 0.002199227 0.002031453 -0.0006775681 0.0008204224 -0.0023980704 0.0011739128 0.0006175752 -0.00057229545 -0.0026460916 0.0021548092 -0.002535645 0.003322254 0.00013566705 -0.00049291365 -0.0006141603 -0.0012298869 -0.0004608728 0.002937874 -0.0002350536 0.0036163128 -0.00028205864 -0.0023849274 0.0014692938 0.00040115113 0.00044974266 -0.0037541236 0.0012249608 0.0035522068 -0.003570033 -0.0025188236 0.0037166036 0.0011830798 0.0011611971 0.002787209 0.0020841565 0.00033080063 -0.0031099536 -0.0030295746 -0.0006877575 0.0016376785 7.2722314e-06 -9.576547e-05 0.0017990994 -0.0036528206
6213 -0.0027423955 0.0016773948 -0.0024275265 -0.002172821 0.003418158 -0.0017904288 0.0029672335 0.0015545263 0.001831195 -0.0004968657 -0.0010829011 0.00012256595 0.0029139102 -0.0008355489 0.0011620942 0.0028951897 -0.0016273343 -0.0038250198 -0.00083890336 -0.0021275438 -0.0012393066 0.002767811 -0.00184191 0.00010265785 0.0026436332 -0.00053333846 0.0015683081 0.0017792485 0.0037748169 -0.0032410978 -0.00176123 0.0017000703 0.0010661983 -0.00024645278 0.0034188111 -0.0036656493 -0.002498489 -0.002821767 0.0015298416 0.0024795695 0.002786737 -0.0031105427 -0.00045375014 -0.003295679 0.0012339543 0.0035686647 -0.0032709672 -0.0037486628 -0.0012266737 0.0020443022 0.00019768486 -0.00020030934 -0.0012216895 -0.002477939 -0.0006651547 -0.0010255502 0.0012282938 0.00071029953 -0.0030112157 -0.0035076092 -0.00074092415 0.0018345063 0.0010151541 0.0002675099 -0.0023296776 -0.0011230363 0.0037746576 0.00036881914 -0.0037807282 0.0023074283 -0.002937579 -0.0024756335 -0.0015332815 -0.0038663857 0.0015223197 0.0029389742 -0.0010244279 0.0012097638 -0.00014962352 0.002844434 0.003604465 -5.7433255e-05 -0.00059586845 0.0022411046 -0.0012797012 0.0020711187 -1.258655e-05 0.0022757747 0.0031440058 0.0012007002 -0.0005975508 0.0024842168 -0.0033756362 0.0015470405 0.0008181052 0.0021601485 0.0020555074 0.00027644646 -0.0021765525 -0.0029799172 -0.0012117948 0.0016416154 0.0021712987 -0.0011714951 0.0020107385 -0.0032932814 0.001065861 -0.0013622137 -0.0034629407 0.0020001421 -0.0028042353 -0.0031685508 0.003392997 0.002093158 -0.00047236122 0.0013139807 -0.0028147302 0.0025544548 0.0032166725 -0.0007757064 0.0026634075 0.0035179858 0.0032966456 0.0034684693 0.0019649644 -5.991495e-05 -0.0029929709 0.0037604528
910 0.001504041 -0.0002993656 0.0033232546 -0.0014980212 0.0031723601 0.0014590749 -0.0012627417 -0.0008373879 -0.0040159193 -0.0007007633 0.0040134406 0.0018280293 -0.0009497859 -0.0016047431 0.001375837 -0.0003601162 -0.0007866518 0.0025393653 0.0026049244 0.0032554308 -0.0010816607 -0.00021944534 -0.0008938633 0.002613958 -0.0018476587 -0.003899633 0.0009896071 0.00097068574 -0.0028145576 -0.0028403227 0.0039937133 0.0033614258 -0.0019839904 0.0038267775 -0.00037611628 0.0002697382 -0.0013245031 -0.0022655108 -0.0025470033 0.0024468668 -0.0032356044 0.00021578642 0.002359412 0.0014211248 -0.0014842822 -0.003826245 -0.003081093 -0.003710878 -0.0031865726 -0.0004801171 0.0038912634 -0.0002380732 0.0010042005 0.0034354965 -0.003238685 -0.0016580137 -0.0032995357 -0.0019304929 -0.0027521057 -0.00018570774 -0.0024238038 -0.002733828 0.00042741076 0.00026597743 -0.0032023345 -0.0024491285 -0.00014208526 0.00030922375 -0.00064674026 -0.0040748296 -0.0020526801 0.0026205687 0.0023060762 -0.003803132 0.00051470567 -0.0012080738 0.00081062247 -0.00069325016 0.00039956998 0.003249441 -0.0022621506 0.0015110753 -0.0017923355 -0.003093449 -0.0033843373 0.0037062885 0.00081315765 0.0037473696 0.0017787566 -0.0028821733 -0.00015296545 -0.0026919094 0.00030081553 0.0033512197 0.0007503773 -0.0006858099 -0.00010045521 -0.003669592 -0.003280618 0.0026465973 0.0005331862 0.0023090662 -0.00064990687 -0.00044532795 -0.0024828904 0.0023513308 0.002729198 0.001182142 -0.00091845286 -0.00046188888 0.0008210957 -0.0032087837 0.0015753491 -0.0029677525 0.0024078735 0.0011705575 0.00055085035 0.0014600249 0.003692147 0.0040354775 0.00060340203 -0.0004864428 0.00033510677 -0.00045571203 0.0030076595 0.002867545 -0.0016387224 0.0019265753
20193 -0.0021574388 0.004163311 -0.0021197018 0.0026448318 -0.0036964265 -0.00035498707 0.0014267038 -0.0015613424 0.0001326523 -0.00042496744 -0.0011119128 -0.00021014763 -0.000747565 -0.00374763 -0.0014936808 -0.003543218 0.001908494 -0.0028253903 -0.0010646153 -0.001564825 0.0029764855 -0.00264448 0.001961924 -0.0020946292 0.0035380838 0.0034621318 -0.00057996565 0.002525201 0.0012921478 0.00037137745 0.0009133589 0.0020060032 -0.0036923313 -0.00020563051 -0.001661976 0.0023046578 0.0013455327 -0.0026406008 0.00041932365 -0.0009167076 -0.002444737 0.00045318235 -0.0039272485 0.0007040251 -0.00029202565 -0.0031490184 0.00228958 -0.0002586639 -0.00042772802 0.0021802844 0.0021810345 -0.0020825057 4.8585505e-05 2.9065017e-05 0.0007768147 0.0030102127 -0.0024247004 0.0037415116 0.00048743343 0.0017316394 -0.0020048618 0.0019257627 0.0029924915 -0.0034788968 -0.0033474686 -0.0005699788 0.0024633086 -0.002407157 0.002778975 -9.760351e-05 -0.0036915143 -0.0036877564 0.002635298 0.0030135384 -0.0010380957 0.00033211077 -0.0006477114 0.00039811584 -0.0025869284 -0.00085713016 -0.003334613 -2.1194235e-05 0.00022444375 0.0030727584 0.002762911 -0.0017267029 0.004150712 -0.00018647914 -0.0022255683 0.0014166074 -0.002833537 0.002213072 0.0010549823 0.002373796 0.003694264 -0.00349489 0.0018262264 -0.0011136216 -0.0017958467 -0.0026086038 0.0030715207 -0.0005171374 -0.0034497236 0.0011842387 -0.0015620994 -0.00248508 -0.0032112994 0.0039381664 0.001583126 0.003452414 -0.003649979 -0.0016037035 0.0019837923 0.0028278187 0.0014212235 -0.0019234028 0.00088667567 0.0017683179 -0.0018969893 -0.0025485859 -0.0006631563 -0.0036259883 -0.0034385042 0.0024414286 0.0020738356 -0.0034067922 -0.002371499 0.0013532983
4330 0.0006934834 8.557827e-05 0.0038094062 0.00271138 0.003708129 -0.0029223904 0.000628761 1.2957651e-05 -0.00022103928 0.0008005316 0.0021875368 -1.7678773e-05 0.0005997262 -0.001807776 0.0012405708 0.0023995307 0.00083414157 -0.0027017475 0.00331509 -0.002461439 0.0027352758 0.0021932642 0.00082868466 -0.003678879 -0.0026483433 -0.0034056322 0.0014515255 0.0009524752 0.0030767384 0.0010675513 0.0020257335 0.0040296405 0.0032261654 0.0034346255 0.0037765726 -0.0028031631 0.0014461067 0.0011533748 0.0019119494 -0.0026742169 0.0027438262 -0.0011720337 -0.003054763 -0.0006737425 -0.00057673774 0.00073518103 -0.0017460699 0.0020332395 -0.0024403727 -0.0029450639 -0.0022494288 -0.0033935984 -0.0029649537 0.0012530825 0.0033227599 -0.00063987664 -0.0013508769 -0.0024864771 0.0031989212 0.0020751432 -0.00066173245 -5.0143128e-05 -0.0017148578 0.0005109028 -0.003728977 -0.0009402979 -6.428013e-05 -0.0032370833 0.0033022875 0.0005272589 0.0036517365 0.0020898485 0.0038287363 0.00089014886 0.002936941 0.002197375 0.0034945987 -0.00042150833 -0.00017461521 -0.0027256592 0.0030810311 0.0015146233 -0.0031790636 0.003601576 0.0018726885 0.004044018 0.0020030744 0.00041821497 0.00042239693 -0.0027175967 -0.0006088429 0.003137683 0.0021091416 -0.0029411379 0.00048329512 0.0013082998 0.0011844465 -0.0011628083 0.0029560833 0.002114617 0.0029297655 -0.0015439377 0.0014841142 0.0030054613 -0.0015727516 0.0035151604 0.00047128397 -0.00066968164 -0.00046107708 0.0021819314 0.0036888176 0.002274731 0.0012499057 -0.0004230936 -0.00040503725 0.0036530998 0.0038868312 0.0031025226 0.003442293 0.0020975636 -0.0010641197 0.0018665896 -0.003643916 -0.0012428592 0.0015564247 -0.002948623 0.001411226 -0.0013598254
114 0.0034577062 -0.0033732783 -0.0022179051 0.00081500894 0.0037686087 0.0026148057 0.0012620596 0.0015527572 0.0002626643 -0.00085493515 0.0033427426 -0.001992614 0.0016478095 -0.0005793004 0.002489328 -0.00313907 -0.0028332572 0.0017801983 0.00013471326 0.001779908 -0.0010291141 0.0013110854 0.002786553 0.00031438057 -0.0027725927 -0.0022339427 -0.002431965 -0.0035157322 -0.0032078978 0.0018906876 -0.002756052 0.0020124223 0.0021634041 -0.0013057305 -0.0018198234 0.0011941624 0.003150772 0.0011257089 -0.0023456216 0.0011323284 0.0024183893 0.00084121304 0.0026949549 -0.002252832 0.00056188094 -0.00043312897 -0.0005420499 -0.00089167897 -0.0031546578 0.0029403504 -0.003801546 0.003850175 -0.0021713679 8.568632e-05 -0.0031480845 -0.0034935412 -0.0028158887 -0.00082316657 1.5200692e-05 -0.0020343584 0.00028858733 0.0015824697 0.0012747868 0.00050695677 -0.0010409319 0.0020675878 0.0034644234 0.0016512336 9.797521e-05 0.002362907 0.0010372789 0.00096135965 -0.0024395469 0.0010567096 -0.00027584296 0.0009747435 -0.0011349233 0.0025314293 -0.0031271635 0.002228706 0.003421612 -0.0018537022 0.0010579685 -0.0021287035 -0.0035521004 0.0031091045 0.0017133512 -0.00076669117 -0.00089252746 -0.0013535246 0.0022101502 0.0036997374 0.0021986577 0.002623307 -0.00093809457 0.0038362476 0.0010219716 0.0026638072 0.00016560826 -0.0022255713 3.601635e-05 0.0015794158 0.0025985609 -0.0035877628 0.0012592139 -0.0034785892 0.0039112587 0.0011416915 -0.0031575745 -0.0016719159 -0.0028662938 3.932728e-05 -0.0011514963 -0.0014507002 -0.00332497 -0.002650757 -0.0003977979 -7.4141666e-05 -0.0009908051 -0.0017260816 -0.0030540384 0.003611634 -0.0023915425 -0.0034251553 0.0009815784 -0.002219755 0.003674212 0.001230389
3231 0.0015932892 0.0032129285 -0.0007098625 -0.0036670151 -0.0037679346 -0.0022296652 0.0033580456 0.0023844354 0.0017712384 0.0024888774 -0.00026987144 5.6863093e-05 -0.0040040985 0.0017276764 0.0013009043 -0.0027749653 -0.0035283682 0.0034015519 -0.00039297302 -0.0034186398 0.0021841305 -0.002105146 0.002472122 -0.0013032943 -0.0033903327 -0.00076858787 0.0014110048 0.00081496313 0.0010450695 0.0026338394 0.0016333049 -2.6618169e-05 5.589181e-05 -0.003255685 0.0016650179 0.00037895882 0.003823116 -0.0020778798 -0.003785973 -0.0024512152 0.0031942443 0.0016174368 -0.00054362084 0.0034917663 -0.0031085883 -0.0012789151 -0.0012689707 -0.00073764706 0.0020085564 0.0033281907 0.00093807984 0.0035273137 -0.002835083 0.00078069326 0.0021220231 0.0030827525 0.002290377 -0.0034264936 0.0028276918 0.0030301127 -0.0022963528 -0.0030092113 0.0024561752 0.0010379892 -0.0034033915 -0.0021250378 0.0027231206 -0.0011793685 0.0004720003 0.0029322468 -0.00020304261 -0.00042412462 0.0018361856 -0.0011953355 0.0033357288 2.301111e-05 0.0033345658 0.0035116535 -0.00093793863 0.002432481 -0.00049374544 -0.00037640665 0.0015853939 -0.0005033817 0.0009887847 0.00010863066 -0.0021272206 -0.0001668398 -0.0026916417 -0.0018041709 0.0008729324 0.002790657 0.00049586425 -0.00027169473 0.00038878963 3.6052297e-05 0.0037922426 -0.0011844691 0.0015206683 0.0036217147 0.0007847064 -0.00090662716 -0.0030381791 0.0011251697 0.0032399895 0.003924877 0.0023292704 -0.0026218 -0.0022572463 0.0024714475 -0.003701334 0.00037440768 0.0010681747 0.00058299676 0.0013773361 0.0019442304 0.0013145343 0.0038053934 -0.0031321682 0.00037100632 0.0021113981 0.0005206966 -0.0025347206 -0.000443908 -0.00043516865 -0.0020962346 0.002447285 -0.00042154413
24966 0.0010929789 -0.00027123006 0.0027353778 0.0030091647 -0.0030922855 0.0027237246 0.002739001 0.00075351517 -0.0029467694 0.0009488975 -0.0016379813 -5.1121726e-05 -0.003683882 0.0004190458 0.00042838935 -0.0014450678 0.00041192435 0.0033725093 0.0004462229 -0.0020637205 -0.00072879554 0.0010590593 0.0019461024 -0.0016585985 0.0010349307 -0.00043955463 -0.0003458882 -0.0016302672 0.0013161413 0.0009764255 0.00055850524 -0.0013489068 0.000498442 -0.002758984 -0.0014789292 -0.00069950416 0.0036421942 -0.0003290046 -0.0025382396 0.0025889974 0.0039037336 -0.001341496 0.0037266912 -0.0031589733 0.00043464973 0.002634876 -0.002075075 -0.0014928904 0.00045825294 -0.003447736 -0.0033392515 0.0022074191 -0.0026959796 -0.003216782 -0.0007642578 0.0035523626 0.0026146858 0.0015456894 -0.0025270598 -0.00031853263 0.0018191162 0.0019425808 0.0013666947 -0.003936669 -0.0006728605 -0.0036881373 -0.0033974375 -0.0033615464 0.0022575664 -0.0026835776 -0.0012968327 0.0017285694 0.0013067545 -0.0009868435 -0.0029691495 -0.00089907285 -0.003683437 0.0029095146 0.0025041443 -0.0030462886 -0.0009950722 -0.00087784114 -0.003798923 -3.65784e-08 0.0015516734 0.002627005 -0.0025813899 0.0034848887 0.0020243342 -0.00062761724 -0.0016838198 0.003045088 -0.00039254208 0.00075630465 0.0008212709 0.0019740486 0.0036390028 -0.0005841017 -0.0015656439 -0.0009281108 -0.0021143497 0.002069053 0.0039006374 0.0004681575 -0.0029681071 -0.0034997112 0.000107560285 -0.00079238194 -0.0029407884 0.00069608114 0.0021137302 -0.00042325427 0.002922261 0.00016667892 -0.0010995658 -0.00042828635 0.002244246 -0.0010163032 7.5392374e-05 0.0036183186 -0.0012151697 0.0014828399 -0.00280005 0.0014111568 -0.0017144162 -0.003007123 -0.00071243016 0.0010522804
19621 -0.0032604653 -0.0034300752 -0.0037679865 0.0014601025 -0.0035989075 0.0011728064 0.0014594344 -0.0032063436 -0.0027023943 0.00285031 -0.0009643861 0.003697794 0.0006942273 -0.0028878537 -0.0038881735 0.0022551732 0.0035411343 0.0012162558 0.0026330887 -0.0035560005 -0.003784217 -0.003598572 0.0017084156 0.0029290766 0.0023546042 0.0011612315 -4.5991594e-05 0.0006550322 0.0015297442 0.0012443454 -0.003039885 -0.0024864045 0.0031672558 0.0037538698 -0.00014644185 -0.0035797905 0.003924027 0.00046451399 0.0009737512 -0.0025647008 0.003460821 -0.0033029076 0.0005238608 -0.0015544734 0.00093372475 0.001083036 -0.0014679581 -0.0024424142 0.0029984952 7.097118e-05 0.0027573197 -0.0022128178 -0.00029274015 -0.0008099783 -0.0011274632 0.00083340146 0.0019659759 0.0019601353 0.0023919516 0.0038615444 0.00071341044 -0.0032642076 0.0037087 -0.003604623 0.0025904444 0.0018337861 0.0022806814 -0.0033424464 -0.0031111082 9.719419e-05 -0.0020194554 -0.0023123694 0.0015297714 0.0025533596 -0.0037640291 -0.0011119561 0.0019557772 -0.003819431 0.00016972731 -0.0028731085 -0.0016591641 -0.0010406056 -0.0012782853 0.0011116479 -0.0017499281 0.0010214099 0.0016392731 -0.0011797707 0.003186785 0.0036609008 -0.0021751255 0.001026303 0.0013889321 0.0037585825 0.0016883647 0.002316931 -0.0011352971 -0.002910513 0.00038727673 0.0016441029 -0.001126804 0.0036927771 0.0019082266 0.0013712404 0.0010170253 -0.0024536846 0.0017735449 0.002115538 0.0011153527 0.0024729902 0.00058493944 -0.00091893 8.790296e-05 -0.0018092861 0.0008524117 -0.0031359887 0.0038512086 0.0027811606 0.0005610473 0.0008236439 -0.0002818326 -0.0019387688 0.00022639429 0.0007445845 0.0016976799 -9.716191e-05 0.0035758917 -0.0025167381
1272 -0.0010870727 0.0028703937 0.0016805297 -0.0018704679 0.0025539733 -0.0005694233 0.0019854615 -0.003498697 -0.0013110584 0.0012165386 0.0012897169 0.0002957621 0.001017473 0.002239058 -0.0008219579 0.0032650114 0.0011634746 -0.0025110592 -0.0020064407 0.00033538474 0.00093607086 -0.002235433 -0.0015209998 0.00074087275 -0.0016475427 0.0031036 -0.0031802624 0.0034653333 0.00333457 0.0017324279 0.00024804682 -0.0036876148 -0.0010630301 0.002320883 0.0029465856 0.0010048094 -0.002041147 0.0011815551 0.0016882971 -0.0035287957 -0.0007182756 -0.0004483996 0.002209203 0.00032394225 -0.0021960328 -0.00047263398 -0.0020599714 -0.0021918903 -0.0008694379 0.0029327692 0.0019263867 0.0017053316 0.0014510143 0.00038893 -0.00039706237 0.0031338038 0.0039061892 -0.002611784 0.0025284218 -0.003555527 0.0019098612 0.00095424056 0.0014669565 -0.0007237388 -0.0004003292 3.767178e-05 0.002734043 -0.0035823744 -0.0039477167 -0.003921408 -0.0028568436 -0.0013784828 0.0029635665 -0.002688595 -0.0038873989 0.002615279 0.003085995 -0.00033632928 0.0005950294 -0.0027668467 0.00042662563 -0.0016340142 -0.002476865 0.00044264994 -0.0031290336 -0.0031622357 -0.0035322914 0.0013973777 0.002028437 0.00404957 0.00027564052 -0.0012396529 -0.0024036644 -0.0011704295 0.0024502382 -0.0020996237 -0.0026736036 -0.0018885336 0.0025533831 0.0032505072 0.0033011287 -0.002040322 8.482906e-05 0.00023613335 0.003098137 -0.0026369884 0.0033501254 -0.00035878655 -0.00058519084 -0.0020278103 0.0012536127 -0.0015972868 0.0005567042 0.00022651389 -0.0019412772 -0.0035610723 -0.0024265388 -0.003437562 0.0013664765 0.00020588329 -0.0015370366 0.003350199 0.0028141586 -0.00161026 0.001526935 0.0022888465 0.0036717271 -0.0018565743
2665 0.0010433149 0.001675973 0.003412106 0.0034818784 -0.00347942 -0.00076397305 0.0006490265 -0.00018356598 -9.7911376e-05 -0.0014109571 -0.0027714006 -0.0018500839 0.0004861306 0.00027017968 0.002296563 -0.0018659492 -0.0016356884 -0.0006681291 0.0010214669 -0.0032209952 -0.0008497217 0.0017944146 0.003398446 -0.00034057462 -0.0018205561 0.00054178084 0.0016165074 0.0015187503 0.0025103954 -0.0009750613 0.0013897606 -0.002552281 -0.0016156739 -0.0022639611 0.0008928236 0.0025269117 0.00029577516 -0.0032424708 0.0021383474 0.0031032818 -0.0030607465 -0.0025286255 0.0036238353 -0.00021486788 0.0017470559 -0.00026742654 0.0029731637 0.0014733565 -0.0023839048 -0.00021210671 -3.778251e-05 0.0005206203 0.0010277397 0.00021764195 0.0019301377 0.00086756476 -0.0026631858 0.00011459877 0.0019709028 0.00078803237 0.00083141436 0.0032421919 -0.0020895381 0.00066400546 -0.0036873464 -0.0017915985 -0.0037901604 0.00038418573 -0.0029381681 -0.0033854577 -0.0011745584 0.0038856931 -0.0037648485 -0.0004888571 0.0029493948 0.0006841488 0.002161012 0.0019670771 -0.001194256 0.00045734242 -0.0013210975 -0.0032047594 -0.000256924 -0.0017384186 -0.0034366988 0.0012601509 -0.0011049442 0.0022053416 0.000858143 0.00023408662 0.0016150665 0.0009369352 0.0032064593 0.00020519293 -0.0036151442 0.0022829794 0.0018910386 0.003499129 0.0028363932 -0.0029116112 -0.0028762745 -0.0021566416 -0.00072743907 -0.0014865878 -0.0015532948 -0.00022429596 -0.0020118316 0.0006207833 0.00051046535 0.0038623516 0.0012517865 -0.0016311851 -0.0028435944 0.0015399233 -0.0033880286 -0.0012210191 3.9896135e-05 0.0010191742 -0.0036773395 -0.0022698718 -0.003189511 0.00023663678 -0.0018751019 0.0021599957 0.0019906359 -5.63769e-05 0.0006359603 -0.0038729769
2440 -0.0033941572 -0.000441902 0.0020409087 -0.00034764793 -0.0009126562 0.0024442293 -0.0012434089 -0.002314724 -0.0019992623 0.0022864193 -0.0008653599 -0.003568465 0.0022712634 -0.0014309239 -0.0021397204 0.0021958237 -0.002196621 0.001578696 -0.00014114573 -0.0028565158 -0.0036074454 0.0019738476 0.00066701457 -0.0039019668 -0.0020859519 -0.00024659184 0.00026281163 0.0027420255 0.003999473 -0.0012708216 -0.002233009 -0.00016219249 0.00035683153 -0.00042242478 -0.00065165386 0.0019755806 0.0028369674 -0.00014637392 -0.00013433793 0.0034293286 -0.0029449654 0.0027504412 -0.00058132404 0.00055363524 -0.0032299228 -0.00020322615 0.0039181444 -0.0030179706 -0.0028373383 -0.0033911369 -0.001981437 -0.0032475626 0.00050498976 0.0034480314 0.0009118757 0.0015575528 0.0014623223 -0.0027828037 0.0018785077 0.002442109 7.344433e-05 0.0012909824 -0.0031299188 -0.00087479333 -0.0016295458 -0.0017684299 0.002239532 -0.0039160247 0.00029160097 -0.0018856141 -0.00392364 -0.0035694023 0.0021143076 0.0014112773 -0.00076251914 0.0024983992 0.003766073 0.0035968062 0.0030635586 0.0026843913 -0.0009920034 -0.0027088993 -0.001175918 0.003523977 0.00015982841 -0.0014370047 -0.0022850123 -0.0001561938 -0.0018258853 -0.0028363378 0.0031944122 -0.0017554531 -0.0010056734 -0.0006771882 0.0018219529 -0.0012359874 0.0014062652 -0.0025480464 0.001317659 -0.0021894039 0.0038871528 -0.0019241128 -0.003910419 0.001773655 -0.0015322395 0.002303249 0.002502016 0.0017842987 -0.0002416714 0.0035835092 -0.0035870569 0.003300143 0.0027139864 -0.0018355318 -0.0018671574 -0.0015295246 -0.0013954787 0.0030338042 0.00049197616 0.0012695482 0.0006264917 -0.0029070897 -0.0030182707 -0.0039281864 -0.00039218334 0.002631678 -0.0033848998 0.0021305652
31353 0.0020070923 -0.00017855068 0.0006172786 -0.0015900371 -0.0032487025 0.0006167179 0.0036521722 0.0027638744 0.002479934 0.0018999643 0.0013539303 0.0033820148 0.0027786735 0.0012230757 0.00010518602 0.0020804093 -0.0007056539 -0.00089007907 0.0038065594 -0.001304881 -0.0009866338 0.0028124626 -0.0033411616 -0.0018306731 -0.0010837557 0.0008802194 0.0034257853 -0.00012463222 0.0027071617 0.00046253338 0.0023800733 0.0024127276 -0.0035443986 -0.0018326091 -0.00038951906 0.0014456251 -0.00020542789 0.00325462 -0.0013827197 0.0023540924 0.0012111551 0.000501544 -0.0013282322 0.00028715687 0.0011294384 0.00057838915 0.0006385568 -0.00041211577 0.0011664247 0.0017111186 -0.0016524859 -0.0012634482 8.5207554e-05 -0.0015055641 -0.000106684216 0.0010844759 0.0018670706 0.0010981179 0.0032293315 -0.0003680396 -0.0019338282 -0.00050795573 -8.953912e-05 4.7268582e-05 -0.0007670453 -0.002675219 -0.0028059764 0.0006856752 0.0022320584 -0.0032856825 0.0005913685 -0.0009552495 -0.0026343341 -0.0030215622 0.003572161 0.00092982367 0.00044818403 0.0017528757 -0.0012154599 -0.0003082167 -0.0011164964 -0.0016527735 -0.002867308 0.0020311372 0.0024536252 0.0031276895 0.0028292073 -0.0026527406 -0.0010428916 0.002289156 -0.0025637734 0.0026960773 -2.8617138e-05 0.00015614252 0.0026984503 -0.000159368 -0.0003496261 0.0022257403 0.0022535943 -0.0008242708 -0.002906758 0.003472468 -0.0016579177 -0.0008622342 0.0012888701 0.0005042371 0.0028130403 0.0018319802 -0.0028482487 -0.0030081163 -0.0009032873 -0.0037926321 0.0014686594 -0.0019568654 0.001673992 0.001130968 0.0009633812 0.0026876852 -0.0018934145 -0.0038895963 0.0029816758 0.0027430428 0.002784259 -0.0039720098 0.00082307105 -0.001155982 -0.003932507 0.002705988
12182 -0.0025292228 0.0022423046 -0.00044820746 -0.0028085527 -0.0024722272 0.0029789528 0.0034645044 -0.0013790163 -0.0021920803 -0.0022946508 0.0028399008 0.0034730472 -0.00058981765 0.00025397778 0.001895023 -0.0018541305 0.0037713002 -0.001355278 0.0021786138 -0.0006720534 0.0022320885 0.0009170837 -0.0038394334 0.0024742836 -0.0014993259 0.00079855433 0.0039517176 0.0017569542 -0.002944631 -0.0012329691 0.0017676336 -9.206126e-05 -0.0028152964 0.0012243328 0.0017515518 0.00015560821 -0.00019792213 -0.0006320313 0.0039220196 0.0038670846 -0.0011207105 0.0037714136 -0.0023571765 -0.0023562685 -1.5011697e-05 -0.00174461 -0.0007765708 0.0019020368 -0.0030378394 0.0027280948 -0.00057169044 0.0009150991 0.0030367584 0.0034065591 0.00050229824 -0.0014633511 0.000967773 -0.0012094326 -0.0007540817 -0.0014013519 -0.0029379958 -0.00037768905 -0.0026167075 -0.002571857 -0.0019060483 -0.0039718985 -0.002331036 0.0010920762 0.0022784069 -0.002196303 0.0014093363 -0.00301631 0.0007581756 -0.0024610728 0.003529563 0.0025080668 -0.0027013358 0.0018308817 0.0022617492 -0.0022299483 0.00014485198 0.0032793714 0.0033231245 0.0014679476 -0.0030308708 0.0034345568 0.0006521962 0.0020734814 0.00083946885 0.003576783 0.00118478 -0.0016194385 0.00014013902 0.0016976838 -0.0025658354 0.0025048337 0.003314253 0.0030613965 0.0028484664 -0.0021207035 -0.0007050492 0.0017972295 0.0022521901 0.0006726312 0.0031999273 0.0019768062 0.0012598825 0.00032601456 -0.0020591184 0.00018770565 0.0007306889 0.0026012785 -0.00082240254 -0.0011503169 -0.0024794622 -0.000109229106 0.0013318962 0.0020537977 -0.002229409 0.00072131515 -0.0016260251 0.002549508 -0.002103164 -0.0011443455 -0.0017576985 -0.00088429946 -0.0021060454 4.8281312e-05
6214 -0.0021650754 -0.0032711504 0.0030485091 0.0032291692 -0.0038732572 0.0014884712 -0.002362118 -0.0023595789 0.00092955516 -0.00024616253 0.0031793022 0.0010577969 -0.0023644534 -0.00058123923 -0.0006027823 -0.0029283273 0.0010567419 0.003127974 0.00025825834 0.00054413074 -0.0038578007 -0.0010229396 0.0009075207 -0.0023093284 -0.0039826846 0.00050784287 0.0034464507 -0.0029127554 0.0028628535 0.0038390197 0.002187328 0.0038329307 -0.003353418 -0.00019551367 -0.0007068107 0.000471526 0.0004564852 -0.0036762531 0.0011029104 -0.0016896903 0.0039999736 -0.0014418206 -0.0033760301 -0.0011668443 0.0035060348 -2.6714963e-05 -0.003837371 0.0015380139 -0.00019736042 0.0030719198 -0.0019280616 0.0037540563 0.00027050366 0.0035017952 0.00014422993 -0.0033690794 -0.00020121718 -0.0013617369 -7.565624e-07 -0.00084714993 -0.0027169627 0.0030354697 0.0018539444 0.003152739 -0.0037496623 -0.00023995157 -0.00249614 -0.0036412384 -0.00039884925 -0.002595552 -0.003830115 -0.0007078878 0.002128056 0.0030900824 -0.0014589295 -0.00034284007 -0.0034865374 -0.0032333585 -0.0038240212 0.0015462806 -1.8587636e-05 -0.0033941502 0.0014715529 -0.0021891405 -0.0032975539 -0.0007167326 -0.0016231476 -0.003395147 -0.0003143231 0.0035154393 0.001759233 -0.00055088033 -0.0034544065 -0.0024850431 -0.0018260948 0.0019791482 -0.0026342669 3.073322e-05 -0.0028677816 0.00025738004 0.0013651614 -0.0011946303 -0.0039163153 0.0037534966 0.0025768974 0.0026508756 -0.0038947964 0.0005330874 -0.00024759825 -0.0018657916 -0.00079842325 -0.0028995601 0.0031416533 0.0027709228 0.0021489274 -0.002234815 0.0016538046 -0.0035122961 0.0017432581 -0.0020893598 -0.003590383 -0.0007803466 -0.0034161953 0.0019369674 -0.00085525325 -0.002778328 0.0014660433 -0.00020266467
10796 0.0007656561 0.0038226952 0.003458643 0.00090648356 -0.0029114762 0.0009710672 0.000108971086 -0.0025643024 -0.0005807364 0.0028662481 0.0005707328 0.0029550162 0.0011947321 0.0005054442 -0.000153699 -0.002883499 0.00023746687 0.0007389068 -0.0007271006 -0.00022881148 -0.00090859353 -0.0018863434 -0.00044562007 0.0035541782 -0.0012159817 0.0036834492 0.0017244489 0.0016763785 -0.0035556743 -0.0015205242 -0.002430468 -0.00013832799 -0.002139612 0.0026160036 0.0023875725 -0.0023819983 -0.00013144506 -0.0008094574 0.0014221374 -0.000801598 0.0006325855 -0.0010042062 0.0033856202 0.0026129135 -0.0034789757 0.0014060232 0.0018043225 -0.003353979 -0.00034488758 -0.0012044789 -8.1964135e-05 0.002079667 -0.0016226986 0.0023975198 -0.0010327243 -0.0034814908 0.0013657518 0.0022602715 -0.0010481084 0.0014504106 0.00027029242 0.0012185847 -0.0022837936 0.0025925457 0.0020828275 0.0034869597 -0.0026711442 0.0026022845 -0.0025561797 -0.0013518593 0.00088797545 0.00300572 0.0019613542 0.0009382568 -0.00020996694 -0.0029775717 -0.0035344406 0.0026674604 -0.00091208884 0.0009916514 -0.0012684896 0.0029737854 -0.0025394333 -0.0019415992 -0.0014361433 -0.0021647722 -0.0016509506 -0.0005789469 -0.0030525688 0.003307327 0.0035146126 0.0009102492 0.0039192247 -0.0015023662 0.0034628934 0.003436959 0.00353372 0.003909459 -0.0012588677 0.0026482558 -0.0027241255 -0.0015509933 0.00090604264 0.003194445 0.0011407856 -0.00088299037 -0.000725332 0.0014728445 -0.0027999114 -0.0039304737 0.00053897424 -0.0010504953 0.0031906636 -0.001114507 0.0036844204 -0.0017892655 -0.0006973588 -0.0012573036 -0.0030060515 0.0033963732 -0.0013129181 -0.0014132964 0.0018788661 0.0027881942 -0.0031615684 0.002909965 -0.0019340591 -0.0038840014
3220 0.0010259491 -0.00025007746 0.0028854902 -0.0011568565 0.003055345 -0.0002330252 -0.00023414187 -6.797714e-05 0.0031055973 0.0029350712 -0.0030710192 -0.0006858607 0.0005361867 0.0037440592 -0.0039582513 0.0019859152 0.0013119571 0.0039041284 -0.002374815 0.00090447 0.003764734 0.0011230152 0.001545539 0.00028168774 0.0026933663 0.0007621942 -0.0013148313 -0.001593728 -0.0027274801 0.00055758364 -0.000691407 -0.0026273218 0.0029525599 -0.00057764165 0.0037764155 0.00041126297 0.0019702122 -0.0034733696 0.0037709833 0.0029195824 -0.00031646053 0.0029018447 -5.5078614e-05 0.0037001432 0.0029920933 -0.00044930898 -0.0002177805 -0.0023434886 0.0036773079 -0.0021280264 0.0011315051 -0.0016118729 -0.0026511808 0.0025930454 -0.00082331 0.0030898203 -0.0033531245 0.0033856858 0.002175244 0.0008514272 0.0009615208 -0.0017131963 -0.0014537965 -0.0013562387 -0.00014424617 0.0022218493 0.0023298624 0.0022888565 0.0036253561 -0.0005401217 -0.0037699183 0.0016492291 0.0035049957 0.0008668626 0.00025574566 -0.0016899 -0.000575232 0.0003497292 -0.00067023124 0.00094182766 0.0031126305 0.0014517368 0.0038441468 -0.0017012684 -0.0026744981 0.0036760862 0.0009346584 -0.0030751768 0.0036220173 -0.000102931815 -0.0029280288 0.0019508069 -0.0013569127 -0.003342469 0.0038722013 -0.0026041856 -0.0038229204 0.0032029075 0.0039440077 -0.002671924 0.0023636958 0.0025492723 -0.0035369822 0.0020899503 0.0016922662 -0.0036093327 -0.002638091 6.4848355e-05 -0.0027697666 0.0038319353 0.0027971356 -0.002062409 -0.0029923033 -0.003236171 0.003307199 -0.0016404361 0.00088389526 1.1230402e-05 -0.0011513876 -0.001147053 0.00097349286 0.0014840682 -0.0032994638 0.00027734262 -0.0008386238 -0.003651509 -0.003923916 0.0030739282
6913 -0.0006343106 0.003154705 -0.0004068111 -0.002776152 -6.308391e-05 -0.0031075524 0.0031495083 -0.0027157404 -0.002611537 0.0025310952 0.00053064775 0.003146852 -0.0018453478 -0.0026581113 -0.0037269504 -0.0021100494 0.0015247941 -0.0018158435 0.002033546 0.0013790593 0.0026526744 0.0020958923 0.0014091696 -0.00030162145 0.0034023023 -0.002384971 0.0022676329 -0.0012115083 0.0011178534 0.0018455252 0.0014191623 -0.00057299813 0.0028496 -0.00080473896 -0.00027058483 0.00012980092 0.001164012 0.0011746717 -0.0026528328 -0.0007434768 0.0025309916 0.0034460605 -0.002071512 0.0015468611 -0.0012756137 -0.0019557283 0.0020333522 -0.0024604127 -0.0011135447 -0.0020782133 -3.0582847e-05 0.0027812473 -0.0038656963 -0.0023391866 0.0022481508 -0.00310317 0.0021802254 -0.0026152246 -0.0036186464 0.0026988452 -0.0021144312 -0.002120488 -0.0038629936 0.003510836 0.00084232946 0.0009398024 -0.0007677497 0.0029227263 -0.0021849512 -0.0012417474 0.0029693844 -0.0014621144 0.0014198051 -0.0030926017 -0.0017513684 -0.0022651493 0.000106678715 0.0025707597 -0.0012505788 -0.00022078509 0.0029188988 -5.2107218e-05 -0.0012157077 -0.0008334161 -0.000421054 0.0035114926 0.0018573799 0.0006979312 0.0008908669 -0.0022058133 0.0025965483 -0.0034785217 -0.0023451543 -0.0007873768 0.002146797 0.0028987871 -0.0032740973 0.0012612245 -0.00022176864 0.0031954153 0.0024695685 -0.0032336654 -0.0027400397 0.0030599816 0.002322702 0.002245322 -0.002287797 -0.0022231222 0.0020976148 -0.00042693506 0.0018074424 -0.0027512885 0.0001634374 -0.00028320597 -0.0037817734 0.0034090185 -0.0033387642 0.0033967078 0.0013546617 0.0036218704 0.0013334076 -0.0017827151 0.000649114 -0.0033870242 -0.0014371158 -0.0015463235 0.003320691 -0.00023893524
8224 0.0016776363 0.0034637582 0.0012702713 0.0014388515 -0.0022930028 0.0024623934 -0.0021259112 -0.0032494508 0.00092834886 0.0024651175 0.002624172 0.003741555 0.0026292126 -0.0007473286 0.0014573948 0.0021984163 0.003990574 0.0037238167 -0.0011600126 -0.0029307778 0.0015040562 -0.0006542072 -0.0025684028 0.002635475 0.0019457528 0.0018353355 0.0005118821 -0.002776518 0.0027644208 -0.002817399 0.0020921098 -0.0015510536 0.0010349645 0.0017706199 0.0014653981 -0.0023512198 -0.0019812586 0.0013884194 0.0037799617 -0.0026221569 -0.0008452817 0.0030650801 0.00097402924 0.00061169034 0.001928495 -0.00026632944 0.0001581531 0.0018301281 -0.00081786775 -0.0014321298 -0.0025486313 -0.0013233289 -0.0016483883 0.0015331394 -0.002178017 0.003176856 0.0013813926 -0.00031768947 0.0034163778 0.0039336057 -0.0023536433 -0.0035641938 -0.0026468905 0.00055428135 0.0031530512 0.0017025472 -0.00055542693 -0.0012050288 0.00066374475 -0.001491356 1.6901173e-05 0.0038863209 -0.0026695216 -0.0032167642 -0.00012701505 -2.6748125e-06 -0.0013344571 0.0029734643 0.0012928199 -0.0037449782 -0.0012805539 -0.0010042308 0.0026417847 0.0035710372 -0.00390951 -0.00027879016 0.0039453804 0.002194495 0.001010406 -0.003613788 -0.0035322867 -0.0002595799 -0.002221451 0.0028161146 0.003900075 0.0023124616 -0.002402826 -0.0012556555 -0.001508696 0.002188098 0.0011597332 -0.0027483965 -0.0031155085 0.002108188 -0.0019460054 0.00278617 0.0030849208 -0.003927134 -0.00065668224 0.0031434745 0.0025341683 0.0010737338 0.0023607938 0.0024712542 0.0011644941 0.0025575429 -0.0031558578 0.0031306776 0.002882052 -0.0005227528 0.0012528922 0.0025658929 0.0034929335 -0.0027517744 0.003341372 0.0021600924 0.0011690378 -0.0012819886
10169 -0.0029055648 -0.00029623878 -0.0027539846 -0.0033860821 0.0007137071 0.0013541329 0.0007763567 -0.00058163365 -0.0034745156 -0.0024730165 0.0024559202 -0.0018450872 -0.00018793961 0.0025066612 0.0030672406 -0.0018243062 -0.0036398955 -0.0017018032 -0.0011161742 -0.0011257667 -0.0022280558 -0.002767705 -0.0006282059 -0.0028673538 -0.0012669183 0.00056224904 0.0020329594 -0.0035209768 0.0021711427 0.0031608783 -0.00019493674 -0.0021736687 0.0013789117 0.0032466059 -0.0006732425 0.0018266293 -0.00036640637 -0.0003707778 0.0017707153 0.0010060911 -0.0004099132 0.0033409772 -0.0012030933 -0.001135405 -0.0034039519 -0.0012648635 -0.0013068093 -0.0015200243 -0.0029641876 -9.1932125e-05 -0.00041738056 0.0036528541 0.0036385152 -0.0004692116 0.0031549442 -0.0027771227 -0.0024850597 -0.0024445788 -0.0013960841 0.0020438894 -0.0022567413 -0.002589925 -0.00271822 0.0019961856 -0.0006531758 0.0016572763 -0.0016293535 -0.003649578 0.003797628 0.003194618 6.126098e-05 -0.0018094614 0.0015559985 0.0020702828 -0.0039161663 -0.0032065136 0.0020449331 -0.00311347 -0.0035252713 0.0021602248 -0.0029122534 -0.0039597643 0.003476373 -0.002855611 -0.002613597 0.0034496929 0.0014903201 0.0035610008 -0.0012473295 0.0013324284 -0.0016065674 -0.0030298342 -0.00085505925 -0.0033912489 0.00012754354 0.0019327095 0.0029693202 -0.0028628407 0.0030021402 -0.0027677345 0.001682917 0.0024035654 -0.0013675786 0.0007039486 -0.0029623564 0.0039312285 -0.0011369277 0.0037130502 0.0009325835 0.0013272072 0.0010879617 -0.0037289697 -0.001435596 0.0027999317 0.0034088232 0.0026716036 -0.0026364077 -0.0037911097 0.0014655531 0.00093504944 -0.0031619037 0.0014541575 0.0017683184 0.0036170436 -0.0021999767 0.0032793556 0.0017163336 0.0013400005
82920 -0.0031954288 0.0015304764 0.0032820872 -0.002074344 -0.0034762986 0.0023800326 0.00032295336 0.0037073698 0.003200084 0.000310605 -0.0013088251 0.0014440006 -0.0010007181 0.0010141149 -0.0030838172 0.0009177111 -0.0030503012 0.0025283487 0.002811063 -0.003474559 -0.0036189053 -0.0036279222 0.0011840606 -0.0027091575 0.00085742446 -0.0023182547 -0.0006214126 0.0028649594 -0.0022009162 -0.0017870774 0.0038288648 -0.0020414172 1.8635945e-05 0.0035636954 0.003456007 -0.00052075885 0.0019759925 -0.0037618713 0.0032937555 0.0028048626 0.0036801198 -0.0016798147 -0.0015909947 -0.0016548317 0.0019206832 0.0032107593 0.0034169734 0.003418416 0.0029421302 0.0026231054 -0.0009967186 -0.0019289134 0.0019023331 -0.0030128846 -0.0020763034 -0.0016161436 -0.0013598994 0.0015774858 -0.0027914378 0.0023703407 -0.0021667548 -4.3653494e-05 -0.00036587685 -0.0036400778 -0.0014929752 -0.0034128977 -0.00049119187 -0.0010508513 -0.0016054556 0.0038012762 -0.0013324459 0.0026871322 -0.00373887 0.00294448 0.0018030922 -0.00044061238 -0.0039601354 -0.0019230434 -0.0037291583 -0.0031997443 -0.00057782076 0.0024315263 0.0023626867 -0.0035270858 0.0028392063 0.003515299 0.0030701966 0.00075346447 0.000799666 0.00047494643 0.0003934017 0.0019938406 0.00013315352 -1.2647828e-05 -0.0009908775 0.0027376462 0.0011124748 0.0020118007 2.9581986e-05 -0.0022745056 0.0037018005 -0.0030476106 -0.00030854967 0.0021526064 4.346622e-05 0.0031948944 -0.0030443943 -0.0020933808 -0.0004475409 0.0019534929 0.0008385258 0.0022453303 0.0023726006 0.0006568805 0.0038164097 0.0009378809 0.0032298095 0.0022051602 -0.0012730615 -0.0036442748 -0.0029157435 -0.001528505 0.0020265772 0.0017853515 -0.001869246 -0.0036186054 0.00058637885 -0.002823224
39127 0.0010039933 0.0039363424 -0.0028449388 -0.0024126647 0.0038391394 -0.0028196226 0.00050080876 -0.0022368554 -0.0030190644 0.0014562118 0.0002692898 -0.0024284965 0.0012328466 -0.00074504997 0.0006379758 -0.003541421 0.0024204776 -0.0033439945 -0.00017160056 -0.0038092956 0.002041615 0.0024986574 0.0033786693 -0.0033991663 -0.00021515062 0.0028618625 0.0013505452 -0.0013933136 -0.001735889 -0.0023341186 0.0016141271 -0.0007659395 0.0032829023 -0.001085729 -0.0002017221 0.00054556015 0.003139582 0.003489496 -0.0010643296 0.0020861388 0.0020090116 -9.17244e-05 0.0037860873 -0.0011398079 -0.0014199824 0.0013923524 0.001278852 -0.002972857 0.0009310374 0.0017793145 0.0024879025 -0.003948355 -0.0029932319 -0.0034936045 0.0024202492 0.0031897533 0.0027957826 0.003069017 0.0024227332 0.0018862431 -0.0006338843 -0.00022169568 -0.0010104779 0.003027441 0.0021619594 -0.0036205007 0.00012416708 0.0006357516 -0.0027280245 0.0017698988 0.0032913429 0.0029241662 0.00394204 0.0026539732 -0.002711966 -0.0014750231 -0.0037244281 0.00015763093 -0.003117147 0.0011376737 -0.0011024917 -0.0036790709 0.0039304537 0.0005682157 -0.0026759559 -0.0036870888 -0.0006531409 -0.0007956955 -0.0028218895 -5.692305e-05 0.0005684426 -0.0033913676 -0.0011217465 -0.0016051888 -0.0017808555 -0.0038713936 -0.0037468402 -0.00022034488 -0.0029615962 -0.003489478 0.00037325209 -0.003138133 0.0034940518 0.0026579797 0.0019580175 -0.0009037521 -0.0021492152 -0.0005221715 -0.0017430293 -0.0014288909 0.00072089955 0.0012259036 -0.0026174865 -0.0004835437 0.0024447204 -0.00094748463 0.0016392822 -0.0019741717 -0.000604415 0.0034898052 -0.0033317795 -0.0034371903 0.0015327121 0.0038789548 -0.0012158358 -0.0031846638 0.002813244 -0.00067256443
85352 0.00049655954 -0.0024404349 -0.0036547247 0.0030437144 -0.001680455 0.0033233257 -0.00057347864 -0.00020384115 -0.00022791364 0.00090990675 0.0018712917 -0.002245147 -0.0015535795 0.003295948 0.0010909274 -0.0032607254 0.002857016 0.0002945367 -0.0031928278 -0.0030142935 -0.0003425022 0.0037058035 -0.0031718228 0.0024859407 -0.0031969617 -0.003419401 0.0013062396 -0.0034626673 -0.00028578733 -0.0038173553 -0.00028848386 0.00060262706 0.0014428173 0.0037650173 -0.0015704068 0.0026015192 -0.0038878017 -0.0005201905 0.0026893232 -0.00056662987 -0.0028893196 -0.0038853476 -0.0029856768 -0.0038539523 -0.0028494615 -0.0017649361 0.0031054877 0.0020438987 -0.0023683216 -0.00029254402 0.0019017062 0.0028413578 -0.0012695008 0.0013064491 0.0015607647 0.0030386825 0.0028219228 -0.0027904632 -0.003517019 -0.0034212566 -0.003168204 0.001018614 -0.003399343 0.002833421 0.0018657655 0.002889068 -0.0024968323 -0.0029459114 0.003474249 -0.0026031581 -0.0024737876 0.0004117284 -0.0027616348 -0.0007157147 0.0038143536 0.0004436966 -0.0037320836 -0.0035326974 0.0019085278 -0.0011236483 -0.0024789297 -0.0017062061 0.00033545584 0.0005841302 0.0025972796 0.0028700691 0.0011964804 0.0030084513 -0.003144143 -0.0021257945 0.001712104 0.0024047624 0.00032852113 0.0033423183 -0.00032141127 -0.0037879876 -0.0031460975 0.0002898921 -0.0010248993 0.0037250798 0.0002018599 -0.0034743794 -0.0026208216 -0.00055462884 -0.002607268 0.0010524989 -0.0010570483 -0.0032610833 0.00058945635 -0.0008583412 -0.0030795904 0.001952486 -0.0008536525 0.003267477 0.003681179 -0.002377483 -0.0021986347 -0.00081847096 -0.0017126718 -0.000586114 0.003403373 0.0012742471 -0.0015701018 0.0008184678 1.9211022e-05 0.0029622125 -0.00067233224 0.00039796185
4584 -0.0012280757 0.0009702771 -0.0019561124 -0.0026916717 0.0011503026 -0.0035306802 0.0036109139 0.0024270008 -0.0001504733 -0.0031189304 0.0029149621 0.002073631 0.0011922169 -0.0018832178 0.0007187118 -0.0017259889 -0.00320394 -0.0019298524 0.0025403013 -0.0011414331 -0.0023807313 -0.0012526041 -0.003113554 0.00025196376 0.0032262327 -0.0027469208 -0.0011001086 -0.0033748662 0.003515364 7.630155e-05 -0.002744472 0.0024450775 0.001376281 -0.0006621853 -0.0016550268 0.0023553735 -0.0031676625 0.0038554494 -0.0008307113 -0.0016497588 -0.0005105431 -0.0017122745 0.00028222005 -0.0016875842 0.0036635092 0.0017161563 0.0023213641 0.0015743175 -0.003203568 -0.002479175 -0.002176491 -0.00091289415 0.0032231372 0.00059860136 0.002085984 -0.002392999 -0.0009846804 -0.00020298174 0.0008469994 0.0037245695 0.0035081594 -0.00015193454 -0.00045955105 -0.0013053769 -0.0012653036 0.0011859791 0.0038522517 0.00089790043 -9.820803e-05 0.0025963595 -0.0032944449 0.00361561 0.0014119983 0.00216776 0.0034084646 0.0035286716 -0.002000411 -0.0012907719 -0.00046031244 -0.00053694303 0.0019023403 -0.0035545398 -0.00012725715 0.003024494 0.0034492447 -0.0019081059 -0.00011829683 -0.00071556604 -0.000510582 0.0029586046 -0.001490187 0.0012012719 -0.0036533587 0.0024918427 0.0007265173 -0.0033895655 -0.0033620957 0.0021890996 0.0036260295 0.0013741466 0.00012642614 0.0013394943 -0.0037036773 0.0019311927 -0.0005134355 -0.0016862402 0.0011481142 -0.0038202414 -0.0035957468 0.0020505397 -0.0024143474 -0.0025589487 0.0031973873 0.0011069 0.0002638025 0.0015571368 -0.002257938 0.00046668088 0.0033930035 -0.0028856494 0.0025726666 0.003489473 0.00023902197 0.0029055872 0.0033354282 -0.0020532382 -8.3400024e-05 -0.0018625673
1481 -0.0030955535 -0.0038424733 -0.0035155343 -0.003271391 -0.0023289013 0.0020082078 0.0034795287 0.003047705 0.00030731634 -0.0028184492 -0.0027524526 -0.0027609733 0.0014975277 0.0025592144 0.0001633476 -0.0020992565 0.0005941406 0.0036264951 -0.0021855135 -0.00067915005 0.0020022432 -0.002584289 -0.0035244734 0.0012471874 0.0007830532 -0.0037548793 0.003337331 -0.0016523654 -0.0009719104 -0.00298497 0.0007513626 0.0030491669 0.0009229188 -0.0015844322 -0.0014623263 0.002303332 0.0029520076 0.0029596672 0.00086688134 -0.0012744401 0.0031921715 0.0022561143 -0.0016643774 0.0019661435 0.0015649789 -0.0024174727 0.0015684841 -0.0012968354 -0.0026631178 0.0027040136 0.0034165878 -0.0031115597 0.000141213 0.0019028257 0.00094417913 -0.0013962076 -0.0021575897 -0.00022102307 -0.0034308163 -0.0022246821 0.0035590676 0.0019412233 -0.0027300634 0.0019382114 0.00034954885 -0.00347496 0.00027571182 0.00015206709 0.0012811933 0.00372256 0.0008847821 0.0007386628 0.0023365312 -0.0023652685 0.0028883305 -0.0012979484 -0.003468312 0.003865298 -0.0034881623 0.001441669 0.0034971389 0.0019539194 0.00057308684 -0.0003598821 0.0011811026 -0.0028556022 -0.0037926114 0.0011350579 -0.00073066057 0.0037648305 -0.0006383485 -0.0030594904 -0.0024846252 -0.00091224565 -0.002994232 0.0026830924 -0.002402282 0.0012353979 -0.0013199644 -0.00078181253 -0.0013494025 -0.0030888682 0.0021221824 -0.0035169362 0.0036968123 0.00033011741 0.0029007883 -0.0030928922 0.0031736318 -0.0016399901 0.000354732 0.0016882056 -0.0014125993 0.0017946181 -0.0036287163 -0.001991264 0.0026397598 -0.0010323408 -0.00031405373 -0.0027949554 0.0012861339 -0.0002746801 0.0023750144 -0.0004230702 -0.00038822036 -0.0037992354 0.0036064612 -0.0036548243
205196 -0.0004620858 0.0012201599 0.0040216716 0.0008777375 -0.0023241346 0.002054217 0.0014577908 -0.0029991134 -0.0019177827 -0.0038402597 0.002191256 0.003398955 -0.00090467423 -0.00014457409 0.0035833898 0.0036617164 0.0005803532 0.0021821307 0.0006517705 0.0039096894 0.003994893 0.0027268995 -0.001824924 -0.0015944177 -0.00345114 -0.0012540845 0.0011888893 -0.00022454983 0.0019270944 0.003465013 0.0018314234 0.0035069957 -0.0016429623 -0.0006670343 -0.0010790371 0.002897092 -0.0012021227 -0.0017957347 -0.0031814482 -0.00214834 0.00023449316 -1.2561197e-05 -6.962324e-05 -0.0026322438 -0.002699248 -0.002225202 0.0036198664 0.0009886862 0.0009653156 0.0004111735 -0.003983154 -0.0034876852 -0.0030654566 -0.0027189606 -0.0014529608 -0.0032468901 0.0035390323 -0.0006338954 -0.002111623 -0.001952103 0.0018014442 0.0008405544 0.0025754776 -0.0005670143 0.00084017287 -0.0027164016 -0.00040403972 0.001001917 -0.0034689337 -0.003982052 0.00034196718 -0.0029872516 -0.002363853 -0.0028958016 -0.0005050645 -0.0023560717 -0.0021282292 0.00266889 -0.0018665438 0.0011781271 -0.0010067559 0.0017228083 0.0018622425 0.0024658407 0.002944238 0.0024426023 -0.0037217732 0.0039227856 -0.0038239665 0.00033923594 -0.0011700277 0.0030701493 0.0030567197 0.00069747167 -0.0033560845 0.0024470647 -1.882451e-05 -0.00014008103 -0.0028061867 0.0019765324 0.0023783767 0.001679421 -0.00020670498 0.0026262163 -0.00322762 0.0018702437 0.0021209037 -0.0026148488 -0.0036194026 -0.002529583 0.0023450477 0.0037981186 -0.0031814154 -0.0010942282 0.0031805418 0.003932105 -0.0023006422 -0.00048606267 -0.0032454273 -0.002755504 -0.00086349127 0.00030583094 0.0029554623 0.0007856465 -0.002058821 -0.00073494535 0.0020494433 0.0008817233
8703 -0.0018665409 -0.0020434898 -0.0033016664 0.0026165287 0.0017173786 0.0038766386 0.0029597562 0.0027469213 0.0010373448 0.0012881177 0.000923182 0.00292238 -0.0025580127 0.00088477536 0.0003112993 0.0011140235 0.0028791004 -0.0034305616 -0.0013185207 0.0029656482 0.0026575115 -0.002259511 -0.0032268732 -0.0038464095 0.0034408662 -0.0036851882 -0.0015499534 -0.0015281063 -0.0011373194 -0.00042078787 0.0015248401 0.0010782208 -0.0039058719 -0.0032411271 0.0033639132 -0.0019282689 -0.0034003088 0.0032558544 -0.00092707685 -0.0010161559 0.0023349107 -0.0019028957 -0.00016847116 0.002487263 -0.0024778184 -0.0017323367 -0.0020106386 -0.0014168335 -0.0030789254 0.0017580375 -0.00052945095 0.0022077973 -0.0008378459 4.5710185e-05 -0.0034513932 -0.0014343826 0.0015641975 0.0031425618 -0.0030753359 -0.00081898493 -0.0015667931 -0.0012097203 0.0026900994 -0.0009580749 -0.0024595784 -0.0006303231 -0.0014119813 -0.00082448265 0.0029259145 0.0034374755 -0.001326439 0.0013982749 -0.0033081956 0.0019738139 -0.0035926497 -0.0018438181 -0.0037039225 -0.002129226 -0.0018195406 0.00014965636 -0.003631842 -0.0020722786 -0.00014516384 -0.0011609844 -0.0015245351 -0.0027805173 0.0010316367 -0.0036599764 0.002109156 -0.0015848792 -0.0013410584 0.0038464295 -0.0012779933 0.0023614306 0.00096538477 -0.001492097 -0.0026550635 -0.0014963872 0.0007363982 0.00055534503 -0.0014144123 -0.001090079 -0.0016867013 -0.0032288095 -0.0022026347 0.0020752186 -0.00037773186 0.0030659642 0.00196686 0.0019172609 0.0033241399 0.00084641174 0.0027088965 -0.0006664628 0.0025015348 0.0034344608 0.0019287518 0.0005453426 -0.0020848701 -0.0006808936 0.000312456 0.003177364 0.0004445969 0.0027204112 -0.00061131676 0.0010278088 -0.0015972957 0.0029378992
12576 0.0009268923 0.0014095537 0.0020145408 0.000912738 -0.0015463879 0.00010754617 -0.0033449584 -0.0010801556 -0.0011234862 0.0016359334 0.002328225 0.0018290884 -0.00046485945 0.0014404786 -0.001977357 0.0027410297 -0.0013639393 -0.0011174494 0.0014930231 0.0031307728 0.0007120873 0.0028497549 -0.0035191409 -0.0032955855 0.0035852245 -0.003406194 0.002127278 -0.0023153431 0.0036616144 -0.0036411057 -0.0035369268 -0.0020297605 -0.0028258134 0.00013422959 -0.0022311227 0.0006399542 0.0004043923 0.0018873953 -0.0032618174 0.0011561571 -0.00029271567 0.0026703507 -0.0029510437 0.0037660839 0.00032038157 0.0036440874 -0.0035999927 -0.0020744903 -0.0012695531 -0.0010050207 -0.0019163897 0.0024781912 0.0028897212 0.0017222263 0.00046809574 -0.0033076988 -0.00022390985 0.002091327 0.0034112046 0.00089327 0.0012908701 -0.0028484783 -0.003515004 0.0018018023 -0.00036658987 0.001064157 0.001649551 0.0020647089 -0.0034184083 0.0032346644 0.003361158 -0.0023739624 -0.0032790496 0.0009733528 -0.002268459 -0.00021495094 -0.00353093 0.002930044 -0.0030443415 -0.00039039575 -0.0018897266 -0.0010072687 -0.0016268814 0.00028068246 -0.0020455734 -0.00034376714 0.0024034954 -0.0012431282 0.0027851195 -0.0022976694 -0.00083991187 -0.00057080324 0.0036085788 -0.0026662815 0.0035515293 -0.0020524284 0.0015360967 0.0011885805 -0.0024658635 -0.0014635101 -4.314366e-05 0.002218815 0.0026321064 0.001647233 0.0016015853 -0.0037442485 0.0023409608 0.0039124102 -1.9168732e-05 0.002016002 -0.001956421 0.00019343737 0.0033098678 0.003801231 -0.002098039 0.0018207293 -0.0020159509 -0.0013693054 0.00067269936 0.0036511424 0.003456483 0.0026961353 -0.0012568338 0.002567352 0.0025495226 0.0013361647 -0.0031809227 -0.0011925568
887 0.002266159 -0.0004950082 0.0010840412 -0.003764493 -0.0010419139 0.0023550559 -0.0018317412 -0.003943107 0.00063769345 0.0030766777 -0.003505083 0.000964919 -0.0032063294 0.0027706109 -0.003175061 0.00022101947 0.0015332919 0.002341232 -0.00013763271 0.0028486364 -0.0005360204 -0.0002194504 0.0023881423 0.0033970159 0.0014344285 0.0029132662 0.0028306604 0.00042435795 -0.002014437 -0.00090821326 0.0009317956 0.0004559434 0.0024875898 -3.1933683e-05 0.0011435141 -0.0008492202 -0.0018280215 -0.0017967896 0.00017368702 -0.0022806646 0.0013642876 0.0005400947 0.0024127716 -0.0017207528 0.002630811 0.0035707573 0.00027769885 0.00368728 0.0013644625 -0.0031701296 0.0020765176 0.00345693 0.0023016764 0.003596986 -0.0010704865 0.0027129115 -0.0012555064 -0.0022039746 0.0039314847 -0.0038891544 0.0028118237 0.0010765129 -0.0035789027 -0.00064784766 -0.0014154494 -0.0038197488 -0.0011627624 0.0025964829 0.00059768447 -0.0026132374 -0.0026873334 -0.00075213274 -0.0032125297 -0.0028885384 -0.0017651047 0.0010445487 -0.0031687256 0.0035482624 0.0016455281 0.0014754619 0.00045516432 0.00054986915 0.00078560336 0.0037413987 0.0022894575 -0.0014816828 0.0018493627 0.002004598 0.0026114564 -0.0011953157 0.0029021793 0.0026112404 0.0029884991 0.0021649415 0.0022482385 0.0032932241 0.003662926 -0.0024297098 -0.0025483866 0.0032810394 0.0019354788 -0.0035886406 0.00072994997 0.003514655 0.0034430444 0.000520724 0.0014668283 0.0015374087 -0.00062929804 -0.00024250588 -0.0018657929 -0.002103345 0.0031362567 0.00133495 0.0035850646 0.0018481378 0.0020808806 0.0038418062 -0.003648985 -0.0016365112 0.0035542932 0.0007709018 0.0031080693 0.0022121079 -0.00251419 -0.002925446 -0.002615537 -1.7908782e-05
1688 0.0030726166 -0.0010337562 -0.00052981125 -0.0020506303 -0.0010937762 0.0015204792 2.9081995e-05 0.0021177246 -0.002601327 0.002821913 -0.0017089521 -0.0013292049 -0.0033187119 -0.003656419 0.001964766 -0.00033614473 -0.0037988173 0.00076730846 0.0029000677 -0.0015227282 0.001635719 -0.0028454573 0.0037532107 0.0012736594 -0.003699317 -0.0012935067 -9.318017e-05 -0.00039886404 0.0006767764 -0.0034119973 0.00094424014 -0.002162018 0.00081055926 -0.0027619032 0.0007916345 0.00073975266 0.0029077197 0.0018732552 -0.00024170706 0.00320226 -0.0021332921 0.002224897 0.0033862093 0.0012165388 0.0036042558 0.0014535718 -0.0015078895 -0.0016013709 -0.0005910314 -0.0002944371 0.0016368891 0.0016911934 0.00327072 0.0029737635 2.7865291e-05 -0.0014844455 -0.0020106924 0.0014346075 0.0028430705 -0.001246992 0.00093200954 -0.0010707561 0.0031535758 0.00015460298 -0.0029508902 0.0020710523 -0.0012989413 -0.0035007154 -0.00020169995 0.0031507353 -0.0016586103 -0.00251698 -0.0038294743 -0.00077206653 -0.0023717703 -0.002056262 0.0025277827 0.002186239 0.0031328637 0.0009861985 -0.0037886694 -0.00082727766 -0.0017562688 -0.00054036913 0.0018275985 -0.0026056697 -0.0008782812 0.00078096066 -0.0037475184 0.0004819832 -0.0006081282 0.00046103782 0.0009428428 0.00027234666 0.0003072823 -0.0019482078 -0.0022454972 0.0025487393 0.0010684351 0.0027656124 0.0012460774 0.0007505003 0.0033748904 -0.003145964 -0.0010820387 0.0006178193 0.00033227255 0.0022185878 -0.0018466844 -0.0027035994 -0.0022823447 -0.00014753606 -0.0004765725 -0.0023406288 -0.002311356 0.001611551 0.0030955777 -0.0010539026 0.0025146143 0.001613094 -0.0017014685 0.00066973816 0.0016038996 0.00028935782 -0.0030238044 0.0021684398 0.0035312949 0.00046631217
54129 0.0038571754 0.0024916984 -0.00016119896 0.0020413073 -0.003702216 -0.0028923724 0.00092998456 -0.0020438845 -0.00013819036 -0.0035402651 -0.00023202198 0.0031439045 0.0030181748 0.0034252547 -0.001312187 -0.0002904121 0.0036863647 0.0031341289 0.0036413365 -0.0037220616 0.00012626003 -0.0021810732 0.0017214642 0.0011550662 -0.0035980337 -0.0029799407 -0.0036079197 -0.003942498 0.003484277 -0.0027226047 0.0031547246 0.002624235 -0.003691467 0.0026946992 0.0017492953 -0.0011295401 -0.0032240474 0.0032171695 -0.0031379473 -0.0038549218 0.0023809047 -0.001283703 -0.0029911068 -0.0014877233 0.0036480462 0.00083030283 0.0010493462 0.00030746442 -0.0029068105 0.0010068363 -0.00056020194 -0.002663009 -0.003027367 -0.0022828602 0.0020552329 0.0013641181 0.0035212268 -0.0031912725 0.0010805111 0.0025208448 -0.0009098246 0.0028484215 -0.0008042978 -0.0013284112 -0.0021761395 0.0009128085 -0.0029808087 -0.0025679108 -0.0005864216 0.0017988683 -0.0017794308 0.0016116299 -0.0004917869 0.0013206744 0.0007220907 -0.0033319443 0.0028838955 0.0017574554 0.0038184125 0.0002274536 0.0020526617 -0.0027157436 -0.0034781403 -0.00042958927 -0.0020211677 0.0010901274 -0.0010962154 0.00070375873 -0.0005441695 0.0015049157 -0.00057910645 -0.003220161 0.0031416903 0.0004827312 6.495296e-05 0.00070324587 -0.0008901841 0.0025700473 0.002715533 -0.0006150668 -0.0038180433 -0.00059308455 0.0036323161 0.0033065577 0.0023114702 0.003666611 -0.0019162542 9.31012e-05 0.0015593497 -0.0021793097 0.0010935193 0.003868685 -9.4149334e-05 -0.0003253977 0.0007345806 -0.00097397604 0.0034888263 -0.0008206372 0.003284598 -0.00057315663 -0.0024135918 0.0024790156 0.0029659022 0.00025426652 -0.00294042 0.0009244723 -0.00022793052 0.0031686164
153063 0.0029614875 -0.0005273495 0.0032351373 -0.0029794713 6.956218e-05 -0.0027723494 -0.0015758096 0.0038843383 -0.0007543678 0.0036444971 -0.0023859665 0.003309409 -0.0034942399 0.0028873975 -0.0010239459 0.0024585067 -0.0008043609 0.003565728 0.002411347 -0.00048611895 0.001811224 0.002604628 0.0019520984 -0.0020099813 0.0037319232 -6.0019138e-05 0.0019328056 0.0015368926 0.00031014395 -0.0036581652 0.0013182368 0.0026549697 -0.0012684907 -0.0036944768 0.0004641344 0.002078177 -0.00037695427 0.0027851597 0.0030441596 -0.000997764 0.0014690147 0.0005043332 0.0015580571 -0.0020865668 0.000103826926 0.0028769206 0.0020344497 -0.00047435536 0.0022243306 0.003482525 -0.0036620179 -0.00036283483 -0.00032483193 0.00012295772 0.0037223864 0.0002710404 7.542691e-05 0.0034200002 -0.0020258774 -0.0017568697 0.003262492 -0.00054310565 0.0026000699 0.0020702663 -0.0010231675 0.0037854558 -0.0016899732 0.0011285822 -0.0020176165 -0.0038837388 -0.0002744041 -0.0005857475 0.0006766523 -0.00031131424 -0.00012323988 0.002381671 -0.0004403852 0.0019348678 0.0021442163 0.000823043 0.0012409841 0.003187333 -9.45689e-05 -0.003331903 -0.00043365103 -0.0037271567 0.0035183239 0.0021385401 0.0024426144 -0.0020962846 0.002533725 -0.0009346705 0.0015808773 -0.0014246188 0.0020833896 -0.0007530706 -0.002837756 -0.0018441557 0.0027775087 -0.0010929456 0.0009843188 -0.0034217096 -0.0034923782 0.001097016 -0.003956266 0.0024034637 -0.0023406956 7.541629e-05 -0.0025399867 -0.0027175334 -0.0009976386 -0.0001412222 0.0022105002 0.00075134385 -0.0016645049 -0.0005095416 0.0030611116 0.0023136807 0.0032497726 -0.0013482312 -0.00048587116 -0.002533286 0.0015551624 -0.0033906777 0.0003513471 0.0019794637 0.0019169324 -0.0030949966
2654 0.0037418937 0.0015883937 0.0008962602 0.002897859 0.0004856078 -0.0023772898 -0.00010591858 -0.003714556 -0.00044816217 -0.00010005585 -0.0023711945 -0.0033511657 0.0008259333 0.001323758 -0.002901637 0.0028162715 -0.0027425834 0.0038603747 0.0031343435 0.0011759419 0.0011490895 0.002765743 -0.0031899784 -2.6450316e-05 0.0023935018 0.0010249713 -0.0037830542 0.003544009 -0.0015223292 -0.0019501335 0.00026321376 -0.0008155644 -0.0030646953 -0.0009521069 -0.0006162509 0.00017799158 -0.0033630328 -0.0031440055 -0.0024752007 -0.0029594244 -0.0026365109 -0.0026937004 0.00014767805 0.0032567824 0.0032035362 -0.0026432998 0.0020101115 0.0017308324 0.0008885181 0.0037369288 -0.0030169098 -0.0024323475 -0.00012606326 0.003372674 0.0032339024 -0.00042800998 -0.0014453285 -0.0029844407 0.0010071894 -0.003817943 0.0006024611 0.00090906385 -0.0012825761 -0.0031421431 -0.0016723478 0.00053516787 -0.0033071989 -0.0022560938 0.0011574976 -0.0013845002 0.001203373 -0.0010683789 0.0012779334 -0.0039319843 0.0016561341 0.0018369958 0.0016851653 -0.0033779477 0.0038934043 -0.0035456219 -0.002103959 -0.0028204846 0.0014567829 0.002046011 -0.0013569994 0.0034424986 0.0029947155 0.0032842436 0.0010549612 0.00085607124 0.0011213503 -0.0038057282 -0.0018216803 0.0003202544 0.0020303447 0.00021914541 0.00078986725 0.0010894003 -0.0016909223 -9.2627386e-05 -0.0018326151 0.0026307318 -0.0019752062 0.0025324149 -0.0005944931 -0.00064096024 0.0022522954 -0.0033290982 -0.0027884333 0.0030642955 -0.0011734439 -0.0032292265 0.0037865438 -0.00027619748 0.00044572566 -0.0018490646 -0.00053981505 0.0018245388 0.0036988833 0.0028037904 -0.0012464763 0.0009435959 -0.00015743928 0.002859938 0.0024904315 -0.003819598 -0.0024786522 -0.0014532759
230879 0.0004480875 -0.0032086973 -0.0012504834 -0.000748322 0.00106147 -0.0004558867 -0.0028878588 -0.0013698628 0.00042288165 0.00243682 0.00089495257 0.0032378677 -0.0029250856 -0.0010123793 -0.0031015333 3.3700286e-05 0.0024337517 -0.0024012995 -0.0032662125 -0.00065808115 6.933183e-05 0.0032211728 9.251583e-06 0.0030568228 0.0015632898 -0.0033852009 0.0034984061 -0.0020805588 0.0029906563 0.00045696576 -0.0028426293 -0.0020503805 -0.0027738435 0.00021008978 -0.0005818828 -0.0005733833 0.0031959298 0.002997963 0.001744613 -0.0014445126 -0.0008660474 0.0002257304 -0.0030139694 0.0016675896 0.0011687053 0.0015325964 -0.0018989954 0.0029169263 0.0017370298 0.0010049382 0.0004364769 -0.0029234337 0.001814961 0.0017070725 0.0010687377 -0.00039364322 -0.00038254895 0.00014791102 -0.0022385437 0.0036627182 0.00377679 -0.0014059531 -0.00019460084 -0.0035221234 -0.0024299903 0.0029886125 0.0018373497 -0.00036012867 -0.0022921648 -0.0030845401 -0.0006713533 -0.0009913766 -0.002954006 -0.0014881789 0.0035482948 -0.0026552377 0.0034106264 -0.0025101942 -0.0021632013 0.0009564225 -1.2001383e-05 -0.00013184003 -0.0019690234 -0.0001781648 0.00043838873 0.0033858048 -0.0014428124 0.0014437009 -0.0014607752 0.0012620632 0.0033260854 -0.00037523723 -0.0020667 0.00017149509 -0.0030961263 0.0006797358 -0.000348589 -0.0016009063 -0.0003686177 -0.0032225435 0.0005996442 0.0030867604 -0.000794844 0.0028371392 -0.0014899832 -0.0038377624 0.0032553237 0.0016531876 0.00019589174 -0.0032511614 -0.0010690099 0.002037918 -0.0035171616 -0.0002369752 -0.0023383878 -0.00047955464 -0.0013327362 -0.0007645114 0.0016865266 0.0025919843 -0.002655452 -0.0024426766 -0.0029777277 0.001843826 -0.0010857293 0.002458696 -0.0032877713 -0.0022966533
15429 -0.0033300077 0.0024862315 0.0028372584 -0.002404387 -0.003818739 -0.00370131 -0.00034012855 -0.0030637318 0.0008001993 -0.0006372696 0.0021081713 0.00014556739 0.0011005336 0.0009748819 -0.0011309717 -0.00013525118 0.0037771256 -0.0021236837 0.0028521789 0.0017899777 -0.0032165302 0.0030389118 -0.0027610052 0.0005017667 -0.000602801 0.0018439491 0.002896704 0.003488134 0.0009714206 -0.00059919874 0.0032345217 0.001931923 0.0017621059 0.0024958826 -0.0015259801 -0.0027365615 0.0016352873 0.003263408 -0.0032761607 0.0015340488 0.0020598427 0.0008793795 -0.001934924 -0.002209864 0.0017937936 0.002276113 -0.0033253445 0.00014907216 -0.002233791 0.0024582497 0.0025245766 0.0024497667 -0.0014439562 -0.0026478483 -0.0025171991 0.0026942769 0.00267036 -0.0026616245 -0.003181277 -0.002091012 -0.00044040318 -0.00020965839 -0.003486748 0.0021522625 0.0014965473 0.003607908 0.0036256814 -0.0030992809 0.0032333117 0.0021308395 0.001291524 0.001801314 -0.0036676426 -0.0019055312 0.0010889661 0.0032280367 0.0008169533 0.001937869 0.0007269055 -0.0018860723 -0.0031128414 -0.0038656215 -0.0003621132 9.930974e-05 -0.0007109404 0.0010119643 -0.0012564855 -0.00026713128 0.0025924607 -3.5362467e-05 -0.00090438605 0.003910349 -0.0027627752 -0.0019665835 0.0015851342 -0.0008327659 -0.002657173 -0.0026532994 0.0029848097 -0.00020350846 -0.0014194321 -0.003136116 0.0019401774 -0.0010971602 0.0034482128 0.0031946443 0.0035516904 0.0012939312 0.0017070774 0.0018564024 -3.6485457e-05 0.0008793333 -0.0030597528 0.0026063514 0.0035708416 -0.0024243058 -0.0020228445 0.002383721 0.0016688957 0.0018868906 -0.00044102955 -0.0024663138 -0.0011347805 -0.0015920687 -0.0003797868 0.00019301049 0.0006674752 -0.00013608272
2658 -0.0033245042 0.0025074224 0.002591582 0.0014950691 -0.0010829031 0.0013272506 -0.0010294089 0.0021113323 -0.0038510913 0.0033626654 0.00096002413 -0.0029457621 -0.002736682 0.00022137894 -0.00180976 0.0022939672 -0.0014086404 0.0023191639 0.00060312473 0.0018034368 0.000890112 0.0028188687 0.0009424269 -0.0024348272 -0.0030298568 -0.0037374233 0.003227776 0.0028158948 -0.0015052225 0.002235102 0.0025697686 0.0038492472 -0.0026871206 0.0012716808 -0.003365206 0.0033221482 0.000869496 -0.0016378093 -0.0025684382 -0.0009588009 0.0021971946 0.00017565457 -0.0007998838 0.0016381245 -0.0023771233 6.5853565e-06 -0.0013907433 0.00053589244 -0.0033346897 -0.0013874127 0.0005315121 0.00093841314 0.0024715222 -0.0010510738 -0.0011157675 0.0016287672 -0.00086721056 0.0032951299 0.0017566953 0.0006739438 0.0037779354 -0.0015571463 -0.001593286 0.002308625 0.0017168532 0.0030375582 0.0028345468 -0.0035957731 0.0026622314 -0.0017743163 -0.003687452 0.0007262963 -0.0010649835 -0.0028702167 -0.00048135215 0.0014067269 0.003577973 -0.0006572677 0.0009129656 -0.0032466638 0.0015770623 0.00156062 0.002754666 -0.000106141975 -0.0013563442 0.00032106956 -0.0013504882 -0.0012566816 0.0018956441 0.0033484024 -0.0031845996 -0.0015017497 -0.0033034827 0.0014315144 0.0010477694 -0.002770761 -0.0010074077 -0.00010720286 -0.0012185753 -0.0038885055 0.002811139 -0.0024916993 0.0023778353 -0.0035617151 -0.0018399842 0.0033124469 -0.0011987526 -0.003346008 0.0037064692 0.0018733559 0.003206869 0.003578172 -0.0028257486 -0.00041130924 0.0014205413 -0.00053940574 -0.0032019091 0.0024398235 0.0010586011 0.0033676233 -0.003597967 -0.0016945349 -0.0012991243 -0.00197633 0.0037150176 -0.0008520924 0.0012103212 0.003340416
2653 -0.0024187798 0.00089662726 -0.0021438284 -0.0038513455 0.0027090397 -0.0035174058 -0.0014697121 0.0022015239 0.0004871693 -0.0029803058 -0.0014251363 -0.0010593914 -0.0022867569 0.0016087329 -0.0024549295 -0.002752333 -0.0019770432 -0.0021344204 -0.0031100078 0.0032300167 -0.0035986644 -0.0010656307 -0.0010710052 -0.0010626965 -0.00021971979 0.0013259347 -0.002656546 -0.0024236867 -0.0018719133 0.00018171317 0.0025305368 -0.0023457583 -0.0027737564 -0.0035021203 -0.0012294685 -0.0019185176 -0.002940467 0.0003251839 -0.00045650598 0.0011610714 0.0018260649 0.00035701765 0.0014145273 0.00213975 0.0028609636 -0.0021098903 0.002097106 -0.0009336982 0.0035269093 -0.0011225885 0.0014846168 0.00038812842 -0.00016831742 0.0011105508 0.0016279734 0.0017761927 -0.0008359082 -0.0015823399 -0.00036662456 0.0032135898 -0.00088063476 -0.0017789614 0.001142615 0.002401365 -3.923357e-05 0.0030206272 0.0006857183 0.003095394 0.0035829928 -0.0027708663 0.0012446903 0.003653765 -0.002554792 0.0014832655 0.001965453 0.003291351 -0.0028244583 -0.0005386874 0.00022891068 -0.0021063387 -0.0023429429 0.0024796755 -0.0014397769 -0.002847769 -0.0031982118 -0.0013952611 0.003662965 -0.00087760366 -0.00061178615 0.0038174994 0.0016445009 0.0039238497 -0.0023587246 0.0016637392 0.0019144043 -0.0015451572 0.0028172901 0.000719098 -0.0005641587 0.0015976161 0.0022748914 0.0015873415 -0.0013846508 -0.002781197 0.0015523493 -0.0038355195 0.0019506224 -0.0008799193 0.0027422656 0.0025530849 -0.00019183404 0.0030573683 0.0003838511 0.00028285632 -0.002985601 0.0020752572 -0.00037370948 0.002227651 0.0014546283 -0.0014899642 0.0025044489 -0.00015035337 -0.0015102314 -0.0014504349 0.002996688 -0.0024894415 -0.001501115 -0.0029093898
89547 0.000537989 -0.0030410767 0.0017083938 -0.00074710744 -0.0014498067 0.0038784007 -3.1054165e-05 0.002540464 0.0006229651 -0.0011166807 3.8292783e-05 0.004008651 -0.0032197982 0.002618049 -0.002680917 0.0021791863 0.00071386434 -0.0037415717 0.0030708786 0.0003342118 -0.0034781669 0.0013618424 -0.00016067886 0.0009230688 0.00061939313 -0.00062543625 -0.0007473097 0.00045079074 -0.0014230978 0.00038489504 0.0036858215 0.0035341796 -0.002385467 0.0015592625 0.001009113 -0.0017436608 -0.00018917788 -0.0011455284 -0.0010679265 0.001832674 0.0015635907 -0.0010341972 -0.0011781362 -0.00062765175 0.002963688 0.0020095387 0.0007703342 0.00036289523 -0.0014854816 -0.001438276 0.0009692874 -0.0010685143 0.0013668461 0.0037560326 0.0035613126 -0.0032458738 -0.0030082988 -0.0030585313 -0.0030678927 -0.003345321 0.0004542401 0.0017722229 -0.0003688211 0.002272552 0.00031628387 -0.003321792 0.003696289 -0.0022113854 -0.0038319796 0.0006875773 0.0036832718 0.0033363195 0.001333621 -0.001571426 -0.0018036958 -0.0018746885 -0.0016937214 -0.0025472092 0.0012079733 0.00022271213 0.003394467 -0.002174784 -0.0008940055 -0.0011509116 0.0008817272 -0.00039932967 0.0028133967 -0.0033264945 0.0024576434 -0.0003298262 0.0030556547 -0.0038744572 0.001604062 0.003497747 -0.0010948527 0.003455016 -0.0010173357 -0.0034309991 0.0024782936 -0.00083452096 0.0031562927 -0.0039605843 -0.001319277 -0.0004931725 -0.0017444955 0.0016690001 -0.0036531389 0.0017144919 -0.00014647581 0.0029479582 0.0022861883 0.002140706 0.0033894025 -0.0015811536 0.0013650752 -0.0028273433 -0.0003286325 -0.0037238498 0.0034509217 0.0015768845 -0.0022491554 0.0030293798 0.0016276264 -0.0023032923 -0.0006895397 0.0036677334 -0.0036922176 -0.00013795786
2696 -0.0032698042 -0.00092762796 0.0031856624 7.739267e-05 0.0037960531 -0.003394104 0.002962453 0.0017321848 0.00077914767 -0.0019320592 -0.0031093901 -0.0010048356 -0.003186561 0.0008227786 0.003100303 -0.0010392683 -0.0022690287 -0.0005308724 -0.0033967737 -0.0008044614 0.0030570254 0.0010088552 -0.0005674242 -0.0011178411 -0.0022489533 -0.0037621774 -0.0024879102 0.002240227 -0.0023666976 -0.0032046286 0.00023226114 -0.0036862711 -0.0030813254 -0.0021409467 -0.0031665587 -0.0022132227 4.040404e-05 0.00028098386 -0.0008213527 0.0016458252 -0.0016181442 -0.0036979544 -0.0012425426 0.0037303634 -0.0034447042 -0.0028191092 0.00095297524 -0.0026973032 0.0016902643 -0.002199995 -0.0003788929 0.0006739279 0.0026683372 -0.0009773441 -0.0008851203 9.944812e-05 -0.0039388486 0.0016062914 -0.00049122714 0.002548896 -0.0024730302 0.0009871407 -0.0036282812 0.001054264 -0.0032546467 -0.0038773515 0.00057951617 -0.0028069846 -0.0003866798 0.00016400551 -0.0037099076 -0.003501899 0.0011483892 0.0024921715 -0.0025729248 0.001239851 0.0011901556 -5.4098353e-05 -0.00060660054 0.00021811269 -0.0036431195 -0.0031070055 -0.0028349732 0.00019593502 -0.0034776216 0.0012452585 0.000107527914 -0.0002659458 -0.00016026164 0.0013253564 -0.002896547 -0.0014968226 0.00039996652 -0.0010572681 0.0036043376 -0.0006366066 0.00012085154 -0.00036399238 0.0011999573 0.0008219102 0.0007059765 0.0021187721 0.0010057993 0.0009990231 -0.0018532713 0.0032397641 -0.0034748265 -0.0028550727 0.0012809926 0.0017865245 0.00010384762 0.00062067725 0.0015077752 0.0020035056 -0.0006475921 -0.0019099402 0.00076471234 -0.0036901394 -0.0011870104 -0.0003226922 -0.0021151258 -0.00086795544 0.0014144396 -0.0010504228 -0.0013262712 -0.0007153107 0.0010372229 0.002261389
4335 0.0015594347 -0.0038228922 -0.0034611383 0.003649713 0.00077428995 0.0014344329 -0.0027339654 0.003599251 -1.5690537e-05 0.0023765427 0.0032056835 -0.00014911733 0.0036671988 -0.002419473 -0.0037682971 -0.00044359418 -0.0023720695 0.0014760593 0.00036199891 -0.0011357841 0.0017846113 -0.00027726401 0.0024107348 0.001081293 0.0014968637 -0.0029401632 -0.0023253043 -0.0026215382 -0.0034573434 -0.0003600889 0.0015756765 0.0006056491 0.00012336574 0.0016351005 0.002997525 -0.003695411 -0.0006260022 -0.0038763937 -0.002261204 0.002703579 0.0031388232 0.0032148107 -0.0037959365 0.0021969413 0.0012059374 -0.0017764659 0.0031621759 0.00017903105 0.0017542623 0.0013907555 -0.0017887059 -0.0026345102 0.0019204421 0.0006318836 -0.0019585975 -0.00201352 -0.0016894001 0.0028089448 0.0028701164 0.003911406 0.0014374501 0.0012671534 3.4249344e-05 0.003318729 -0.0023547641 0.00257551 0.0032205295 0.0037210472 0.0026852542 0.0031457962 -0.00011235869 -0.0016513657 0.00038782274 0.0011469797 -0.003370219 0.0014007988 -0.0016971789 0.0014077333 0.0014423531 3.8231756e-05 0.0031703762 0.0019092116 -0.0010346655 -0.00085460173 0.00329448 0.0033312049 0.0027570259 0.0016030954 0.0034901246 -0.0030024801 0.0017321736 0.0036398668 -0.003149799 0.0021234162 -0.0036927785 0.0031037808 0.001700831 -0.0027681433 -0.002621727 -0.002941501 -0.0023988488 -0.0021622698 -0.0012168837 -0.0004266081 0.0029572004 0.00045182422 0.0027601053 0.00032907596 0.0030156774 0.0037274172 0.0007384425 -0.0002846004 0.0003970992 -2.4032734e-06 -0.0016615264 -0.0015618096 0.0008071215 -0.00091504666 -0.0009252337 -0.00052736123 0.00018248655 -0.0036826578 0.00086998043 0.0021869466 3.707525e-05 -0.0018307688 9.283178e-05 -0.0016574615
12350 -0.0032430438 0.0029798888 0.003006486 -0.001143763 -0.0038398663 0.0032758792 -0.0012635541 -0.0015938623 -0.0018478096 -0.0024259544 -0.0033137128 -0.000973463 0.0033838828 -0.0017487056 -0.0003133457 -0.00012451282 0.0014776252 0.003034009 -0.002513949 0.0028715478 0.0009128644 -0.0020443047 0.00328266 -0.00038435106 0.0017760198 0.0036050908 0.0011210146 -0.002245049 -0.0025880742 -0.0030559048 -0.0018183115 0.0006037325 -0.0027236291 -0.003355626 -0.0027400106 0.0032889142 -0.0011163346 0.0013148282 -0.0004945698 -0.0028061962 0.0032517323 0.00036833558 0.0022999777 0.0028815807 -0.0029998268 -0.0012255902 -0.001088288 -0.00086128677 0.000643179 0.001697263 -0.0004711224 0.0012678204 -0.0034645912 0.001426036 0.0007058699 0.002226432 0.0026395975 -0.0007620434 -0.003391868 0.0027834051 0.0013271115 -0.003712329 0.002862364 0.0029128403 -0.0014051782 -0.00028044652 -0.0009601218 0.0028208182 -0.00054010923 0.001410454 0.002333278 0.0002106065 0.0021138384 0.001967763 -0.00022214795 -0.0017596309 0.0012397472 -0.0036618449 0.0038427918 0.00045299888 0.0033856537 -0.0028580916 0.0020718402 -0.0023115806 -0.0037265338 -0.0013240322 -0.0022026217 -0.0036825668 -0.0035723955 0.0016477752 -0.0038068788 0.0020735902 0.0021047809 -0.0015019837 0.0007709426 0.0025746482 -0.0032963066 -0.002687053 -0.0020603072 0.00028555974 0.0032881545 -0.00046548242 0.0037302247 -0.0025719532 -0.0018614335 -0.00011618143 -0.0015502593 -0.0031641964 0.0010107415 -0.002631278 0.0012011711 -0.0014882063 -0.0012044194 -0.0018348163 0.0008920137 0.0037373346 0.001426475 0.0001994572 0.003733463 0.00030463078 -0.0012408199 0.0009667718 0.00015794559 0.0032827521 0.0025061416 -0.00037550146 -0.001957994 0.0022429626
10183 -0.0023942897 0.00064263854 0.0018632999 0.00017431997 0.0020995957 0.0014947299 -0.0032755085 -0.003438743 0.0038535818 0.00096637604 -0.00049129257 0.00086363207 0.0021529056 -0.0037852372 -0.0018322432 0.002758427 -0.0026979174 -0.0036378258 0.0020780135 0.0020741986 0.0024701052 -0.0020624306 0.002046581 -0.002921017 -0.000956059 0.0023160581 0.0039446554 -0.0004466055 0.0009125203 -0.001099685 -0.0030649642 -0.00079687225 0.0007388147 0.0025670154 -0.00030717588 -0.0011956793 -0.0036401828 -0.002741033 -0.0008981587 0.0025136082 -0.0033693798 -0.0021138887 0.0022148706 0.0016969533 0.0017158136 0.0003547164 0.0019335813 -0.002166858 -0.003114091 0.0034452125 0.0024168994 -0.0024597852 -0.002800228 -0.0016169044 0.0017780038 0.0033130522 -0.00089516287 0.00087968784 -0.00056014606 -0.00023185585 -0.00018633473 -0.0032853484 0.0006183852 0.0031934686 0.0032613615 -0.0013583002 0.002411961 0.0011589712 0.0008746617 0.001135061 0.003200733 -0.00044015623 -0.0038353691 -0.0010388813 -0.0015975541 0.0019016409 0.0020136642 0.0014419551 0.0013664564 0.0007016636 0.002026653 0.0028429648 0.0022063572 -0.0013851345 0.003121595 0.00066980097 0.00016369658 0.0025223868 0.0029719914 -0.001440664 0.0023915814 0.0017668157 0.00062924676 0.0037142949 0.001159729 -0.0009561164 0.0018857103 -0.0039019366 0.0037873255 0.00074200315 -0.0017201083 0.0014350361 0.0025606712 -0.0014638137 -0.003666548 0.000115443465 -0.0030588505 0.0015689892 -0.0035720821 -0.003307387 -0.0013227576 0.0038478957 0.0003256062 -0.0010605184 0.0029112797 0.0030322478 0.0024164943 -0.0016532865 -0.00036095557 0.0031934055 0.0025570404 0.0013972769 -0.0036995623 -0.003600554 -0.0018503706 0.0028256953 -0.0017740477 0.0032401867
645016 -0.0016198737 -0.0009110578 -0.0029308524 0.0038285803 -0.0018167585 3.0382726e-05 0.003964277 -0.003101279 0.0012843157 0.0022681921 0.0034928108 -0.0023738472 0.003525651 -0.002012519 -0.002193716 0.0005124382 0.0029489154 -0.00046864676 0.0007949736 0.0029621762 0.0037004382 -0.0017871357 0.0039137825 0.0034231662 -0.0005379752 -0.0026209757 0.0028596283 0.0031561658 -0.0009110062 0.0023728223 0.0027868575 0.0025274337 -0.000561677 0.0017607509 -0.0010947256 -0.0007780731 -0.0029391034 -0.0021610556 0.00011968643 -0.0030931612 -0.0036512718 0.0016663953 -0.0030856787 -0.0035221903 -0.0039776755 0.00012242772 -0.0039232215 -0.0019060927 -0.0021248867 0.00038572313 0.0027355903 0.0006869297 0.0025635846 -0.0032598758 0.0021616353 0.00026457364 -0.00013345349 -0.003935422 -0.002078797 0.0013603837 0.0032056575 -0.0023264065 0.0014491859 -0.003817041 0.0016714007 0.0011032948 0.003949717 -0.0011932579 -0.0028965047 0.0023392711 0.0025804092 0.0018470219 -0.0009347612 0.0011603372 -0.0033619439 0.003586228 -0.002242418 -0.0013610489 0.0006522634 -0.0021168827 -0.0009937988 -0.003292273 -0.0035769802 0.0033539166 0.0015166414 0.0022627302 -0.0035289172 0.0028585955 -0.0024176904 -0.0034985193 -0.0039142193 -0.0015136586 -0.0007189325 -0.0029816686 0.0020829407 0.00060018065 0.0033553306 -0.0032550858 0.0013507508 0.002835638 -0.0029050724 0.0012211737 -0.0022904954 -0.0011603917 -0.0024032008 0.00087945344 0.00040602367 -0.0016497488 0.0026838954 0.0014986709 0.0022609027 0.0005321093 -0.00392616 -0.00051832286 0.00023253875 -0.0019199577 0.001544384 0.0026474013 0.0026441477 -0.0037330762 -0.0017354281 -0.0037379428 -0.002049832 -0.0035563142 -0.00040086286 0.0023435608 0.0036974212 -0.0037233564
3243 0.0014105012 0.002984087 -0.0038839795 -0.00032636823 -0.0012845317 -0.0019276978 -3.004294e-06 -0.002988295 -0.0008749075 0.0017715612 -0.001381229 0.0035061229 -0.002461947 -0.0009958823 -0.0020211965 -1.4878175e-05 0.002595958 0.0006033338 -0.0031567537 0.0016450036 0.0018846638 0.0027018965 -0.0017023308 -0.00030303898 -0.00035944587 0.0031887642 0.003997768 -0.0014938879 -0.0020274245 -0.0012758708 -0.0011941618 0.0024395508 0.0029115567 -0.0027861618 -0.00014341754 0.001331809 -0.0004755226 0.0030596175 0.00042618986 0.001607104 -0.0014813659 -0.0005049423 0.0019494436 -0.0023667659 0.0005033523 -0.00040337746 -0.0027766947 -0.0027314296 -0.0016012422 0.001610292 0.00032239623 0.0038463466 -0.0016346198 0.0008102632 -0.00022486475 -0.0020444023 0.003908014 0.00034184975 0.0024945908 -0.0010411575 -0.0033969409 -0.0012733373 0.00070224615 0.002825015 0.0014439613 -0.0011714611 -0.003415499 -0.001006035 5.572327e-05 -0.00037015261 0.00079478987 -0.0003437769 0.0003827948 -0.00015168083 0.003238054 0.0022180812 -8.243789e-05 0.0018490336 0.003591445 0.0009725831 0.002471892 0.0008019345 0.0036657816 0.0015751013 -0.0039616567 0.0038101426 -0.0024546753 -0.0011282194 0.003659294 0.00018830664 -0.00060313795 -0.0023624608 -0.002887492 0.0024151483 0.00021369162 0.0020365652 0.00022565802 -0.0016891864 -0.0014099018 -0.00048109662 -0.0009007307 -0.0017942898 0.003562266 0.0034677256 0.0024207067 0.00013563219 0.0039390954 0.00082587224 0.0033924796 0.00064299454 0.0006299564 0.0006966065 0.0007931209 0.0010365148 -0.0035887451 -0.0037867776 0.0023143026 0.003961351 -0.0029740215 -0.0034956238 -0.003707634 -0.0030902477 -0.0013289942 0.002928673 0.0027668984 -0.00041813482 -0.0011111638 -0.002186747
16819 -0.00042323768 0.0010005183 -0.0008879786 0.0002765386 -0.003439299 0.00281744 5.735305e-05 0.0034178267 0.002406568 -0.0028528373 -0.0027916303 -0.002319988 -0.0033062627 0.0029209955 -0.0036475195 0.0035966116 0.0016642645 -2.6381098e-05 0.0015633163 -0.0006622599 -0.0027371056 0.003548678 -6.064015e-05 0.0013547054 -0.0034681608 5.1080897e-05 0.0030234267 0.0017571774 0.00034871427 0.0023101424 0.0028838634 0.0032183428 0.0009888505 0.0034500752 -0.0011080817 0.0024059168 0.002684798 -0.0035284387 0.0001692893 0.0030981693 -0.0032251284 -0.002352935 0.0008125356 -0.0019879546 0.0038338408 0.0002474495 0.002490143 0.0013043697 0.0022828078 -0.0012138196 -0.0028171134 0.0031609435 0.00012722549 -0.0022804341 0.0020006774 1.1493357e-06 0.0004693227 -0.0003585885 -0.0004804604 1.3448899e-05 -0.00044342503 0.0037663325 -0.00057123735 -0.0013856415 0.00033082414 -0.0033955455 0.002228127 0.0025655397 -0.0033676156 -0.001122025 -0.0007818882 -0.0018255595 -0.0037520602 -0.001847019 -0.00031950045 0.0038950602 0.003474726 -0.0010448685 -0.003103971 0.0036299927 -0.0024296362 0.002828084 -0.00019471557 0.0033875476 -0.00069858524 -0.003353758 0.0016996771 -0.0012860332 -0.0019311802 -0.0030650585 -0.00082269404 -1.2460987e-05 0.0024521404 -0.002023498 -0.0030848712 -0.0012668243 -0.003486241 0.0005997698 0.0024779276 0.00034604018 -0.0026795804 0.0009038598 0.0009358925 -0.00089113944 1.558698e-05 0.0011214537 -0.0025679388 0.0007101797 0.0023547544 0.0015267339 0.0035485106 -0.0017661763 0.0022805987 -0.00092684047 -0.0002526489 0.00036619723 -0.0031401957 -0.0012745876 -0.00030002205 0.0017877131 -0.0008706291 0.0019971097 0.00038760906 0.0019943605 -0.0022992422 0.0002442325 -0.0010459855 0.003939706
34257 -0.000965653 -0.0015334311 0.0006697465 0.0020785886 -0.0032328414 -0.0004119895 -0.0030289649 -0.0022144224 0.0014534419 0.0031454887 0.0008679167 0.0004875772 0.0036076598 -0.0038942099 0.001143833 0.0023493576 0.0020781427 -0.001820744 -0.0015760569 -0.0025840849 -0.0007073373 -0.0017763207 0.0029224362 -0.0026018096 -0.0032780091 -0.003163381 0.0021594402 0.002255465 0.0008661835 0.0025827957 -0.0025844357 0.003248755 -0.0025463414 0.00028678894 -0.0012392091 0.0033123498 0.0023683296 0.0013575245 0.0029758748 -0.00236977 -0.001412777 -0.002571762 -0.00066616177 -0.0037132313 0.0032323974 0.0022325576 6.2767936e-06 0.0008938448 -0.00039471814 -0.0007779316 -0.0015178635 -0.002940794 0.0033624303 -0.0002743443 0.0033925197 -0.0018950829 -0.0018512782 0.00046373165 -0.00077615405 -0.00059008494 0.0021397602 -0.00021902032 0.00020587708 -0.0029039728 0.0032621664 -0.0008677108 -0.0013482239 -0.0022589706 -0.002597664 -0.00097626616 0.0024859386 0.0018501278 -0.002751203 0.0017999804 0.0029375306 0.0025965062 -0.0028869703 0.0022631944 -0.0039200117 0.0031984393 0.0029613422 0.0035302227 0.0019887167 0.00055313075 -0.0023007297 -0.0034955977 0.0026150243 0.0009237845 -0.00032250697 -0.0009304888 0.0032689292 0.001579753 -0.0037423058 0.00042576576 0.003404097 -0.00044430813 -0.0030667456 -0.003829772 0.002526682 0.0023209408 -0.0025141765 -0.0011631355 -0.0017474568 -0.0004588968 0.0026806018 1.8525201e-05 -0.0003133256 -0.0015731013 -0.00077098963 0.0005082314 0.0027794063 -0.003504481 0.003689193 -0.0008625241 0.00045152384 0.0012022671 -0.0036938442 -0.002123571 -0.00037175967 0.0008394042 -0.0020885086 0.0016992412 0.0017245394 0.0003995718 -0.0015080207 0.00036261056 -0.00030313912 -0.0001358008
3218 -0.0012738223 0.0021408894 -0.0027885495 -0.0027566834 -0.0018898201 0.000527121 0.0006201959 -0.003934834 -0.0035439245 -0.002094363 -0.0009340473 0.0039779996 0.0037305118 -0.0011618517 -0.0032391667 0.00056869444 -0.0031653165 -0.0034243145 -0.0023886762 -0.0030153997 -0.001643562 -0.0018877406 -0.0011484231 -0.0029912374 0.00024191452 -0.00342464 -0.0015218437 0.001234009 0.00047193328 0.0001854728 0.0035154559 -0.0022308799 0.0011835033 0.0026035372 -0.00298955 -0.0011816036 5.4333843e-05 0.00019110694 -0.0024729841 0.0004473345 -0.0025309343 -0.0009153941 0.00054895337 -0.0025492008 -0.0019576652 -0.0024859349 0.002052551 -0.0030687838 0.0015614185 0.0011549809 0.0036683078 0.0024476333 0.00048113166 -0.001249587 0.003609451 -0.0032764743 0.0017042517 0.0013475439 0.00088928477 -0.0033570777 -0.0024470056 -0.00077693013 -0.0031356676 -0.001705289 0.00013976102 -0.0023176507 -0.0016642981 -0.0024883514 0.0023725652 -0.0006600643 0.0011087782 -0.00018912803 0.0022189212 0.0035079033 0.0005092949 0.002922755 -0.0026627681 -0.0009786333 0.0035407841 -0.0021101264 -0.0025678906 0.00116888 -0.0017518495 0.0023344168 0.002181871 0.0031073198 -0.000758151 0.0016041273 -0.0024402027 -0.002194774 -0.003616349 0.0023036313 0.0018102105 -0.0026070988 -0.0019410127 -0.0014690246 0.00295949 -0.00019982914 0.0026740714 -0.0025139193 -0.0013793736 -0.0037992157 -0.00023249276 0.0032145758 0.0024562934 -0.0037204677 0.00029340212 -0.0035463797 -5.6109708e-05 0.0035913475 -0.0038219872 0.0025499037 -1.6004735e-05 0.0010892373 0.001299338 -0.0010926785 -8.973153e-05 0.001369274 0.003213067 -0.0037689814 -0.0038788186 0.0025525657 0.0015262181 0.003146463 0.00034663393 0.0021661078 -0.003540791 0.0031396304
5086 0.0026984436 0.0021533447 0.002247196 0.0016729747 -0.002258424 0.0037995528 -0.003149593 -0.0028035515 0.0013702698 0.0023157345 0.0019331808 -0.0030598054 0.0014352114 -7.182852e-05 0.0020616846 -0.0024986311 -0.0024988228 -0.0029569643 -0.0009704593 -0.0012145429 -0.0028891582 -8.412262e-05 0.00074359594 -0.0037896133 0.00247466 5.1183815e-06 0.0034460835 -0.00065926596 0.0033194297 -0.0037821962 0.0015293425 -0.0035029724 -0.0012610636 0.0036103276 -0.0012933237 -0.0007659129 0.002510804 0.00094006164 -0.0010371095 -0.0016170193 -0.0002516195 -0.0029117637 -0.00014242287 0.0012044366 -0.00020916578 -0.002043589 -0.0008974057 -0.0019786283 -0.0026754919 0.003853045 -0.0036939671 -0.00015138122 -0.0021570818 -0.0015443976 -0.00045569136 -0.0030484267 0.00138968 0.0014355256 0.0024369084 0.0016772462 -0.003174231 0.0021214082 -0.00044159347 -0.00039426525 -0.0030902734 0.0018862995 -0.00016758307 0.0026111319 0.0021524378 0.0034778889 -0.001600854 -0.0025416673 -0.0025116936 0.001273049 0.00058266195 -0.0036569715 0.00037070972 0.0024332635 0.0026508847 0.0035309843 0.0012772949 0.0022851261 0.001352755 0.00025930817 -0.0032221097 0.0005198777 0.0008807697 0.0023650164 -0.0018791482 -0.001659963 -0.0016643523 -0.0013974766 -0.00095135684 -0.0028400251 0.0031652371 -0.0017160017 -0.0033635674 -0.0031953354 -0.0006765048 -0.0037492467 0.0028592753 0.0027959102 0.0014816157 0.00013832576 -0.0010976866 0.0025161016 -0.003169072 0.0026534426 8.594063e-05 -0.0014514963 0.0001906583 0.0015781574 0.0014858939 0.0014299881 0.00096366374 0.003948114 0.0020750323 -0.0029814655 0.0009860832 -0.0020715308 -0.003690275 0.0009650291 0.0018347374 0.000490368 -0.001029965 -0.0029207962 -0.0007994086 -0.0038329016
5064 -0.0004961399 -0.00153607 0.0016519569 -0.002838874 -0.0020999068 0.0040035024 0.0011533519 0.00057167147 -0.001155815 -0.0011712133 0.003661482 -0.0028723283 -0.003555068 -0.0009520323 -0.0039533717 0.0005370482 0.002836259 -0.0031673517 -0.0027599162 -0.0027060355 0.0034096846 0.0034487504 -0.003279391 0.002805115 0.0020529318 0.0018848586 0.00077882054 0.0023033402 0.002340662 -0.00051941007 0.0029666568 -0.00028456768 0.00270774 -0.00052674493 -0.0012205971 0.0031869141 -0.0036572616 -0.0024184403 -0.00025432472 0.001363725 0.0009042735 0.0011286039 0.0017319138 0.002976832 -0.0019139487 -0.0027130807 0.0036595357 -0.0035035273 0.0033878698 0.0029038426 -0.003183217 -0.00023318 0.00072662253 0.0012729543 0.0001323628 -0.0010625451 0.003838542 0.0019931179 0.0027889535 -0.0023101764 0.0021621347 -0.0030901185 -0.0004527911 0.0010512241 0.003509512 -0.0029175722 -0.0013007517 -0.0033646054 -0.00088902295 -0.002248962 -0.0013478659 -0.0010249183 -0.001392905 -0.0027618057 0.00071336824 0.002397064 -0.00010050213 0.0039297263 -0.0021799072 -0.0018741107 -0.0028938267 -0.0025546695 -0.0034724802 -0.0015263226 -0.0017192721 -0.0035928078 0.0011411918 -0.0011015037 -0.0030710557 -0.00055510027 -0.0033282593 -0.0029857664 0.0020000213 0.003424456 0.001488304 0.0023602487 0.0007856099 -0.0014564005 -0.002097499 -0.00012638788 0.0012016853 -7.459707e-05 -0.001359917 0.0036724908 0.0023379074 -0.0004315356 0.0009812952 0.0026631819 0.0012334001 0.0018856545 0.0010820389 -6.0544153e-05 0.0011726144 0.0032244627 0.0019715892 -0.001055085 -0.0021358638 -0.0035329664 -0.0017088844 -0.001828255 -0.0002265753 0.0033009853 -0.0017056471 -0.0012223044 -0.0036099865 -0.0019135796 -0.002965202 0.0013891717
23738 -0.0012516169 -0.0012482742 -9.44519e-05 0.0028431898 0.0015510628 0.00052602706 -0.0011585987 -0.0019259804 0.0001545462 -0.003449738 -0.0011316119 0.0006099569 0.0019089661 0.0032424326 0.0023441494 0.00025212366 0.0026106716 -0.0020492587 -0.0023662827 0.0025995933 -0.0024158768 0.002023673 0.002728779 -0.003564817 0.0016167513 -0.001397547 0.0031180643 -0.0014003514 0.003742473 0.00041895473 -0.000692347 -0.0002826636 -0.0021303182 0.0031591987 -0.0006972449 0.0035404111 -0.0025701886 0.0011392618 0.0018889633 -0.0009972868 0.003454202 0.0027734516 -0.0031342192 -0.0006903832 -0.0023933733 -0.0018742661 0.0029773708 -0.003918979 0.0026297788 0.0030071023 -0.0022831003 0.0019282236 0.0002051303 0.0024646695 0.0014103831 -0.0010870025 0.0003835637 0.0005201628 -0.0015608894 -0.0023019183 -0.00046370807 -0.0030169985 0.0026463903 -0.0025627029 0.0021485228 8.44324e-05 0.0036215428 -0.0036657187 0.0030834458 -0.0017863504 0.0014183864 0.0011903866 -0.00029785623 0.0006149536 0.0018217133 2.9322027e-06 0.003024526 0.0031488237 -0.0018100832 4.069089e-05 -0.0021493929 0.0007491221 0.00042257248 0.0024236648 0.0012594664 0.0027425743 -0.0010791614 -0.0015680435 -0.0018185076 0.0012379361 -0.0016768607 -0.0025379139 -0.0012298673 0.001023674 -0.002637422 0.0024627743 0.0005776308 -0.0012130161 0.00020125763 0.003050823 -0.00034301114 -0.0034332238 0.0037359665 0.0021624805 -0.003355373 0.001092185 -0.0033303795 0.0009410418 -0.0034391354 -0.003731715 0.0015144631 0.0007318667 -0.0020898844 -0.001633923 -0.0030953598 -0.0004959793 0.0009958068 -0.002733404 -0.00040274003 -0.0020353182 -0.0010038408 -0.003272482 -0.0037078727 0.0014731239 0.002310988 -0.0031941263 0.0030330487 -0.0012681541
210871 0.0034895213 0.00052349875 0.003262357 0.0008024005 0.0012996575 0.00268922 0.0025080226 0.0021320642 -0.001641335 0.0012228523 -0.0033883972 -0.0029291688 -0.0030020995 -0.00312496 -7.170215e-05 -0.0038563556 0.0027427487 -0.002902165 0.0006058805 -0.00090255064 0.0009715247 -0.001763625 -0.00070084934 0.0005160868 -0.00068703084 0.0030411063 0.003410484 -0.002979893 -0.0014881312 0.0033609155 0.0005992249 -0.0016353797 0.0011934527 0.00096493436 0.002138373 0.003472026 -0.0016141569 -0.0008950787 -0.0028247044 0.0034299423 -0.0004604507 -0.0001784201 0.002934098 -0.0019200093 0.0027376146 0.00084223173 -0.002104509 -0.0025377492 -0.0019100158 -0.0008600442 0.0028295384 -0.0016478047 0.0033743116 0.0010637565 -0.00041273795 -0.0005765458 -0.0024794424 -0.00043910157 0.0028074905 0.001882705 -0.0032889068 0.0013644402 0.00087374216 0.0018841596 0.0037929062 0.0012174702 0.0019718471 -0.0011121798 -0.0036384051 0.0023130027 -0.0021850977 -0.0005709284 3.3882392e-05 0.0031118188 -0.0006849467 -0.0032505386 -0.0036139356 -0.0017488076 0.0009328419 -0.001618078 -0.0019800116 -0.0021520574 0.0005806839 0.0020254746 0.0008727699 0.0018766429 -0.0023994755 0.0039329873 -0.001756777 0.0018681992 -0.0008432305 -3.351585e-05 0.0029482432 0.0027531974 0.00377285 0.00080265594 -0.00049654744 -0.0036770038 0.0017600973 0.0005471564 -0.0009255523 -0.00075283344 0.0016889352 0.0011339094 0.0016029661 0.002433619 0.0003688767 -0.0018605542 -0.0007045797 0.0017165052 0.0031324949 0.0011399972 0.0034136532 -0.0037364194 -0.0026473366 0.0022364766 0.0034264019 0.0035280793 -0.002166548 0.002289028 -0.0025304006 -0.0013070735 0.001938073 -0.0035211507 -0.0036701853 0.00055722136 0.0010761886 0.0015086276
4804 -0.0038710837 0.00026428542 -0.0036083078 -0.0025224586 -0.0006918247 -0.0011611775 0.0038452267 0.0037744322 -0.0038422914 0.002001156 -0.0011721062 0.0019019701 0.0028465425 -0.00058022985 -0.0024545265 0.00034048583 -0.0031596432 -0.0034647398 -0.0020380164 -0.00021776822 0.0015665825 -0.0032379082 -0.0014952747 -0.00042476924 -0.0023872694 -1.5225356e-05 -0.00366808 0.0027625836 -0.00051207654 -0.00095990225 -0.0002468146 0.0011844472 -0.0010727114 -0.0005464865 0.0028655347 0.0027430353 0.00044532574 -0.0035761741 -0.0018043553 -0.0034791688 0.0004499505 -0.0024337762 0.0027116623 0.002605202 0.00091116386 0.003300434 0.0002941173 -0.0021531393 0.0011028262 -0.0038408474 0.0011791287 -0.0034251725 0.003093576 -0.0036359467 0.00024609145 -0.003312724 -0.000775878 -0.0032296544 0.0034638196 0.0026807934 0.002880698 0.003489687 0.003361771 0.0006912686 0.0035967063 0.0028470007 -0.0038846876 -0.0026158206 -0.0026721843 0.0037604803 -4.396708e-05 -0.0009948673 0.0028273147 -0.0027397878 -0.0034890422 -0.003776301 0.00017321437 0.001718862 -0.0021275019 0.0006270897 -0.0006482744 0.0022210882 0.0011196443 0.00083733024 0.0013229396 -0.0024558676 0.0009015817 0.0032337732 -0.0015820139 0.00077968213 -0.0036180518 -0.002761074 0.0018241378 -0.0014310254 0.0013722127 0.0020247803 0.0031503015 -0.0038165827 -0.0028053522 -0.0035093343 0.0012931033 -0.0013233242 0.0028909692 -0.003014376 0.00049543794 1.1472024e-05 -0.00026194114 0.0027920234 -0.00095935893 0.0038091175 -0.0009914209 -0.0008006911 -0.0017304431 -0.0031051128 -0.00074634794 -0.0029789866 0.0034670066 0.0035383324 0.000891003 0.0020120977 0.0010180081 -0.003233775 -0.00042386996 -0.002021554 -0.00170404 0.0025842057 0.003497004 -0.0013001915
39890 -0.002407894 0.0014302587 0.0028044533 -0.0027907083 0.0005300715 0.0008277824 -0.0008324958 0.0025112657 0.0012654548 -0.00054039207 0.0036218858 0.00010610148 0.0037327781 0.0023418122 -0.0038509832 0.0020616278 0.0024594176 -0.0011167614 -0.00082936464 -0.0016213357 0.0031743292 0.0018898373 -0.003264917 0.0010652408 0.0009229116 0.0035666414 1.2556135e-05 0.0015568708 -0.0017894075 0.0014229319 0.00091550825 0.0013539555 0.003091178 0.0024847772 -0.003847263 -0.0018589064 -0.0010547667 -0.0019778707 -0.0023765357 0.002052529 0.00053029077 0.0011176373 -0.00070827047 -0.0014518027 7.365221e-05 0.002954258 0.0017466048 0.0037603676 0.00087188586 0.0033034026 -0.0012776989 -0.0012459622 0.0037334391 0.0010624646 -0.0014836387 6.1076105e-05 -0.0026860947 0.0033043139 -0.0007828483 0.00014613886 0.0019262771 -0.0022239394 -0.00011111622 0.0014130706 0.0013313576 0.0013124644 0.0010428726 0.000712485 -0.0022126473 -0.00016294217 -0.0019912785 0.0023750938 0.0032847337 0.0007712682 -0.0023384024 0.0031146095 -0.0013795968 -0.0014337944 0.0020714777 0.0036408075 0.001173173 -0.0034159683 -0.0010779392 0.0028333468 -0.0018747821 -0.0011592634 0.0004520985 0.0008047356 0.003516846 0.00057162385 -0.0025888938 0.0021634712 -0.0021510234 0.0038905516 0.00082938024 -0.0013910851 -0.002903303 0.0016538821 0.0033212898 0.0023986972 0.0012489046 -0.0010047924 0.002013323 0.0018830305 0.0037750683 -0.003309491 0.0013285157 0.0024963568 0.0018917295 0.0019213685 0.0007470085 0.0030556512 -0.0028062693 0.0029963704 2.4692607e-05 0.00016030818 -0.00023368192 0.0008115309 0.00028882577 0.0020836864 0.0009437235 0.0025097046 0.0017592398 -0.00030930413 0.0013977806 0.0013757375 -0.002686006 -0.0029142683
5348 0.0019844125 -0.0018549315 0.0019795587 -0.0015656112 -0.003434118 0.0016276244 -0.0004098702 -3.9634608e-05 7.789283e-05 0.00014227358 0.0009611711 0.00012835041 -0.0020033363 -0.0037942755 -0.0033349677 0.001394671 0.0009834546 -0.0019141188 0.0001453142 -0.0016792975 -0.0034804856 0.0002034356 -0.00073194224 -0.0031596883 -0.0038809795 -0.00172317 -0.0026662757 -0.00062929344 0.00381591 -0.0014174172 -0.00071886374 -0.0033814444 0.0011962401 8.974406e-05 0.0012779012 0.0025306593 0.0039051073 0.0032859612 -5.5108674e-05 -0.00021235523 0.0038876552 -0.0022987984 -0.0017945931 -0.00028242564 0.0014570303 0.0018821941 -0.0032890898 -0.0034861455 -0.0033510171 -0.0022176723 5.7861245e-05 0.00015428815 0.0003951005 0.0035002679 0.0015348768 -0.0019738502 0.000498903 0.0022738604 0.0028834501 0.001392231 -0.0034533478 -0.0027610546 -0.00054788624 0.002933812 0.0036513056 -0.00010602665 -0.0023768249 0.002411209 -0.0026589937 -0.0010860489 0.0028257153 0.00023557013 -0.0035796082 0.0038105305 0.0026737985 -0.0037968114 0.0023453115 -0.0034807408 -0.00049663463 -0.0032164587 -0.0036624295 0.003685805 0.00021008405 0.0021240658 -0.0014302636 -0.0034504458 -0.0029399593 0.0024970605 0.0025385525 -0.0022239296 0.00011992577 -0.0032225433 -0.0027694744 -0.00013867 0.0013076828 0.0013599826 -0.0012550547 -0.00083592854 -0.003176321 0.0028992048 0.00029121712 -0.0028368407 0.000783556 -6.648898e-05 -0.0017239088 0.00013593235 0.001478427 0.0018072893 0.0017281129 -0.003969726 -0.0025512835 0.0037174823 -0.0034039414 -0.002804345 0.00066246634 -0.0010408075 0.0031194056 -0.0030119652 0.0020649089 0.0023084285 -0.0023459876 -0.0029090291 0.0028172792 -0.0016685232 -0.0035409248 -0.0004288785 0.00070484594 0.0007918159
154982 -0.0006293386 0.0013119387 -0.001893405 -0.0038698576 0.0034765515 -0.00044971582 0.0014416697 -0.000581944 0.0016667373 0.0020721222 0.003611121 -0.00073524145 -0.002548582 -0.0009303955 6.8521884e-05 -0.0038415075 0.0010684187 -0.0036209486 0.0019199265 -7.044329e-05 0.0017820413 0.0025095113 -0.0033061306 -0.002880822 0.0010647108 -0.0025930286 -0.0031816813 0.0014867444 0.0029028466 0.00090402516 -0.0009071607 0.0039727082 -0.00053479715 -0.0002961325 0.0022138143 0.0028262774 0.0009533552 0.0012176823 0.0028479428 0.0029251298 0.00068119605 0.0025893196 0.0030442178 -0.0031254797 -0.0005056093 0.0013091364 0.0021632155 0.0027697221 0.00040589672 -0.0025625892 -0.0037993551 0.0018465467 0.0014009955 -0.002787282 -0.0034782153 0.0023617337 0.0025307303 -0.001855123 -0.0011657577 -0.0036081488 0.0013888897 -0.002612924 -0.003638031 -0.001838779 -0.0014780435 0.0026408974 0.0020745383 2.1039403e-05 0.0019550705 -0.0018762859 0.0032471782 0.0033925332 0.0021955122 -0.003119878 0.0030296985 0.0038793492 0.0018828354 -0.0035102793 0.0038702623 0.0024290984 -0.0018210129 0.0037817033 -0.0018862307 0.0004391964 -0.003710925 -0.0011857939 -0.00059118296 -0.0030886596 0.0037295625 -0.0023375202 0.0035373992 0.0014670865 0.0029715758 0.0037400455 0.0020728146 -0.00068686344 0.0028044027 -0.002802101 -0.0011494033 0.001373788 -0.0029599792 0.00018954127 -0.0013395031 -0.00010631777 0.003161462 0.0019601204 0.0015305548 0.0026605963 0.0037872808 -0.0010546842 -0.00347917 -0.0023821488 0.0019145368 -0.0021778469 -0.0021650658 0.0034678846 -0.0026754616 0.0028398759 -0.0032568714 -0.0027353629 -0.0016211318 0.0018072869 -0.0035075427 -0.0020978276 -0.0012863384 -0.003118019 -0.002011201 -0.0035177616
