2405 128
393 0.16289718 -0.0007893512 -0.09459856 -0.12887055 0.4386472 0.47925267 -0.14811186 -0.10604776 0.39258817 -0.21127358 0.3080276 0.24553703 0.0076243444 -0.20832315 0.11559844 -0.03075412 0.41631833 -0.30840862 -0.10808057 0.19357222 -0.46474308 -0.03947876 -0.09404346 0.46447426 0.07755245 0.16221029 0.1575791 -0.23830462 0.114559084 0.03300707 0.31183025 -0.1330145 0.15050851 -0.05897042 0.028312637 -0.02062108 -0.23725124 -0.14160462 0.44613647 -0.15163186 -0.0072799837 -0.37109816 -0.11146994 -0.18553486 -0.04880904 -0.16136895 -0.10968815 -0.18706028 -0.31148875 -0.33625934 -0.20797059 -0.118896075 0.32592776 0.15409079 0.16346289 0.054245107 0.043622077 -0.035557777 -0.03902608 0.26100394 -0.084431455 -0.13727294 0.031023853 0.064609505 0.07758184 0.15891115 0.30136016 -0.21216588 0.2660205 -0.1993634 -0.20269784 -0.2499965 -0.043481022 -0.30174685 -0.26947272 -0.1660609 0.035441123 0.2073257 -0.38907364 -0.1496711 0.5033703 -0.31050557 0.19748648 -0.3863032 0.1175904 0.30233008 -0.10228385 0.34907648 0.1797595 -0.065784656 0.19643049 -0.04970229 0.5143302 -0.084095776 0.29368615 -0.2044084 -0.28486165 -0.079245076 0.13623174 -0.31598502 0.53532887 -0.27667814 0.48634768 -0.28989807 0.022849713 -0.161569 -0.6002587 -0.10717347 -0.013456082 -0.14079224 -0.17892782 -0.24330702 -0.17757323 -0.39324167 0.34601596 0.22523269 0.2550051 -0.3933675 0.3979559 0.2763216 0.44910133 -0.11276861 -0.13841149 0.014601064 -0.12065953 -0.17716327 -0.09498218 0.040694393
489 -0.18508653 -0.17407541 0.034077875 0.08503023 -0.05720195 0.15367596 -0.14926757 -0.07369831 0.5883659 -0.072939746 -0.1270234 -0.15523103 -0.31937686 0.22585121 -0.1450181 0.0419696 -0.12451326 0.2898392 -0.21156059 0.14064433 -0.2150546 -0.3494711 0.1709395 -0.46309844 7.425064e-05 0.56747323 -0.04026612 0.17971797 -0.22950098 -0.07397317 -0.2363473 -0.07029935 -0.3591985 0.45417207 -0.04907449 0.11346424 -0.026551614 0.035869054 0.5635662 0.07384237 0.16938688 -0.02294014 -0.05945415 0.02445473 -0.512676 -0.3159442 0.13811977 0.1671493 -0.3007484 -0.050214358 0.37057632 -0.098886706 -0.041533716 0.29238507 -0.08552141 -0.31504437 -0.23075171 -0.27949718 0.41008446 0.018978203 -0.06182776 -0.36211476 0.19077238 0.05801507 -0.032612763 0.32565445 0.35793298 -0.2130826 -0.1176827 -0.50753695 0.09246232 0.057855938 -0.059280954 -0.112746075 -0.15354104 -0.07140061 -0.059832897 0.21829799 -0.22261298 -0.18156429 -0.09998095 0.35500458 0.024482094 -0.25672004 0.6858816 0.032540698 -0.22997557 0.08193475 -0.022807216 -0.19262025 0.10248668 -0.097195566 0.26112378 0.2869004 -0.6451468 -0.33564338 0.0835074 0.04382769 -0.14745511 0.18489423 -0.23234472 0.10287043 -0.019725543 -0.48106697 -0.28086665 0.4036107 -0.4340527 -0.31481722 -0.13977681 -0.029653331 0.26004386 -0.29784223 0.24805194 -0.17239247 0.12106581 0.34115037 -0.2335436 -0.19279526 0.09183992 0.071140416 -0.13178246 -0.014736537 -0.2037782 -0.5001044 -0.0066733398 -0.04593878 -0.3539038 -0.23953307
445 0.24946219 0.07052704 0.31295288 0.23533309 0.10015845 -0.04973594 0.12520833 0.30476037 0.22183712 -0.016370622 0.3948571 0.21109208 0.040735282 0.26709715 0.14177214 0.36752608 -0.14775358 -0.21599604 -0.11599997 -0.017583234 -0.38475695 0.235625 0.22264187 -0.5144342 0.43538454 0.09223075 0.28692383 0.036812127 0.2345746 0.086384974 0.082668245 0.044872344 0.026276555 0.33465487 -0.10219772 -0.38335174 0.2637625 -0.31036046 0.41738978 -0.33173072 0.36288533 -0.27684405 -0.099827506 -0.450802 -0.2813115 -0.20482309 0.31155914 0.049412034 0.24222262 -0.09251497 0.075638674 -0.044323016 -0.17119615 -0.16666335 -0.12356368 -0.05482213 -0.045190934 0.24331172 0.16336322 0.199783 0.07010506 0.37949127 0.09915344 -0.056389704 0.04576656 -0.012003293 0.37735444 0.07459774 -0.14108951 -0.27038637 0.1491243 -0.21524408 0.048801426 -0.022447307 0.30478472 -0.0013922272 -0.39855245 0.682677 -0.6945935 -0.08757437 -0.09715802 -0.038950432 0.1440127 -0.17367318 0.48857743 0.2777196 -0.013950949 0.067841455 0.09125323 -0.07937268 0.2939456 0.08705318 0.6076473 -0.11193023 -0.3200125 0.0010246974 0.051235415 0.20643224 0.020853058 0.123150416 0.1221084 0.28954405 0.27396938 0.088732295 0.034017194 -0.009137861 -0.35299602 -0.34281456 0.105415106 0.16461599 0.34507135 0.1975255 -0.3712116 -0.2294728 0.07895256 0.20050256 0.20268257 -0.18358399 0.50045055 0.059191912 0.029867847 0.06401198 0.13181667 0.40093118 0.28644934 -0.19671452 0.14315064 0.16328433
708 0.30693823 -0.3258648 0.59294766 -0.5222564 0.3306773 0.26729468 0.07107827 -0.0053570983 0.65435 -0.07787344 -0.10675589 0.13864692 -0.030865358 0.14462914 -0.46832538 0.57710767 0.21569957 0.16549319 0.22877629 0.33561948 -0.35075483 -0.038343538 -0.0978846 -0.16442849 -0.004499165 0.21842639 -0.42033833 -0.0014887879 0.14636017 -0.20980334 0.24647596 -0.14142306 0.42255417 0.21619457 0.049338493 0.11810544 -0.0061783963 0.09859707 0.18374413 -0.013422984 0.10061429 -0.114000276 -0.04779688 -0.38792643 -0.32577223 -0.3059095 -0.23486328 0.57441986 0.098609574 -0.09400453 0.089667134 -0.09750466 -0.18805182 0.083897986 -0.4011197 0.023997182 -0.25623125 -0.037554406 -0.12907366 0.38376456 -0.08200897 0.29852483 0.06351777 -0.18827707 -0.060040444 -0.028810075 0.5405812 -0.57597864 -0.1976143 0.16811942 0.29793134 -0.12418629 -0.5347876 -0.31828198 -0.058571912 -0.21686043 -0.3858486 0.07833994 -0.16886336 -0.21511476 -0.12013532 0.17556518 0.12770288 0.040087327 0.078572035 0.4174053 -0.40620905 -0.1937273 0.100490354 -0.10178122 -0.096922494 -0.3407678 0.2778872 -0.21380742 -0.11170555 -0.29134864 -0.32687056 -0.288393 0.13475598 -0.30650643 0.054065205 0.21336797 0.06893501 -0.13108768 -0.0703351 -0.058820117 -0.16816701 0.3381206 -0.6126841 0.1653798 0.12880172 0.3593668 -0.06331087 -0.7395382 0.10727059 0.21820794 -0.056210652 -0.40608495 0.19904524 -0.123610444 0.32580358 -0.19304276 -0.23691872 -0.19633473 0.006977422 -0.07592114 -0.00555257 -0.14975904
1412 -0.24220309 -0.05176705 0.101017416 -0.24741066 0.4281486 0.7673869 -0.2736494 -0.1799211 0.057079233 0.0005510739 -0.021370882 0.041059937 0.041016158 -0.031093651 -0.4114717 -0.075113006 0.23078328 0.191703 0.28082815 0.020400003 -0.24026209 -0.0019677964 -0.4516621 -0.19965674 0.11925775 -0.1359263 0.0874282 0.1515127 -0.40332043 0.08460039 -0.0847326 0.28058988 -0.4326166 0.019548355 -0.13005531 -0.09908013 0.2064149 -0.07631994 0.25964424 -0.15610479 -0.1385637 -0.020600513 0.05195435 -0.05156678 0.02383392 -0.0891439 -0.16814487 -0.5897071 0.29289013 -0.31182325 -0.32650003 0.93302214 -0.29864234 0.117045015 0.038178727 -0.41713506 0.18439527 0.7399833 0.18389195 0.06375266 0.20701331 -0.09559381 0.20396352 -0.017325005 0.23360704 -0.091922864 0.26932126 -0.044374403 -0.14366369 0.16723967 0.23654406 -0.30626816 -0.33241013 0.057141405 0.16766252 -0.14687826 -0.060833655 0.30490685 -0.24225102 -0.13937911 0.16525316 0.35201365 -0.15162192 -0.08565264 0.28038287 0.33501458 0.45709735 -0.013981255 0.45464972 -0.428287 0.4203745 -0.28931245 -0.2480086 -0.5442065 0.12033564 0.004098132 0.14208525 -0.015016572 -0.4324089 -0.23772754 0.14726417 -0.60430294 0.2087396 -0.36461702 -0.5843726 0.2308659 -0.66915303 -0.3856033 -0.45640826 -0.16692904 0.33414394 -0.44031143 -0.22634189 0.06628276 -0.45236212 0.49658236 0.46330562 -0.19303843 0.010861748 0.68785316 -0.19967897 0.2647274 -0.35422754 -0.16068038 -0.16101763 -0.2042089 0.13023639 0.046382282
624 -0.13974722 0.008283334 0.6153975 0.20924808 0.28575104 0.5416797 0.1570813 0.06431322 0.23252891 0.19143201 0.009734229 -0.64454967 0.40436298 0.27016112 -0.20157407 -0.10117087 -0.025578454 -0.14569752 0.41911164 -0.14649759 -0.50549656 -0.54442453 -0.14424895 -0.12092296 0.06458143 0.17957881 -0.48397374 -0.17232141 -0.22288385 -0.17648347 0.70111775 0.26799154 -0.39035007 0.57763445 0.079433486 -0.3114849 -0.30679795 -0.0071049947 0.03561431 -0.24525085 -0.37241742 -0.41383308 0.3789307 0.32745472 -0.12595972 -0.21086843 -0.13645037 -0.34463564 0.036969125 -0.34761244 0.19821423 0.6950097 0.06712142 0.5922669 0.14539956 -0.33802247 -0.31155798 0.017242119 0.123422235 0.51450574 -0.097986266 0.18238677 -0.22966427 0.2115658 0.079827294 0.30587113 0.17548393 0.1491031 0.2839992 -0.1404893 -0.29950514 -0.4108546 -0.22754936 0.24375553 -0.2609029 0.03154717 0.4386284 -0.057816412 -0.5087822 -0.44622684 -0.039739955 -0.287204 -0.15021378 -0.07006322 -0.050892375 0.053339012 -0.5416959 -0.06546448 0.036085054 -0.26755977 0.25524092 -0.45194164 0.5548741 0.043305494 -0.57749325 -0.22966775 0.51202345 0.24935658 -0.18051769 -0.3242143 -0.09487654 0.13353771 -0.4260754 -0.83962184 -0.5408272 0.088634685 -0.28298873 -0.5402815 0.08596211 -0.090851866 0.1954008 -0.3070014 -0.5008565 -0.25236067 0.1253147 0.18371205 -0.20248017 0.029231107 0.6230365 0.288195 -0.0009610664 -0.240446 -0.1215743 -0.23458028 0.09700053 -0.04458971 0.018921923 0.009010832
1647 -0.039953522 -0.10352734 0.36451757 -0.14041205 0.1851556 -0.18968031 -0.16656727 0.39410833 0.76228327 0.037778277 0.64162034 -0.24827333 -0.09121396 0.054577693 -0.2346362 0.09375061 0.068126395 -0.11757796 0.28169388 -0.15258336 -0.29851443 -0.096344665 0.021081118 0.55787873 0.155058 0.52840865 -0.17680524 0.24334936 0.2149691 -0.118025646 0.077020206 -0.058620546 0.29849955 0.3869733 -0.24477266 -0.097845264 -0.10270674 -0.25435823 0.3426285 -0.21358287 0.43208948 0.035223696 -0.09438851 -0.23583819 0.0715467 -0.24099955 0.0319762 0.187867 -0.46572787 -0.022677572 -0.33434397 0.22119375 0.19953337 0.068468116 -0.22537714 -0.086235054 0.35131633 0.30386585 0.08287034 0.11205308 -0.10001103 -0.2527077 -0.1303204 0.029937007 -0.1322776 0.19270784 0.67247856 -0.6441495 0.009859974 0.12943868 0.26428086 -0.21836032 -0.35155928 0.34720868 0.3396743 -0.7108473 -0.1641107 -0.061754428 -0.10491365 -0.4289526 0.41034117 0.5570532 0.31867346 -0.56720847 0.18291542 -0.049418833 -0.3804672 -0.20183218 -0.067823075 0.028816286 0.33733767 -0.3767531 0.14566174 -0.53054243 0.051905297 -0.46938086 -0.20908552 -0.49673826 0.11547147 0.2015843 0.037351172 0.48970065 0.20494269 0.17474724 -0.23192786 -0.18844151 -0.71324545 -0.15023911 0.10482375 0.3807195 -0.5102087 0.47830564 -0.13563597 -0.3410553 -0.030477805 -0.13441552 0.18261434 -0.051843364 0.053609945 -0.058931984 0.24167755 -0.26280892 -0.3239068 -0.13704717 0.15491344 -0.025683258 -0.44244906 0.33400452
526 0.16954315 -0.259906 0.61863816 0.0032720226 0.4773846 0.30829975 0.08799068 0.12963162 0.3700016 -0.4343492 0.17176062 -0.6151221 -0.118974745 0.43232337 -0.17141326 -0.06800001 0.15474768 0.082547404 0.0028505668 -0.64054817 -0.16631359 -0.053912215 -0.04578919 -0.12613389 0.19498502 0.58692724 -0.745853 0.44844967 -0.12405235 -0.27793285 0.18877813 0.37462398 -0.29522872 -0.14033988 0.36963454 0.3596734 -0.17590687 0.29981598 0.0012257565 -0.34062174 -0.07162071 -0.5115116 0.27001354 -0.0836371 -0.020216348 -0.50803083 -0.060222033 -0.36162147 -0.2803014 0.02496852 0.5677932 -0.08471153 -0.26589498 0.14962487 -0.16880666 -0.29637834 -0.2358492 0.6671783 0.297177 0.80257404 -0.19899236 0.010224986 -0.050130904 0.26470265 -0.1508391 -0.10557588 0.32805413 -0.054600053 0.13742802 -0.019618008 -0.28957772 -0.14944993 -0.062102813 0.65459836 0.39282024 -0.11090112 0.40913156 -0.24818824 -0.34460944 -0.0452821 -0.11508153 0.09413456 -0.41739944 -0.50149876 0.1505386 -0.11133929 -0.19828683 0.4066964 -0.35103416 -0.53897715 0.507213 -0.3786275 0.0066205948 -0.18351182 -0.14133953 0.17616712 0.010280611 0.12765773 0.31017613 -0.042980164 -0.028753646 0.2770692 0.12635368 -0.60606897 -0.033100605 -0.043306008 -0.10913079 -0.24910623 0.06935986 0.36686403 0.022825196 -0.25339848 -0.44614884 -0.20866832 -0.02300054 -0.08185853 -0.06339038 0.09427238 0.11961815 0.026026677 0.2996674 -0.51464456 -0.007832006 -0.3604158 -0.2105525 0.51590884 0.09299885 0.08097863
1467 -0.004675131 -0.6255125 0.48432449 0.1281197 0.02293737 0.19307752 -0.25799832 0.05806838 -0.015594105 -0.023737403 0.15529922 -0.19265397 0.18104358 0.08828658 -0.71921045 -0.32368547 0.4671941 0.22655836 -0.0024079871 0.8049294 -0.12850563 0.13972259 -0.3497908 -0.40281603 0.49035084 -0.24271226 0.14002287 0.51276255 -0.33117807 -0.060242403 -0.16973719 0.15986978 -0.056812376 -0.1746668 -0.0817438 0.10004051 0.48056102 0.012677666 0.27584457 -0.47288835 0.036100153 -0.2960927 0.08459197 0.13237604 0.00054045377 0.0005406647 0.027430926 -0.9220353 0.41658017 -0.4282104 -0.60518724 0.48484692 -0.031562533 -0.4829622 0.21087018 -0.14531867 -0.34740573 0.23902655 0.48309064 0.3023809 0.18325558 -0.34314677 -0.12919225 -0.017243782 -0.16278854 0.2568429 0.47922865 -0.31356695 -0.1979715 0.24889706 -0.08151689 -0.07879159 -0.14533362 -0.11307547 0.3170317 -0.27165845 0.13826184 -0.16276304 -0.36852285 -0.2523942 0.49690807 -0.09658676 -0.2060505 -0.292825 0.16860367 0.22601993 -0.022721242 -0.26308396 0.4400354 -0.33485743 0.5579023 0.012877058 -0.008556756 -0.41764823 -0.50360197 -0.2790258 -0.057716224 0.18035747 -0.51290387 -0.34151328 0.0055490253 -0.41295135 0.068929076 -0.3593863 -0.17416285 0.14548425 -0.3539064 -0.21805978 -0.35521752 0.037741996 0.0698172 -0.24850571 -0.21651742 -0.13168323 -0.65133506 0.39136088 -0.103530064 -0.40760392 0.21067633 0.34222806 -0.18560554 -0.001607901 -0.18024096 -0.32885915 0.038059343 -0.4551403 0.293487 0.011927056
43 0.004636851 -0.3602116 0.4833777 -0.6668404 0.07301159 0.3386529 0.1865242 0.055671837 0.23347071 -0.32350245 0.6386766 -0.32290724 0.2823804 -0.07206063 -0.068102084 -0.11395472 0.31788754 0.17269355 -0.04755569 0.084969096 0.21824747 -0.10460234 -0.30878276 0.2006956 0.1302031 0.35195813 0.21574464 0.10190332 -0.2649606 -0.14656395 0.34175214 -0.050956573 -0.21858981 -0.7363452 0.08245305 0.41239005 0.50219685 -0.28751436 0.14873546 -0.111476034 0.5531035 -0.26748073 -0.20258795 -0.14944692 0.037151992 0.21147922 -0.12619887 -0.2775096 -0.18093418 0.061778117 -0.104905576 0.18761095 0.065085955 0.5959909 -0.08712632 0.3827327 -0.02863205 -0.114919044 -0.040485468 0.18817733 -0.14744003 -0.12682146 0.31861967 -0.27656844 -0.1491211 0.49810588 0.5039259 0.045707427 -0.059352286 0.045498997 0.18662244 -0.03906481 -0.045680996 0.16059321 0.64166564 -0.2524365 -0.291169 0.49521968 -0.5219845 -0.21387784 0.3979358 -0.015004404 -0.03573287 -0.033379447 0.30009177 -0.20670089 0.030026339 0.26816136 0.43201286 0.039882332 0.05009933 0.15673651 -0.16001053 -0.6748651 0.020322436 -0.48257458 0.2125733 -0.07670359 0.45329392 -0.004314692 0.63587266 0.14523402 0.42410165 -0.8643758 -0.5100241 0.10083714 -0.08845433 -0.6863168 -0.37431192 0.29196024 0.26363385 -0.08573318 -0.44594526 0.24506864 0.22004816 0.018460553 -0.33808446 -0.022444298 0.18238941 0.59234595 0.015787667 0.13530533 -0.24317232 0.0611314 0.36521837 -0.10877712 0.2194255 -0.38676012
400 -0.22354056 -0.069143586 0.40086797 -0.42545623 0.34044406 0.16398914 -0.11624732 0.043226577 0.2553716 -0.538388 0.4381367 0.035023548 0.18463175 0.43133694 0.147615 0.3053263 -0.40653306 -0.14101149 -0.035601076 0.009809388 -0.45031 0.3316878 -0.34927702 0.18820463 0.57621175 0.43570888 0.28227434 0.5565184 0.07800066 -0.2066022 0.49991298 -0.50299317 0.37530714 -0.17099415 0.31471893 -0.044760812 0.2846195 -0.08477445 0.03156267 -0.13235047 0.08382032 -0.49223524 -0.15612414 0.077269256 -0.019026613 -0.42357782 0.3958808 0.4893621 -0.45476323 -0.14724848 0.06682511 -0.123474866 0.08945073 -0.022138262 -0.016083708 0.33732688 0.10843622 0.26737833 0.50251126 -0.03217852 -0.22358973 0.018776957 0.3729841 -0.16535161 0.403995 0.07305595 0.11058925 -0.34900653 0.3407382 -0.20469879 -0.06585335 -0.2668953 -0.3127532 -0.23140346 0.38702312 -0.12799272 -0.25280386 0.43731198 -0.22912884 -0.44985077 0.14234446 0.25179318 0.18079051 -0.20505619 0.056050368 0.33975992 -0.19087699 -0.49030012 -0.20515554 -0.5839815 -0.14883396 0.2872157 0.4906757 0.026663475 -0.39208415 -0.07440222 0.02994334 -0.013263776 -0.19671051 -0.6811932 0.25822666 -0.035890754 0.147294 0.10665141 -0.28873593 -0.11137215 -0.25324315 -0.38015494 0.1123765 -0.31371975 -0.048511304 -0.20662802 -0.23674165 -0.2467504 0.18644612 0.15511966 0.04099662 0.18755649 -0.05634035 0.16816244 0.13432565 -0.06854289 0.29249802 0.07010804 -0.26950654 -0.23844242 -0.119410075 0.31174913
235 -0.043296788 -0.9441494 0.20755063 0.14760971 0.41737804 0.26211533 -0.035514366 0.29292503 -0.13454758 -0.21530615 -0.08143669 0.111444205 0.29337746 0.097352795 -0.44716576 -0.3050696 0.0917736 -0.074807554 0.16430163 0.33249694 0.32809773 -0.33443785 -0.03314685 -0.2387331 0.41424078 0.4116705 -0.2222626 0.50504607 -0.40977803 0.28609383 -0.45298386 0.13148098 -0.24945503 -0.5686985 -0.2448925 0.14514764 0.27964878 -0.101116106 0.04208443 -0.40410036 0.39453343 -0.18206258 -0.07891115 0.0047956123 0.097966835 -0.2354568 -0.025248531 -0.70524627 0.13735479 -0.12347914 -0.6587069 0.4444442 -0.0877092 0.33577248 -0.3765637 -0.5542548 -0.1397749 0.1791604 -0.02041884 0.25881448 0.4437356 -0.19928141 0.3503602 -0.295407 0.3745995 0.29826504 -0.12538406 -0.12007164 -0.32831272 -0.075000644 0.25315693 -0.3873711 -0.18599452 0.2196624 0.22014636 -0.1634293 0.01352779 -0.06726334 -0.418222 -0.40883335 0.16113576 -0.16728072 -0.17188002 0.44622284 0.47663632 0.2041153 -0.11585028 -0.104515664 0.022946268 -0.41432703 0.811821 -0.3710953 -0.040199358 -0.41544473 -0.16513363 -0.28679553 -0.10730589 -0.19517744 -0.14809422 -0.29336563 0.25209072 0.09052873 0.15023977 -0.10575752 -0.24982975 0.21878089 -0.5288248 -0.38581547 -0.26163575 0.14110851 0.16294327 0.25030354 -0.34954736 -0.50673735 0.10485999 0.7603925 0.13418023 -0.51552224 -0.14323011 0.36820382 0.06446291 0.3329047 -0.1482546 -0.011905921 0.38800186 -0.34099457 0.14742915 -0.41214937
1465 -0.22265722 -0.57944214 0.49741662 -0.099645525 0.178536 0.58562124 -0.47304493 0.26670477 -0.040549003 -0.20959838 -0.11368667 -0.10351493 0.24959484 0.16332304 -0.47583407 -0.21157081 0.23014225 0.33673316 0.16916503 0.24475928 -0.3312752 -0.018834027 -0.37834358 -0.4178894 0.42677045 0.06866304 0.20376712 0.34707472 -0.3751812 0.3347347 -0.055636197 0.32586017 0.21462213 -0.2235945 -0.19355217 -0.22084366 0.26523718 0.16311221 -0.07200336 -0.36784008 0.16394743 -0.092480935 0.2824329 0.038947772 0.028242368 -0.031246476 0.18066154 -0.5090665 0.24102548 -0.4574048 -0.43996924 0.73578393 -0.3185246 -0.29566765 0.025191799 -0.116187386 -0.13237482 0.5070569 0.19787103 0.14059386 -0.18202837 -0.26690704 -0.1734248 -0.029287647 0.033522025 0.33973378 0.22097397 0.04320241 -0.40729615 0.19159767 0.12305063 -0.17669825 -0.28439686 0.24266659 0.046906237 -0.30569223 0.033182587 0.23555331 -0.22749755 -0.38032958 0.34846583 0.20149991 -0.3896506 -0.020282818 0.28955016 0.1992489 0.23169237 -0.10618598 0.35863468 -0.51960427 0.47077304 -0.2550162 0.077715576 -0.69249004 -0.25699112 -0.30964625 -0.28091955 0.08463939 -0.27698803 -0.623253 0.23375256 -0.28251684 -0.05155934 -0.23527081 -0.39116153 -0.033442806 -0.59449935 -0.03987232 -0.56917024 0.12478596 0.12243099 -0.19127384 -0.38837972 -0.08800823 -0.37172478 0.29222226 0.11603349 -0.46071687 0.25400597 0.53453815 -0.022213235 0.14800903 0.02029412 -0.27755442 0.35864 -0.3878661 0.1516061 -0.047425862
228 -0.07461174 -0.9745435 0.56077784 0.052366793 0.30081668 0.25077683 -0.28921002 0.2628148 -0.025466872 -0.082393646 -0.29983386 -0.06631146 0.35415173 0.25484598 -0.3287198 -0.030780353 0.007176242 0.16151595 0.108335175 0.050168972 0.40612885 -0.30951634 -0.0797015 -0.3438331 0.30203232 -0.06997217 0.23575367 0.46292794 -0.24131097 0.28728953 -0.3457241 0.21995112 0.15622985 -0.33878025 -0.30363035 0.045967888 0.17377698 0.089412756 0.2762354 -0.5019909 -0.22861251 -0.14559585 0.004680813 -0.120226175 0.4657599 -0.13718235 -0.02923578 -0.40193468 -0.056320466 -0.2669987 -0.75053966 0.47845897 0.3271582 -0.14823644 -0.008853768 -0.39509115 -0.011390006 0.44873255 -0.05094215 0.44742337 0.26485813 -0.22873633 0.13896066 -0.12461194 0.084295176 0.5956156 0.08499485 0.035431568 0.030168105 -0.080805585 -0.047434293 -0.2900862 -0.23045596 0.1807812 0.094903134 -0.26043203 0.06772161 -0.13354255 -0.5146242 -0.41742533 0.5069952 0.29005054 -0.46638507 0.20768441 0.0899252 0.17571396 -0.01666163 -0.044242065 0.40386626 -0.628408 0.8838586 -0.19418898 0.37079465 -0.31008118 -0.18059115 -0.39137357 0.16711733 -0.06661944 -0.3978195 -0.25852972 0.337501 -0.34766424 -0.19220403 -0.25487915 -0.013148304 0.13382518 -0.26737398 -0.23160483 -0.096293 -0.04502064 0.31287152 0.093766004 -0.61327153 -0.38178253 -0.16199291 0.5903999 0.22902663 -0.38014475 0.11011787 0.47313383 0.1451618 0.2887088 0.062470898 0.012594002 0.25285327 -0.37358496 0.21798016 -0.12831976
1717 -0.02553862 0.2895962 0.63281214 -0.053688787 0.12538089 0.74337167 0.025965787 0.16250105 0.39102986 -0.1797954 0.35967052 0.16587767 -0.1303107 0.3911994 0.31047815 0.11285926 0.18828449 -0.07206522 -0.10848352 0.33532292 -0.11928429 -0.48995063 -0.44223106 0.31183958 0.17902617 -0.049992204 0.11071141 -0.1930306 -0.10892784 0.37850377 -0.17602317 -0.15690368 0.5505357 0.12637623 -0.066961505 0.09145225 0.17996287 0.25925156 0.37326813 -0.062909834 0.5169356 -0.116183884 -0.32193384 -0.26850927 -0.21094322 -0.8480249 0.3293176 -0.016232332 -0.070880525 -0.36594364 -0.26251766 0.3667036 0.7079034 0.42843774 0.012641302 0.6476802 0.1920417 -0.5002954 0.09118998 0.27026385 0.13474846 0.12740374 -0.10514023 0.035932176 0.1453814 0.18751344 0.5963095 0.34948906 -0.2836807 -0.26733086 0.19738081 0.15935102 0.0809133 -0.1625681 0.17272972 -0.12205334 -0.012410897 0.077779815 -0.24109703 -0.23647724 0.15204053 0.06084108 0.18373439 -0.19908367 0.21886571 0.7278802 -0.67334837 -0.14114268 0.17379402 -0.117519066 -0.089564964 -0.24988256 0.5582905 -0.3725871 -0.9764954 -0.3296474 -0.22876546 -0.17988323 0.09310407 -0.23964408 0.032772563 0.21655738 0.05510238 -0.15522206 -0.31268227 0.21803842 -0.2678388 0.21748835 0.31829658 0.43450233 0.020213056 -0.030514805 -0.031642262 0.05061171 -0.021424199 -0.040247407 -0.2873095 -0.04284851 -0.015895505 0.12411646 0.10759332 -0.011886865 0.15304272 0.16063014 0.2311529 -0.025391124 0.19869918 0.13476004
525 0.16581555 0.032778487 0.29084492 -0.2982895 -0.16007467 0.42840958 0.005351043 0.51018804 0.39456245 -0.22028458 0.32488567 -0.4435815 0.037597135 0.2755435 0.045498487 -0.018196814 0.38316926 0.117537014 -0.019596858 -0.25784606 -0.07127984 0.23026827 -0.15490595 0.2883441 0.51927745 0.34974837 -0.24058266 0.5077706 -0.36369097 0.28427255 0.022119457 0.14401533 -0.29709363 0.18217713 -0.2547843 -0.08430083 0.26177245 -0.065674745 0.30420798 -0.1423209 0.25092828 -0.29721946 -0.13100737 0.30506933 0.011884481 -0.3566885 -0.25618494 0.5700732 -0.29462412 -0.3557035 -0.06872556 -0.13183326 -0.0054779546 -0.0010990825 -0.22594438 0.023851316 0.3277997 -0.11293086 -0.21800703 0.5907028 -0.1386439 -0.022771627 -0.043677893 -0.041618176 -0.3738788 -0.82639194 0.45662415 -0.14763375 0.060815793 0.0723494 0.14445685 -0.32094082 0.025263363 -0.06647902 0.008127173 -0.120590895 -0.38162482 0.23634064 -0.04514058 -0.05407358 0.14673124 0.28608048 0.35577855 -0.35123104 0.24377584 0.9416123 -0.11298822 0.12887849 0.4388576 -0.03151567 0.5840415 -0.014938117 0.15418461 -0.47322178 -0.4599968 -0.43310347 0.050894517 0.0013597608 0.20706922 -0.51559377 -0.10472715 0.49028316 0.09546928 -0.027138157 0.20979136 0.12604132 -0.13083906 0.23934872 0.014420702 0.09065848 0.41012055 -0.5035224 -0.31339148 -0.16345307 -0.0015675921 0.5772775 -0.0051944815 -0.06900941 0.5187448 -0.33070642 0.26680413 0.14928587 0.26416087 0.20782736 -0.31137407 0.01538362 -0.12387823 0.45443022
1466 -0.042489875 -0.36509162 0.2578375 0.07869373 0.2346968 0.32344735 -0.27036268 0.3430476 0.002479099 -0.2777389 -0.13152745 -0.16484177 -0.016099114 0.41952032 -0.64077824 -0.10053416 0.16743287 0.14676161 0.19772366 0.110569224 -0.14290683 -0.0965339 -0.24368675 -0.52852196 0.56998706 -0.1177839 0.14611042 0.24112149 -0.4341801 -0.03196517 0.08224579 -0.005257681 0.05363702 -0.5753528 0.048666894 -0.19922659 0.28355497 -0.1324707 0.17194045 -0.033887405 0.07994927 -0.108507074 0.27050698 0.031281877 0.15272377 0.06672366 -0.06947743 -0.4819389 0.27625296 -0.18325706 -0.8103493 0.8633718 -0.3582566 -0.15129562 -0.07401794 -0.31909636 0.066984504 0.27409512 0.3588161 0.4340411 0.23324911 -0.15793793 0.18132232 -0.05096388 -0.06654466 0.21175347 0.3602892 -0.06781826 -0.25854075 -0.13914417 -0.13817714 0.024794742 -0.1889349 0.04733675 0.16000853 -0.3235731 -0.12906763 0.021945843 -0.27064115 -0.3000427 0.44088984 0.11218013 -0.2731189 0.010930512 -0.10368267 -0.008184778 -0.049952783 -0.050442982 0.42400274 -0.3351985 0.6091652 -0.16986875 -0.27619606 -0.2755818 -0.22943032 -0.22548519 0.07979758 0.16086714 -0.5453836 -0.6744405 -0.20166978 -0.40593302 -0.032002147 -0.33459416 -0.32083082 0.18705067 -0.42007634 -0.10057681 -0.114436805 0.31606072 -0.056885637 -0.109449945 -0.56017715 -0.09838915 -0.2781982 0.426196 0.40078205 -0.21198547 0.33298704 0.7259131 0.39390707 0.28542945 -0.13829532 -0.4239025 0.3136726 -0.38470265 -0.00246857 -0.019748112
509 0.18452433 -0.18028305 -0.16736734 -0.08470134 0.2911715 0.3698528 -0.05254781 -0.16568887 0.61628234 0.13481855 -0.023587631 0.0010958965 -0.13075054 0.71957797 -0.033298057 -0.10955589 0.24434799 0.20492171 -0.2691153 -0.16168353 -0.124713995 -0.6524026 0.31343088 -0.31105375 0.5968674 0.29601538 0.06100713 0.30111602 -0.121539764 -0.16777232 -0.1810204 -0.22504003 0.17433095 0.53093284 0.073867835 0.23443016 0.13502483 -0.053504393 0.09191805 0.19002345 0.44677305 -0.23919024 0.4273883 0.33940235 -0.08879599 -0.21733648 -0.60854715 -0.20649563 -0.12425236 -0.27240124 -0.07620637 0.102011055 0.29743114 -0.14841424 -0.2883719 -0.21130642 -0.5640671 0.2315358 0.14134751 -0.30880913 -0.16819185 -0.1591289 -0.030213317 0.35141626 -0.087126546 -0.17464902 -0.006691357 0.24836743 0.111922435 0.09622289 0.03984318 -0.04167235 -0.3428998 0.33142406 -0.19731057 -0.17278066 -0.09140152 1.1037166 -0.32702658 -0.52985305 0.1845219 -0.1059745 -0.20467256 -0.44256407 0.21177857 -0.019432785 0.15290892 -0.4357718 0.27166978 -0.28572187 0.11846623 0.08231714 0.6989782 -0.067637555 -0.33779633 0.048160017 0.08407251 -0.06473457 -0.19378743 -0.33642858 -0.090768665 -0.19766052 -0.00093490636 -0.36899948 -0.008457698 -0.19589226 -0.65866005 0.119482905 -0.23131232 -0.020578558 0.30225146 -0.61210275 -0.38984597 0.4764418 -0.080572926 0.058020536 -0.5166051 -0.0199185 -0.2804248 -0.27224895 -0.12080705 -0.18984249 -0.08015249 0.045499202 0.32781768 0.080157675 -0.4437132 -0.19890283
471 0.31296793 -0.09467407 0.1464382 -0.09352644 0.17629099 0.85404074 -0.42344755 0.37663725 0.46636096 -0.4111106 0.13706926 0.043773703 -0.15650342 0.11559957 -0.07542068 0.20961411 0.16523862 -0.234045 -0.20343569 0.038834333 -0.73105955 -0.39799976 0.0283594 -0.2333783 0.05020594 0.6283002 0.050937783 -0.66991705 -0.2963105 -0.091747835 0.15310763 0.03824678 0.028392792 0.07894198 -0.20747404 -0.08788811 0.4763997 0.09083258 -0.1909084 0.17666133 0.1049988 -0.010032161 0.074638456 -0.41375902 -0.20858733 -0.5235179 0.32643673 0.20946494 0.2373257 -0.10979568 -0.3387392 0.67651147 0.18776178 -0.060888156 -0.46999034 0.667799 0.098075874 -0.036896355 0.16186832 0.23198952 0.45311102 -0.37281185 -0.34314024 -0.4089101 0.530864 0.31408384 0.886854 0.32097897 0.09894094 -0.27682528 0.114687264 -0.25915784 -0.14610863 0.024735117 -0.085301526 -0.18654472 -0.21670361 -0.063848086 -0.41679683 -0.65892243 0.26478177 -0.12700222 0.38823378 -0.64792717 -0.154066 -0.0018413565 -0.2973738 0.1701486 -0.53208464 0.45921874 -0.26242867 0.14432943 0.2827112 -0.53454566 -0.5122273 0.15428194 -0.06328895 0.11387983 0.6656852 -0.2194615 -0.1713851 0.09206796 0.019718837 -0.11215151 0.42253494 0.07103679 -0.7551427 -0.17385453 -0.015109744 0.042349547 0.104182914 0.15541334 -0.3931595 0.11824324 -0.11662547 0.2774397 -0.09700539 0.1368207 -0.18631682 -0.110125676 -0.25657424 0.3160547 -0.18930942 0.1676318 0.17037475 -0.20311266 0.1183042 0.27243307
1445 -0.27302584 -0.2142533 0.25190303 -0.2930971 0.14194061 0.1762051 -0.020164965 0.011110207 -0.10654519 -0.378253 -0.22051658 -0.048031833 0.08522552 0.2619943 -0.6649116 0.16922766 0.34144035 0.47566277 0.3510023 0.08848809 -0.55051935 0.08414183 -0.20232756 -0.2734795 0.26758787 -0.20035568 0.17448248 0.40415844 -0.3836335 0.22212903 -0.04684519 0.21158578 0.35394928 -0.3971052 -0.2723572 0.13560958 0.46388373 -0.011249675 0.1441191 -0.30821806 0.1055807 -0.66273165 0.052919254 0.35392895 0.11313198 -0.25099498 -0.039438173 -0.919776 0.244878 -0.48898894 -0.39078295 0.7453475 0.08562611 -0.5416142 0.019044321 -0.591056 -0.19747922 0.47419518 0.18028118 0.18518206 0.21147087 -0.108204655 0.29489282 0.14031033 -0.46791944 0.20745917 0.32722574 -0.06993073 -0.19149686 0.42350188 -0.17646448 -0.35227558 -0.10630033 -0.4607985 0.25395885 -0.5169834 -0.0072620227 -0.07878467 -0.25739712 -0.27676156 0.4016909 0.13171127 -0.51347435 -0.12495611 0.16763397 0.062125765 0.03252497 -0.042362124 0.30166653 0.027712293 0.3892668 -0.21147494 0.24618559 -0.54961836 -0.101332285 -0.11599259 0.0671092 -0.19035882 -0.3889032 -0.6269056 0.23112747 -0.29564348 -0.03038624 0.050033234 -0.3834547 0.46210587 -0.41294438 -0.26960558 -0.22750372 0.11186407 0.30953562 -0.08402761 -0.20168076 -0.4221984 -0.2559498 0.4337801 0.14954019 -0.47487304 0.076813444 0.21884392 -0.027628172 0.43510762 -0.20957455 -0.1588709 0.22611022 -0.47901586 0.0495779 0.05964137
1648 0.3815351 -0.29250854 0.055521898 -0.52287805 0.038586307 0.14856656 -0.026178222 0.27621466 0.27860516 -0.0694892 0.64462745 0.018812133 -0.049200557 0.25250718 -0.40113962 -0.07598744 -0.29926535 -0.19929598 0.39985475 -0.0408143 -0.34030953 -0.26751935 0.17039965 0.5853772 -0.0689127 0.41617465 -0.3595565 -0.15538998 -0.01540395 -0.06647685 0.12469671 -0.19494526 0.3702906 0.4492615 -0.28937393 0.17794949 0.01549108 0.0789693 -0.03728078 -0.2727079 0.22700301 0.030626161 0.1411078 -0.18088333 -0.15662901 -0.28117433 0.0638629 -0.16792464 -0.11600474 -0.24985294 -0.27420342 -0.34335667 -0.14591286 -0.2339052 0.047124773 -0.17854674 -0.047984995 0.28400356 -0.08677694 0.5174675 -0.07212067 0.118235104 -0.15178294 -0.23026134 0.21654451 0.3401273 0.4157345 -0.4677745 0.17074697 -0.0628776 0.23024373 -0.30964994 -0.20266005 0.4551807 0.07510467 -0.4990555 -0.02728233 -0.083658054 -0.077070504 -0.63721675 0.66986436 0.6654425 -0.031612884 -0.45259377 -0.05524922 -0.07753045 -0.21582519 -0.49970964 -0.21868008 0.08708732 0.17739289 -0.2532783 0.3199642 -0.34486073 0.08600111 -0.39702508 -0.50456953 -0.2809341 0.01804155 -0.12196995 -0.01898339 0.17822671 -0.20785254 0.04601963 -0.010079382 0.15916497 -0.33870882 0.021257997 0.033072095 0.4065786 0.10669678 0.37587878 -0.4861429 -0.74299973 -0.0665432 -0.12604608 0.02785474 -0.2894236 0.065125786 0.19224481 0.2902517 -0.36445466 -0.23397882 -0.2572608 0.06481255 -0.2844644 -0.6832302 0.5193791
1434 -0.092838846 -0.47638848 0.22354412 0.07834394 0.17548783 0.32645687 -0.3837746 0.25865483 -0.20227285 -0.033625796 -0.015172656 -0.12940364 0.15056993 0.32022393 -0.2248611 -0.2245678 0.20350453 0.519845 0.25071555 0.08520726 -0.16058375 -0.06362226 -0.3546693 -0.37593657 0.47023994 0.0023107133 0.2064758 0.21601354 -0.51309586 0.05446802 -0.21940222 0.23849478 -0.15459855 -0.2751279 0.13821182 0.006502427 0.409298 -0.06045347 0.15588602 -0.28667873 -0.088792875 -0.23757821 0.16720186 0.16886158 -0.115841955 -0.012872153 -0.0049220836 -0.5549621 0.16071194 -0.29848537 -0.54490954 1.0702251 -0.23030744 -0.29049483 0.10971523 -0.16231321 -0.046161495 0.53858453 0.11263899 0.3493863 -0.29948455 -0.39950785 -0.26251572 0.0830875 -0.05797189 0.10708875 0.47447482 -0.0690425 -0.3106465 -0.20031096 0.053453557 -0.2895491 -0.229767 0.0785569 0.23293222 -0.3600582 -0.42604393 0.13113791 -0.26904526 -0.5738177 0.17442092 0.053833146 -0.05782538 -0.145712 0.24756907 0.28229147 0.07995124 0.06479271 0.06522052 -0.3673629 0.371254 -0.25647938 0.09531342 -0.41395292 -0.15067188 -0.08893859 -0.14433049 0.12238529 -0.11203492 -0.46911004 0.26098022 -0.37357968 -0.068473525 -0.34070033 -0.46856472 -0.3060231 -0.35724524 -0.35779047 -0.6001216 0.08399252 -0.14970157 -0.10668422 -0.404397 -0.051125817 -0.15287973 0.54874796 -0.026592305 -0.07100335 0.2297064 0.43794397 -0.21920629 0.21599205 -0.1062807 0.03907499 0.29002976 -0.7677684 -0.047378253 -0.13669595
1637 0.26500157 -0.10843948 0.45286167 -0.36029497 0.31965345 -0.101588346 -0.19140902 0.3050839 0.26477498 -0.22530887 0.4550696 -0.13800108 -0.066797644 0.019682117 -0.015251875 0.009273709 -0.08520258 -0.010651835 0.40801096 -0.034144428 -0.18390591 -0.33712426 -0.004848376 0.5597385 0.35613772 0.7247739 -0.09828074 -0.020510228 -0.116526075 -0.20285964 0.28324464 -0.13128838 0.16963397 0.22894998 -0.33872733 0.20062013 -0.20572017 0.0072213504 0.1854957 -0.14532079 0.65704906 0.23391892 0.18896128 -0.28005838 -0.23109327 -0.44548783 -0.055569816 0.24206659 -0.03648347 -0.2716607 -0.3897018 -0.36244687 0.2376227 -0.14176132 -0.2259748 -0.45338833 -0.056781266 -0.09050695 0.42498 0.652015 -0.16697825 -0.11324112 0.14065962 -0.30571118 -0.37011334 0.07203144 0.5165684 -0.16977736 -0.35093614 -0.029877229 0.094211936 -0.26356167 0.21886079 0.5646864 0.23458332 -0.350629 0.058837105 0.30954075 -0.08684692 -0.73001635 0.32290363 0.77215934 -0.06171547 -0.55552256 -0.006218061 -0.066240266 -0.34077278 -0.0478155 -0.021076793 -0.06517549 0.27042124 -0.14301154 0.33450338 -0.7799813 0.011813305 0.14890407 -0.20280965 -0.41489848 0.22061695 -0.1896539 -0.008254262 0.34745616 -0.16781017 0.041217294 -0.11533151 0.009432938 -0.4353839 -0.16233075 0.08933748 0.120818734 -0.27274507 0.1875491 -0.17273334 -0.53384 0.103237234 -0.34639975 0.4397737 0.0615764 -0.06885753 0.08195877 0.21300751 -0.33455503 -0.39495525 -0.29056236 0.030469172 -0.16627494 -0.20204888 0.6139782
1525 -0.011400263 -0.18821931 0.049383588 -0.8141265 0.44942546 0.012129389 0.07908101 -0.1640689 0.54953504 -0.35486773 0.12862171 0.07102033 -0.051207766 0.25511226 -0.021704735 0.57325035 -0.26418197 0.54037124 0.36739877 -0.10054449 -0.1410779 -0.24117304 -0.18840009 0.33925435 0.02171517 0.23857507 -0.057739936 -0.12692343 -0.41149038 -0.4072465 -0.25869054 -0.23524377 0.35333335 0.7249587 0.075560816 0.61429423 0.31095606 0.23701373 0.21258701 -0.47418055 0.16672105 -0.28339824 0.2420966 -0.06152615 0.055675913 -0.38846326 -0.12665522 -0.10301389 -0.3436105 0.036892813 0.3837562 -0.3256186 -0.19704473 -0.39189357 0.173326 -0.2377562 -0.22030914 0.28692296 -0.09701601 0.23727193 0.19378549 -0.080411986 0.18519713 0.2063471 0.07532819 -0.056623887 0.5673243 -0.40410337 0.074654154 -0.15185207 -0.3208452 0.026309032 -0.023187047 0.08783457 -0.17192058 0.00054760283 -0.19799624 0.23608322 -0.5190452 0.0307089 0.1048596 -0.21049213 -0.12920174 -0.33594587 -0.31972888 0.090326555 -0.71613103 0.16237257 0.010081005 -0.03083469 0.865914 0.21397786 0.052497253 -0.22456956 -0.17489418 -0.49762338 0.18471886 0.34345126 -0.02104637 0.167894 -0.06596139 0.3555804 0.016576476 -0.5726653 -0.24671827 0.24085169 -0.0320893 0.5292173 -0.14544384 -0.22385222 0.3152759 -0.25896552 -0.30406708 -0.34189984 6.023222e-05 -0.03343223 -0.05958807 -0.09608477 -0.1101089 0.3396346 -0.2320645 -0.13224098 0.23461829 -0.06354213 0.63828135 -0.098381296 -0.35611257 0.04753769
1653 0.4040906 -0.15801053 0.072589085 0.05566167 0.41531047 0.35299987 -0.12733443 0.1341033 0.47603956 -0.0006378891 0.47412038 -0.38742217 -0.28358123 -0.17154065 -0.27290076 0.3002253 0.050386846 -0.12173498 0.18840574 -0.21798237 -0.36473933 -0.014467039 -0.06807177 0.46099126 -0.07410578 0.6644279 -0.48719054 0.05502756 -0.04273032 0.08264724 0.5013077 -0.036111332 0.624952 0.14277494 -0.35703284 -0.11997104 -0.24054183 -0.14984341 -0.04324751 -0.3377632 0.38952187 0.117162816 0.4791986 0.08836115 -0.25565112 -0.559319 0.20221898 -0.12069186 -0.11393306 -0.10912339 0.23387362 -0.13905975 -0.3070045 -0.3637396 -0.100075535 -0.16469708 -0.19062889 0.41105697 -0.13779254 0.5432732 0.01853189 0.07267646 0.07847642 -0.11979732 0.1632553 0.37191063 0.7355482 -0.17893663 0.0473264 0.19581114 0.11602124 -0.3305652 -0.022102546 0.056954164 0.23546608 -0.3738398 0.08713034 0.09197152 -0.036492534 -0.45724845 0.15917574 0.20837502 0.1834211 -0.36172915 -0.30113593 -0.25994357 -0.16958475 0.16635974 0.032605365 -0.049594432 0.029247083 -0.24636202 0.38602585 -0.36120757 -0.20903786 0.19376951 -0.56509495 -0.42186803 0.2939356 -0.2989623 -0.26201767 0.4073783 -0.08710305 -0.22484173 -0.29962575 0.07534074 -0.5684383 -0.2472037 -0.40346754 0.3211586 -0.2546403 0.14679745 -0.36383626 -0.48386002 -0.26601902 -0.5035955 -0.23408708 0.075406425 0.1976507 0.24480131 0.43225926 -0.5660271 -0.062636934 0.0023423824 0.34033585 -0.031354528 -0.31574577 0.41057122
1638 0.35039806 -0.14253032 0.13876942 -0.4229847 0.07463771 0.1773857 0.10244938 0.075356066 0.4576049 0.29534596 0.5053129 0.016495813 -0.12121149 0.06092192 -0.36871007 0.34868553 -0.3203375 -0.18697497 -0.08819684 0.10976836 -0.4454193 -0.16587883 0.037158266 0.6485679 -0.11105962 0.4199385 0.09392806 0.15214282 -0.13945702 -0.06763521 0.25512612 -0.01841317 0.4499534 0.3693062 -0.2217008 0.34077185 0.018465599 -0.008214028 0.03666168 -0.35882512 0.31213483 -0.2743502 0.47844723 0.058337234 0.020094281 -0.38619834 -0.04824202 -0.018354094 -0.49587598 -0.21336204 -0.16361856 -0.15628047 0.06862469 -0.58058673 -0.38640144 -0.25432006 -0.24066524 0.17269544 0.014618182 0.16429442 -0.25669155 0.058026742 0.08520469 -0.12015114 0.09782337 0.25153437 0.49549112 -0.12821986 -0.013798576 0.31169447 0.4303978 -0.56841326 0.28438717 0.47574452 0.12728599 -0.5655682 0.08407358 0.5379195 -0.11878455 -0.70527315 0.24556755 0.4414329 0.06537023 -0.53227913 -0.19451712 0.09385237 -0.25684294 0.030948257 -0.031718448 0.040017985 0.42437163 -0.35819608 0.052120674 -0.34877664 0.0028551868 -0.55841726 -0.2169947 -0.11831068 -0.040239915 -0.0687431 -0.2936616 0.5696318 -0.16255973 0.079372875 0.06228794 0.21266262 -0.5792634 -0.15362723 -0.11676946 0.26929802 -0.15071063 0.50761014 -0.028998328 -0.68512785 0.11195685 -0.023685334 0.53786176 -0.10183122 0.16755556 0.17692377 0.50507414 -0.303836 -0.22801615 -0.19549528 0.2328524 -0.20894368 -0.49143633 0.26986438
2288 0.64344233 -0.21374777 0.11442164 -0.5993078 -0.0076609342 0.8494721 -0.22089851 -0.25517252 0.21929702 -0.3042602 0.41163296 -0.2651669 -0.29013014 0.1661284 0.2298626 -0.5377942 0.14325483 -0.07246582 0.11062575 -0.2292294 -0.47278914 -0.5111685 0.35665157 -0.2519637 0.19660154 0.4721546 -0.045376174 0.087818496 -0.24427576 -0.5136057 0.11850798 -0.08499651 0.37561125 0.5196389 0.1779229 0.07207792 -0.6139116 0.24639338 0.28881696 -0.11240467 -0.09858411 -0.5985178 0.18060008 -0.23025455 0.30255967 -0.5677039 0.21237376 -0.3868814 -0.16418567 -0.40748787 0.11016687 0.15224406 -0.25427088 -0.41463524 -0.4408996 0.15314755 -0.45226887 0.00692634 -0.1736496 0.23061894 -0.114017814 0.123535536 -0.051692758 0.18121743 -0.122679725 0.082428485 -0.2550777 -0.15684874 0.009204882 -0.47481948 -0.20061024 -0.343416 0.04856483 -0.6326533 0.09087302 0.19922939 0.036108438 -0.19015744 -0.22741456 0.011410427 0.10078394 0.48032114 -0.27833882 0.11610211 -0.088019006 0.34305662 -0.35854003 0.19456704 -0.39241207 -0.24855097 0.4885476 0.097247876 0.2517018 -0.032534532 -0.6596714 -0.29512373 0.19551057 -0.13282572 -0.15661332 -0.2990048 -0.22775191 0.34693968 0.8985972 -0.5622302 -0.3003281 -0.14040652 0.009221661 0.17987192 -0.17484753 0.2318057 0.36339477 -0.23218277 0.014378687 -0.22978936 0.5044362 -0.08992517 0.40979496 0.1370857 0.1257727 0.32313445 0.54928184 -0.119506136 0.16527665 -0.43629685 0.19922015 0.0030067523 -0.3199482 0.2670345
391 -0.022345452 -0.27839595 0.41161948 -0.33002245 0.121501 0.5388507 -0.15701379 -0.17822829 -0.04678836 -0.42631328 0.5217855 0.08792879 0.36775798 -0.15334558 -0.15491012 -0.49446124 0.43083307 0.18984966 0.46266645 0.22437674 -0.20593713 0.31059748 -0.10019498 0.010133121 0.36515853 -0.21803446 -0.21679506 0.50088066 -0.10148921 -0.011138151 -0.03981687 -0.27609447 0.05714763 -0.038964685 0.015817013 0.30481318 0.22543679 -0.21896794 0.3672353 -0.009600081 0.41724643 0.10147364 -0.37366152 0.30774298 0.15085983 -0.22866333 -0.23280275 -0.09040791 0.043980815 -0.010914175 0.024446683 0.14810982 -0.023586128 -0.06992324 0.26484853 -0.09855563 -0.020295024 0.24534962 0.113196775 0.14648435 -0.54699004 -0.3959604 -0.18617518 0.065589875 0.040567625 0.27045938 0.528146 0.11885122 -0.27814662 0.061196793 0.08934791 -0.52509874 -0.05897231 0.17415161 0.033704147 -0.16967103 -0.3544933 0.49949527 -0.6705976 -0.2219462 0.7210859 0.48115337 -0.013451422 -0.062443174 -0.22993858 0.19295649 0.08904551 0.06927487 0.063651 -0.2563619 0.34172946 -0.4883964 0.28743586 -0.40229827 -0.5055677 -0.15024142 -0.33075684 -0.45583242 0.629192 -0.5401114 0.75384074 -0.25381944 0.34533572 -0.37605262 -0.03463909 -0.2148991 -0.35088584 -0.025084186 -0.1305659 -0.3472402 -0.12833582 -0.40377298 0.18880306 -0.3195794 -0.1432726 -0.33567873 0.10433925 -0.06648006 0.37852198 0.5218629 -0.391221 0.058331862 -0.094017744 0.100643836 0.40581232 -0.23420838 0.028681256 -0.36591962
458 0.13904822 0.09590998 0.32216352 -0.14579213 0.36289272 0.18279567 0.19080816 0.17117818 0.20873286 -0.4219779 0.26364383 -0.0072635184 0.29101932 -0.083301485 -0.58089054 -0.16870897 0.2159978 -0.384039 -0.046416797 -0.16245455 -0.48942512 0.13682522 -0.6624077 -0.13273275 0.16832529 -0.16845793 -0.42912892 0.2151951 -0.47882992 0.27203616 0.17392305 -0.059561376 0.00487087 0.035439253 0.12671328 -0.20572734 0.2534643 -0.3111335 0.0764692 -0.046265088 0.52410305 -0.44653487 -0.24529779 0.091134 0.039048407 -0.68359977 -0.057425838 0.2156031 -0.13293369 -0.0516063 -0.09716904 -0.4073985 0.23718496 0.53230894 -0.019848712 0.20871839 -0.47039184 0.050597306 0.084496304 0.18460158 0.005147215 0.115986675 0.18741141 -0.20994729 0.0816589 -0.052889213 -0.005416137 -0.15165879 0.68607795 0.22379127 -0.1636518 0.26300362 -0.13357967 -0.33583766 -0.10770652 -0.18608682 -0.43796426 0.35712567 -0.12593286 0.11361717 0.4160277 0.30284145 0.22808906 -0.096138485 0.24545176 0.32632416 -0.5838807 0.023817638 0.34862676 -0.025911825 0.530069 -0.23333469 0.35853598 -0.367095 -0.03176984 -0.057736132 0.11792554 -0.009254165 -0.14560233 -0.5437383 -0.20129576 0.21676837 0.13582931 -0.18889424 0.011950174 0.3366952 -0.28499988 -0.46515462 -0.5026504 -0.13539012 -0.18403102 -0.3019412 -0.10944632 -0.45742944 0.15745157 0.1279196 -0.25651565 -0.104137816 0.36164105 0.15811189 -0.102738164 0.0003776503 -0.68736356 0.1863642 0.44163427 -0.18800776 -0.4492342 0.15821241
713 0.2661909 -0.1273765 0.32689032 -0.44098216 -0.118200056 0.24865504 0.039536588 0.34936628 0.32851952 -0.12685525 0.39343745 -0.838426 -0.22127265 0.58562094 -0.78004307 0.1280244 0.117931336 0.013488609 0.069720455 -0.28727543 -0.2908369 0.034201317 0.16515636 -0.15629096 0.2691923 -0.092428364 -0.06965859 0.46961215 -0.3735459 0.44621268 0.13340089 0.1931937 0.31729093 -0.48314178 -0.47242972 0.28381783 -0.009547199 0.036898904 -0.11408298 -0.31093678 0.24616097 -0.2644179 0.0010825386 0.60254127 -0.69550085 -0.52712953 0.023853505 0.5029273 0.083601035 -0.7822075 -0.046256844 0.07486713 0.159449 -0.56376517 -0.2753796 -0.028189998 -0.23707788 0.095809944 -0.13992107 0.07328039 0.6429271 -0.3356881 0.4138186 -0.1767766 -0.059376795 -0.12366286 0.8765744 -0.14274757 0.09187459 0.312341 0.033530127 -0.154056 -0.53830534 -0.23350163 0.27660105 0.16170679 0.21528016 0.485572 0.06435234 -0.06749038 0.17948453 0.5796078 0.50956595 -0.21720304 0.30853254 0.30010214 -0.046749048 -0.015405872 -0.16708805 -0.04243934 0.36787522 -0.5231926 0.6023199 0.056093123 -0.039646573 -0.23484945 -0.10703618 -0.15595959 0.032233313 -0.20470604 0.21091372 -0.09470432 0.39447412 0.06675333 -0.1051126 0.20251103 -0.259756 -0.09442325 -0.17564836 -0.2711672 0.13784443 0.14418556 -0.17630279 -0.2487299 -0.29484242 -0.02198155 0.06473934 -0.24019065 0.6579402 0.057848293 0.279474 -0.23471385 0.12842162 -0.086542934 0.20124991 -0.08499902 -0.028989367 0.3275603
1645 0.08510013 -0.039016668 0.26735714 -0.5067994 0.3357547 -0.18085241 -0.22975403 0.6963015 0.18174979 -0.25232366 0.4384282 0.002721583 0.05100172 0.29266208 -0.46588627 -0.29077724 -0.611636 0.40482348 0.11351712 -0.07297744 -0.44314373 -0.2515457 0.20481679 0.36801478 -0.0064078434 0.29015458 -0.4174187 0.22431812 0.16000292 -0.041192446 0.18433721 -0.14915867 0.14170906 0.13582148 -0.13117479 0.2908365 -0.31178895 -0.21508619 -0.03492395 -0.23294437 0.4365965 -0.018710222 0.6220347 -0.35415927 0.17041998 -0.36693037 0.095011525 -0.2846535 -0.109242894 -0.02975861 -0.35145247 0.14545564 -0.06374971 -0.397054 -0.2595878 -0.42639688 0.015132393 0.5066923 0.07473499 0.8616598 0.20354187 -0.29839462 0.14021197 -0.3344378 0.14799605 0.2623371 0.68753326 -0.3004064 0.08148451 0.23993894 0.29233357 -0.61894584 0.5785254 0.07774839 0.27546355 -0.4713421 0.1324858 -0.0882478 -0.28336895 -0.86138767 -0.009800985 0.52232254 0.07977409 -0.42554408 0.25099972 0.06794902 -0.34721488 -0.2081059 -0.0019075869 0.29773495 0.30945536 -0.31979537 0.23570997 -0.4519736 -0.24255507 0.08007121 -0.30217955 -0.5581718 -0.10729085 0.12886329 -0.08150292 0.04399344 -0.07769996 0.24167605 0.19312623 -0.19475071 -0.67995626 0.1044841 -0.23411448 0.024243204 0.08462196 0.25606787 0.09020435 -0.11132168 -0.045526646 0.1200424 -0.03740598 -0.065808654 -0.23509328 0.3335457 0.30836573 -0.16072834 -0.5488099 0.1288174 0.35566577 -0.3017923 -0.69391865 0.5411205
1641 0.15783592 -0.18894733 0.113752365 -0.11751268 0.15687516 0.40452605 -0.2074195 0.5467045 0.35542873 -0.29770148 0.17120941 -0.42800593 -0.33925065 -0.03237833 -0.04379706 0.42005378 -0.18397638 -0.2669157 0.01611961 0.057485465 -0.37971526 -0.32420376 -0.18849799 0.040472876 -0.20617254 0.5629597 -0.53632426 0.32411605 0.08959975 0.010702893 0.33683565 -0.19387603 0.4022032 -0.0823338 -0.23182738 0.18565303 -0.36597595 0.19920392 0.19538546 -0.27251342 0.380203 0.17883703 0.19918616 0.03785156 -0.067284614 -0.34876484 -0.25740635 0.045165565 -0.03577972 -0.09720134 0.22561233 -0.011981477 -0.019017858 -0.38736573 -0.03449687 -0.33148327 -0.13470377 0.6275877 -0.28877878 0.7451758 -0.3064376 0.3149796 0.32927117 -0.29356018 -0.067530364 0.432384 0.7460567 -0.2580667 -0.18562408 -0.3500435 0.35189483 -0.25500256 0.1080329 0.407645 0.14082882 -0.37017566 0.025572352 0.3672003 -0.0415916 -0.580549 0.24245706 0.285939 -0.026955007 0.015641721 -0.18310602 -0.26097617 -0.3880749 0.32110915 -0.229746 -0.061144073 -0.23378973 -0.3159468 0.11008622 -0.43297568 0.14008433 0.07892277 -0.27538756 -0.45826256 0.10964978 -0.012040936 0.19253005 0.3093004 0.0564124 -0.18835989 -0.26767427 0.023140082 -0.6417048 -0.5968577 -0.29803523 0.1423333 -0.27793455 0.12256943 -0.31469968 -0.042759646 -0.0007263946 -0.14464076 -0.26985335 0.14550838 0.15702024 0.0019173528 0.26624674 -0.7149468 0.14487943 -0.34707406 0.45211914 -0.18260683 -0.1895406 0.16832681
1621 0.14335662 -0.4455878 0.37415317 -0.005496713 0.571256 0.12502523 0.25393453 0.37921432 0.29165283 -0.37123808 0.43338165 -0.061035275 -0.36629188 -0.08545353 -0.29634854 0.00991484 -0.18027465 0.15336965 0.15812428 -0.23787248 -0.34537056 -0.14336208 -0.061094664 0.47874695 0.006174798 0.47339892 -0.32422605 -0.02122144 0.2018901 -0.006400243 0.39075917 -0.12701863 0.47785977 0.0596979 -0.35596132 -0.06571179 -0.41911572 0.2088198 -0.26793885 -0.23988976 0.7112058 -0.17341809 0.4507162 -0.1362528 0.11456504 -0.5127562 0.10338435 -0.19340491 0.11187964 0.1600655 0.051711738 0.03244542 0.03962877 -0.43151173 -0.124623254 -0.29424554 -0.014085993 0.33492708 0.06554128 0.5480263 -0.04951476 0.069859006 -0.085519806 -0.21944048 -0.21174522 0.6045317 0.53456616 -0.45728222 0.22663295 -0.24675019 0.43989122 -0.30796137 0.04101983 0.31241503 0.41940358 -0.38835758 0.2806168 -0.08614342 0.036824413 -0.6089593 0.25423846 0.53308034 -0.08252048 -0.5206464 -0.17869686 0.2265935 -0.31345758 -0.02501676 -0.024796067 -0.11184294 0.24530844 -0.09875178 0.29367885 -0.22470559 -0.31917876 -0.120572634 -0.2423938 -0.34573704 -0.010263269 0.12658992 0.27995437 0.39966097 -0.27913353 0.021076314 -0.07213532 0.14440769 -0.3976747 -0.34281442 -0.0003459843 0.10864928 -0.18238266 0.38743934 -0.30491325 -0.21303362 -0.05207096 -0.014967791 -0.14505443 0.18059266 -0.29229537 0.42766517 0.53105515 -0.09417337 -0.027845006 -0.028076788 0.3853458 -0.06287675 -0.45024905 0.004448338
2148 0.23937011 -0.3478179 0.48672017 -0.58489424 0.31174907 0.52183205 0.28815624 -0.28930086 0.5183691 -0.37393 0.46885854 -0.038771424 0.0201039 0.12262249 -0.35596123 -0.26386654 0.41780922 -0.3011452 0.07703048 -0.32978842 -0.26547512 0.2032665 0.23723264 0.32806256 0.50501895 0.5675943 0.3768541 0.34929162 -0.19323865 0.022296825 0.21524213 -0.038219757 0.12998232 0.44933617 -0.12753028 0.2621821 -0.040460475 0.19885987 0.5300099 -0.6770673 0.04959707 -0.2545751 0.14177671 0.051171336 0.14682327 -0.22314134 -0.7244899 -0.4850586 -0.6657667 -0.5786327 -0.09200957 -0.05317608 -0.35867235 0.20786476 -0.47785857 0.43590456 -0.48388788 -0.056391235 0.47138944 0.0011036329 -0.05731171 0.0016429361 0.23103832 0.42409086 -0.1091824 -0.068607286 -0.2327095 -0.8728184 0.13477753 -0.12338454 0.04709814 -0.24527286 -0.1921309 -0.068884544 0.37648243 -0.07003309 -0.022736028 0.3088507 0.35059878 -0.11005608 -0.07634263 -0.023952594 -0.19851293 -0.24525881 0.096105985 -0.013634161 -0.46190512 0.2667461 -0.13500407 -0.15105279 0.5887268 -0.21678163 0.35368523 -0.35096142 -0.48980197 -0.33469722 0.40789622 -0.35295284 0.56813544 -0.08779533 0.103347175 0.4788233 0.011197677 -0.3167878 -0.19860105 -0.17102544 -0.47564375 0.0018543027 -0.15412489 -0.102626756 0.7202807 0.082799904 -0.24519 0.018800575 0.4024238 0.0003138572 0.27323896 0.08809858 0.4220337 0.39590916 0.056932896 -0.64073014 0.107181974 -0.09810522 -0.1600166 -0.32961214 -0.233483 0.40596735
682 0.4317511 -0.16366589 0.07693082 -0.7014301 0.05539567 0.055179257 -0.10589791 0.25891048 0.47462156 -0.037039515 0.28163275 -0.38350698 0.14661969 -0.0791281 0.10642601 0.1984953 0.038449034 -0.13478695 0.18178067 0.24511287 0.19505994 -0.23294474 0.014895327 0.17668697 -0.21093604 0.7823355 0.32983133 0.47209844 -0.26698038 0.50423706 0.6220857 0.1275391 -0.104739085 0.28147593 0.042908326 0.46390042 -0.12502655 0.040036604 0.10449723 -0.5321248 0.19400269 0.24283011 0.17001912 -0.14904669 -0.21220836 0.032395527 0.47528815 -0.24087654 0.3757203 0.15860388 0.0070843548 0.057226434 0.5800668 0.23271911 0.007100097 -0.019970398 -0.23359695 0.51664925 0.14403309 0.36069918 0.34690028 0.18352583 0.48460624 -0.1487417 0.25643486 0.30286515 0.3356582 -0.6253833 -0.16636826 -0.37126917 0.33011776 -0.39892048 -0.27118206 0.55267644 0.35076374 0.031069469 0.15403585 0.5537896 -0.33532017 -0.07214776 0.54026383 0.09000231 -0.18643925 0.093224406 0.4921297 0.72744775 -0.21902362 0.07590987 0.020634012 -0.51174206 0.15868759 -0.32842466 -0.3879889 0.13169448 0.054631833 0.104837514 -0.4879882 0.14388599 -0.2757422 0.021108601 -0.39834937 -0.018427197 0.5786414 -0.33225882 -0.19924304 -0.37130478 0.064810954 -0.65941256 -0.30274522 0.12193045 0.27822146 -0.19087812 0.19664033 0.087358125 -0.17533243 0.26682514 0.12021819 -0.09614462 0.14072557 -0.25608042 -0.22807287 -0.44369867 -0.31788242 0.35948473 0.86243373 0.03226665 -0.71772486 0.020226073
1460 -0.07877837 -0.26993024 0.5099891 0.14059074 0.3447644 0.42693666 -0.36372742 0.45351323 -0.1635587 -0.22047116 -0.18578643 -0.23583615 0.24817869 0.12043476 -0.6178387 -0.083090186 0.14081846 0.07243183 0.35609913 -0.030334223 -0.3282227 -0.2829219 -0.3323714 -0.3885988 0.3414245 -0.06258646 0.08660653 0.30372044 -0.53004795 0.107989624 -0.009784961 0.22530426 0.22350053 -0.40477532 -0.22550043 -0.05880569 0.2849187 0.0053373836 0.23871888 -0.37845156 -0.07260973 -0.3868591 0.13904238 0.22035989 0.027121115 -0.07509747 0.088615805 -0.61329824 0.2724331 -0.28086764 -0.5480497 0.87033045 0.03909697 -0.09376099 -0.024298463 -0.13776845 -0.1599601 0.62916344 0.3234624 0.44023463 -0.061690755 -0.4157505 -0.18189564 0.14801045 -0.15322605 0.029623266 0.31974354 -0.13210434 -0.14270751 -0.017375661 -0.1500695 -0.40619794 -0.24411237 0.0792111 0.201275 -0.36738747 -0.25470373 -0.040671583 -0.29612562 -0.6496638 0.06586951 0.029891266 -0.4817493 -0.026977692 0.038284454 -0.11139713 0.0007583265 0.13040946 0.14124286 -0.021296643 0.4864261 -0.5394646 0.10945159 -0.37569708 -0.23655117 -0.2215216 0.060988832 0.060447674 -0.5080417 -0.54756176 0.15504593 -0.4474279 -0.050656393 -0.31938398 -0.34835798 -0.07991401 -0.517284 -0.33704987 -0.5079874 0.071164265 0.015071089 -0.12274606 -0.39615545 -0.17838725 -0.3835169 0.34311974 0.051822737 -0.19783384 0.17597131 0.36952 0.024540147 0.3638028 -0.030810002 -0.2570526 0.28799945 -0.49259678 0.122922674 -0.041437045
1446 -0.26103702 -0.5771934 0.27698138 0.05943972 0.3937074 0.33671832 -0.5891297 0.21447992 -0.21597481 -0.07470476 -0.229006 0.0704451 0.32763964 0.4067914 -0.42809933 -0.11972386 -0.006038061 0.2037202 0.15970005 -0.08866559 -0.3991907 -0.113957316 -0.22938563 -0.21164514 0.49304062 -0.023621345 0.28050974 0.27266675 -0.5431545 0.1869521 -0.065874726 0.23552303 0.15495743 -0.28419232 -0.1290507 -0.008255692 0.28193036 -0.058518004 0.10316318 -0.4443504 0.038185388 -0.12002598 0.29254106 0.18071553 0.16386722 0.017312357 0.13624933 -0.58920395 0.25918603 -0.3415723 -0.5771391 0.7790135 -0.014025101 -0.32472003 0.22093052 -0.31293207 -0.037448358 0.5783684 0.2576668 0.45819917 -0.14716741 -0.1726821 -0.10565863 -0.041247085 -0.16882002 0.27500552 0.36678085 -0.16253954 -0.15943588 0.20591588 0.12142909 -0.3717548 -0.34899032 0.073597 0.2679212 -0.39432102 -0.31349915 0.1301229 -0.3483616 -0.6720669 0.3387537 0.11683968 -0.36875233 -0.011490442 0.041919228 0.035486065 0.22781463 0.16483185 0.20796399 -0.19478598 0.63275516 -0.39006442 0.071244374 -0.43693733 -0.25406295 -0.41040093 0.06318327 0.12244073 -0.28980497 -0.6105799 0.33948645 -0.1596628 -0.09956386 -0.39338017 -0.43050122 -0.074451536 -0.29252982 -0.19382317 -0.37865415 0.100906126 0.2256435 -0.10985856 -0.38564306 -0.13908617 -0.16837719 0.35791472 -0.05642549 -0.3874619 -0.014392675 0.36332473 0.0414661 0.27269235 -0.099024154 -0.011810078 0.34614506 -0.6499228 0.16395575 0.05539088
1443 -0.18727435 -0.3730048 0.55250883 0.1743049 0.2052006 0.41427588 -0.18760416 0.4713103 -0.06765828 -0.06992231 -0.05457593 0.02033844 0.25915077 0.020128531 -0.4594108 0.046793986 0.10503706 0.3816759 0.27387074 -0.0007916304 -0.41494417 -0.2609549 -0.34512025 -0.08347585 0.47980246 -0.18794975 0.16788955 0.5712913 -0.5844872 0.028078496 -0.05216078 0.21349286 0.2491006 -0.3087759 0.018974146 0.09535966 0.15612966 -0.25704032 0.24082664 -0.044992913 -0.021953108 -0.19840051 0.0041880924 0.05687208 -0.0017748201 0.033062194 0.38281724 -0.6962758 0.11808331 -0.30048597 -0.36276135 0.75283 -0.13821793 -0.32121396 -0.022273628 -0.2225397 -0.16218488 0.36840287 0.1706709 0.21992822 -0.25276542 -0.10731646 -0.060691074 -0.070127495 -0.22813337 0.124852 0.36290762 0.09184409 -0.38522136 -0.18967198 0.15721256 -0.3412502 -0.35329813 0.10891725 0.23804754 -0.26696515 -0.31673995 0.074720494 -0.27583537 -0.9157974 0.081006855 -0.059247334 -0.20128885 -0.1820853 0.12562473 0.096237384 0.06722803 0.29367596 0.106213056 -0.072171986 0.352623 -0.29910567 0.27776608 -0.3354728 -0.10021716 -0.20693971 0.14147432 -0.05461942 -0.38734514 -0.47699448 0.20034863 -0.26850638 0.1730181 -0.30353373 -0.17589924 -0.085089505 -0.38812912 -0.37013566 -0.4619063 0.08989141 -0.068688765 -0.23165666 -0.087830365 0.01700805 -0.25964206 0.18607529 0.1947553 -0.03737581 0.27030724 0.55329895 -0.16968074 0.44599754 -0.16333582 -0.19322464 0.74129105 -0.3542989 0.044708 -0.19691192
69 0.16456866 -0.3525051 0.12017984 -0.3453167 0.2249563 0.012060674 -0.11378919 0.4557654 0.43629318 -0.47229648 0.18634793 -0.032288168 0.036649738 0.5646627 -0.33474666 -0.052053366 0.27519077 0.19479467 0.33633286 0.107591204 0.29147565 -0.1503385 -0.033918295 0.7783845 -0.10453298 0.53998435 0.35620767 0.20371637 0.18013711 -0.19885251 -0.21180318 0.23676847 -0.41011116 -0.43644518 0.08978808 -0.119578764 -0.08591519 0.06406816 0.019319104 -0.0752865 0.17434186 -0.26525754 -0.36688903 0.51226723 0.011051753 0.08574165 -0.14036143 -0.266788 -0.4048322 -0.18115568 -0.15366746 0.39204302 -0.16430253 -0.15710157 -0.34876165 -0.29701588 0.0077652065 -0.13550906 0.22788498 0.38297576 0.07271206 0.31005526 0.7025784 -0.49447948 0.37326038 0.3301456 0.19283481 -0.13754395 0.008266753 0.08702417 -0.3741796 -0.36906785 -0.35701817 0.12071221 -0.19757223 -0.2738044 -0.591388 0.4790932 -0.42852205 0.19444354 0.619312 -0.076576784 -0.6472695 -0.024962312 0.45345768 0.13166165 -0.34010357 0.43595323 0.39325437 -0.014457469 0.5748524 0.08425638 0.12021114 0.028118754 -0.17291524 -0.4685602 -0.14586678 0.14018722 -0.39652964 0.06706143 0.6694146 -0.037820555 0.076029725 -0.30156744 -0.018562408 0.028548311 -0.0057592876 -0.51470107 -0.33389744 0.24036072 0.42738077 -0.24982457 -0.118785635 0.010678979 -0.21810213 0.465658 -0.13166888 -0.58518773 -0.026936393 0.47057495 -0.08385515 0.13639818 -0.5805269 -0.56255496 0.06597116 0.034190968 0.017037608 -0.1401947
602 -0.0052902275 -0.09083051 0.3574453 0.014820712 0.44340461 0.6280758 0.0022124932 0.53788996 -0.23786892 0.34322956 -0.0055182413 0.005969821 0.46121383 0.17299849 -0.10300886 -0.13521418 -0.0019817145 0.31106883 0.58780754 -0.08811497 -0.39857996 -0.4155945 0.08455375 -0.14862083 -0.49489942 0.37383097 0.21341819 0.27045712 -0.13485554 -0.2916094 0.80520636 0.647431 0.09240072 0.34697682 0.11450842 -0.24751437 0.1085995 0.11854105 0.39984006 -0.14517604 -0.109848335 -0.51483715 0.07066683 0.31898275 -0.073125064 -0.33885354 0.033256438 -0.20788695 -0.26183286 -0.08820708 0.12663181 0.3866495 0.31387794 0.33209118 -0.08579759 -0.24465504 0.37996548 0.29869905 0.25869483 -0.004805618 0.43468624 0.33124125 0.1838141 0.265939 0.22507828 0.36418396 -0.01731347 -0.29572025 0.094736084 0.13965528 -0.091595545 -0.3134084 -0.06317075 -0.123285174 -0.16403951 0.10712194 0.3739486 0.2786527 -0.08197001 -0.014142682 -0.0039971005 -0.29672 0.39453757 -0.019874569 -0.29834569 0.33358744 -0.5329638 -0.5225621 0.32108 -0.1334813 -0.20113541 -0.33791402 0.4659322 0.08510229 -0.33231184 -0.72718126 0.13011727 0.50513065 -0.36206207 -0.26675072 -0.11834733 0.3497666 0.13412197 -0.6343243 -0.21552569 0.22557099 -0.3303951 -0.3676798 -0.15145068 0.08011653 0.40719706 -0.16966367 -0.14628956 0.044949804 -0.26665998 0.15436478 0.24037579 -0.3396098 -0.30318436 0.26432174 0.13808489 -0.31616965 -0.010054943 -0.14382322 -0.35612378 0.16590774 -0.26254544 -0.3958304
31 -0.04854704 -0.66495144 0.2940418 -0.19594647 0.3122818 -0.0919693 0.23523577 0.4957392 0.2214982 -0.06250968 0.3328373 0.13203013 0.220145 0.40709847 -0.17790927 -0.079279065 0.24663568 0.016107718 -0.0035967294 0.05308843 -0.05556326 -0.091084644 0.28294045 0.16991375 -0.17705531 0.61176515 0.08437477 0.9712222 -0.39783078 -0.18781935 0.18174726 0.36503553 -0.035080902 -0.59511894 -0.15539853 0.12278474 0.24459738 -0.5708898 -0.2564524 -0.36162814 -0.27188757 -0.03579824 0.028673053 -0.24854328 -0.05137703 -0.20700766 0.024243955 -0.5266045 0.13816884 -0.2779613 -0.3089944 0.57294226 0.3762056 0.2986267 -0.03396496 -0.11975475 -0.10972297 0.33474907 0.28799033 0.61226594 0.35816345 0.21158879 0.27952737 -0.078927234 0.25213423 0.35373506 -0.1285205 0.043892164 0.12932801 -0.08835246 -0.00013542634 -0.16514339 -0.21465765 0.41767317 -0.25520486 -0.30074105 -0.59596294 0.3350459 -0.787767 -0.14938898 0.3924669 -0.4709009 -0.40117946 0.0050350036 0.37678128 0.25007564 -0.018759368 0.07122497 0.71168584 -0.24848488 0.36696756 -0.3545925 0.23735374 -0.41644385 -0.13758987 -0.2722318 -0.16902432 -0.109547466 -0.096175484 -0.30047894 0.25827482 -0.15904771 0.47307044 -0.60266316 -0.018436959 0.32850447 0.15931259 -0.5281442 -0.29760817 -0.19059794 0.19664825 -0.2989997 -0.1414298 0.13083236 0.08377995 0.5482701 -0.047939904 -0.125249 -0.27339953 0.116249174 0.15964253 0.042466648 -0.057249915 -0.2495663 0.29718024 0.0018022436 -0.35123128 -0.35427573
1476 0.017255675 -0.27575237 0.22811474 0.3512234 0.56574005 0.54814065 -0.63596505 0.43783 -0.02549599 -0.37975156 -0.3137468 -0.0725515 -0.041396607 0.085212275 -0.27294302 -0.12992337 -0.21114466 0.03700037 0.23684911 -0.21309711 -0.38914537 0.20572539 -0.30977598 -0.3022297 0.6200414 0.14221983 0.13814153 0.19979027 -0.13391034 0.11066585 0.15232795 0.15062413 0.18227856 -0.27094674 -0.53764087 0.23948388 0.17771034 0.07804055 0.3645034 -0.30602396 0.00042718553 -0.17385879 0.1771898 0.18390152 0.08213043 0.016169475 0.18410799 -0.49048227 0.23213542 -0.38520035 -0.8432958 0.501261 -0.12818028 -0.1757117 0.38834423 -0.27189252 -0.3030592 0.5548441 0.046260733 0.40992436 -0.29487383 -0.1444436 -0.119032465 -0.31669086 -0.16481823 0.38469943 0.10089609 0.005679297 -0.3392787 0.008892136 0.32171628 -0.3677767 0.06717778 0.25526154 0.41387346 -0.58657974 -0.3241801 0.10608195 -0.24993652 -0.80292016 0.12585297 -0.10345486 -0.2927196 -0.34266683 -0.15169409 -0.32555243 0.3456852 -0.06976585 0.26843384 -0.045844935 0.6283376 -0.20408683 -0.097099766 -0.5553706 0.041386634 -0.27416727 -0.08114828 0.004581262 -0.397531 -0.69006604 0.016510645 -0.37983564 -0.22988525 -0.5942557 -0.1415531 0.24897628 -0.21562496 -0.300032 -0.13236399 0.49678493 0.40994948 0.0018688157 -0.1371127 -0.021096485 -0.31538227 0.31607518 0.14127636 0.04776979 -0.10527766 0.33818638 -0.062085945 0.23962748 -0.07326247 -0.27338642 0.22820628 -0.49315655 0.15747194 -0.1969782
226 0.037132256 -0.7726357 0.20835052 0.2929951 0.29327467 0.5595215 -0.36710238 0.14952369 -0.023186041 -0.21675842 -0.001836403 -0.16243485 0.028022405 0.12789953 -0.25637525 -0.49725622 0.087225184 0.06705106 -0.012478345 0.039470427 0.090900294 -0.24378625 -0.16633934 -0.46485257 0.5110162 0.0943898 0.089665756 0.18886201 -0.26287165 0.39096355 0.0038795373 -0.028011471 0.011279118 -0.15134317 -0.063680425 -0.13961983 0.22868575 0.04302456 0.14280827 -0.53264564 -0.12680972 -0.2863003 0.109050944 -0.07625903 -0.008915404 0.21376246 -0.27246687 -1.0046988 -0.09147305 -0.006806882 -0.8590521 0.44097823 -0.23573174 0.06062978 0.07611592 -0.3928171 0.2078176 0.5413844 0.28966814 0.6691852 0.25357476 0.01627013 0.11286591 -0.037165005 0.102847174 0.2734066 0.012928421 0.18451242 -0.15913959 -0.13698456 0.123437844 -0.2490355 -0.13558973 0.24190117 0.13760234 -0.31528753 0.2235181 -0.12654236 -0.27012298 -0.24037082 0.23062271 0.040926356 -0.24389434 0.23590125 0.3318034 0.15696637 0.16767116 -0.19493406 0.19728838 -0.056542248 0.6888198 -0.038315237 0.090368316 -0.6090115 -0.23800324 -0.47106606 -0.31731054 0.0135574145 -0.25863934 -0.28774458 -0.020484444 -0.23581387 0.018451147 -0.44587764 -0.4034185 -0.02975362 -0.37307057 -0.41817504 -0.36654633 0.009636824 0.4099502 -0.20100544 -0.42045486 -0.6483888 -0.18992262 0.6078536 0.020924041 -0.38080278 0.013266588 0.5527833 -0.028741775 0.31176293 -0.0077813957 -0.297572 -0.020879444 -0.27184632 -0.15705737 -0.25319877
1478 -0.4276358 -0.5050578 0.5948671 0.15773894 0.34756002 0.25035852 -0.0061191977 0.5176441 -0.29933876 -0.1182672 -0.07403672 -0.1285293 0.25885555 0.3069382 -0.6838591 -0.17865306 0.10283334 0.21042249 0.24920912 0.09468148 -0.43197632 -0.1942979 -0.020969674 -0.3107528 0.31931892 0.00318959 0.21559396 0.2758824 -0.5037077 0.056013647 0.31403607 0.67573553 0.12655245 -0.30862552 -0.15144005 0.1354854 0.2037587 -0.05364097 0.04956591 -0.44875607 0.010968377 -0.43004805 0.14711237 0.118845716 0.023290465 -0.09813353 0.11180215 -0.5106934 0.21789473 -0.26381052 -0.5848243 0.9506899 -0.18378608 -0.36080182 -0.20703001 -0.2585729 -0.3862188 0.44498324 0.13217561 0.51966786 0.022802824 -0.35529298 -0.09103589 -0.048274856 -0.16853002 0.10770443 0.48362547 -0.08817566 -0.25224158 0.19062932 -0.18876238 -0.30571714 -0.2667041 0.063651 0.15894853 -0.15339561 -0.32639956 0.04511578 -0.3617273 -0.48009333 -0.0585249 0.095379315 -0.21389659 -0.15259185 0.06896532 -0.262722 0.16815946 0.08889829 0.025020203 0.118971154 0.35733455 -0.50775564 -0.093254775 -0.24859361 -0.18239462 -0.19738296 -0.06306236 0.02231518 -0.45931843 -0.46282697 0.19193782 -0.54032046 -0.09728191 -0.46889135 -0.36898082 -0.1329925 -0.5525967 -0.32948002 -0.21455216 -0.046525788 0.18607001 -0.114000306 -0.5770677 -0.3515045 -0.48832694 0.33789286 -0.05973264 -0.29425287 0.40105903 0.43618685 -0.04144018 0.41111043 -0.3591235 -0.33536676 0.36449888 -0.42165643 0.25024864 -0.06833072
569 -0.24899398 -0.21360162 0.45298764 0.35256502 0.08038854 0.56776017 -0.058404043 0.50962883 -0.2782322 0.093382075 0.01168252 -0.6465896 0.5971702 0.4079747 -0.18442221 -0.1591281 0.19688086 -0.24314548 0.17502333 -0.36127117 -0.42292553 -0.459704 -0.36047712 -0.12564687 -0.048483834 0.2124389 -0.1250669 0.30142346 -0.47627467 -0.24115445 0.4563917 0.55682814 -0.029491182 0.42414182 -0.051263742 -0.3677503 -0.153702 0.37033555 0.48947015 -0.35826316 -0.237975 -0.7185595 0.36466473 0.52684516 -0.19542712 -0.2185171 -0.20914648 -0.7098665 0.044551175 -0.22257207 0.13607532 1.1888454 -0.080984585 0.22894555 -0.17333609 -0.13150777 -0.45505208 0.38875118 0.13653827 0.383175 -0.27069238 0.14489308 -0.34228233 0.35153654 -0.06690813 0.31072128 0.27954337 0.2020372 0.005258184 -0.22429726 -0.4625143 -0.4126646 -0.038740814 0.17324382 -0.25010592 -0.0275925 0.17118818 -0.28201887 -0.36137456 -0.43447125 -0.06251039 -0.046986725 -0.19462544 -0.3830717 -0.111260936 0.11375209 -0.5304714 0.042591706 0.1780089 -0.24005304 0.24405965 -0.6755989 0.57967395 0.14261594 -0.60029495 -0.2647857 0.45325133 0.5227065 0.0853459 -0.47564635 0.05311879 -0.099534586 -0.3048026 -0.6708249 -0.6908075 -0.047727756 -0.44028294 -0.64000875 -0.13513707 0.049428217 0.17974383 -0.38149413 -0.4791514 -0.2899853 0.15076692 0.10482077 0.09203607 0.1994817 0.4971429 0.44459954 -0.27093711 0.060486127 -0.027644843 -0.26109463 -0.12644434 -0.2811799 -0.00010822908 -0.036155466
1423 0.0073279133 -0.4141544 0.3615779 0.11485145 0.43953902 0.5650072 -0.40525016 0.30052826 -0.080981895 -0.18024708 -0.10972758 -0.067070276 0.31441024 0.014200189 -0.6930978 -0.091942124 0.14148766 0.06928099 0.3552722 0.14271054 -0.31810588 -0.048658222 -0.32151583 -0.38446158 0.45581707 -0.2533732 0.121161625 0.17428602 -0.4501565 0.2765063 -0.19743934 0.2449152 0.13043918 -0.40274414 -0.13444309 0.07454309 0.25044248 -0.18581447 0.100018926 -0.21956767 0.09352671 -0.29070508 0.31402332 0.1009786 -0.05280441 -0.23440231 0.11529494 -0.5553334 0.16398993 -0.29303584 -0.34031665 0.65655833 -0.006707423 -0.060482875 0.17137642 -0.024156382 -0.14319903 0.72899175 0.27545375 0.38429132 -0.26526043 -0.11363966 0.03853679 -0.1519843 0.018527234 0.10939568 0.34011868 -0.055735137 -0.33017653 0.14309838 -0.017247453 -0.42661682 -0.15769304 0.11194829 0.1435887 -0.42377678 -0.3921752 -0.14918125 -0.34521377 -0.5309832 0.31425303 -0.024962166 -0.26385987 -0.0168081 0.093383946 0.033616453 0.06590177 0.33620143 0.28763416 -0.037703604 0.49394286 -0.44826522 0.121192224 -0.4290986 -0.44668734 -0.22349347 -0.09569437 0.0428332 -0.48242286 -0.6475634 0.17951141 -0.42602476 -0.007335093 -0.31622747 -0.4085575 -0.007996236 -0.3642546 -0.34214145 -0.5962246 0.18785793 0.3249179 -0.19231674 -0.22481844 0.012782661 -0.37707412 0.35779133 -0.16767612 -0.15986449 0.36876708 0.42497203 0.15971854 0.5703591 -0.36213687 0.13423942 0.3060439 -0.48640293 0.017203877 0.15436327
1444 -0.037657104 -0.5113054 0.44277754 0.2134982 0.24975754 0.27333745 -0.21451841 0.18579221 -0.118342645 -0.100001976 0.012481087 0.02067778 0.1851566 0.20549029 -0.44342145 -0.48172984 0.25149408 0.3798023 0.4030351 0.17826031 -0.31959665 0.024344958 -0.23240556 -0.18012778 0.37596223 0.08290888 0.18975061 0.3373074 -0.63612986 0.3435953 0.061588254 0.395199 -0.043395005 -0.30064133 0.10932836 -0.08601454 0.47490498 -0.18956651 0.3722291 -0.36786923 0.18538626 -0.05778563 0.16152649 -0.023415936 0.06976214 0.13955922 -0.0034197557 -0.6667272 0.13265666 -0.2590707 -0.43269178 0.8252559 -0.008882502 -0.18817216 0.008355027 -0.34917444 -0.37728778 0.4508774 0.40174887 0.23200913 -0.042557158 -0.2787173 -0.0910904 -0.058614425 -0.030914797 0.07482433 0.18985611 0.036421325 -0.48191038 0.3338742 0.05033533 -0.47199422 -0.20819837 -0.008229467 0.12971154 -0.35045046 -0.48353347 0.11726344 -0.16188845 -0.526193 0.18998285 0.20990986 -0.343924 -0.18531226 -0.006867037 0.042822823 0.01652946 0.15847154 0.17789364 -0.29115748 0.52543336 -0.17887118 -0.0502749 -0.45834455 -0.29917914 -0.53631824 -0.307872 -0.30697298 -0.48475546 -0.6683515 0.14157909 -0.5595382 -0.0035729501 -0.23349874 -0.3718948 -0.1209098 -0.5211301 -0.092634216 -0.20375182 0.27774832 -0.03366201 -0.21400887 -0.47349432 -0.13214916 -0.37322962 0.4039011 0.25658253 -0.08369126 0.30459645 0.39725268 -0.069628514 0.3167143 -0.1852363 -0.2157118 0.25404185 -0.71562713 -0.08081077 -0.12890618
2330 0.28050247 -0.67384654 0.25729024 -0.4644646 0.34834507 -0.06443671 -0.59399515 0.3502376 0.808172 -0.19908129 0.17980202 -0.3087974 -0.44277617 0.19868323 0.0039231745 0.23899733 0.0951484 -0.39603612 -0.14050971 -0.033304382 -0.19757876 -0.31434458 0.13429476 0.4631485 0.11454444 0.8346966 -0.54113996 -0.0505561 0.37214574 0.055404797 0.086083636 -0.10092261 0.30967024 0.60179865 -0.33062997 0.33327296 0.1881518 0.036260642 0.031325627 -0.39037243 0.41710833 -0.055409584 -0.027971456 -0.20257843 0.3152415 -0.15671293 -0.0687511 -0.22762959 -0.04527273 -0.438663 -0.4734016 -0.43455294 -0.17560753 -0.1265953 -0.058421858 -0.011520201 0.5423451 0.27605975 -0.13274014 0.32123217 -0.090259686 -0.28059676 -0.084681466 0.15652762 0.055317905 0.19357082 0.5492939 -0.35385746 0.093156606 0.011079153 0.13840933 -0.57246196 -0.3545164 0.22958784 0.11887789 -0.40606824 -0.03522587 -0.3568256 -0.030851973 -0.7908572 0.18219416 0.33513215 0.441183 -0.6571618 -0.13913378 0.16023163 -0.41213256 -0.35504913 0.026507622 0.23695797 -0.034828063 -0.29861358 0.20389216 -0.36603972 -0.050280675 -0.5698283 -0.080357224 -0.06672245 -0.31932193 -0.31498164 -0.104913056 0.15112543 0.48914045 -0.0062297764 -0.08325644 -0.3598892 -0.3076635 -0.011754637 -0.10305774 0.19528638 -0.17928617 0.12472174 -0.1036159 -0.30011594 0.1722182 -0.1651674 0.07203461 0.058779184 0.049244978 0.08925238 0.18266219 -0.15803456 -0.48693773 0.34205088 0.0020140281 -0.11229149 -0.6819477 0.28801224
1417 -0.13160986 -0.4795194 0.35000274 0.19666246 0.28768212 0.4217648 -0.45382488 0.32535863 -0.027951285 -0.19092776 -0.096496195 -0.07150793 0.2782692 0.24291311 -0.46744674 -0.012012043 0.0020700353 0.20754826 0.2631535 0.115284696 -0.17429 -0.17016129 -0.24730545 -0.27471074 0.34399652 -0.15180543 -0.031497765 0.41559798 -0.52070785 0.05670667 -0.046368755 0.10441333 0.1920735 -0.36505646 -0.047157187 0.016904894 0.29358014 -0.09449666 -0.055758007 -0.28010514 0.14199202 -0.10009626 0.21972504 0.16794944 -0.036648147 -0.06262444 0.18620726 -0.71514326 0.18826532 -0.38188046 -0.34754387 0.7214494 -0.054644447 -0.14509942 0.049839847 -0.26696378 -0.12294325 0.6490806 0.12369779 0.2850934 -0.3066196 -0.407437 0.2047099 -0.14132275 0.07586747 0.21826535 0.18321754 -0.15452126 -0.4652843 0.06513577 0.1663587 -0.38371652 -0.26833057 -0.024318092 0.17529713 -0.48552772 -0.47686577 -0.0035326537 -0.22353408 -0.47217134 0.38004118 -0.030096367 -0.20388399 -0.06305949 0.12100871 0.06503022 -0.014474594 0.33766574 0.2754122 -0.1954346 0.5491571 -0.31366137 0.07919611 -0.5607546 -0.23528573 -0.20909539 -0.16100839 -0.12816848 -0.3264969 -0.7963835 0.509743 -0.33044484 0.043484643 -0.46974805 -0.50384736 0.00594836 -0.5238655 -0.17785358 -0.5935928 0.1339057 0.24612091 -0.092298314 -0.18761668 -0.15692002 -0.36804792 0.2314708 0.00030334046 -0.24697676 0.26250175 0.52395 -0.11339692 0.3678797 -0.25596216 0.012778487 0.16939159 -0.607799 0.032356307 0.06831983
1646 0.40557718 0.09501194 0.17965284 -0.23866148 0.16455497 -0.0034380797 -0.28529194 0.42219436 0.14669606 -0.26834553 0.6031487 -0.31726092 -0.20210226 0.06704983 -0.40018806 -0.0064541963 -0.5028291 -0.027307162 -0.10517138 -0.046205267 -0.30423498 -0.30953908 -0.114652425 0.25432444 -0.1331652 0.6882787 -0.4118948 -0.21462493 0.19483756 -0.053366482 0.07402285 -0.04427156 0.059631877 0.09915509 -0.28308383 0.16046233 -0.40941504 -0.12119042 0.123902656 -0.42297974 0.7352027 0.005026788 0.65727675 -0.26081923 -0.21790741 -0.46350622 0.041644543 0.11822851 -0.49391836 -0.12581107 -0.28368697 0.028617539 -0.06476142 -0.36419055 -0.33942077 0.0842201 -0.17057754 0.06169577 -0.25089255 0.7226951 -0.09973388 -0.25053793 0.16010438 -0.4366241 0.07058555 0.19037841 0.5273627 -0.16473396 -0.08306285 0.12255349 0.31736377 0.043118656 0.38754278 0.50451624 0.1455738 -0.5745764 0.31397542 0.14932927 -0.24805161 -0.72137994 0.15551132 0.5202445 0.03534905 -0.43180323 0.017645502 0.24983421 -0.39275566 -0.124605246 -0.26426345 -0.21779792 -0.017118907 -0.63801706 0.29351187 -0.44810766 -0.07739769 -0.08492543 -0.32855198 -0.4898646 -0.075333044 -0.27978736 -0.05550588 0.1867244 -0.37120062 0.20608029 -0.12072777 0.020621756 -0.5749086 -0.21600518 -0.26631555 0.19073457 -0.21014453 0.373407 -0.05666971 -0.5976417 0.11094993 0.025826927 0.24220037 -0.15446249 0.16193686 0.48929968 0.16165352 -0.23676746 -0.48873562 0.09810692 0.49270725 -0.21553029 -0.53790754 0.46013555
1330 0.56771636 -0.111750014 0.40286195 -0.070188805 0.49422053 0.4625597 -0.10738234 -0.29901877 0.29634175 0.0328008 0.06393507 0.04409906 -0.2090055 -0.2945065 -0.36360776 0.37471893 -0.11738341 0.14417088 -0.03973931 0.7475273 -0.4169096 -0.22691956 -0.09110661 0.15247001 0.22051635 0.6211387 0.17153914 -0.06439526 -0.3553237 -0.157984 -0.019274516 -0.02924895 0.48312783 0.37544286 -0.086723864 -0.17136635 0.0016355208 0.059176996 0.66238004 -0.048573554 -0.14441068 -0.09878925 -0.18954474 -0.3331463 -0.20198901 -0.4852614 0.036497124 -0.5558547 0.05540835 0.03884341 0.12499652 -0.16933109 -0.3067625 0.04445483 -0.52124435 -0.15885107 0.025443362 0.5190319 0.23865283 -0.5920976 -0.15625648 -0.35058215 -0.29039156 0.16006297 0.55675817 0.49132887 0.3719085 0.16025588 0.20209827 -0.17322186 -0.6534708 -0.36645976 -0.11413938 0.29245475 -0.13789135 -0.45536196 0.13988718 0.35948324 -0.54377145 -0.2534575 -0.04670791 0.10114729 0.12062798 -0.1799053 0.024022238 0.13262096 -0.22129667 -0.29963556 -0.042398583 -0.35050833 0.0783669 0.27974018 0.0362235 0.3432615 -0.40124997 -0.67756134 0.6830641 -0.09949935 0.1089302 -0.50441206 -0.23486131 -0.4846095 -0.061749555 -0.6581444 0.23698209 -0.07827657 -0.21211544 -0.26544246 0.43112147 -0.0072338977 0.5114536 -0.24846025 -0.32108346 0.4773005 -0.21495676 -0.17489596 -0.13597783 -0.17917375 0.20428261 0.366464 0.3357569 -0.013094707 -0.48931345 0.3158097 -0.028803712 -0.21001458 -0.23657002 -0.046468962
6 0.7369548 -0.01184308 0.11254403 -0.17671861 0.1910801 0.104289 -0.21390425 0.15692757 0.68380916 -0.33916172 0.46786252 -0.03588468 -0.18888222 0.3633475 -0.46485513 -0.0460356 0.14234012 -0.6408046 -0.06615293 -0.09154899 -0.6234126 -0.2840374 -0.30285388 0.3385557 0.34494352 0.4415291 -0.20819382 0.034059808 -0.11137567 0.18965103 -0.19176188 0.13344623 0.5468606 0.23088539 -0.11782499 -0.06490448 0.46299955 -0.2533899 0.44934866 -0.33734176 0.14253259 -0.2501434 -0.07379046 0.1506238 -0.058517836 -0.18790017 -0.10876486 0.1596251 0.013695582 0.35472903 -0.018917136 -0.0646576 -0.28015167 -0.13067666 -0.45436883 0.20397611 0.5623702 -0.20502087 0.040193293 0.5090241 -0.036167875 -0.06939905 0.31376094 0.029578838 0.008078995 0.3691933 0.51660734 -0.58131325 0.12869014 -0.049142104 -0.1329161 -0.11759155 -0.17827481 -0.23489788 -0.2031134 -0.34829354 0.06405081 0.1847936 -0.16779043 -0.29634318 0.1151481 0.054567933 0.21829787 0.004367715 -0.15105467 -0.16067764 -0.34305438 -0.15192339 0.08275288 -0.30649096 0.02262836 -0.071528435 0.25339693 0.17210299 -0.077581584 -0.13315561 -0.114319 -0.5319411 -0.11303573 -0.5313853 0.074612066 0.31537464 0.29509395 0.07490518 -0.3567354 -0.11814769 -0.69089985 -0.120696336 0.15786396 0.24470001 -0.29498383 0.007644214 0.15296136 -0.47003913 0.059761487 0.30492648 0.43615043 -0.12777796 0.46616018 0.11481772 0.05045895 -0.50214285 -0.37601742 0.11939822 0.07198733 0.3512718 -0.43735436 0.31583977
1654 0.30247474 -0.5348017 0.27691534 -0.29062194 0.39387912 0.22504349 0.03492324 0.19006236 0.13492389 0.005272258 0.2693677 -0.37311575 -0.5955271 0.07869171 -0.49567565 0.20851795 -0.4181233 0.07548251 0.3557266 -0.31518695 -0.038799044 -0.06899216 0.105691604 0.3730668 0.465167 0.65579957 -0.3376017 -0.057865106 -0.096849635 0.07076644 0.35056564 0.0011202228 0.18078008 0.13369392 -0.4422364 -0.24661538 -0.10570314 -0.021560177 0.020654006 -0.26414132 0.06929581 0.36719197 0.2596499 0.09872473 -0.22847196 -0.34859312 -0.11003449 -0.2156003 0.027049674 0.018791756 -0.06874118 -0.25566298 0.17538062 -0.34832856 -0.2079809 -0.12372428 -0.337975 0.25278625 -0.11744025 0.6605412 -0.059798077 -0.35518825 -0.08776562 -0.52147263 -0.085229896 0.4816582 0.63832426 -0.6095103 0.014745874 -0.0596896 0.44146731 -0.20594786 0.22828071 0.4677362 0.4503466 -0.30000746 -0.14344575 0.24091023 -0.26227736 -0.68959635 -0.12122131 0.69352955 0.24039558 -0.5582845 0.036746334 0.14468963 -0.45521495 0.010554605 -0.07576073 0.11634255 0.08784787 -0.50825083 0.1864954 -0.06058983 -0.17012464 0.19637033 -0.10467653 -0.28153235 0.22637235 -0.0018239716 0.059586607 0.40104935 -0.4058763 0.027658122 -0.06922818 0.140229 -0.52843916 -0.19911061 0.01756291 0.4717841 -0.07688 0.24731544 -0.10864583 -0.22252104 -0.14856371 0.09910221 -0.05333777 0.2564498 -0.2265879 0.37898758 0.2489476 -0.47549793 -0.1794022 -0.29613358 0.2402634 -0.13412902 -0.22778025 -0.13958475
405 0.02893921 0.17798036 0.4463338 0.23644045 0.4687415 0.36803928 -0.5036042 -0.050013572 0.7462214 0.29307666 -0.15763418 -0.40666404 -0.0796804 0.19023049 0.007840958 -0.4331768 0.02940809 0.5541798 0.042899463 0.13555169 -0.33466718 0.071004696 0.31371537 -0.63132256 0.3585904 0.25944307 0.35781446 0.039014954 -0.29097497 0.30120286 -0.07247675 -0.53293115 0.18969627 -0.07440957 0.08046778 0.7868214 -0.41369382 -0.21607724 0.53925484 -0.33132437 0.51099795 -0.059617274 0.22032353 0.17430511 -0.32046747 -0.40685007 0.07977678 -0.021371653 0.18123545 -0.22002877 0.15975024 -0.19702877 -0.13361311 -0.34846517 -0.6183026 -0.1584942 0.034000505 0.21588013 0.17090459 -0.22214298 0.23505808 -0.29046598 0.030903129 0.25813323 -0.031713393 0.50671595 0.44259927 -0.018703947 0.4790152 -0.2217866 -0.003250243 0.12944952 -0.47483206 0.6810616 -0.2546034 -0.0024381555 -0.30767182 0.33951 -0.07719831 -0.4241035 -0.032315757 0.18677084 -0.3404897 -0.27434692 -0.029037409 0.44776845 -0.15714534 -0.17394671 0.26802415 -0.42121467 0.26359057 0.0058476944 -0.14876038 0.14697884 -0.25283787 -0.014831133 -0.06850914 0.43823394 0.11680136 0.2542423 0.06100021 -0.14169748 0.3135541 -0.31439367 0.040556267 -0.0076893074 -0.47532496 -0.2840958 0.20848207 0.48210543 0.3153198 -0.59468657 -0.4178405 -0.08039137 0.27215594 -0.042943735 0.052182578 0.6025467 0.07517438 0.2973733 0.20606232 -0.24845366 -0.5188411 -0.1386151 -0.13515374 0.13430174 -0.42335474 -0.04983604
476 0.19099893 0.020838123 -0.025561508 0.015774636 -0.37492442 0.6554749 0.07093355 -0.08276489 0.4083114 -0.09107251 -0.16838172 -0.5593904 -0.2612331 0.34189117 -0.1423282 0.10914631 -0.5313312 0.6494742 0.2328509 0.035053343 -0.16068217 -0.36665773 -0.17114234 -0.666658 0.5296765 0.59048295 -0.10883561 0.4788961 -0.2419596 -0.5035631 0.08222108 -0.059584815 0.19685844 0.33848864 -0.10926307 0.108251475 -0.12098122 -0.13166618 0.051179964 0.02653585 0.19563082 -0.42687702 0.0716833 -0.07856962 0.15188089 -0.2241202 -0.4657909 -0.67444426 0.029955199 0.22991435 -0.31462827 0.20103304 0.024070848 -0.027879903 -0.31922266 -0.19078314 -0.2173151 -0.04221463 0.34182853 0.5922987 0.05816272 0.21941556 0.16825743 0.27313837 -0.22856987 -0.12139511 0.7262745 0.1394847 -0.41967306 -0.24521935 -0.38625908 -0.07822619 -0.000781615 -0.16715842 0.2600395 -0.23271714 -0.058074888 -0.096558 -0.28529707 -0.03618558 -0.1292239 0.14173834 -0.35129523 -0.14663166 -0.29108635 0.22832154 0.12353766 -0.05742879 0.4876272 -0.5142417 0.65059966 -0.13441159 0.1567246 0.043696895 -0.1400351 -0.068003714 0.32158232 0.7702267 -0.21958588 -0.54133344 -0.16460119 -0.10106731 0.32041484 -0.80335575 0.0066987434 -0.31264502 -0.11470054 -0.2879909 0.41542915 0.07427468 -0.008814054 -0.07930369 -0.15300047 -0.07784081 0.5516791 -0.24415796 0.13439721 0.067314394 -0.008590234 0.14468622 0.4224469 -0.32518256 0.06602263 -0.44448724 0.32149512 0.18352206 -0.16837507 -0.09037093
68 -0.37939146 -0.37642592 0.39038983 -0.22063231 0.1989939 0.31644997 -0.115571566 0.04402163 -0.16186807 -0.37106445 0.363658 0.0049046664 0.03037475 0.42241755 0.2674616 -0.6899968 0.31760398 0.25366476 0.09585403 0.07200939 -0.15293704 -0.12895992 -0.66474813 0.24481454 0.5568653 -0.0009423919 0.23888774 0.29443315 -0.18199566 -0.13926224 0.46337417 -0.17922951 -0.27518925 -0.47621554 -0.04231659 0.45567885 0.54829293 0.07569245 0.26513696 0.09042458 -0.20064987 -0.270254 -0.24298306 -0.2078897 -0.033197448 -0.25160038 -0.0718028 -0.20803854 -0.074480295 -0.12074558 -0.19193879 0.3847452 -0.018033493 -0.036922127 -0.060660172 -0.2935754 -0.08562971 -0.24430504 0.15602149 0.43568683 0.09066525 -0.04914973 -0.030227914 -0.1144509 -0.049799304 0.09327918 0.3541421 0.3227553 -0.6656505 -0.4942386 -0.13963638 -0.21032992 0.11218063 0.3681948 0.19276972 -0.31697097 -0.43013334 0.18764614 -0.4568985 -0.09503474 0.033143163 0.19708067 0.2200385 0.020426707 0.2545896 0.22696225 -0.06425017 0.07152494 0.44421893 -0.5353926 -0.15772259 -0.23660322 0.41674322 -0.28118834 -0.2377137 -0.10524322 0.123402946 0.036648355 0.019857645 -0.55494946 0.6384996 -0.028393732 0.27382487 -0.414408 -0.57617056 0.13133472 -0.44140244 -0.24055493 -0.62242603 -0.2452613 0.32891852 -0.05944903 0.11399844 -0.3002434 0.042934794 -0.07419648 0.2495979 0.18520817 0.02880211 0.68903977 -0.022774326 0.57241476 -0.22029705 0.50228673 0.13583834 -0.2037893 0.25514957 -0.27583483
1685 0.35637516 -0.040674236 0.25364274 -0.26045954 0.024713561 0.07305684 0.08079114 0.34951422 0.19615133 -0.18232347 0.5214926 -0.05795149 -0.23526873 -0.14118662 -0.43565366 0.1045533 -0.2847413 0.2598373 -0.02561802 0.19602 -0.41838387 -0.14127487 -0.18275477 0.5292766 0.13926938 0.6863442 -0.14237063 0.17177698 0.15227728 -0.0015832206 0.11260786 -0.08190678 0.35320342 0.24258086 -0.13848059 -0.02826968 0.06545414 0.061348233 0.17639408 -0.559748 0.33704993 -0.05026985 0.31115466 0.041566644 0.12553824 -0.532192 0.001174762 0.10277465 -0.3395449 -0.2566225 -0.053537186 0.29579532 -0.033507027 -0.47330675 -0.20292729 0.08400382 -0.3153233 0.30684426 -0.047345046 0.76885927 0.12715861 0.11988982 0.14076504 -0.4446402 -0.18456675 0.31074244 0.5175073 -0.40909487 0.02465067 0.05660549 0.50492215 -0.383436 0.037888143 0.5752574 0.24649379 -0.7194563 0.112565674 0.37470534 -0.0021491537 -0.42208883 0.10985527 0.64682496 0.12093151 -0.48531258 0.15989433 -0.07569631 -0.4047318 -0.16789812 -0.23169693 -0.08347551 0.1518525 -0.3734688 0.2819422 -0.4792267 0.021447983 -0.3351092 -0.4559033 -0.26255918 0.28532106 -0.15533002 -0.07720706 0.2685834 -0.18393418 0.20692852 0.021405505 0.124678366 -0.64361715 -0.076491214 -0.23902641 0.08834671 -0.23355153 0.5792979 -0.08356859 -0.110252306 0.29757705 -0.02927611 0.07020977 0.2552506 -0.072747536 0.18775465 0.35368702 -0.23161909 -0.51519847 0.07220008 0.23019947 -0.15445982 -0.4767505 0.21847925
1430 0.047713444 -0.3827931 0.35132155 -0.07932364 0.2396347 0.28087068 -0.45981345 0.2401726 -0.030091457 -0.18403693 -0.3741114 -0.3059686 -0.015212983 0.08699135 -0.57324225 -0.47467166 0.25589168 0.07310396 0.3571559 0.2678646 -0.24502799 -0.34769788 -0.32538033 -0.18130006 0.49184972 0.04706722 0.3396019 0.304299 -0.31928053 -0.048528623 -0.048925824 0.053680856 0.11941176 -0.28962243 0.059130277 0.20477289 0.45047414 0.14459594 0.13720515 -0.4591249 0.03634633 -0.2479744 0.32105336 0.14071861 -0.18614697 0.15179357 -0.12673806 -0.6776757 0.123057514 -0.195626 -0.8411379 0.804456 0.1244323 -0.3090919 0.19137162 -0.3564103 -0.14147124 0.5993573 0.41017553 0.042628564 0.10844828 -0.42654133 -0.31926376 0.03572486 -0.12369388 0.07071861 0.25226378 -0.21523094 -0.43269265 0.057115544 0.053594 -0.25994685 -0.07593596 0.23978974 0.18300833 -0.35084432 -0.29898515 -0.054458626 -0.29297143 -0.29009205 0.40687707 0.18151876 -0.25790843 0.112703346 0.2555211 0.07569124 -0.20879738 0.04359531 0.5780257 -0.4289883 0.61289436 -0.59647477 -0.27866644 -0.4220831 -0.1309708 -0.42347234 -0.11677459 -0.06218562 -0.47277355 -0.42388284 0.16712128 -0.28276217 -0.2458102 -0.18349652 -0.32993692 0.1197778 -0.4810821 -0.3396914 -0.273937 0.037266877 0.17939325 -0.053488266 -0.44666806 0.038143203 -0.18211603 0.4847891 0.09505202 -0.26346397 0.39903158 0.75547636 -0.12701358 0.48862362 -0.06322781 -0.22223073 0.20622651 -0.6312008 0.0310818 -0.032312557
1403 -0.19163479 -0.38139626 0.4441144 -0.0153483935 0.32649392 0.313805 -0.30838484 0.34833664 -0.2926275 -0.12001695 -0.15917216 -0.12339794 0.11979215 0.13430063 -0.6920058 -0.107328065 -0.0035036856 0.21883227 0.2922969 0.092790924 -0.29463536 -0.19229163 -0.3070521 -0.4254321 0.44916615 -0.0815551 0.2709809 0.29099753 -0.4968882 0.009297549 0.030170426 0.32191283 0.26334926 -0.37809223 -0.005552209 0.07338023 0.5054166 -0.23733796 -0.0563819 -0.33446908 0.042048242 -0.25750008 0.3624364 0.14980684 0.12947866 -0.26225284 0.13743098 -0.9107494 0.19371311 -0.38658848 -0.53025806 0.69745773 0.13224629 -0.14122522 0.00490465 -0.037995663 0.004848025 0.69676095 0.2498791 0.3804753 -0.01384589 -0.329714 0.17554906 -0.059939083 0.058142792 0.054265212 0.17245603 -0.16726303 -0.40284643 0.088882186 -0.015814926 -0.27863467 -0.097932674 0.15049192 0.20277137 -0.3861634 -0.41445363 -0.050910998 -0.2951022 -0.49530447 0.2860897 -0.09029932 -0.24823822 0.021930551 0.02310018 -0.031373337 0.06520721 0.21192206 0.17546369 0.008627022 0.5414506 -0.3292459 0.028249677 -0.530872 -0.27934137 -0.2577189 -0.008595591 -0.14495707 -0.4721138 -0.5993064 0.28820157 -0.36256886 0.03021507 -0.4402948 -0.5273321 0.082933806 -0.47903508 -0.38320932 -0.39517635 0.13830078 0.36101994 -0.20966364 -0.27605408 0.037277486 -0.1611779 0.16119312 -0.017120317 -0.3440644 0.2969442 0.33711177 -0.019418305 0.38209948 -0.19072273 0.19030124 0.21933235 -0.5400835 0.027376125 0.11292954
1433 -0.28129053 -0.3856799 0.3990534 0.16582015 0.162623 0.41022745 -0.4655309 0.27231964 -0.18340135 -0.13357499 -0.2768311 -0.06504433 0.17336786 0.14445199 -0.55105406 -0.0097693475 0.040040947 0.15851165 0.32758787 0.21516022 -0.3157973 -0.20530334 -0.26756185 -0.41351473 0.38152742 -0.15038218 0.12556179 0.22595175 -0.51622945 0.075916335 0.035738196 0.2544642 0.13574305 -0.2745271 -0.106175184 -0.00793795 0.37775588 -0.11575899 0.052593 -0.30696625 0.10562008 -0.1342834 0.30560717 0.20498602 -0.031981718 -0.07791576 0.13025485 -0.7840722 0.34463194 -0.42039698 -0.48636618 0.72357905 -0.03671591 -0.24413438 0.048451092 -0.1244446 -0.25410548 0.6047915 0.23387031 0.34617582 -0.14128065 -0.39404362 0.14517556 -0.05242892 -0.11937838 0.043344125 0.3186576 -0.14490601 -0.41508693 0.013750324 0.088644475 -0.43299857 0.011437812 0.038933165 0.11461159 -0.41423684 -0.37043452 -0.08364365 -0.32215786 -0.740542 0.37976572 0.0033026026 -0.49633062 -0.28408065 -0.09486866 -0.025348078 0.03607875 0.2035942 0.15434285 -0.21048488 0.58202296 -0.35786214 -0.04946677 -0.47100693 -0.38489676 -0.31202137 -0.18900314 0.009919507 -0.41481474 -0.5268182 0.34268886 -0.5008042 -0.028642602 -0.4725404 -0.4435702 -0.016091933 -0.5615044 -0.37506333 -0.58750117 0.20820011 0.20271233 -0.25007144 -0.35109547 -0.17488155 -0.22639328 0.1778896 -0.041423224 -0.21731278 0.2213631 0.4036096 0.11389595 0.30830887 -0.29220805 0.035586663 0.2991545 -0.5512478 0.034398314 0.1036323
510 0.2185193 -0.057431567 -0.1428151 -0.07654084 0.58729446 0.73750514 -0.31750908 -0.19367325 0.2730677 0.34655386 -0.07156731 0.28157556 -0.1458048 0.36660722 0.30984327 0.18395737 0.3030797 0.37375158 -0.052699998 -0.17326543 -0.3511197 -0.25071418 0.13384108 -0.34435174 0.4088769 0.31981245 0.2020083 0.354563 -0.70699745 -0.2737086 0.043901082 -0.12958908 0.12853333 0.21795759 -0.3870635 0.53785187 0.029809546 0.4536582 0.051357597 -0.16105135 -0.05673017 0.06180297 0.5371567 -0.39548638 -0.10947791 -0.14968497 -0.15891914 -0.48104197 -0.2574828 -0.27762312 -0.34635785 -0.09211382 0.13289818 -0.045862727 -0.76207083 -0.33767888 -0.022859907 0.21881887 0.40990967 0.094624065 0.3645942 -0.26404315 0.6321905 0.39545622 0.13643117 0.12956782 0.07053894 -0.04254687 0.22452763 0.1893128 -0.49427247 0.14901124 -0.18856324 0.15459433 0.32224828 0.10337317 -0.81135136 0.2154279 -0.29795334 -0.19345374 0.09597786 0.09841918 -0.44135287 -0.20630798 -0.095491365 0.17717174 -0.19626595 0.17050412 -0.037938833 -0.110268734 -0.10352888 0.32470414 0.45302266 0.28284818 -0.37210378 -0.11209216 0.3023951 0.08120993 -0.20104784 -0.37133893 -0.25520232 -0.23772682 0.17390974 -0.23512906 -0.16395131 0.19798778 -0.3969305 0.16878605 0.28581905 -0.18163502 0.54203355 -0.21867251 -0.2155225 -0.00088403374 0.45923692 -0.424134 -0.16711217 0.0015541386 0.23238403 -0.041517034 0.5531991 -0.419391 -0.16845088 0.12501878 -0.14312367 0.16664872 -0.28132534 -0.35902613
2197 0.22079447 -0.16072462 0.5788681 -0.852135 0.28701612 0.40851432 -0.37620062 -0.00027702854 0.5045585 -0.28757814 0.40211996 0.4434139 -0.03906003 0.6524693 -0.568133 -0.064327456 0.3342696 -0.19185466 0.01535235 -0.3958567 -0.1913241 -0.13625954 0.21314503 0.030217232 0.16799605 0.4475314 0.7134003 0.2170286 -0.0244026 -0.052302554 0.37189192 -0.10356296 0.051029574 0.38793772 -0.21896361 0.0040381714 -0.16582313 0.07983912 1.047595 -0.58367956 0.108685225 -0.051637422 -0.17745969 -0.19765148 -0.18819179 -0.32749167 -0.40118128 -0.39521784 -0.30973354 0.04271447 -0.23694551 -0.003058509 0.089071564 -0.14527011 -0.5261314 0.619262 -0.6575846 -0.02253154 -0.037543517 0.31569645 -0.008743049 -0.0036169456 -0.2604175 0.2776944 -0.13440293 -0.051512174 -0.26707163 -0.34530833 -0.096324705 -0.16600452 -0.10191111 0.094032615 -0.03948767 0.11074129 0.1703704 -0.09933643 -0.18944436 0.28097355 -0.1253324 0.03310203 -0.038022064 -0.08090959 -0.004958599 -0.10717964 -0.059915036 -0.13433695 -0.3065386 0.17018417 0.121067435 -0.13430451 0.40491247 0.14513014 0.5910768 -0.44229427 -0.2764932 -0.14753537 -0.03568463 -0.5237377 0.22287336 -0.028551392 0.075836025 0.06424047 0.24042542 -0.5698578 -0.32513916 -0.2832168 -0.315527 0.21616681 -0.11134505 -0.16335495 0.51994044 -0.07089563 -0.6071739 -0.18354373 0.28187743 0.058810484 0.06966844 0.6336464 0.2235662 -0.06328964 0.2276911 -0.2669791 0.2534823 -0.17438705 0.1137896 0.24589194 -0.49495795 0.31680003
1264 0.85145944 -0.030350594 -0.10984438 -0.2789755 0.16643612 0.2559315 -0.2280585 0.4890708 0.047679555 -0.11023103 0.21124867 -0.24431045 -0.2641998 0.06161304 -0.06342546 0.23300236 0.24730009 0.38280243 -0.25097287 0.5230815 -0.4581631 -0.28794482 0.45381442 0.10277926 0.24298368 0.539215 0.320266 -0.06593108 -0.5066882 0.0035656658 0.2119314 0.2482125 -0.042328395 0.57953036 -0.33224297 -0.080716185 0.1310571 0.47768214 0.5599965 0.12108437 0.2321692 0.10888444 -0.10195355 -0.32557657 -0.42671227 -0.28028563 -0.062579036 -0.58280337 0.17509483 -0.12577626 0.24070296 -0.2901996 0.049203265 0.1422896 -0.35998434 -0.13528982 -0.28123686 0.53486514 0.14663012 -0.1176762 0.5417786 -0.17455481 0.0061115567 -0.13179845 0.2874898 0.17361735 0.41049886 0.30709472 0.16690905 0.1910033 -0.7745836 0.35979894 -0.4995982 0.013025287 0.27508005 -0.35198972 -0.44911155 -0.032342102 -0.20380463 -0.5769003 -0.2762991 0.1422746 0.12174893 -0.20732458 0.13681766 0.4348609 -0.050783545 0.11603132 0.060570326 -0.768307 0.113920696 0.22498149 0.32673794 0.64214104 -0.20786841 -0.58992666 0.2184721 -0.21593061 0.10159966 -0.28926024 0.11796706 0.11466002 -0.046927303 -0.8649364 -0.029819326 0.11820588 -0.37025875 -0.104230694 -0.14299402 -0.105943866 0.41012117 -0.1648245 -0.18848819 -0.41934222 0.17634282 -0.17472772 -0.45297316 -0.20673403 0.11605171 0.7261231 0.39320856 0.20248398 -0.5937863 0.28781864 -0.2997139 -0.18352146 -0.251564 -0.040779527
3 0.33861312 -0.24618797 -0.19126907 -0.20815556 0.22818242 0.222683 -0.1767166 0.45881703 0.16410658 -0.23910365 0.38603523 -0.10247747 -0.276277 0.12003264 -0.5612905 0.16403781 -0.22595991 -0.25310153 0.2953623 -0.09975044 -0.55655974 -0.38134688 -0.30599028 0.3487255 -0.010442344 0.7830457 -0.2918415 0.02496361 0.09832966 0.15431027 0.062302634 0.10219505 0.48027223 0.27431053 -0.35286835 -0.09520402 -0.37026906 -0.12759526 -0.118993595 -0.40173075 0.26888222 -0.0328001 0.49566182 0.05366069 -0.12701447 -0.2871217 0.06587274 -0.22062834 -0.4022525 0.16984196 -0.09239529 -0.21659023 -0.0056790207 -0.46768323 0.044784725 -0.014793211 -0.17552559 0.37163216 -0.04244984 0.3463139 -0.301291 -0.18163988 0.30795926 -0.3633598 -0.4530505 0.383543 0.7151069 -0.3560956 -0.112308614 -0.05297196 0.36878014 -0.29414514 0.1174254 0.1406322 0.4533883 -0.4519231 0.03482684 0.43399084 -0.14698732 -0.82425135 0.12279423 0.6162447 -0.06206373 -0.24433105 -0.065087825 0.12954783 -0.3886962 -0.023784135 0.2677345 0.15765622 0.1888897 -0.17523132 0.5626853 -0.45680165 0.0016733946 -0.26986977 -0.45711833 -0.3736022 0.27739504 0.021448858 -0.033894368 0.6029972 -0.061927486 0.025882276 0.047453977 -0.049501676 -0.6716751 -0.2621365 0.1808207 0.34163812 -0.12615606 -0.119684555 -0.060016062 -0.72882515 0.05764868 0.026276894 0.2074329 -0.05624372 0.035880167 0.23266567 0.45015013 -0.3009189 -0.25068963 -0.011812114 0.3124167 -0.32143083 -0.4622768 0.28826305
1840 0.30911243 0.2211186 0.031475622 -0.06581717 0.2475905 0.7137119 -0.037053496 0.45317572 0.31565946 -0.31681377 0.54506224 0.16896832 -0.024073299 0.42649877 0.37790176 -0.13835292 0.24873368 -0.21219651 -0.3411078 0.23383307 -0.5123214 -0.43064982 -0.32875866 0.44709295 -0.09748957 0.64272374 0.2957984 -0.45017952 -0.39069718 0.025070773 -0.04857363 -0.17221075 0.33813825 0.040284432 -0.098528646 -0.29148102 -0.14243472 -0.13769995 0.14011598 -0.11115061 0.11613585 -0.29669574 -0.45241296 -0.41402522 0.026791122 -0.5988265 -0.12668672 -0.03644181 -0.13923858 -0.13523102 -0.42881343 0.5516672 0.39937595 -0.080360465 -0.19860096 0.8001089 0.031701233 0.19399713 0.15161152 0.16081356 0.5090035 0.14832392 0.38942418 -0.2154509 -0.33920702 0.33328086 0.42437446 -0.3333947 0.11387767 0.0397838 -0.14456414 -0.24837568 -0.17420149 -0.24219301 -0.006055881 -0.35092214 0.026723035 0.3508944 -0.18429303 -0.17485121 0.55570966 -0.22464915 0.17730044 -0.35696068 0.05447199 0.51828194 -0.46467027 -0.25129825 0.12680458 -0.21590266 -0.029502528 -0.28585017 0.6715467 -0.37828326 -0.73134494 -0.36609954 -0.047808904 -0.0065366738 0.5987032 -0.37318572 0.13471271 -0.25257033 -0.032905873 -0.20991464 -0.12693426 -0.27887994 -0.52299315 0.06504215 0.3361812 0.34666836 0.3096861 0.13536634 -0.2556409 -0.06746906 -0.35810035 -0.13277476 -0.17803895 -0.21797892 0.07117584 -0.02365696 -0.122801736 0.03421921 -0.30816674 0.30345353 0.052959993 -0.35592675 0.5712931 0.5257514
568 -0.03283436 -0.3467193 0.36835116 0.007159765 0.631635 0.70756364 -0.065564744 0.26220468 -0.19438423 0.24261373 0.111434676 -0.33864632 0.2995624 0.62594616 -0.044982884 -0.21057153 0.013434878 -0.13720046 0.7998761 -0.31198555 -0.4724669 -0.26088008 -0.105788805 -0.16328743 0.21780784 0.27537373 -0.3165075 0.24681912 -0.1677647 -0.21441914 0.4366496 0.7003873 -0.16807769 0.5571251 -0.13636234 -0.12202424 -0.10039872 0.24113041 0.30736881 -0.47511232 -0.4252435 -0.3047181 0.39660966 0.4315454 -0.248078 -0.4905156 0.0001262653 -0.5530564 -0.05605195 -0.24522613 0.33463377 0.8664502 0.137283 0.2984544 -0.07642445 -0.2860803 -0.3340564 0.5308409 0.19183485 0.5347146 -0.29024252 0.17061764 -0.39032587 0.518518 -0.013218924 0.27178925 0.14763719 0.1311417 0.26285172 -0.22964205 -0.09830108 -0.13779919 0.049056936 0.18039235 0.08258873 0.15293406 0.31700426 -0.17550561 -0.13051833 -0.6481955 0.057786584 0.16957305 -0.26027253 -0.3390835 0.08339536 0.1371847 -0.5312334 -0.042645186 0.42516044 -0.35185462 0.30031654 -0.68661016 0.40483245 -0.08527933 -0.5762517 -0.28752455 0.37569684 0.2635141 -0.015791696 -0.079026766 0.2463529 0.19138904 -0.53090835 -0.9991376 -0.7292789 0.034048386 -0.42945272 -0.6716943 0.14169812 0.14560658 -0.02671266 -0.25389954 -0.43916407 -0.15004113 -0.11351991 0.17152295 0.06745374 0.13686688 0.31168556 0.029353382 -0.03840935 -0.476848 -0.041782938 -0.30118597 0.10969792 -0.11392609 0.18317397 -0.19338715
1643 0.3331502 -0.14204082 -0.16852398 -0.080220476 0.3998746 -0.0126745645 -0.1110876 0.423116 0.06075117 -0.17602134 0.38484424 -0.014285785 -0.22135395 0.21014343 -0.2330839 0.041750163 -0.17073162 0.08236949 0.23024143 -0.30246535 -0.35325652 -0.21552311 -0.114450045 0.48459202 0.08044709 0.6777968 -0.43247336 0.034472335 -0.05723882 0.077397406 0.39906225 -0.10806769 0.2624432 0.33657688 -0.3739983 0.13720012 -0.27780318 0.032202516 0.019964995 -0.35453394 0.7063624 0.114817016 0.45555025 0.122125044 0.08700639 -0.60967594 0.01623692 -0.19639271 -0.034509193 0.16532415 -0.06503906 -0.16036806 -0.19466461 -0.41471237 -0.31373355 -0.08771358 -0.15242182 0.41345912 -0.1124771 0.43029994 0.010075216 -0.090560965 0.4678859 -0.019128067 -0.1832354 0.31883156 0.5266389 -0.4198374 0.18048438 0.15298346 0.5515174 -0.5457936 0.31193843 0.66234666 0.49102634 -0.35934138 0.14107585 0.4242234 -0.17626151 -0.68894386 0.2048919 0.77241504 0.36311346 -0.4291741 -0.005178429 0.21756902 -0.0472407 0.098713435 0.060516875 -0.046107113 0.1330098 -0.47741312 0.4597556 -0.24064688 -0.04418431 -0.109514534 -0.33587757 -0.37215206 0.24587578 -0.07059489 0.2039996 0.2573283 -0.30609408 -0.15146382 0.013074334 -0.025178554 -0.69213754 -0.23994999 -0.13088009 0.4714201 -0.02692826 0.16693838 -0.21194874 -0.477636 -0.046013664 -0.17054924 -0.19031155 -0.01933857 -0.1976775 0.18129662 0.37948513 -0.40805876 -0.40127984 -0.1782574 0.16070281 -0.59049004 -0.25968814 0.26262864
