2708 128
35 0.14566201 -0.101019576 0.16418369 0.003691144 -0.42595536 0.06825226 -0.11360614 -0.38465405 0.30731422 0.23676915 0.33171508 0.7367137 -0.17513484 0.0622842 0.1947957 -0.00021710907 -0.009386811 0.37137586 -0.18926825 -0.2813843 -0.47303542 -0.09536471 0.21998332 0.29014784 -0.1152972 0.032512583 0.4145307 0.06940394 0.21149303 -0.047145043 -0.055503894 0.13445106 0.24270153 -0.7201037 -0.46270865 0.061677262 -0.05426294 -0.3726354 -0.45214912 -0.43225014 0.23364255 0.0905285 -0.1016366 -0.27617654 0.066873975 0.477294 0.103219494 0.19506906 0.08074456 0.3374657 -0.01593422 0.30039695 0.31027672 -0.38852817 0.22394557 -0.29618275 -0.031187937 0.3443098 -0.29025313 -0.5530327 0.4196384 -0.39476502 -0.4877727 0.1124848 -0.17580372 0.0024402873 -0.14702728 0.09638955 -0.24722159 0.007830724 0.29814792 0.2045232 -0.32178342 -0.14628671 -0.04963255 0.06146355 0.25656226 -0.11116554 0.26035035 -0.21446596 0.24566527 0.20651871 -0.54191506 0.23518132 -0.12952805 0.1229093 0.31154183 -0.25770518 0.026715646 0.36603782 0.420574 0.12967372 0.055773463 0.3128401 -0.077020526 0.37584937 -0.036177624 0.034867883 0.2583952 0.24713047 0.24183284 -0.14186445 0.81548417 -0.017293492 -0.2486414 0.1808363 0.25395507 0.38463727 -0.06129141 0.08105691 -0.0022611283 -0.24937274 0.49811348 0.2944341 0.23819341 -0.17228176 0.009303641 0.6021814 -0.006370266 0.5105994 0.18574381 -0.23966317 0.14150222 -0.1810851 0.2813302 -0.29750708 -0.30030194 0.033359487
1365 0.1977997 -0.66388166 0.03709577 -0.09905718 -0.464544 0.061271697 -0.5963431 -0.030643174 0.14483716 0.107852414 0.29978278 0.042241372 0.53247964 -0.6671099 0.30083486 -0.35681805 0.10022333 -0.060728673 -0.24326953 -0.18800731 0.029024336 -0.59979206 0.053382985 -0.0354475 0.42293522 -0.28828624 0.9055397 0.47675067 -0.061890718 0.36265126 -0.28362307 -0.19224776 -0.016935145 -0.36430526 0.39934844 0.025924247 0.0889586 -0.024245441 -0.5855069 -0.019981816 0.4791342 -0.47862193 0.15985389 -0.040198885 -0.15554814 0.025467357 0.45652902 0.06893736 0.6565031 0.15826957 -0.7672898 0.17526019 0.014647608 0.1487378 0.117039725 0.09041998 0.2569901 0.09744159 -0.6059625 -0.46921846 -0.014535329 -0.068288326 -0.040298376 -0.29187202 0.09658869 -0.16083364 0.45920506 0.40330943 -0.38658905 0.117977016 0.5939809 -0.49012074 0.051436953 0.18328908 0.264288 0.14658049 0.6217729 -0.23446988 -0.28658143 0.21553122 0.1754247 -0.17905428 -0.09989476 -0.04684889 0.25431907 -0.3181837 0.43373007 0.3847867 0.0768576 0.68448675 -0.41091344 0.04841253 0.011457202 -0.22847567 -0.11710044 0.44791552 -0.29288408 0.08541648 0.4442847 0.0019233618 -0.26176074 -0.5739389 0.27951485 0.19807895 -0.18100958 0.55263865 0.12966469 -0.0576809 0.060667522 -0.1476357 -0.02955212 -0.31299868 -0.0051252386 0.40355676 -0.122989796 0.15483059 -0.3080506 0.39022878 -0.32847506 0.7569785 -0.47069898 -0.3350391 -0.23506579 0.0372712 -0.0049914476 0.0975215 -0.14675412 0.014692698
6213 -0.31926078 -0.2316528 -0.3834709 0.007854943 0.21838012 0.24572158 -0.5337777 0.09574059 -0.42919827 -0.18483478 -0.04696503 0.0824536 0.3985286 -0.1937545 0.36253187 0.049722776 -0.35575077 0.38887665 0.11718133 -0.032565348 -0.071610995 -0.19575305 -0.04719377 0.5274062 0.43784538 0.17238118 0.41104987 -0.20970237 -0.057398822 0.3071353 -0.1910297 -0.34022415 -0.10119075 -0.13414259 -0.3462761 -0.23887663 0.19503126 0.27835873 -0.5697029 -0.5314936 0.5014418 -0.16328329 0.17799507 0.09545813 -0.0207356 -0.058190208 0.2865946 0.27157435 -0.16999592 0.26527616 -0.7213282 0.13445543 -0.36080572 -0.3468113 -0.7130542 0.16838068 0.17576072 0.18738645 -0.28079823 -0.9888859 0.335802 -0.220861 -0.7051713 0.1669461 -0.036328945 -0.5368133 -0.13710357 0.4430738 0.15178552 -0.3410027 0.112282634 -0.0808345 0.5088904 0.05311725 -0.26523188 0.5003983 0.14496027 -0.12589428 0.09047838 -0.27897575 0.11535307 -0.40214884 -0.36859292 -0.50396115 -0.0011353387 0.04387341 0.31838712 -0.08215195 0.13041027 0.4805425 0.16965589 -0.11757366 0.19699696 0.025534095 0.1319352 0.09907769 -0.18182698 -0.13506095 0.3326657 0.42578158 -0.20917457 -0.099527545 0.6831255 -0.3026061 -0.22606118 0.23382263 0.09811227 0.15085767 -0.57899076 -0.18486956 -0.059583254 0.16380857 0.6810632 0.07539412 0.443779 0.030235525 -0.057094015 0.13372415 -0.5272969 0.83061653 -0.19854352 -0.20129275 -0.6035031 -0.054915488 -0.0040793954 0.063478686 -0.21882904 0.52301484
3229 0.58579886 0.15691 -0.5192255 0.021956008 -0.12980518 -0.10158519 -0.34457147 -0.26027647 0.29176953 0.03274273 0.17509979 0.062149934 0.26042828 -0.012180807 0.35515943 0.040451884 -0.23727427 0.19672619 -0.3408231 -0.19704291 0.15731509 -0.43263143 0.13099544 0.20648801 0.05265847 0.12366938 0.4709977 -0.08805917 0.18857038 0.22289884 -0.15274204 0.050247997 -0.1310753 -0.8934242 0.32037365 -0.39933896 0.542236 -0.38477293 -0.035779018 -0.009551201 0.30835545 -0.19981651 0.33974782 0.42595166 -0.036878012 0.80470484 0.60789376 0.092555165 0.51761806 0.17567398 -0.4536773 -0.13567404 0.016656721 0.2104325 0.20362629 0.16395877 0.3074432 -0.2770951 -0.09183888 -0.5658299 0.18607588 -0.11815437 -0.52915746 0.032276865 -0.13005744 -0.43498373 -0.048065484 0.41746527 -0.87543386 -0.12905186 0.19596948 -0.42388812 0.050540242 -0.13165075 -0.4915767 0.48651195 -0.024609743 -0.005866785 0.011033227 -0.31638923 0.10522536 0.055274863 -0.33302227 -0.10628339 0.27245304 -0.08204482 0.44628853 0.4505167 -0.19433963 0.6153763 0.01881204 0.14666916 -0.22133599 -0.09209386 -0.3518666 -0.121150136 0.015049563 0.12241618 0.34614626 -0.11115897 0.083517514 -0.46234563 -0.2584768 -0.31150782 0.2482418 0.22853364 0.38606372 -0.00409933 0.11597933 0.08319009 -0.011403707 0.2136883 0.03715776 0.5847286 -0.17367025 0.08774194 -0.3771626 0.40763092 -0.105624884 0.65061796 -0.33451968 -0.3931344 0.2920684 -0.08616711 -0.020930152 -0.37660348 -0.1670373 0.6387871
910 -0.2567422 -0.48120838 0.09213728 0.42087194 -0.253896 -0.5033962 -0.12347927 -0.2801997 0.31339175 -0.2456312 0.38040137 -0.041608963 0.43758094 -0.26910424 -0.1997501 0.0649441 0.018074462 0.17294054 -0.4253036 -0.17283575 -0.3275976 -0.10175249 -0.036200393 0.30134153 0.05002489 0.19728795 0.087338634 0.010628885 -0.26878121 -0.17707759 -0.15446337 0.23764357 -0.011769654 -0.22962481 -0.65587443 -0.1530874 0.13242039 -0.4789492 -0.13559438 -0.18277115 0.7382569 0.057840843 0.19021162 0.22227888 -0.24283926 0.33327273 0.32977018 -0.009390953 0.17374109 0.14380777 -0.0062832683 -0.23677109 -0.2505136 0.45517617 -0.21321918 -0.23904191 0.5080275 0.04910256 -0.69475025 -0.30383962 0.19921222 0.53663176 -0.527783 -0.28927815 -0.17223613 -0.15386379 0.058327753 0.56577 -0.31688654 -0.74899507 1.0318424 -0.67635137 0.26371723 0.08053204 -0.24808936 0.25231853 0.1894081 -0.07865332 -0.19456016 -0.061301876 -0.19169493 -0.56171125 0.09698704 -0.47632787 -0.020844834 0.11757528 -0.00042391266 -0.2841975 0.45115048 0.29865366 -0.25333232 -0.4271786 -0.45043904 -0.099691264 -0.18320191 0.5584763 0.024704475 0.067338474 0.13568889 -0.10774404 -0.4898951 -0.6702663 0.09406109 0.4011818 0.002121963 0.23522793 0.18474565 0.16076636 -0.28928515 -0.057879012 -0.029772507 -0.13402106 -0.0089091575 -0.10500521 0.34801966 -0.0024438475 -0.12998684 -0.35509884 -0.55251694 0.59925085 -0.6249907 -0.4461892 -0.19300343 -0.29972517 0.07703086 -0.29768535 -0.23548865 0.55368465
4330 -0.048695303 -0.12523441 0.07729435 0.6631119 0.083310395 0.45229083 -0.16805667 -0.33065152 0.021249637 -0.11631419 -0.03958535 0.54613507 0.22281846 -0.25387043 0.35596782 -0.7678471 0.20611888 -0.038958922 -0.47682902 -0.23294884 -0.32769206 -0.5412722 0.12506607 0.256079 0.6488455 0.30948612 0.3684163 -0.060970314 -0.26723054 0.19735841 -0.40619826 0.3929067 -0.10013793 -0.049108516 -0.35272235 0.20155275 -0.098479204 -0.43212226 0.090758905 -0.71916956 0.3801912 -0.30323145 0.5144587 0.13492198 0.2697553 0.5008053 0.21854566 0.41280565 0.108252615 0.17074427 0.10337557 -0.7166248 -0.099861875 0.12882634 -0.4570688 -0.25448683 -0.28818437 -0.27642578 -0.14363082 -0.46756083 0.6957063 0.41884556 -0.06295167 0.06613697 0.023744417 0.060040183 0.6526838 0.17917854 -0.2281032 -0.44160667 0.11935975 -0.42597902 0.23331252 -0.1649074 0.034777712 0.058242805 -0.08774331 -0.027180722 -0.045487188 -0.013888889 0.27550834 0.19677016 -0.3295507 0.47185487 0.28595325 0.11304638 0.18017776 0.08187583 -0.11777497 0.26787758 -0.12836364 -0.31071264 0.12585673 -0.3012776 0.041909687 0.5582206 -0.051520493 0.15642664 0.27228886 -0.267082 -0.3597265 -0.100406274 -0.16760474 -0.2744049 -0.22358021 0.37783378 0.35410154 0.19733816 -0.3748251 0.12014025 0.1280934 0.4517274 -0.26417848 0.1809952 0.5125612 -0.17936818 -0.7855569 0.33851433 -0.42162502 0.67776185 -0.5082857 -0.41366005 -0.38622263 -0.25993678 -0.4028812 0.15105532 -0.19690292 0.03771164
3231 0.41362274 0.30759054 -0.45165414 -0.004392007 -0.31247532 0.27026618 -0.9386253 0.04763098 -0.054298054 0.03619924 0.15259038 0.15905702 -0.5688377 -0.053751618 -0.4443698 0.026174424 -0.13276738 0.3989414 -0.14000742 -0.5431658 -0.25905728 0.057604786 -0.109823175 0.34947798 -0.35876518 0.3210014 0.60475 0.5085349 -0.5140205 -0.60554624 -0.26335177 0.28949443 0.105645545 -0.27722105 0.18469273 0.5086919 0.212709 -0.54865086 0.20740926 -0.087303355 0.32934585 -0.22349395 -0.12955663 0.07244272 0.11157256 0.23873204 0.40973705 0.29685333 -0.19856761 0.07181099 -0.18235648 0.18352105 -0.13824812 -0.32440612 -0.22905947 0.017255425 0.6800239 0.16053964 0.09113011 -0.26139745 0.7751642 0.5176879 -0.064046144 -0.3018855 -0.11290904 -0.40023464 -0.016308397 0.34895322 -0.28440484 -0.23614287 0.4720633 -0.3079449 -0.12398712 -0.5715067 -0.3606515 0.22352274 0.16603783 -0.44525525 0.8621794 -0.41472712 -0.006943256 0.41613907 -0.101057045 -0.11739851 0.17237721 0.055178594 0.25617063 0.04926125 -0.52503043 0.05266469 0.10423449 -0.30503315 -0.018220617 0.2725795 -0.25909102 0.2823623 0.83418673 0.14940427 0.45405135 0.061137974 0.14268106 -0.08941573 0.039824486 0.16404536 0.088345096 0.04201629 -0.093530275 0.628565 -0.70932376 -0.26626167 -0.034175552 0.0830297 0.026214577 -0.19092387 0.24082962 -0.23894243 -0.7042412 0.15683989 -0.09203345 0.5290599 -0.39079684 -0.4527434 -0.31258422 -0.19353703 -0.086662374 0.5442243 -0.3956355 -0.14887005
114 -0.3263325 -0.02995357 -0.38496932 -0.040663376 0.05253445 0.19379325 -0.40186659 -0.32538027 -0.5001727 -0.28153276 0.39691222 0.14237198 0.10760175 -0.28652894 -0.22300982 0.19218525 -0.35517442 0.39974025 0.009805866 -0.013559074 -0.16225837 0.2423623 -0.4056971 0.6376585 0.4948915 0.5658797 0.2744114 -0.2465265 -0.07276267 0.47171617 -0.42500755 0.26955438 -0.23294713 -0.6658587 -0.10037371 -0.21167594 0.56985515 0.25004837 -0.45224884 -0.6513324 0.14317437 -0.31511346 0.37608257 0.050519217 -0.47229156 -0.016769081 0.86754984 0.5877064 -0.28425038 0.28875795 -0.31966963 0.12843443 -0.43934646 -0.3545397 0.27219865 0.26474524 0.41163954 -0.3405193 -0.31315842 -0.90330434 0.45015523 -0.041120417 -0.8768938 0.1643741 0.4489898 -0.41918686 0.15587118 0.5003701 0.15284579 -0.07048581 8.71894e-06 0.13889752 0.32530108 -0.13902764 -0.4311839 -0.042429596 0.28224897 -0.34356377 0.2729385 -0.005245668 0.29281467 -0.7230887 0.14075498 -0.6692534 0.22597969 0.006626968 0.37207422 -0.5039754 0.06643456 0.44922152 -0.45880556 -0.2608947 -0.14687906 -0.25580278 0.31413934 0.3991202 -0.13375477 -0.061506238 0.084245674 -0.119004786 -0.7637267 -0.062220465 0.50695884 -0.52589077 -0.030669982 -0.11705466 -0.15122879 -0.2528179 -0.42090496 -0.23549874 0.04811582 -0.20225981 0.8054106 0.3048719 0.328591 -0.07296841 0.16206743 0.28918263 -0.4893194 0.352921 -0.15815234 -0.1751382 -0.07084229 0.027823817 0.28790474 0.046362646 -0.39644837 0.008178927
19621 0.13432649 -0.63053274 0.21242122 0.05036979 -0.16545393 0.25941542 -0.24468714 -0.39818838 0.12847632 0.30564818 0.18799028 -0.119645685 0.47013697 -0.36537623 0.35108382 -0.015575931 -0.012604881 -0.046401937 -0.42010775 -0.5498353 -0.095364176 -0.43137294 0.0018675581 -0.10950829 -0.006809069 -0.2300112 0.74453074 0.29237282 -0.24722409 0.17517217 0.48258466 -0.13176112 -0.055008825 -0.4752569 0.10739507 -0.50900936 -0.20076461 -0.10746145 0.25608686 0.24177901 0.47148177 0.037602708 0.45025483 -0.12230841 -0.18421645 0.08918503 0.7875096 0.19138348 0.22068684 -0.090445675 -0.49880818 -0.080775715 0.19107279 -0.11062445 0.098519474 0.21547842 0.13352138 -0.15560214 -0.06450861 -0.6981043 0.376079 -0.10777154 -0.40983707 -0.575034 -0.13250679 -0.2791821 0.4787483 0.60538435 0.020282684 -0.023247682 0.98924756 -0.4511531 -0.14728124 0.07278067 0.12981269 -0.057521418 0.43061808 0.13523765 -0.40701 -0.2062402 -0.3398311 -0.31185824 -0.35519445 -0.3998502 -0.7022281 -0.2099959 0.78773665 0.32301575 -0.06776781 0.7485521 -0.2745101 -0.043920085 -0.3770082 0.22241278 0.108726755 0.2577845 0.011906565 0.17252198 0.34162402 -0.04129543 -0.37864986 -0.5233629 0.31715727 -0.5824563 -0.23315638 -0.16451211 0.15701514 0.052892096 -0.089635044 -0.13437961 0.11029974 -0.06997833 -0.32152373 0.32890067 0.06907403 -0.46392328 -0.09523845 0.4666081 -0.35965168 0.5256752 -0.8645187 -0.70932335 -0.1477978 0.08077081 0.06412516 -0.30344996 -0.48321828 0.51240987
2440 -0.09286798 -0.13538581 0.05688062 0.10820939 -0.100233674 0.15312587 0.25893876 -0.5154039 -0.13767803 0.018126916 0.115356036 -0.058899216 0.21880491 -0.23487827 -0.32435697 -0.24375872 -0.4622634 0.019310476 0.29083267 0.017747108 -0.30737147 0.11273686 0.31919155 0.47137144 0.16425668 -0.60816604 1.0704079 0.6537706 -0.1047961 -0.0014489328 -0.079541095 -0.28041002 -0.7188253 -0.08655146 -0.033879798 0.6990541 0.39104435 -0.29414737 0.19724302 -0.7539807 0.054087423 -0.4776873 0.026755162 0.7413271 0.1448884 0.32350305 0.27781996 0.5882147 0.17114334 -0.19663954 -0.28046447 -0.069681935 -0.5862426 -0.4215408 -0.026251076 -0.4154011 -0.114905745 -0.031567436 -0.36631787 -0.21213418 0.4367713 -0.30281863 0.45543855 -0.51431644 0.061719187 -0.33738753 0.70834905 0.21490523 -0.1816562 0.110624515 0.4486636 0.41324347 -0.16044071 -0.501828 -0.036370996 0.07833409 0.09968859 -0.38898435 0.3489582 -0.45485184 0.018710485 0.45415777 -0.23255412 -0.11284058 0.52546996 0.06778096 0.4159693 0.07022497 0.22438769 -0.0963442 -0.48859882 -0.5910042 0.20805082 0.93857086 0.26264957 -0.27961192 0.10838993 -0.4773691 0.26039857 0.8384035 -0.33597293 -0.13014716 0.14038384 0.18750288 0.066666976 0.2435945 -0.30431724 0.6035866 -0.05166249 -0.13923605 -0.054903165 -0.03303815 0.84587556 0.3760442 0.46539453 0.43701968 -0.3535351 0.20451541 -0.25519508 0.5514896 -0.6494993 -0.74295294 0.301015 -0.19097148 -0.15257464 -0.15317917 -0.52121526 0.22440505
24966 0.19451506 -0.40485677 -0.3602324 0.7823319 -0.25006396 -0.1536581 0.38439265 -0.16034357 0.36205682 -0.39465737 -0.2622906 -0.0003575526 -0.3403829 -0.69140244 -0.36701047 -0.22602324 -0.58015245 0.4354794 -0.4479051 0.0953612 -0.5869547 -0.13585398 0.08241324 0.09742566 0.15125857 0.1430293 0.299671 0.3437005 -0.29237008 0.15283234 0.0783443 0.16005352 -0.13168028 -0.3376141 -0.0828831 -0.026342444 0.56286496 -1.061447 -0.34139952 0.07591943 0.3985278 0.21967009 0.3301865 0.4499946 0.30681372 0.28502473 0.43974268 -0.039656162 0.21532339 0.05892499 -0.32305548 -0.37136176 -0.28123862 -0.06044824 0.23797105 -0.3900609 0.43846107 0.01619416 -0.40907127 -0.3860725 0.3553941 0.45170084 -0.44282526 -0.14732943 0.19114433 -0.027085768 0.36983782 -0.13720927 -0.23749402 -0.27189624 0.48450634 -0.20438434 -0.47555482 0.10747577 -0.35492033 0.17881387 0.049701504 -0.42782065 0.20681977 -0.35528737 0.48240158 -0.2820514 0.02984543 -0.2835615 0.32987636 0.3981015 0.25848457 0.3830351 -0.317312 0.41839513 0.3323661 -0.21092053 0.11726282 -0.050749082 -0.1510346 0.22030298 -0.11573737 -0.0022618806 0.27828518 -0.0049957666 -0.062251143 -0.6260947 -0.47484025 -0.08377098 0.3632629 0.32490999 0.26437625 -0.2709459 -0.07833185 -0.0688653 -0.1655667 0.27965456 -0.25283423 -0.3072741 0.3720917 -0.6043125 -0.6273953 0.41697544 -0.54252446 0.52159864 -0.008528216 -0.36987886 -0.16651599 -0.3262769 -0.019978898 -0.5045692 -0.44905874 0.3404248
1272 -0.011716969 0.059598107 0.26973373 -0.13648647 -0.027503146 -0.20003991 -0.1794785 -0.2949438 0.10857655 -0.40095037 0.49821612 0.27637285 0.28520992 0.33392677 0.096232295 -0.24266621 -0.35165596 0.12361489 0.1022299 -0.5143808 0.10042793 0.17514917 0.21987951 0.6876964 -0.33788174 -0.2800147 0.6206566 0.54088557 -0.590609 0.06002461 -0.49330264 -0.35299656 -0.63537145 -0.011535665 -0.20627601 -0.036002 0.31857923 -0.54469174 -0.06347271 0.2229614 0.38077146 -0.4027701 -0.027863264 0.4071166 0.076525144 0.063385636 0.6552984 0.258471 -0.015002918 -0.24439478 -0.37007153 0.07307651 -0.37349582 -0.2225159 0.19879837 0.07413904 0.082652226 0.30728632 -0.5092119 -0.50166523 -0.028180778 0.34720927 0.16377318 -0.062254403 -0.2680385 -0.1763046 0.14288461 0.45147824 0.26632857 -0.22046848 0.22311477 -0.2125013 -0.29842257 -0.32859227 0.0026564875 0.10528689 0.36607632 -0.5352449 0.0013009149 -0.28392914 0.7449873 0.13124377 -0.49476954 -0.11528483 0.52122927 -0.05099744 0.43047073 -0.014072818 -0.006613555 0.114487685 -0.34442765 -0.009797169 -0.2632121 -0.16793409 -0.22665615 -0.46580693 0.13332091 -0.18563259 0.66137016 0.18393128 -0.053919997 0.036296185 0.6693162 -0.72878695 -0.037436504 0.5311005 -0.5530157 0.13420598 0.06168764 -0.33640042 -0.032805283 0.0681365 0.6999295 0.058581337 0.35118124 -0.14605723 -0.20555569 0.234712 -0.4179173 0.6200022 -0.45922568 -0.29255024 0.16086297 -0.17641956 -0.46925113 0.30311692 -0.38552752 0.06383573
887 -0.013395353 -0.028629335 -0.038892 -0.28592005 0.08632055 0.7542222 -0.052809376 0.1544417 0.087639555 -0.01913752 -0.03840304 0.45381916 0.17337315 -0.4498939 0.3764499 0.017126704 -0.07513313 0.44726208 -0.07698709 0.012396191 -0.5378345 -0.4575444 -0.08406574 0.63314915 -0.050609086 0.24736208 0.21295652 0.0002995591 0.28276443 0.34296122 0.029634887 -0.26773214 -0.03466722 -0.3106088 -0.86665034 -0.35845295 0.10905336 0.20126869 -0.62816155 -0.21139517 0.49379912 -0.3653264 -0.38826644 0.2633276 -0.44964835 0.060970776 0.035399918 0.17971422 -0.048273478 0.259602 -0.2769439 -0.11233942 0.060922332 -0.20135738 -0.24432364 0.38315 0.20380464 0.39708534 0.019921789 -0.49170554 0.46266064 -0.2923851 -0.5181964 0.30495527 -0.17215528 -0.074451625 0.11215216 0.116948485 0.036749054 -0.24763477 0.17042208 0.0016551412 -0.024740567 -0.28972757 -0.53095686 0.01853536 0.38074628 -0.20974524 0.44287893 -0.23621862 0.007060366 0.08914585 -0.66716594 -0.20449896 0.12303203 -0.082757354 0.11042514 -0.29357934 0.21699725 0.3560124 0.24188209 -0.16872159 0.22140583 -0.05039963 0.22396113 0.008341158 -0.16000423 -0.28480297 0.3226825 0.1319028 0.11369651 -0.06889541 0.5116229 0.087448224 -0.43017796 0.2501076 -0.2972089 -0.06906733 0.07189679 0.13689184 0.08978171 -0.19786307 0.6264122 0.7425508 0.22603834 -0.20363854 -0.15977171 0.3407233 -0.5118981 0.90874463 0.05015442 -0.31447646 -0.26864624 0.034483254 0.08810133 -0.107817754 -0.22490415 0.18713382
20193 0.46251678 -0.10376161 -0.21750596 0.2496481 -0.20966178 0.04414169 0.30793053 -0.28623626 0.1313919 -0.14645492 -0.24465615 0.61760974 -0.33966273 -0.28833395 -0.20077471 -0.15240727 -0.4908661 0.20752424 -0.06974019 -0.26863143 -0.5475761 0.17316447 0.19125126 -0.27507272 -0.03754762 0.240035 0.7606474 -0.17330027 -0.4839932 0.12787887 -0.337136 0.306317 -0.55349535 0.028465204 0.2999599 -0.5087777 0.19050471 -0.4101933 -0.79246694 0.10197975 0.112691544 -0.89493966 0.1649089 0.09328856 -0.13208349 0.36290944 0.10881905 0.7237981 -0.45814675 0.13942741 -0.08601154 -0.41700876 0.026912177 -0.4585045 -0.33200714 0.24243818 0.3104757 -0.2097665 -0.46346888 0.035425868 0.3751574 0.7770026 -0.039326023 -0.25864866 0.11600808 -0.231905 0.15804 0.41591212 -0.51749724 0.29197088 0.33981 0.3569315 -0.1009918 -0.19614403 -0.6534348 0.263093 0.21778117 -0.18702361 0.9124585 -0.7484323 -0.083168626 -0.4095121 -0.026923897 0.43360096 -0.3355436 0.042448394 0.38127488 0.1747179 -0.16860253 0.02932706 0.05106851 -0.61341685 -0.06699709 -0.34580433 0.21117166 0.43684766 -0.6388 0.2945327 0.14801066 0.37111658 -0.2932156 0.08630317 0.90720683 0.68616146 -0.065505095 0.06266116 0.07690772 0.17579664 -0.3645877 0.35766512 -0.1613856 -0.46521154 -0.15274075 -0.08219046 0.66107905 0.5565776 0.083530545 0.17022575 -0.17262894 0.31558484 -0.17728958 -0.36420524 0.03691107 -0.3252099 -0.31459054 0.22744924 -1.1551695 0.43457496
4584 -0.17599571 -0.19460453 0.106485195 -0.26106277 -0.051671747 0.24079092 -0.7284912 -0.309305 -0.34014863 -0.26438877 0.21975274 0.031505708 0.5954853 0.057708424 -0.1532721 -0.012155311 -0.018652087 0.3831855 0.111887135 -0.15771973 0.061179146 -0.11124727 -0.050053757 0.28715512 0.48287854 0.073724255 0.3819418 0.24268168 -0.49386334 0.26166335 -0.39190158 -0.22635205 -0.12294499 -0.4034585 -0.27185678 -0.10886536 0.27802035 -0.04855531 -0.1952994 -0.27233925 0.69788456 -0.34995037 0.15883143 0.060970087 -0.27642807 0.2957844 0.4904817 0.22403456 0.017267963 0.23657629 -0.7300161 0.3042393 -0.16481335 0.08249613 -0.0062647555 -0.08868613 0.3159531 0.3149747 -0.4868828 -1.0619024 -0.33994782 -0.3584218 -0.5437442 0.05013481 -0.06501978 -0.46680054 0.0877341 0.49584478 0.004717464 -0.20712535 0.0815447 0.10763913 -0.0050527733 -0.15090288 0.06151171 0.015213702 0.3175762 -0.49297765 -0.45872322 0.027801666 0.6626611 -0.19692777 -0.5224832 -0.63674283 0.35002834 0.21483906 0.3929166 0.27016348 0.12668544 0.7363883 -0.4788275 0.44821054 -0.27386245 -0.022660773 0.10874007 -0.13368572 -0.32604244 -0.16032642 0.41467333 0.26622194 -0.16132861 0.13031422 0.3816732 -0.5828869 -0.24582678 0.39135373 -0.0672612 0.17900668 -0.23441073 0.030550597 -0.17986907 -0.08350444 0.37518036 0.041772455 0.16117692 -0.117130294 -0.21926989 0.28271243 -0.61419916 0.68202204 -0.24665628 -0.42955726 -0.116703875 -0.065740295 -0.27071208 0.0041734525 -0.20929979 0.13491623
6214 -0.38236344 -0.01754906 -0.15791264 -0.09498105 0.0071278936 0.45710063 -0.47973552 -0.20820954 -0.023208594 -0.16944179 0.3130377 0.2189342 0.079640485 -0.28774473 0.27766764 -0.18531866 -0.5087482 0.10985138 0.111522906 -0.14651282 -0.5273725 -0.063149214 -0.15365492 0.028067013 0.64766264 -0.18573898 0.32027343 -0.08847756 -0.05300178 0.5195644 -0.15945764 -0.66855836 -0.32827777 -0.29100937 -0.1025017 -0.14614818 0.26179898 -0.096697636 -0.7949283 0.1770518 0.72052145 -0.07329769 0.22806758 -0.018491061 -0.30214882 -0.0014627426 0.64913595 0.16067302 0.35020462 0.33495253 -0.5254188 -0.1562474 -0.09792601 -0.14656982 -0.09516038 0.19879782 0.24941824 -0.3349709 -0.20346886 -0.8988787 0.035168808 0.11445246 -0.6421815 0.081549965 -0.019321201 -0.38159493 0.14686213 0.52124125 0.14309013 -0.34688717 -0.065591276 -0.22766423 -0.035915267 -0.38920358 0.031680822 0.27336755 -0.08881176 -0.28351307 0.070765056 -0.017480038 0.2373099 -0.2780306 -0.5888738 -0.81199706 0.17865036 -0.20475195 0.19716206 -0.31131604 -0.099988215 0.5543403 -0.49915987 0.26775122 0.18419957 -0.011386413 0.5840308 -0.02584864 -0.24059911 -0.1329443 0.5104881 0.018343706 -0.15461841 0.13724479 0.45501846 -0.5392258 -0.28909138 0.45750955 -0.18477719 0.2169985 -0.2975699 0.3373069 0.047097843 -0.2916389 0.23095557 0.02757786 0.7670081 0.25705424 -0.09495811 0.17986858 -0.03698446 0.17859901 -0.13903226 -0.25521022 -0.24296054 -0.07658928 -0.12875791 -0.10989833 -0.44259018 0.41006517
2665 0.17164792 -0.3939675 0.42836758 0.1996309 -0.27058056 -0.48334998 -0.8277502 -0.31448236 -0.005784525 0.12129058 0.32849345 0.012909767 0.54539853 -0.88971734 0.11075914 -0.031979196 0.22606006 -0.10589421 0.015067273 0.1337806 -0.406963 -0.025796693 -0.009616719 0.021274135 0.17484842 -0.22235906 0.7653403 0.7290582 0.19069512 -0.012037615 -0.3218897 -0.30695212 0.005884144 -0.4951501 0.008309608 0.10983577 0.22342348 -0.19454831 0.46512675 -0.07254244 0.1454815 0.1055266 0.4217932 -0.11168669 -0.2357865 0.138794 0.10654038 0.14258912 -0.07345978 0.060922995 -0.48177382 -0.113516964 -0.029658535 -0.15138654 -0.0031337398 0.8177651 0.02657832 0.24430661 -0.12414896 -0.5546435 0.8089042 0.11973044 -0.3061728 -0.7627717 0.16395617 -0.071500175 0.23194496 0.05764383 -0.07716784 -0.25388515 1.010558 -0.7665351 -0.05624755 -0.08142449 0.6722309 -0.04814873 0.37492675 0.36836648 0.17662199 -0.17298116 0.096215874 -0.40750635 -0.5276912 -0.1066134 -0.057712015 -0.12196908 0.9966921 0.78239363 0.08714929 0.40339786 0.09718276 -0.30208272 0.35811722 -0.18794732 -0.07591734 0.19425651 -0.38710803 0.33710048 0.35300192 -0.28381735 -0.6540514 -0.6072621 0.531408 -0.31553623 -0.33152086 -0.34004262 -0.12498647 0.10322671 -0.18198247 0.30958444 -0.43255475 -0.15406679 0.412331 0.0692796 0.014700587 -0.11667202 0.048785135 0.6144914 -0.11038582 0.43350747 -0.33517775 -0.24102958 0.1679677 -0.18168472 -0.18447278 0.07368469 -0.46107364 -0.059013043
8224 0.21815741 0.36855406 0.32116747 -0.18197857 -0.13430467 0.47936213 0.25994703 -0.28506905 0.06502973 -0.44286662 -0.09431898 0.068400905 -0.14255574 -0.332358 0.22545832 0.3006712 -0.21578632 0.42703015 0.23152706 -0.24114202 -0.4391003 0.06647927 -0.06308791 0.68373656 -0.16688819 -0.12513727 0.66807044 0.6252513 -0.3031635 -0.1260551 0.40043077 -0.32669258 -0.5494222 -0.3914855 0.43755046 -0.13600771 -0.33220112 -0.4571466 -0.21457992 -0.28176254 0.7253458 -0.5369632 0.61874634 0.56564844 0.48438206 -0.09983108 0.8224191 0.59024096 -0.44064483 -0.49210462 -0.043753427 0.33114874 0.0603306 -0.60094345 0.20901717 -0.3630036 -0.024878519 -0.16765012 -0.6278386 -0.104968786 0.34609854 0.04880647 0.020547956 -0.24653341 -0.2493891 -0.35913366 0.20137426 0.28380984 -0.1519691 -0.28794935 0.71337223 -0.47623006 0.13087554 -0.47781548 -0.3336904 0.05506882 0.23256877 -0.057739507 0.35084996 -0.23920545 0.15332729 -0.059961654 0.058267783 0.075139426 0.25367823 -0.13185601 -0.34325597 -0.27614272 -0.17715006 -0.08769307 -0.2511316 -0.18036975 0.07705511 0.23807128 0.056381397 -0.10476883 -0.105879284 0.085650824 0.8846768 0.6774822 -0.049161647 -0.067131855 0.44625744 0.24668993 0.30626026 0.40505314 0.37722835 0.53856665 -0.36061954 -0.14609504 -0.12854448 0.27934247 0.2365934 0.15902948 0.35681525 0.3344779 -0.30848673 0.1812084 0.14066656 0.3639928 -0.5405572 -0.4875215 0.50041145 -0.6772462 -0.23672591 0.46664202 -0.5847224 0.27693063
10169 0.09383836 0.21476136 -0.18408085 0.03940072 -0.11121913 0.14085443 -0.65911514 0.010468774 0.1520908 -0.25377136 -0.09404799 0.37030888 -0.8280995 0.06347361 -0.49114302 0.12024401 -0.052833345 -0.19702616 -0.36285952 -0.58964974 -0.22079754 0.08383386 0.2149489 0.39083633 -0.61275303 -0.03510057 0.9845222 0.60727924 -0.4900443 -0.4746562 -0.6798135 0.073689386 -0.7019905 -0.010769622 0.30696008 0.1966055 0.6493561 -0.44458058 -0.0040903445 -0.113498 0.049340717 0.07721307 0.18291898 -0.036217634 0.13052289 -0.13986796 0.5233332 0.23909952 -0.18355533 0.20291105 -0.20774978 -0.13329653 0.0017343716 -0.3286964 -0.13727702 0.38395816 0.7409685 0.65747166 0.12617269 -0.58666074 0.46047074 0.27664143 0.041381955 -0.30165154 0.10355727 -0.48029 0.124123126 0.72532 0.12797357 0.27708128 0.47446114 -0.2767618 -0.4758977 -0.3902773 -0.5983093 0.1860832 0.042636864 -0.39740735 0.6762214 -0.28222826 0.33409646 0.34275118 -0.1099559 0.053791657 0.27115902 0.16137327 0.077924535 0.18160279 -0.29408842 0.14441197 0.07606228 -0.16877483 -1.7845385e-05 0.15527706 -0.33416823 0.17970672 0.38460404 0.0038709235 0.7632107 0.050146278 -0.20997551 0.20756976 0.03061093 -0.17024462 -0.07827823 0.11915469 0.3224579 0.7017502 -0.32831886 -0.051816907 -0.24640585 0.46769017 -0.13281335 -0.20416117 0.90100086 -0.26268056 -0.24362428 -0.087178916 -0.20525123 0.6172675 -0.17196427 -0.44305673 -0.17597534 -0.030740408 -0.2477873 0.37106085 -0.25094226 -0.2169299
12182 -0.30986902 -0.56771684 -0.28502485 0.24346538 -0.33630246 0.46680796 -0.002821037 -0.54780585 0.56090593 -0.124734595 0.15061656 0.46330708 -0.26550707 0.029457582 0.10231478 0.034721404 -0.46150056 -0.11208034 -0.47854292 0.05400733 -0.2541769 -0.22971538 0.51606005 0.063090526 -0.16933551 0.051023174 1.1641234 0.46485206 0.24371028 -0.14012548 0.061904106 0.2886347 -0.37842602 -0.14002332 -0.22755754 0.30426335 -0.011842315 -0.88752365 0.169213 0.40269235 -0.4663863 0.13059258 0.8088 0.14505884 -0.04506486 -0.10430789 0.38683075 0.34525776 -0.6637602 -0.23858951 -0.50415987 -0.64664626 0.1690026 -0.27567288 0.04540318 0.4732427 0.80379725 -0.09736067 -0.3433132 -0.5079551 0.25028196 -0.07828026 -0.6179055 -0.16900633 -0.20485489 -0.26036128 -0.0027526442 0.091502406 0.23431069 0.006331709 0.18666844 -0.07112851 -0.4697731 -0.08603817 -0.6344449 0.33379668 0.06477971 -0.34751397 0.24190953 -0.33464918 -0.10394276 0.17536658 -0.065743595 -0.24520984 0.048706766 0.26754877 -0.21967272 -0.722697 0.2077168 -0.15617113 -0.87619436 -0.0809811 -0.15417361 -0.22808485 0.060437348 -0.015823916 -0.35285026 -0.17620133 0.28189576 0.8695539 -0.39231777 -0.46026784 0.6986842 -0.31201348 0.21540332 0.30446327 0.07829095 -0.07910046 -0.06380581 0.1535227 -0.25130826 0.14339168 -0.22752611 0.0036762173 0.28160793 0.28185606 -0.3256208 -0.19003357 -0.52022856 0.49534404 -0.39456442 -0.63506085 -0.011001416 -0.1683082 -0.22696677 0.48153195 -0.11329125 0.09610131
12576 -0.13850486 0.2518244 -0.08748954 0.29462308 -0.09633167 0.30329373 -0.34135047 -0.39038038 0.26132506 0.16393676 0.46161383 0.30740768 -0.2559625 -0.42621 0.4112822 -0.15933494 -0.19379894 0.41999975 -0.0979928 -0.11819246 -0.7570609 -0.16267537 0.22700101 0.47262836 -0.1848855 0.16748944 0.9100067 -0.32452196 0.11764924 0.22594137 -0.123836055 0.0045160824 -0.09726321 -0.40419564 -0.6685738 -0.26753935 -0.3047558 -0.02819778 -0.39885882 -0.46181357 0.54282874 0.28148696 0.0017512945 -0.09887084 -0.44040242 0.025636522 0.15662368 0.30570522 0.047012504 0.34705403 -0.09575786 0.14626749 -0.0707951 -0.25588125 -0.2225256 0.10381604 0.28852403 0.42146817 -0.25348598 -1.026096 0.34812889 -0.3705011 -0.9497386 0.2823722 -0.001956729 0.030242423 -0.112067334 0.24998654 -0.3654597 0.25117165 0.16313885 0.20240578 0.32381555 0.14785784 -0.37588754 0.3212053 0.52782595 -0.26900083 0.19961353 0.07287414 0.2994465 0.18886554 -0.3596474 -0.04330508 -0.013058375 0.031277504 0.40692034 -0.33379713 0.098413445 0.24753542 0.34085807 0.0066014775 0.0880502 0.35310432 0.5220398 -0.11374608 0.23280656 -0.27072892 0.30928272 0.50418085 -0.23732801 -0.05968921 0.49659312 -0.11398087 -0.3240316 0.426854 0.31915283 0.20643647 -0.40768522 -0.25210482 0.16568248 0.41156906 0.6240889 0.31895527 0.3772622 -0.46636912 0.055723347 0.481794 -0.32278645 0.6584625 0.30371705 -0.40374237 -0.21305868 -0.3282075 -0.057606265 0.1374285 0.026465518 0.29722774
22563 -0.04990514 -0.03701907 0.28961325 -0.1760702 -0.19588076 0.073336944 0.12770534 -0.618323 0.19187322 -0.37062967 -0.10833618 -0.057256214 -0.0270664 -0.07394674 -0.33448404 0.122706644 -0.3488765 -0.19247445 0.36469656 -0.5364376 -0.13003343 0.024677657 -0.1696031 0.99396414 -0.047997717 -0.09771531 0.44931352 0.26134443 -0.51807356 -0.15160987 0.085734814 -0.3625645 0.10994314 -0.47110254 -0.23973316 -0.006587011 -0.19519584 -0.12436895 -0.301442 -0.18359001 0.08628248 -0.8899535 0.6599802 0.33538288 0.5327962 0.13410872 0.88444626 0.37718928 -0.22746833 -0.16383053 -0.06697368 0.38557827 -0.19523785 -0.058367994 -0.08664865 -0.24054271 0.07693616 -0.3541215 -0.7490567 0.03319334 0.11358405 0.16745496 -0.24392174 -0.35076773 0.073454425 -0.35418123 -0.16407073 0.21975109 -0.24756078 0.22408667 0.79890573 -0.10688371 -0.054066636 -0.07763484 -0.28258517 0.23769411 0.14278473 -0.09317233 0.02225302 -0.289246 0.21232083 -0.23441967 0.12667125 -0.24659008 -0.16823132 -0.29536694 -0.06314495 -0.42367405 -0.3705903 0.12550642 0.20433557 -0.2922938 0.14550608 -0.09840748 0.4388141 0.25929815 -0.2727172 0.5625024 0.9279572 0.39533973 -0.062796004 -0.5224368 0.4864104 -0.22289652 -0.2842776 0.43314332 0.23745118 0.45897564 -0.45320213 -0.18300694 0.27946436 0.37931144 -0.054646976 -0.06990406 0.93615645 -0.16786613 -0.2531944 -0.22649422 0.23581271 0.41112092 -0.70349395 -0.4820088 0.2928728 -0.50317436 -0.5640768 -0.0029572404 0.015887182 0.3213947
8703 0.20831212 0.3570337 0.19260441 -0.13550882 -0.1590186 -0.31796977 -0.023568483 0.045494266 -0.15781443 -0.3689237 0.23905669 0.08739608 0.06987903 -0.22093083 -0.08990789 -0.095760256 -0.47351253 0.076112606 0.3724263 -0.36419058 -0.06804589 -0.13752118 -0.23444973 0.43958196 0.2226935 -0.29982573 0.67289513 -0.046510845 -0.5671316 -0.037902057 -0.5204549 0.1446555 -0.25557116 -0.44653475 -0.030357067 0.04142538 -0.015520929 0.013590894 -0.75574124 0.04666888 0.26254436 -0.51762307 0.03883317 0.64877903 -0.38202634 0.11843005 0.5196537 0.81817317 -0.45877966 -0.3201693 -0.47854102 0.24927428 -0.32755026 -0.19819476 -0.5358348 -0.00768422 0.153019 -0.20966959 -0.11776116 -0.06413626 0.74526346 0.29326054 -0.85597634 0.27663136 -0.25426978 -0.37921315 0.07306651 0.84737056 0.18781517 -0.1299677 0.6362644 0.2736497 -0.2846983 0.206381 -0.044235766 -0.14345191 0.35524067 -0.23418888 0.62408835 -0.43078616 0.42949638 -0.2949585 -0.33437732 0.028062982 -0.27003554 0.099892445 0.31479242 0.09994507 -0.009091261 -0.052324016 -0.3573515 -0.64497584 -0.39171943 0.29017654 0.074732505 -0.13422556 -0.045713484 -0.17787062 0.24688701 0.36831802 -0.05072392 -0.1053439 0.5732034 0.25046346 -0.030168315 0.16521807 -0.19799612 -0.1439374 -0.49439922 0.028667888 0.010940818 0.4748562 0.53474796 -0.056670036 1.2339766 0.24092552 -0.019149514 0.2131106 0.32228354 0.5599103 -0.68684 -0.6309619 -0.07170395 -0.21754564 -0.48714805 0.076442406 -0.5363753 -0.077534735
12350 -0.21349393 -0.14762522 -0.22319385 0.19430597 -0.075666435 0.017259829 0.023147712 -0.3700397 0.10821953 -0.46803787 0.0673026 0.7353676 -0.15767659 0.11288379 0.029470809 -0.2466134 -0.011168614 -0.47046524 -0.28782147 -0.049390998 -0.2122321 0.06170345 0.35337922 0.4508538 -0.041944552 -0.01071322 0.7598718 0.50430375 0.12866375 -0.0027858897 -0.14103577 0.26863396 -0.76148814 -0.12099624 -0.01612961 0.06135865 0.15225315 -0.8414926 -0.015358416 -0.16910782 0.0631155 0.26446465 0.62830466 0.27255246 0.083222084 -0.027410114 0.39042002 0.26303133 -0.21906039 -0.11941588 -0.34915477 0.15880306 0.23008156 -0.29635847 0.36831725 0.7303741 0.3512955 0.45769885 -0.26371375 -0.11486083 0.15430482 0.009102183 -0.16369578 0.14836448 0.47824806 -0.1007781 -0.04410604 0.121807635 0.18440399 -0.0010070476 0.45136586 -0.09701846 -0.40890166 -0.18745367 -0.16477413 0.120025344 -0.12009964 -0.6282028 0.5719391 -0.37824458 -0.12539406 -0.19256264 -0.42578024 0.083670825 0.52233994 0.39218533 -0.1615139 -0.4154154 0.12028276 -0.17343791 -0.8951609 -0.14435011 -0.22307992 -0.40512502 -0.40466744 0.34847665 -0.3890995 0.09603693 0.4625098 0.24221812 -0.59430057 0.015889043 0.44996995 -0.47546875 -0.19173689 0.6731172 0.33202368 0.3324683 0.24130186 -0.12526143 -0.24072248 0.55824655 0.2624402 0.2805461 0.80836064 0.03173651 -0.28838158 -0.13552608 0.13343446 0.2628267 -0.51431924 -1.0431535 -0.1967537 -0.099953145 0.036453295 -0.025595158 -0.022192014 0.27046496
643221 -0.028044904 -0.48424318 -0.124433644 0.88458806 -0.36398673 0.09942678 -0.15391874 -0.3300357 0.22164495 -0.28798145 -0.07904039 0.4606702 -0.41848823 -0.28374922 -0.5855244 -0.27969262 -0.27984053 -0.18804634 -0.72921604 0.20194545 -0.52061677 -0.46165183 0.28523737 -0.17584616 0.42253527 0.19230509 0.8680476 -0.20247152 0.168091 0.3002186 -0.57486755 0.15355687 0.63940305 -0.48138127 0.0059009874 0.12543932 -0.026110584 -0.3615735 0.2195596 -0.32365137 0.56322837 -0.48790187 0.06823039 0.21855465 0.36593986 0.4343363 -0.019884227 -0.049179345 -0.09568479 -0.40504834 -0.7726119 0.010052248 -0.25466716 -0.31358606 0.27548203 0.40630853 0.03426987 -0.2521912 0.1066779 -0.76883674 0.49738666 0.11159101 -0.2596346 0.0994164 0.014083892 -0.5068828 0.6512233 -0.2465056 -0.11087391 0.3110488 0.92727685 0.081586964 -0.24599583 -0.13829489 -0.69492555 -0.008596364 -0.79934907 0.31904384 -0.15434535 -0.63576305 0.30448708 -0.25706315 0.050455257 0.14608413 0.27280855 0.3232504 0.12185656 0.2217833 -0.41780967 0.37060905 0.0278779 -0.040375732 0.6225277 0.6271355 -0.07884846 0.66662645 -0.70108044 0.4160208 0.4863077 0.46296868 0.03105756 -0.6141106 0.84502536 -0.13556527 -0.2718942 0.77554643 -0.26425174 0.27030453 -0.5197923 -0.43430403 -0.47250593 0.1707222 0.09512858 0.15607955 0.35213873 -0.3242494 -0.2573034 -0.0200397 -0.71607006 0.1934198 -0.7168328 -0.2610741 -0.24361125 0.39937568 -0.47961235 0.5002978 0.089692116 -0.5045981
82920 -0.054806054 0.053419925 0.18357521 0.051723883 -0.46954566 0.32295468 -0.21157008 -0.39460853 0.65932083 0.039911292 0.4903485 0.73275256 -0.009054735 -0.03556623 0.23258848 -0.058873557 -0.122876324 0.10459523 -0.1962023 -0.40578178 -0.58111215 0.35579953 0.24280924 -0.05850625 -0.45449698 0.13355996 0.35303634 -0.32076052 -0.01942942 -0.44131944 -0.012445689 0.09445947 0.054948878 -0.68972397 -0.27798423 0.0018103397 -0.026174732 -0.05564002 -0.65495867 -0.16276003 0.5394505 0.22978328 0.18910676 0.04160724 -0.20027363 0.57400113 -0.14342996 0.6305983 -0.045870878 -0.11785507 -0.33692637 0.49358562 0.8245335 -0.22721778 0.7926005 0.06538885 0.010016446 0.36312044 0.20152014 -0.3600423 0.35646182 -0.1448952 -0.5378352 0.07746261 0.007690914 0.27442685 -0.012877245 -0.108797826 -0.26968223 0.07257789 0.024908485 -0.09851051 -0.38847712 -0.09053496 -0.5954845 0.37682205 0.13553926 -0.03729368 0.40520158 -0.52143645 0.48157483 0.49477887 -0.5518077 0.1794173 0.28751022 0.65543526 0.24802193 -0.29875228 -0.058470264 0.25453573 0.20900536 -0.1337001 0.039272916 0.29821548 -0.14530142 0.4889704 0.052904636 0.013003463 0.11783726 0.31509736 0.12215325 -0.5125838 0.8963097 0.25709292 -0.38733104 0.3115897 -0.15102054 0.22658025 -0.36100313 -0.012513442 -0.17923139 0.17670141 0.5262377 0.29197824 0.20591737 -0.054107327 -0.22193299 0.339623 0.13449438 0.42588463 -0.24392964 -0.7597376 0.047203135 -0.27822387 0.05023086 -0.14247252 -0.300947 0.3709121
15429 -0.2280731 -0.20586783 -0.04101668 0.029146006 -0.032458987 0.12369647 -0.30153975 -0.16809197 -0.058859434 -0.10711094 0.093631685 0.45416087 -0.29208496 -0.13120069 -0.43941012 0.010283836 -0.22248876 0.07907751 -0.4400365 -0.28052956 -0.053029094 0.15063195 0.09521292 0.8161883 -0.41873756 -0.30071002 0.93042576 0.53112155 -0.54517376 -0.3001041 -0.38774803 0.3297079 -0.65136385 0.03461885 -0.07381876 0.22016719 0.10495719 -0.4087392 -0.2344141 -0.18771166 -0.24997832 0.5563108 0.5424732 0.20824534 0.037214994 -0.31445864 0.42638448 0.36237872 -0.035765804 0.2300177 -0.130447 -0.0009202231 -0.06317791 -0.34952787 0.13755311 0.67055726 0.6052912 0.3561667 0.2102121 -0.50104165 0.41112638 0.007818065 -0.18161136 -0.17372134 0.6030243 -0.34835774 -0.049321484 0.5232548 0.21771692 0.26040998 0.37568173 0.02022033 0.0073714517 -0.15386593 -0.66408724 0.4990299 -0.13363726 -0.5461825 0.74157304 -0.43046755 -0.042738 -0.25174916 -0.13553797 -0.00069421454 0.098754965 0.3201687 0.03710761 -0.41847444 -0.124543935 0.29718864 -0.075190954 -0.38777936 -0.19140998 -0.11250212 -0.7011239 0.34145716 -0.06769485 0.21354648 0.5409856 0.17155163 -0.749467 0.1773659 0.15141866 -0.115985624 0.14783184 0.5355339 0.7049844 0.5955206 0.21628681 -0.05704962 0.07166398 0.6379142 -0.13427226 0.16939993 0.7657939 -0.2225285 -0.34284905 -0.059740156 -0.25105104 0.431729 -0.3054098 -0.8258117 -0.49903968 -0.111982726 0.08797065 0.15609565 -0.08354392 -0.14637344
31353 -0.15918066 -0.22636093 0.089898 0.37633225 -0.2654746 -0.03865522 0.05198677 -0.38913953 0.45087987 -0.36959925 0.11056013 0.45089534 0.16101833 0.08608158 -0.3068774 -0.37272462 -0.3889558 0.22192709 -0.5548296 0.3476073 -0.86434937 -0.67249787 0.23248146 -0.35492846 0.12917735 0.62235457 0.29459506 0.5593805 0.2822323 -0.15902364 0.31938612 0.40238023 -0.42300686 0.08720581 0.04523591 -0.1626845 0.437333 -0.97804296 -0.4526524 0.3334082 0.15476888 0.19732533 0.27647105 -0.18276538 0.5035138 0.29704854 0.63926744 -0.061479 -0.34589598 -0.07922367 -0.6705926 -0.19741452 -0.06911952 -0.17890592 0.24629687 0.7031066 1.2029272 -0.15389217 -0.5408023 -0.6039621 0.6423315 0.67960125 -0.18742728 -0.032872397 0.6399729 -0.56101 -0.010901031 -0.32338133 -0.32622635 0.015731953 0.38902658 -0.014312222 -0.2961292 -0.14117837 -0.18509628 0.2816632 0.5049633 -0.36168712 0.49541983 -0.79183275 0.13857506 -0.19281475 0.17404465 -0.19358732 0.033576082 -0.23765805 -0.22934662 -0.23143472 0.3793612 0.4343809 0.15284291 0.071252376 -0.07767754 -0.96742755 -0.4036443 0.3342186 -0.48718342 1.0167098 0.5664457 0.10871829 -0.30844393 -0.2707713 0.06711379 -0.3219704 0.7033778 0.12850448 0.61112845 0.08076341 -0.35709944 0.15618303 -0.16310543 0.24033433 -0.22742124 0.11347367 0.43085817 -0.18207093 -0.43243638 0.21154489 0.33915037 0.565218 -0.68676585 -0.2925882 -0.017154006 0.15460747 -0.30498055 0.06991775 -0.19016281 0.052114476
2658 -0.017214106 -0.2996834 0.5315643 0.36410615 -0.0593989 -0.42219114 -0.9664536 -0.82538223 -0.036953386 0.19823204 0.43972507 0.39127877 0.35181463 -0.9908942 -0.19173098 -0.034991663 0.028973337 -0.05929175 -0.12029815 0.31212023 -0.63145953 0.13031894 0.0857588 0.10583939 0.23516364 0.15152328 0.97779614 0.6955306 0.073241815 0.047205906 -0.10376937 -0.19709647 -0.20343272 -0.34510326 -0.005951866 0.068155475 0.07336863 -0.0575833 0.21520486 -0.120702 -0.10072468 0.1572894 0.71673775 0.08077095 -0.26455075 0.13491023 0.08178775 0.20852481 -0.23136677 0.07584824 -0.45999774 -0.009114589 0.16951637 -0.1827148 -0.0328944 1.0555947 0.21038231 0.42500156 -0.05754433 -0.6920941 0.91421115 0.033407908 -0.3928968 -0.90467143 0.2054746 -0.025593461 -0.011665186 -0.037183974 0.081874296 -0.21109068 0.8182198 -0.47137552 -0.08930364 0.034902275 0.55712426 -0.25107872 0.22541429 0.36256227 0.17858781 -0.27354807 0.121827304 -0.41606572 -0.4217348 -0.27176625 -0.17115146 -0.015635107 1.1478101 0.65400296 0.32542098 0.1491876 0.39530104 -0.5272185 0.3675455 -0.1592946 0.23661931 0.18298215 -0.53405 0.599553 0.44662517 0.114970416 -0.8511696 -0.4499319 0.5734886 -0.21277988 -0.6149148 -0.52820146 -0.046571523 0.2857818 -0.048762772 0.38458815 -0.31591195 -0.010483998 0.44316205 0.20177566 0.0846578 -0.12559392 0.12502591 0.8303261 -0.18433987 0.3532541 -0.14579274 -0.32116035 0.2815699 -0.14027588 -0.45534188 0.06684838 -0.6119959 -0.2272048
39890 -0.07126814 -0.55947995 0.25130782 0.6388157 -0.40262955 0.605447 -0.24773395 -0.58197314 0.34824586 -0.34594107 0.21170674 0.5660588 -0.18443729 -1.0146729 -0.4018286 -0.2335063 -0.24491265 -0.37318543 -0.3259559 -0.32424283 -0.5042219 -0.36651552 -0.072059594 -0.06758443 0.15017882 -0.22899397 1.0803463 0.4129924 -0.23858126 0.13433224 -0.21234895 -0.3897217 0.096308745 -0.5787027 -0.0612892 0.08087164 0.15015227 -0.33325914 -0.4181293 -0.52418005 0.61383736 -0.08745658 0.30734703 0.80085707 -0.03421184 0.30336428 0.74083674 0.38483146 0.011153993 0.3173955 -0.12921895 -0.028057178 0.20672053 0.014863423 -0.049629647 0.39795852 0.22750701 -0.3930216 -0.8664626 -0.99382824 0.73648274 0.44120568 -0.29498658 -0.22351685 -0.45971084 0.041489463 0.08242869 0.54231006 -0.010804055 -0.678824 0.16498694 -0.2528394 0.16793722 0.1541348 -0.061024938 0.095458515 -0.24025899 0.41199854 0.49821267 -0.1374851 -0.557486 -0.11533714 -0.27628407 -0.70501846 0.37938887 0.24762385 0.37651607 0.017629122 0.017466156 -0.30838865 -0.13312383 -0.19640379 -0.2058022 -0.0073370207 0.7852429 -0.15819298 -0.26814377 -0.1363667 0.07062006 0.41666597 -0.109231696 0.18030162 0.16026427 -0.023473792 -0.50990534 0.31610924 -0.08722137 0.15113196 0.49692294 0.14518198 -0.32338202 0.12784235 -0.054763455 -0.41034535 0.17457362 0.1804689 -0.074970245 -0.45345908 -0.6164909 -0.114896454 -0.12772252 0.07719615 -0.05648225 -0.206245 -0.005038862 0.1011365 -0.011298571 -0.21695817
3191 0.307896 -0.21462962 -0.013419398 0.7157844 -0.39891666 0.563965 -0.031910606 -0.65373594 0.4646363 -0.30167025 -0.020654913 0.31889352 -0.29572436 -0.7409 -0.39409605 -0.36328474 -0.51902705 -0.116746165 -0.43661106 -0.21234249 -0.48527396 -0.19095796 0.0332759 -0.18545373 0.15039578 -0.0617971 0.6313567 0.5253392 -0.29151228 0.1463591 -0.39591107 -0.072983064 0.45314524 -0.55311155 -0.3569327 0.08518645 0.46270746 -0.30760965 -0.290649 -0.22339137 0.14501695 0.004265708 -0.11606977 0.56182367 0.08078938 0.717142 0.64846784 0.32944006 0.21756513 0.35115582 -0.20149106 0.026948623 0.24501215 -0.04782857 -0.61748725 0.30318186 0.38191494 -0.84599805 -0.6361372 -0.9442503 0.7207781 0.7740129 -0.08009649 0.014683835 -0.16260856 -0.107514635 0.27819034 0.21755351 -0.23003018 -0.38253066 0.023804214 -0.06682217 -0.48067775 0.005921962 -0.0552042 -0.033486668 -0.45941132 0.35046044 0.5907384 0.01643389 0.017490879 -0.027340617 0.042793036 -0.17432204 0.8120434 0.12672146 0.32431856 0.17546177 -0.2524253 -0.11557851 0.22152112 -0.5272604 -0.06461075 -0.1525908 0.6201889 -0.33401355 -0.11126928 -0.031020142 0.14548208 0.42088675 0.064438276 0.044210956 0.06324254 -0.04966137 -0.2932282 0.5828886 -0.05124841 0.016910523 0.30515695 0.3216254 -0.310655 0.35641265 -0.5641402 -0.33700392 0.002324521 -0.19641253 -0.36025015 -0.26363063 -0.4439077 0.1579858 -0.10429448 -0.32288936 -0.050782934 0.10039947 0.023154797 -0.24024165 -0.3498931 -0.081959516
35922 0.5785896 0.12509145 -0.007922411 0.26203844 -0.120839 0.24975455 -0.43268004 -0.38760322 0.5424198 0.008408372 -0.02019671 0.30338496 0.17547835 -0.016723273 0.578646 -0.020972403 -0.2707874 -0.058130745 -0.5031693 -0.054061778 -0.18819891 -0.48435324 0.011816972 0.25874922 0.08391602 0.59674567 0.09071186 0.37283263 0.6813544 0.27683774 0.1735629 0.43312305 -0.16458246 -0.4419679 0.37128058 -0.33245984 0.7595546 -0.80317366 -0.36231574 -0.025148723 0.5181455 -0.18741003 0.4714844 -0.26841363 -0.027151667 0.54797935 0.7007687 -0.050159056 0.0131107895 0.0066578113 -0.4424989 -0.66678053 0.06402223 -0.357752 -0.20294358 0.37289298 0.5713507 -0.25979427 -0.14152586 -0.43137643 0.9458549 0.3770444 -0.29358292 0.02150805 0.2162504 -0.1265614 0.38011956 0.31731713 -0.62896186 -0.28895855 0.24606833 -0.30895594 0.05720199 -0.022488192 -0.7103751 0.50236624 -0.23469532 -0.15257704 0.33565247 -0.040185314 -0.053227957 0.1808982 -0.33657846 0.0212119 -0.26635367 -0.38142875 0.19591792 0.0769417 0.19636971 0.8126209 0.24697687 0.39544845 -0.2109481 -0.6580957 -0.51324886 0.17595686 -0.059468728 0.12987135 0.10407209 0.010914112 -0.43696573 -0.645922 -0.09529428 -0.6539977 0.17352255 0.25389767 0.30134287 0.069655 -0.010682526 0.48932207 0.08134432 0.49681085 -0.31596044 0.31343323 0.15375476 0.12723637 -0.1502516 0.04271761 -0.110697925 0.74093485 -0.67381674 -0.41312897 -0.04248918 0.2774923 -0.113921955 -0.035008624 0.08609663 0.35612983
230879 -0.18633303 -0.23987381 0.3060543 0.3987371 -0.18063273 -0.43556038 -0.6002715 -1.0343711 0.032397673 0.2547938 0.38190442 0.36696565 0.17484617 -1.0021892 -0.3800766 -0.10397287 0.0014367878 0.12684314 -0.09336353 0.38504604 -0.51304007 0.085377455 0.20563534 0.38132122 0.37776327 -0.032322332 0.89682645 0.6768211 0.15292542 0.13082224 -0.5166543 -0.40992373 -0.13979614 -0.18978553 -0.13224088 0.13920689 -0.2321307 -0.058573384 0.2821381 -0.30022752 0.16694427 -0.2777476 0.4741065 0.4671402 -0.088834964 0.20745549 -0.04031346 0.3858399 -0.27944633 0.057861503 -0.35976106 -0.2255384 -0.047852796 -0.15337357 -0.16914362 0.7941308 0.13933149 0.4861846 -0.2341182 -0.7891664 0.783263 -0.034241095 -0.222812 -0.90599495 0.0009601674 0.025772326 -0.011836748 -0.051545218 -0.03608136 0.0033514386 0.84958684 -0.16524391 0.028024374 -0.20551011 0.30683511 -0.1141018 0.26031703 0.280485 0.15039 -0.37529263 0.30438495 -0.2675783 -0.13630973 -0.112361565 0.04215048 -0.14280994 1.217983 0.6171664 0.2747641 -0.021659555 0.13877143 -0.5222522 0.6055437 -0.14367755 0.38054717 0.22001588 -0.5835336 0.7087354 0.5650144 0.1205325 -0.758868 -0.59468585 0.8017539 -0.28701943 -0.71188706 -0.38162038 -0.26542294 0.2197529 -0.14779674 0.42705303 -0.31625795 -0.08312067 0.62114465 -0.021572536 0.33023348 0.22718076 -0.12198592 0.54286546 -0.008100187 0.09533401 0.027159516 -0.19527441 0.3501349 -0.040977474 -0.7869644 0.48254055 -0.63202757 -0.5416948
3220 0.21612003 0.084145375 -0.03320234 -0.043959636 0.19655931 -0.12582129 -0.052310273 -0.5997344 -0.07362786 -0.11860939 -0.13490082 -0.00029559026 -0.19555882 0.2853992 -0.6949602 -0.05604656 -0.13127127 -0.04072609 0.09417312 -0.64695287 -0.5228373 -0.44647563 -0.41022578 0.5203294 0.08912935 0.32369474 0.82327086 0.21562502 0.038937405 -0.21142973 0.07265897 -0.46247405 0.27955645 -0.64743406 -0.009461019 0.27399227 0.263763 -0.21789895 -0.21602798 0.08793666 0.16192617 -0.49838254 0.10425853 -0.0074408753 0.92221606 0.24225625 0.5013845 0.055764772 -0.5940907 -0.18512383 -0.280057 0.5097804 -0.0621585 0.29356995 0.17828614 0.28290203 0.52800095 -0.57610154 -0.31124458 -0.5153179 0.6524019 0.2859436 0.20654336 -0.6897631 0.31039155 -0.3340123 -0.17795482 0.08494057 -0.29620638 0.25352865 0.7703463 -0.08176418 -0.1392378 -0.15968378 -0.43503237 0.09363044 0.37609303 -0.10596666 0.40110537 -0.38891074 -0.07989646 0.28905502 -0.14822692 -0.12866263 -0.18445598 -0.5555877 0.09895218 -0.31892365 0.021927424 -0.049181357 0.0051143137 -0.59567046 0.11752093 -0.45791763 0.29420972 0.2779277 -0.022300538 0.66527563 0.8495108 0.21630478 -0.017135624 -0.4199764 -0.1093159 -0.12480458 -0.04394739 -0.034634333 0.10157334 0.3623041 -0.6825747 -0.33447757 0.6190981 0.79346734 -0.04034549 0.18452252 0.8043815 -0.2520395 -0.30565533 0.30108038 0.3785414 0.6968627 -0.6046175 -0.6500202 0.31132713 -1.2655565 -0.53275895 0.2100228 -0.23721275 0.021643387
2653 -0.30082977 0.27756584 0.22116274 0.1241384 -0.18193331 0.5163504 0.099717945 -0.62994474 0.8990243 -0.03877392 0.03720785 0.5865798 -0.249655 -0.4041391 0.08451097 -0.0687292 -0.5833222 0.26890448 -0.60260046 -0.0069895727 -0.07767496 -0.051607177 0.49701706 0.8415428 0.004781755 -0.45211643 0.85227287 0.5319936 0.28320405 -0.13476488 -0.10320544 0.4253991 -0.12392943 -0.4350754 -0.45623198 0.22335908 -0.19357134 -0.5529071 0.26764157 -0.034223672 -0.46690485 -0.021849064 0.3554412 0.346545 -0.00849356 -0.069648355 0.6115485 0.6259445 -0.51615494 -0.20860653 0.06936601 -0.26680124 -0.0222936 -0.29726842 0.28263772 0.10609163 0.54242194 -0.050300736 -0.6001845 -0.805193 0.6833898 0.083141156 -0.12664463 -0.3002481 -0.319817 -0.1087791 -0.1060201 0.4986094 -0.3064869 0.29812106 0.5069312 0.052325383 -0.40724203 -0.28140152 -0.39132798 -0.105801925 0.54468435 -0.43051296 0.4552992 -0.27634558 -0.001322593 -0.20020095 -0.32143795 -0.19249348 0.16052012 0.005383679 -0.1398395 -0.5726571 -0.18286556 -0.2207182 -0.9624193 -0.32140955 -0.14649571 -0.6063004 0.056899797 0.2754039 -0.48316523 0.030844169 0.5531241 0.4719651 0.21709481 -0.22547904 0.5252974 -0.4387659 0.258235 -0.20465578 0.4173358 0.41815835 -0.18527584 0.10162321 -0.027516598 -0.34031552 -0.042031918 -0.09604534 -0.007082657 0.024447031 -0.4081862 -0.12002094 -0.07755423 0.24140212 -0.43161362 -0.616017 0.80666614 -0.46377784 -0.11952269 0.0044126194 -0.3497517 -0.24428493
2696 0.01467485 -1.0082688 0.01008805 0.7046849 -0.4485847 -0.49966857 -0.18958412 -0.30693638 0.27699924 -0.2734294 -0.075951785 -0.38431153 0.521038 -0.7409786 -0.6325426 -0.28510466 0.2960399 -0.100824535 -0.31994104 -0.22925903 -0.38820982 -0.26867405 -0.19788973 0.23836683 0.0610809 -0.61583215 0.27635825 0.8808462 0.06938752 -0.49343818 -0.43040618 0.1841132 0.37292835 -0.6050206 -0.02623998 0.1388686 0.6254873 -0.47019356 -0.12622327 -0.21255122 0.36046413 0.3439697 0.45513478 0.24043728 0.32294986 0.23021768 0.20319891 -0.017233083 -0.48049936 -0.20653115 -0.6640075 -0.5486213 -0.20929009 -0.11283916 -0.33670625 0.11573866 0.19656327 -0.03239783 -0.6610062 -1.0212075 0.6360944 0.32143608 -0.37105408 -0.48670235 0.375769 0.09155016 -0.03442067 0.15937468 0.16039936 -0.7892535 1.1632178 -0.8060676 -0.28414348 0.0053297672 0.50115025 0.3999435 0.33750582 0.09614043 0.0023553506 0.19356996 0.2941851 -0.14883539 -0.15389077 -0.31444776 0.39212215 0.013596598 0.18448327 0.22153069 0.39699915 0.59379566 -0.053659637 -0.030983964 0.16948523 -0.067771666 0.06307423 0.45074785 -0.6036957 0.13337673 0.40780756 -0.11577241 -0.21676262 -0.4240441 0.38477647 0.028916432 0.020785969 0.555958 0.060403235 0.063576825 -0.15993427 0.50831836 -0.8196446 -0.41504124 0.2852784 -0.07049635 -0.0006189555 0.16984454 0.0016978541 0.20174985 -0.10263936 0.7808152 -0.7669279 -0.51179826 -0.1818446 -0.62581074 0.14566405 -0.4054841 -0.04436009 0.20516713
39127 0.3154291 0.0059973206 0.50101876 0.49821594 -0.36896345 0.44480526 -0.77735937 -0.18397933 0.19873439 -0.42564794 0.19869336 -0.020349862 -0.5960407 -0.29398185 -0.28285086 -0.13067508 -0.08766657 0.49433395 0.21441515 -0.24062496 -0.23024651 -0.11585479 0.100025535 0.04425412 -0.42665666 -0.6976838 0.5948855 0.6904268 -0.8088206 -0.3028326 0.077110544 0.19943143 0.17174107 -0.5146112 0.2532373 0.5377213 0.37009543 -0.5590806 0.18797739 -0.126326 0.5917692 -0.13418579 -0.26560336 -0.118453845 -0.25845855 -0.23679121 0.41612184 -0.2605425 -0.42331758 -0.20765944 -0.48328677 -0.28051284 -0.22424039 -0.34041563 0.15070982 0.20524135 0.6669471 0.18490271 -0.12184834 -0.38860363 0.8056587 0.16948922 0.041550506 -0.76154155 -0.055788852 -0.3102119 -0.013736288 0.49954605 -0.023559418 -0.13615808 0.3458268 -0.3925195 -0.0046817195 -0.5285346 -0.09953071 0.33653829 0.33460978 -0.28323826 0.7852438 -0.71716905 0.13308895 0.48082194 -0.16355896 -0.53207415 0.77913517 -0.19396113 0.4218502 0.24584849 -0.49050516 0.29978523 -0.013830335 -0.46664897 -0.107143186 0.019293308 -0.61053705 -0.27607158 0.44295165 0.26629245 0.43884397 0.3368929 0.11427945 -0.27285293 -0.19746913 0.13789777 0.29173958 0.313638 -0.39525872 0.64610904 -0.3212365 -0.12704872 -0.2981255 0.2195959 0.23385909 -0.0633542 0.4663292 -0.353715 -0.7091597 0.16699718 -0.49284697 0.40769714 -0.44872087 -0.5395602 -0.42094105 -0.54078597 -0.34831637 0.4076956 -0.6201908 0.091898695
1688 0.4351787 0.015315797 0.54600984 0.0861388 -0.28757617 0.51467377 -0.025020072 -0.49404517 0.082425304 0.052084222 0.3792128 0.51136655 -0.2846162 0.1414257 -0.16226622 0.05892059 -0.29540646 0.5036041 -0.24381621 -0.19349495 -0.5716553 -0.24748507 -0.102672994 0.05585149 -0.021513095 0.47117183 0.81072825 -0.17392428 0.21394053 -0.033938967 -0.28448045 0.03507698 -0.20230614 -0.39364466 -0.0453463 -0.21086958 -0.13561255 -0.19728026 -0.63816893 -0.528006 0.41726917 -0.10465592 -0.4414394 -0.25696722 0.1661883 0.6873808 0.21504872 0.42281687 -0.05236796 0.34280348 -0.36762944 0.3079597 0.49137303 -0.4086452 0.6879296 -0.008829481 0.20654756 0.21300484 -0.48105738 -0.18928266 0.27376783 -0.33474508 -0.4677345 0.1989172 -0.4919244 -0.15228193 -0.29354873 0.08249546 -0.59125906 -0.04710623 0.49314848 0.5868157 -0.45907113 -0.0057242946 -0.13633509 0.52630454 0.08445574 0.13025267 0.41111788 -0.39037248 -0.14373374 0.54462445 -0.65588444 0.16325074 0.09652853 0.19534582 0.6416337 -0.31366202 0.16382585 0.23176827 -0.08193499 -0.2699829 -0.00038790717 0.32324237 0.24222478 0.6515054 0.32656974 -0.36084342 0.70550483 0.16810513 0.38026366 -0.38964713 0.82260793 -0.17823987 -0.07187889 0.10082886 0.42533377 0.35570115 0.027629793 -0.3376982 -0.41324747 0.023457136 0.52697873 0.28229046 0.014317062 -0.41214296 0.15752108 0.6785153 -0.23447248 0.0978922 0.10397487 -0.3822311 -0.014553838 0.14999683 -0.33839834 -0.11708561 -0.2675301 0.12914985
23738 -0.11008566 -0.047368906 0.24083821 -0.123556435 0.14943537 0.6126678 0.40827107 -0.7332735 0.5476433 -0.6249629 -0.23175578 0.1767823 -0.45353174 -0.22153191 -0.22435927 0.031318743 -0.407161 0.011018891 -0.0105270725 0.20220019 -0.3381147 -0.10025816 0.025617644 1.0540534 0.23735225 -0.02577357 0.68409795 0.52790034 -0.28386736 0.1269903 0.14272971 -0.22452234 -0.014605231 -0.3535605 -0.15215763 0.24339253 -0.13197482 -0.3104774 -0.21955857 -0.26450056 0.13544644 -0.522515 0.75540483 0.7390397 0.32435143 0.033667423 0.6883643 0.5950504 -0.44249284 -0.05715059 0.07294486 -0.055484593 0.15645628 -0.4053186 0.23964313 -0.06200213 0.34860894 -0.3288558 -0.7164788 -0.07401384 0.32081005 -0.009546985 -0.16902155 0.02963969 0.09214167 -0.14203244 -0.0821745 0.19902 -0.4435338 -0.028556522 0.7026234 -0.21955861 0.3044357 -0.3701702 -0.47972378 0.0052091614 0.18103684 -0.21527176 0.10762601 -0.33698043 0.06647197 0.31378344 -0.14372155 0.06430806 0.1486169 -0.18977152 -0.11584273 -0.94111955 0.08640625 -0.20613013 -0.36502212 -0.06232922 -0.20811532 -0.043672834 0.28857693 -0.023761397 -0.067350194 0.1463239 0.6171188 0.7409325 -0.2999391 -0.634617 0.51152956 -0.22249587 -0.030170493 0.5690797 -0.12535077 -0.2056747 0.028608926 -0.09039843 0.22695652 0.6000021 -0.116491646 -0.057795618 0.5007713 0.09798206 -0.51269364 0.057971757 0.09061625 0.116502866 -0.41051796 -0.61968195 0.27242398 -0.2669821 -0.5788027 0.46348068 0.054909278 0.51425374
6334 0.06181993 0.3852774 -0.16695002 -0.07407298 -0.07416324 0.18666355 -0.88878036 -0.23090807 0.37223864 -0.1521992 0.4711301 0.44456604 -0.7532742 -0.1063698 -0.4696871 0.09272969 0.06117477 0.002545374 -0.34434655 -0.4375153 -0.30997697 0.23032476 0.3359387 0.5050992 -0.2967927 -0.09566886 0.6913226 0.6434911 -0.2711419 -0.33366728 -0.08110899 0.19156812 -0.06317927 -0.33933443 -0.09670263 0.27229422 0.6626188 -0.40072477 0.215105 -0.35596463 0.23486784 -0.3632855 0.37558883 -0.2269042 0.27235815 -0.057172514 0.46991572 0.6718721 -0.10098246 0.0073054363 -0.084917374 -0.032415923 -0.19211678 -0.32793227 0.076620184 0.035338134 0.68786687 0.45561108 0.11243188 -0.6058342 0.30655527 0.07063483 0.22407787 -0.4367621 -0.23156913 0.056210276 0.0898569 0.5660029 -0.22128662 -0.013768661 0.22784849 -0.10039118 -0.34140995 -0.30371097 -0.5748362 -0.04221242 0.31803802 -0.29132903 0.58066696 -0.21795164 0.26796767 0.008549775 -0.36581197 1.6586999e-05 0.20595893 -0.34026563 0.35809287 -0.09048899 -0.51860005 0.22638023 0.07989434 -0.4110834 0.005845096 -0.17813872 0.2005179 0.043675367 0.23451534 -0.0055896146 0.8536291 0.054102514 0.042820197 -0.044612214 0.24740689 0.16946033 0.13913369 -0.11436203 0.44042054 0.65730095 -0.627897 -0.25383377 0.3014757 -0.20838918 0.008004798 -0.23957826 0.60025907 -0.6788748 -0.565107 -0.18726562 -0.24687846 0.2613375 -0.5205027 -0.2996255 -0.33828536 -0.38827664 -0.11638239 0.22490993 -0.1219326 -0.10933832
4335 0.42459866 -0.2718258 0.007084856 0.47939774 -0.071796685 0.20886512 -0.16978529 -0.37893784 0.7386789 -0.14221735 -0.39838022 0.48881784 0.22432026 -0.006761137 0.46337762 0.103682294 -0.35819075 -0.25969222 -0.51834154 0.123829536 -0.46753925 -0.33903357 0.0009556055 0.46165213 0.63883686 0.7911046 0.4073812 0.33758026 0.1359361 0.41151035 0.2657926 0.42806762 -0.050765567 -0.70149374 0.08147347 -0.30890256 0.39838687 -1.0872585 -0.05162025 -0.1797144 0.6034489 -0.16995385 0.5338771 0.14103559 0.17407565 0.22587457 0.43545145 -0.14561556 -0.21224268 0.16095142 -0.1168535 -0.48862576 0.27813604 -0.33513397 -0.17301725 0.07498836 0.31097645 -0.33280355 -0.1718057 -0.5076957 1.1568695 0.6986959 -0.43001196 0.07229527 0.28272533 0.34957898 0.57740295 -0.11224016 -0.64918655 -0.21821536 0.40046972 -0.22956163 0.19012548 -0.035523128 -0.27409986 0.38984916 -0.22438325 -0.5076083 0.22925137 0.1424021 0.4231157 -0.03655861 -0.057059217 -0.041118238 0.10484795 -0.16062807 0.24030343 -0.19326884 0.25709227 0.8040884 0.07583226 0.07552838 -0.07378557 -0.30220726 -0.049005453 0.3079855 -0.18766011 0.047485664 -0.46776214 0.1579531 -0.62061876 -0.88166934 -0.16190095 -0.82190514 0.053781915 0.21811718 0.31862727 0.31607842 -0.15297174 0.20111059 -0.3505538 0.30828628 -0.3076912 -0.08679763 0.33985096 -0.3992946 -0.4812448 0.088040896 -0.44215015 0.292942 -0.2751547 -0.6347178 -0.23912482 0.49852127 -0.17005067 -0.15557495 -0.08576402 0.07860672
16819 -0.14470734 -0.52834857 -0.020507948 0.99142516 -0.1932882 -0.21171246 0.021617213 -0.3559212 -0.108230285 -0.18091261 0.08862771 0.33530018 -0.1962655 -0.3809619 -0.5724099 -0.5801542 -0.3222896 -0.10651142 -0.35085383 0.36571366 -0.33968824 -0.4457723 0.057119943 -0.17958866 0.33673853 0.19134213 0.7111584 -0.45453286 0.027717356 0.104605876 -0.5795772 0.25415936 0.41989273 -0.56160563 0.30325386 0.30061677 0.13725533 -0.2864777 0.2892755 -0.0911795 0.50457525 -0.50602794 0.080280945 0.12734778 0.2669408 0.09825144 0.057193696 0.25955382 -0.46822277 -0.36850816 -0.80937546 -0.19011033 -0.32694703 -0.41922346 0.18942215 0.4338547 0.10877449 -0.7550187 -0.08649975 -0.37155968 0.2906555 0.09447128 -0.29646924 0.15925594 0.25437623 -0.73015225 0.38265735 0.22777541 0.05168428 0.24582902 1.0087688 0.29135388 -0.24917512 0.019900536 -0.39288735 -0.20972866 -0.74566793 0.4732809 0.009625481 -0.59161985 0.3566384 -0.3616325 0.43239433 0.10410061 0.17836149 0.26119745 0.09366434 0.31110904 -0.31718364 0.29558757 -0.32279894 -0.23648576 0.30179814 0.6384652 0.10638453 0.5454759 -0.90646607 0.27875477 0.35276794 0.37967786 0.16255188 -0.5327538 0.87564623 -0.078957014 -0.122849256 0.8745955 0.027865382 0.27979138 -0.47811803 -0.40664792 -0.486236 0.24632642 0.15755118 0.2085905 0.5539765 0.082233384 -0.22435717 -0.45524275 -0.590532 0.05424446 -0.7892706 -0.5198729 -0.3588562 0.35616586 -0.37279102 0.64864856 -0.36262843 -0.5165496
4804 -0.12600008 -0.39686754 -0.37514937 0.12100734 -0.25845367 0.07581871 -0.21750766 -0.5857844 0.2268512 -0.12003336 0.25690925 0.48779273 -0.0936289 0.115996815 -0.057693988 -0.09012056 -0.103908695 -0.21767981 -0.19728234 -0.22637872 -0.16392516 -0.17550175 0.1877677 0.15404615 -0.13368867 -0.05785512 1.1450895 0.4341414 0.027969375 0.06591018 -0.3552095 0.07944181 -0.5429151 -0.42593008 -0.06748884 0.43559426 0.1943791 -0.82028335 0.04286734 -0.03134934 -0.28008637 -0.015478947 0.71796787 -0.11584989 -0.079232864 -0.17323335 0.20881608 0.34789371 -0.7310133 -0.60115296 -0.21811913 -0.35253483 0.06102437 -0.5309428 0.087517 0.8055891 0.61563665 0.15451187 0.18834904 -0.83843505 0.09691727 -0.03958873 -0.17903751 0.06670271 0.12795016 -0.51782 0.20502138 0.101432316 0.2854889 -0.05024278 -0.15344311 -0.018034723 -0.21751806 0.09865014 0.021454593 0.52981156 -0.033850886 -0.5249411 0.56509185 -0.4485488 0.018767854 0.06806876 -0.3331805 -0.28554952 0.41893134 0.18925092 -0.2740629 -0.88175154 -0.24832632 -0.2879865 -0.7761786 -0.5611313 0.21254003 -0.33596817 0.04522164 0.03803564 -0.10936258 -0.012500168 0.49582243 0.32538244 -0.8379877 -0.056732673 0.5099567 -0.26228976 0.22608213 -0.090896465 0.30326387 0.016693998 0.05667634 -0.24011055 -0.5365872 0.47761694 -0.12205121 0.46705425 0.5704854 -0.0081058405 -0.18090415 -0.4405179 -0.5237949 0.4911052 -0.046235677 -0.93089503 -0.14379723 -0.25883242 0.026625574 0.14151828 -0.08715595 0.112856366
642894 0.10990809 -0.20642823 0.1870539 0.961127 -0.12792455 0.14553353 -0.2610747 -0.26224312 0.183792 -0.33751094 -0.07622128 0.46929562 0.016227428 0.09253763 -0.48784924 -0.23302086 -0.09686967 -0.17781942 -0.65857255 0.07772744 -0.29021588 -0.46331808 0.28063488 -0.2048318 0.5256014 -0.2660838 1.053293 -0.16406818 0.12295084 0.507009 -0.74475807 0.16101553 0.60096264 -0.45555547 -0.094724014 0.09813337 -0.29919338 -0.25052163 0.42367616 -0.52526975 0.5355937 -0.51672035 -0.05788845 0.47182363 0.41780895 0.3375734 -0.013372718 0.20922957 -0.2621754 -0.3425774 -0.56221086 0.19512291 -0.3083004 -0.39679003 0.24715024 0.6129674 -0.018113434 0.007828183 -0.008700219 -0.8182817 0.31874037 0.16699298 -0.17915912 -0.045780666 0.061423745 -0.5601958 0.28832993 0.0049419277 -0.26811907 0.16182926 0.80978954 -0.23079488 -0.04511809 -0.52268475 -0.76041424 0.00401517 -0.6543087 0.2323725 -0.20673974 -0.9790377 0.2395705 -0.3720411 -0.1864581 0.26732937 0.057033125 0.061691545 0.3103697 0.077329725 -0.43398222 0.18330058 -0.26466107 0.04976742 0.42579466 0.63228816 -0.093946435 0.6891598 -0.86717945 0.47570488 0.45688292 0.7137339 -0.109432496 -0.7761024 0.83561623 0.047459964 -0.22278143 0.8942621 -0.4276786 0.4312493 -0.58458126 -0.28972402 -0.36389053 -0.09137937 0.426844 0.45809862 0.8947178 -0.19352257 -0.30893412 0.2186222 -0.47538447 0.17302 -1.0018883 -0.34783962 -0.040338147 0.49888733 -0.29664534 0.3815386 0.37744728 -0.5443827
1481 -0.3686344 -0.08749924 -0.81630415 0.19794068 0.10886518 0.2505168 -0.51580626 -0.18740936 0.28156668 -0.3734866 0.5250741 -0.12323798 -0.01649433 -0.70092785 0.26751125 -0.33545554 -0.10843016 0.3527934 0.02421946 -0.6009828 -1.0212064 0.33590472 0.5097656 0.05978441 0.41130793 -0.14753063 0.75220823 0.14588013 -0.26319113 -0.5667394 -0.24368621 0.17193057 -0.3938817 -0.59317434 0.2133427 0.444431 0.39636683 0.32265386 -0.06665305 -0.51593506 0.6875555 -0.85343736 -0.5678082 0.0074507925 0.032226484 0.008383539 0.49536225 0.42600724 -0.29402122 0.77296025 -0.25775892 -0.3387351 -0.4636634 -0.24663293 -0.013704508 -0.26854005 0.113462046 -0.13077132 -0.39553648 -0.5017984 0.2529765 0.17766489 -0.10407602 -0.41415337 -0.31031606 -0.09226743 0.39862034 0.7352822 -0.45483372 0.52373075 -0.15960293 -0.033774085 0.102112025 -0.10900382 -0.8226548 0.35223737 0.2514678 -0.08774724 0.48666656 -0.37014475 -0.018551448 0.10579739 -0.13588518 -0.34095177 -0.0964008 -0.51175076 0.66614056 -0.15214705 -0.17540883 0.66120076 0.24640302 -0.6383419 -0.01713242 0.016601508 0.8449615 -0.248803 -0.22883983 0.3715549 0.34153438 0.057256017 -0.033205368 -0.31041765 0.49719465 0.119181454 -0.34581968 0.022354838 0.17497115 0.57463735 -0.62997824 -0.3901368 0.07695298 -0.44379002 0.07081441 -0.22347094 1.0630128 0.49773845 -0.12268392 0.025952423 0.009263638 0.6159542 -0.3624862 -0.1527085 -0.16069469 -0.03132474 -0.064017706 -0.049155343 -0.2611228 -0.05345677
10796 0.2141332 -0.123378344 -0.43797246 -0.26617688 -0.04164107 0.48184887 0.031017026 0.07885902 0.11334121 -0.44112846 0.24994151 0.2889582 -0.101256095 -0.474776 0.2810805 0.17904562 -0.6622425 0.94102925 0.17399341 -0.33929843 -0.29025918 -0.23439825 -0.31247318 0.8448184 -0.04876984 -0.26099187 0.9475684 0.28555253 0.009179971 0.037910324 -0.3346924 -0.4370093 -0.15543614 0.16713604 -0.44798318 -0.38790467 0.11958015 0.1922806 -0.3771813 0.10184422 0.92515564 -0.70277935 -0.13832657 0.48513576 -0.7664082 -0.2584814 0.619775 0.6544839 -0.28051415 0.28097504 -0.14527927 0.16848923 -0.28072584 -0.32027844 -0.18625043 -0.109027065 0.31203273 -0.12549487 -0.290595 -0.45870882 0.27570602 0.20990635 -0.08832202 -0.06727866 -0.4339052 -0.43437132 0.20654747 0.4081374 -0.40884274 -0.0048860624 -0.030543426 -0.11180495 0.5098128 -0.35003212 -0.4767095 0.3578239 0.5162996 0.11115905 0.15709515 -0.46806353 -0.010164038 -0.028885817 -0.85120785 -0.20318913 -0.13370287 0.10403595 0.396826 -0.017397618 0.1756552 0.3435743 0.21178749 -0.4059796 -0.11135263 -0.15448679 -0.08848366 -0.121953525 -0.055077627 0.13698636 0.37890097 0.49725974 0.38642237 0.29843393 0.50989217 0.24308613 -0.20301755 -0.035015855 -0.13479823 -0.07360872 -0.35326928 -0.0028272867 0.1995305 0.13212864 0.37424612 0.31095996 0.57452697 0.3855018 -0.17167474 0.38783187 -0.561318 0.65568274 -0.27341592 -0.0466483 -0.4867243 -0.068572685 0.046814788 0.4589826 -0.36267784 0.4792807
85352 0.035677806 -0.44313174 0.0919813 -0.18627995 -0.61563766 0.14402716 0.2199749 -0.7217038 0.5154351 0.19381234 0.21560852 0.4638821 -0.03782542 -0.526045 -0.276387 -0.0327531 -0.10835329 -0.084900625 -0.2402712 -0.4061787 -0.57640237 -0.05752444 -0.13608703 0.15502736 -0.052493248 0.43101457 0.5172486 0.09788398 -0.19998026 -0.04245525 0.0010436826 0.2209862 -0.056330953 -0.59184134 -0.7230091 0.29082027 -0.21390915 -0.41602072 -0.09893609 -0.23764044 0.66751724 0.12115986 -0.20696174 0.014759279 0.00018899307 0.67605096 -0.14032273 0.5599003 -0.120624416 0.07622573 -0.15287636 0.24115276 0.8834309 -0.12194097 0.15230519 0.071458094 0.07018707 0.55347013 -0.09735308 -0.8382329 0.23870131 0.2513324 -0.59444594 -0.056437775 -0.52419513 -0.16906619 0.038014803 0.062489823 -0.021472642 -0.11104889 0.09115088 0.20796686 -0.14865309 -0.25605538 -0.43800429 0.2823498 0.60166496 -0.32335252 0.42828506 -0.48103768 0.07899177 0.08491286 -0.75596213 0.51854646 0.011610337 0.54714483 0.21011488 -0.23426288 0.15991805 0.6330028 0.09745878 0.11146823 0.48827562 0.51813465 -0.02257402 0.49514735 -0.19390629 0.19800483 0.10351614 0.5950819 -0.087642655 -0.40280667 0.78591 -0.011880368 -0.3485615 -0.058048345 0.5054372 0.59105456 -0.28684568 -0.10577564 -0.16354845 0.047671225 0.080826074 0.13438164 0.27885392 -0.40006295 -0.10825503 0.5165264 0.24130833 0.5343542 0.18173814 -0.03920134 -0.1047579 0.031966634 0.45333818 -0.16510305 -0.3002504 -0.20909165
34257 -0.43958122 0.33711794 0.38690722 -0.12537979 -0.8546843 0.4512515 -0.25211176 -0.7573958 0.14978518 -0.4351755 0.5534016 -0.2548173 0.23644891 -0.2847886 -0.34037077 -0.22219862 -0.15357925 0.20218231 -0.5039502 -0.74079126 -0.8062212 -0.48606184 0.3201609 -0.032973435 -0.35781667 -0.27668855 1.1296164 0.6135028 -0.5509548 -0.2689378 -0.20103803 -0.05294729 -0.61120194 -0.60885864 -0.09504197 0.15838736 -0.033622496 0.07844408 -0.04604845 -0.45044377 -0.13678922 -0.58436096 0.75830764 0.13007674 -0.2585317 0.39462122 0.4321716 -0.060212 -0.10476558 -0.61677283 -0.7162974 -0.08680371 -0.45638263 0.19674313 0.5310545 0.3948821 0.07326954 -0.10922602 0.45321515 -0.70115024 0.93017715 -0.016008891 -0.22534284 -0.20630118 -0.4933591 -0.5275892 0.43140903 0.44589898 -0.37885115 0.046634566 0.09741926 0.5999964 0.22663051 0.31376 0.068997495 0.47298282 0.29300508 -0.16132803 0.29728886 -0.31985846 0.1815923 -0.48012125 -0.049323488 -0.34847993 0.342182 0.119804315 -0.25780886 -0.41133103 0.09320183 0.27314484 -0.076374754 -0.37976187 -0.48478645 -0.010310213 0.08207362 0.94167864 -0.023376867 0.81335944 0.2428353 0.6919066 -0.35925964 -0.011293512 0.3415161 0.47576383 0.20735358 0.3558027 -0.45242286 0.44602603 0.023917468 0.25478354 -0.22073025 0.08460011 0.7062213 0.111793816 0.23465666 -0.0549147 0.24657586 0.49647817 -0.47019833 0.4401844 -0.42120084 -0.15469038 -0.16989365 0.701323 -0.12628704 -0.06540679 -0.8014849 0.2437841
35797 -0.06631076 -0.42042854 0.37351972 -0.08412266 -0.63267165 0.012754023 -0.11284302 -0.6391201 0.0077198427 -0.010377376 -0.06302949 0.19828731 0.3998665 -0.20156018 0.043317452 -0.52010846 0.054509312 -0.33221084 -0.16458301 -0.39937326 0.011291568 -0.929684 0.33646956 0.67700744 0.2938345 0.19218226 0.47516403 -0.11639173 -0.32704574 0.07211093 -0.6891006 -0.06215998 0.70071983 -0.23099712 -0.35529688 0.02436671 -0.21617538 -0.24941862 -0.2693645 -0.4808565 0.39472365 -0.5816788 -0.11189613 0.32787612 0.4186257 0.56292266 0.23294055 0.55688494 0.18700875 -0.033988833 -0.17338023 -0.4550803 0.5686717 0.33404258 -0.10878044 -0.25254986 -0.10062781 -0.5157772 -0.5316786 -0.7778123 0.5922961 0.45582494 0.19367678 0.27770382 -0.04647675 -0.031737097 0.3639899 -0.19612642 -0.34697974 0.09462573 0.51115984 -0.23835437 -0.29132298 -0.3759069 -0.053921327 0.3540357 0.5966617 -0.25172415 -0.08833603 0.19412903 0.33266595 0.36328122 -0.59231186 0.42846054 0.26024625 -0.36721054 0.33039153 0.024424708 -0.08842011 0.3741012 0.2074832 -0.19498123 0.32507405 -0.5456853 0.464914 0.6683899 0.06553859 0.507427 0.62304497 -0.15319419 0.019181235 -0.8256181 0.38388053 -0.1808897 -0.18607122 0.63820815 0.6502092 0.20158485 -0.06049621 0.11806156 -0.28332078 0.15594132 0.1498527 0.283057 0.49195543 -0.25628152 -0.5634579 0.15295696 -0.2090887 0.93806225 -0.09384374 -0.30880815 0.116623156 -0.020183356 -0.0941782 0.36976847 -0.47544655 0.23454745
54129 0.18992898 0.120454736 -0.048704427 0.0945196 -0.16559164 0.5419879 -0.41110703 -0.8627458 0.08580831 0.12910733 0.3300632 0.40368798 -0.1874209 -0.101581134 0.025775352 0.3373737 -0.025433986 -0.58932143 -0.2033314 -0.33519447 -0.79316217 -0.1515556 0.35392946 0.38106915 -0.10267965 0.46946475 0.7362624 0.5380206 0.31302962 -0.28293076 0.14872895 0.25129396 0.6737722 -0.7079359 -0.25162968 -0.38625953 0.3985452 -0.34189177 -0.07103199 -0.274913 0.19087288 -0.44956502 -0.13477774 -0.29970786 0.19113879 0.79885465 0.6698662 0.045325454 -0.19188568 0.032079797 -0.35147852 0.2089895 0.08844827 -0.55328643 0.57999873 0.5381354 0.16552334 0.64136505 -0.47617498 -0.5604411 0.35829696 0.2837309 0.102825716 0.1223134 0.051264387 -0.38849816 -0.5760851 0.100711696 0.38013065 -0.2257472 0.19448195 0.30969158 -0.45115286 -0.42338082 -0.23436639 0.4760838 -0.16245763 -0.16020553 0.13773933 0.05529262 0.31528118 0.26932037 -0.98716164 0.3125737 0.20748627 0.09376341 0.35089672 -0.24310856 -0.25679207 0.34480923 0.2723258 0.28145325 0.18013506 0.4606473 -0.08370999 -0.008331749 0.18103723 -0.12599987 -0.56414187 0.068372026 -0.13364379 -0.0081373155 0.9811609 0.4737098 -0.23379818 0.14548334 0.06989571 0.3856471 -0.2655722 -0.15559916 -0.28146753 -0.01361347 0.53541726 0.5776125 0.20626368 -0.19906141 0.11440606 0.6297299 -0.18529913 0.6756713 0.1639197 -0.5324876 0.0092527345 -0.49363473 0.121818855 -0.63343143 -0.50107646 -0.2125834
5348 0.06607038 -0.91452277 0.050696902 0.39745188 -0.46121672 -0.69588476 -0.34061298 -0.45136365 -0.021687083 -0.44752163 -0.04692157 -0.5419565 0.5904321 -0.6982163 -0.45834902 -0.28363177 0.43355015 -0.15723954 -0.47295475 -0.26044425 -0.19962218 -0.49299932 0.057995114 0.35625884 -0.02727383 -0.7399355 0.14549999 0.79631686 -0.0076938313 -0.34910995 -0.7835732 -0.055898573 0.19650877 -0.6894831 -0.085206605 0.16530618 0.32941258 -0.15061933 0.027490081 -0.15758565 0.32798555 -0.009393715 0.48347515 0.5310142 0.37209222 0.03616824 0.2491445 0.10281528 -0.3559474 -0.1471493 -0.63704336 -0.58428216 -0.23490691 0.023878796 -0.49971303 0.149533 0.12883887 -0.15788107 -0.46281734 -0.8934077 0.5679551 0.17870295 -0.21119949 -0.3859588 0.405406 0.080047704 0.023926534 0.24056193 0.037012443 -0.4464167 0.91127056 -0.6550329 -0.10415576 0.0304488 0.28025538 0.46198705 0.45702812 0.24925032 -0.13081928 0.110748686 0.33610642 -0.17558289 -0.0033542546 -0.2448606 0.7160599 -0.15838605 0.3516083 0.15594858 0.22013493 0.5155537 -0.37190992 -0.10697512 0.3740586 -0.2890075 -0.039192785 0.2888078 -0.7177027 0.4196784 0.42853937 -0.14940354 -0.32096696 -0.58944714 0.24973553 -0.19876519 -0.066050746 0.6071596 0.04360626 0.30270565 0.0036524402 0.48842406 -0.9262733 -0.22571053 0.4248174 0.12294478 0.25233528 0.21788146 -0.41879088 0.0951293 -0.15059356 0.8517718 -0.71911806 -0.6315826 0.11265311 -0.744157 0.08848385 0.058005363 -0.14899115 0.049383756
205196 0.82043666 -0.09205214 0.39141646 0.7523689 -0.24781369 0.33889338 -0.011068779 -0.24627027 0.3599903 0.309993 0.13849375 0.24413826 0.40176308 -0.4456136 0.66205275 -1.0859398 0.07825178 0.186773 -0.7609706 -0.16757755 -0.7473987 -0.8251116 0.7027548 -0.00038136728 0.23560871 -0.10230857 0.30764857 0.032352645 -0.32534942 -0.3684313 -0.09560446 0.7140067 -0.3721201 -0.33488414 -0.2488151 0.13707545 -0.39245167 -0.1751101 0.39348656 0.012346974 0.23233086 -0.6429253 0.23305933 0.7003615 0.30210713 0.989633 0.083964854 0.15276863 0.12263557 0.0030932855 -0.53050673 -0.43458647 0.015148562 0.2698912 -0.25154915 -0.20308468 -0.05002775 -0.3536259 -0.018713234 -0.10925104 0.5573452 0.6735772 0.0063310517 -0.4281511 0.28287518 -0.0062652696 0.47491777 0.32629412 -0.5130647 0.24971014 1.049361 0.60357714 -0.040717576 0.1669651 -0.03555125 0.0001887617 -0.5157791 -0.3204336 0.056089025 0.081642434 0.4048213 -0.10546477 -0.16729587 0.9372863 -0.40554425 0.57630056 0.47075936 0.35863188 0.029937858 0.49150053 -0.38570765 -0.47517002 -0.374216 0.29813355 -0.10301457 0.4200951 -0.49766207 0.33501673 0.21220407 0.364272 -0.26945144 0.18369602 0.6062301 -0.10714117 -0.57886916 0.49359974 0.44413272 0.7830894 -0.28408632 -0.04278913 0.3343505 -0.08351813 0.5664192 1.0163407 0.5255229 -0.19020998 -0.39439577 0.66936284 -1.3258162 0.9379074 -0.7096158 -1.4037316 0.047418717 0.1175127 -0.4651413 0.16758414 -0.81195 -0.29325512
10177 -0.10877984 -0.20598352 -0.36039868 0.16099696 -0.3309006 0.16116789 -0.21413097 -0.48017463 -0.093345076 -0.3105535 0.18047681 0.8071443 -0.6389717 0.10335383 -0.4067331 -0.018139835 0.13251142 -0.15853675 -0.555483 -0.39430118 -0.2876979 0.036194947 0.11329884 0.31503245 -0.5314235 -0.068384014 0.8883834 0.7267294 0.056486513 -0.2710104 -0.29747906 0.18084903 -0.5566016 -0.154275 0.20204133 0.30748802 0.4313141 -0.702094 -0.081056535 -0.12119692 0.043546904 0.48457012 0.5684387 -0.27407107 -0.21900341 -0.16929747 0.33717334 0.12643501 -0.5187862 -0.24074316 -0.24743491 -0.08096639 0.023043778 -0.58809227 0.10970731 0.8978551 0.71379393 0.41218147 0.243724 -0.70583206 0.60370106 0.024878139 0.061541487 -0.15259758 0.1479837 -0.4145998 0.016960464 0.51804894 0.55273277 0.13939188 0.20505573 -0.043816205 -0.09423696 -0.011329451 -0.28412896 0.37306258 0.13943243 -0.6840045 0.70669293 -0.45644102 -0.090360716 -0.10803107 0.114065304 -0.29215053 0.30467117 0.09510876 -0.22328722 -0.428891 -0.21607155 -0.05831091 -0.73517185 -0.32724094 -0.0712629 -0.20102094 -0.30416065 0.07126254 -0.09942645 -0.07117041 0.54984444 0.035776038 -0.68037516 -0.12830772 0.30035335 -0.12588322 0.16281497 0.473903 0.40203384 0.43328053 -0.15333919 -0.032395326 -0.26064613 0.4739168 -0.20525396 -0.13646464 0.94231385 -0.14289801 -0.027934145 -0.093425825 -0.11577539 0.6640595 -0.18628299 -0.6679616 -0.25088444 -0.2931956 0.22587584 0.15418644 -0.38170362 0.009460615
65074 -0.07356987 -0.2908854 0.5327141 1.0224311 -0.67662877 0.6083008 -0.62855726 -0.32533786 -0.08553737 -0.33654496 -0.12887941 -0.03489033 0.2623084 -0.61311436 -0.5353821 -0.3999181 -0.41840854 0.12378814 -0.6586946 0.16636214 -0.07435138 -0.54416287 0.06886371 0.03559669 -0.052447386 0.18294416 0.7701665 0.88406813 -0.30101606 -0.27764085 0.56484413 0.19986634 -0.27412143 -0.46122554 -0.18880247 0.15209033 0.7172944 -0.008392455 -0.04829772 -0.16779737 0.16793533 -0.28442812 0.1840369 0.4040788 0.044646885 0.49744955 0.61827874 -0.052926186 0.23190966 0.23410183 -0.16588584 0.22982647 0.32061714 -0.63561493 0.8465054 0.3503855 0.6208524 0.5453433 -0.12108013 -1.20707 0.19898716 0.58069557 -0.47708663 -0.20928648 0.2216851 -0.8060897 -0.3458511 0.2703873 -0.066860445 -0.48436585 0.5552791 -0.05074146 0.27101004 -0.15747754 0.26890564 0.039835166 -0.2731712 -0.229039 0.30057642 0.12223945 -0.20162407 0.021456059 0.23664235 -0.21490023 0.08663455 0.01949281 0.010160508 -0.48798624 0.48956686 -0.23521076 0.009107277 0.023577798 0.42688873 -0.12130156 0.27371332 0.10085211 -0.7018578 0.39030063 0.24928273 0.42564368 -0.3304121 -0.17042157 0.5739826 -0.41130513 -0.36880836 0.56444293 -0.37303218 -0.14624952 0.4284253 0.11254259 -0.29248273 0.16410491 0.56446517 0.44375637 0.24527627 -0.46235055 0.41335544 0.18988267 -0.41844824 0.3007714 0.062441684 -0.13073027 0.57077414 -0.85029036 0.03083081 0.06862723 -0.5273201 -0.26590055
35061 0.3806228 -0.008494112 0.45677963 0.17561005 -0.20881744 0.048414268 0.10417431 -0.5271762 0.3562181 0.5937081 -0.13677521 0.57821846 -0.14198971 0.12349097 0.32175872 -0.2745063 -0.04869167 0.35428342 -0.23974891 -0.7100893 -0.3425556 -0.028111164 0.050079912 0.028616488 -0.12175484 0.17186937 0.48591414 0.02348094 -0.26573995 0.27604535 0.20957938 -0.30659744 0.34510452 -0.55938077 -0.48425028 -0.07202199 -0.24737996 -0.3556687 -0.20547067 -0.08480847 -0.07921796 -0.3840304 0.37302884 -0.032851085 -0.1133722 0.22537793 0.09841811 -0.03896228 -0.10487456 0.4188562 -0.051294006 0.32656938 0.58566666 0.026835265 0.43694293 0.005949607 0.40415886 -0.17363364 0.05527624 -0.46204296 0.38387814 -0.2771258 -0.51348364 -0.102544844 -0.27621335 0.08153359 -0.3017402 0.25701874 0.0614852 -0.015577353 0.5100602 0.053158265 -0.32872263 -0.1821704 -0.22588392 0.63356525 0.46370518 0.116440944 -0.07656607 -0.4759236 -0.11443207 0.10355548 -0.44506702 0.009372214 -0.50325185 0.1972701 0.6647842 0.1352891 0.06911406 0.62559605 0.17662723 -0.3392084 0.20582733 0.52143705 0.02970615 0.36143306 -0.2717754 0.26308247 0.074227855 0.24959181 -0.031744573 -0.035297506 1.0921764 -0.31434253 -0.36780754 0.30100337 -0.13851635 0.630073 -0.3558452 -0.16869561 0.08003626 -0.31198376 -0.14917086 0.658019 0.0016301931 -0.36917442 -0.024390377 0.59698915 -0.2573439 0.82061374 -0.0031809462 -0.32019597 0.10567365 -0.28203028 0.32255465 -0.27603725 -0.20617467 -5.488081e-05
210871 0.06921723 -0.07904352 0.06540859 0.121171564 -0.27271807 0.52008444 -0.17229931 -0.05047181 0.06105598 0.15929292 -0.056504127 0.4863007 -0.05578134 -0.19740905 0.16502936 0.017115107 -0.34705162 0.36382124 -0.3728523 -0.4225128 -0.6508299 0.14396848 0.03650387 0.49671176 -0.24648432 -0.02078962 0.39381585 -0.13438973 -0.26548615 0.37790373 0.23652607 -0.24669619 0.22437704 -0.5460581 -0.40104756 -0.17491622 0.056096833 -0.32036826 -0.5123085 -0.55105054 0.22152817 -0.70797145 0.26725113 -0.04184388 -0.39188927 0.3435756 -0.10743961 0.08642773 0.15838774 0.19608085 -0.29755703 0.52337235 0.32839185 -0.003083563 0.42603734 0.19951811 0.06996722 0.24927767 0.21558999 -0.22218344 0.39491215 -0.5519766 -0.34643495 0.03708431 -0.37204438 -0.19735159 -0.16924295 0.108117506 0.00036950546 -0.39106968 0.24067739 0.54111767 -0.37405702 -0.1125003 -0.6102945 0.56265354 0.04914143 0.09623169 0.17731999 -0.1482913 0.08268578 0.16844094 -0.5033494 -0.0661275 -0.130805 -0.1945108 0.25216767 -0.036714472 -0.07049171 0.40058845 0.49636453 -0.3459771 0.22216754 0.634184 0.0068443837 0.46393004 -0.19971849 0.045439787 0.27349418 0.1795172 0.14986384 0.004657402 0.9699137 0.23540187 -0.43819025 0.24602494 -0.27273998 -0.10629672 -0.1882971 0.318094 0.28825578 -0.10861181 0.3480174 0.87817717 0.52746075 -0.3815073 -0.3205161 0.47715828 -0.512288 0.7376011 0.24082614 -0.22317201 -0.29187283 -0.15566662 0.12239168 -0.6851933 -0.51774204 0.10897835
89547 -0.07964416 -0.19057718 -0.042933285 -0.4499765 -0.3004286 0.010650666 -0.16250882 -0.54677016 -0.14943288 -0.0816911 0.3251159 0.5039922 0.17825398 -0.13644263 -0.10118285 0.0333303 -0.38611606 0.74404806 -0.21999687 -0.7045863 0.010656909 0.32740295 -0.46340513 0.5846598 -0.21773188 -0.08330728 0.756269 -0.04726061 -0.66687024 0.31005687 -0.3155287 -0.07859697 -0.28816798 -0.5273043 -0.1562022 0.20618914 0.045356542 -0.2584737 -0.3411018 0.036712594 -0.30489177 -0.088594325 0.94708335 0.29353434 -0.18072395 -0.20428279 0.33319768 0.500331 -0.34427732 0.38587597 -0.085327074 0.3655166 -0.08483316 -0.4089952 0.1529882 0.16039062 0.31840307 0.38977775 0.35654747 -0.8717518 0.13297753 0.014209386 -0.67631555 0.102740705 0.5137784 -0.5004329 -0.20858236 0.34979916 0.14264707 0.19275841 0.2118392 -0.25413465 -0.025334459 0.14344977 -0.6387159 0.88094246 0.13143632 -0.43583158 0.4998603 -0.2677258 0.34516618 -0.52789795 -0.24887855 -0.531211 0.32091773 0.2853292 -0.1132014 -0.85924685 -0.08607766 0.36993715 -0.07950669 -0.7696207 0.61637586 -0.050818533 -0.4285892 0.4094417 -0.23689523 0.026580475 0.5301443 0.032600444 -0.67223245 -0.097296834 0.4898566 -0.07365156 0.010788264 0.21789753 0.3889451 0.30270967 0.13996613 -0.34971267 -0.24799465 0.25644815 0.111907825 0.20839886 0.53842354 -0.20203786 -0.16048275 -0.045212284 -0.537082 0.53117466 0.083480336 -0.9216088 0.16196258 -0.5250863 0.21107341 -0.21827897 0.22020023 -0.38105553
6910 -0.13195315 0.44258568 0.35321593 1.1039987 -0.11672862 0.2032463 -0.5044165 -0.8212952 0.09093699 0.26971996 -0.08786443 0.8798228 0.13155101 -0.2410254 0.013607491 -0.48461884 0.23417047 0.29763675 -0.26259425 -0.07137982 0.12151403 -0.7878341 -0.049490448 0.35789242 0.111183204 0.116834216 0.3428795 -0.15085953 0.44202513 0.20921694 -0.05192221 0.31060374 0.23651654 -1.032025 0.36701038 0.15197568 0.3549685 -0.08074198 -0.3188634 -0.86253685 0.29616705 0.1087527 0.4075916 0.5617373 -0.015498234 0.429922 0.5282053 0.4945314 0.111683615 -0.042648412 -0.5373836 -0.52573425 -0.43041986 0.13240115 -0.28041118 0.17908148 0.2502934 -0.51578873 -0.06336394 -0.742978 0.12118658 0.3880653 0.0742138 0.3615747 0.29538321 -0.42427716 -0.11648877 0.542335 -0.37044647 -0.20453861 0.6172552 -0.22592151 0.14115278 -0.3527912 0.18979225 0.47245884 -0.44101024 -0.66335976 -0.060425892 -0.31479266 0.45669076 0.238584 -0.33811858 0.17063622 0.025353255 0.14606282 0.38032255 0.12871501 -0.73358005 0.929749 0.14879219 -0.24768488 0.5258388 -0.40154317 0.07135943 0.21084994 0.037398484 0.42239797 0.38418114 -0.02008603 -0.2939235 -0.70863515 -0.01459869 -0.007775287 0.15601248 0.4948057 0.2941381 -0.027060688 -0.14943716 0.056542814 -0.5275321 0.6255885 0.20452079 0.5570765 -0.028505499 -0.00062077347 -0.52769125 0.35156277 -0.26621953 0.24034053 -1.1600912 -0.38058156 -0.4427938 -0.31977135 -0.2464783 -0.2854063 -0.65984035 -0.58241266
1956 0.1987147 0.36222693 -0.06754051 0.22122844 0.10001333 -0.35573214 -0.15836948 -0.31809315 0.4426923 0.27145705 0.3769769 0.9543629 0.28150284 -0.36381269 0.05103712 -0.47197706 0.022927392 0.7230518 -0.046749506 -0.20349447 -0.20989302 0.11319578 -0.28991967 0.24274266 0.12388252 0.24572043 0.76137775 0.14761272 0.20051639 0.0955544 0.18225107 0.16302942 -0.20788737 -0.5320267 0.01565788 -0.37550217 0.032168075 -0.37358382 -0.4640898 -0.23766087 0.055480126 -0.105512805 -0.40395436 -0.049456295 0.18592493 0.70542735 -0.2190845 -0.15463139 -0.5400192 0.10659028 -0.09432607 -0.08370907 0.5217384 0.031834863 0.11134361 -0.20146784 0.06995328 -0.30501357 -0.23157421 -0.5583549 0.5928566 -0.23427059 -0.08756689 -0.90443754 0.09901466 -0.83375424 -0.10966499 0.06876398 -0.50618684 -0.08000778 0.7377376 0.19814008 -0.6737099 -0.19285874 -0.3806863 0.1540942 0.49198794 -0.13849822 0.67978126 0.042091478 -0.08129853 0.3811839 -0.36703536 0.09953927 -0.21178411 0.18032092 0.060860895 0.13934247 0.28826663 0.55607635 -0.08829143 0.06001809 -0.0779486 0.83550274 0.21767402 0.35713077 -0.5574771 -0.11880199 0.20918673 0.6473191 0.06879546 0.097533904 0.6715 0.38110298 -0.031148879 0.13324243 0.15073124 0.15660945 -0.3235795 0.09051657 0.18697892 -0.5500587 0.25773728 -0.010585793 0.8186918 0.20826197 0.1214235 0.69270146 0.3155921 0.6148715 -0.03097668 -0.6852115 0.96181375 -0.39206034 0.02969347 -0.09384753 -0.18773107 -0.47333336
31489 -0.469636 0.24834561 0.5435675 0.7383595 -0.51459694 -0.19423035 -0.26175782 -0.89671224 -0.08862365 -0.2793517 0.038456067 0.5248794 0.07216836 -0.7840729 -0.3271472 -0.105263114 0.0024838203 0.015599967 -0.3362995 -0.09770951 -0.053040806 -0.25957066 -0.2667564 0.36413974 -0.39258218 0.33155334 0.40984553 -0.40625212 0.37814838 -0.23328333 -0.16597722 0.14950697 0.053214084 -0.48892972 -0.0139651075 0.10065677 0.09626403 -0.09667688 -0.5946733 -0.791509 0.88645536 0.15012658 0.4818408 -0.21358591 0.509646 0.49055472 0.29845527 -0.115059845 0.123351984 0.03065576 0.035373524 -0.49866602 -0.54368263 0.34151515 0.016313631 0.3662394 0.6909054 -0.13331246 -0.081391215 -0.78171074 0.06976034 0.78692645 -0.005240355 -0.1123767 0.15661746 -0.25689915 -0.25270894 0.739954 -0.48499027 -0.36785042 0.9890458 -0.46196958 0.27291363 0.15852925 -0.10461958 0.45898375 -0.14786698 -0.38063908 -0.12650777 -0.60432595 0.3134738 0.14817975 -0.09774474 -0.59534097 0.2970382 0.33409938 0.5375731 0.10484465 -0.23707187 0.80865395 -0.041559212 0.024519484 0.093952104 -0.09985063 0.08369009 0.5010976 -0.10060045 0.32782567 0.26262426 0.4194558 -0.24947475 -0.80624646 0.12489113 0.6044057 0.34811476 0.41114616 0.66139024 -0.27867597 -0.21349722 -0.26988712 -0.69763863 0.45809257 -0.012822514 0.19112864 0.27634904 0.5054994 -0.025656518 0.07910339 -0.45213032 -0.09031609 -1.2771579 -0.5568807 -0.290771 -0.36866054 -0.53230083 -0.40780354 -0.6624078 0.05828275
6913 -0.02122163 -0.15889893 0.04274696 0.94329256 0.2200342 0.34472466 -0.37782758 -0.25296965 0.11217667 -0.16523781 -0.34037825 0.7017618 0.022966694 -0.2312452 -0.078352615 -0.58751196 0.075956605 -0.3286216 -0.5419612 0.154163 -0.25016704 -0.8760254 0.30139875 0.25049272 0.87861836 0.5827501 0.4231828 -0.2763701 -0.03822105 0.121193156 -0.2360322 0.3472644 0.27992815 -0.70489526 -0.12682915 0.10105213 0.104498796 -0.5206559 0.11006336 -1.0327272 0.72377264 -0.23331879 0.09791929 0.42104802 0.5177732 0.38688177 -0.12912351 0.105521016 -0.20263064 0.19411176 -0.36823845 -0.23600274 -0.016207438 -0.18497266 -0.34042615 0.20715655 -0.14699522 -0.23195861 -0.09554894 -0.46442702 0.45502242 0.4893364 -0.20002817 0.18921074 0.61921483 0.03716265 0.40612793 0.04884663 -0.095148735 -0.42633936 0.6513263 0.05718169 0.13864297 -0.21294428 -0.1384259 0.2963074 -0.7180975 -0.20530225 -0.0735165 -0.26755717 0.44638768 0.2742778 -0.1290997 0.19938217 0.45662177 0.20190844 0.24712151 0.025301976 -0.22253373 0.2570051 -0.08824083 -0.2675648 0.4691989 -0.0052885325 0.12961273 0.640575 -0.4777681 0.37133858 0.18388602 -0.2488261 -0.2921811 -0.4859472 0.29214898 -0.38921338 -0.4465119 0.48765057 0.36627975 0.40520874 -0.4394374 -0.07995537 -0.25347704 0.5480551 0.13734229 0.211543 0.48023015 -0.45819634 -0.8128941 -0.08962673 -0.36625436 0.3320197 -0.76785886 -0.44178486 -0.7087847 0.32821226 -0.57688034 0.19563615 -0.0910991 -0.7117261
3218 -0.17889132 -0.030079324 0.47652674 0.23161814 -0.22025464 0.27192828 0.10341072 -0.76793504 -0.0075442875 -0.4835339 0.18862127 -0.48268268 -0.31106552 -0.7095464 -0.4334015 0.31014073 0.021785604 -0.26303524 0.034325477 -0.17425755 -0.0037254433 -0.194957 0.11356188 0.73049057 -0.15988953 -0.7590438 0.4818281 0.36564013 -0.68300647 -0.54598933 0.2589262 -0.22386119 -0.028698005 0.10901428 0.214321 0.0009275899 0.21923412 -0.29881886 0.16988145 -0.27056578 0.98265535 -0.67695695 0.124956094 0.20930526 -0.18923943 -0.28837034 0.5030286 0.8168361 -0.43441218 -0.15722226 -0.14005221 0.22972727 -0.18757668 -0.5277011 0.18701969 0.14043275 0.47082916 -0.26329428 0.053296015 -0.44995025 0.31256592 -0.23827355 0.19322106 -0.8435056 0.038359214 -0.49364486 0.44940364 0.46596897 -0.3787981 0.3802848 0.5106531 0.013398398 -0.041897755 -0.667093 -0.3059436 0.431012 0.33648413 0.37177053 0.31245223 -0.11923672 0.07666283 0.48933825 -0.121301204 0.06855826 0.38422787 -0.12612027 0.2189671 0.19311552 -0.27369097 0.27471292 0.023772258 -0.26336196 0.10089897 0.3963112 -0.30025813 0.08253095 -0.009201844 -0.15227224 0.77580094 0.39330268 -0.4208797 -0.52896446 0.36618266 0.0070405877 0.38940945 0.6235409 -0.0030084322 0.71440244 -0.16026549 -0.5045313 0.14437716 0.039239172 1.0784328 -0.13923933 0.88753545 -0.098893724 -0.11158278 0.18158275 0.040660076 0.10050068 -0.66005725 -0.4643431 -0.034384582 -0.41906282 -0.95976716 0.28411853 -0.028970106 0.29965317
153063 -0.38609037 -0.018141633 -0.02880975 0.89523226 -0.2011757 -0.049972795 0.115858525 -0.33265033 -0.07619904 -0.53828686 0.46646884 0.07684378 -0.19633782 -0.38867378 -0.36376658 -0.10082176 -0.14068733 -0.0951075 -0.44019327 0.16948095 -0.4538033 -0.22506545 -0.029197332 0.17972083 0.43056285 -0.016168311 0.82392114 0.34887514 -0.03115065 -0.7760537 0.3673389 0.3808222 0.49095637 0.06642456 0.016205676 -0.20470014 0.7968138 -0.5725547 0.18130392 -0.38029146 0.49034026 -0.30634788 -0.2540366 0.08946612 -0.04369987 0.70964575 0.81324863 -0.013244409 -0.34951222 -0.5597619 -0.5477109 -0.2783884 -0.014925761 -0.5113126 -0.0810803 0.28179404 0.22137462 -0.71434456 0.13966966 -0.3416442 0.9106835 0.3428901 0.19445895 0.11721752 0.41659638 -0.45855743 0.23283589 0.20278971 -0.17205049 -0.06848721 1.1616671 0.69912106 -0.93224484 -0.004108308 -0.14715394 -0.20833513 0.040743403 0.38332078 -0.046183284 -0.6830112 0.3616643 0.039937515 0.22060375 -0.37344572 0.73835814 -0.114361756 0.013910168 -0.044158075 0.49810472 0.05615529 -0.016375761 -0.7819203 0.0058225794 -0.3041952 0.40163937 -0.17994262 -0.56498796 0.1741516 0.075393066 0.7921236 -0.13552739 -0.7353583 0.7068293 0.06650266 -0.49296635 1.3584594 -0.37781286 -0.2799679 -0.048832607 -0.4536865 -0.11276851 0.7549114 -0.011461334 -0.28386638 0.11503371 -0.11484102 0.1608725 -0.30209404 -0.9987169 -0.11394912 -0.62744284 -1.1001595 -0.61889535 0.043624215 0.22207855 0.046671517 0.005212263 0.04815537
117 -0.4251795 -0.24571659 0.25123894 0.030990452 0.02526753 0.39706618 -0.29659054 -0.4474922 -0.075820915 -0.28136307 0.18572521 0.2533133 0.23048843 -0.6349803 0.052654568 -0.049705096 -0.81647813 0.1427661 0.3796472 -0.23801918 -0.29864994 0.34390038 -0.64639306 0.5041503 0.44220456 0.031579614 0.5919855 0.27388257 -0.278611 0.25877637 -0.14574502 -0.055122633 0.076989315 -0.40905803 -0.18576048 0.11043658 0.19557175 -0.18928538 -0.6130415 -0.07742052 0.6397305 0.10023903 0.40695727 -0.026796747 -0.577334 -0.24244641 0.59904045 0.13259938 0.19637792 0.726098 -0.40869796 -0.30465192 -0.5407317 -0.59434825 0.024457434 0.012622121 0.2699279 0.044614743 -0.5663934 -0.97193336 0.36932924 -0.0382785 -0.88582903 0.32424876 0.6494607 -0.32061723 -0.0054095667 0.3019569 0.26644653 -0.8554626 -0.15063575 -0.46558073 -0.02216028 -0.023624822 -0.41503742 0.40080658 -0.17338036 -0.049001537 0.2954124 0.02673121 -0.28286535 -0.27928385 -0.29712752 -1.1305903 -0.1646371 -0.27801827 0.64334416 -0.38534787 -0.13898337 0.47184548 -0.065042734 0.07293857 0.13461311 -0.17221846 -0.07325132 -0.07504491 -0.6287233 -0.45533317 0.37666932 0.104766876 -0.491437 -0.54498184 0.4436225 0.03389663 -0.44299617 0.42418346 -0.12845892 0.23369421 0.4183111 0.06074594 -0.091434784 0.062202528 0.3102229 0.12980142 0.49554715 0.29893488 -0.18196616 0.033137936 -0.4250495 0.16796102 -0.12664787 0.0035175006 -0.278526 -0.64415497 -0.16621901 -0.41922554 -0.16450588 -0.24200715
17476 -0.20154577 0.2664046 0.39623663 -0.2310508 0.114885695 0.5963603 -0.28673822 -0.33180562 0.05095221 -0.22590135 -0.07030694 0.21921161 -0.10969558 -0.3572906 0.243204 -0.18635494 -0.41962582 0.20937057 0.2968442 -0.10755168 -0.61617035 0.28283677 -0.25375855 0.87754047 -0.063353814 0.57497144 0.37270197 0.4843124 0.05248501 0.22498763 -0.029527195 0.1097905 -0.02737504 0.11168779 -0.63534224 -0.26217237 0.62001073 -0.36428055 -0.5667635 0.13717954 0.7538507 -0.2851313 0.56948996 0.026935898 -0.31635207 -0.1568012 0.52668464 -0.19441162 -0.043139603 0.33660144 -0.6027185 -0.051537704 0.19642708 -0.4693351 -0.04023584 0.29271054 0.4790443 0.3825882 -0.29583025 -0.5452929 0.9253282 0.100250095 -0.6403031 0.36828095 0.16178828 -0.00468587 0.14965062 0.100855276 0.4869593 -0.5902099 -0.18089353 -0.24901178 -0.113843314 -0.17587334 -0.6636978 -0.042025216 0.19100125 -0.32612273 0.43619302 -0.36093217 -0.10266757 0.08983197 -0.31129536 -0.62576646 -0.10685655 -0.17617826 0.6731304 -0.18390492 0.4327649 0.5119878 0.2447492 -0.016701885 0.1726754 -0.18073417 -0.034859028 -0.19736661 -0.4772679 -0.41916627 0.13254365 0.32165426 -0.323074 -0.5436369 0.30637342 -0.16677883 -0.49746957 0.44801486 -0.7206067 0.1403557 0.2556306 -0.073453344 0.19648679 0.17143238 0.55459344 0.4815725 0.28085202 0.11580897 -0.016950017 0.274037 -0.35440856 0.8680981 0.018343935 0.35406408 -0.32558307 -0.32445002 -0.21381491 -0.16590008 -0.27804044 -0.04668207
54131 0.12905595 0.0026482793 0.3920798 0.29810646 -0.5260401 0.31233472 -0.25718483 -0.35317212 0.18236466 0.375855 0.19234417 0.6765373 -0.1255182 -0.060032867 0.045741655 -0.17340468 -0.37846377 -0.12531745 -0.32542065 -0.2936408 -0.461898 0.050104804 -0.20060046 -0.036816202 -0.118221566 0.41880494 0.5451581 -0.02294677 0.11438635 0.3777459 0.2658154 0.19939089 0.28863734 -0.48244843 -0.30413008 -0.12173024 0.18732612 -0.5867405 0.051292725 -0.62377214 0.16304234 -0.073637314 -0.13636614 -0.13211493 0.027200835 0.40555325 0.31267425 -0.24580196 0.3535818 -0.1499644 -0.16186677 0.45012197 0.49542177 0.032670096 0.825357 -0.43325397 0.22468825 0.25005296 -0.64243853 -0.6764489 0.53862405 0.07112831 -0.5332489 -0.06276898 -0.77260315 -0.23280175 -0.2842726 -7.011584e-05 -0.15037432 -0.6251241 0.5555255 0.36146012 0.051633686 -0.2592648 -0.39422745 0.002795945 0.46456644 -0.08067931 0.3469143 -0.45678616 0.0012493852 -0.1380379 -0.36089674 0.5566951 0.13835365 0.116386086 0.21743648 -0.4803273 0.2143162 0.18566905 0.33937275 0.121427774 -0.112009324 0.21606259 0.17133653 0.4387623 -0.26279804 -0.057988178 -0.067655124 -0.18792771 -0.185131 -0.4689522 0.9717985 0.32482445 -0.29985204 0.1005296 0.4961614 0.41286865 -0.44068947 0.20005451 -0.17267075 -0.38210773 0.7520254 0.043845557 0.46848243 -0.4419842 -0.0050797146 0.12879339 -0.25777602 0.3488376 0.26289204 -0.6146929 0.36311954 0.06274089 0.025789032 -0.24087302 -0.19836916 0.17651425
2654 0.23179248 0.58097106 0.26787472 0.12170455 -0.055060238 0.6552834 -0.0021071725 -0.63589823 0.60126996 0.021867119 -0.19979042 0.024597585 -0.11117521 -0.46495482 0.2892259 -0.3769042 -0.007479405 0.1585693 -0.17019208 0.049731754 -0.32145724 -0.24701639 -0.09813928 1.0258745 0.05786213 -0.30080858 0.14389664 0.20365946 -0.23691735 -0.18181498 -0.09892264 0.60401314 -0.17032783 -0.72356784 -0.87612194 0.33940765 -0.48871294 -0.35193875 0.4383677 -0.26533532 -0.032851133 -0.4410946 0.06750185 0.38090417 0.30708292 0.43960148 0.53051865 0.28964156 -0.33801875 0.091480345 0.37145552 -0.22722718 -0.35795423 -0.4650244 -0.28708944 0.049123578 0.17352559 -0.41600335 -0.52857393 -0.013639021 0.554343 0.46454898 -0.119685814 -0.44275075 -0.12169833 -0.14850682 0.068822786 0.3179705 -0.52525985 0.16521218 0.62771636 -0.07670013 0.023353467 -0.45204782 -0.004174527 0.07795724 0.2921588 -0.22639164 -0.012462099 0.011744515 0.16837204 -0.0999056 -0.06736609 -0.06240497 0.48169345 0.34202427 0.36680275 -0.24398088 -0.6288708 0.21343596 -0.46432257 -0.4715283 0.049476087 -0.15701815 0.21439001 0.61293405 -0.41888654 0.12737799 0.15450078 0.8654642 -0.14527431 -0.39287084 0.94261754 -0.44691697 -0.2970829 0.05148508 0.04265063 0.19030842 -0.87623805 -0.0564259 0.023010053 0.09647908 -0.5619504 -0.2058991 0.6736558 -0.50813586 -0.8930658 -0.115132436 -0.22301021 -0.068635866 -0.77596885 -1.0878122 0.1544638 -0.4392721 -0.2235932 -0.20321183 -0.19529465 -0.112000264
12330 -0.039277956 -0.17538704 0.74331665 0.3713739 -0.08900583 0.2739633 0.40183762 -0.6663124 -0.036698997 -0.05829096 -0.4399482 0.22896042 0.4887714 -0.5343758 0.64397407 -0.3238464 0.3845293 -0.32241502 -0.5094444 -0.19159408 -0.19803604 -0.9935159 0.11853679 0.21543589 0.5133159 0.01613922 0.21403396 0.36794102 -0.25272238 -0.45001894 0.36334088 0.17685227 -0.0151986405 -1.0495527 -0.03278541 0.37364674 -0.1813094 -0.52133554 0.2563418 -0.6606636 0.58713806 -0.6693409 0.5129962 0.2158683 0.31167763 -0.0757358 0.3409975 0.6069479 0.026856335 0.4772746 0.16723564 -0.41293427 0.43596724 -0.5450714 -0.19901302 0.43590638 0.19950548 -0.6777606 0.08907516 -0.29201615 1.1087545 0.7767557 0.24396858 -0.91681904 -0.0322737 0.086991705 0.555583 0.51081926 -0.15849854 -0.2941501 0.7241033 -0.37024292 -0.10054627 -0.5391805 0.32649726 0.60320204 0.1295232 -0.09782771 0.27355316 -0.29588652 0.052096263 -0.1281361 -0.48481777 -0.106434606 0.18320818 -0.13231574 0.47857043 0.12212947 -0.20449886 0.40818724 -0.65863645 -0.53633577 -0.37504667 -0.94749737 0.6164285 0.64659584 -0.11170089 0.3934593 -0.054514486 0.2826486 -0.6667751 -0.21983466 0.24830987 -0.50675607 -0.29455674 -0.04611835 0.2397343 0.81003296 -0.83129764 -0.22030985 -0.29295245 0.20971853 0.062228985 0.09252613 0.55945575 -0.5760894 -0.54946876 -0.35817087 -0.5628105 0.47092935 -0.6658212 -0.817574 -0.090243526 -0.6474801 -0.21211259 0.029669417 -0.35324186 0.15070583
