2708 128
35 -0.20064783 -0.2151382 0.16650693 -0.0016993211 0.08791989 -0.12346571 -0.013213101 0.045647964 0.13483454 -0.080769785 -0.04204384 0.17266034 0.13345529 0.06010854 -0.36360615 0.0004187339 0.26993468 -0.080027044 -0.13665628 0.046608742 -0.016470602 0.4159831 0.037957188 -0.19196422 0.21176277 -0.016917894 0.07565737 0.078032985 0.18904074 -0.04972771 -0.08336324 0.2032084 -0.33356133 0.14011735 -0.62271655 0.22934733 -0.14056697 0.012335248 -0.35264462 0.6568559 0.7735886 0.20435506 0.019585995 0.38836414 0.22700557 0.42267993 -0.16275685 0.12605084 -0.4681975 -0.15519674 -0.4344346 0.034911446 -0.26962394 0.41265687 -0.32797462 0.32194063 -0.075526044 -0.16297676 0.18761274 0.08751884 -0.24410704 -0.07849572 0.069270305 0.17255023 -0.07093509 0.22323383 0.43246466 0.13605268 -0.0069861775 -0.3435822 -0.16142172 0.09516081 -0.1364849 -0.24863173 0.1572096 0.04045524 -0.10091234 0.13589965 -0.33447513 0.008969702 0.039759077 -0.33242786 0.3861386 0.08938817 0.40719628 0.04749211 0.08711235 0.22105004 0.68204165 0.4784862 -0.4949723 -0.0673815 0.063167565 -0.11282784 -0.08310104 0.08877684 0.0062735495 -0.22405382 -0.27851543 0.20293209 0.028963804 -0.3695936 -0.044809163 -0.2677522 -0.015209988 -0.20472163 0.1599505 -0.0845033 -0.046501257 0.4499012 0.24852031 -0.26666442 0.14463566 0.31430227 -0.1951678 0.28346837 -0.23850924 0.38077196 0.42949712 -0.21565755 -0.40180224 0.3297013 -0.1998885 -0.016071077 -0.10746739 -0.08990812 -0.32069728 0.3703885
1365 -0.42858502 -0.3233856 -0.025956191 0.2895219 0.040140517 -0.021672763 0.11043889 0.32300192 0.32210505 -0.06561808 -0.14276424 0.30969575 0.29070058 0.24731019 -0.12274999 -0.023991726 0.04838466 0.31367633 0.15542765 -0.07526608 -0.63116205 0.1643174 -0.14028628 -0.1778387 -0.22489782 -0.21348044 0.39823785 0.100676626 0.09608758 -0.009670472 -0.48503235 0.27985886 0.061131313 0.33330294 -0.16628392 -0.41807067 0.28393295 0.17597917 -0.16891885 0.30869457 0.20968725 0.08130799 -0.38675535 0.16549614 0.3721517 0.3094853 0.25190794 -0.34583217 0.03474715 -0.074127816 0.03047652 -0.25335583 0.19618344 0.19998917 -0.45239255 0.38794246 -0.06535135 0.02511563 0.293128 -0.5515665 -0.68305874 0.15570484 -0.35445845 0.066215366 0.050683834 0.045114946 0.21449398 0.12004807 -0.29676682 -0.4354143 -0.2323669 -0.1556513 -0.18636923 -0.14555687 -0.251765 0.52763426 0.18290122 0.40139183 0.028447106 0.17312315 0.3156553 -0.17144157 0.1309652 -0.13023551 0.15259033 0.4996674 0.01439637 0.4382309 -0.2689639 0.010166817 0.13877697 0.31999165 -0.57118607 -0.08142085 -0.22295395 -0.2107322 0.15409815 -0.18256128 -0.25714976 0.37642285 0.0981655 -0.47366634 0.460109 0.10769522 0.16332714 0.05339134 0.15576576 -0.170167 0.2460878 0.10151761 0.2498367 0.24787316 0.1805369 0.43386474 -0.30731237 -0.3628579 -0.31125027 0.39795977 -0.21664383 -0.106853984 -0.32198623 -0.44571418 -0.20974028 -0.10499704 0.15642557 -0.12499608 -0.08869578 -0.113477595
6213 -0.32131046 -0.16568783 0.034510493 -0.090287894 -0.22174934 -0.023289096 0.07128229 0.064731695 -0.20709266 0.22046934 0.0749866 -0.021560566 -0.0922685 0.15529911 -0.04174823 -0.3859447 0.21281117 0.3587816 0.14761844 0.038800117 0.02195902 0.020404797 0.06844212 -0.61404246 -0.05164954 -0.23056665 -0.06498042 0.36415762 0.59230465 0.289039 -0.026728228 -0.15262915 0.02937172 0.65753615 -0.15102106 0.04002472 -0.18477255 0.4863093 -0.028880479 0.52533525 0.18962528 -0.12933448 -0.13132392 0.12743656 0.36754084 0.22045583 -0.23080926 0.2789809 0.34381443 -0.12716655 -0.37032324 -0.11760268 -0.0037874258 -0.16322494 0.018394003 0.58694273 -0.28434402 -0.24352257 0.32172334 -0.18653129 -0.65763897 0.005431258 0.55889606 0.20488451 0.14309008 0.099451646 0.32001302 0.20678371 0.33847392 -0.023272453 -0.12573169 -0.43421313 0.52135795 -0.16158843 -0.08513968 0.5456591 0.4823165 0.064749755 0.075457156 0.07690792 0.091735885 -0.016015528 0.22302033 -0.113548756 -0.017792407 0.24839175 -0.26431453 0.4316072 0.16655912 0.09333875 -0.10369347 -0.25230357 -0.27981898 0.46994707 -0.2940799 -0.107867606 -0.1876975 0.0947871 -0.07187943 0.4478803 -0.13865562 -0.16457438 -0.08612928 -0.09682208 0.24322937 0.29091775 0.052366775 -0.23720065 -0.01732792 0.21159491 0.019612296 -0.009018282 0.14112963 0.5214853 -0.14396328 0.008881689 -0.44811833 0.31204224 0.05822864 -0.43108273 0.06061012 -0.38935137 -0.32458138 -0.13626441 -0.54821396 0.36145386 -0.06427458 0.12750775
3229 -0.63428026 -0.28186843 -0.29657027 0.36573622 0.070668705 0.08961963 0.15831228 0.0061539086 0.20699927 0.049814027 -0.22391304 0.176581 0.33381033 0.42701 0.021448418 -0.07934153 -0.2584918 0.33160612 0.3059027 0.3212147 0.15250003 0.0465007 0.050737303 -0.21781126 -0.16406132 0.053165987 0.26345563 0.038759395 0.4755288 -0.10314541 -0.06280214 -0.076886065 0.28487754 0.1129699 -0.15355591 -0.011914771 0.07887079 0.024112014 -0.15112789 0.41114035 0.44118014 -0.18543456 -0.13654561 0.031131458 0.1005145 0.22665584 0.62713814 0.2547835 -0.06306218 0.21358801 -0.06312864 -0.29724655 0.26641196 -0.07278597 -0.44453335 0.2784373 0.08289014 -0.10540349 0.37926233 -0.5924508 -0.19123933 0.07497481 -0.51398015 0.16421796 -0.31937075 -0.17330813 0.44776416 0.60771275 0.040049672 -0.24415211 -0.22134058 -0.055158786 -0.11733718 0.035997313 -0.30737337 0.38909972 0.3940051 0.2572421 -0.16902749 0.084345624 0.18851204 -0.13098495 -0.02029065 0.08127845 -0.10513771 0.4407516 0.11287604 -0.017308159 0.4925446 0.3035417 0.012120959 0.12954831 -0.37848476 0.3475375 -0.04346899 0.17879821 0.24684419 -0.6266937 0.10515811 0.5327773 -0.28220603 -0.20464054 0.1702237 -0.023518981 -0.17808525 -0.4057894 0.16762763 0.017150076 -0.02716525 0.13356408 0.294316 -0.3017276 0.0056963237 0.28399655 0.15458971 -0.39902234 -0.25376225 -0.18629436 0.20094933 -0.040772017 -0.3926175 -0.15556677 -0.16448286 -0.019401731 0.029043535 -0.04223633 0.4807132 -0.070523195
910 -0.35093445 0.08194536 -0.25822634 0.65308654 -0.10409193 -0.05107161 -0.28802904 0.04526022 0.45126033 -0.12770371 -0.2715657 0.07816696 0.28549957 0.029585045 -0.0198043 -0.19638088 0.22000524 -0.050240807 0.20989968 -0.053198457 0.13504735 0.017547786 -0.11907397 0.0020997985 -0.20139502 -0.10115301 0.086600624 0.30926743 -0.16936472 0.3101312 -0.30324882 -0.15726392 -0.053840514 0.89151776 0.06422103 -0.11173356 0.22659235 -0.2975159 0.061403908 -0.12305975 0.17954795 0.16705841 -0.08480964 0.30743483 0.18615149 0.16295584 -0.09258698 0.04806851 0.027060436 -0.14973396 -0.17704055 -0.27556103 -0.07384093 0.4634836 0.1642354 0.13481474 0.032642517 -0.2772005 -0.38748997 -0.3297916 -0.24315639 -0.20895308 -0.2690798 -0.082264185 -0.18007357 0.072696894 -0.008415617 0.37422866 0.0006235722 -0.32900295 -0.10524898 -0.001787367 -0.37387764 -0.48953274 0.014160505 0.5756063 0.16619144 0.12721911 0.022711718 -0.35714856 0.09996862 0.092391595 0.19163409 -0.085412435 0.41625395 0.014220291 0.16134816 0.3164441 -0.052681323 0.14668952 -0.0067087812 0.19539177 -0.9550483 -0.032274593 -0.11689598 -0.19815843 0.101015516 -0.6162598 0.16637097 0.3223189 -0.40997544 -0.6198165 -0.18143812 0.21174096 -0.09456575 0.20045692 0.4948049 0.021539716 -0.09337626 -0.0071110143 0.5815147 0.3437638 0.10884829 0.18752821 0.5500148 -0.6021651 -0.6823272 -0.006393704 -0.04332157 -0.49273002 0.03215404 -0.5151409 0.027477868 0.10443163 -0.34349144 0.39303586 -0.3150795 0.14835185
4330 0.052606173 -0.07552757 -0.26111412 0.30922398 0.45159256 0.47748476 -0.2825142 0.3900422 0.020807842 0.15823783 0.036671948 0.030958237 0.10143306 0.03009028 -0.06358784 0.22384632 0.048179794 0.007938239 0.06792153 -0.50443894 0.052477326 0.13023318 -0.31128573 0.2931159 -0.3544215 -0.04131759 -0.09389205 0.4610676 0.096315265 0.23245487 0.11015369 -0.13737287 0.30904844 0.27762577 -0.17730749 0.0643688 -0.29452515 0.3599932 -0.109864496 0.25109828 0.4708674 -0.694794 0.42125067 0.31193957 0.4462612 0.08866505 -0.23648515 -0.17796326 -0.04451133 -0.08108575 -0.25206628 -0.05330572 0.035584006 0.17516646 0.24974981 -0.2235135 -0.39998746 0.24389921 -0.21038795 0.09370939 -0.49797517 0.07303751 0.044236887 -0.020439973 -0.2147909 0.0013407276 0.088071354 0.22090404 0.46734145 -0.22462358 -0.10405318 -0.03666409 -0.11156576 -0.16146573 -0.24564818 0.33959147 0.2667947 -0.022304855 -0.47960666 -0.2754816 -0.18052904 -0.07312895 0.2976085 0.14366248 0.309736 0.44545633 -0.20020093 0.03442694 0.41460896 -0.023475764 0.54396033 0.21334253 -0.7504253 -0.3897676 -0.24063835 -0.23469087 0.51828074 -0.4182086 0.056192733 0.17106047 -0.28321722 -0.59611076 0.33425337 0.45888168 -0.1628052 0.023018716 -0.13230932 0.068726055 0.058671974 0.41958857 0.13774815 -0.24654907 0.25830132 0.53800243 -0.1718175 -0.34857026 -0.08119052 -0.17727408 -0.26598522 -0.47488838 -0.16338938 -0.25974038 -0.1365957 0.059688114 -0.31194624 0.18121348 0.25738275 -0.23129106
114 -0.45510522 -0.34902847 0.07484669 -0.025145281 0.22043817 0.23945472 -0.18268971 0.2611607 0.058303755 0.4821688 -0.048182502 -0.047262568 0.21465558 0.17211586 -0.32263127 0.06953106 0.46184883 0.51687413 0.020571236 -0.03568059 0.23726788 0.049636867 -0.14554517 -0.4675632 -0.0077812425 -0.049948134 0.08087296 0.26827306 0.23159343 0.3247029 -0.18587413 0.015688125 0.080772266 0.6501565 -0.20847882 -0.28613174 -0.3115517 0.33914238 0.3035732 0.38902843 -0.21836303 0.14624764 -0.45872632 0.047743484 0.26012027 0.11858954 0.05686457 -0.1488611 0.013953136 -0.21050426 -0.12236754 -0.019799476 -0.26299375 -0.09753242 -0.33279034 0.5464444 0.100386694 0.12313353 0.17652719 0.0021421134 -0.82059383 -0.04345569 0.3203005 0.06041227 -0.15376735 0.115206786 0.10620149 0.40951583 0.16613843 0.06433329 -0.0018926726 -0.18848741 0.4337739 -0.31808656 -0.03371543 0.36161667 0.7565216 0.05116782 -0.022735236 -0.21043989 -0.043319196 0.0045270883 0.18153225 -0.15973295 0.23134038 0.16765828 -0.38728365 0.16683923 0.12710942 0.43522412 -0.46128795 -0.032460842 -0.4167707 0.04264915 -0.035510793 -0.16008124 -0.2545938 0.16396508 -0.38521048 0.43842152 0.39826962 -0.34435108 -0.17856367 -0.32002464 0.3788477 0.44372708 -0.07843475 0.1416257 -0.26764628 0.22856788 0.06825593 -0.2490251 -0.26188955 0.36999792 0.20994678 0.063741975 -0.6968587 0.44621566 -0.034532294 -0.32214043 0.1497511 -0.32592863 -0.42297527 -0.28405258 -0.5031393 0.4158269 0.6692368 -0.14518166
3231 0.22852659 -0.13000791 0.055073433 0.2885132 0.5074832 0.31562382 0.24061346 -0.1916579 0.27676404 -0.07501571 -0.08746198 0.5358099 -0.044916943 0.57339203 -0.19603689 0.10701828 0.1321516 -0.17378478 0.062231187 0.11214112 -0.01960479 -0.019197667 -0.24741805 -0.06715724 0.024143782 -0.28580216 -0.057242926 0.16037637 -0.11739667 0.47749332 -0.08433746 -0.6151319 0.050102144 0.18668643 0.05531569 0.24162126 0.44603032 0.14843063 -0.122415915 0.48881027 0.25192147 0.07331914 0.14585581 0.31197095 0.06718234 -0.007027093 0.20672384 -0.039466303 0.21863927 0.39586872 -0.029130131 -0.5205525 0.19169168 0.3514379 0.19656897 0.02904776 0.08447308 0.148803 -0.09351338 0.18950951 -0.599989 -0.13631822 0.38858932 0.24585629 -0.10055501 0.13637488 0.08403799 0.6464023 -0.22692865 -0.055000484 0.24624313 0.35665885 -0.40698552 -0.22320956 -0.5168544 -0.090188235 0.12494556 -0.30690274 -0.50812405 -0.510239 -0.19162104 -0.3097102 0.0050024567 0.18644181 -0.04051541 0.306741 0.05473486 0.2099264 0.4337743 0.50929624 -0.5540084 0.16847421 -0.435815 0.059187055 0.15155219 -0.14141233 0.25948048 0.18424192 -0.22640203 0.11719645 0.053952765 -0.25794482 -0.34961846 0.34843653 0.26408893 0.2939502 0.16770595 0.3345141 -0.25802118 0.36226052 0.44510883 -0.2990621 -0.427196 0.6466682 -0.3965947 0.3129912 0.2373234 -0.15598653 0.49431866 -0.22859079 -0.0499472 0.22756217 -0.4719664 0.023117468 -0.40697736 0.15280618 -0.29547998 -0.14698991
1272 -0.34401202 -0.3486802 0.41797143 0.023335312 0.42081556 0.14241256 -0.08869721 -0.3300647 0.32758677 0.051718205 0.02339722 0.5652275 -0.1808974 -0.09765152 -0.21124302 -0.10633738 0.33707076 0.2606821 -0.114728786 -0.038111307 0.10369224 0.2032493 0.216504 -0.19575205 -0.04402279 -0.6361827 0.18511637 0.36622325 -0.039244488 0.3290968 -0.29316723 0.2019453 -0.121073246 -0.045370482 0.08923247 0.26277578 0.46318462 0.026037887 0.052359633 0.028725706 0.053988755 0.0009738719 -0.17738582 0.0067094015 0.4734861 0.07996511 0.217265 -0.099560745 0.073003866 -0.29322386 -0.06335212 -0.2886093 -0.0011340698 0.512936 -0.096294716 0.3368739 -0.54467046 0.16631287 0.25637665 -0.38855243 -0.30414036 -0.8419974 0.3324305 0.51414853 0.15876594 0.0027288059 -4.1578212e-05 0.33416513 0.1850179 -0.5491716 -0.1731691 -0.08044021 -0.14612134 0.5295422 -0.1281127 0.02276331 0.1649503 -0.076534905 -0.3621006 -0.25510013 0.18201375 -0.20843977 -0.23287505 0.2994493 -0.23696794 0.17313139 0.1873374 -0.10464936 0.27965638 0.115492776 -0.8388583 0.49033305 -0.3833343 -0.004038919 0.17710364 0.036769196 0.10393679 0.015533168 -0.14661144 0.35947463 0.24307996 0.15108362 -0.06988866 -0.06937676 0.44872892 0.04614704 -0.18093728 0.1600689 -0.34100583 0.36734745 0.12211528 -0.027057126 0.15830582 0.28746638 -0.29785556 0.097825766 -0.12551366 -0.036068946 -0.055464853 0.2106292 -0.006716305 -0.5701732 -0.26965517 -0.16987821 -0.33253995 0.42870224 -0.16449927 -0.049231153
19621 -0.861314 0.040687334 -0.3093184 0.18634307 -0.07108709 -0.035985895 -0.117502466 0.51963276 0.58715373 -0.047990695 -0.26191685 0.34214932 0.48063368 0.06573927 -0.041630697 0.20468402 0.19171368 -0.31568134 0.29282403 0.050944068 -0.17948425 0.051612414 -0.7273616 -0.30111563 -0.19980684 -0.08098316 0.4468496 0.64985925 0.24567197 -0.18765974 -0.5186675 0.49755996 0.15190935 0.49954146 -0.21863037 -0.17736012 0.17830513 -0.21293868 -0.27716577 0.41454363 0.2769025 -0.15718798 0.120045945 0.57735723 0.33988705 0.42783672 0.19874547 0.44184485 0.08916359 -0.2073897 -0.27435502 -0.3891653 -0.07740765 0.08595232 0.045176364 0.69409335 0.12918685 -0.18784669 0.11300255 -0.4328387 -0.2807682 -0.2903844 -0.1208706 0.21935682 0.054148026 -0.09169789 0.30353102 0.37571368 -0.10873917 -0.36628 -0.30706164 0.17082573 0.025802188 0.10501656 -0.46042702 0.24720766 -0.06699805 0.26166245 -0.17149365 0.04085301 0.06263034 -0.3297759 -0.12059918 -0.39754924 0.48858112 0.22515252 0.2910127 0.30406445 -0.17226821 -0.11463178 0.25517908 -0.20206179 -0.5298229 -0.04665729 0.14064397 -0.07916945 0.102513015 -0.097855754 0.17386311 0.13572295 0.102129966 -0.2486532 -0.07152489 0.12546305 -0.19795167 -0.03508525 0.027783403 -0.21599832 0.21667556 0.21475285 0.09947134 0.015734 -0.02388741 0.63508415 -0.21026804 -0.50109625 -0.4816858 -0.120771326 -0.31007704 -0.38325134 -0.1729975 -0.1890317 -0.03747662 0.08211452 0.2545948 0.10255511 0.06733237 0.25536764
6214 -0.32872495 0.009734648 0.055324405 -0.23765373 -0.007882884 0.20433986 0.019395242 -0.017176127 -0.14745533 0.23482676 0.2636472 -0.14777051 -0.036286104 -0.04036846 -0.3290483 0.039379753 0.48446676 0.41995743 0.59874463 0.0042350027 -0.2930467 -0.0040073036 0.06592068 -0.05876108 0.00093825517 -0.42751443 0.31923133 0.45109364 -0.18940686 0.047590796 -0.17209095 -0.1489424 0.124258205 0.17282334 -0.2770391 -0.22076342 0.027251216 0.16159363 0.0038716253 0.26268962 -0.18232442 0.09367149 -0.21275209 0.12009342 0.24212624 0.038370155 -0.073248446 0.21420091 0.5202569 0.09332801 -0.41559884 -0.38068083 0.02807991 0.0066617094 -0.34602565 0.3791622 -0.20448722 -0.46153173 0.11354122 -0.0820164 -0.85011667 -0.17037265 0.49051127 0.17975092 -0.16577473 0.121767305 0.24566564 0.46095228 0.20780762 -0.39069942 0.1078028 -0.39787135 0.21386825 -0.67944044 -0.21707433 0.37738654 0.28282857 0.67914176 -0.30644184 0.05660221 0.17171568 -0.5766991 0.39380372 -0.26391152 -0.19694299 0.38974947 -0.18218239 -0.011399117 0.012717557 0.13079429 0.08334461 -0.10151045 -0.45576665 0.43218556 -0.45453146 -0.097149946 -0.17341729 0.124030285 -0.12132665 0.24792394 0.026341677 -0.30481893 -0.011338061 -0.202676 -0.013786883 0.4408397 0.16953146 0.19663885 0.18800461 0.39556238 0.28900978 0.08111549 0.19118387 0.17059973 -0.22785573 0.24494706 -0.71018535 -0.032828234 0.030320818 -0.20002362 0.20001996 0.06944659 -0.18486208 -0.078307115 -0.1716081 0.2803127 0.47306246 0.0540242
4584 -0.53368384 -0.39035922 0.2085628 -0.05929687 0.017138615 0.11984182 0.123850346 -0.08424592 0.15373231 0.056828823 0.39907324 -0.17785451 -0.15781301 -0.23234186 0.026526649 0.111594774 0.26296556 0.3110652 -0.05334051 0.19373687 0.018716998 0.05263528 0.081033975 -0.20221902 -0.37404892 -0.2782133 -0.12873289 0.43357536 0.21328296 -0.18380034 -0.5668815 -0.10678049 0.1516481 -0.0068112286 -0.366443 -0.22500703 -0.14250727 0.17094848 0.045483876 0.49741852 -0.03609063 0.118716106 -0.24232855 0.15795289 0.11963658 0.021403436 -0.16441284 -0.2087362 0.11203933 0.07226587 0.03810206 -0.44185966 -0.24837348 -0.2671407 -0.11121327 0.4610457 0.052177023 0.122700706 0.33063883 -0.35567504 -0.59175766 -0.10522722 0.15853322 0.06805391 -0.20073497 -0.05447422 0.2540961 0.22519732 0.15621361 -0.76526225 -0.2417164 -0.12659293 0.15127225 -0.43218088 -0.68773216 0.62036693 0.15493049 0.4999681 0.045909673 -0.2018796 0.5406963 -0.076953635 0.22952363 -0.38025787 0.08664802 0.37376288 -0.033811547 0.25222778 0.014335699 -0.055877708 -0.42712793 -0.28125733 -0.44074386 0.08806243 -0.08472662 0.102748714 -0.27805984 0.06647671 -0.3839199 0.46413773 -0.051212966 -0.40742368 0.1867661 0.078008525 0.19053148 0.34026995 0.117239 -0.3001796 0.021241818 0.34508702 0.38976383 -0.08294325 0.3687095 0.599261 0.16711049 0.14186956 -0.41794428 0.18538968 -0.12192805 -0.3852178 -0.24218866 -0.22136362 0.07741104 -0.16887464 -0.58584046 0.3812975 -0.0440808 -0.09389394
887 0.010613786 -0.16176155 0.17322446 -0.29794163 0.058137726 -0.18067795 0.063379504 -0.079543374 0.10112813 0.109973125 0.12326939 -0.10418231 -0.18826158 0.38720924 -0.5334031 0.093550056 0.18041065 0.24657303 0.09214006 -0.004041135 -0.16902065 0.3312119 -0.21179156 -0.41744554 -0.067527935 0.028972482 -0.018733684 -0.005458934 0.41682935 -0.0052658995 0.06868733 -0.28006703 -0.09760137 0.26116163 -0.74357814 -0.24438828 -0.24028046 0.13505095 0.015251888 0.54871345 0.2444777 0.060148355 0.050204426 0.553697 0.15267551 0.53204477 -0.21403864 0.23363703 0.5803047 0.39381343 -0.09306099 0.019390484 -0.03628082 0.15704916 -0.28292522 0.5786182 -0.13785683 -0.31368285 0.11166067 -0.094912045 -0.41094875 -0.07945884 0.5388794 -0.0363174 0.058710437 0.19321482 0.25931588 0.04261893 0.34426263 -0.45942906 -0.22410907 -0.5978316 0.22184972 0.10303973 0.2580702 -0.08317573 0.39533553 0.23372778 -0.046833716 0.22613056 -0.22869731 0.17556174 0.28093737 -0.29908684 0.1965556 0.17022054 0.024447735 -0.0871725 0.39665547 0.6072543 -0.020636741 0.2874404 -0.5228717 0.2632267 -0.36526272 0.34012917 -0.13925812 -0.07009055 -0.21364382 0.05792064 0.18655992 -0.14199127 -0.645096 -0.09145578 0.24316819 0.09933697 0.19200419 -0.17598113 -0.341583 0.30555004 0.06932711 -0.11321484 0.4018101 0.73125905 0.063933514 -0.063338906 -0.19868024 0.37657118 0.2392975 -0.029488277 -0.17796358 -0.45587543 -0.058370765 0.086911514 -0.0149561595 0.3889125 -0.23972087 0.3890507
2440 0.64283895 -0.92949873 0.29692128 -0.49263346 0.21540833 0.2832812 0.100575075 0.02955164 0.2095074 -0.28372076 -0.79733825 0.31957433 0.19534186 0.43294594 -0.042973977 0.3206976 -0.00069683325 -0.3799995 0.06670921 -0.015043824 0.22320531 0.15251885 -0.0021351827 -0.03791474 0.20454006 -0.2964537 -0.12377086 0.023740899 0.122199975 0.36676064 0.33768368 0.008056348 0.3018684 0.40576634 -0.6144797 0.1266094 0.13192272 0.14804582 -0.1833457 0.41426846 0.16439173 -0.39820156 -0.27762353 0.17733228 0.5772945 -0.58458596 0.31773144 -0.54671013 0.25160095 -0.32402053 0.009879319 -0.045298386 0.0061574406 0.44189733 -0.17825478 0.3302192 -0.41803926 0.1197887 0.20830466 0.042685606 -0.52901214 -0.08912469 0.58556825 0.33229256 -0.44495258 -0.1205851 -0.21565041 0.5604113 0.03150824 -0.51480836 -0.062496327 -0.20738494 0.110889465 -0.15358299 0.1839712 0.19875608 0.46387738 0.23276272 -0.7660098 -0.27577275 0.28651792 -0.19569668 -0.37051967 0.06429514 0.0074516633 0.38040662 0.21415699 0.20930752 0.268124 -0.13051057 -0.74069136 0.34554312 0.091923855 0.15433556 -0.37863895 0.35015568 0.46425697 0.21894987 -0.3332789 -0.08767252 0.3083654 0.22241163 0.23073445 -0.15379776 0.26569983 0.33516473 0.08374115 0.1309019 -0.08735131 0.8630601 0.07688583 0.039622087 0.24145012 -0.08754805 -0.5768952 -0.07427029 -0.35940307 -0.0047022523 0.19876331 -0.09389409 -0.05504157 0.0058894455 0.17487757 -0.17039388 -0.20704003 0.30356956 -0.16559742 -0.37989908
2665 -0.4358833 0.17112434 0.21646246 0.15290932 0.23721696 -0.07369942 0.14482903 -0.18407325 -0.013385789 0.038598813 -0.54007035 0.76709694 0.58476526 0.18967046 -0.19425848 0.13144386 0.41252592 -0.16729674 0.4157347 0.26627433 -0.10268749 0.32491878 -0.5170075 -0.52160656 -0.33208483 -0.38639548 -0.039655 0.15585923 0.10166923 0.2113428 -0.22841392 0.15376729 0.55768764 0.4932421 -0.65902764 -0.21009746 0.2979699 -0.2967327 -0.18408631 0.4649235 0.54079306 -0.46767682 0.1132093 0.7616575 0.5130468 -0.41605082 0.20189382 -0.093983024 -0.16756074 -0.22074282 0.14895314 -0.13878529 0.06478134 0.5623494 0.15418144 0.029659042 0.28308555 0.07460887 0.5697449 -0.8123869 -0.3249224 -0.18849455 0.101068564 0.05276364 -0.04120798 0.053858552 -0.023800453 0.3439264 -0.27307585 -0.5717239 0.25716195 0.34483504 0.17913526 -0.08894514 -0.11073967 0.49488866 0.64701945 0.23409654 0.5513143 0.21419252 -0.34924206 -0.60864043 0.23958066 -0.17285138 -0.07574643 0.14268902 0.55139625 0.69489825 -0.17088236 -0.074492455 0.06830485 0.21315636 -0.55787164 -0.12840395 0.48218805 -0.10937105 0.23730972 -0.20217347 -0.005640428 0.9145991 -0.008992875 -0.3328906 0.28312674 0.2218746 -0.047366228 -0.03349855 0.21674581 -0.5102538 0.051382367 0.7515674 0.15430753 0.41206726 0.2620296 0.0325111 -0.07165196 -0.7309797 -0.1703285 0.37109396 -0.13350916 -0.49407205 -0.46079013 0.033687953 0.11620311 0.17168483 0.54001725 -0.30388933 -0.09519 -0.39927024
24966 0.2517442 0.3442358 -0.04618888 0.9033558 0.3031633 0.4798797 -0.019878667 0.2918352 0.3266819 0.18403774 -0.43548504 0.23326659 0.5334419 -0.1929552 0.28146583 -0.31583676 0.39417505 -0.21235232 -0.07613828 -0.2709418 0.21828115 -0.04478252 0.03612862 -0.4944491 -0.27101693 -0.20393766 0.12736931 0.078093804 0.48426697 0.24515587 -0.05427361 -0.34774905 -0.21533099 0.39773342 0.15576646 -0.27042004 0.25652438 0.51601696 -0.079382196 -0.31922337 0.7890695 -0.23517631 -0.28597438 0.47457236 -0.31325036 -0.03608853 0.19057411 -0.19799446 0.2649392 0.27267298 0.5189136 -0.7118918 0.31899682 0.0938706 -0.020014595 -0.026919834 0.15326709 -0.24278647 0.3289739 -0.73527205 -0.47691894 -0.2738106 0.44468015 0.27429742 0.102511995 0.36613566 0.20035759 0.5409563 0.1774558 -0.18796018 0.131742 0.30332482 -0.14283752 -0.5756938 0.51158637 0.13436238 0.29019853 0.1875723 0.01643626 -0.2199034 -0.24448007 -0.17966226 -0.1870161 -0.06861057 0.25538656 0.45131257 0.27279577 0.070775874 -0.0056193876 -0.2449079 -0.51302415 0.40043697 -0.50554025 0.079182975 -0.00905389 -0.22802563 0.19131334 -0.40315408 0.015902285 0.34610465 -0.64047146 -0.33681926 0.24963027 -0.3297969 -0.14314164 0.10880052 0.012911655 0.08284619 0.07363891 0.3161397 0.036963094 -0.17132795 0.075722 0.35038286 0.20171228 -0.28478697 -0.5809597 -0.2711439 -0.0036349804 0.055952076 0.01657268 -0.2203538 -0.25494692 0.29832926 -0.17636779 0.26075515 0.07516536 0.19260626
8224 0.15591463 -0.5400842 0.14172935 0.23070711 0.14357875 0.2153668 -0.009376028 -0.0479728 0.3326313 -0.30289042 -0.02045199 0.2095249 -0.242347 0.45974126 0.1689755 0.108978935 -0.5272541 -0.3831794 0.0940171 -0.0058354065 0.09418668 -0.117264085 0.37218013 -0.41807902 0.11881474 -0.16058847 0.43481776 0.12959285 0.19518735 0.42736617 -0.1855796 -0.29615173 -0.32040504 0.098661035 0.030636407 0.24427506 0.29455915 -0.18221533 0.347865 -0.02101843 0.14933965 -0.5443776 -0.24384728 0.29037318 0.26296946 0.0036676747 0.36650953 -0.17233427 0.35731515 0.1531196 -0.018000873 -0.11991733 0.04953108 0.5136783 -0.03787027 0.34284395 -0.20652029 -0.02379447 0.17254284 0.06489174 -1.00023 -0.38228187 0.40274945 -0.07950812 0.02044081 0.016986227 0.023198882 0.16366838 0.06778112 -0.2599639 0.014275167 0.058980472 0.35336655 0.06527429 -0.0805059 0.18812591 0.16947612 0.0018794924 -0.2953927 -0.3543785 0.18657237 -0.20304723 -0.029618893 0.29603484 -0.6954237 0.48493394 0.3679531 0.22493723 0.3017324 0.1644367 -0.6521652 0.42822033 -0.1943967 0.12950337 -0.28668174 0.24480653 0.6134746 0.22987406 0.14916535 0.12393423 -0.00658658 -0.46752745 0.21780406 -0.23830831 0.02983785 0.35675815 -0.59385246 0.065436356 0.3373815 0.32088703 0.25412217 -0.17472717 -0.38258606 0.0521107 -0.3320591 0.43238336 -0.19374171 -0.059331063 0.4465427 -0.27318117 -0.2654685 -0.28025976 -0.016462246 -0.03786357 -0.34868953 0.5268954 -0.08405312 0.13890839
12182 0.5009684 -0.28648075 0.16202126 0.08547916 0.27427563 -0.05018723 -0.037797872 0.1643477 0.34172064 -0.29490396 0.09533251 0.16697593 0.1646337 -0.38598868 -0.48759767 0.27987185 0.06688549 -0.09502238 0.430522 -0.05318484 0.5765904 0.38381517 -0.07225415 -0.131001 0.2405797 -0.38508892 0.17442288 0.30605063 -0.11096842 -0.1319499 0.09472631 -0.36426982 0.0560978 0.29244184 0.1044624 0.07476469 0.5095618 -0.009580635 0.3543462 0.02330144 0.39943793 -0.6766209 -0.3758057 0.3582 0.32441732 -0.3637471 -0.2858708 -0.24433227 0.19369344 -0.46228105 0.39726657 -0.108167425 -0.33364457 0.14854299 -0.026741866 0.29973245 -0.054932572 0.13851446 0.1267994 -0.07060251 -0.022726607 -0.106050424 0.15764578 0.4134821 -0.59304583 0.34717625 0.34064144 0.21206798 -0.03770731 -0.4668524 0.13883497 -0.14585476 0.59481376 0.30446565 0.15138003 -0.1915415 0.41890198 0.32225308 0.1889675 -0.6041729 -0.30773455 -0.11107209 0.043607436 0.18272449 -0.12557043 0.5430925 0.3434824 0.16305916 0.15304036 0.38640827 -0.5094326 0.4173114 -0.32807294 0.4312024 -0.23316185 -0.290504 -0.017075025 -0.009286428 0.69160104 0.4750603 0.29318058 -0.015616873 0.09974525 -0.5377489 -0.53801894 0.17725989 -0.24012257 0.12829453 0.37584692 1.1141933 -0.011703185 -0.0897345 -0.41045782 0.39080942 0.1412572 -0.50419694 -0.4048207 0.1028761 -0.15074499 0.24182248 0.49149722 0.23101738 0.1663873 -0.04460752 -0.44688252 0.17828313 0.19577225 -0.31523734
20193 0.22262669 -0.285861 -0.2033907 0.5671671 -0.23139079 -0.04105914 -0.29543024 -0.3825053 0.3184384 -0.4138254 -0.65747684 0.43331388 -0.1644075 0.45795327 0.08163137 0.29447225 -0.05315777 -0.33012575 0.21562588 0.28422487 -0.08583852 0.104123496 0.37309963 -0.43097097 0.31404588 -0.23833622 -0.18076655 -0.17858295 -0.26483202 0.28257242 0.39416087 -0.08646024 0.01951078 0.6825587 -0.90959245 0.19667453 0.31240982 -0.30550203 0.21365578 0.5896705 0.3848184 -0.8463238 -0.1623978 0.15418059 0.6499153 0.18656813 -0.031067416 0.6163337 0.34716162 -0.36911157 0.053456947 -0.25867277 -0.65719914 0.19349048 0.15095879 0.03641302 -0.08799811 0.22884157 0.17750883 -0.15256193 -0.60830456 -0.12757465 -0.021655615 0.6102638 -0.31401744 0.40045005 0.03301514 0.11385913 0.13569874 -0.48780227 -0.03612803 -0.46856916 -0.2278467 -0.30754146 -0.037777934 -0.42410687 0.22276542 0.010237366 -0.09724225 -0.04587213 -0.20394473 0.25370786 -0.08331116 -0.33334014 0.030565236 -0.059607968 -0.18818714 0.20238137 0.1979524 0.08891453 -0.5052827 0.3442382 -0.3783232 0.14679074 -0.6699654 -0.49060553 0.09104384 0.14085749 -0.1887935 0.56205046 0.35416186 0.29481062 -0.2726469 -0.1709675 -0.038674273 0.29353312 -0.47352788 0.34106246 -0.25207427 0.11368199 0.40899456 -0.17432904 0.5269867 -0.10817227 -0.3843869 0.11640734 -0.07027285 0.45747364 0.19323663 -0.45258996 -0.025211133 -0.04062011 0.1284784 0.3727936 0.06970728 0.2291817 0.40638822 -0.2455802
82920 -0.011259224 -0.15450992 -0.0056025963 0.116346784 -0.39982355 -0.15194853 -0.100154385 -0.40259796 0.456321 0.17097302 0.097409494 0.017938033 0.018539084 -0.08945516 -0.6324676 0.13489784 0.13838935 0.01522879 0.044887453 -0.08521184 0.13487184 0.102892265 0.016275672 -0.39314356 0.41726598 -0.14245552 0.72698253 0.24579716 -0.17209236 0.13800438 0.22153139 0.23985572 -0.41704383 0.03652978 -0.6186603 0.21682122 -0.17730556 0.08670415 -0.08228636 0.5995644 0.7470885 0.034452513 -0.09560742 0.7350982 0.038398217 0.28241166 -0.04697764 0.18228276 -0.5573739 -0.096285924 0.16513427 -3.5241577e-05 0.09617241 0.3282999 -0.38222128 0.2903122 0.25237155 -0.009218001 0.16241789 0.010080409 -0.1340939 0.20350757 0.16665865 -0.09449855 -0.05015701 0.10412058 0.17339581 0.21889547 0.28245708 -0.28533408 -0.066598 -0.08289145 -0.3929905 0.07644815 0.014788337 0.19332466 0.19922228 -0.020738943 0.1554782 -0.19550921 -0.083191834 -0.18985172 0.14623585 -0.088024996 0.3114412 0.12281831 0.3754258 0.13432398 1.1113607 0.5345667 -0.795726 0.090705864 -0.27491388 -0.08972741 -0.29522744 0.2544595 0.07053499 -0.38063553 0.0053726337 0.041517578 0.10950313 -0.54972446 0.10961416 -0.17367621 -0.17292808 0.27753398 -0.11641565 -0.024428586 -0.03090058 0.21996233 -0.0033997444 -0.34106582 0.09299079 0.30137038 -0.20213333 0.26110315 -0.40419823 0.4612302 0.41261184 -0.21655104 -0.34099606 0.4539423 -0.48262665 -0.24193248 -0.05049993 0.264245 0.07940954 -0.010740366
22563 -0.06729422 -0.4814847 0.20580138 0.33317614 0.29629004 -0.235525 0.3233812 0.044870816 -0.14986339 -0.29993808 -0.018816955 0.15284656 0.05513917 -0.13240185 0.22017373 -0.15057003 -0.06122671 0.14338279 0.48343223 -0.4101883 0.03180545 0.07195832 0.054736033 -0.22524966 0.27420843 0.03117436 0.22870277 0.45113838 0.30251878 0.21260552 0.0036560546 -0.05088734 -0.4034364 0.6083847 0.2900913 0.32667464 0.1241558 -0.091470376 0.4754035 -0.11869885 0.4155714 -0.4138868 -0.106039524 0.4141114 0.5660982 0.16817163 -0.0053204284 0.0957262 0.7670532 -0.33383274 -0.14209254 0.15466948 -0.48469117 0.8696961 0.033558168 0.35915124 0.036015026 0.1417524 -0.21035536 -0.19451849 -0.25362504 -0.2026419 -0.14271337 0.34338003 0.09333912 -0.039468545 0.39331993 0.33325487 -0.13701059 -0.17090891 -0.011993899 0.16122898 0.24947703 -0.18143831 -0.13813835 0.23084526 -0.08356625 -0.1479546 -0.5841009 0.042512927 -0.02519753 -0.5071518 0.090675816 0.26915008 0.11511277 -0.19095084 0.2288135 0.14559247 0.23229645 -0.02750634 -0.72472453 0.66123885 -0.15170375 0.41603452 -0.19207992 0.1298426 0.3203506 0.29688382 -0.20611566 -0.14037998 -0.063161425 -0.8236298 0.38029474 -0.0003219214 0.1589571 0.14828075 -0.10004461 0.018260552 -0.033277262 0.44445974 0.26711938 -0.01730307 -0.06158777 0.10074905 -0.5450805 -0.28942466 -0.26423824 -0.35270435 0.26024833 -0.45163977 -0.22637022 0.019831909 0.20231767 0.6123131 -0.14370997 0.45832312 0.18650924 -0.28562522
10169 0.020478405 -0.16922952 -0.20286867 0.38373324 0.73942685 0.36207083 0.23699164 0.029605616 0.4581469 -0.6919208 0.12540027 0.35574314 -0.10195326 -0.071761645 -0.2727174 0.06391129 0.11904669 0.06461395 0.29425603 0.2650613 -0.2341778 -0.044803288 0.024352094 0.07054513 0.20291607 -0.26072812 0.0024059429 0.5067099 0.047256097 0.51913637 0.22981004 -0.16632545 -0.3748952 0.042867437 0.20711543 -0.11526513 0.43225273 0.2917771 0.01523163 0.7087557 0.23998389 0.19144277 -0.05225983 0.1358758 -0.19974364 0.10838628 0.41463956 -0.009571999 0.16154698 0.06290417 0.07077968 -0.053336337 -0.074178986 0.47479782 0.31063327 0.13662417 -0.15295638 0.56746876 0.04785244 -0.12698525 -0.39802215 -0.13636206 0.10620171 0.55014837 -0.14395252 0.5627748 0.045574997 0.72576267 -0.1345591 -0.32224253 0.23123172 0.0077261273 -0.010212068 0.018060952 -0.35268208 -0.07889346 0.06243774 -0.044958483 -0.23543628 -0.5304373 -0.047935408 -0.5691458 -0.55851185 0.062033746 -0.26941344 0.35253298 0.13491662 0.20696053 0.64141893 0.07696286 -0.57799613 0.037795614 -0.6474964 0.2267448 -0.0015808586 -0.1079194 0.24225476 0.020524073 0.023140501 0.07835249 0.18237598 -0.30585313 -0.40859985 0.32884434 -0.09001271 0.26009777 -0.18076065 0.3534904 -0.15503304 0.7504654 0.06299485 -0.06419941 -0.10266915 0.20378825 -0.32458985 0.027896326 0.08721869 0.15914446 0.12791196 -0.02274074 -0.10032723 -0.12060686 -0.59504217 -0.18005548 -0.6242072 -0.07795523 -0.16278931 -0.17980103
12350 0.13315812 -0.041072775 0.076654434 -0.08437776 0.35856584 -0.1691137 -0.016792065 0.4092252 0.13510294 0.24066016 -0.3793418 -0.08440528 0.25475466 -0.28194955 -9.974294e-05 0.21640912 0.25298625 -0.097137004 0.1449184 0.20913512 0.23760669 -0.07843528 0.24608631 -0.09903186 0.05916027 -0.527835 0.23350117 -0.053249612 0.14950956 0.040348098 -0.078374356 -0.03411507 -0.09288491 0.10082311 -0.15835932 0.66391134 0.07981687 0.26906192 0.32988137 -0.005046979 0.36395338 -0.22110146 -0.17944482 0.6246782 0.027102808 -0.5242164 0.20396256 0.3059387 0.46608165 -0.40931836 0.54297465 -0.6644457 -0.41934064 0.47940207 -0.07787591 0.5417987 -0.10915171 0.1852021 -0.12946613 -0.22745529 0.074842185 -0.016612923 0.11538259 0.28546977 -0.26100764 0.049879268 0.5309946 0.440117 0.103922285 -0.38926944 0.52654403 -0.6314215 0.1679453 0.09812822 -0.054054152 7.21142e-05 0.12354106 -0.03471396 0.04828848 -0.4219777 -0.12116047 -0.07346169 0.15520455 -0.28646445 -0.1438631 0.00073774776 0.38079292 -0.023616489 0.4656235 0.19537744 -0.77109516 0.21565709 -0.4028694 0.08696632 -0.13512717 -0.23091131 0.19700825 -0.05982627 0.2262977 -0.016627876 0.2492488 -0.024345681 0.017018065 -0.08086927 -0.5116285 0.40357494 0.08308425 0.24070577 0.24998838 1.1045865 -0.25880998 -0.3877132 -0.105715 0.19840428 -0.06744131 -0.3289745 -0.39001286 0.22236185 0.073684774 -0.0749751 0.6226906 0.24185045 -0.24836041 -0.16550773 -0.53927517 0.3145456 0.11788367 -0.003207103
12576 -0.2644938 -0.4028324 -0.05643693 -0.031396396 -0.008001961 -0.18469118 0.073402874 -0.2613156 0.23991682 -0.00671844 -0.06834935 0.3034808 -0.23851731 0.2847245 -0.2545445 -0.0685318 0.17029358 -0.25311682 -0.2538014 0.2468306 -0.2107376 0.5427572 0.031008355 -0.22030807 0.077664524 -0.23918006 -0.107920796 0.23696081 0.50832176 0.11267864 -0.15936714 -0.12516905 -0.28048453 0.5265357 -0.30840385 0.24215719 -0.22243282 -0.24453339 -0.03331629 0.68437046 0.6117403 0.21739304 -0.0017557886 0.08427361 0.515105 0.516608 -0.033629518 0.06873924 -0.32681683 -0.00066058 0.049247254 0.024041736 -0.13137037 0.13603072 -0.23044346 0.5487656 -0.007011345 -0.21403942 0.17154199 0.039583188 -0.4084696 0.48708388 0.618293 -0.044148184 0.14777327 0.26359943 0.25092536 0.3603034 0.23653564 0.0129705975 0.12650213 -0.009594052 0.09912718 0.027578596 0.1963482 -0.06547364 0.19444293 0.35785532 -0.32554275 0.117493875 0.20448382 -0.073843665 0.14939018 -0.2726533 0.7031713 0.32340136 0.19794671 0.24144137 0.51289207 0.36836544 -0.15764543 -0.30413744 -0.49304205 0.3591908 -0.09230238 -0.17312545 -0.28449327 -0.12228589 0.018840292 0.2597746 0.1223474 0.010632063 -0.392721 0.07595153 0.17221625 0.2330291 -0.16885416 0.11252898 -0.15896265 0.5438797 0.326991 0.10604363 0.05450001 0.24263671 -0.24401411 0.18072844 -0.35964024 0.78071123 0.056041777 -0.58601433 -0.35002038 0.023529641 -0.42788452 -0.0932514 -0.62791765 0.2923117 -0.1931514 0.19760697
31353 0.05065742 0.024015173 0.40857312 0.14677837 0.2403503 -0.14961188 0.06812199 -0.20488545 0.43486825 0.14395393 -0.34303078 0.19659284 0.21562196 -0.20727468 -0.031169087 0.1533307 0.24919283 0.11711086 0.55427015 0.12414934 0.107380055 0.2433338 -0.2041138 0.016864883 0.23913175 0.052948553 0.09260375 0.21433091 0.5920876 0.1321923 0.1502307 -0.496592 0.08058858 0.5546779 -0.06507499 0.023488175 -0.042783186 0.07153241 0.35053933 0.021009559 0.40366614 -0.3211935 -0.22410804 0.43080786 -0.03914932 -0.22652243 0.25372025 0.06738291 0.21716882 0.27376488 0.024472341 -0.6472549 0.14988537 0.7288762 0.61270165 -0.08110372 0.30106935 0.3984499 0.38667798 0.123865925 -0.4609005 -0.40921268 -0.05734287 -0.4098017 -0.68899775 0.55305713 0.7108036 0.47814676 0.5612568 -0.15409924 0.27163523 0.1513967 -0.12478448 -0.34720784 0.15792857 0.10964947 0.20317772 0.41220272 0.44373506 -0.40400803 -0.34754187 -0.48810884 0.13870078 -0.24712886 -0.012954708 0.042833656 0.3242623 -0.043652855 -0.02367166 0.3722901 -0.30329743 0.23824412 -0.5283702 0.2668722 0.34451488 0.03816051 0.5742878 -0.48118988 0.35139927 0.799395 -0.20681608 -0.7119298 -0.052695904 -0.11078672 -0.3581403 0.2050411 -0.7808278 0.040278092 0.007474935 0.508726 0.0035194235 -0.18753184 0.12372272 0.40304893 0.48271576 -0.6057925 -0.52959436 -0.31932428 0.0031059193 0.04635778 0.14640069 0.15573418 -0.28861427 0.051097568 -0.36521414 0.13610579 0.5779973 -0.4619306
15429 0.05340708 -0.036115102 -0.09534193 0.4797249 0.42859155 0.048506457 0.14035557 0.43181512 0.28067476 -0.15958282 -0.28302616 0.1689422 0.23641174 -0.23929991 -0.02598872 0.0755145 0.40081388 0.06965912 0.2832897 0.025865003 0.033053085 -0.11550111 0.21670276 -0.30179104 0.5405886 -0.38405746 -0.05859341 0.34945613 0.2544497 0.81067526 0.21663442 -0.14982106 -0.29381385 0.20145796 -0.068776734 0.34136194 0.008129462 -0.17139341 0.10436855 0.21135028 0.5483727 -0.29708365 -0.6866242 0.09999402 0.03656559 0.02733368 -0.03197828 -0.21098962 -0.009667268 -0.6344875 0.30833694 -0.18336023 -0.0035218475 0.35188925 0.10686928 0.35521144 -0.30676445 0.40945652 0.2664524 -0.11594288 -0.26442036 0.24410957 0.132566 0.21572453 -0.0740743 0.33869478 0.41327524 0.7874314 0.156074 -0.26845214 0.25706968 -0.4064811 0.27058226 0.08429704 0.26063395 -0.2669783 0.14551853 -0.1587251 0.13455623 -0.48486716 -0.23626025 -0.21172282 -0.008449732 -0.20969747 -0.5442238 0.04686372 0.5455768 0.21291433 0.63728565 0.38206464 -0.5077241 -0.08705042 -0.42513874 0.040051784 -0.009488227 -0.25652063 0.024786046 0.15639094 -0.10852604 0.13706714 0.053072438 -0.33066297 -0.30405897 -0.015792938 -0.30302554 0.15787771 0.19943105 0.48818684 -0.0818475 0.9912032 -0.2895031 -0.12916513 -0.20992528 0.3291208 -0.04793372 -0.20947556 -0.009322334 0.06884506 0.14869206 0.050843094 0.42969966 0.0007824375 -0.3966085 -0.12545313 -0.91108954 0.39468682 0.012030439 -0.386053
8703 0.15544713 -0.44874093 -0.08317262 0.043164156 0.7196353 -0.20070031 -0.043192483 -0.4481223 0.011060814 -0.40697455 -0.05927995 0.14520535 -0.1434714 0.13166884 0.08626299 0.0026332175 0.35861346 -0.19689055 0.2750434 0.04010455 -0.30313152 -0.63956404 -0.0024629424 -0.37389448 -0.117048725 -0.19456862 0.12967621 0.17241246 0.26163572 -0.15701135 0.124060504 -0.14839832 0.036159433 0.5618265 -0.45350403 0.50194895 0.37506065 0.04992488 0.43374634 0.3924352 0.55239743 -0.6734994 -0.49857625 0.06975188 0.20525292 -0.18807074 0.08468118 0.26278043 0.21791779 -0.27365288 -0.55424523 0.16877754 -0.36452258 0.42314914 0.037408285 0.52600807 -0.12872292 0.13916688 0.11122625 -0.0965355 -0.570946 -0.05338296 0.48360017 0.5351802 0.014292784 0.031733662 -0.18258514 0.26833087 -0.10692627 -0.22784203 -0.08584408 -0.07187643 0.021556595 0.17067407 0.25931653 0.085633025 0.4404036 0.017899564 -0.22542246 -0.22938076 -0.27475056 -0.22342585 0.06499701 0.34105507 -0.06808876 0.14826389 -0.32246807 0.15463409 -0.11084276 0.024532627 -0.5543004 0.042021193 -0.5745158 0.22552057 -0.32773653 -0.025547136 -0.29533 0.14301665 -0.1272232 0.04808026 0.273317 0.14089614 0.0049574287 0.19510143 0.36210352 0.6641429 -0.07205792 0.26571822 0.046492618 0.1167343 -0.048312873 -0.039949045 0.13636775 0.67000914 -0.034244236 0.18288083 -0.1889626 0.121330135 -0.267931 -0.44918767 0.16813758 -0.2571307 -0.059367303 0.55137146 -0.553971 0.808389 -0.13740095 0.16463923
3220 -0.17249836 -0.36229727 0.08925292 0.035499994 0.29020774 0.26834306 0.39105073 -0.16928945 0.12778907 -0.12866151 -0.41701883 0.269696 -0.19300358 0.052614115 0.043784868 -0.21456765 0.17652735 -0.17072724 0.59534436 0.015739128 0.11021938 0.25296092 0.021893946 0.099707484 0.1605082 0.1953989 -0.045655333 0.13336127 0.08479339 0.3912687 0.14948632 -0.9696834 -0.21814953 0.7016989 -0.12846069 0.367437 0.13235092 0.044423584 0.51816624 0.14973351 0.42776302 -0.107125826 -0.013636185 0.4059057 0.035394043 -0.18590817 -0.034319304 0.4797283 0.34068742 -0.122032374 -0.021444665 -0.20125929 0.04840878 0.65345556 0.3805325 0.10670042 -0.1899742 0.2641783 -0.31640634 0.14948972 -0.8057811 -0.2816561 -0.1787418 0.38677046 -0.24828184 -0.1306489 0.10563937 0.94981396 -0.04004427 -0.1475535 -0.5089782 0.043176547 -0.07436276 -0.14745986 0.066085406 0.0043576816 0.28099567 -0.14135724 -0.15437983 0.039746236 -0.015698513 -0.2888613 -0.18170007 0.44147003 0.04225433 0.04017402 0.12261771 0.033581924 0.23510651 0.059981707 -0.72758466 -0.03295353 -0.5004489 0.10248076 -0.04207341 0.23925437 0.548318 0.2401101 -0.033188984 0.23451328 0.031021735 -0.7060858 0.2966166 -0.13266544 0.18095659 -0.008198145 -0.6645309 0.016210236 0.12658177 0.4747464 0.23898281 -0.11611501 -0.15824774 0.5279847 -0.048198104 0.10872614 0.14189492 -0.34377894 0.21091428 -0.27880076 0.05717486 0.07350959 -0.45672214 0.32171616 -0.24924128 0.49371386 0.33689222 -0.38834193
39890 -0.02325535 0.0034434637 -0.2572969 0.064884186 -0.061053813 0.43840736 0.048877947 0.275947 0.06777175 -0.3375159 -0.18990521 0.59233093 -0.021680374 0.17251296 -0.48941708 0.19836901 0.496296 0.42322078 0.10409767 0.22265814 -0.1551755 0.3498156 -0.11566654 0.26682606 -0.096774325 -0.25329226 0.2208479 0.29181758 0.18061662 -0.18843667 -0.28398585 -0.44298455 -0.10005264 -0.016647337 0.34372437 0.14388473 0.017519081 0.010153959 0.088354066 -0.14095987 0.25083637 -0.5255729 -0.7200613 -0.063360006 0.1603925 -0.04027082 -0.43088672 0.013840649 0.1976951 -0.40094635 -0.07197234 -0.16642904 -0.22206108 0.34537694 0.14155799 -0.15887082 0.32536453 -0.20034276 0.08115608 -0.39619622 -0.43171877 0.141181 0.6462372 0.2503927 -0.10367821 0.70562154 -0.31532514 0.6116359 -0.09705318 -0.18211225 0.2351455 -0.32717377 0.4293452 0.3026968 -0.06999434 0.38019422 0.18751617 -0.07130875 -0.54059064 -0.14375904 0.14718443 0.09311649 -0.2729504 0.6025098 0.116904296 0.05682222 0.15105417 0.37859887 0.04855021 0.3864061 0.16387877 -0.10305069 -0.8766372 0.22011188 -0.7804296 -0.40462157 0.593242 -0.043782204 0.47823274 0.2955715 0.41324702 -0.334054 -0.084935404 -0.16690125 0.19839199 0.016784187 0.13920769 0.23548716 0.2796493 0.30273637 0.004128649 0.072601356 0.36419111 0.14788476 0.30632958 -0.14835632 -0.96480054 -0.118245184 0.4139779 -0.3663235 -0.5341605 -0.05144744 -0.10079564 0.005198664 -0.22561371 0.34150064 0.41706273 -0.053633254
2658 -0.36138743 0.123510644 0.39642984 0.1671346 0.11508841 -0.15344375 0.2254796 -0.4831853 0.07815921 0.17562212 -0.69677144 0.9005313 0.5655989 0.28539315 -0.26160836 0.36460766 0.14677542 -0.2674555 0.4210592 0.382478 -0.12936214 0.49362502 -0.77268845 -0.5470077 -0.11999436 -0.4449108 0.02950053 0.431442 0.08530309 -0.07266954 -0.017310532 0.20019488 0.61499435 0.38153836 -0.8726658 -0.15953681 0.32716513 -0.30839163 -0.10092417 0.6187365 0.64658916 -0.4815072 -0.21480343 0.9633214 0.5575035 -0.45040163 -0.17579834 0.083226226 -0.31122795 -0.26486087 0.32507005 -0.21105532 0.13828783 0.6911866 0.16958381 0.20325169 0.34230825 0.10821381 0.5918248 -0.8494717 -0.3071074 -0.16443263 0.108591944 0.18570152 -0.04184933 0.2487508 -0.091086425 0.41810894 -0.14493851 -0.95365363 0.52624965 0.16211045 0.2001996 -0.04182936 -0.075347394 0.44186884 0.721725 0.27690804 0.6042136 0.02009391 -0.4304883 -0.421795 0.35362893 0.0058838557 -0.1604483 0.1416903 0.6715388 0.6254973 -0.20913906 -0.19168243 -0.03845039 0.1039741 -0.5335996 -0.22626807 0.35329616 -0.14508319 0.33558735 -0.24774453 -0.08978735 0.65503615 -0.07426122 -0.3412386 0.2729238 0.27264014 -0.15766257 0.047217965 0.29234815 -0.43853736 0.36354613 0.82757825 0.18391743 0.57656175 0.21221724 0.1362822 -0.2268635 -0.7211863 -0.2383637 0.7375291 0.2026985 -0.4900173 -0.47135666 0.12743942 -0.16716528 0.24381831 0.7238221 -0.14282887 -0.13567021 -0.42830852
230879 -0.26017156 -0.13844098 0.4477831 0.39439207 0.14644216 0.00067051355 0.33944464 -0.37501052 0.12068106 0.18512933 -0.61244285 0.86460143 0.5062718 0.26616192 -0.15326272 0.27753133 0.12086123 -0.27638915 0.51535666 0.3245052 -0.26186475 0.46253625 -0.7888469 -0.503982 -0.14302032 -0.4537435 0.07635869 0.52491105 -0.026318133 -0.2451879 0.0013415596 0.06180839 0.51721346 0.33786866 -0.8422135 0.031234493 0.22389315 -0.23573346 0.076889165 0.6300615 0.53180164 -0.4844208 -0.2555086 0.97992396 0.5411176 -0.48876646 -0.2262981 0.04845351 -0.45723754 -0.30456343 0.29714587 -0.1599895 0.3078869 0.8107181 0.31342247 0.16309485 0.28751957 0.3344037 0.5193613 -0.79204303 -0.53912944 -0.11367608 0.051476527 0.20548436 -0.03598479 0.089714006 -0.09841845 0.36368677 -0.06321426 -0.94929254 0.38767385 0.3817772 0.10032031 -0.10027204 -0.15193887 0.48795468 0.76201236 0.127402 0.69493806 -0.21145166 -0.44981802 -0.29411328 0.30584282 0.14369887 -0.1549388 0.22372808 0.7145454 0.4930172 -0.11249203 -0.3731276 -0.21575724 -0.039708074 -0.6167208 -0.28612846 0.2511807 -0.08416393 0.4888383 -0.09381285 -0.20987953 0.53365797 -0.09483484 -0.49566647 0.44756106 0.2028255 0.06634062 0.090857565 0.23229255 -0.4312627 0.44091687 0.7296921 0.379511 0.5003304 0.13697207 0.2653994 -0.49050575 -0.51686925 -0.057472594 0.69984806 0.25374585 -0.5637012 -0.6114936 0.12880817 -0.15468064 0.39009982 0.78479534 -0.0076832767 -0.025638478 -0.5962534
2653 0.2586586 -0.5918799 0.31365374 0.28426743 0.55824906 -0.27429572 0.011037601 0.2501329 0.5377747 -0.36215657 -0.21981055 0.10052752 0.38656688 -0.14568491 -0.5065878 0.06866535 -0.22045816 -0.47442976 0.5945866 0.22760764 0.18493949 0.117487386 0.009128892 0.14880688 -0.061835308 -0.11734324 0.1366538 0.10729231 0.3619318 0.12312739 0.008994024 -0.14690492 -0.28017938 0.007833866 -0.062856935 -0.084483355 0.3991804 -0.01799915 -0.08413145 -0.044603396 0.2258443 -0.60535693 0.20661595 0.28228146 0.41345555 -0.16821256 -0.1691464 -0.087134875 0.36301932 -0.092497066 0.23134285 0.17429483 0.16551413 0.44400993 -0.031758107 0.38417965 -0.0836273 0.07711988 0.045907605 0.088844836 0.091609344 -0.22053692 0.38772023 0.5232908 -0.4418881 0.17484832 0.68352085 0.10644004 -0.16443154 -0.19354048 -0.07017928 0.16378844 0.15342702 0.28087842 -0.0010856604 -0.009871241 -0.18587732 0.16471459 -0.27584428 -0.22987877 -0.038468964 0.09230314 0.15996498 0.6621262 -0.086707346 0.5627459 0.36238393 0.44517088 0.20461014 0.3789093 -0.26249272 0.3613813 -0.63104093 0.08873262 -0.13667814 0.041192926 0.13706034 -0.27749908 0.4354576 0.29238695 0.071868345 -0.07919985 0.2396793 -0.20285192 0.19028418 0.006445762 -0.252875 0.2373581 0.22081603 0.9781141 0.23277315 -0.25261208 -0.32719755 0.25451744 0.038473096 0.08371485 -0.43133035 0.026875934 -0.030775433 0.10253885 0.177403 0.45627925 -0.14520013 -0.07750655 -0.77167946 -0.07515725 0.32722914 -0.38972864
2696 -0.3819063 -0.09790858 0.0017094035 0.62447363 -0.0934453 -0.025535371 -0.26314938 -0.2869005 0.16130203 0.26485312 -0.5109701 0.3397442 0.42852157 -0.0902476 -0.05572285 -0.16732456 0.59322214 -0.13814472 0.16575591 0.13431744 0.07503626 -0.09337727 -0.12955154 -0.69061345 -0.10622611 -0.12435591 -0.09013968 0.5147309 -0.09662203 0.2895346 -0.27466002 -0.20937885 0.10445617 0.72362417 -0.6652182 -0.32422256 0.42024392 -0.15523687 -0.12916128 0.007377219 0.38357612 -0.32777175 -0.25206077 0.7890766 0.12202558 -0.17760962 0.087179765 -0.3280759 -0.101954706 -0.14169163 0.3436153 -0.42231643 0.19961908 0.42098817 0.260526 -0.1250239 0.15771471 -0.15011014 0.009833534 -0.46901482 -0.3714024 -0.009371051 -0.33067226 -0.03687348 -0.04945435 0.28030166 -0.0868344 0.30695274 -0.2895702 -0.72075695 0.059665766 0.01473063 0.11997425 -0.40099865 0.013040147 0.6705201 0.31350103 -0.13295336 0.13521805 -0.18481125 -0.28137803 -0.3586942 0.12710413 -0.21906425 -0.16440596 0.43422452 0.24523892 0.3645141 -0.2833704 -0.15856983 -0.02513315 0.3849058 -0.78241235 -0.06293571 0.039661165 -0.32874104 0.51170784 -0.48472893 -0.039664764 0.65630215 -0.49737895 -0.5715993 0.2727391 0.011312448 -0.1789599 0.2982836 0.46260637 -0.4466792 0.079122014 0.28463718 0.27966237 0.29834086 0.4624621 0.40897182 0.19679235 -0.9419097 -0.30327475 0.111707434 -0.18503562 -0.6426539 -0.09102731 -0.04926541 0.029668692 0.2895856 0.034348786 -0.11756027 -0.34767187 -0.002576145
643221 -0.07952144 -0.2697378 0.27811316 0.312405 0.16433236 -0.10226138 0.09604306 0.5783329 0.51490164 -0.25536075 -0.33513904 0.4436131 -0.17833437 0.27855608 -0.43744564 0.31709352 0.068001606 -0.5821355 0.1830879 -0.3618305 0.73451734 -0.09687142 -0.8663627 0.020914085 -0.14244911 -0.03128747 0.51751626 0.08707346 0.20990162 0.46582338 0.52645665 -0.40485856 0.2830811 0.18487684 0.09925289 0.32338944 -0.031473413 0.4013252 -0.15590572 0.33998194 0.19778895 -0.35812038 -0.52791053 -0.33556777 -0.047838926 -0.104146756 -0.21586603 0.07002208 -0.76618546 -0.099925786 0.034037348 0.10787496 0.027017405 -0.028670399 0.074114315 0.2811078 -0.032798436 0.052031316 -0.22303289 -0.4429247 -0.7699374 -0.14696059 0.18425715 0.39208502 0.12515512 0.25420678 -0.13137668 -0.6390896 0.38586554 -0.68178487 0.0778567 -0.60461485 -0.33402058 -0.024890346 0.075523674 -0.4997222 0.30945006 -0.12599927 -0.15469544 -0.33090422 -0.10735207 -0.6299448 0.1794872 -0.28429374 0.672765 0.5360103 0.46913767 -0.20271298 -0.15914035 0.42726314 -0.23507217 -0.32326794 -0.9796769 -0.2645472 -0.8978288 -0.8203523 0.6315794 -0.19034798 -0.023088261 0.38237748 -0.12756142 -0.46332562 -0.13780047 -0.19198352 -0.12753431 0.8541054 -0.02077366 -0.3179867 0.5220866 0.6431433 0.50013417 -0.5325457 0.21846348 0.5528047 -0.29738265 -0.23986897 -0.723736 -0.09973972 0.36608356 -0.3353192 -0.36591488 -0.05086488 0.058006033 0.64305407 -0.33038905 0.18672137 0.30207923 -0.12051151
85352 -0.22317238 -0.15204349 -0.023945764 0.1725195 -0.14307445 -0.08610065 -0.10477301 -0.59523773 0.37154678 0.10416524 -0.017509133 0.1547743 -0.0032951352 -0.09575645 -0.30199814 -0.2013893 0.22708665 -0.16277109 0.04764962 -0.18354575 0.24941343 0.072422974 -0.3100253 -0.94862276 -0.03641711 -0.016746225 0.26432705 0.35672852 -0.03668376 0.052452266 -0.22418447 0.0109720295 -0.3232156 0.21169508 -0.83089244 0.271678 -0.20344228 -0.22152452 -0.30891928 0.03619701 0.79672474 0.16925049 0.15127495 0.3424755 -0.09353354 -0.02900185 -0.1957827 0.018472232 -0.6969262 0.33555916 -0.2409872 -0.15570463 0.01129265 0.78040487 -0.218382 0.24613136 0.3466336 0.07140461 0.38749576 0.08433176 0.0039867074 -0.029948933 0.42571142 -0.066514194 -0.10220644 0.39839348 0.47867474 0.2579482 0.13332619 -0.37246546 0.1379084 -0.17614324 -0.376975 -0.3980651 0.050715238 0.011352348 -0.20786971 0.09468828 -0.18496248 -0.18581383 -0.10739311 -0.5152925 0.26996887 -0.2486515 0.64065206 0.13077807 0.37315103 0.15539573 0.9698161 0.5341753 -0.55453676 -0.0029657115 -0.014050638 0.15363634 -0.027668547 0.1038166 0.16192691 -0.34274462 -0.09835812 0.22375719 -0.037713397 -0.38406596 0.0067334864 -0.08653968 0.009420191 -0.26145118 -0.002897059 -0.22758263 0.020721728 0.38138127 0.322213 -0.41101322 0.14709708 0.078415066 0.02886615 0.12388383 -0.19727783 0.55710065 0.6646475 -0.5220246 -0.64495313 0.30412072 -0.1300761 0.25716954 -0.27611315 0.018812107 0.004894399 0.3482673
23738 0.28551814 -0.50977755 0.38857704 0.21665081 0.4344946 0.10324343 0.28141785 -0.018064328 -0.06333366 -0.25359753 0.048928406 0.29271427 -0.28387743 0.2234813 -0.47901088 -0.09088204 0.10547029 -0.3798405 0.37497738 -0.2788669 0.051462185 0.3244946 0.28435457 -0.07986669 0.04789164 -0.019018065 0.32439613 0.36562383 0.44560376 -0.27514336 -0.16959493 0.051687527 -0.10717098 0.26961717 0.25178197 0.25286198 -0.2894714 0.18654056 0.423197 -0.24999303 0.124217674 -0.70576173 -0.583724 0.5019783 0.12336201 -0.11373346 -0.20082399 -0.15853539 0.1311676 -0.096648894 0.12081508 -0.21703874 -0.13216701 0.66633946 -0.12841472 0.13577376 -0.067708336 0.17405 -0.14895397 0.08077732 -0.333493 -0.10273535 0.4234328 0.256272 -0.32576025 0.03345764 -0.16206414 0.33853632 -0.25372535 -0.043924663 0.0040142243 -0.067738965 0.23682874 -0.30294105 0.11823377 0.22161557 0.21816778 -0.2707108 -0.43531883 -0.48907357 -0.13134179 0.16751474 0.10291104 0.04486699 -0.20736945 0.19454148 0.37891078 -0.16453318 0.5108215 0.16979238 -0.30474946 0.48612192 -0.4490674 0.25720543 -0.15144548 0.04356597 0.25118625 -0.020639498 0.23301299 0.13153648 0.491395 -0.083713785 0.3367569 -0.3529567 -0.010580881 0.7493276 -0.32257622 0.104161136 0.4789566 0.6333815 0.12158934 -0.032565903 -0.42111468 0.14951605 -0.03343411 -0.033675127 -0.406442 -0.31470332 0.5140365 -0.24957503 -0.14360535 0.10360392 -0.09492258 -0.14532 -0.017206695 0.6314004 0.12173105 -0.25049996
117 -0.005412508 0.26575434 -0.081387006 -0.20018047 -0.098173864 0.36770156 -0.30863377 0.19002007 0.049545236 0.20303102 -0.0037785764 0.031186432 0.13173975 -0.079146735 -0.40061715 -0.28150004 0.6241738 0.5281425 0.18622342 -0.26319075 0.15590726 0.11405539 0.15741795 -0.10988672 0.061121345 -0.40303272 0.09958871 0.20145974 0.22950856 0.12219855 -0.099867366 -0.3466093 0.112052165 0.29257298 -0.14882095 -0.048266187 -0.3269215 -0.18661259 0.1042184 0.1049477 -0.1722605 -0.42635182 -0.4436519 0.192536 0.12404118 0.21686862 0.017560903 0.15826064 0.3202342 -0.041159123 -0.18408677 -0.11615078 0.02450125 -0.025780503 -0.09300826 0.26276562 -0.25592455 -0.1627493 0.20279773 -0.09981649 -0.7922646 -0.13495077 0.3414552 -0.029302975 -0.041311413 0.32173306 0.29976857 0.2840103 0.19157271 0.057250824 -0.13413414 -0.31639692 0.6427996 -0.26602998 0.045010023 0.47934574 0.47650152 0.21517895 -0.2504687 0.0735917 0.3657089 -0.29360503 0.18112339 -0.35230374 -0.22797248 -0.08443936 -0.2087341 -0.014446502 -0.09254955 0.449221 -0.07780702 -0.13102834 -0.42575523 0.08917696 -0.31426415 0.09603425 0.072944075 -0.086846285 -0.031868223 0.50904155 0.43974498 -0.7077461 -0.22069979 -0.20909734 -0.0064093512 0.011558335 0.07087692 0.1813361 -0.11390129 0.56932473 0.04542706 -0.20582417 0.06274296 0.044063948 0.302625 -0.14356749 -0.9537612 0.18994372 -0.138405 -0.4276482 -0.31445906 -0.38102046 -0.07380249 -0.21535647 -1.0536968 0.54561156 0.3163686 0.1030221
1688 -0.19424978 -0.5575345 0.10824755 0.13492645 -0.045782145 0.09433438 0.54646987 -0.21440904 0.24971727 -0.13319406 -0.0980168 -0.0014340843 -0.12530902 0.32580948 -0.76827604 0.22463067 0.5678287 -0.34975916 -0.17583033 0.15545595 0.3419009 -0.16657417 0.32439414 -0.585973 0.23801318 -0.09644545 0.13309121 0.29837522 0.41748792 0.15600634 -0.006718686 -0.052268207 -0.24023591 -0.12715745 -0.78903896 0.44413227 -0.27761447 -0.12598595 -0.43245164 0.49268788 0.49829668 0.3037341 -0.20483732 0.52954787 0.026204461 0.20070755 -0.22651125 0.060027488 -0.43410242 0.26249656 -0.37228543 -0.005387119 -0.09243119 0.39612117 -0.4315987 0.26781583 -0.01240007 0.03710515 0.11382196 -0.027947135 -0.298276 -0.051428434 -0.079706155 0.07187577 -0.2643926 0.26209676 0.21373695 -0.037728645 -0.0119081605 -0.23575509 0.31133494 -0.12936658 0.059216015 -0.04160221 0.06806907 0.1400856 -0.08863725 0.015897324 -0.53370494 -0.06392393 0.1395787 -0.33938774 0.44064385 -0.035493962 0.3678519 0.10108163 0.2025323 0.29727933 0.47005954 0.67659795 -0.7351356 0.120936275 -0.15196258 -0.22113132 -0.035325244 -0.13543116 0.17161164 -0.51735765 0.11953722 0.41946155 -0.17907485 -0.36926287 -0.03666241 -0.025197115 -0.10508102 -0.055526447 0.11072577 0.090220004 0.102088824 0.4503307 -0.1417946 -0.35675234 -0.07882142 0.40530235 -0.467346 0.51947486 -0.27235335 0.6003164 0.5614641 -0.3728621 -0.762885 0.46141693 -0.16138709 0.19890305 -0.3153481 -0.020730022 -0.15500316 0.57785547
4804 0.22717498 -0.084928714 0.15888059 0.004997376 0.4113962 -0.02037085 -0.099443525 0.49305996 0.018114284 -0.07072707 -0.30856246 0.32674593 0.15031216 -0.45989782 -0.30385536 0.15692332 0.1261031 0.10930329 0.17529851 -0.22414033 0.38307822 0.36336708 0.026480386 -0.117135234 0.31467134 -0.45708248 -0.18442197 0.22041363 0.24229255 0.13392289 0.22348957 -0.17302456 -0.16808414 0.17937869 -0.10775853 0.094559446 0.3050977 0.0062864306 -0.07592598 0.05252402 0.43964818 -0.31577897 -0.37509316 0.26656586 0.22824667 -0.37969822 0.10927602 -0.13454148 -0.04274812 -0.49455228 0.31561896 -0.09975094 0.03810427 0.3784274 0.19584514 0.26203367 -0.4497438 0.22716872 -0.18444349 -0.03364636 -0.0272994 -0.2589898 -0.0321324 0.21826522 -0.29901516 0.20933571 0.09797988 0.695031 0.008952878 -0.36106086 0.16714154 -0.4527722 0.5288203 0.032032724 0.0625539 -0.060956825 0.32803482 -0.17535867 0.27001145 -0.4960271 -0.021075053 -0.34442586 0.056629498 -0.1822601 -0.42261085 0.28580853 0.23126216 0.442822 0.49003357 0.37705246 -0.79964525 0.1143121 -0.5890916 0.10544568 -0.24664444 -0.18231887 0.11241315 0.09428472 0.21601148 0.6202546 0.24166946 -0.12686741 -0.31175292 -0.49150646 -0.6208875 -0.21571872 -0.00054103794 0.38419247 0.13350192 0.8703275 -0.0017135569 -0.21131872 -0.22957255 0.2703663 0.0623143 0.110627785 -0.17747459 0.23946375 -0.26945248 0.009081028 0.64806974 0.3319427 -0.2583674 -0.1510959 -0.82888603 0.3795893 0.05847162 -0.45618486
10796 0.1402432 -0.33962363 0.15567364 -0.15879276 0.21711136 0.13147931 0.16946776 -0.22437572 0.22732252 -0.09207186 -0.3136381 0.32220808 -0.18692453 0.38088456 0.072395004 0.01796627 -0.21181695 0.29871556 0.2687875 -0.035762046 -0.07959527 0.05113339 0.20403732 -0.28081986 -0.028583057 -0.31117934 0.111111835 -0.11842078 0.2775923 0.21570961 -0.16662742 -0.42347458 0.032334723 0.44750482 -0.47058964 -0.040824797 0.5313979 0.13265127 0.538942 0.41650286 0.29074 -0.3196971 -0.356535 0.049147777 0.35150433 0.37492034 0.19207041 0.19588217 0.28803337 -0.22792232 -0.08648687 -0.4908399 0.38022983 -0.12110902 -0.096138604 0.63648075 -0.059621282 -0.3332801 0.1089166 -0.26406017 -0.7836957 -0.3164129 0.44175065 0.0843914 -0.13731115 0.23529132 0.033882923 0.1734341 -0.32993814 -0.56237555 0.09084547 -0.24193406 0.29489604 -0.32589617 -0.1581515 0.12502967 0.21979249 0.11580459 -0.8294635 0.3659201 -0.11908494 0.32978103 0.23919348 0.111527964 -0.036381867 0.23000035 -0.22348453 0.24366939 0.49317384 0.21578935 -0.18238726 0.118116185 -0.58187675 0.42936662 -0.12678464 0.4624056 0.1752545 -0.015258091 -0.17027682 0.03365601 0.20271474 -0.080395415 -0.16613272 0.01564821 0.2640574 0.31655854 -0.14470075 0.39429086 0.34782887 0.07871082 0.2124728 0.2674463 0.19001837 0.39007333 0.1403288 0.05665723 -0.11469731 -0.077989295 0.30176717 -0.24915425 0.2146955 -0.064943925 -0.29444042 -0.28682575 -0.029803524 0.34663433 -0.13838705 0.09985587
35922 -0.16162154 0.16562216 -0.14873254 0.2719124 0.25135517 0.25895134 -0.101183966 0.33337945 0.36036426 -0.049238343 -0.080712855 0.18074709 0.5095222 0.4108075 0.271917 0.14629012 -0.14839293 0.18477659 0.24064928 0.08779123 -0.0411373 0.25787684 -0.37344456 0.2120525 -0.07198983 0.0870539 0.24269228 -0.015528435 0.5713121 -0.2630989 -0.2036518 -0.1731724 0.10570027 0.8614082 0.19755837 -0.1661504 0.14794655 0.18835546 0.2680561 0.30982056 0.1930482 -0.4403754 -0.20907998 0.55236506 -0.028796582 -0.08095688 0.045283534 0.17421979 -0.04634026 0.09537101 -0.30870712 -0.2412404 -0.18517049 0.17293523 0.12536226 -0.040537134 -0.18501727 0.03501227 0.10316338 -0.07961877 -0.37359256 -0.49433175 -0.17611623 0.052516863 -0.38318107 0.29888684 0.7219393 0.51856846 0.123065986 -0.103206284 0.21771464 -0.024129244 -0.19113944 0.022500645 -0.18444058 0.24230096 0.5042158 0.34701118 0.18148692 -0.09567608 -0.21232466 -0.23269154 -0.06167068 -0.111526035 0.0512704 0.33160385 0.36913672 0.025034904 -0.22435623 0.35442048 0.018132696 0.2680803 -0.19520852 0.18314661 0.100113854 0.2740654 0.66798484 -0.3774785 0.4307635 1.1153235 0.04030452 -0.17292559 -0.15678519 -0.07800015 -0.58644754 0.17084338 -0.17150414 -0.19439971 0.1824115 0.5270803 0.084090136 -0.40308198 0.297106 0.37586775 0.46688005 -0.6522858 -0.29377216 -0.12191782 -0.35013476 0.099230364 -0.16037245 0.008519149 -0.50223994 0.056327257 -0.15885931 -0.2052448 0.41780612 0.2087746
3191 -0.0965144 0.014430236 -0.46514958 0.4438911 0.5069396 0.6150396 0.033598237 0.41974625 0.30760342 0.13233703 -0.23010966 0.5011117 0.29111987 0.2703288 -0.10239644 0.18054724 0.28654808 -0.009320101 0.3161161 -0.15941179 0.22666708 0.2544909 -0.3759644 0.20881227 -0.39574572 0.037751596 0.26360628 0.06176293 0.50270814 -0.1269309 -0.14697623 -0.52974975 -0.14649525 0.0014910484 0.07045134 0.039842445 0.1313701 0.091625586 -0.24150948 -0.2189549 0.32107398 -0.46003053 -0.43532258 -0.1076118 0.20275843 -0.2814277 -0.4140113 -0.37115622 0.2081114 -0.14853054 0.05815206 -0.08591566 0.19774202 0.65838844 0.15904315 -0.66083086 0.41527632 -0.27826473 0.013276614 -0.36073866 -0.21275632 0.09482593 0.2572116 0.27078855 0.072457045 0.46590605 -0.018870916 0.38032997 0.10105257 -0.31989452 0.13324998 -0.052174836 0.17238411 0.120858334 -0.009192481 0.51776206 0.17075631 -0.07259855 -0.19097322 -0.1674321 -0.23071706 -0.32087123 -0.425249 0.3180423 0.12153495 0.34931645 0.1567418 0.20417228 0.34136966 0.2930819 -0.07590033 -0.2645609 -0.8185677 0.3660132 -0.6416502 -0.6237053 0.6192408 -0.04079159 0.37280992 0.49123448 0.0761331 -0.02734484 0.28424862 -0.40018108 -0.07047569 -0.18160446 0.3133435 0.034284744 -0.06963251 0.35174617 0.32934138 -0.4226636 0.30795634 0.41037777 0.19403629 -0.18706946 -0.4635237 -0.26936865 0.4794324 -0.27449128 -0.29391482 0.051813275 0.1149292 0.21033187 -0.31899723 -0.06712913 0.49931362 -0.11769793
1481 -0.33803487 -0.3449277 0.30131614 -0.143766 -0.0069768163 0.21500014 -0.043879874 -0.28757927 0.7811755 -0.21290886 -0.30477822 0.5286812 -0.21571223 -0.032470204 0.19503233 0.13476479 0.088402666 0.29955807 0.07363746 0.16062342 -0.09906552 -0.2077788 -0.4129314 0.12451712 -0.39215183 0.21224555 0.0070120255 0.09806278 0.08203731 0.38641346 -0.17984231 -0.47364542 0.34885436 0.5358739 -0.011159705 -0.18265592 0.26937228 -0.16843656 0.13411011 0.7269847 0.26562795 -0.16169974 -0.0351472 0.41141522 0.74591905 0.1818025 -0.37017655 0.29455382 0.14275362 0.008581208 0.06822697 -0.4353376 -0.30752218 0.0010464481 -0.089927934 0.40201175 -0.07360181 0.041354116 -0.16259159 -0.09355448 -0.7766767 0.1425275 0.27235153 -0.061157994 -0.33004355 0.33739215 -0.17124616 0.57491964 0.22923617 -0.09970017 0.1990425 -0.2801884 0.044319633 -0.42598185 0.052780055 0.06300233 0.14513013 0.058344297 -0.46572006 0.014640564 0.5311513 0.18728964 -0.32934603 0.14401792 -0.44720736 -0.14622605 -0.32306048 0.4049962 0.38575885 -0.07971645 -0.6668181 0.046265274 -0.35831 0.048290256 -0.45786476 -0.36239672 -0.28460643 -0.04358787 -0.33214578 0.028610393 0.20391634 0.14907007 -0.13490795 -0.23096415 0.0006406609 -0.15654072 -0.386807 0.24324332 0.16171944 0.5042172 0.26553676 0.3740776 0.38770548 0.050812375 -0.23260117 0.43783742 -0.24494517 -0.0996626 0.23694555 -0.19052993 -0.45132905 0.1698306 -0.43378347 0.39188865 -0.23502326 0.109068334 0.38209987 -0.3001315
16819 -0.025776679 -0.2927854 0.18868667 0.32090214 0.29014206 -0.13920309 0.17808351 0.32450646 0.40484998 -0.06820478 -0.25402328 0.5548552 -0.16145174 0.38960272 -0.42909318 0.35589442 0.14225502 -0.36330807 0.1000041 -0.55971503 0.62943995 0.012189177 -0.9722336 -0.20773421 -0.07450221 -0.13090126 0.6016954 0.1439225 0.12597406 0.30334884 0.5164892 -0.48249215 0.37625524 0.16338402 -0.19284134 0.46089157 0.14484711 0.15771687 -0.22307399 0.21821731 -0.031585608 -0.39699462 -0.43574247 -0.15024132 -0.017278153 -0.14074817 -0.18956287 0.17903596 -0.82797986 -0.06960603 -0.06763538 0.25542733 0.09754189 0.05644957 0.09071395 0.20583192 -0.02138996 0.2773999 -0.11901522 -0.36781287 -0.6612429 0.11109377 0.2806978 0.5186814 0.0051875506 0.3868202 -0.10157846 -0.7433755 0.14881569 -0.7256285 0.25841993 -0.5683269 -0.18027604 -0.013064664 0.07795629 -0.51337904 0.16399309 0.1095151 -0.013440169 -0.082689695 0.019905953 -0.5483043 0.24014533 -0.31480333 0.46074665 0.5044675 0.53545076 0.023678703 -0.20015071 0.39591578 -0.2699047 -0.19615223 -0.8334578 -0.2104428 -0.75576323 -1.0507643 0.92550564 0.016587162 -0.044011645 0.27961382 -0.3289704 -0.5175772 0.2068282 -0.01095208 -0.0626706 0.8202702 0.0041551953 -0.39470094 0.4072287 0.414352 0.39180666 -0.39541462 0.21153414 0.44966325 -0.34047905 -0.36613134 -0.5161332 0.1697828 0.1665905 -0.26900214 -0.30470088 0.04301615 0.039625302 0.6427504 -0.41503692 0.021407425 0.22622448 -0.24020398
4335 0.17107275 -0.055801556 -0.09700267 0.37361082 0.2923918 0.60196483 0.09151535 0.7173243 0.3413873 -0.1512708 0.051626764 -0.1347835 0.10933357 0.23698968 -0.076534666 0.045305353 -0.01226929 -0.040709164 0.14385991 -0.36013713 -0.06585829 0.14511146 -0.42443675 -0.034313403 -0.07295769 -0.31274801 -0.042674173 -0.08972042 0.27856803 -0.08150662 0.09129398 -0.14005388 0.31171417 0.78633136 0.23381263 0.15413342 -0.11067761 0.15987268 -0.078540154 -0.21929848 0.41460747 -0.6663928 -0.07046853 0.60238975 0.25955668 0.028833194 -0.34135765 0.006854505 0.1511279 -0.18364476 -0.31302586 -0.50461555 -0.10374765 -0.0051853 -0.20391595 0.14787138 0.019808225 -0.05736449 -0.10857215 0.18529014 -0.5475643 -0.012299319 0.27098227 -0.019083748 -0.46403983 0.07167006 0.43612272 0.2264163 0.05039095 -0.042895015 0.27475086 0.112866975 -0.20239936 -0.3740503 -0.105680704 0.4784086 0.2925396 0.11291595 -0.10124447 -0.1101379 -0.4574564 -0.19223931 0.16688408 -0.02469787 0.13213825 0.634466 0.28581318 -0.08531227 -0.10448922 0.11397587 0.1497341 0.44589815 -0.68866116 0.025580505 -0.056923963 -0.007177963 0.4927856 -0.42183203 0.5793862 0.9745165 1.3632773e-05 -0.42220452 -0.104435556 0.10348127 -0.3994908 0.43496904 0.08691958 -0.18150567 0.1871045 0.9670799 0.3004147 -0.44538447 0.039612036 0.27053237 0.08941837 -0.6893825 -0.1496754 -0.24551244 -0.21564478 0.14111248 0.018662976 -0.16742413 -0.00021601115 0.2505217 -0.2723184 -0.021141302 0.40676948 -0.08014375
5348 -0.3398742 -0.12826762 0.17767565 0.64454937 0.001582672 0.031182019 -0.15825513 -0.24672738 0.15014157 0.293633 -0.47735795 0.36125067 0.32779902 0.06348199 0.035956547 -0.13756095 0.6716763 -0.056711156 0.15136483 0.23497224 -0.20852181 -0.025775686 -0.043914407 -0.6095722 -0.19882788 -0.18117726 -0.061459374 0.71725655 0.07230315 0.14584199 -0.41799912 -0.09402563 0.20391063 0.6644502 -0.7510692 -0.042956855 0.19739872 -0.19351298 0.028197939 0.023442095 0.46063843 -0.31756127 -0.21400838 0.8437377 0.2175542 -0.007769012 0.1803259 -0.34852234 -0.19413182 -0.123234175 0.15075096 -0.2784813 0.2536154 0.55174637 0.3250873 0.042057026 0.057526037 -0.1698008 0.12506592 -0.53854215 -0.39305475 0.2219048 -0.24421939 -0.108019456 -0.2885575 0.25283173 -0.10957906 0.26496586 -0.3068183 -0.6853381 0.26300254 0.15940236 0.26774865 -0.3388707 -0.1361259 0.8404595 0.4648458 -0.09034822 0.18370433 -0.19541314 -0.34536594 -0.25906852 0.18762714 -0.19542041 -0.26751888 0.4894664 0.15072317 0.49133542 -0.36426386 -0.13983005 -0.042981327 0.3205666 -0.84318227 0.0034430474 0.090736344 -0.46454325 0.33869758 -0.52132565 -0.15134151 0.6632938 -0.3317182 -0.50500554 0.2014708 -0.07579501 0.04403885 0.14923061 0.35317984 -0.5987386 0.05317065 0.39392418 0.25664192 0.34678242 0.5469486 0.47978067 0.060551535 -0.97821546 -0.16001987 0.235777 -0.12527776 -0.810649 -0.44103923 0.034390327 0.19312218 0.25310385 0.2887724 -0.052887607 -0.26274043 0.08355111
39127 0.09661766 -0.13998125 -0.03193524 0.29313388 0.07346739 0.6668068 0.2121897 -0.22760217 0.65589744 -0.50149673 -0.31852815 0.38483804 0.030389426 0.43821856 -0.48427275 0.08526098 0.042662382 -0.12300877 0.19474724 -0.009902008 0.21045819 -0.043246273 -0.542407 -0.3696923 -0.30527976 0.08111519 0.2560407 0.19571492 0.102997296 0.6512599 -0.17266387 -0.4049293 0.2758191 0.19525944 -0.5355832 0.3173459 0.44899955 0.1599267 -0.2692693 0.27300516 0.6840235 -0.2113112 0.0709873 0.25408882 0.13026556 -0.11421362 0.43150783 0.0890749 0.5300543 -0.04285878 0.31762928 -0.47314367 0.10957988 -0.025263716 0.23478088 0.03052218 -0.047243726 0.4086008 0.15662216 -0.61297965 -0.5962378 -0.49676883 -0.22821176 0.35156628 0.06175794 0.26269904 -0.2673174 0.5487876 -0.64682746 -0.2865971 0.060853206 0.24429247 0.12616803 -0.12831299 -0.068787806 -0.18311015 0.014056081 -0.12200449 -0.6819907 -0.36230838 0.49160013 -0.70673466 -0.2035643 0.16468339 -0.43409812 0.3312898 -0.08086819 0.058639392 0.42067394 0.40176415 -0.50578004 0.08833124 -0.06638631 -0.18270016 0.25006622 -0.05787327 0.39022762 0.026470594 -0.12417091 -0.081627354 0.28554836 -0.40049133 -0.085930005 0.16824774 0.03846394 0.45912972 -0.40157548 0.013831505 -0.1905064 0.79681313 0.36924937 -0.15727298 0.19807087 0.36508164 -0.25643167 0.34067133 -0.09192443 -0.13354385 -0.16419898 -0.24916646 -0.05467751 -0.03608189 -0.11828166 -0.20620492 -0.39222592 0.65711164 -0.56933767 -0.33101177
6334 0.21084893 -0.4817592 -0.06821322 0.35377273 0.5672185 0.3253822 0.28410032 -0.021607392 0.4776004 -0.088933386 0.26939097 0.099243745 -0.14150506 -0.23033781 -0.188645 -0.119214624 0.21530576 -0.31569174 0.33207208 0.06887189 0.053967267 -0.2355124 -0.25600913 -0.33872718 0.17692982 0.0071237185 0.007027954 0.12690058 0.21094225 0.31310824 0.13412338 -0.36285317 -0.17717648 0.054347124 0.09640391 -0.15439771 0.16784513 -0.08635125 -0.29489478 0.5587719 0.20060895 -0.33679813 0.044322528 0.3208868 0.013476818 0.12409737 -0.036600918 0.1703533 0.039737742 -0.094446056 0.01609433 -0.06409427 -0.028602066 0.21628271 0.085318744 -0.19247167 0.09905489 -0.026791662 -0.15241362 0.0068301153 -0.76288384 -0.09524998 0.4692931 0.53516334 -0.18524995 0.367567 -0.018471666 1.0893934 -0.037815318 -0.23298031 0.03336516 0.1631148 -0.15400167 -0.32608303 -0.25675836 -0.2609255 -0.2190143 -0.12410496 -0.6452679 -0.4382079 0.397059 -0.34236825 -0.3108958 0.36981964 -0.39805803 0.18543771 0.062281314 0.08131603 0.51129985 0.22428776 -0.6562948 0.36150527 -0.28338435 -0.0037726017 0.08614135 -0.19559287 0.087922156 0.1563164 -0.41822135 0.35019907 0.05062998 -0.3339366 -0.28457835 0.3795182 -0.06632265 -0.17323942 0.13915682 0.103997 0.07878424 0.7111481 0.35866785 -0.15797363 -0.3161601 0.4902358 -0.24621299 0.2347234 -0.03890807 0.0033240193 0.5490102 -0.021842947 0.24373056 0.35793376 -0.619522 -0.18570001 -0.34482783 -0.06680835 0.03253603 -0.13931145
210871 -0.059842963 -0.24849968 -0.11459571 0.26385558 -0.11609594 0.073346555 0.085944615 -0.25360855 0.01508415 -0.13448633 -0.095250726 -0.05156533 -0.07013228 0.018300882 -0.77740145 0.14974521 0.28157035 0.2421315 -0.14127235 -0.29299045 0.237912 0.11753825 -0.061567865 -0.32251278 0.34806812 -0.04460868 0.1935278 -0.10633826 0.015177637 -0.064174235 -0.02140581 -0.041469406 -0.28932083 0.15827897 -0.56778044 0.058309514 -0.08417661 0.19940424 -0.14267924 0.92094874 0.71710074 0.09823205 0.16762628 0.6808725 0.07406691 0.58609354 -0.31505412 0.3050452 -0.34497416 -0.25196475 -0.13465145 -0.091373555 -0.22138552 -0.0012983734 -0.103920005 0.10556533 -0.0866113 -0.15771338 -0.11338236 0.07274132 -0.21552746 -0.19262102 0.20075962 0.08747158 0.052897625 0.510071 0.64969265 -0.08784882 0.2856766 -0.4583894 -0.2601044 -0.55476636 0.09516815 0.23264448 -0.16810349 -0.14908859 0.05944294 0.2802279 -0.10523401 0.57118773 -0.02437223 -0.14902343 0.14267567 -0.47954822 0.22464122 -0.0019950548 0.32620183 0.20487444 0.8140248 0.38687894 -0.35829926 0.20546709 -0.26160416 -0.030151092 -0.09262549 0.59632635 0.16954398 0.2690962 -0.09259303 -0.025016977 -0.05438101 -0.48288798 -0.15926151 0.19673271 -0.1934347 0.03550557 0.26089028 -0.18201658 -0.48410192 0.20043355 0.33809158 0.033259157 0.052443814 0.29033646 -0.18757455 -0.27243507 -0.43032166 0.37882534 0.31481254 -0.31304476 -0.22409269 -0.16112193 -0.19295532 0.28593674 -0.09167878 0.45626578 -0.18275906 0.19383313
35061 -0.30330798 -0.09754843 -0.114874214 0.13131078 -0.33200842 -0.09069973 -0.1391547 -0.017842876 0.25429985 -0.07434244 0.16665165 0.30807933 -0.06488006 0.29887703 -0.6920664 -0.13121685 0.107166044 -0.12547198 -0.08635228 -0.26063234 -0.1047841 0.41603735 0.010182566 -0.40934113 -0.07903106 -0.2140275 0.2841716 0.3418329 -0.005087696 0.21663436 -0.23913652 -0.06843505 -0.5099747 0.44299668 -0.22592427 0.44963157 0.20534198 0.24223448 -0.30736688 0.47065696 0.6274232 0.35351846 0.05857749 0.6749245 0.15041037 0.15782736 -0.11771208 0.08930703 -0.17098807 -0.29116967 -0.27849293 -0.036260817 0.1378502 0.3295899 0.06673871 0.5215353 0.24280381 -0.31415698 0.26732838 0.25456896 -0.24993835 0.10676265 0.010973875 -0.18190041 0.1592836 0.19609813 0.6611628 0.06190361 0.17743537 -0.6886321 0.024102595 0.004219205 -0.16059527 0.20445812 -0.12239853 -0.23816212 0.12117622 0.31260395 -0.13706046 0.48171067 0.25824246 -0.10598909 0.20239739 -0.6963515 0.5300474 0.24282372 0.28873226 -0.22763513 0.48379502 0.2621649 -0.47641736 0.113577604 -0.024553956 0.3344802 -0.14966097 0.28156325 -0.085411124 0.008468034 -0.022343703 0.5187647 -0.056488648 -0.24840151 0.07139849 -0.02477015 0.1848397 -0.22986192 0.04715353 -0.020506738 -0.09913232 0.3430187 0.4116227 -0.2426584 0.12827428 0.09003235 -0.24537425 -0.28543648 -0.17303786 0.16637228 0.043413043 -0.62803215 -0.51645553 0.05589701 0.11415292 0.2413537 0.17053995 0.3421875 -0.06979761 0.16208689
3218 -0.03689263 -0.438607 -0.0681124 -0.030151917 0.25530002 0.41607684 0.4089697 -0.24044643 0.7652948 -0.37234044 -0.20342351 0.3164974 0.12493013 0.5745772 -0.14645769 -0.027872082 0.10759906 -0.096633956 0.38226378 0.022641737 -0.06413714 -0.10911829 -0.21601188 -0.3451768 0.01647509 0.18689744 0.742436 0.058972795 -0.07809 0.17159964 0.122080676 -0.24121517 0.15367733 0.36992013 -0.3063707 0.6396344 0.17388934 -0.2245712 -0.0037304019 0.09170735 -0.110667914 -0.63890827 -0.19675401 0.16642366 0.60279894 0.08877864 0.005699505 0.13428454 0.27376544 -0.2748327 0.059397344 -0.04530328 -0.32482034 0.13828352 0.17585932 0.37885427 -0.2801311 0.2525031 0.08123344 -0.42218295 -0.516665 -0.29842353 0.17907743 0.31257838 -0.09604569 -0.037202764 -0.01882613 0.40160167 -0.41631547 -0.16732828 -0.003180861 -0.2624154 0.25247237 -0.08892869 -0.09696243 -0.18521301 -0.051954847 0.026951052 -0.6558385 -0.5848947 0.22292587 -0.38104972 -0.00016211807 0.003761606 -0.4557928 0.15666106 0.06804204 0.15682432 0.44221967 -0.11893317 -0.8551589 0.27201897 -0.06741181 0.085219175 0.019303678 0.27894607 0.17634332 0.10464801 -0.13118586 -0.23593453 0.48069283 -0.13726163 -0.046370935 -0.19591689 -0.037892632 0.7099437 -0.1503799 -0.020868722 0.11706681 0.8072547 0.3047329 0.29905355 -0.3486196 0.28874272 -0.60035753 -0.049604006 -0.037580416 -0.07712529 0.0521019 -0.29685277 -0.537487 0.14112964 -0.2500187 -0.3606625 -0.16713716 0.39040098 -0.51659983 -0.1671349
10177 0.067925364 0.04804123 0.06816846 -0.04452893 0.50557905 0.08487684 0.114920504 0.24953385 0.23422778 -0.0548729 -0.42854092 0.20227146 0.32287687 -0.38408715 -0.3314088 0.051986523 0.17905061 -0.05229959 0.3009153 0.36321434 -0.0536585 0.06495012 -0.01261357 -0.14625947 0.40639818 -0.48424035 -0.2518311 0.36614785 0.07558673 0.31190613 0.23328072 -0.22117952 -0.3450546 0.11852529 -0.004048575 0.3041489 0.26788843 0.20549081 -0.04067307 0.41603485 0.44590616 -0.18830648 -0.34968427 0.4217166 -0.073818885 -0.39258295 0.16559754 -0.018052392 -0.058323704 -0.48176306 0.34885857 -0.34468707 0.005173731 0.42557985 0.36166015 0.35614988 -0.24854203 0.70894116 0.18331848 -0.19575852 0.068197064 -0.15288942 -0.025231266 0.2927797 -0.31741703 0.5398494 0.23699626 0.7518457 0.0010049397 -0.28377497 0.46490756 -0.48954362 0.21866748 -0.05437244 0.03556971 -0.08706206 0.18960567 -0.26334226 0.15805459 -0.542754 -0.26496276 -0.3323236 -0.18181166 -0.2786008 -0.42186186 0.21503094 0.25506577 0.26755327 0.4446714 0.35391098 -0.88463 0.048848122 -0.7815783 0.04181589 0.046157204 -0.3380205 0.041873664 -0.07538673 0.17260574 0.28619817 0.24907121 -0.30205566 -0.32674596 0.0082338825 -0.4062385 0.1765577 -0.08192125 0.46224883 0.18198834 1.0668298 -0.12847732 -0.15122825 -0.026054882 0.25653422 -0.070381895 -0.03750359 -0.09061777 0.12232688 -0.02708683 0.010972487 0.5650368 0.21228871 -0.53378844 -0.17900127 -0.66159964 0.16806103 0.000694175 -0.43533507
642894 0.16605803 -0.081660405 0.32939732 0.3981584 0.10150978 -0.20995669 -0.020998748 0.4113541 0.34765643 -0.25756675 -0.37707242 0.36528194 -0.3500272 0.24290356 -0.6172111 0.22792421 -0.14094159 -0.54565364 0.22641568 -0.308685 0.53519464 -0.2045419 -0.79579544 0.02658313 -0.0023097678 -0.028972147 0.42057985 0.37311608 0.3724951 0.4848672 0.48517635 -0.5329416 0.34799495 0.27986494 0.021008668 0.52887815 -0.07650619 0.109148934 -0.330774 0.5468122 0.38042423 -0.5401577 -0.445746 -0.3066191 -0.17771538 -0.32168362 -0.2475977 -0.11466015 -0.93710047 -0.24937163 -0.14537564 0.07645493 0.011325262 0.027241854 0.113938965 0.40637678 -0.06737668 0.17066945 -0.07888862 -0.37393874 -0.98168045 -0.29296252 0.06956873 0.30993968 0.07907474 -0.014661586 -0.17030416 -0.59152406 0.490338 -0.8601181 0.15542316 -0.6093136 -0.043385267 -0.023365917 -0.010006145 -0.38212752 0.22217742 -0.08344282 -0.23581246 -0.23768137 0.03462948 -0.52708226 0.17478211 -0.41531086 0.62780035 0.47352427 0.35064277 -0.34987143 -0.18730848 0.40731493 -0.22811432 -0.54227895 -0.80893 -0.48588315 -0.7574595 -0.7553931 0.7359845 -0.005595544 -0.27965897 0.1891277 -0.41467655 -0.7074888 0.06845993 -0.1393309 -0.0004406324 0.8693884 0.038165372 -0.08243994 0.45920792 0.77638566 0.4531746 -0.5714362 0.4737679 0.5901989 -0.274223 -0.29706472 -0.64321274 -0.10955054 0.25057465 -0.49050495 -0.40386543 0.08422711 0.14085416 0.61336815 -0.26887983 0.15124257 0.35776162 -0.15223037
54129 -0.2259097 0.15380822 0.53640246 0.083513886 -0.2163084 -0.051887967 0.2556862 -0.41305035 -0.15723422 0.36181042 -0.06513423 0.06360606 -0.2556093 -0.24597247 -0.4803678 -0.05140505 0.25244224 -0.07091834 -0.29745066 0.021137694 0.11347326 0.20509154 -0.23093243 -0.3570907 0.010863289 -0.31916603 0.48158303 -0.038759433 0.23035763 0.021870824 -0.15344319 -0.038633466 0.030936908 0.2788342 -0.60375804 0.13936143 0.04265058 -0.054612584 -0.51130366 0.5761526 0.41649774 0.3826142 -0.05757841 0.08740188 0.3499561 0.23828007 -0.09583765 0.07615434 0.06998205 -0.3734263 -0.20136395 0.1492835 0.35916123 -0.008566947 0.06906383 0.19508544 -0.0595102 -0.15063563 0.075488836 0.28709352 -0.5552471 -0.38478705 0.5149828 0.28125307 0.018800888 0.6555905 0.43925288 -0.2938943 -0.07838191 -0.5130394 -0.37976536 -0.25493124 0.028275354 -0.1860871 0.27417704 0.04926335 -0.029263154 0.10596531 -0.016114844 0.0100534605 0.03870051 -0.53535455 0.3401464 0.038521565 0.046278857 0.012659199 0.23921299 -0.4247357 0.6606807 0.72861075 -0.8652589 0.30176437 -0.28673312 -0.10367963 0.12127098 -0.005970506 0.5550156 -0.35713515 -0.2390805 0.8869984 -0.1752761 -0.51200444 -0.105473466 0.42643604 -0.044891562 -0.055425107 0.2548723 -0.121437386 -0.07753264 0.57130575 0.29425886 -0.34325415 -0.048755728 -0.0001619928 -0.0108076995 -0.0975654 -0.57624286 0.7274288 0.59718955 0.014317549 -0.4732096 0.29687607 -0.109588735 -0.3142352 -0.41605005 0.23618154 -0.18067099 0.21066469
54131 -0.21158691 -0.036609024 0.333286 0.61330026 0.23663738 0.16551751 -0.1612295 -0.06839396 0.44357 -0.14228359 -0.031180812 0.053751543 -0.14815632 0.123920605 -0.46701872 0.21750413 0.17263196 -0.2610429 -0.17685531 0.18921098 0.07856146 0.10784162 -0.08638061 -0.07501504 0.2417217 -0.13531601 -0.120141104 0.077773176 -0.1049013 -0.12581855 -0.092669755 0.18104309 -0.31350446 0.10321899 -0.62888175 0.12834063 0.3556176 0.21660572 -0.59215415 0.3216925 0.5928076 0.2848176 0.26922122 0.2746115 -0.18126227 0.27154636 -0.071563 0.30341327 -0.086816445 -0.20947927 -0.19602138 0.17343205 -0.012226695 0.13019542 -0.020014828 0.2494117 0.042545404 -0.23464417 0.07771182 0.0150558995 -0.29368356 -0.14310127 0.62973315 0.012686627 -0.13072065 0.65350825 0.035586156 -0.11317258 -0.20564045 -0.22999601 0.038168117 -0.38213605 -0.028041033 0.024672905 0.21652527 -0.06070707 0.11866844 0.057958048 0.0016305814 0.2994373 -0.09580635 -0.24832414 0.26357463 -0.1931181 0.32810888 -0.0767171 0.13781436 0.016011944 0.5897944 0.3122269 -0.3993317 0.47978422 -0.20633677 -0.08727492 -0.18602693 0.1109013 0.26566535 -0.104712576 -0.008305365 0.6164546 -0.44715098 -0.73720604 0.016392155 0.29216215 -0.4064574 0.14416783 0.4073142 -0.25461292 -0.65140134 0.34695855 0.35683456 -0.6597378 0.13369492 0.30874142 0.018516678 -0.096760154 -0.2812135 0.5190266 0.3503673 -0.68680024 -0.74673545 0.3012244 -0.0434445 0.24630275 -0.37827256 0.19504537 -0.35569787 0.4021511
35797 -0.064642236 -0.18540077 0.1688611 0.53628373 0.43779966 0.027084656 0.087208055 0.31605142 0.16428149 0.46839866 0.022974877 0.19478022 -0.21236782 0.12660295 -0.018496038 0.04395253 -0.06850717 0.042632814 0.37405613 -0.4753358 0.22062689 0.28585625 -0.2507638 0.20391114 -0.31760478 -0.032085944 0.23673308 0.67363626 0.18966879 0.030073153 -0.629654 -0.42003804 0.14108352 0.06146335 -0.11672987 0.3518931 0.0626399 0.0103514055 0.3782927 -0.07857848 0.5119673 -0.03780492 0.077075526 0.6159439 0.18425551 0.20990928 -0.3458022 -0.10965552 -0.12827891 0.1366431 -0.30964294 -0.027505254 0.36269346 0.74217105 0.014627494 -0.2743454 -0.15441616 0.30698 -0.26960838 -0.12155162 -0.46712956 0.25151962 -0.16323303 0.22851467 -0.120420806 0.22746114 0.1949193 -0.0460191 0.05482247 -0.43977427 -0.30483177 0.3218816 0.048749026 -0.094245575 -0.33511072 0.6937712 0.27853534 0.13284568 0.03831478 -0.3177288 -0.12021533 -0.025528094 0.12693131 -0.3259988 0.21237217 0.18741015 0.22903341 -0.17664488 0.14469244 0.1121998 -0.3300431 0.4769613 -0.5482326 0.15255572 -0.2615606 -0.03264154 0.034774274 -0.16237357 -0.29768994 -0.009804332 0.066622704 -0.23362976 0.66951954 0.33226767 0.2908861 -0.0794252 -0.24947907 -0.2855429 0.13252215 0.6744715 0.09652709 -0.32178712 0.19524406 0.72986424 -0.3604078 -0.39224923 0.12867033 0.18042938 0.03803324 -0.35137305 -0.6359629 -0.040541973 -0.005690773 0.13837019 0.5105661 0.19271027 -0.20405738 -0.08270344
34257 0.08131748 -0.67702353 0.1990537 0.291883 0.085678875 0.024629636 -0.09907914 -0.011385132 0.2417333 0.13372979 -0.105859764 1.1890092 0.0764888 0.41708246 -0.0034832738 0.5988226 0.35405004 -0.029353468 0.0087931715 0.14224516 -0.28627378 0.41412997 -0.2898104 0.08383798 -0.032382917 -0.6297098 0.3757914 0.5366648 0.3480229 0.33998758 -0.25781125 -0.5051737 0.3390545 0.38746485 -0.34136125 0.039138827 0.027160978 0.10011637 -0.49934334 0.69348884 0.1640447 -0.27921575 -0.8772418 -0.1270517 0.13428366 -0.08030416 -0.030784644 -0.17963788 -0.37104863 -0.8651423 0.18331961 -0.32079947 -0.056794386 0.64969814 -0.27377978 0.06329434 -0.627143 0.1819357 0.23234574 -0.34454903 -0.56371003 -0.4580415 -0.11404952 -0.07034607 0.41328764 -0.2754928 0.07292101 0.37674195 -0.3680775 -1.0685235 0.33466342 -0.2392279 0.19088987 0.057744727 0.5905539 0.16197462 0.28629506 -0.014422259 -0.30134854 0.20927452 0.4446448 -0.31637558 -0.1656348 -0.5127891 -0.17627825 -0.28967166 0.2559148 0.21862987 -0.4891296 0.18085866 -0.5725716 0.17954187 -0.5106643 0.39548394 -0.121577695 0.28859368 0.32104912 -0.11731104 -0.23469643 0.40202388 0.1659843 -0.03395229 0.1224331 0.34833413 -0.08682191 0.5193549 0.0766526 -0.19817072 -0.013292281 0.583475 -0.43564644 -0.20056374 -0.090590514 0.7182446 -0.718597 -0.38218954 -0.88053113 0.5843564 -0.07858098 0.0033699526 0.04194803 -0.288003 -0.3478003 0.0015998221 0.014064879 0.73459685 -0.29359308 -0.45075706
38205 -0.19535565 -0.14791241 -0.06463336 -0.19391645 -0.23933566 0.027296217 0.0053706 -0.270152 -0.0007635776 0.20359279 -0.057024773 -0.14318222 -0.3144102 0.01569174 -0.65030754 0.19504288 0.19840617 0.2775021 -0.2069471 -0.123984315 0.2851603 0.29815567 -0.04274657 -0.22180587 -0.076610625 -0.061306905 0.14376724 0.17592308 0.21907565 -0.06941923 -0.0036058861 -0.07828749 0.05006647 0.20949154 -0.6034791 -0.05369018 0.06389318 0.14167114 -0.29079443 0.85885227 0.51064235 0.14867269 -0.17980035 0.6015342 0.17993575 0.46648526 -0.49220118 0.34979266 -0.15163298 -0.17333034 0.067839645 0.16626474 0.20408607 -0.005632065 -0.3952101 0.20651695 0.057292935 -0.19771749 -0.062317237 0.32016304 -0.62878096 -0.20024583 0.3614518 -0.05949896 0.0610716 0.6457807 0.7542775 0.05870182 0.31711504 -0.50942385 -0.1625319 -0.56735516 0.17761879 0.058043182 0.1225878 -0.09971419 0.35059828 -0.044167746 -0.34429064 0.5315658 0.06257077 -0.4154017 0.3336592 -0.25045645 0.067065254 0.15860866 -0.09680189 -0.21975495 0.5122277 0.29647946 -0.8110486 -0.11082894 -0.4237472 -0.050327554 -0.16881783 0.35913292 0.13249984 0.0807792 0.1274729 0.32854456 -0.042267416 0.0021729064 -0.4889078 0.24778542 -0.08304947 0.124724396 0.08080998 0.02922258 0.006657552 0.23306912 0.5890462 -0.03286167 0.06338741 0.39278594 0.031995166 -0.2677261 -0.2853883 0.48274812 0.30733413 0.18380769 -0.24821143 -0.019926995 -0.092424914 0.005526134 -0.04673185 0.16416994 -0.40627474 0.41741887
2654 0.5767689 -0.41431028 0.21155648 0.21408479 0.6422339 0.068384945 0.17857842 0.31664515 0.05972905 0.078533486 -0.15353185 0.39179158 -0.033749398 0.010294949 -0.3485765 -0.049279705 -0.12467815 -0.3349849 0.36501992 -0.33793607 0.22325069 0.34539285 -0.37943986 -0.023447571 -0.4282897 0.072718695 0.13716161 0.09432064 0.6018512 -0.009793154 -0.095562965 -0.111514576 0.15441847 0.0598433 -0.29292992 0.07456682 0.15243466 0.2929522 -0.14105973 0.028404979 0.33518103 -0.7095876 0.30099833 0.5817369 0.44894028 -0.11654675 -0.20016417 -0.35297936 0.5641535 -0.15840626 0.05662168 -0.16079488 0.40614548 0.677253 0.34795326 0.37450176 0.20127314 -0.06369241 -0.11979021 -0.15753922 -0.040196445 -0.26597416 0.3304682 0.7221681 -0.07353786 0.07598038 -0.1322373 0.2546842 -0.03096138 -0.3873051 -0.45128447 0.35722706 0.22373028 -0.0008078332 0.024438275 0.192316 0.008666601 0.019483665 -0.32641354 -0.15345892 -0.12953565 -0.010867751 0.23067202 0.50276285 0.16837941 0.06789977 0.44222343 0.53856874 0.446459 0.30722126 -0.28903008 0.3678686 -0.39076632 0.0067285285 0.2802684 -0.11792746 0.3049551 -0.1323808 0.29124084 0.4304576 0.08901438 -0.12816478 0.4589268 -0.06058285 0.4257835 0.13270067 0.18263374 0.40495977 0.3109555 0.64752907 0.43029296 -0.23621525 -0.48801702 0.03904484 -0.108639434 0.28855172 -0.18970276 -0.36439794 0.036794707 -0.59189785 -0.017066542 0.4734448 -0.06812086 -0.040986907 -0.2606288 0.33796966 0.0302092 -0.62657356
28350 -0.10549356 -0.05766046 -0.013562661 -0.22489442 -0.15289891 0.026045745 -0.061329134 0.18926618 0.05590403 0.41920218 -0.16878337 -0.09103828 -0.007449258 -0.17953686 -0.17124264 -0.16447647 0.1678641 0.43814564 0.08120092 0.17117043 0.30034488 0.27265573 -0.0850552 -0.5196102 -0.2698786 -0.32004896 0.11411147 0.41114318 0.5479533 0.33092767 -0.083801806 -0.3014562 0.10156814 0.709161 -0.31741667 -0.2106599 -0.14337464 0.2542497 -0.008272503 0.5715344 0.22659568 -0.1447613 -0.5053759 0.0709064 0.33711594 0.16514936 -0.018141536 0.4634367 0.1350014 -0.29496688 -0.33974928 -0.09443942 -0.285704 -0.37404633 -0.081064545 0.79397213 -0.11125123 -0.092503004 0.1858839 -0.082764715 -0.8018833 -0.109927125 0.32996497 0.11726418 0.06796618 0.004357288 0.06679345 0.55491656 0.157771 -0.0002421909 -0.36776382 -0.03492536 0.35504198 -0.2550453 0.11448843 0.273846 0.4644667 0.11949795 0.22185765 0.09451712 0.13105126 -0.058038246 0.2756011 -0.17209494 0.28342092 -0.07926285 -0.17682104 0.32234037 0.07768784 0.25020757 -0.15722068 -0.12979445 -1.0066304 0.23643026 -0.1921024 -0.12976141 -0.064083256 0.26693845 0.010699482 0.4805917 0.1864309 -0.32675666 -0.12180812 -0.09285422 0.3188548 0.13821815 -0.02704475 -0.0085572535 0.105741255 0.20691036 0.084952466 0.20645744 0.120821714 0.5735164 -0.14534734 -0.2652783 -0.36390913 0.24081309 -0.13997772 -0.15987748 -0.16354679 -0.38640848 -0.082197614 -0.20494837 -0.94119406 0.99459106 0.07861475 0.012829043
6910 0.2633886 -0.4052597 0.051697895 0.6150234 0.233412 0.103416696 -0.08962612 0.031177629 -0.08043304 0.5604762 -0.15094548 0.30109307 -0.06244679 0.67516536 -0.2778645 -0.32572684 0.028688576 -0.3880646 0.19478963 0.14314461 0.1470735 0.2685416 -1.0266092 -0.09912562 -0.7000397 -0.18340564 0.29129863 0.04982594 0.35342273 -0.1114831 0.013801425 -0.29686913 -0.028409373 0.62000746 -0.35418513 0.29914436 -0.32061794 0.44085142 -0.6286147 0.2024651 0.3199793 -0.28993815 -0.2827451 0.31766585 -0.19205894 0.2674011 0.30407068 0.13240877 0.15971053 -0.32223532 0.007112474 -0.043888215 0.26978016 0.4050677 -0.41584912 0.38805872 -0.28568754 0.26837552 -0.09846309 -0.48082116 -0.8420846 -0.14866616 -0.48135254 0.20772883 -0.4401089 -0.16766632 0.60484725 0.0907892 0.039302994 -0.42625934 0.42262617 -0.1052993 -0.48961365 -0.057802368 -0.44611973 0.32059404 0.4756802 0.15337308 -0.09430959 -0.36337483 -0.3277533 0.25869024 0.03667409 -0.24398814 0.1166995 0.5719076 0.10137213 -0.17601721 0.43735525 0.07076662 0.084538005 -0.3531514 -0.8412353 -0.078498654 -0.33020824 -0.57191145 0.46980557 -0.5331406 -0.11634603 0.41190007 -0.83737874 -0.3555102 0.21598342 -0.08109889 -0.087867476 0.05298431 -0.2019292 0.11511106 -0.09079402 0.1789052 0.45654494 -0.409908 0.23035747 -0.2942533 -0.25551897 -0.5379811 -0.3063316 0.08172323 -0.04883331 -0.48587197 -0.14561357 -0.1386012 -0.071611516 0.06148759 -0.3412363 0.07337121 0.69514996 -0.29099315
5086 -0.0028597715 0.14839052 -0.126349 0.3323485 0.41407317 0.50735873 0.11528351 0.5791577 0.43292925 0.19310269 -0.47771776 0.52972835 0.07197559 0.20895591 -0.33885247 0.34291217 0.20318964 -0.20233029 0.35808086 -0.2593361 0.5958355 0.35017064 -0.23675813 0.09042452 0.07548933 -0.10172841 0.6129118 0.0288311 0.41907915 -0.10751644 0.07262327 -0.39890936 -0.20658958 0.2663348 0.22278848 0.1164163 -0.08599942 0.3720701 -0.20194727 -0.22265373 0.64892066 -0.5589912 -0.5029182 -0.15293685 0.44079047 -0.41413137 -0.25467592 -0.31348073 0.12542294 -0.17186111 0.17222553 -0.25852588 0.09069079 0.4821814 0.14934443 -0.3550955 0.518113 -0.34264603 -0.3148826 -0.5055281 -0.49326092 -0.14214568 0.18022685 0.11049795 0.20536241 0.34149373 -0.0004665689 0.041376263 0.24141552 -0.41586334 0.13576819 -0.14493613 0.2608089 0.11053462 0.13031615 0.21140166 -0.14608277 -0.17535758 -0.08523881 -0.070673384 -0.39232635 -0.5255283 -0.49081838 0.2986627 0.12344547 0.5778153 0.47028273 -8.004354e-05 0.18824229 0.1183227 -0.22513978 -0.30564132 -0.8439884 0.1953763 -0.67784274 -0.5380384 0.85674536 -0.25603327 0.23021764 0.28582826 0.013420018 0.13450597 0.31384045 -0.5973107 -0.02037885 -0.10238666 0.04436141 -0.006431737 0.07684653 0.56025565 0.4593569 -0.49215156 0.43591598 0.26794222 0.29225647 -0.083315976 -0.6144406 -0.15405275 0.28421187 -0.16877766 -0.4630274 0.16577838 0.36815578 0.25697115 -0.13636693 0.105995305 0.37896776 -0.11627426
17476 0.043345086 0.19540092 0.07023623 -0.4224071 -0.022689188 0.13339211 0.030256853 -0.4016444 0.11774815 0.36229894 -0.16051479 0.056967672 -0.14029716 0.010274242 -0.24122599 -0.04428885 0.29672104 0.45864514 0.1422273 -0.2996307 0.16690736 0.8070063 -0.008410015 -0.48639888 0.031822927 -0.5992726 0.079111 -0.07470868 0.50440055 -0.23239899 -0.031839382 -0.30196288 0.08650451 0.19708823 -0.14694981 -0.31524268 -0.19095656 0.03845692 0.19410467 0.49219295 0.16538766 -0.15023401 -0.24745789 0.38616198 0.0482473 0.27821657 -0.0034092758 0.34911186 0.40793884 0.041313842 -0.17140079 -0.1369378 -0.32088852 -0.014998372 -0.23479319 0.068993494 0.057335913 0.0077060834 -0.08771113 -0.026453586 -0.7643824 -0.3496732 0.56605756 -0.13758452 0.17194988 0.5034611 0.3208487 0.18998137 0.1056403 0.07994748 -0.29982898 -0.21135373 0.39860517 -0.03388032 0.11497333 0.2606978 0.2661799 0.22041322 -0.13091926 0.15797147 0.058925103 -0.3445987 0.30317676 -0.30436367 -0.012399524 0.15504271 0.019252786 -0.33185 -0.1331526 0.4995016 -0.35822603 0.08782169 -0.32914054 0.10869968 -0.018845992 0.23980926 0.19627924 -0.15461746 -0.11656178 0.7223018 0.4444104 -0.18529582 -0.36487007 0.44206482 -0.097135656 0.13987002 -0.31069946 -0.039572492 -0.07243334 0.84830934 -0.020476408 0.059399467 0.2619654 0.04222971 0.5482568 -0.25688493 -0.7509346 0.59431994 -0.08197337 -0.065800264 -0.15172884 -0.42466372 -0.2263578 -0.1260427 -0.5668096 0.24249709 -0.070213564 0.34275046
89547 -0.14470334 -0.03464239 0.15017758 0.18003897 0.42807925 0.062936164 0.017683763 0.5772367 0.09083914 -0.23837106 0.07477607 0.18921533 -0.025891598 -0.28081182 -0.32556164 -0.041344106 0.28909057 0.2776914 -0.031008005 -0.39821467 0.08904214 0.24110456 0.18659227 -0.301192 0.1059065 -0.33931288 -0.16820145 0.20879729 0.358293 0.73731434 0.15476845 -0.10175236 -0.15032993 0.11830766 -0.2890338 0.030582542 0.17768383 0.19669056 0.26043636 0.24609603 0.07246437 -0.024597041 -0.5070898 0.0046445616 0.24520387 0.24292958 -0.27119377 0.22246933 0.022817139 -0.30392575 -0.061465077 0.2795454 0.22625849 0.51486146 -0.13282762 0.63532454 -0.26840955 0.26034063 0.20801446 0.17907824 -0.3261576 -0.0057019643 -0.15937412 -0.05372559 -0.2546468 0.0016620624 0.3169013 0.6804924 -0.0454039 -0.22328675 -0.17564172 -0.40970415 0.4404552 0.09545764 -0.18247771 -0.013198256 0.06637393 0.07041127 -0.17251936 -0.4412758 0.20108195 -0.15149722 0.39672175 -0.40866575 -0.087873675 0.17489137 0.5074288 0.104647785 0.31071693 0.5745613 -0.40360802 -0.073905565 -0.5356983 0.06655466 0.16459702 0.046423424 -0.1663074 0.19366542 0.24014439 0.4016951 0.32917035 -0.43152252 -0.11606188 -0.47256532 0.27008706 -0.47355774 0.39032045 0.57800585 0.077613845 0.5534734 0.35038123 -0.28572503 -0.019051563 0.17977552 0.24108613 -0.05068465 -0.10322746 -0.08594849 -0.050923705 -0.59337956 0.25257626 0.081363775 0.019240268 -0.11057038 -1.1978017 0.4420376 -0.15670413 -0.4083476
18777 0.18311673 0.09291338 -0.09629494 0.027066141 0.40230012 0.24248418 -0.08023213 0.4141378 0.21314625 -0.08876903 -0.081062816 0.20706823 0.26255777 -0.22377063 -0.2616242 0.001217976 0.10741201 0.3421518 0.3165722 -0.38739565 0.22442861 0.35696018 -0.21795028 -0.06070268 -0.022198826 -0.16198006 0.39999133 -0.21040736 0.4723726 -0.36704397 0.16738729 -0.17542806 0.33831894 0.3612664 0.19578665 0.22872546 -0.037496157 0.27395582 0.21784478 0.026995063 0.15162593 -0.63248664 -0.4508174 0.061520882 0.16187562 -0.03911632 -0.13127424 -0.122293174 0.32443234 -0.04971741 -0.04528401 -0.15985048 -0.33712947 -0.057155687 -0.25483721 0.06668286 -0.022746885 0.0100037865 -0.18388239 -0.08137129 -0.8162947 0.09241945 0.7429647 -0.042709693 -0.08496409 0.55996794 0.34362727 0.028758109 -0.1208262 0.09570337 -0.2811137 0.1318765 0.34601688 0.2546969 -0.070504084 0.12816156 0.23662327 0.13110757 -0.43635133 -0.32074723 0.004630879 -0.24478246 0.28396392 0.020379549 0.032096565 0.24810322 0.059260357 -0.15581207 0.15291077 0.0031904154 -0.039793234 0.33415705 -0.7422668 0.11716613 -0.45054546 -0.15140975 0.53382236 0.11809943 0.5180758 0.91999626 0.6225702 -0.15143315 -0.11320752 -0.32714367 -0.40129933 0.78165674 -0.08521279 0.01914259 0.4547438 1.1164551 0.2558912 0.07755388 -0.16423818 0.5459039 0.36875343 -0.21053128 -0.36915815 -0.069902845 -0.45834556 0.027257925 -0.20471221 -0.46639207 0.06888258 0.20210284 -0.6457183 0.18902822 0.23740259 0.09217101
65074 0.044185948 0.15688239 -0.47688204 0.20205747 0.034937188 0.14860749 -0.22568317 0.33422056 -0.07953532 -0.3664119 0.01672359 0.97135335 -0.31095845 0.15874724 -0.43966255 -0.106826894 0.8470739 -0.019424442 0.053729855 0.6387151 0.32289603 0.10918244 -0.38436002 0.16041316 -0.11162861 -0.3696231 -0.22619733 0.59456277 0.17324089 -0.034213167 -0.5658699 -0.5612469 0.15821247 -0.045315098 -0.17908055 0.1779487 0.047230672 0.23899181 -0.13130188 0.1336368 0.18052377 -1.0612477 -0.8451289 0.12025647 -0.016859915 -0.04584629 -0.4269799 0.17458056 0.016697532 -0.57486594 0.25444186 0.3342981 -0.2708065 -0.04147923 0.15976942 0.035033204 0.5827457 -0.022795247 0.73440856 -0.63432044 -1.0821695 0.21481858 0.29546875 0.024858188 -0.2503596 0.7531304 0.095412135 0.72100145 -0.27141628 -0.252594 0.8412345 -0.34205452 0.3868929 0.17032534 0.22056554 0.0044457 0.32563215 0.3298888 -0.00925325 -0.32939842 -0.5666869 -0.15132721 0.09534845 0.1456487 0.16348022 0.06991601 0.35003722 0.20469856 0.56685567 0.6221491 -0.51633453 0.029114665 -0.67520136 -0.08446714 -0.29169688 -0.29137585 0.6505508 0.25518578 0.687 0.5894393 0.044270482 -0.63861835 0.38493446 0.010985901 -0.14396456 -0.2347684 -0.16168717 0.046596784 0.33837143 0.27786687 0.21031353 0.25235316 0.6724772 -0.21449026 -0.5778498 -0.20199679 -1.2635084 0.10237834 0.34316495 -0.53197783 -0.87188095 0.5103929 -0.31516957 0.3051931 0.3297353 0.43035552 0.015545401 -0.114378475
6184 -0.33443284 -0.3948742 -0.019087335 -0.11003019 -0.048700985 -0.22326478 0.077812664 0.07956255 -0.009568165 0.11108592 0.04760101 -0.18041146 0.2976124 -0.056465648 -0.13453764 -0.21625009 0.21047357 0.19258365 0.3366149 0.042772632 0.20735557 -0.033594906 0.042142846 -0.07117823 -0.25835213 -0.22433543 0.26927537 0.6187655 0.30008638 0.009217277 -0.055485006 -0.0997209 0.103623025 0.3377139 -0.0935561 -0.07444216 0.15151916 0.036681324 -0.11082127 0.55831116 -0.08412566 0.092173226 -0.10899565 0.12400525 -0.105426505 0.1405267 0.17376727 0.092710674 0.3274166 -0.053516373 -0.55187446 -0.44629067 0.18695612 0.33881524 -0.3944762 0.661105 -0.0648122 -0.30464947 0.36543825 -0.35877985 -0.5324562 -0.19711141 0.2428634 0.31930092 -0.18294403 -0.21244189 0.3033749 0.624148 0.23551546 -0.38682935 -0.25391856 0.13292104 -0.20397174 -0.09562546 -0.46845493 0.23461029 0.34173802 0.2609912 -0.31802788 0.28481877 0.16698454 -0.6057703 0.033902965 -0.2180499 0.05557749 0.32616588 0.016922072 0.33649334 -0.05000083 0.10112899 0.26087058 -0.020463346 -0.5358398 0.2520364 0.028797409 0.026968392 -0.2606493 0.08431171 -0.24493723 0.43514663 0.0423495 -0.18447039 0.13149053 0.008932269 -0.12552086 0.12113072 -0.11718124 -0.071777076 0.26157564 0.24230167 0.51138455 0.2812994 0.09019791 0.5692322 -0.10642481 -0.099189825 -0.60090965 0.055118598 0.053958945 -0.17445505 0.12195357 -0.27779734 -0.05216779 -0.09027439 -0.21085206 0.4731276 0.50930595 0.22231688
153063 -0.38556355 -0.2036819 0.4830818 -0.16096951 0.3731515 0.27438986 0.070516214 0.046568673 0.54187405 0.14955539 -0.65312046 0.5947223 0.084315315 0.019167583 -0.32985085 0.27789336 0.36390096 -0.5799931 0.0066163368 -0.49424168 0.9092131 0.3169122 -0.7985074 -0.40146276 0.23769088 -0.3245995 0.34822324 0.089445 0.30292255 0.09266705 -0.04399234 -0.50538623 -0.11708557 0.19241013 -0.1997316 0.3722324 0.087273814 0.095059134 -0.57276225 0.18442547 0.17636673 -0.55196196 -0.013833619 -0.097601615 0.26094392 -0.24452212 -0.20557699 -0.071129896 -0.2562493 0.2877647 0.061313886 0.15738435 -0.07981846 0.35008582 0.052413434 -0.22830816 0.22230777 -0.17673346 -0.23121749 -0.6354454 -0.40484807 -0.08816049 0.25616363 0.2540264 -0.07519722 0.606104 0.092062406 -0.5783007 0.15370399 -0.65795296 0.43311438 -0.571421 0.068948045 0.19136786 0.20037208 0.07664611 0.09367038 0.17462179 0.16766047 0.32473212 -0.087381236 -0.42923695 -0.31255546 0.18276909 0.26951 0.6566854 0.49656022 -0.114981614 0.006075669 -0.10659114 -0.52016103 -0.50150543 -0.9261111 0.089988396 -0.99871314 -0.9665837 1.1248062 -0.18819682 -0.008027889 0.27647215 -0.43507737 0.14000833 0.39432186 -0.8218952 -0.26402453 0.41712165 -0.44132972 -0.3742304 -0.17242561 0.5087804 0.51886487 -0.5942067 0.38988534 0.307962 0.18740523 -0.17070521 -0.73291004 0.03748427 0.05260562 -0.15722531 -0.67040735 0.22095788 0.046660077 0.09097322 -0.3959552 -0.052688107 0.54921204 -0.2493051
